~o
<STREAMINFO> 1 25
<VECSIZE> 25<NULLD><MFCC_D_N_Z_0><DIAGC>
~t "T_b"
<TRANSP> 5
 0.000000e+000 1.000000e+000 0.000000e+000 0.000000e+000 0.000000e+000
 0.000000e+000 6.409916e-001 3.590083e-001 0.000000e+000 0.000000e+000
 0.000000e+000 0.000000e+000 5.085369e-001 4.914632e-001 0.000000e+000
 0.000000e+000 0.000000e+000 0.000000e+000 5.492048e-001 4.507952e-001
 0.000000e+000 0.000000e+000 0.000000e+000 0.000000e+000 0.000000e+000
~t "T_d"
<TRANSP> 5
 0.000000e+000 1.000000e+000 0.000000e+000 0.000000e+000 0.000000e+000
 0.000000e+000 7.591707e-001 2.408293e-001 0.000000e+000 0.000000e+000
 0.000000e+000 0.000000e+000 6.818305e-001 3.181696e-001 0.000000e+000
 0.000000e+000 0.000000e+000 0.000000e+000 5.490791e-001 4.509209e-001
 0.000000e+000 0.000000e+000 0.000000e+000 0.000000e+000 0.000000e+000
~t "T_g"
<TRANSP> 5
 0.000000e+000 1.000000e+000 0.000000e+000 0.000000e+000 0.000000e+000
 0.000000e+000 6.618079e-001 3.381921e-001 0.000000e+000 0.000000e+000
 0.000000e+000 0.000000e+000 7.162030e-001 2.837969e-001 0.000000e+000
 0.000000e+000 0.000000e+000 0.000000e+000 7.185423e-001 2.814577e-001
 0.000000e+000 0.000000e+000 0.000000e+000 0.000000e+000 0.000000e+000
~t "T_h"
<TRANSP> 5
 0.000000e+000 1.000000e+000 0.000000e+000 0.000000e+000 0.000000e+000
 0.000000e+000 8.615305e-001 1.384695e-001 0.000000e+000 0.000000e+000
 0.000000e+000 0.000000e+000 6.695802e-001 3.304198e-001 0.000000e+000
 0.000000e+000 0.000000e+000 0.000000e+000 8.594291e-001 1.405708e-001
 0.000000e+000 0.000000e+000 0.000000e+000 0.000000e+000 0.000000e+000
~t "T_j"
<TRANSP> 5
 0.000000e+000 1.000000e+000 0.000000e+000 0.000000e+000 0.000000e+000
 0.000000e+000 8.923125e-001 1.076875e-001 0.000000e+000 0.000000e+000
 0.000000e+000 0.000000e+000 7.516047e-001 2.483952e-001 0.000000e+000
 0.000000e+000 0.000000e+000 0.000000e+000 6.940321e-001 3.059679e-001
 0.000000e+000 0.000000e+000 0.000000e+000 0.000000e+000 0.000000e+000
~t "T_k"
<TRANSP> 5
 0.000000e+000 1.000000e+000 0.000000e+000 0.000000e+000 0.000000e+000
 0.000000e+000 7.940359e-001 2.059641e-001 0.000000e+000 0.000000e+000
 0.000000e+000 0.000000e+000 5.449805e-001 4.550195e-001 0.000000e+000
 0.000000e+000 0.000000e+000 0.000000e+000 6.482001e-001 3.517999e-001
 0.000000e+000 0.000000e+000 0.000000e+000 0.000000e+000 0.000000e+000
~t "T_l"
<TRANSP> 5
 0.000000e+000 1.000000e+000 0.000000e+000 0.000000e+000 0.000000e+000
 0.000000e+000 6.644929e-001 3.355070e-001 0.000000e+000 0.000000e+000
 0.000000e+000 0.000000e+000 7.605090e-001 2.394910e-001 0.000000e+000
 0.000000e+000 0.000000e+000 0.000000e+000 6.823872e-001 3.176128e-001
 0.000000e+000 0.000000e+000 0.000000e+000 0.000000e+000 0.000000e+000
~t "T_m"
<TRANSP> 5
 0.000000e+000 1.000000e+000 0.000000e+000 0.000000e+000 0.000000e+000
 0.000000e+000 6.471519e-001 3.528481e-001 0.000000e+000 0.000000e+000
 0.000000e+000 0.000000e+000 7.784380e-001 2.215619e-001 0.000000e+000
 0.000000e+000 0.000000e+000 0.000000e+000 6.502087e-001 3.497913e-001
 0.000000e+000 0.000000e+000 0.000000e+000 0.000000e+000 0.000000e+000
~t "T_n"
<TRANSP> 5
 0.000000e+000 1.000000e+000 0.000000e+000 0.000000e+000 0.000000e+000
 0.000000e+000 5.721582e-001 4.278419e-001 0.000000e+000 0.000000e+000
 0.000000e+000 0.000000e+000 7.684526e-001 2.315474e-001 0.000000e+000
 0.000000e+000 0.000000e+000 0.000000e+000 7.236469e-001 2.763531e-001
 0.000000e+000 0.000000e+000 0.000000e+000 0.000000e+000 0.000000e+000
~t "T_o"
<TRANSP> 5
 0.000000e+000 1.000000e+000 0.000000e+000 0.000000e+000 0.000000e+000
 0.000000e+000 8.951276e-001 1.048724e-001 0.000000e+000 0.000000e+000
 0.000000e+000 0.000000e+000 8.833026e-001 1.166974e-001 0.000000e+000
 0.000000e+000 0.000000e+000 0.000000e+000 6.686881e-001 3.313119e-001
 0.000000e+000 0.000000e+000 0.000000e+000 0.000000e+000 0.000000e+000
~t "T_p"
<TRANSP> 5
 0.000000e+000 1.000000e+000 0.000000e+000 0.000000e+000 0.000000e+000
 0.000000e+000 6.963924e-001 3.036076e-001 0.000000e+000 0.000000e+000
 0.000000e+000 0.000000e+000 8.587458e-001 1.412542e-001 0.000000e+000
 0.000000e+000 0.000000e+000 0.000000e+000 7.252907e-001 2.747093e-001
 0.000000e+000 0.000000e+000 0.000000e+000 0.000000e+000 0.000000e+000
~t "T_r"
<TRANSP> 5
 0.000000e+000 1.000000e+000 0.000000e+000 0.000000e+000 0.000000e+000
 0.000000e+000 6.404533e-001 3.595467e-001 0.000000e+000 0.000000e+000
 0.000000e+000 0.000000e+000 6.988197e-001 3.011804e-001 0.000000e+000
 0.000000e+000 0.000000e+000 0.000000e+000 6.987715e-001 3.012285e-001
 0.000000e+000 0.000000e+000 0.000000e+000 0.000000e+000 0.000000e+000
~t "T_s"
<TRANSP> 5
 0.000000e+000 1.000000e+000 0.000000e+000 0.000000e+000 0.000000e+000
 0.000000e+000 7.537241e-001 2.462759e-001 0.000000e+000 0.000000e+000
 0.000000e+000 0.000000e+000 9.029421e-001 9.705790e-002 0.000000e+000
 0.000000e+000 0.000000e+000 0.000000e+000 6.929385e-001 3.070614e-001
 0.000000e+000 0.000000e+000 0.000000e+000 0.000000e+000 0.000000e+000
~t "T_t"
<TRANSP> 5
 0.000000e+000 1.000000e+000 0.000000e+000 0.000000e+000 0.000000e+000
 0.000000e+000 8.671656e-001 1.328344e-001 0.000000e+000 0.000000e+000
 0.000000e+000 0.000000e+000 8.499642e-001 1.500358e-001 0.000000e+000
 0.000000e+000 0.000000e+000 0.000000e+000 7.001255e-001 2.998746e-001
 0.000000e+000 0.000000e+000 0.000000e+000 0.000000e+000 0.000000e+000
~t "T_w"
<TRANSP> 5
 0.000000e+000 1.000000e+000 0.000000e+000 0.000000e+000 0.000000e+000
 0.000000e+000 4.112512e-001 5.887488e-001 0.000000e+000 0.000000e+000
 0.000000e+000 0.000000e+000 7.090033e-001 2.909967e-001 0.000000e+000
 0.000000e+000 0.000000e+000 0.000000e+000 6.512459e-001 3.487541e-001
 0.000000e+000 0.000000e+000 0.000000e+000 0.000000e+000 0.000000e+000
~t "T_y"
<TRANSP> 5
 0.000000e+000 1.000000e+000 0.000000e+000 0.000000e+000 0.000000e+000
 0.000000e+000 6.167588e-001 3.832412e-001 0.000000e+000 0.000000e+000
 0.000000e+000 0.000000e+000 8.060439e-001 1.939561e-001 0.000000e+000
 0.000000e+000 0.000000e+000 0.000000e+000 7.531677e-001 2.468323e-001
 0.000000e+000 0.000000e+000 0.000000e+000 0.000000e+000 0.000000e+000
~t "T_aa"
<TRANSP> 5
 0.000000e+000 1.000000e+000 0.000000e+000 0.000000e+000 0.000000e+000
 0.000000e+000 7.504638e-001 2.495362e-001 0.000000e+000 0.000000e+000
 0.000000e+000 0.000000e+000 9.026909e-001 9.730902e-002 0.000000e+000
 0.000000e+000 0.000000e+000 0.000000e+000 9.062234e-001 9.377669e-002
 0.000000e+000 0.000000e+000 0.000000e+000 0.000000e+000 0.000000e+000
~t "T_ae"
<TRANSP> 5
 0.000000e+000 1.000000e+000 0.000000e+000 0.000000e+000 0.000000e+000
 0.000000e+000 2.613871e-001 7.386129e-001 0.000000e+000 0.000000e+000
 0.000000e+000 0.000000e+000 4.698626e-001 5.301374e-001 0.000000e+000
 0.000000e+000 0.000000e+000 0.000000e+000 8.890741e-001 1.109258e-001
 0.000000e+000 0.000000e+000 0.000000e+000 0.000000e+000 0.000000e+000
~t "T_ah"
<TRANSP> 5
 0.000000e+000 1.000000e+000 0.000000e+000 0.000000e+000 0.000000e+000
 0.000000e+000 6.654235e-001 3.345765e-001 0.000000e+000 0.000000e+000
 0.000000e+000 0.000000e+000 7.330067e-001 2.669933e-001 0.000000e+000
 0.000000e+000 0.000000e+000 0.000000e+000 8.261993e-001 1.738007e-001
 0.000000e+000 0.000000e+000 0.000000e+000 0.000000e+000 0.000000e+000
~t "T_ao"
<TRANSP> 5
 0.000000e+000 1.000000e+000 0.000000e+000 0.000000e+000 0.000000e+000
 0.000000e+000 5.776061e-001 4.223939e-001 0.000000e+000 0.000000e+000
 0.000000e+000 0.000000e+000 6.287443e-001 3.712557e-001 0.000000e+000
 0.000000e+000 0.000000e+000 0.000000e+000 9.160843e-001 8.391564e-002
 0.000000e+000 0.000000e+000 0.000000e+000 0.000000e+000 0.000000e+000
~t "T_ch"
<TRANSP> 5
 0.000000e+000 1.000000e+000 0.000000e+000 0.000000e+000 0.000000e+000
 0.000000e+000 8.032198e-001 1.967802e-001 0.000000e+000 0.000000e+000
 0.000000e+000 0.000000e+000 6.347592e-001 3.652408e-001 0.000000e+000
 0.000000e+000 0.000000e+000 0.000000e+000 9.063639e-001 9.363609e-002
 0.000000e+000 0.000000e+000 0.000000e+000 0.000000e+000 0.000000e+000
~t "T_eh"
<TRANSP> 5
 0.000000e+000 1.000000e+000 0.000000e+000 0.000000e+000 0.000000e+000
 0.000000e+000 6.601852e-001 3.398149e-001 0.000000e+000 0.000000e+000
 0.000000e+000 0.000000e+000 8.845594e-001 1.154406e-001 0.000000e+000
 0.000000e+000 0.000000e+000 0.000000e+000 8.816764e-001 1.183236e-001
 0.000000e+000 0.000000e+000 0.000000e+000 0.000000e+000 0.000000e+000
~t "T_ih"
<TRANSP> 5
 0.000000e+000 1.000000e+000 0.000000e+000 0.000000e+000 0.000000e+000
 0.000000e+000 7.127076e-001 2.872923e-001 0.000000e+000 0.000000e+000
 0.000000e+000 0.000000e+000 7.941793e-001 2.058206e-001 0.000000e+000
 0.000000e+000 0.000000e+000 0.000000e+000 8.291720e-001 1.708280e-001
 0.000000e+000 0.000000e+000 0.000000e+000 0.000000e+000 0.000000e+000
~t "T_iy"
<TRANSP> 5
 0.000000e+000 1.000000e+000 0.000000e+000 0.000000e+000 0.000000e+000
 0.000000e+000 9.210739e-001 7.892618e-002 0.000000e+000 0.000000e+000
 0.000000e+000 0.000000e+000 8.980912e-001 1.019088e-001 0.000000e+000
 0.000000e+000 0.000000e+000 0.000000e+000 9.150261e-001 8.497385e-002
 0.000000e+000 0.000000e+000 0.000000e+000 0.000000e+000 0.000000e+000
~t "T_th"
<TRANSP> 5
 0.000000e+000 1.000000e+000 0.000000e+000 0.000000e+000 0.000000e+000
 0.000000e+000 8.486003e-001 1.513996e-001 0.000000e+000 0.000000e+000
 0.000000e+000 0.000000e+000 7.740911e-001 2.259089e-001 0.000000e+000
 0.000000e+000 0.000000e+000 0.000000e+000 5.919610e-001 4.080391e-001
 0.000000e+000 0.000000e+000 0.000000e+000 0.000000e+000 0.000000e+000
~t "T_uh"
<TRANSP> 5
 0.000000e+000 1.000000e+000 0.000000e+000 0.000000e+000 0.000000e+000
 0.000000e+000 4.528597e-001 5.471404e-001 0.000000e+000 0.000000e+000
 0.000000e+000 0.000000e+000 7.330177e-001 2.669823e-001 0.000000e+000
 0.000000e+000 0.000000e+000 0.000000e+000 8.177585e-001 1.822415e-001
 0.000000e+000 0.000000e+000 0.000000e+000 0.000000e+000 0.000000e+000
~s "ST_aa_2_1"
<MEAN> 25
 2.629564e+000 -9.688252e+000 -5.357829e+000 -1.189929e+001 1.017564e+001 3.503634e+000 9.799107e-001 4.414780e+000 3.176394e+000 -5.722601e-001 -7.395131e+000 -2.927640e+000 3.757855e-002 -4.967571e-001 -4.233751e-001 -2.787652e-001 9.214628e-001 6.196965e-001 8.136203e-001 -8.366349e-001 -2.461713e-001 -9.377283e-002 -2.005669e-001 1.560830e-001 1.903824e-001
<VARIANCE> 25
 6.072552e+000 1.043695e+001 2.320054e+001 1.626813e+001 1.671991e+001 3.180441e+001 2.722077e+001 2.744156e+001 3.790041e+001 2.467521e+001 3.287568e+001 2.468329e+001 2.588450e-001 8.021343e-001 9.407262e-001 9.965756e-001 1.396282e+000 1.051415e+000 1.826789e+000 1.698259e+000 1.331051e+000 1.489388e+000 1.254099e+000 1.090505e+000 4.725877e-001
<GCONST> 8.258874e+001
~s "ST_aa_3_1"
<MEAN> 25
 3.241070e+000 -9.377520e+000 -6.642921e+000 -1.300155e+001 1.309700e+001 9.158429e+000 2.389230e+000 -3.577832e+000 4.914937e+000 -3.583263e+000 -5.161936e+000 -1.310732e-001 7.785312e-003 2.319127e-002 -1.642955e-002 3.744143e-002 5.118039e-002 -1.656546e-002 -6.129940e-002 -9.963986e-002 1.811157e-001 4.376888e-002 -1.263716e-001 -1.512338e-002 -1.052701e-001
<VARIANCE> 25
 7.100539e+000 1.075113e+001 1.859187e+001 2.199479e+001 2.388958e+001 2.770154e+001 2.609982e+001 2.281410e+001 2.939953e+001 2.410770e+001 2.160037e+001 2.697270e+001 1.392021e-001 2.894936e-001 4.079756e-001 5.508572e-001 5.923181e-001 8.499161e-001 7.288110e-001 7.064158e-001 4.373761e-001 5.909259e-001 5.822657e-001 7.310507e-001 2.547760e-001
<GCONST> 7.248193e+001
~s "ST_aa_4_1"
<MEAN> 25
 -1.620944e-001 -3.480863e+000 -1.283115e+001 -1.195675e+000 9.474001e+000 4.082421e+000 3.920826e+000 8.280320e-002 5.088813e+000 -5.342961e+000 -5.644127e+000 -9.014195e-001 -2.065179e-001 4.109711e-001 -2.604457e-001 7.643605e-001 -4.369979e-001 -2.091561e-001 -1.360170e-001 2.593787e-001 1.850663e-003 -1.307210e-001 1.759107e-001 3.696921e-002 -8.564809e-001
<VARIANCE> 25
 1.804902e+001 2.351715e+001 3.433793e+001 5.731760e+001 3.812176e+001 4.207581e+001 2.867565e+001 2.967782e+001 2.740762e+001 3.755313e+001 3.229382e+001 3.053853e+001 5.137718e-001 1.402322e+000 1.257572e+000 1.721983e+000 1.849210e+000 1.739291e+000 2.325153e+000 2.307487e+000 1.937856e+000 1.852701e+000 1.821196e+000 1.954035e+000 1.033450e+000
<GCONST> 9.341327e+001
~s "ST_s_2_1"
<MEAN> 25
 -8.276962e+000 7.915133e+000 -7.459593e+000 9.084846e+000 2.951299e+000 -6.195923e+000 9.677171e+000 4.690808e-001 4.199550e+000 -3.765452e+000 3.439916e+000 3.773137e-001 -4.044586e+000 2.232625e+000 -2.261603e+000 1.924216e+000 -1.912821e-001 -9.092939e-001 2.014256e+000 -9.895466e-002 6.817756e-001 -1.414709e+000 1.757655e+000 -2.266432e-001 6.748355e-001
<VARIANCE> 25
 5.758791e+001 4.248298e+001 5.272868e+001 5.499118e+001 3.816650e+001 2.864758e+001 6.731247e+001 5.772535e+001 4.380457e+001 4.822741e+001 4.140574e+001 2.411114e+001 2.329224e+000 5.447278e+000 3.665092e+000 6.415110e+000 3.432855e+000 3.608270e+000 4.227115e+000 4.551990e+000 3.934385e+000 3.843720e+000 3.103591e+000 2.395782e+000 2.827951e+000
<GCONST> 1.084794e+002
~s "ST_s_3_1"
<MEAN> 25
 -2.361120e+001 1.246485e+001 -1.466245e+001 1.168850e+001 3.054518e+000 -6.763913e+000 1.326483e+001 1.614202e+000 3.884944e+000 -5.212137e+000 7.049155e+000 2.539206e+000 -3.933377e-001 -3.030625e-001 2.066157e-002 -5.902727e-002 -7.275891e-002 -1.061495e-002 -1.094778e-001 1.371794e-001 -1.992375e-002 -6.264848e-002 -2.649431e-003 2.298755e-001 1.930667e-001
<VARIANCE> 25
 1.798767e+001 2.299410e+001 3.336110e+001 3.750370e+001 3.966086e+001 2.874752e+001 3.730350e+001 4.992251e+001 3.007131e+001 2.480609e+001 2.588648e+001 2.054396e+001 1.897273e+000 1.823697e+000 1.540968e+000 1.312261e+000 1.548813e+000 1.521519e+000 1.680103e+000 1.736299e+000 1.752140e+000 1.722044e+000 1.714161e+000 1.384218e+000 4.293838e-001
<GCONST> 9.155936e+001
~s "ST_s_4_1"
<MEAN> 25
 -1.178649e+001 5.276590e+000 -7.896503e+000 6.720336e+000 1.570069e+000 -6.185867e+000 6.263043e+000 9.459803e-001 5.023722e+000 -5.095001e+000 3.160173e+000 -6.748304e-001 5.597587e+000 -1.999050e+000 2.948508e+000 -2.816440e+000 -4.286473e-001 1.314846e+000 -3.434111e+000 -6.240101e-001 -2.171543e-001 9.768869e-001 -1.003410e+000 -2.155840e+000 1.673951e+000
<VARIANCE> 25
 9.032578e+001 2.243463e+001 4.684805e+001 5.732309e+001 3.114079e+001 3.192105e+001 8.716023e+001 3.617164e+001 3.568222e+001 2.818221e+001 3.305991e+001 3.305263e+001 2.306090e+000 2.424780e+000 5.224409e+000 6.019295e+000 4.027359e+000 3.147565e+000 3.678889e+000 5.229668e+000 3.373663e+000 2.752781e+000 3.745376e+000 2.709389e+000 3.102192e+000
<GCONST> 1.066684e+002
~s "ST_uh_2_1"
<MEAN> 25
 3.880152e+000 4.160913e+000 4.927970e+000 -2.133730e+000 -3.041009e+000 9.274984e-001 -1.044191e+001 -4.984347e+000 -3.930263e+000 1.733227e+000 6.910579e+000 -2.258938e+000 2.002950e+000 -4.021072e-001 1.637122e+000 -2.449914e+000 -2.082209e-001 2.188051e+000 -3.136534e+000 -2.944303e-001 -2.410724e+000 3.082289e+000 9.481177e-001 -1.218970e-001 8.213386e-001
<VARIANCE> 25
 1.515084e+001 1.949198e+001 3.129753e+001 4.374051e+001 2.340356e+001 6.115514e+001 4.369585e+001 2.831583e+001 5.590729e+001 3.791748e+001 3.845152e+001 2.131726e+001 4.329806e+000 1.708558e+000 3.424942e+000 3.266217e+000 3.315288e+000 4.392675e+000 5.541912e+000 6.954318e+000 3.539018e+000 4.901235e+000 3.146644e+000 1.857720e+000 1.036853e+000
<GCONST> 1.030131e+002
~s "ST_uh_3_1"
<MEAN> 25
 6.553178e+000 2.984409e+000 6.024936e+000 -6.941032e+000 -3.575054e+000 7.777967e+000 -1.354682e+001 -4.603898e+000 -9.784219e+000 5.642519e+000 9.326797e+000 -1.821039e+000 3.124769e-001 -1.469402e-001 -2.874103e-001 -7.272137e-002 -2.083952e-001 8.275466e-001 1.970500e-001 -1.564479e-001 -5.104415e-001 6.764176e-001 -3.130502e-001 3.527847e-001 -2.479537e-001
<VARIANCE> 25
 7.756193e+000 1.471062e+001 2.094663e+001 2.546058e+001 3.267004e+001 3.027635e+001 4.192781e+001 2.426514e+001 5.596873e+001 3.718768e+001 2.863806e+001 2.196823e+001 3.342107e-001 6.563135e-001 6.022892e-001 3.185554e+000 2.179500e+000 1.986064e+000 1.855599e+000 2.220571e+000 2.403679e+000 1.963478e+000 2.483833e+000 1.097535e+000 2.324500e-001
<GCONST> 8.798125e+001
~s "ST_uh_4_1"
<MEAN> 25
 6.657283e+000 5.527775e+000 -1.031195e+000 -2.852987e+000 -1.532885e-001 5.937204e+000 -9.202765e+000 -2.582632e+000 -7.055875e+000 4.539611e+000 3.949151e+000 -7.154610e-001 -2.699613e-001 4.042421e-001 -6.754566e-001 1.189616e+000 1.827126e-001 -6.701450e-001 7.332903e-001 -3.194155e-001 8.454400e-001 -4.975645e-001 -4.756845e-001 1.080410e-001 -9.635245e-001
<VARIANCE> 25
 9.801825e+000 2.430113e+001 3.645124e+001 4.497480e+001 3.245131e+001 3.097957e+001 4.822535e+001 4.280354e+001 4.847845e+001 3.652828e+001 3.231486e+001 2.234064e+001 4.869238e-001 1.775568e+000 1.665803e+000 3.000803e+000 1.318982e+000 1.502275e+000 3.257446e+000 2.336602e+000 2.639905e+000 2.358665e+000 2.350397e+000 1.752474e+000 1.310118e+000
<GCONST> 9.512052e+001
~s "ST_l_2_1"
<MEAN> 25
 3.436946e+000 -4.478983e+000 2.680049e+000 -9.456367e+000 2.262965e+000 4.938095e+000 -9.448339e+000 -3.185981e-001 6.363881e+000 7.410507e-001 -2.241726e+000 -2.700234e+000 5.294431e-001 5.810287e-001 1.247644e+000 -3.164825e-001 -4.141659e-001 -1.683917e-001 -2.318219e+000 -7.745798e-001 1.411741e-001 1.335927e+000 6.612304e-001 7.007072e-002 -7.154605e-001
<VARIANCE> 25
 1.233806e+001 4.851966e+001 6.622119e+001 4.587670e+001 4.302976e+001 4.992261e+001 4.332098e+001 3.549541e+001 3.507080e+001 4.510023e+001 4.444235e+001 2.551542e+001 3.402206e-001 1.054193e+000 1.126030e+000 1.682572e+000 4.651642e+000 3.874642e+000 2.171288e+000 3.843165e+000 2.156888e+000 3.254111e+000 6.937016e+000 1.592295e+000 2.786272e-001
<GCONST> 9.747036e+001
~s "ST_l_3_1"
<MEAN> 25
 3.852248e+000 -2.608178e+000 8.478543e+000 -8.971657e+000 9.944799e-001 1.378307e-001 -1.577902e+001 -4.479174e-002 3.796131e+000 3.002079e+000 9.192969e-001 -3.342634e-001 4.157661e-002 1.232730e-001 1.451961e-003 -9.454867e-003 1.817149e-001 -3.779157e-003 -4.332125e-001 1.230996e-001 -1.137567e-001 1.191068e-001 9.643942e-002 -7.951393e-002 -1.798419e-001
<VARIANCE> 25
 1.323909e+001 2.161149e+001 3.474520e+001 3.694654e+001 2.853586e+001 5.827064e+001 3.260727e+001 4.441011e+001 3.876125e+001 5.379236e+001 3.420687e+001 2.936449e+001 2.561997e-001 5.856189e-001 1.063894e+000 1.162466e+000 1.207025e+000 9.590976e-001 1.437890e+000 1.523063e+000 1.165950e+000 2.046870e+000 8.662061e-001 1.098238e+000 2.621787e-001
<GCONST> 8.673695e+001
~s "ST_l_4_1"
<MEAN> 25
 2.954639e+000 -1.423552e+000 3.924363e+000 -5.607365e+000 3.154927e-001 1.917143e+000 -1.218395e+001 1.793480e+000 6.570095e+000 -4.653050e-001 7.618862e-001 -1.662318e+000 -3.916986e-001 -6.978521e-001 -1.591944e+000 2.065057e-001 -1.690600e-001 -4.447324e-001 2.897010e+000 1.464062e+000 5.864348e-001 -7.572315e-001 -1.020936e+000 8.970868e-003 7.441388e-001
<VARIANCE> 25
 1.328025e+001 2.572517e+001 6.127946e+001 5.292987e+001 4.675794e+001 4.465672e+001 7.503681e+001 5.178655e+001 4.182825e+001 4.447768e+001 3.840791e+001 2.937922e+001 5.255532e-001 1.618916e+000 3.110753e+000 1.715928e+000 4.497341e+000 3.017083e+000 6.105424e+000 4.738223e+000 2.442018e+000 5.158969e+000 5.154916e+000 3.410703e+000 1.316607e+000
<GCONST> 1.034927e+002
~s "ST_y_2_1"
<MEAN> 25
 6.261743e-001 -4.028359e+000 1.420824e+001 -4.753315e+000 -8.734774e+000 -4.716846e+000 -2.244054e+000 6.424450e+000 -6.942549e+000 2.579793e+000 5.239119e+000 2.886455e+000 -9.656504e-002 -9.205847e-001 2.986129e-001 -9.726572e-001 -6.594934e-001 -5.949564e-001 1.152702e+000 1.166422e+000 -1.659324e-001 3.725989e-001 -1.445272e-001 5.275880e-001 9.142905e-001
<VARIANCE> 25
 1.313729e+001 3.302809e+001 4.009251e+001 1.333166e+001 2.461533e+001 1.713577e+001 3.816741e+001 3.865188e+001 4.362541e+001 5.129425e+001 3.300009e+001 2.427587e+001 6.620954e-001 2.144841e+000 5.032379e+000 2.128149e+000 2.532385e+000 1.368292e+000 4.012169e+000 3.318329e+000 5.280270e+000 2.679529e+000 3.113720e+000 1.651811e+000 1.606891e+000
<GCONST> 9.735639e+001
~s "ST_y_3_1"
<MEAN> 25
 6.151481e-001 -7.101017e+000 1.440323e+001 -8.003875e+000 -9.404620e+000 -6.505739e+000 2.586374e+000 9.808151e+000 -8.527195e+000 5.086081e+000 2.120235e+000 3.243008e+000 5.769175e-002 -1.479013e-001 -1.031844e-001 -1.927393e-001 4.526725e-001 -8.231615e-002 1.926135e-001 3.125572e-001 2.073745e-001 2.284737e-002 -7.506465e-001 2.867222e-001 -2.379088e-002
<VARIANCE> 25
 6.874969e+000 1.045797e+001 2.052971e+001 1.042230e+001 1.865001e+001 1.297515e+001 2.472639e+001 1.742469e+001 2.332706e+001 2.290180e+001 1.550257e+001 1.306007e+001 2.217875e-001 4.865457e-001 1.189750e+000 4.877859e-001 1.142349e+000 4.911162e-001 7.004950e-001 7.232158e-001 1.919065e+000 1.248149e+000 1.756817e+000 6.760216e-001 1.042776e-001
<GCONST> 7.349021e+001
~s "ST_y_4_1"
<MEAN> 25
 2.369612e+000 -8.297932e+000 1.016358e+001 -8.312050e+000 -2.258519e+000 -7.131598e+000 1.986632e+000 9.762993e+000 -7.877249e-001 3.407588e+000 -5.963545e+000 4.409743e+000 2.433854e-001 1.771060e-001 -1.072335e+000 3.639416e-001 1.083782e+000 1.037698e-001 -1.453885e-001 -6.013877e-001 1.240541e+000 -3.985879e-001 -1.075614e+000 1.046263e-001 -5.802385e-001
<VARIANCE> 25
 6.804641e+000 1.144783e+001 2.210032e+001 1.324467e+001 2.149937e+001 1.480967e+001 2.465089e+001 1.684620e+001 3.653967e+001 2.830978e+001 2.007318e+001 9.791292e+000 3.311396e-001 6.484894e-001 1.078293e+000 5.731323e-001 1.333749e+000 8.339874e-001 1.216263e+000 7.774321e-001 1.267365e+000 9.245436e-001 1.572545e+000 6.799592e-001 3.838592e-001
<GCONST> 7.729512e+001
~s "ST_b_2_1"
<MEAN> 25
 5.500582e+000 1.461526e+001 -9.920083e-001 1.384950e+001 1.390758e+000 2.559151e+000 -1.941691e+000 -8.505807e+000 -5.378443e+000 -4.024618e+000 -1.442596e+000 -3.681678e+000 9.808655e-001 -6.663133e-002 9.596286e-001 -3.489896e-001 -2.039222e-001 2.915332e-001 -8.930928e-001 -9.780264e-001 -2.028857e-001 8.954689e-001 3.564512e-001 -8.506532e-001 1.400848e+000
<VARIANCE> 25
 1.692795e+001 5.819470e+001 2.766037e+001 7.393669e+001 2.986896e+001 9.303253e+001 3.194245e+001 3.049574e+001 2.101303e+001 3.951014e+001 2.546312e+001 3.114402e+001 1.890477e+000 4.630598e+000 1.792882e+000 3.711768e+000 2.061853e+000 2.933471e+000 2.960425e+000 3.347554e+000 3.192157e+000 3.332433e+000 3.735041e+000 2.558423e+000 1.632338e+000
<GCONST> 1.019415e+002
~s "ST_b_3_1"
<MEAN> 25
 5.587721e+000 3.354048e+000 5.468223e-001 2.980967e+000 -1.081373e+000 2.799374e+000 -6.074822e+000 -3.192964e+000 -3.274762e+000 3.125171e+000 3.483228e+000 -8.371024e-001 -6.284976e-001 -3.429849e+000 2.351577e+000 -3.549319e+000 -1.721689e+000 -6.794968e-001 -1.659984e+000 1.928235e+000 -3.037551e-001 2.862906e+000 6.548836e-001 5.393455e-001 3.481850e+000
<VARIANCE> 25
 1.400464e+001 8.990034e+001 6.329950e+001 1.772381e+002 4.971495e+001 4.876696e+001 3.728983e+001 8.602702e+001 3.547206e+001 5.074553e+001 2.692712e+001 3.290591e+001 1.677912e+000 7.064840e+000 3.920299e+000 7.652761e+000 5.046031e+000 4.397789e+000 5.989064e+000 9.236330e+000 6.643186e+000 6.508867e+000 4.091349e+000 4.173631e+000 3.966286e+000
<GCONST> 1.135284e+002
~s "ST_b_4_1"
<MEAN> 25
 6.070606e+000 -1.618298e-001 6.551893e-001 -6.029840e+000 1.123667e+000 4.334203e-001 -6.387323e+000 -2.497593e+000 1.721081e+000 1.004539e+001 1.216092e+000 -3.988261e+000 -3.596501e-001 -7.105615e-001 1.011350e+000 -2.563452e-001 -2.649085e-001 -9.398127e-001 1.759174e-001 1.080139e+000 8.064581e-001 3.093954e-001 -9.941797e-001 -2.061879e-001 5.907673e-001
<VARIANCE> 25
 1.160081e+001 1.123269e+002 3.658347e+001 1.741078e+002 6.058070e+001 2.390477e+001 2.795096e+001 7.021909e+001 7.050157e+001 6.096282e+001 3.140668e+001 3.253639e+001 4.110561e-001 1.131013e+000 1.516241e+000 1.619193e+000 1.861903e+000 2.182807e+000 2.344910e+000 1.018034e+000 3.401443e+000 2.222456e+000 2.673681e+000 2.128402e+000 6.595329e-001
<GCONST> 9.778409e+001
~s "ST_o_2_1"
<MEAN> 25
 1.722255e+000 2.347404e+000 -8.825846e+000 -4.942170e+000 1.303959e-001 8.094652e+000 2.779477e+000 1.213840e-001 -1.557001e+000 -2.264298e-001 1.576290e+000 4.498159e+000 8.176793e-001 4.141793e-002 8.013685e-001 -2.454428e+000 -1.189047e-001 7.636696e-001 -1.818480e-001 -2.582090e-001 -1.919389e-001 4.074181e-001 -2.507557e-001 4.726118e-001 1.347856e+000
<VARIANCE> 25
 2.768858e+001 1.574424e+001 2.262973e+001 2.068264e+002 1.796219e+001 4.318177e+001 1.858894e+001 1.424113e+001 1.272538e+001 1.632416e+001 2.409802e+001 1.852323e+001 1.890588e+000 1.042561e+000 1.834932e+000 8.070014e+000 1.247633e+000 2.516368e+000 1.697471e+000 1.281088e+000 1.558980e+000 1.565216e+000 2.051568e+000 1.946294e+000 2.372510e+000
<GCONST> 9.258054e+001
~s "ST_o_3_1"
<MEAN> 25
 8.647340e+000 1.072751e+001 -3.078755e+000 -8.444189e+000 -2.758165e-001 9.940122e+000 1.193131e+000 -3.148158e+000 -5.615938e+000 -2.192666e+000 -1.308048e+000 5.486722e+000 2.152350e-001 1.075822e+000 6.853554e-002 1.933637e+000 8.043494e-002 -3.620988e-001 1.052198e-001 -3.870256e-001 -5.087890e-002 -5.282311e-001 -2.098353e-001 -2.764751e-001 -6.942326e-001
<VARIANCE> 25
 6.202855e+000 3.907434e+001 1.379076e+001 1.513869e+002 1.554701e+001 2.722253e+001 1.533604e+001 1.484887e+001 1.214713e+001 2.321443e+001 2.453399e+001 2.030716e+001 4.050533e-001 1.274340e+000 1.993870e+000 6.085317e+000 1.649534e+000 1.225113e+000 2.085566e+000 1.087968e+000 7.341098e-001 2.274384e+000 2.638121e+000 1.589935e+000 1.558230e+000
<GCONST> 8.815763e+001
~s "ST_o_4_1"
<MEAN> 25
 8.108670e+000 4.628500e+000 -3.139741e+000 -6.866092e+000 -1.436624e-001 7.974451e+000 2.985741e+000 -6.892312e+000 -1.895883e+000 5.677407e-001 1.050072e+000 3.388056e+000 -1.924946e-001 -1.936416e+000 -3.951296e-001 -3.526859e-001 1.233701e+000 -1.435886e+000 -1.007787e+000 -6.362015e-001 7.978610e-001 1.716679e+000 2.172305e+000 -3.869475e-001 1.935322e+000
<VARIANCE> 25
 1.885017e+001 1.016588e+002 2.483426e+001 2.162249e+002 4.390336e+001 4.741352e+001 3.147431e+001 1.530858e+001 3.526751e+001 7.756322e+001 5.190636e+001 2.281282e+001 1.781636e+000 4.504992e+000 3.207896e+000 2.400322e+001 5.062368e+000 4.600264e+000 6.916895e+000 2.586286e+000 1.614360e+000 8.743253e+000 4.714233e+000 3.121228e+000 3.886149e+000
<GCONST> 1.100550e+002
~s "ST_r_2_1"
<MEAN> 25
 -1.877633e-001 -3.195006e+000 -7.002650e+000 -5.805161e-003 3.121020e+000 3.434488e+000 -2.227016e+000 1.689221e-002 9.028376e+000 -2.281424e+000 -1.824437e+000 -1.237012e-001 1.068193e+000 -3.415931e-001 4.945970e-001 6.513961e-001 -9.967466e-001 1.286534e+000 -1.152207e+000 -5.698739e-001 6.114485e-001 -3.576750e-001 9.769639e-001 -7.321219e-001 2.231572e-001
<VARIANCE> 25
 2.528680e+001 3.602588e+001 7.887216e+001 6.081144e+001 8.160320e+001 3.484402e+001 4.553432e+001 4.677330e+001 3.803821e+001 3.159420e+001 4.275736e+001 6.543570e+001 2.230803e+000 3.440765e+000 3.588676e+000 6.399816e+000 4.216866e+000 2.397444e+000 4.430713e+000 3.768634e+000 3.089041e+000 4.221642e+000 4.098231e+000 5.287877e+000 5.036492e+000
<GCONST> 1.094434e+002
~s "ST_r_3_1"
<MEAN> 25
 6.598863e+000 -6.777390e+000 -1.635309e+000 7.879596e-001 -5.737718e+000 6.803874e+000 -1.038327e+001 -1.368504e+000 1.040794e+001 -3.611743e+000 5.227016e+000 -1.733399e+000 6.004101e-001 -1.157099e+000 1.049522e+000 -4.170089e-001 -9.045038e-001 7.151083e-001 -1.273267e+000 1.165732e+000 -8.663239e-001 2.802390e-001 9.650701e-001 -3.870864e-001 3.726952e-001
<VARIANCE> 25
 1.092143e+001 1.846835e+001 5.692468e+001 2.789003e+001 2.747832e+001 2.908826e+001 2.209636e+001 4.627169e+001 7.012694e+001 2.133087e+001 2.146855e+001 3.840178e+001 8.194792e-001 1.848626e+000 1.469905e+000 4.347934e+000 1.677455e+000 1.522690e+000 2.403052e+000 5.508637e+000 1.688578e+000 2.381548e+000 3.889186e+000 2.191926e+000 1.550877e+000
<GCONST> 9.602705e+001
~s "ST_r_4_1"
<MEAN> 25
 6.869571e+000 -1.271688e+001 2.580446e+000 -6.173171e+000 -2.549817e+000 8.355660e+000 -1.148605e+001 9.498672e+000 4.657041e+000 -6.120228e-001 1.005457e+000 -5.781448e+000 -4.081872e-001 -2.761275e-001 6.310534e-001 -1.166872e+000 8.328784e-001 -3.993236e-001 6.827303e-001 1.099402e+000 -1.297319e+000 4.271171e-001 -1.472239e+000 8.084588e-002 5.005882e-001
<VARIANCE> 25
 8.555494e+000 3.177600e+001 3.955741e+001 2.270902e+001 3.668860e+001 5.084816e+001 2.729110e+001 5.706661e+001 3.540258e+001 1.911341e+001 3.756843e+001 2.476906e+001 6.251195e-001 1.530784e+000 1.360538e+000 1.414727e+000 2.056421e+000 1.785781e+000 2.864672e+000 3.904200e+000 1.795785e+000 2.466106e+000 2.582376e+000 1.830132e+000 5.510224e-001
<GCONST> 9.335907e+001
~s "ST_h_2_1"
<MEAN> 25
 -5.398256e+000 -4.011803e+000 -1.428201e+001 5.704769e+000 7.995944e+000 6.600522e+000 3.715113e+000 -3.890569e+000 1.725015e+000 -7.572822e+000 5.463880e+000 4.011416e+000 -1.273601e-001 -9.217733e-001 2.934559e-003 -1.206021e-001 7.290825e-001 3.979602e-001 1.383427e-001 -7.336014e-001 2.290704e-001 -3.445630e-001 -1.705783e-001 4.730993e-001 5.760432e-001
<VARIANCE> 25
 1.280675e+001 4.635577e+001 4.311055e+001 4.646978e+001 3.038563e+001 3.146670e+001 4.451042e+001 3.995482e+001 3.390029e+001 2.623648e+001 2.280511e+001 3.091620e+001 6.119497e-001 1.452343e+000 2.380130e+000 1.794917e+000 2.007344e+000 1.641310e+000 3.496835e+000 2.588873e+000 2.181775e+000 1.895143e+000 2.215092e+000 1.903959e+000 6.040136e-001
<GCONST> 9.471510e+001
~s "ST_h_3_1"
<MEAN> 25
 -8.379686e-002 -6.972950e+000 -5.399776e+000 -8.138601e-002 1.295347e+001 9.278964e+000 6.974987e+000 -7.312831e+000 2.805234e+000 -5.821295e+000 -1.415658e+000 4.216448e+000 1.872971e+000 -1.240609e-001 1.589558e+000 -2.073021e+000 -2.579324e-002 1.276005e-001 -3.084437e-001 3.315071e-001 -1.311360e+000 1.226106e+000 -9.518641e-001 -1.163749e+000 2.812184e+000
<VARIANCE> 25
 2.965322e+001 2.926612e+001 3.510507e+001 6.904350e+001 4.292395e+001 2.962924e+001 2.091470e+001 2.405558e+001 3.200686e+001 2.753604e+001 2.002001e+001 2.708560e+001 2.553189e+000 3.051456e+000 1.804476e+000 4.440639e+000 1.842687e+000 1.545344e+000 2.063821e+000 1.721407e+000 2.039367e+000 1.798506e+000 1.596220e+000 1.691249e+000 2.647331e+000
<GCONST> 9.666666e+001
~s "ST_h_4_1"
<MEAN> 25
 3.497847e+000 -1.004229e+001 -3.396070e+000 -9.924280e+000 1.119699e+001 8.908742e+000 8.600853e+000 -8.779101e+000 1.828196e+000 -1.703633e+000 -1.242803e+000 -1.507447e+000 -4.092246e-002 -3.097712e-002 -4.910473e-002 -4.837736e-002 -1.227341e-001 -1.806675e-001 -1.426198e-001 2.111481e-001 1.250272e-001 9.538430e-002 -2.798931e-001 -2.235600e-001 -1.838390e-002
<VARIANCE> 25
 3.674602e+000 1.377334e+001 1.262768e+001 2.890370e+001 1.737669e+001 2.105048e+001 2.965249e+001 2.209489e+001 1.971936e+001 1.169721e+001 1.480165e+001 3.714674e+001 1.708249e-001 7.252960e-001 4.629245e-001 1.463776e+000 5.451699e-001 4.637596e-001 7.514229e-001 7.285144e-001 9.190717e-001 6.827750e-001 5.739372e-001 1.639515e+000 6.499437e-001
<GCONST> 7.449575e+001
~s "ST_k_2_1"
<MEAN> 25
 -5.025036e+000 -5.557253e-001 -6.484863e+000 5.565099e+000 -1.561307e+000 -3.903857e+000 -1.245149e+000 3.293579e-001 -2.977179e+000 4.324977e-001 4.076667e+000 -2.674457e+000 4.834429e-001 -1.671245e+000 5.530073e-001 -1.589930e+000 9.784982e-001 -8.431074e-003 -1.028167e+000 7.162464e-001 -7.281348e-001 8.179795e-001 -4.450929e-001 -2.831329e-001 3.068663e+000
<VARIANCE> 25
 2.560563e+001 5.101936e+001 9.366708e+001 3.521327e+001 8.335213e+001 6.128026e+001 5.089777e+001 3.498809e+001 4.618164e+001 4.380584e+001 3.379035e+001 2.889882e+001 4.987102e+000 5.187850e+000 1.849083e+001 5.799706e+000 8.572378e+000 5.273508e+000 6.501255e+000 4.436558e+000 6.678518e+000 5.619446e+000 3.480345e+000 2.873939e+000 3.112298e+000
<GCONST> 1.139075e+002
~s "ST_k_3_1"
<MEAN> 25
 1.985601e+000 -7.894031e+000 5.184953e+000 -8.083934e+000 -6.389095e-001 -5.089987e+000 -4.327685e+000 7.333835e+000 -5.368767e+000 6.724973e+000 -2.150588e-002 -2.255797e+000 1.111644e+000 -1.668478e+000 1.593399e+000 -2.893157e+000 5.887062e-001 -9.745372e-002 6.473262e-001 9.478686e-001 2.285893e-001 9.630547e-001 -9.640322e-001 5.389823e-001 1.909198e+000
<VARIANCE> 25
 1.437430e+001 1.435974e+001 5.539917e+001 2.078552e+001 3.024796e+001 5.432275e+001 3.940782e+001 2.203802e+001 3.072717e+001 2.653088e+001 1.674657e+001 2.176743e+001 1.680346e+000 2.341549e+000 5.241036e+000 2.902641e+000 1.505511e+000 9.211084e-001 3.259143e+000 2.373091e+000 1.806935e+000 4.830081e+000 1.748128e+000 9.924647e-001 2.390468e+000
<GCONST> 9.515232e+001
~s "ST_k_4_1"
<MEAN> 25
 2.319535e-001 -1.267328e+000 4.685816e+000 -2.313879e+000 -5.041340e+000 -1.625725e+000 4.777088e-002 7.877277e-001 -4.716515e+000 3.787747e+000 1.349474e+000 -1.395271e+000 1.071138e-001 2.358928e-001 1.705326e-001 -1.588884e-001 3.636125e-001 -4.881013e-002 1.144095e-001 -1.397422e-001 4.129943e-001 3.351870e-002 -3.469537e-001 6.695102e-003 1.119824e-001
<VARIANCE> 25
 3.506097e+001 6.041425e+001 1.250519e+002 6.670881e+001 6.942721e+001 3.446873e+001 4.528941e+001 6.558409e+001 5.952447e+001 3.990256e+001 4.241445e+001 2.767483e+001 1.478610e+000 3.563010e+000 5.203307e+000 3.430526e+000 2.219313e+000 1.385060e+000 2.663606e+000 2.718179e+000 2.596479e+000 3.367212e+000 2.654109e+000 1.955842e+000 2.960467e+000
<GCONST> 1.057987e+002
~s "ST_n_2_1"
<MEAN> 25
 5.637746e+000 -3.517169e-001 4.061791e+000 2.734018e+000 -8.463612e-001 -4.490461e-001 -4.981543e+000 -5.193937e+000 -6.778679e-002 3.342275e+000 -4.748614e-001 -1.294581e-001 2.983907e-001 1.288400e+000 6.245917e-001 1.843683e+000 1.062903e-001 -1.304455e+000 -6.119590e-001 -2.373180e+000 3.087665e-001 1.415141e+000 -4.511045e-001 3.749606e-003 -9.998363e-001
<VARIANCE> 25
 7.796785e+000 3.469356e+001 3.792563e+001 3.067304e+001 4.277340e+001 4.051518e+001 4.941686e+001 7.252120e+001 3.947554e+001 3.863497e+001 2.697825e+001 2.472220e+001 5.087447e-001 1.732334e+000 2.475400e+000 2.582345e+000 2.756151e+000 2.516522e+000 2.525905e+000 4.008551e+000 2.146655e+000 2.459156e+000 2.977296e+000 1.992976e+000 1.032458e+000
<GCONST> 9.753735e+001
~s "ST_n_3_1"
<MEAN> 25
 5.531022e+000 2.352988e+000 7.541496e+000 5.210780e+000 -1.937677e+000 -3.645193e+000 -6.564740e+000 -7.825294e+000 -8.283734e-001 7.585079e+000 -2.546414e+000 -5.583272e-001 1.689962e-003 4.456267e-002 4.713480e-002 1.907807e-001 8.097880e-002 -1.856500e-001 2.889981e-002 -9.351107e-002 3.632737e-002 2.737578e-001 -4.253508e-001 2.508137e-002 -1.945445e-001
<VARIANCE> 25
 5.926447e+000 1.870686e+001 2.156075e+001 1.811556e+001 3.344419e+001 2.801060e+001 4.402403e+001 2.609508e+001 5.042297e+001 3.872028e+001 2.835251e+001 2.226445e+001 1.887981e-001 5.412526e-001 7.897537e-001 5.714132e-001 7.093415e-001 8.607845e-001 1.259961e+000 9.665416e-001 1.041953e+000 1.340026e+000 1.002673e+000 7.755634e-001 4.225053e-001
<GCONST> 8.038418e+001
~s "ST_n_4_1"
<MEAN> 25
 4.314359e+000 5.359749e+000 2.024655e+000 8.753692e+000 -3.504575e+000 -2.097517e-001 -2.737530e+000 -6.667350e+000 1.227333e+000 3.048786e+000 -4.191235e+000 7.490884e-002 -3.284138e-001 3.558133e-001 -9.043621e-001 6.115725e-002 -3.050947e-002 6.071579e-001 8.863961e-002 4.426062e-001 8.686037e-002 -1.259223e+000 3.460188e-001 -5.153434e-004 -6.172780e-001
<VARIANCE> 25
 9.550704e+000 2.894111e+001 3.283288e+001 2.433449e+001 3.489864e+001 4.375666e+001 3.282548e+001 3.554689e+001 3.001978e+001 4.106945e+001 3.240496e+001 2.140374e+001 4.214436e-001 2.346413e+000 1.596746e+000 2.233056e+000 1.812408e+000 2.555462e+000 2.272963e+000 3.663231e+000 2.093204e+000 3.334927e+000 2.508333e+000 1.965188e+000 1.640496e+000
<GCONST> 9.525011e+001
~s "ST_n_4_2"
<MEAN> 25
 4.265974e+000 -1.293581e+000 3.311842e+000 2.761465e+000 8.857945e-001 -1.764757e-002 -8.155221e+000 -4.999740e+000 1.503545e+000 2.822597e+000 -4.403281e-001 -1.516147e+000 -3.149808e-001 -2.174805e+000 -1.142511e+000 -2.068202e+000 1.982504e-001 1.488203e+000 3.459389e-001 4.145357e+000 6.325721e-001 -3.307353e+000 -7.729922e-002 -4.766907e-001 1.604101e+000
<VARIANCE> 25
 8.269285e+000 2.547897e+001 3.033939e+001 3.094825e+001 2.801275e+001 4.293325e+001 2.996218e+001 6.490153e+001 3.460392e+001 6.673698e+001 2.303148e+001 2.712345e+001 2.986673e-001 1.186524e+000 1.304276e+000 3.038574e+000 2.962377e+000 2.635537e+000 2.237582e+000 3.926978e+000 3.007948e+000 2.293726e+000 2.291891e+000 3.051957e+000 4.955821e-001
<GCONST> 9.473175e+001
~s "ST_d_2_1"
<MEAN> 25
 1.448213e+000 7.839395e+000 -5.393132e+000 1.134626e+001 2.221453e+000 -1.671610e+000 -3.888969e-002 -2.779787e+000 4.809039e+000 -6.073284e-001 -1.777108e+000 2.082305e+000 -2.801783e-001 3.761047e-001 2.039330e-001 9.739919e-001 3.427068e-001 -2.056713e-001 2.019507e-001 5.377057e-002 8.631579e-002 -5.659510e-001 -2.489389e-001 -6.403930e-002 -2.614740e-001
<VARIANCE> 25
 4.057423e+001 2.480411e+001 3.806725e+001 2.712265e+001 6.106188e+001 2.925724e+001 5.287125e+001 4.549151e+001 5.351622e+001 3.896238e+001 5.641931e+001 2.935992e+001 8.575259e-001 1.811065e+000 2.452650e+000 1.888193e+000 3.757193e+000 2.312169e+000 2.985464e+000 3.338086e+000 3.535581e+000 4.866988e+000 4.076414e+000 2.413077e+000 4.900562e-001
<GCONST> 1.009815e+002
~s "ST_d_3_1"
<MEAN> 25
 5.297534e+000 1.381124e+001 2.559743e+000 1.511125e+001 -9.038047e-001 -1.759653e+000 -4.377624e-001 -6.154297e+000 -1.364653e+000 -2.595619e+000 -5.530639e+000 -3.918393e+000 4.490254e-003 -3.454784e-001 3.298922e-001 -2.654785e-001 -2.944570e-001 -5.562419e-001 -1.442624e-001 -1.397428e-001 -4.657090e-002 -1.226779e+000 1.060961e+000 -3.430810e-001 2.116057e+000
<VARIANCE> 25
 2.246864e+001 3.155456e+001 2.686744e+001 2.374954e+001 4.792415e+001 4.201247e+001 3.526914e+001 4.572077e+001 3.086810e+001 4.664975e+001 2.710147e+001 2.679759e+001 6.408600e+000 4.804085e+000 3.632168e+000 2.544112e+000 6.091194e+000 5.116516e+000 3.900990e+000 5.816941e+000 5.709689e+000 5.865845e+000 8.372186e+000 4.596220e+000 2.580690e+000
<GCONST> 1.081442e+002
~s "ST_d_4_1"
<MEAN> 25
 8.382667e-001 3.735777e+000 1.272548e+000 6.884742e+000 -2.410562e+000 -6.597296e+000 -1.779536e+000 -2.856334e+000 4.146971e+000 -6.918460e+000 4.048650e+000 -2.153423e-001 -7.924889e-001 -3.328432e+000 1.203442e+000 -4.179856e+000 -1.420111e+000 -2.315791e+000 -9.193284e-002 2.383132e+000 1.002823e+000 1.219145e+000 1.290374e+000 1.249811e+000 3.711342e+000
<VARIANCE> 25
 1.914861e+001 4.084905e+001 3.218390e+001 7.346956e+001 4.216904e+001 4.649001e+001 6.095393e+001 6.333310e+001 4.810959e+001 5.151910e+001 3.294881e+001 2.944850e+001 1.878045e+000 2.542606e+000 3.294672e+000 3.965063e+000 4.844223e+000 5.242332e+000 6.159601e+000 6.609536e+000 8.029270e+000 4.413196e+000 8.276274e+000 3.755572e+000 2.778392e+000
<GCONST> 1.100104e+002
~s "ST_th_2_1"
<MEAN> 25
 1.552165e+000 3.300947e+000 -9.847149e+000 1.169486e+000 3.171447e+000 2.504411e+000 -2.108656e+000 2.153635e+000 4.467305e+000 -2.407682e+000 -1.684362e+000 -5.144440e+000 -4.091730e-001 3.885858e-001 -9.836852e-001 6.885486e-001 -5.042227e-001 2.407350e-001 2.887942e-001 1.527754e-001 -2.086093e-001 -5.748683e-001 9.563282e-002 3.247336e-002 -1.425417e+000
<VARIANCE> 25
 1.007152e+001 1.647370e+001 4.667262e+001 3.929325e+001 3.270697e+001 3.128062e+001 3.267206e+001 4.329150e+001 3.729942e+001 3.963093e+001 2.735583e+001 3.134701e+001 7.306449e-001 1.599722e+000 1.838738e+000 3.386285e+000 1.842811e+000 2.709041e+000 3.735934e+000 2.925340e+000 2.152389e+000 2.647922e+000 2.421915e+000 1.682863e+000 1.896158e+000
<GCONST> 9.657966e+001
~s "ST_th_3_1"
<MEAN> 25
 -6.501346e+000 4.118111e+000 -1.007931e+001 6.993896e+000 -1.761001e+000 -2.710166e+000 4.048041e+000 -1.234867e+000 3.158812e+000 -6.961630e+000 2.856735e+000 -9.592178e-001 -1.636032e+000 -4.870266e-001 3.032587e-001 6.656041e-001 -9.638032e-001 -1.446978e+000 1.156346e+000 -1.165549e+000 3.004409e-001 -1.229368e+000 9.104416e-001 3.909188e-001 2.161257e+000
<VARIANCE> 25
 3.572483e+001 3.534855e+001 4.541990e+001 4.259453e+001 4.007143e+001 4.582510e+001 4.358349e+001 3.716740e+001 2.759661e+001 3.544407e+001 3.136070e+001 3.832627e+001 3.216480e+000 2.892763e+000 3.783898e+000 3.850080e+000 3.878403e+000 4.591022e+000 3.587954e+000 3.416061e+000 3.408816e+000 3.559968e+000 3.563262e+000 3.412564e+000 6.409985e+000
<GCONST> 1.066857e+002
~s "ST_th_4_1"
<MEAN> 25
 -5.087160e+000 1.287484e-001 -5.122289e+000 1.614734e+000 -2.783735e+000 -6.094711e+000 4.730469e-001 -2.245274e+000 6.098199e+000 -6.595536e+000 1.917354e+000 -3.249933e+000 2.930092e+000 -1.785137e+000 3.532354e+000 -4.157273e+000 1.579267e+000 1.813749e-001 -3.026586e+000 1.511330e+000 1.497012e-001 2.595130e+000 -1.985439e+000 -5.100954e-001 3.459052e+000
<VARIANCE> 25
 4.115704e+001 2.996250e+001 4.349974e+001 8.914426e+001 3.486469e+001 2.482948e+001 6.530478e+001 2.802902e+001 2.403621e+001 4.485956e+001 2.935292e+001 2.539486e+001 2.125238e+000 3.234887e+000 5.100748e+000 5.984227e+000 5.973791e+000 3.550537e+000 3.332106e+000 3.925471e+000 5.584089e+000 3.371753e+000 5.417423e+000 2.573932e+000 3.652484e+000
<GCONST> 1.070379e+002
~s "ST_g_2_1"
<MEAN> 25
 1.316605e+000 1.032541e+001 1.482430e+000 9.386035e+000 -4.422113e+000 -2.995732e+000 3.395338e+000 -5.052625e+000 -2.087423e+000 3.196191e+000 4.446678e+000 -7.315303e+000 3.004444e-001 1.017139e-001 -1.698072e-001 6.724800e-001 -3.852050e-001 -2.116405e-001 6.557371e-001 -8.732046e-001 -5.480011e-001 2.206107e-001 4.670503e-001 -2.786189e-001 2.604516e-002
<VARIANCE> 25
 2.460407e+001 1.987910e+001 3.085286e+001 1.895932e+001 3.054395e+001 1.950967e+001 3.445960e+001 5.512187e+001 2.450716e+001 2.358271e+001 1.991507e+001 1.292669e+001 5.988855e-001 6.657226e-001 9.934503e-001 7.523320e-001 2.043974e+000 9.506306e-001 1.832677e+000 2.742050e+000 2.438010e+000 1.845215e+000 1.504768e+000 1.805809e+000 3.643324e-001
<GCONST> 8.692246e+001
~s "ST_g_3_1"
<MEAN> 25
 1.523770e+000 7.170166e+000 -5.036628e+000 1.018283e+001 -3.530227e+000 1.542589e+000 5.368791e+000 -9.153570e+000 1.562802e+000 2.162641e+000 -3.867897e-001 -4.118843e+000 6.669561e-002 -4.425239e-001 1.070071e-001 -2.951956e-001 -3.284678e-001 -4.658225e-003 1.619097e-001 -1.074258e-001 -3.552320e-001 -1.480069e-001 3.233466e-001 -4.495736e-001 5.990674e-001
<VARIANCE> 25
 2.838393e+001 5.156303e+001 4.639106e+001 4.417269e+001 2.340370e+001 4.159546e+001 3.561374e+001 3.076089e+001 7.554068e+001 3.530222e+001 3.518849e+001 2.688787e+001 1.685134e+000 2.560886e+000 4.062140e+000 2.165895e+000 3.790582e+000 2.891026e+000 3.610903e+000 2.518994e+000 4.062072e+000 2.354340e+000 3.212022e+000 2.673125e+000 1.204629e+000
<GCONST> 1.023146e+002
~s "ST_g_4_1"
<MEAN> 25
 1.227770e+000 3.526984e+000 2.825356e+000 8.494097e+000 -5.084948e+000 -2.137770e+000 5.251132e-001 -1.423619e+000 -5.637764e+000 4.883773e-001 6.675203e+000 -7.352693e+000 -9.193851e-001 -2.030388e+000 1.854740e+000 -2.151639e+000 -3.330912e-001 5.208598e-001 -1.603932e+000 2.040320e+000 -1.696345e-001 -6.306327e-002 -2.497039e-002 9.177119e-001 2.469343e+000
<VARIANCE> 25
 2.928856e+001 3.575094e+001 7.201972e+001 5.016925e+001 4.757979e+001 2.818665e+001 6.991130e+001 5.788559e+001 7.079216e+001 3.773206e+001 2.349276e+001 4.145950e+001 3.105349e+000 2.645621e+000 6.053921e+000 7.044005e+000 4.133408e+000 3.456602e+000 8.320474e+000 7.525851e+000 5.806337e+000 6.386488e+000 4.253760e+000 3.893649e+000 2.093683e+000
<GCONST> 1.111862e+002
~s "ST_t_2_1"
<MEAN> 25
 -4.792050e-001 -2.869304e+000 -5.510220e+000 4.508144e+000 -3.713181e+000 -3.759164e-001 -2.324480e+000 5.855425e+000 2.717789e+000 -4.621016e+000 2.728238e+000 -5.122785e+000 1.108243e-001 -9.206493e-001 1.425720e+000 -1.276438e+000 7.301088e-002 -7.769821e-001 -7.490916e-001 1.154786e+000 1.432578e-003 3.732913e-001 -2.441707e-001 1.119586e-001 1.757345e+000
<VARIANCE> 25
 2.461726e+001 4.131298e+001 6.499483e+001 6.301251e+001 3.049344e+001 6.295296e+001 4.816341e+001 6.139691e+001 3.869078e+001 3.824220e+001 3.879477e+001 2.182064e+001 2.945166e+000 5.143533e+000 6.495450e+000 7.580889e+000 3.666033e+000 5.505705e+000 4.588441e+000 5.699176e+000 3.505591e+000 6.402934e+000 5.455900e+000 2.253658e+000 1.215979e+001
<GCONST> 1.117836e+002
~s "ST_t_3_1"
<MEAN> 25
 2.592940e+000 -9.479588e+000 6.431097e+000 -8.117765e+000 -6.200475e-001 -7.817757e+000 -2.458795e+000 1.202901e+001 2.672423e+000 3.805905e+000 -4.439119e+000 -5.579200e-001 -1.842638e-002 3.699978e-001 -3.311695e-001 2.234487e-001 2.472945e-001 -3.201216e-001 7.215863e-001 -1.697362e-001 3.007504e-001 3.048270e-001 -4.695368e-001 4.126081e-001 -6.889889e-001
<VARIANCE> 25
 4.356619e+000 9.335561e+000 2.329683e+001 1.660321e+001 1.180267e+001 2.049789e+001 1.644777e+001 1.721448e+001 1.646739e+001 9.648955e+000 1.618099e+001 1.439367e+001 1.964402e-001 7.802262e-001 8.109647e-001 9.107779e-001 6.571453e-001 8.910341e-001 1.046126e+000 9.138722e-001 7.989298e-001 1.080558e+000 1.017228e+000 7.121444e-001 7.098920e-001
<GCONST> 7.369302e+001
~s "ST_t_4_1"
<MEAN> 25
 -1.121894e+000 -6.697494e-001 -4.127588e+000 9.107717e-001 -1.968629e+000 -7.171887e+000 1.273223e+000 8.528753e+000 6.442580e+000 -1.612544e-001 -1.743426e+000 -6.305315e-001 -4.737986e-001 7.014245e-001 -6.412732e-001 5.710112e-001 2.844822e-001 7.251497e-001 3.150176e-001 -3.101483e-001 -3.401208e-001 -8.119070e-001 2.334854e-001 1.206203e-002 -1.060003e+000
<VARIANCE> 25
 2.622998e+001 2.775720e+001 4.662891e+001 3.025822e+001 2.697601e+001 5.876753e+001 3.142419e+001 4.059089e+001 2.079474e+001 3.227381e+001 3.161804e+001 1.688029e+001 9.652452e-001 1.914344e+000 2.605658e+000 2.108414e+000 3.454391e+000 3.719284e+000 1.885872e+000 2.906266e+000 2.235027e+000 2.581420e+000 2.082194e+000 1.625468e+000 1.872615e+000
<GCONST> 9.726901e+001
~s "ST_ao_2_1"
<MEAN> 25
 4.479907e+000 1.045129e+000 1.693415e+000 -4.617950e+000 -2.800117e+000 9.000096e+000 -4.859361e+000 -6.283186e+000 4.503360e+000 4.602297e-001 1.933970e+000 1.809564e+000 8.596936e-001 -8.821200e-001 1.394811e+000 -1.664456e+000 -5.425869e-001 5.161310e-001 -1.107044e+000 -8.973451e-001 -3.422523e-001 1.932190e+000 7.285503e-001 -2.087334e-001 1.082653e+000
<VARIANCE> 25
 3.377099e+001 3.714324e+001 3.432027e+001 7.729734e+001 2.750231e+001 3.725605e+001 1.055486e+002 3.598668e+001 1.263663e+002 5.530305e+001 9.989301e+001 2.992317e+001 2.268375e+000 3.488617e+000 2.719925e+000 1.096873e+001 2.201995e+000 2.827589e+000 3.073686e+000 5.201547e+000 6.031814e+000 2.556351e+000 7.008294e+000 3.134502e+000 4.187109e+000
<GCONST> 1.103159e+002
~s "ST_ao_3_1"
<MEAN> 25
 6.902136e+000 -1.887793e+000 3.679502e+000 -7.400889e+000 2.073173e-001 4.828830e+000 -7.932421e+000 -9.387591e+000 4.991804e+000 4.347470e+000 2.790189e+000 -2.285564e-001 1.927021e-001 9.397031e-002 -1.114028e+000 -2.400704e-001 1.277590e+000 -1.061778e+000 6.883752e-001 1.628132e-001 2.547406e-001 8.011520e-001 -4.436648e-001 9.687229e-002 1.344180e-001
<VARIANCE> 25
 1.161624e+001 1.784472e+001 5.427676e+001 3.136705e+001 3.647188e+001 3.955650e+001 7.344473e+001 7.250839e+001 8.099677e+001 2.495040e+001 7.432947e+001 4.192022e+001 3.748116e-001 2.868127e+000 2.295884e+000 5.890319e+000 6.506441e+000 3.291389e+000 3.514961e+000 4.338252e+000 3.034336e+000 1.732573e+000 2.272515e+000 1.199007e+000 1.705170e+000
<GCONST> 1.018920e+002
~s "ST_ao_4_1"
<MEAN> 25
 7.011662e+000 1.518766e+000 -1.499448e+000 -1.183433e+001 3.774006e+000 4.087651e+000 -4.829930e+000 -3.454692e+000 -8.003508e-001 8.824018e+000 2.566313e+000 4.324381e-001 3.168557e-002 4.880596e-001 -2.891937e-001 6.372218e-001 -8.923932e-002 -8.083944e-002 1.607000e-001 1.153615e-001 -1.891905e-001 -2.405346e-001 -5.467278e-002 9.193883e-003 -6.627924e-001
<VARIANCE> 25
 4.130745e+000 2.329142e+001 2.006879e+001 7.308366e+001 1.349405e+001 2.069265e+001 1.012792e+002 4.414616e+001 5.651089e+001 2.646490e+001 3.058755e+001 2.661758e+001 2.877688e-001 8.141164e-001 1.168672e+000 3.348856e+000 9.537451e-001 1.722146e+000 1.660664e+000 1.714387e+000 2.204677e+000 1.063344e+000 1.510650e+000 1.573910e+000 9.499297e-001
<GCONST> 8.897653e+001
~s "ST_sil_2_1"
<MEAN> 25
 -4.258823e+000 5.956419e+000 -7.381639e+000 1.081595e+001 3.305937e+000 1.122844e+000 4.695532e+000 1.810091e+000 4.111936e+000 -4.721969e+000 8.880969e-001 3.418259e+000 -3.842218e-002 7.163735e-002 -2.037700e-001 3.608536e-001 -1.196031e-002 1.049502e-001 7.189440e-002 -2.371455e-001 -4.244867e-002 -1.769064e-002 2.460719e-001 -3.386104e-001 1.097658e-001
<VARIANCE> 25
 3.549009e+001 6.631409e+001 6.709708e+001 6.523065e+001 7.559247e+001 5.800738e+001 3.460594e+001 4.894289e+001 3.471746e+001 3.624492e+001 3.684132e+001 3.190084e+001 2.343507e+000 2.212698e+000 1.602211e+000 3.055213e+000 1.613216e+000 2.842265e+000 3.061008e+000 2.774091e+000 2.946726e+000 2.534243e+000 2.906481e+000 2.130140e+000 2.277064e+000
<GCONST> 1.036747e+002
~s "silst"
<MEAN> 25
 -5.126966e+000 4.036370e+000 -6.902500e+000 9.076871e+000 1.720123e+000 1.111753e+000 3.757615e+000 -2.807600e+000 2.710023e+000 -4.808589e+000 2.386262e-001 2.217424e+000 4.446031e-001 -2.255532e-001 5.223809e-001 -3.998624e-001 2.711345e-001 1.874695e-001 -2.049163e-001 -4.004416e-001 -3.395057e-001 1.283240e-001 -8.070809e-002 -2.079615e-001 8.780838e-001
<VARIANCE> 25
 3.148767e+001 3.841448e+001 5.658967e+001 4.543395e+001 5.293119e+001 6.119053e+001 5.385035e+001 4.626309e+001 5.085838e+001 3.734594e+001 3.564475e+001 3.435407e+001 3.186825e+000 4.144522e+000 4.536895e+000 5.367098e+000 4.341578e+000 4.443301e+000 4.326615e+000 3.862032e+000 4.425530e+000 3.459000e+000 3.035843e+000 3.173010e+000 4.464584e+000
<GCONST> 1.094988e+002
~s "ST_sil_3_1"
<MEAN> 25
 -5.102468e+000 3.891760e+000 -6.811414e+000 9.102772e+000 1.708899e+000 1.232656e+000 3.798018e+000 -2.836497e+000 2.705058e+000 -4.884356e+000 2.296039e-001 2.210563e+000 3.967450e-001 -2.388848e-001 4.795138e-001 -3.977246e-001 2.529342e-001 1.883539e-001 -2.000616e-001 -3.722568e-001 -3.377650e-001 1.189430e-001 -6.819264e-002 -1.896236e-001 8.203498e-001
<VARIANCE> 25
 3.190723e+001 3.862698e+001 5.686260e+001 4.502639e+001 5.116429e+001 5.939436e+001 5.394124e+001 4.627610e+001 4.979031e+001 3.952143e+001 3.629341e+001 3.425132e+001 3.058468e+000 4.174191e+000 4.315650e+000 5.259252e+000 4.110481e+000 4.299652e+000 4.207604e+000 3.840747e+000 4.182731e+000 3.624720e+000 2.959363e+000 3.103731e+000 4.473498e+000
<GCONST> 1.092216e+002
~s "ST_sil_4_1"
<MEAN> 25
 -6.549596e+000 3.252757e+000 -5.258692e+000 7.695590e+000 -1.801081e-001 -7.246076e-002 4.747245e+000 -2.239868e+000 1.072774e+000 -7.032395e+000 3.400761e+000 2.692048e-001 -8.228686e-002 -2.504827e-001 -3.839242e-001 8.630361e-002 1.987345e-001 1.369442e-001 5.833569e-003 1.356221e-002 -2.513798e-001 -1.290589e-001 1.517199e-001 8.234507e-002 2.472153e-002
<VARIANCE> 25
 3.725260e+001 5.510815e+001 6.311353e+001 6.536380e+001 5.614198e+001 8.256622e+001 4.274366e+001 5.123917e+001 3.249883e+001 5.100856e+001 3.169468e+001 1.945977e+001 7.110102e-001 1.415820e+000 1.682332e+000 2.778538e+000 1.880130e+000 2.568376e+000 2.015975e+000 2.053602e+000 1.969002e+000 2.978076e+000 2.051401e+000 1.375781e+000 1.180911e+000
<GCONST> 9.938645e+001
~s "ST_iy_2_1"
<MEAN> 25
 -1.080946e+000 7.718486e-001 1.999081e+001 -5.312976e+000 -1.105054e+001 7.802086e-001 -7.874660e+000 1.955228e+000 -1.539329e+001 4.029696e+000 2.339942e+000 4.823104e+000 1.189563e-001 2.020253e-001 -6.514192e-002 6.379564e-002 -2.202354e-001 4.955816e-001 -2.051714e-001 -2.597816e-002 -1.409399e-001 6.898609e-002 9.556741e-002 -4.315008e-002 -1.442878e-001
<VARIANCE> 25
 3.923120e+000 1.341477e+001 1.334539e+001 8.824824e+000 4.695877e+000 1.019431e+001 9.896005e+000 4.548447e+001 8.471519e+000 7.964783e+000 1.181264e+001 1.007541e+001 1.592045e-001 4.250945e-001 6.850436e-001 5.622637e-001 4.433858e-001 8.771350e-001 6.294609e-001 1.156961e+000 9.097591e-001 4.697189e-001 1.317699e+000 8.038398e-001 1.462424e-001
<GCONST> 6.602421e+001
~s "ST_j_2_1"
<MEAN> 25
 -1.929508e+000 1.645822e+001 3.907844e+000 6.840025e+000 3.987444e-001 -3.935426e+000 3.206852e+000 -8.776894e+000 1.412588e+000 -4.565620e+000 2.312559e+000 -1.722142e+000 -3.570293e-001 -1.527656e+000 1.672063e+000 -1.554330e+000 -6.676601e-001 -7.405487e-001 -5.391034e-001 7.381693e-001 -6.687654e-001 -2.443404e-001 1.533279e+000 5.283980e-001 2.299796e+000
<VARIANCE> 25
 6.520908e+001 5.822490e+001 4.357540e+001 5.231060e+001 5.385976e+001 3.086029e+001 4.258766e+001 7.686084e+001 3.025344e+001 5.553811e+001 6.440692e+001 1.469719e+001 7.705223e+000 9.428605e+000 4.291688e+000 2.355844e+000 5.254921e+000 3.537747e+000 4.597310e+000 1.306759e+001 4.310836e+000 6.070912e+000 5.047744e+000 1.661629e+000 1.932383e+000
<GCONST> 1.113771e+002
~s "ST_iy_3_1"
<MEAN> 25
 5.018784e+000 2.241378e+000 7.631440e+000 2.274466e+000 -3.447765e+000 1.259380e+000 -5.099763e+000 -3.240618e-001 -8.583293e+000 1.854301e+000 3.514928e+000 -3.281657e+000 2.754688e-001 3.717177e-001 -1.126235e+000 9.357303e-001 8.421037e-001 -3.978572e-001 2.399889e-001 -6.839719e-001 9.262865e-001 -3.315768e-001 -3.370110e-001 -4.907781e-001 -9.920062e-001
<VARIANCE> 25
 9.959571e+000 1.128098e+001 2.112682e+001 3.165512e+001 2.695932e+001 1.994935e+001 1.819784e+001 2.739810e+001 1.627820e+001 4.215999e+001 2.743467e+001 2.212948e+001 6.869591e-001 4.765642e-001 1.366337e+000 2.445674e+000 2.161222e+000 1.681113e+000 1.404649e+000 1.426708e+000 2.206769e+000 4.027070e+000 2.902638e+000 1.747500e+000 5.481021e-001
<GCONST> 8.789553e+001
~s "ST_j_3_1"
<MEAN> 25
 1.087313e+000 -5.726140e+000 1.156111e+001 -7.514574e+000 -6.225470e+000 -7.427869e+000 -2.832826e+000 7.335765e+000 -1.806407e-001 -4.631665e-001 1.730972e+000 4.410889e+000 7.670509e-001 -2.434080e+000 -2.266950e+000 -1.455889e+000 7.592817e-001 6.958050e-001 8.148184e-001 1.967178e+000 2.180612e+000 6.860178e-001 -3.479664e+000 -2.558637e-001 1.488234e+000
<VARIANCE> 25
 5.539175e+000 2.885847e+001 3.465971e+001 1.861174e+001 1.710971e+001 8.085736e+000 3.959599e+001 3.465836e+001 7.884465e+001 3.460736e+001 4.925488e+001 2.104251e+001 4.788038e-001 2.285813e+000 3.450784e+000 1.151628e+000 2.708464e+000 1.764899e+000 2.050637e+000 2.861916e+000 1.988060e+000 2.807787e+000 1.295832e+000 1.636178e+000 7.057317e-001
<GCONST> 9.142636e+001
~s "ST_iy_4_1"
<MEAN> 25
 2.558697e-001 6.317077e+000 4.586998e+000 1.401696e+000 -3.986338e+000 3.049948e+000 3.427099e+000 -3.879931e+000 -2.744707e+000 1.415315e+000 -6.752832e-002 -9.976198e-001 -3.476609e-001 3.452005e-002 -1.373073e-001 2.935111e-002 1.675479e-001 7.047066e-002 4.219736e-001 1.201514e-001 3.922068e-001 -9.217247e-002 -1.402951e-001 2.841566e-001 -2.713682e-001
<VARIANCE> 25
 7.688752e+000 3.964489e+001 7.346382e+001 1.113361e+002 3.741140e+001 1.791730e+001 3.325935e+001 3.259054e+001 4.588650e+001 1.004380e+002 2.702604e+001 1.338849e+001 3.816060e-001 9.269813e-001 1.967738e+000 2.790701e+000 2.122646e+000 2.222211e+000 1.449377e+000 2.261297e+000 2.309798e+000 1.825179e+000 2.869805e+000 1.732028e+000 6.304010e-001
<GCONST> 9.448221e+001
~s "ST_j_4_1"
<MEAN> 25
 8.057141e-001 -9.127289e+000 -4.452932e+000 -6.705529e+000 6.055815e-001 2.886538e+000 -4.627768e-001 4.097994e+000 1.054190e+001 -5.806424e+000 -8.508659e+000 -1.870180e+000 8.471910e-002 -2.272708e-001 -1.482909e+000 3.369634e-001 1.393491e+000 2.107503e+000 -6.335474e-001 -1.111913e+000 5.233988e-001 -5.733893e-001 -5.161525e-001 -1.314799e+000 1.584757e-001
<VARIANCE> 25
 6.779393e+000 2.483722e+001 5.759180e+001 1.505332e+001 4.498975e+000 4.126146e+001 3.719598e+001 3.653934e+001 3.614252e+001 2.968379e+001 3.486953e+001 2.273697e+001 1.383320e+000 2.085925e+000 6.987302e+000 1.248026e+000 1.522205e+000 1.081277e+000 2.770354e+000 2.998261e+000 3.391257e+000 3.241772e+000 3.239576e+000 2.356047e+000 5.945417e-001
<GCONST> 9.368063e+001
~s "ST_ae_2_1"
<MEAN> 25
 1.490856e+000 -5.497405e+000 1.384762e+000 1.306505e+000 -3.909027e+000 -4.713052e+000 1.296964e+000 4.383009e+000 2.094411e+000 -2.982299e+000 -1.582199e+000 -1.612146e+000 3.425969e-001 -2.880689e+000 1.446700e+000 -3.101729e+000 -1.311819e+000 -4.314176e-001 1.647143e+000 3.129383e+000 -2.075836e-001 -9.543645e-001 -9.130291e-001 6.963604e-001 3.249624e+000
<VARIANCE> 25
 7.261265e+000 7.172233e+001 4.841848e+001 5.038009e+001 4.576004e+001 5.178701e+001 4.880496e+001 8.229857e+001 4.222693e+001 2.458694e+001 4.746290e+001 5.379267e+001 1.737497e+000 4.812435e+000 5.698680e+000 3.919741e+000 5.502571e+000 4.512385e+000 4.803539e+000 7.688042e+000 2.247869e+000 5.044680e+000 2.458367e+000 3.455247e+000 6.189694e+000
<GCONST> 1.093024e+002
~s "ST_ae_3_1"
<MEAN> 25
 1.148595e+000 -9.313969e+000 4.295788e+000 -4.340536e+000 -3.619773e+000 -4.637403e+000 6.198615e+000 1.070547e+001 1.897196e+000 -5.406684e+000 -2.335463e+000 1.019119e+000 -3.311676e-001 -8.643014e-001 5.856618e-001 -1.344595e+000 -1.045451e-001 8.830184e-001 2.106650e+000 1.417683e+000 -1.172686e+000 -1.027946e+000 -5.798116e-001 1.073579e+000 9.477067e-001
<VARIANCE> 25
 7.699756e+000 2.627716e+001 2.031057e+001 1.577380e+001 4.931505e+001 5.159171e+001 6.852268e+001 2.215182e+001 2.771051e+001 1.646520e+001 4.250974e+001 2.695977e+001 3.545363e-001 1.791167e+000 1.224454e+000 1.372699e+000 1.375266e+000 2.577281e+000 1.590342e+000 3.650144e+000 2.123095e+000 1.796920e+000 1.170743e+000 1.995138e+000 1.533403e+000
<GCONST> 9.106421e+001
~s "ST_ae_4_1"
<MEAN> 25
 1.662326e+000 -9.650576e+000 5.483099e+000 -4.669577e+000 -5.210003e+000 -2.576291e+000 8.359967e+000 1.107768e+001 -2.058666e+000 -5.375851e+000 -2.232315e+000 1.386226e+000 1.608651e-001 3.479379e-001 -2.744656e-001 4.038299e-001 2.588038e-001 -1.353792e-001 -3.766444e-001 -2.811137e-001 1.376427e-002 3.597905e-001 8.218987e-002 -2.429126e-001 -5.092839e-001
<VARIANCE> 25
 8.894779e+000 2.642345e+001 2.758792e+001 1.910065e+001 3.812661e+001 4.191708e+001 3.731172e+001 2.427184e+001 2.490809e+001 2.898835e+001 3.548236e+001 1.864674e+001 3.673211e-001 1.107392e+000 1.587778e+000 1.514984e+000 1.090839e+000 1.190387e+000 2.713523e+000 1.373473e+000 1.738813e+000 1.103519e+000 1.465517e+000 1.364432e+000 1.214693e+000
<GCONST> 8.802996e+001
~s "ST_w_2_1"
<MEAN> 25
 6.935822e+000 3.502652e-001 -1.511950e+000 -1.656515e+000 1.448337e+000 4.779132e+000 -2.459440e+000 -4.351686e+000 -2.011931e+000 3.726036e+000 -1.934211e-002 -8.686585e-001 1.072723e+000 -8.238546e-001 1.225618e+000 -1.620199e+000 -5.824976e-001 5.821991e-001 -1.133275e+000 -8.920017e-002 -1.164323e+000 8.211450e-001 1.173360e+000 6.627500e-002 1.441139e+000
<VARIANCE> 25
 1.048997e+001 4.540303e+001 3.892516e+001 1.041687e+002 2.480043e+001 3.614910e+001 5.942569e+001 3.963024e+001 3.805858e+001 6.370121e+001 3.165585e+001 1.808471e+001 1.601155e+000 3.603519e+000 4.299292e+000 7.507428e+000 1.519295e+000 2.842402e+000 3.135727e+000 4.769903e+000 4.029996e+000 3.039780e+000 2.936866e+000 1.752802e+000 5.708654e+000
<GCONST> 1.044079e+002
~s "ST_w_3_1"
<MEAN> 25
 7.656513e+000 -9.161621e-001 -7.638558e-001 -1.105767e+001 7.331634e-001 7.126973e+000 -1.294024e-001 -3.527832e+000 -3.084913e+000 3.328661e+000 1.110427e+000 3.114508e+000 -4.763664e-002 -4.469857e-001 2.692557e-001 -8.403808e-001 1.298953e-001 -1.482486e-001 -1.321113e-001 1.623593e-001 2.103325e-001 5.879396e-001 -5.222244e-002 1.639538e-001 4.948023e-001
<VARIANCE> 25
 8.455023e+000 3.205058e+001 3.688710e+001 8.676483e+001 1.754341e+001 2.686177e+001 4.115862e+001 3.280913e+001 3.226479e+001 4.356171e+001 2.116671e+001 3.370276e+001 3.800266e-001 1.818053e+000 1.549464e+000 4.039579e+000 2.255953e+000 1.458047e+000 2.015039e+000 1.815283e+000 2.569458e+000 3.065857e+000 1.849797e+000 2.961091e+000 1.689383e+000
<GCONST> 9.504263e+001
~s "ST_w_4_1"
<MEAN> 25
 6.671797e+000 -4.748814e+000 3.135143e+000 -9.848697e+000 2.456729e+000 8.355768e-001 -5.957274e+000 -1.036223e+000 -1.255049e+000 1.189794e+001 -1.238320e+000 -7.410879e-001 -3.297206e-001 -4.287353e-001 5.516633e-001 5.219508e-001 -1.133044e-001 -1.286997e+000 -4.498578e-002 8.708282e-001 2.396170e-001 6.021631e-003 -6.591193e-001 -1.218896e-001 1.871996e-001
<VARIANCE> 25
 5.313738e+000 1.738037e+001 3.332801e+001 7.012225e+001 1.761435e+001 3.858012e+001 3.969207e+001 2.876283e+001 4.313603e+001 5.014626e+001 3.651678e+001 1.502311e+001 2.426069e-001 7.577443e-001 1.286626e+000 1.349896e+000 1.552398e+000 1.416790e+000 1.488210e+000 2.073244e+000 3.269457e+000 1.829135e+000 2.283784e+000 1.934236e+000 7.040615e-001
<GCONST> 8.947388e+001
~s "ST_m_2_1"
<MEAN> 25
 4.812967e+000 2.588133e-001 1.870395e+000 7.239141e-001 3.235866e+000 4.018320e+000 -8.970907e-001 -7.987300e+000 -3.496624e+000 -3.486261e+000 2.686024e+000 -5.296624e-002 -1.285904e-001 7.012478e-001 1.614137e+000 2.414584e+000 6.194040e-001 -4.055042e-001 -9.573882e-001 -2.560276e+000 -1.773927e+000 -7.439237e-002 -3.863823e-001 2.597959e-001 -6.940344e-001
<VARIANCE> 25
 6.207867e+000 1.558848e+001 4.331091e+001 6.952756e+001 2.406569e+001 2.635458e+001 3.188534e+001 4.560464e+001 3.589979e+001 2.921318e+001 3.723071e+001 1.807576e+001 2.110153e-001 1.453127e+000 1.157933e+000 3.224799e+000 1.786569e+000 1.952486e+000 1.252916e+000 2.720628e+000 2.998372e+000 1.378537e+000 2.911484e+000 1.113265e+000 1.154039e+000
<GCONST> 9.108051e+001
~s "ST_m_3_1"
<MEAN> 25
 5.305933e+000 6.563249e-001 4.377959e+000 5.502271e+000 5.244481e+000 2.484478e+000 -3.345423e+000 -1.183050e+001 -7.779761e+000 -2.775379e+000 1.665821e+000 -7.574307e-001 1.832843e-001 -3.465069e-002 -2.885344e-001 -5.488932e-001 -4.682357e-001 -8.771088e-002 1.358462e-001 5.404475e-001 1.681121e-001 -6.403424e-002 -2.761597e-002 -1.715316e-002 2.726245e-001
<VARIANCE> 25
 8.318929e+000 1.330799e+001 2.384657e+001 2.512909e+001 2.035108e+001 3.684600e+001 2.697123e+001 1.611292e+001 3.111092e+001 3.250253e+001 5.731311e+001 2.349438e+001 2.088758e-001 4.929366e-001 1.137723e+000 1.354658e+000 1.168792e+000 8.632343e-001 1.022590e+000 1.393141e+000 1.721288e+000 1.146601e+000 1.233971e+000 9.451340e-001 5.345348e-001
<GCONST> 8.259724e+001
~s "ST_m_4_1"
<MEAN> 25
 6.315808e+000 -1.436854e+000 -8.664832e-001 -3.747741e+000 2.089196e+000 4.971060e+000 -6.976834e-001 -4.816463e+000 -2.725410e+000 -3.220643e+000 1.619722e+000 5.258691e-001 2.524998e-001 -1.686486e+000 -1.399756e+000 -3.299371e+000 2.159044e-001 5.605471e-001 4.428246e-001 2.887064e+000 1.316957e+000 9.592107e-001 -3.248997e-001 3.100098e-001 1.344656e+000
<VARIANCE> 25
 8.227369e+000 2.147080e+001 3.258774e+001 7.179708e+001 2.947975e+001 3.771138e+001 2.842453e+001 3.376123e+001 2.386022e+001 3.928786e+001 3.948997e+001 2.545330e+001 4.868726e-001 1.033142e+000 2.936305e+000 2.325035e+000 4.332387e+000 2.112078e+000 2.566794e+000 3.362656e+000 3.743720e+000 2.343008e+000 4.162478e+000 2.448771e+000 4.265538e-001
<GCONST> 9.575923e+001
~s "ST_ah_2_1"
<MEAN> 25
 3.301519e+000 -7.233607e+000 4.676986e+000 -9.326209e+000 3.695777e+000 -6.132842e+000 -2.476835e+000 6.468986e+000 2.653718e+000 6.995299e+000 -6.727462e+000 -7.335730e-001 -2.043403e-001 3.796888e-001 -2.834063e-001 6.152621e-001 3.330640e-001 -1.343879e-001 4.208101e-001 1.216126e-001 6.102481e-001 -5.527436e-001 -5.734902e-001 9.211113e-002 -8.637742e-001
<VARIANCE> 25
 4.908454e+000 1.085572e+001 2.475962e+001 1.679790e+001 2.698845e+001 4.115467e+001 3.416610e+001 3.144867e+001 2.555426e+001 3.036850e+001 2.133088e+001 1.779999e+001 3.749275e-001 1.002487e+000 1.012439e+000 8.693474e-001 1.157718e+000 9.282253e-001 9.160388e-001 1.376432e+000 1.315575e+000 1.248952e+000 1.535470e+000 8.618163e-001 9.024513e-001
<GCONST> 8.241059e+001
~s "ST_ah_2_2"
<MEAN> 25
 3.297288e+000 -6.909137e+000 4.655767e+000 -7.855694e+000 1.899992e+000 -4.290426e+000 -4.384834e+000 7.197510e+000 2.920119e+000 1.502614e+000 -5.483758e+000 1.314530e+000 -2.593575e-001 -3.803050e-001 5.365880e-001 -7.774971e-001 8.751389e-001 -8.933479e-001 1.232802e+000 6.178473e-001 -5.602871e-001 4.243192e-001 -9.255677e-001 8.307985e-001 -4.478803e-002
<VARIANCE> 25
 4.809546e+000 1.123586e+001 2.199489e+001 1.890673e+001 1.964193e+001 4.070894e+001 2.420717e+001 3.227494e+001 3.650641e+001 2.813372e+001 1.765608e+001 2.038315e+001 4.544349e-001 1.087088e+000 1.145871e+000 1.865615e+000 1.261482e+000 1.617860e+000 1.959732e+000 3.075205e+000 1.376666e+000 1.678692e+000 1.570852e+000 1.494141e+000 5.349078e-001
<GCONST> 8.576158e+001
~s "ST_ah_2_3"
<MEAN> 25
 3.419615e+000 -9.217299e+000 -1.676761e+000 -1.027549e+001 7.685929e+000 6.002697e+000 -2.769933e-001 3.361167e-001 1.746884e+000 -1.096716e+000 -4.482705e+000 -5.315499e-001 1.743263e-001 -6.527367e-001 5.324436e-001 -6.702697e-001 3.172193e-001 -3.187085e-001 1.756283e-001 5.158614e-001 -5.704248e-003 5.371761e-001 -6.776957e-001 2.727654e-002 6.004207e-001
<VARIANCE> 25
 7.177279e+000 1.646541e+001 2.591942e+001 2.255229e+001 4.221994e+001 5.347837e+001 3.277484e+001 4.607434e+001 3.409676e+001 3.504655e+001 3.011525e+001 3.249826e+001 4.916718e-001 1.778226e+000 1.415258e+000 2.619606e+000 2.673974e+000 3.502831e+000 2.635150e+000 3.189600e+000 1.933231e+000 1.996741e+000 2.247135e+000 2.226887e+000 1.383256e+000
<GCONST> 9.493151e+001
~s "ST_ah_3_1"
<MEAN> 25
 2.742057e+000 -2.010826e+000 2.029397e+000 -4.515125e+000 2.263381e+000 -6.519409e+000 -6.439121e-001 6.128245e+000 4.993380e+000 4.512360e+000 -7.167480e+000 1.348027e+000 -1.190514e-001 1.389899e+000 -9.568042e-001 1.385429e+000 -3.547058e-001 4.706521e-001 1.349756e-001 -1.482841e-002 -9.424328e-003 -6.596447e-001 3.782218e-001 -2.488644e-001 -1.827594e+000
<VARIANCE> 25
 4.946341e+000 2.348490e+001 2.257409e+001 2.567854e+001 3.044372e+001 3.731054e+001 2.616823e+001 2.245424e+001 2.516470e+001 2.649014e+001 1.939046e+001 2.729669e+001 3.096913e-001 9.738120e-001 8.207909e-001 9.476883e-001 1.287503e+000 1.117109e+000 1.686125e+000 1.389539e+000 1.436503e+000 2.088058e+000 1.484306e+000 1.322600e+000 7.977165e-001
<GCONST> 8.456124e+001
~s "ST_ah_3_2"
<MEAN> 25
 2.510325e+000 -3.937772e+000 2.945694e+000 -4.647657e+000 7.413472e+000 -2.370919e+000 -2.789105e-001 6.116433e+000 -1.425955e+000 1.608625e-001 -8.436428e+000 2.272860e+000 -6.495183e-002 8.066631e-001 -5.542052e-001 7.741497e-001 2.618874e-002 -6.937119e-002 3.949356e-001 -2.893035e-001 1.384560e-001 -1.355127e-001 6.046841e-002 -1.685772e-001 -1.262565e+000
<VARIANCE> 25
 4.072264e+000 1.604724e+001 2.427961e+001 1.858624e+001 1.873656e+001 2.881927e+001 1.699806e+001 2.998814e+001 1.777326e+001 2.156091e+001 1.210119e+001 1.383580e+001 3.295161e-001 1.069921e+000 9.155913e-001 9.542249e-001 1.106261e+000 9.900518e-001 1.169394e+000 9.480628e-001 1.158238e+000 1.030028e+000 8.710678e-001 7.510593e-001 9.958799e-001
<GCONST> 7.859789e+001
~s "ST_ah_3_3"
<MEAN> 25
 3.954468e+000 -7.285486e+000 -1.321217e-001 -7.704104e+000 4.849818e+000 9.128589e-001 -1.573659e+000 3.480442e+000 2.480756e+000 1.069379e+000 -4.615332e+000 -1.549870e+000 1.742557e-001 1.239838e+000 -1.994103e-001 1.173488e+000 -3.905560e-001 -1.570463e-001 -3.613386e-001 -2.459160e-001 -1.205502e-001 -2.313556e-001 8.267847e-001 -8.508799e-002 -1.161477e+000
<VARIANCE> 25
 7.688645e+000 2.303679e+001 2.931009e+001 4.280524e+001 4.025937e+001 5.130159e+001 3.952718e+001 4.365490e+001 3.731955e+001 3.183507e+001 3.456617e+001 3.034057e+001 3.866419e-001 1.899213e+000 1.378727e+000 2.691557e+000 1.936728e+000 3.830542e+000 2.465608e+000 2.863271e+000 2.628695e+000 2.961107e+000 2.082989e+000 1.965061e+000 1.819642e+000
<GCONST> 9.640106e+001
~s "ST_ah_4_1"
<MEAN> 25
 9.406760e-001 8.337601e-002 -1.211489e+001 6.056705e+000 1.951665e+000 1.021173e+001 4.306747e+000 3.332742e-001 2.031969e+000 -4.983407e+000 -1.575229e+000 -2.388174e+000 -5.064864e-001 4.048186e-001 -8.371693e-001 4.696140e-001 -3.400747e-001 2.517150e-001 2.256534e-001 5.844620e-002 2.198167e-002 -3.316764e-002 1.949868e-001 9.928273e-002 -1.084432e+000
<VARIANCE> 25
 1.151423e+001 1.465071e+001 4.284285e+001 2.977650e+001 4.076952e+001 3.454958e+001 3.422557e+001 4.854732e+001 2.351516e+001 3.839883e+001 2.420402e+001 2.342667e+001 5.123519e-001 5.898266e-001 1.395382e+000 1.497406e+000 2.570837e+000 2.477499e+000 2.889535e+000 2.447741e+000 2.294937e+000 3.272719e+000 2.343493e+000 1.637448e+000 5.893278e-001
<GCONST> 9.221848e+001
~s "ST_ah_4_2"
<MEAN> 25
 -1.383155e+000 3.523851e+000 -6.525545e+000 5.113821e+000 -5.236531e-001 -2.100360e+000 9.989938e-001 4.149031e+000 4.835040e+000 -2.898565e+000 -1.318254e+000 8.945018e-001 -4.665805e-001 2.007676e-001 -5.935937e-001 4.750509e-001 -1.741743e-001 1.892759e-001 2.229289e-001 -3.012953e-001 1.246530e-001 -2.079271e-001 4.394224e-001 1.698286e-001 -7.618164e-001
<VARIANCE> 25
 1.295659e+001 2.808101e+001 3.238232e+001 2.848504e+001 4.923840e+001 3.415931e+001 3.373701e+001 3.212635e+001 3.334222e+001 3.305391e+001 3.207315e+001 2.956203e+001 3.561723e-001 9.933787e-001 1.372760e+000 1.367357e+000 2.000698e+000 1.826685e+000 2.054810e+000 2.300890e+000 2.439233e+000 2.272949e+000 1.890713e+000 1.761238e+000 4.403899e-001
<GCONST> 9.148190e+001
~s "ST_ah_4_3"
<MEAN> 25
 3.916603e+000 -4.426149e+000 -1.857247e+000 -6.845747e+000 3.682946e+000 2.656122e+000 -1.525271e+000 8.997566e-001 2.243252e+000 -8.228493e-001 1.390822e-001 -1.974198e+000 2.087495e-001 1.496219e+000 8.268380e-002 1.492819e+000 -9.553900e-001 -2.623842e-001 -1.213816e-001 -8.417192e-001 6.913392e-002 -5.002531e-002 1.024245e+000 1.093890e-001 -1.286877e+000
<VARIANCE> 25
 8.716160e+000 1.967629e+001 5.392682e+001 3.604316e+001 5.145842e+001 5.565804e+001 4.789818e+001 4.807456e+001 3.824540e+001 4.519643e+001 3.476469e+001 2.817230e+001 5.944470e-001 2.045954e+000 1.825301e+000 4.272102e+000 2.070112e+000 3.045932e+000 2.037888e+000 3.465999e+000 2.372084e+000 3.107974e+000 1.803411e+000 1.836030e+000 1.506505e+000
<GCONST> 9.835841e+001
~s "ST_ch_2_1"
<MEAN> 25
 9.244458e+000 9.416534e+000 6.961541e-001 9.155482e+000 -6.537959e+000 -1.843544e-001 -2.371203e+000 -7.286905e+000 -2.187238e+000 -5.097932e-001 -7.145562e-001 -2.943545e+000 -6.589794e-001 1.202620e+000 -1.093720e+000 7.550499e-001 6.600053e-001 -4.402874e-001 1.592120e+000 3.904946e-001 -1.528199e-001 -1.103024e+000 -5.766806e-002 -3.587700e-001 -1.286888e+000
<VARIANCE> 25
 1.979583e+001 1.031119e+001 3.108758e+001 9.369608e+000 2.523202e+001 1.931433e+001 2.642075e+001 1.817262e+001 1.457551e+001 2.009609e+001 1.887446e+001 2.059944e+001 1.013395e+000 3.201905e-001 4.349300e-001 8.970602e-001 3.561661e+000 1.858833e+000 1.959642e+000 1.791053e+000 1.668771e+000 2.203861e+000 2.192900e+000 1.384468e+000 3.557239e-001
<GCONST> 8.340412e+001
~s "ST_ch_3_1"
<MEAN> 25
 1.123576e+000 1.341458e+001 -6.158282e+000 1.039738e+001 1.946388e+000 -2.730764e+000 9.377309e-001 -1.115236e+000 1.846584e+000 -8.261688e+000 -2.421373e+000 -5.527792e+000 -3.752408e+000 -7.961268e-001 -2.605456e-001 -2.063468e+000 7.189801e-001 5.789375e-002 -5.174511e-001 1.068452e+000 4.777935e-001 -8.412548e-001 6.756129e-002 1.962949e-001 9.764621e-001
<VARIANCE> 25
 2.864530e+001 8.810614e+000 2.848034e+001 1.103377e+001 1.302808e+001 2.826497e+001 5.956836e+001 3.838873e+001 4.349179e+001 2.533002e+001 2.182161e+001 1.903578e+001 2.323582e+000 2.367620e+000 4.490261e+000 3.092848e+000 5.366451e+000 2.164705e+000 3.706941e+000 4.895963e+000 2.747358e+000 1.940290e+000 2.137475e+000 5.198528e+000 4.447042e+000
<GCONST> 9.916624e+001
~s "ST_ch_4_1"
<MEAN> 25
 -1.629010e+001 4.716568e+000 -2.256831e+000 6.678728e+000 1.137399e-001 -3.717507e+000 4.473573e+000 1.819291e+000 1.823810e+000 -6.172652e+000 4.257759e+000 1.434032e-001 -4.524836e-001 -4.057330e-001 1.139576e+000 -3.397824e-001 -6.416204e-001 -1.378660e-002 -2.081058e-001 -1.691019e-001 -5.442668e-001 2.458962e-001 1.977250e-001 -3.593043e-002 9.722446e-001
<VARIANCE> 25
 2.364555e+001 2.699430e+001 3.770579e+001 2.992765e+001 2.037385e+001 1.879510e+001 1.615773e+001 3.942881e+001 3.022952e+001 1.883162e+001 2.395245e+001 1.794912e+001 7.625641e+000 1.344408e+000 4.932346e+000 2.497831e+000 2.263374e+000 1.427172e+000 2.599686e+000 2.006185e+000 2.107503e+000 1.439631e+000 2.495691e+000 1.854958e+000 2.137906e+000
<GCONST> 9.531207e+001
~s "ST_eh_2_1"
<MEAN> 25
 8.402608e-001 -3.739094e+000 1.454807e+001 -2.752273e+000 -1.187630e+001 -5.829867e+000 3.486693e-001 4.565189e+000 -8.914036e+000 4.439262e+000 5.670149e+000 1.952803e+000 -2.062195e-001 -5.736659e-001 1.803062e+000 -1.750731e+000 -1.269241e+000 2.307274e-001 9.816701e-002 6.070263e-001 -1.394382e+000 1.776638e+000 5.290019e-001 2.060739e-001 1.323140e+000
<VARIANCE> 25
 1.334622e+001 1.984524e+001 2.128383e+001 2.138569e+001 1.850498e+001 3.163848e+001 4.108239e+001 3.026724e+001 3.706254e+001 3.743064e+001 2.708386e+001 1.860757e+001 1.098384e+000 1.488029e+000 2.683128e+000 2.773333e+000 1.926329e+000 2.488569e+000 3.185376e+000 2.864929e+000 3.418874e+000 3.231590e+000 1.949145e+000 1.969313e+000 2.211309e+000
<GCONST> 9.542017e+001
~s "ST_eh_3_1"
<MEAN> 25
 -9.386603e-001 -1.579887e+000 1.835660e+001 -6.462197e+000 -1.307967e+001 -3.204180e+000 -1.916703e+000 1.889781e+000 -1.214734e+001 1.053000e+001 4.166980e+000 2.066394e+000 -1.129461e-001 8.479618e-002 1.491300e-001 -3.768313e-002 1.125670e-001 -2.194862e-002 1.635754e-001 -2.516326e-001 -5.134833e-002 8.101499e-002 -5.262654e-002 -5.567088e-002 -2.139547e-001
<VARIANCE> 25
 9.105095e+000 1.757422e+001 1.162840e+001 1.526383e+001 1.385093e+001 2.533063e+001 2.523755e+001 2.238463e+001 2.125963e+001 2.075161e+001 1.581949e+001 2.393977e+001 2.507889e-001 4.227953e-001 5.994778e-001 5.111617e-001 5.536807e-001 6.030277e-001 9.606097e-001 7.725351e-001 8.673111e-001 6.494315e-001 6.174247e-001 4.812871e-001 3.048584e-001
<GCONST> 7.262701e+001
~s "ST_eh_4_1"
<MEAN> 25
 -2.111308e+000 3.517803e+000 1.112811e+001 9.985741e-001 -1.100084e+001 -3.775716e+000 3.530009e+000 4.371537e-001 -7.906467e+000 4.602013e+000 4.435903e+000 -7.700372e-001 -8.499572e-002 6.629397e-001 -1.135491e+000 9.488447e-001 2.461527e-001 2.346048e-001 1.796612e-001 -1.098849e-001 6.816275e-001 -9.312166e-001 -9.124558e-002 -1.841397e-001 -1.287131e+000
<VARIANCE> 25
 8.540730e+000 2.937079e+001 4.032041e+001 3.227886e+001 3.548257e+001 3.662424e+001 3.789641e+001 3.129915e+001 4.487023e+001 3.936420e+001 3.615460e+001 2.772174e+001 4.713505e-001 1.212635e+000 1.804152e+000 1.965017e+000 2.369513e+000 2.014399e+000 2.641991e+000 2.242980e+000 2.754576e+000 2.741091e+000 2.146272e+000 2.033676e+000 1.343956e+000
<GCONST> 9.511729e+001
~s "ST_p_2_1"
<MEAN> 25
 3.564352e+000 3.340584e+000 -9.853947e+000 -5.196514e-002 3.011547e+000 7.853218e+000 3.021784e+000 -3.774767e+000 2.445173e+000 -1.187644e+000 5.698716e-001 -1.747216e+000 -4.080355e-001 4.488368e-001 -6.198319e-001 1.113314e+000 4.175431e-002 1.864468e-002 1.439416e-001 -2.107976e-001 2.692456e-001 -4.128695e-001 3.507245e-001 -2.423937e-001 -8.558557e-001
<VARIANCE> 25
 1.573119e+001 6.407111e+001 5.077823e+001 1.243527e+002 3.869439e+001 5.053788e+001 3.461300e+001 3.242276e+001 3.296161e+001 2.774104e+001 2.181385e+001 1.892812e+001 8.439481e-001 2.569535e+000 2.081103e+000 5.828004e+000 3.124154e+000 2.137477e+000 2.103519e+000 3.015613e+000 3.345063e+000 2.473660e+000 2.064591e+000 2.255899e+000 1.917688e+000
<GCONST> 1.003747e+002
~s "ST_p_3_1"
<MEAN> 25
 -7.212342e+000 3.983283e+000 -7.587106e+000 1.133305e+001 1.359706e+000 -2.977434e-001 6.088273e+000 -2.059410e+000 4.416198e+000 -1.202160e+000 4.048118e+000 -1.299893e+000 -4.145351e-001 -2.471508e-002 7.778009e-002 2.420588e-001 1.771168e-002 -6.077346e-002 3.135659e-002 1.075350e-001 -1.565495e-001 -2.042649e-001 1.936313e-001 3.705993e-001 -2.743434e-001
<VARIANCE> 25
 2.707209e+001 4.604757e+001 3.401794e+001 5.688342e+001 3.260353e+001 6.124899e+001 3.145200e+001 5.107001e+001 3.630794e+001 5.320332e+001 2.582409e+001 2.437739e+001 8.290028e-001 1.086406e+000 1.284986e+000 1.901229e+000 1.851684e+000 2.910322e+000 2.289053e+000 3.804686e+000 2.315473e+000 3.483276e+000 1.888217e+000 2.149163e+000 7.335390e-001
<GCONST> 9.745089e+001
~s "ST_p_4_1"
<MEAN> 25
 -3.374312e-001 2.708163e+000 -6.300218e+000 4.950395e+000 -1.396333e+000 1.670835e+000 3.170489e+000 -1.401102e+000 1.461339e+000 -2.657192e+000 4.245307e+000 4.584116e-001 2.386044e+000 -1.871720e+000 1.682524e+000 -3.680759e+000 -1.537668e-001 9.933856e-001 -8.532077e-001 -3.153134e-001 -6.311668e-001 7.915294e-001 -1.063899e-001 -4.040636e-001 4.209706e+000
<VARIANCE> 25
 5.274095e+001 4.272116e+001 5.190271e+001 1.481629e+002 4.674833e+001 8.240549e+001 3.663243e+001 4.244998e+001 3.730113e+001 3.964554e+001 2.993687e+001 2.123561e+001 4.009502e+000 4.920221e+000 8.197138e+000 1.748381e+001 7.095539e+000 1.229122e+001 4.493790e+000 6.055605e+000 6.231965e+000 4.934868e+000 3.425684e+000 2.409527e+000 7.892974e+000
<GCONST> 1.152960e+002
~s "ST_ih_2_1"
<MEAN> 25
 -2.151248e+000 3.131656e+000 1.406989e+001 2.213474e+000 -9.991532e+000 -4.679645e-001 -1.041435e+000 -2.403308e+000 -9.155522e+000 8.672485e-002 6.286460e+000 -3.915035e-001 5.128376e-001 -8.892184e-001 3.678636e+000 -2.161254e+000 -1.722497e+000 3.906672e-001 -1.500769e+000 8.324176e-001 -2.849989e+000 1.954780e+000 7.045217e-001 1.784209e-001 1.912982e+000
<VARIANCE> 25
 3.102460e+001 2.934571e+001 6.828716e+001 4.295290e+001 3.606513e+001 5.031335e+001 4.764838e+001 3.494192e+001 5.866884e+001 3.693402e+001 3.424921e+001 2.729464e+001 3.354513e+000 2.659250e+000 7.648254e+000 3.396229e+000 3.920302e+000 4.437224e+000 4.154258e+000 2.443920e+000 4.106555e+000 3.908079e+000 3.518171e+000 3.405602e+000 2.515141e+000
<GCONST> 1.069880e+002
~s "ST_ih_3_1"
<MEAN> 25
 -1.851425e+000 1.732908e+000 2.109802e+001 -4.045366e+000 -1.207477e+001 1.146121e+000 -6.372255e+000 -7.135077e-001 -1.549703e+001 7.016230e+000 4.001513e+000 1.052604e+000 1.379159e-002 1.790131e-001 7.837280e-002 -3.209874e-001 6.903217e-003 1.233431e-001 -1.157794e-002 -1.459096e-001 5.139316e-003 4.709592e-001 -1.423529e-001 6.903776e-002 -6.716278e-002
<VARIANCE> 25
 8.793683e+000 1.502610e+001 1.852443e+001 2.032135e+001 1.816962e+001 2.378559e+001 1.872549e+001 2.137063e+001 2.668032e+001 1.848022e+001 3.447822e+001 2.332071e+001 3.793965e-001 7.580498e-001 7.398621e-001 8.770646e-001 7.842562e-001 1.349791e+000 1.332175e+000 1.168251e+000 1.139814e+000 1.468870e+000 1.182554e+000 1.393072e+000 5.854525e-001
<GCONST> 8.101232e+001
~s "ST_ih_4_1"
<MEAN> 25
 -1.339394e+000 5.657715e+000 1.268129e+001 1.147627e+000 -9.825480e+000 -9.566354e-001 -1.215601e+000 -3.142953e+000 -9.045981e+000 2.003368e+000 4.644608e+000 -1.559392e+000 1.937186e-001 4.699968e-001 -1.601258e+000 1.001753e+000 8.032585e-001 -2.737880e-001 3.961076e-001 -2.471013e-001 1.223822e+000 -8.585587e-001 -4.065734e-001 -1.891088e-001 -1.078133e+000
<VARIANCE> 25
 1.245553e+001 2.059675e+001 5.731479e+001 3.601642e+001 2.748938e+001 2.925529e+001 2.853311e+001 2.632831e+001 4.464667e+001 4.282656e+001 4.199052e+001 2.678378e+001 8.296561e-001 1.244280e+000 2.778265e+000 2.837799e+000 2.757762e+000 2.543753e+000 2.613782e+000 2.843519e+000 2.665426e+000 3.121758e+000 2.370548e+000 2.335164e+000 1.456513e+000
<GCONST> 9.727608e+001
~h "b"
<BEGINHMM>
<NUMSTATES> 5
<STATE> 2
~s "ST_b_2_1"
<STATE> 3
~s "ST_b_3_1"
<STATE> 4
~s "ST_b_4_1"
~t "T_b"
<ENDHMM>
~h "d"
<BEGINHMM>
<NUMSTATES> 5
<STATE> 2
~s "ST_d_2_1"
<STATE> 3
~s "ST_d_3_1"
<STATE> 4
~s "ST_d_4_1"
~t "T_d"
<ENDHMM>
~h "g"
<BEGINHMM>
<NUMSTATES> 5
<STATE> 2
~s "ST_g_2_1"
<STATE> 3
~s "ST_g_3_1"
<STATE> 4
~s "ST_g_4_1"
~t "T_g"
<ENDHMM>
~h "h"
<BEGINHMM>
<NUMSTATES> 5
<STATE> 2
~s "ST_h_2_1"
<STATE> 3
~s "ST_h_3_1"
<STATE> 4
~s "ST_h_4_1"
~t "T_h"
<ENDHMM>
~h "j"
<BEGINHMM>
<NUMSTATES> 5
<STATE> 2
~s "ST_j_2_1"
<STATE> 3
~s "ST_j_3_1"
<STATE> 4
~s "ST_j_4_1"
~t "T_j"
<ENDHMM>
~h "k"
<BEGINHMM>
<NUMSTATES> 5
<STATE> 2
~s "ST_k_2_1"
<STATE> 3
~s "ST_k_3_1"
<STATE> 4
~s "ST_k_4_1"
~t "T_k"
<ENDHMM>
~h "l"
<BEGINHMM>
<NUMSTATES> 5
<STATE> 2
~s "ST_l_2_1"
<STATE> 3
~s "ST_l_3_1"
<STATE> 4
~s "ST_l_4_1"
~t "T_l"
<ENDHMM>
~h "m"
<BEGINHMM>
<NUMSTATES> 5
<STATE> 2
~s "ST_m_2_1"
<STATE> 3
~s "ST_m_3_1"
<STATE> 4
~s "ST_m_4_1"
~t "T_m"
<ENDHMM>
~h "n"
<BEGINHMM>
<NUMSTATES> 5
<STATE> 2
~s "ST_n_2_1"
<STATE> 3
~s "ST_n_3_1"
<STATE> 4
~s "ST_n_4_1"
~t "T_n"
<ENDHMM>
~h "o"
<BEGINHMM>
<NUMSTATES> 5
<STATE> 2
~s "ST_o_2_1"
<STATE> 3
~s "ST_o_3_1"
<STATE> 4
~s "ST_o_4_1"
~t "T_o"
<ENDHMM>
~h "p"
<BEGINHMM>
<NUMSTATES> 5
<STATE> 2
~s "ST_p_2_1"
<STATE> 3
~s "ST_p_3_1"
<STATE> 4
~s "ST_p_4_1"
~t "T_p"
<ENDHMM>
~h "r"
<BEGINHMM>
<NUMSTATES> 5
<STATE> 2
~s "ST_r_2_1"
<STATE> 3
~s "ST_r_3_1"
<STATE> 4
~s "ST_r_4_1"
~t "T_r"
<ENDHMM>
~h "s"
<BEGINHMM>
<NUMSTATES> 5
<STATE> 2
~s "ST_s_2_1"
<STATE> 3
~s "ST_s_3_1"
<STATE> 4
~s "ST_s_4_1"
~t "T_s"
<ENDHMM>
~h "t"
<BEGINHMM>
<NUMSTATES> 5
<STATE> 2
~s "ST_t_2_1"
<STATE> 3
~s "ST_t_3_1"
<STATE> 4
~s "ST_t_4_1"
~t "T_t"
<ENDHMM>
~h "w"
<BEGINHMM>
<NUMSTATES> 5
<STATE> 2
~s "ST_w_2_1"
<STATE> 3
~s "ST_w_3_1"
<STATE> 4
~s "ST_w_4_1"
~t "T_w"
<ENDHMM>
~h "y"
<BEGINHMM>
<NUMSTATES> 5
<STATE> 2
~s "ST_y_2_1"
<STATE> 3
~s "ST_y_3_1"
<STATE> 4
~s "ST_y_4_1"
~t "T_y"
<ENDHMM>
~h "t-aa"
<BEGINHMM>
<NUMSTATES> 5
<STATE> 2
~s "ST_aa_2_1"
<STATE> 3
~s "ST_aa_3_1"
<STATE> 4
~s "ST_aa_4_1"
~t "T_aa"
<ENDHMM>
~h "t-ah"
<BEGINHMM>
<NUMSTATES> 5
<STATE> 2
~s "ST_ah_2_2"
<STATE> 3
~s "ST_ah_3_1"
<STATE> 4
~s "ST_ah_4_2"
~t "T_ah"
<ENDHMM>
~h "t-ih"
<BEGINHMM>
<NUMSTATES> 5
<STATE> 2
~s "ST_ih_2_1"
<STATE> 3
~s "ST_ih_3_1"
<STATE> 4
~s "ST_ih_4_1"
~t "T_ih"
<ENDHMM>
~h "d-eh+k"
<BEGINHMM>
<NUMSTATES> 5
<STATE> 2
~s "ST_eh_2_1"
<STATE> 3
~s "ST_eh_3_1"
<STATE> 4
~s "ST_eh_4_1"
~t "T_eh"
<ENDHMM>
~h "ae"
<BEGINHMM>
<NUMSTATES> 5
<STATE> 2
~s "ST_ae_2_1"
<STATE> 3
~s "ST_ae_3_1"
<STATE> 4
~s "ST_ae_4_1"
<TRANSP> 5
 0.000000e+000 1.000000e+000 0.000000e+000 0.000000e+000 0.000000e+000
 0.000000e+000 4.777018e-001 5.222982e-001 0.000000e+000 0.000000e+000
 0.000000e+000 0.000000e+000 4.339326e-001 5.660674e-001 0.000000e+000
 0.000000e+000 0.000000e+000 0.000000e+000 9.057932e-001 9.420678e-002
 0.000000e+000 0.000000e+000 0.000000e+000 0.000000e+000 0.000000e+000
<ENDHMM>
~h "ah"
<BEGINHMM>
<NUMSTATES> 5
<STATE> 2
~s "ST_ah_2_1"
<STATE> 3
~s "ST_ah_3_1"
<STATE> 4
~s "ST_ah_4_1"
~t "T_ah"
<ENDHMM>
~h "ao"
<BEGINHMM>
<NUMSTATES> 5
<STATE> 2
~s "ST_ao_2_1"
<STATE> 3
~s "ST_ao_3_1"
<STATE> 4
~s "ST_ao_4_1"
~t "T_ao"
<ENDHMM>
~h "ch"
<BEGINHMM>
<NUMSTATES> 5
<STATE> 2
~s "ST_ch_2_1"
<STATE> 3
~s "ST_ch_3_1"
<STATE> 4
~s "ST_ch_4_1"
~t "T_ch"
<ENDHMM>
~h "iy"
<BEGINHMM>
<NUMSTATES> 5
<STATE> 2
~s "ST_iy_2_1"
<STATE> 3
~s "ST_iy_3_1"
<STATE> 4
~s "ST_iy_4_1"
~t "T_iy"
<ENDHMM>
~h "sp"
<BEGINHMM>
<NUMSTATES> 3
<STATE> 2
~s "ST_sil_3_1"
<TRANSP> 3
 0.000000e+000 5.325067e-001 4.674933e-001
 0.000000e+000 8.853725e-001 1.146275e-001
 0.000000e+000 0.000000e+000 0.000000e+000
<ENDHMM>
~h "th"
<BEGINHMM>
<NUMSTATES> 5
<STATE> 2
~s "ST_th_2_1"
<STATE> 3
~s "ST_th_3_1"
<STATE> 4
~s "ST_th_4_1"
~t "T_th"
<ENDHMM>
~h "uh"
<BEGINHMM>
<NUMSTATES> 5
<STATE> 2
~s "ST_uh_2_1"
<STATE> 3
~s "ST_uh_3_1"
<STATE> 4
~s "ST_uh_4_1"
~t "T_uh"
<ENDHMM>
~h "h-ah+ah"
<BEGINHMM>
<NUMSTATES> 5
<STATE> 2
~s "ST_ah_2_3"
<STATE> 3
~s "ST_ah_3_3"
<STATE> 4
~s "ST_ah_4_1"
~t "T_ah"
<ENDHMM>
~h "h-ah+th"
<BEGINHMM>
<NUMSTATES> 5
<STATE> 2
~s "ST_ah_2_3"
<STATE> 3
~s "ST_ah_3_3"
<STATE> 4
~s "ST_ah_4_3"
~t "T_ah"
<ENDHMM>
~h "k-ae+th"
<BEGINHMM>
<NUMSTATES> 5
<STATE> 2
~s "ST_ae_2_1"
<STATE> 3
~s "ST_ae_3_1"
<STATE> 4
~s "ST_ae_4_1"
~t "T_ae"
<ENDHMM>
~h "m-ah+g"
<BEGINHMM>
<NUMSTATES> 5
<STATE> 2
~s "ST_ah_2_3"
<STATE> 3
~s "ST_ah_3_3"
<STATE> 4
~s "ST_ah_4_2"
~t "T_ah"
<ENDHMM>
~h "m-ah"
<BEGINHMM>
<NUMSTATES> 5
<STATE> 2
~s "ST_ah_2_1"
<STATE> 3
~s "ST_ah_3_1"
<STATE> 4
~s "ST_ah_4_2"
~t "T_ah"
<ENDHMM>
~h "eh-n+ah"
<BEGINHMM>
<NUMSTATES> 5
<STATE> 2
~s "ST_n_2_1"
<STATE> 3
~s "ST_n_3_1"
<STATE> 4
~s "ST_n_4_2"
~t "T_n"
<ENDHMM>
~h "n-ah"
<BEGINHMM>
<NUMSTATES> 5
<STATE> 2
~s "ST_ah_2_2"
<STATE> 3
~s "ST_ah_3_2"
<STATE> 4
~s "ST_ah_4_2"
~t "T_ah"
<ENDHMM>
~h "sil"
<BEGINHMM>
<NUMSTATES> 5
<STATE> 2
~s "ST_sil_2_1"
<STATE> 3
~s "ST_sil_3_1"
<STATE> 4
~s "ST_sil_4_1"
<TRANSP> 5
 0.000000e+000 1.000000e+000 0.000000e+000 0.000000e+000 0.000000e+000
 0.000000e+000 3.826030e-001 2.267086e-001 3.906884e-001 0.000000e+000
 0.000000e+000 0.000000e+000 7.297451e-001 2.702549e-001 0.000000e+000
 0.000000e+000 2.178491e-002 0.000000e+000 6.795850e-001 2.986301e-001
 0.000000e+000 0.000000e+000 0.000000e+000 0.000000e+000 0.000000e+000
<ENDHMM>
