~o
<STREAMINFO> 1 25
<VECSIZE> 25<NULLD><MFCC_D_N_Z_0><DIAGC>
~h "b"
<BEGINHMM>
<NUMSTATES> 5
<STATE> 2
<MEAN> 25
 5.325362e+000 1.052891e+001 -3.818614e-001 9.539876e+000 7.374120e-001 3.403102e+000 -3.051789e+000 -7.076458e+000 -4.443698e+000 -2.552341e+000 -6.014547e-001 -3.106194e+000 6.197821e-001 -8.382446e-001 1.334231e+000 -1.353892e+000 -5.645545e-001 -3.663556e-002 -1.160756e+000 -3.500264e-001 -2.801273e-001 1.483594e+000 4.863150e-001 -2.164097e-001 1.926487e+000
<VARIANCE> 25
 1.485804e+001 7.660106e+001 3.146791e+001 1.474490e+002 3.836231e+001 8.468031e+001 3.621398e+001 4.015824e+001 2.916173e+001 5.839133e+001 2.987963e+001 2.985225e+001 2.391686e+000 6.576871e+000 2.960659e+000 7.731126e+000 3.209756e+000 3.436173e+000 2.411493e+000 5.554995e+000 3.742741e+000 5.130324e+000 3.707496e+000 4.208055e+000 3.327729e+000
<GCONST> 1.088146e+002
<STATE> 3
<MEAN> 25
 5.062206e+000 -7.244129e-001 4.076621e+000 -9.369626e-001 -2.445328e+000 -2.147990e-001 -9.137263e+000 -9.727292e-001 -6.432019e-001 5.356902e+000 3.225345e+000 -2.339661e+000 -5.870277e-001 -1.003904e+000 1.537474e+000 -9.731923e-001 -1.153898e+000 -6.286454e-001 -4.060918e-001 1.671097e+000 -9.372182e-001 7.290394e-001 -3.096169e-001 4.419393e-001 1.353352e+000
<VARIANCE> 25
 1.383382e+001 6.243696e+001 6.259813e+001 1.468421e+002 5.077162e+001 2.948972e+001 3.774956e+001 6.635759e+001 9.481140e+001 8.013504e+001 3.455588e+001 3.638443e+001 1.459917e+000 3.505757e+000 3.208734e+000 1.159249e+001 5.810917e+000 4.043174e+000 3.023435e+000 8.377390e+000 9.232099e+000 8.663482e+000 5.051611e+000 4.453464e+000 3.836468e+000
<GCONST> 1.135215e+002
<STATE> 4
<MEAN> 25
 4.143513e+000 5.180873e+000 -1.304130e+000 -3.527399e-002 -1.215314e-001 -1.182832e+000 -9.415611e+000 -3.640658e+000 9.356163e-001 6.808187e+000 1.056082e+000 -2.944394e+000 -2.516276e-001 1.822928e-001 2.566932e-001 2.691301e-001 -3.256106e-001 -2.226732e-001 5.432796e-001 3.710229e-002 5.067763e-002 -7.264300e-002 -3.399321e-001 1.819232e-001 -1.794674e-001
<VARIANCE> 25
 1.238445e+001 1.108824e+002 6.023207e+001 1.260579e+002 4.407684e+001 2.869540e+001 4.846501e+001 4.917775e+001 8.892450e+001 6.350503e+001 3.281230e+001 3.012666e+001 5.503196e-001 1.196184e+000 1.707671e+000 2.386177e+000 2.040160e+000 2.378953e+000 2.039766e+000 1.624548e+000 3.623810e+000 3.807908e+000 2.170051e+000 1.594744e+000 1.035821e+000
<GCONST> 1.002266e+002
<TRANSP> 5
 0.000000e+000 1.000000e+000 0.000000e+000 0.000000e+000 0.000000e+000
 0.000000e+000 7.299268e-001 2.700733e-001 0.000000e+000 0.000000e+000
 0.000000e+000 0.000000e+000 4.659587e-001 5.340413e-001 0.000000e+000
 0.000000e+000 0.000000e+000 0.000000e+000 7.730684e-001 2.269316e-001
 0.000000e+000 0.000000e+000 0.000000e+000 0.000000e+000 0.000000e+000
<ENDHMM>
~h "d"
<BEGINHMM>
<NUMSTATES> 5
<STATE> 2
<MEAN> 25
 1.749041e+000 8.251610e+000 -4.124745e+000 1.182154e+001 1.556701e+000 -1.660965e+000 -8.652096e-001 -3.126646e+000 4.087473e+000 -5.098063e-001 -3.031781e+000 1.166170e+000 -3.980431e-001 1.683354e-001 2.035003e-001 6.690249e-001 5.995649e-002 -4.093830e-001 2.199156e-001 1.903693e-001 1.995732e-001 -6.295952e-001 -7.004398e-002 6.435373e-002 -2.028086e-002
<VARIANCE> 25
 3.599973e+001 2.472850e+001 4.081607e+001 1.969043e+001 5.282763e+001 2.682084e+001 5.480692e+001 4.421471e+001 5.442929e+001 3.737380e+001 4.302824e+001 3.204664e+001 1.190796e+000 2.723914e+000 2.616992e+000 2.658013e+000 3.456571e+000 3.151532e+000 3.169733e+000 4.774392e+000 3.908292e+000 5.407961e+000 4.292728e+000 2.594191e+000 1.478438e+000
<GCONST> 1.033971e+002
<STATE> 3
<MEAN> 25
 3.454716e+000 1.069601e+001 1.533514e+000 1.329015e+001 -1.828236e+000 -3.224938e+000 -3.951813e-001 -4.523524e+000 9.321505e-001 -3.986674e+000 -2.839319e+000 -2.380162e+000 -1.833489e-001 -1.191960e+000 5.923924e-001 -1.522436e+000 -6.013567e-001 -1.133952e+000 4.237000e-002 6.154480e-001 3.449711e-001 -4.811082e-001 9.236282e-001 1.865386e-001 2.654886e+000
<VARIANCE> 25
 3.150752e+001 6.508685e+001 2.895921e+001 5.758015e+001 4.894360e+001 4.276254e+001 4.700550e+001 5.361518e+001 4.796930e+001 5.889379e+001 4.970412e+001 3.089276e+001 5.471738e+000 6.780184e+000 3.655449e+000 7.306149e+000 5.861305e+000 6.201870e+000 4.096427e+000 7.456673e+000 7.641670e+000 6.996619e+000 9.075693e+000 5.274590e+000 3.862932e+000
<GCONST> 1.148632e+002
<STATE> 4
<MEAN> 25
 1.367381e+000 1.860411e+000 3.440015e+000 3.409765e+000 -4.805212e+000 -9.782299e+000 -9.810542e-001 1.642523e+000 3.894981e+000 -3.233079e+000 2.473693e+000 2.242079e+000 -4.307773e-001 -1.298545e+000 1.117902e+000 -2.271691e+000 -5.017062e-001 -1.131143e+000 1.781981e-001 9.323217e-001 -5.457985e-001 1.134522e+000 6.879678e-001 7.614778e-001 1.294425e+000
<VARIANCE> 25
 1.774259e+001 5.430243e+001 3.182498e+001 6.873820e+001 4.840822e+001 2.696290e+001 3.405125e+001 6.301690e+001 4.814903e+001 3.980574e+001 4.689040e+001 3.630814e+001 1.469185e+000 4.965593e+000 3.365560e+000 6.519889e+000 4.642217e+000 4.385718e+000 6.154908e+000 3.725480e+000 4.039074e+000 4.581999e+000 6.703783e+000 3.634990e+000 5.237790e+000
<GCONST> 1.093406e+002
<TRANSP> 5
 0.000000e+000 1.000000e+000 0.000000e+000 0.000000e+000 0.000000e+000
 0.000000e+000 7.337807e-001 2.662194e-001 0.000000e+000 0.000000e+000
 0.000000e+000 0.000000e+000 7.525169e-001 2.474831e-001 0.000000e+000
 0.000000e+000 0.000000e+000 0.000000e+000 4.598573e-001 5.401427e-001
 0.000000e+000 0.000000e+000 0.000000e+000 0.000000e+000 0.000000e+000
<ENDHMM>
~h "g"
<BEGINHMM>
<NUMSTATES> 5
<STATE> 2
<MEAN> 25
 3.116597e+000 7.143689e+000 -3.086897e-001 6.169202e+000 -2.804013e+000 -1.393511e+000 -2.473196e+000 -4.917324e+000 -2.196417e+000 3.330407e+000 3.569068e+000 -8.291611e+000 -5.632320e-002 9.920471e-002 -3.935196e-001 5.581999e-001 -6.763682e-001 9.197020e-002 3.866362e-001 -6.622746e-001 -4.097814e-001 1.695703e-002 4.907168e-001 -4.279774e-001 8.454078e-002
<VARIANCE> 25
 1.477312e+001 2.433578e+001 3.213846e+001 4.162183e+001 3.683456e+001 2.348158e+001 9.225880e+001 5.731617e+001 2.625010e+001 2.389029e+001 2.210250e+001 2.559311e+001 9.967711e-001 1.421157e+000 1.858189e+000 2.564278e+000 3.757704e+000 9.924655e-001 3.967623e+000 4.712713e+000 3.559184e+000 2.581971e+000 2.189384e+000 2.466499e+000 1.409918e+000
<GCONST> 9.754758e+001
<STATE> 3
<MEAN> 25
 4.228030e+000 5.693486e+000 -3.176825e+000 8.267426e+000 -6.072632e+000 3.993692e-001 -3.301820e-001 -6.645650e+000 -1.723021e+000 8.525659e-001 4.477967e+000 -6.799514e+000 -2.493271e-001 -5.733885e-001 8.925978e-002 2.349966e-001 -7.249656e-001 4.276238e-001 9.005576e-002 4.973448e-002 -3.642078e-001 -8.753587e-001 7.651536e-001 2.129123e-001 4.551785e-001
<VARIANCE> 25
 1.136763e+001 4.394798e+001 6.920932e+001 3.767649e+001 3.899573e+001 3.696868e+001 1.148417e+002 5.003149e+001 7.197288e+001 4.390995e+001 2.695874e+001 2.089255e+001 1.679703e+000 2.141628e+000 3.337619e+000 2.753995e+000 2.736557e+000 2.137050e+000 5.385266e+000 5.709448e+000 3.736216e+000 3.627378e+000 3.244190e+000 2.455807e+000 1.391747e+000
<GCONST> 1.040516e+002
<STATE> 4
<MEAN> 25
 -9.354565e-001 5.359260e+000 -1.349140e+000 1.003846e+001 -3.807964e+000 -2.837440e-001 3.724071e+000 -4.977452e+000 -1.815172e+000 9.176221e-001 3.199088e+000 -4.644662e+000 -4.273364e-001 -1.085971e+000 1.207266e+000 -1.375058e+000 -2.199636e-001 9.461924e-002 -6.716045e-001 1.042401e+000 -2.515598e-001 1.380626e-001 -4.845351e-002 3.890471e-001 1.611965e+000
<VARIANCE> 25
 4.180194e+001 5.224560e+001 9.513197e+001 3.997038e+001 4.597245e+001 2.969940e+001 5.439829e+001 5.963753e+001 8.497471e+001 3.633694e+001 3.936782e+001 3.248730e+001 3.036379e+000 3.615218e+000 5.396145e+000 5.407808e+000 3.201776e+000 3.413217e+000 6.149736e+000 5.415432e+000 5.370452e+000 4.624983e+000 3.461465e+000 3.726795e+000 2.585394e+000
<GCONST> 1.107579e+002
<TRANSP> 5
 0.000000e+000 1.000000e+000 0.000000e+000 0.000000e+000 0.000000e+000
 0.000000e+000 6.955346e-001 3.044654e-001 0.000000e+000 0.000000e+000
 0.000000e+000 0.000000e+000 5.443333e-001 4.556668e-001 0.000000e+000
 0.000000e+000 0.000000e+000 0.000000e+000 8.386080e-001 1.613920e-001
 0.000000e+000 0.000000e+000 0.000000e+000 0.000000e+000 0.000000e+000
<ENDHMM>
~h "h"
<BEGINHMM>
<NUMSTATES> 5
<STATE> 2
<MEAN> 25
 -5.225895e+000 -1.495923e+000 -1.276382e+001 6.042528e+000 6.201898e+000 5.074564e+000 4.073428e+000 -2.335335e+000 2.000762e+000 -6.546145e+000 4.868147e+000 3.067554e+000 -2.319212e-001 -1.035774e+000 -3.140753e-001 -4.867353e-002 1.009494e+000 5.511895e-001 -6.690815e-003 -7.390399e-001 6.392570e-002 -4.099771e-001 4.639842e-002 5.410252e-001 4.018838e-001
<VARIANCE> 25
 1.488151e+001 6.046873e+001 6.301535e+001 5.423012e+001 4.416049e+001 3.932503e+001 4.238049e+001 4.238163e+001 3.118191e+001 3.166648e+001 2.469229e+001 3.129350e+001 5.799809e-001 1.535606e+000 2.531364e+000 1.690437e+000 3.050956e+000 2.081821e+000 3.193605e+000 2.250454e+000 2.519160e+000 1.894897e+000 2.078635e+000 1.919394e+000 7.051203e-001
<GCONST> 9.714020e+001
<STATE> 3
<MEAN> 25
 -1.535487e+000 -7.880725e+000 -7.163980e+000 7.209768e-001 1.268578e+001 8.921447e+000 6.185972e+000 -7.203796e+000 2.708460e+000 -6.626738e+000 -5.651311e-001 4.889072e+000 1.432510e+000 -9.667786e-003 1.588857e+000 -1.520031e+000 1.098562e-001 1.801826e-001 2.255837e-001 7.386706e-002 -8.657475e-001 9.513018e-001 -9.509329e-001 -1.003793e+000 2.404760e+000
<VARIANCE> 25
 3.315222e+001 2.887024e+001 4.631225e+001 7.493639e+001 4.067550e+001 3.115403e+001 2.268487e+001 2.698062e+001 3.307819e+001 3.018067e+001 2.561308e+001 2.933702e+001 3.010931e+000 2.622012e+000 1.890066e+000 4.895603e+000 1.892374e+000 1.503030e+000 2.608482e+000 2.392895e+000 2.411927e+000 1.967418e+000 1.931260e+000 1.710129e+000 2.929331e+000
<GCONST> 9.904670e+001
<STATE> 4
<MEAN> 25
 2.059648e+000 -7.514045e+000 -6.234039e+000 -6.038127e+000 1.000918e+001 9.432380e+000 8.083209e+000 -7.325052e+000 1.873299e+000 -2.592996e+000 -1.328111e+000 -1.215740e+000 -5.789853e-002 1.460851e-001 -1.367292e-001 1.397719e-001 -2.129344e-001 -1.010242e-001 -1.491323e-001 3.124119e-001 8.973513e-002 3.867674e-002 -1.186579e-001 -9.856513e-002 -2.662930e-001
<VARIANCE> 25
 1.325257e+001 2.969542e+001 3.657428e+001 6.783853e+001 1.989487e+001 2.031043e+001 2.851660e+001 2.422598e+001 2.245178e+001 1.713799e+001 2.124298e+001 2.858299e+001 3.404213e-001 9.565745e-001 7.269417e-001 1.739881e+000 9.065664e-001 8.898366e-001 1.195796e+000 1.173405e+000 1.199655e+000 9.888349e-001 8.190705e-001 1.531960e+000 9.823427e-001
<GCONST> 8.425641e+001
<TRANSP> 5
 0.000000e+000 1.000000e+000 0.000000e+000 0.000000e+000 0.000000e+000
 0.000000e+000 8.706754e-001 1.293246e-001 0.000000e+000 0.000000e+000
 0.000000e+000 0.000000e+000 7.301788e-001 2.698212e-001 0.000000e+000
 0.000000e+000 0.000000e+000 0.000000e+000 9.213423e-001 7.865770e-002
 0.000000e+000 0.000000e+000 0.000000e+000 0.000000e+000 0.000000e+000
<ENDHMM>
~h "j"
<BEGINHMM>
<NUMSTATES> 5
<STATE> 2
<MEAN> 25
 -2.053550e+000 1.523826e+001 3.561715e+000 6.917457e+000 5.409047e-001 -3.710766e+000 3.030723e+000 -7.476346e+000 1.160010e+000 -4.277550e+000 1.942873e+000 -1.358301e+000 -3.852830e-003 -1.249187e+000 1.678130e+000 -1.390321e+000 -6.621643e-001 -7.712102e-001 -6.377265e-001 5.025936e-001 -6.073155e-001 -1.127390e-001 1.074566e+000 4.750380e-001 2.279047e+000
<VARIANCE> 25
 5.883268e+001 6.911803e+001 6.216704e+001 5.856867e+001 4.925354e+001 3.082354e+001 4.376236e+001 8.094865e+001 4.207151e+001 5.159277e+001 6.052625e+001 1.572598e+001 7.981322e+000 1.013533e+001 4.122793e+000 2.801896e+000 4.842095e+000 3.233650e+000 4.268619e+000 1.284558e+001 4.018108e+000 5.964191e+000 6.045742e+000 1.696247e+000 1.725704e+000
<GCONST> 1.121417e+002
<STATE> 3
<MEAN> 25
 1.601519e+000 -7.487278e+000 7.586750e+000 -8.173697e+000 -5.288260e+000 -6.301211e+000 -1.546299e+000 8.247171e+000 3.376101e+000 -6.205261e-001 -1.921274e+000 3.711705e+000 4.985265e-001 -1.867742e+000 -2.872145e+000 -7.541575e-001 1.381333e+000 1.324197e+000 9.339903e-001 1.017881e+000 2.188950e+000 -9.668224e-002 -3.244061e+000 -7.886512e-001 1.202074e+000
<VARIANCE> 25
 5.282401e+000 2.866264e+001 4.525417e+001 1.946034e+001 2.109336e+001 1.191216e+001 4.616134e+001 3.155537e+001 5.450170e+001 3.733142e+001 7.473738e+001 2.468994e+001 6.237054e-001 2.842344e+000 2.330129e+000 1.839209e+000 2.576825e+000 1.828018e+000 1.664405e+000 5.401454e+000 1.921835e+000 3.062093e+000 1.713598e+000 1.723160e+000 5.817965e-001
<GCONST> 9.378366e+001
<STATE> 4
<MEAN> 25
 3.321551e+000 -6.406979e+000 -5.055326e+000 -4.716965e+000 5.815496e+000 2.999509e+000 -2.892859e+000 -5.088871e-001 6.591145e+000 -5.555536e-001 -1.017697e+001 -2.164612e+000 1.371384e-001 7.283582e-002 -3.282910e-001 1.474994e-001 3.258951e-001 3.427091e-001 -1.406817e-001 -4.805470e-001 2.413539e-002 1.587300e-001 -8.131494e-002 -3.611176e-001 -5.963736e-001
<VARIANCE> 25
 9.951784e+000 3.175973e+001 4.496479e+001 2.771615e+001 2.732742e+001 3.826809e+001 3.935367e+001 5.192120e+001 3.308761e+001 4.868591e+001 3.147014e+001 1.918943e+001 8.292767e-001 1.483102e+000 3.292870e+000 1.317664e+000 1.581836e+000 2.380610e+000 2.593846e+000 4.594296e+000 2.475685e+000 3.783483e+000 1.786309e+000 2.779284e+000 1.006343e+000
<GCONST> 9.651783e+001
<TRANSP> 5
 0.000000e+000 1.000000e+000 0.000000e+000 0.000000e+000 0.000000e+000
 0.000000e+000 9.055786e-001 9.442145e-002 0.000000e+000 0.000000e+000
 0.000000e+000 0.000000e+000 7.802809e-001 2.197191e-001 0.000000e+000
 0.000000e+000 0.000000e+000 0.000000e+000 8.862048e-001 1.137952e-001
 0.000000e+000 0.000000e+000 0.000000e+000 0.000000e+000 0.000000e+000
<ENDHMM>
~h "k"
<BEGINHMM>
<NUMSTATES> 5
<STATE> 2
<MEAN> 25
 -4.616679e+000 -5.067211e-001 -5.332864e+000 5.257053e+000 -1.682580e+000 -3.933338e+000 -9.439523e-001 7.070245e-001 -2.090879e+000 1.180310e-002 3.432092e+000 -2.651667e+000 4.358221e-001 -1.655058e+000 7.633774e-001 -1.669036e+000 8.815077e-001 -8.888932e-002 -7.542592e-001 7.136558e-001 -5.194587e-001 8.743223e-001 -4.712944e-001 -1.659339e-001 2.873600e+000
<VARIANCE> 25
 2.902573e+001 5.036340e+001 9.185266e+001 4.668043e+001 7.236064e+001 6.373296e+001 5.423133e+001 3.932130e+001 5.087506e+001 4.250008e+001 3.090082e+001 2.982889e+001 5.127447e+000 5.112419e+000 1.695859e+001 6.080995e+000 8.197003e+000 4.922399e+000 6.800266e+000 4.402853e+000 6.166763e+000 5.782418e+000 3.436180e+000 3.341368e+000 4.064567e+000
<GCONST> 1.146205e+002
<STATE> 3
<MEAN> 25
 2.181355e+000 -8.173774e+000 5.319059e+000 -8.967800e+000 1.201308e+000 -6.742329e+000 -3.526036e+000 7.529310e+000 -3.747231e+000 6.939629e+000 -1.969660e+000 -1.599689e+000 5.514242e-001 -6.899041e-001 7.905100e-001 -1.562652e+000 4.527375e-001 -9.306387e-002 4.702839e-001 4.913589e-001 4.868727e-001 4.492153e-001 -7.434188e-001 2.407937e-001 9.242461e-001
<VARIANCE> 25
 1.286151e+001 1.471613e+001 4.230899e+001 2.558137e+001 2.665846e+001 4.526493e+001 3.738827e+001 2.148056e+001 2.403322e+001 2.576971e+001 2.100747e+001 2.089721e+001 1.313965e+000 3.322349e+000 4.309709e+000 3.722520e+000 1.415711e+000 9.916934e-001 2.616843e+000 1.897272e+000 2.102352e+000 3.056108e+000 1.841952e+000 1.026152e+000 2.897391e+000
<GCONST> 9.422557e+001
<STATE> 4
<MEAN> 25
 1.497878e+000 -2.374640e+000 4.646727e+000 -4.023373e+000 -3.077206e+000 -5.518811e+000 -8.342882e-001 5.185794e+000 -1.299924e+000 4.985454e+000 -2.027857e+000 -1.708136e+000 -4.078272e-002 5.103866e-001 -3.543282e-001 3.606173e-001 -9.049278e-002 1.503426e-001 1.261168e-001 -1.682815e-001 3.189865e-001 -1.745866e-001 -6.484511e-002 -5.678043e-002 -7.347022e-001
<VARIANCE> 25
 1.572449e+001 4.376390e+001 7.678537e+001 5.111193e+001 5.165488e+001 3.317142e+001 2.799587e+001 5.109608e+001 5.174943e+001 2.543900e+001 4.728935e+001 2.428359e+001 1.083898e+000 2.685771e+000 3.652473e+000 2.866718e+000 2.236754e+000 1.047092e+000 1.978823e+000 2.279661e+000 2.174273e+000 2.458615e+000 2.161832e+000 1.499056e+000 3.296239e+000
<GCONST> 9.951635e+001
<TRANSP> 5
 0.000000e+000 1.000000e+000 0.000000e+000 0.000000e+000 0.000000e+000
 0.000000e+000 8.119519e-001 1.880481e-001 0.000000e+000 0.000000e+000
 0.000000e+000 0.000000e+000 6.661741e-001 3.338259e-001 0.000000e+000
 0.000000e+000 0.000000e+000 0.000000e+000 8.347148e-001 1.652851e-001
 0.000000e+000 0.000000e+000 0.000000e+000 0.000000e+000 0.000000e+000
<ENDHMM>
~h "l"
<BEGINHMM>
<NUMSTATES> 5
<STATE> 2
<MEAN> 25
 3.066388e+000 -3.657420e+000 4.721282e+000 -7.726348e+000 4.535744e-001 4.041362e+000 -1.050530e+001 -3.857372e-001 5.010249e+000 7.390401e-002 -4.474747e-001 -1.250888e+000 4.210073e-001 5.014980e-001 8.504984e-001 -3.422885e-001 8.768839e-002 -1.960563e-001 -2.042589e+000 -5.818540e-001 3.104224e-001 7.940313e-001 4.269840e-001 5.045510e-002 -5.309169e-001
<VARIANCE> 25
 1.517575e+001 4.079812e+001 6.678154e+001 4.728745e+001 4.628587e+001 5.910912e+001 4.686764e+001 3.863250e+001 3.953819e+001 4.259314e+001 5.065172e+001 3.204036e+001 3.648274e-001 9.777842e-001 1.222144e+000 1.485502e+000 4.078447e+000 3.275760e+000 2.506435e+000 2.978024e+000 2.374840e+000 4.246008e+000 5.826507e+000 1.376312e+000 2.994202e-001
<GCONST> 9.802428e+001
<STATE> 3
<MEAN> 25
 3.664600e+000 -2.268848e+000 8.252423e+000 -8.405428e+000 7.065737e-001 4.987325e-001 -1.681291e+001 -4.378575e-001 4.625108e+000 2.104549e+000 7.806644e-001 -4.196168e-001 3.366434e-002 2.305518e-002 -1.823378e-001 -1.489687e-001 1.229069e-001 -2.505037e-002 -3.145453e-001 2.723801e-001 1.526227e-001 2.049020e-001 2.360653e-002 -2.004702e-001 -9.522850e-003
<VARIANCE> 25
 1.333892e+001 2.203530e+001 4.568106e+001 4.049779e+001 2.509870e+001 5.072134e+001 3.837994e+001 4.300114e+001 4.048874e+001 4.481106e+001 4.298310e+001 2.742100e+001 3.044538e-001 8.625604e-001 1.491313e+000 1.501821e+000 1.769415e+000 1.755253e+000 2.560843e+000 3.017294e+000 1.513224e+000 2.458835e+000 1.761526e+000 1.463899e+000 4.083501e-001
<GCONST> 9.229950e+001
<STATE> 4
<MEAN> 25
 1.931404e+000 -1.206923e+000 8.466720e-001 -4.083753e+000 2.105464e+000 -1.510384e-001 -7.358974e+000 2.066601e+000 7.523072e+000 -6.401636e-001 -8.932309e-001 5.227880e-001 -2.662713e-001 -2.661186e-001 -9.530563e-001 3.343585e-001 5.423894e-002 -2.981367e-001 2.008938e+000 6.399554e-001 2.012728e-001 -5.200789e-001 -5.313976e-001 2.336412e-001 7.260527e-002
<VARIANCE> 25
 1.324781e+001 3.221894e+001 6.690968e+001 8.001521e+001 3.918586e+001 4.210768e+001 9.678249e+001 3.803571e+001 3.775935e+001 8.141830e+001 4.350320e+001 3.954154e+001 4.387062e-001 1.764039e+000 2.800364e+000 1.536044e+000 2.924201e+000 2.274060e+000 5.545854e+000 3.870530e+000 2.516296e+000 3.753077e+000 3.628078e+000 2.439772e+000 1.357060e+000
<GCONST> 1.025844e+002
<TRANSP> 5
 0.000000e+000 1.000000e+000 0.000000e+000 0.000000e+000 0.000000e+000
 0.000000e+000 6.877911e-001 3.122089e-001 0.000000e+000 0.000000e+000
 0.000000e+000 0.000000e+000 6.986234e-001 3.013766e-001 0.000000e+000
 0.000000e+000 0.000000e+000 0.000000e+000 8.038301e-001 1.961699e-001
 0.000000e+000 0.000000e+000 0.000000e+000 0.000000e+000 0.000000e+000
<ENDHMM>
~h "m"
<BEGINHMM>
<NUMSTATES> 5
<STATE> 2
<MEAN> 25
 1.841383e+000 1.654679e+000 -1.531199e+000 5.037204e+000 4.006521e+000 2.163105e+000 2.147953e-001 -6.997382e+000 -1.020358e+000 -4.394502e+000 2.416700e+000 -3.854654e-001 3.654769e-001 4.423307e-001 1.075188e+000 9.842861e-001 1.536737e-001 8.207187e-002 -6.476839e-001 -1.526306e+000 -1.080377e+000 -1.365799e-001 -2.672511e-002 -6.116998e-002 2.543840e-002
<VARIANCE> 25
 2.734012e+001 2.574674e+001 4.125337e+001 1.012332e+002 2.038855e+001 5.365033e+001 3.313571e+001 4.193068e+001 4.415677e+001 2.872172e+001 3.823098e+001 1.951902e+001 1.156317e+000 2.226656e+000 2.401281e+000 4.661011e+000 2.077506e+000 2.718559e+000 1.996965e+000 4.405000e+000 3.345997e+000 1.517628e+000 2.579624e+000 1.674490e+000 2.765430e+000
<GCONST> 1.002072e+002
<STATE> 3
<MEAN> 25
 4.854334e+000 7.860497e-001 2.315193e+000 4.360810e+000 4.613450e+000 4.014582e+000 -2.336811e+000 -1.091023e+001 -5.957184e+000 -4.279441e+000 2.180572e+000 -4.979017e-001 2.763726e-001 -5.860423e-001 1.188975e-002 -1.091148e+000 -1.584533e-001 1.703608e-001 1.521916e-001 6.935290e-001 -1.113270e-001 2.892762e-002 -1.568953e-001 2.005600e-001 7.223207e-001
<VARIANCE> 25
 7.836385e+000 1.488145e+001 2.816567e+001 4.288918e+001 2.490956e+001 4.247099e+001 2.509353e+001 2.980478e+001 2.526021e+001 3.029857e+001 4.771207e+001 2.229479e+001 4.052508e-001 1.655183e+000 2.407431e+000 4.098725e+000 2.021641e+000 1.725926e+000 1.626811e+000 3.701039e+000 2.841935e+000 1.408768e+000 2.206939e+000 1.208685e+000 1.635634e+000
<GCONST> 9.278894e+001
<STATE> 4
<MEAN> 25
 5.893043e+000 -4.117432e+000 2.143548e+000 -6.053545e+000 4.617863e+000 6.028349e+000 -2.055423e+000 -3.290559e+000 -4.786799e+000 -1.949946e+000 -4.229953e-001 2.242142e+000 5.932358e-002 -6.954854e-001 -1.727267e-001 -1.161922e+000 4.518109e-004 -2.554830e-001 -5.363452e-002 1.294516e+000 5.918828e-001 7.573842e-001 -4.959883e-001 -1.022264e-001 6.168730e-001
<VARIANCE> 25
 6.130181e+000 2.074552e+001 4.162562e+001 5.564298e+001 3.518016e+001 3.255657e+001 2.146267e+001 4.327975e+001 3.756644e+001 3.525928e+001 3.169256e+001 2.717267e+001 3.227009e-001 1.442456e+000 2.826807e+000 5.025368e+000 3.004168e+000 1.870919e+000 1.888958e+000 4.383251e+000 3.234175e+000 1.693256e+000 2.527317e+000 1.768941e+000 8.276129e-001
<GCONST> 9.510271e+001
<TRANSP> 5
 0.000000e+000 1.000000e+000 0.000000e+000 0.000000e+000 0.000000e+000
 0.000000e+000 7.681999e-001 2.318002e-001 0.000000e+000 0.000000e+000
 0.000000e+000 0.000000e+000 7.408389e-001 2.591610e-001 0.000000e+000
 0.000000e+000 0.000000e+000 0.000000e+000 8.370090e-001 1.629910e-001
 0.000000e+000 0.000000e+000 0.000000e+000 0.000000e+000 0.000000e+000
<ENDHMM>
~h "n"
<BEGINHMM>
<NUMSTATES> 5
<STATE> 2
<MEAN> 25
 5.290909e+000 7.463330e-001 5.553680e+000 3.656307e+000 -1.657958e+000 -1.457715e+000 -5.648397e+000 -5.696148e+000 -7.307838e-001 5.077251e+000 -8.423110e-001 1.037419e-001 1.855289e-001 8.830461e-001 4.418739e-001 1.260769e+000 1.412507e-001 -9.251841e-001 -4.135988e-001 -1.596030e+000 2.019645e-001 1.088987e+000 -6.275558e-001 -4.630118e-002 -7.686695e-001
<VARIANCE> 25
 1.297163e+001 2.510571e+001 3.341105e+001 2.229020e+001 4.152982e+001 3.286942e+001 5.265666e+001 5.503994e+001 4.224620e+001 4.476413e+001 2.602934e+001 2.084800e+001 4.367646e-001 1.451373e+000 1.953067e+000 2.063904e+000 1.744368e+000 1.978862e+000 2.220106e+000 3.986883e+000 1.714093e+000 2.221269e+000 1.980360e+000 1.363892e+000 6.231536e-001
<GCONST> 9.359328e+001
<STATE> 3
<MEAN> 25
 5.294691e+000 2.523943e+000 5.887643e+000 5.950375e+000 -1.678475e+000 -3.217934e+000 -5.274507e+000 -7.673845e+000 2.417006e-001 6.810524e+000 -3.629893e+000 -1.548832e-001 -1.128772e-002 2.346923e-001 -3.077169e-001 2.885417e-001 -1.783848e-003 1.251981e-001 1.082079e-001 1.567624e-002 1.489267e-001 -2.792360e-001 -2.216344e-001 -6.572738e-002 -4.278094e-001
<VARIANCE> 25
 1.055666e+001 1.727517e+001 2.562436e+001 1.950085e+001 2.791304e+001 3.338648e+001 4.405085e+001 3.557239e+001 4.120649e+001 4.193454e+001 2.998821e+001 2.010531e+001 2.478268e-001 1.023560e+000 1.176290e+000 8.690174e-001 9.962980e-001 1.191854e+000 1.576262e+000 1.972169e+000 1.267699e+000 2.233773e+000 1.264213e+000 9.873565e-001 8.622502e-001
<GCONST> 8.648825e+001
<STATE> 4
<MEAN> 25
 1.418014e+000 4.412411e+000 1.626789e+000 8.147247e+000 -1.597279e+000 -1.393991e+000 -2.672426e+000 -5.533051e+000 1.407480e+000 3.229788e-001 -2.131021e+000 -4.694868e-001 -2.403936e-001 -4.558548e-001 -3.673086e-001 -6.275893e-001 -2.903652e-002 4.790628e-001 1.174143e-001 1.242336e+000 2.546949e-002 -1.198191e+000 3.115098e-001 -1.764341e-001 3.811236e-001
<VARIANCE> 25
 3.389394e+001 3.703548e+001 3.737987e+001 3.276218e+001 3.619721e+001 3.487296e+001 5.417501e+001 5.197549e+001 3.741039e+001 5.532410e+001 3.569762e+001 2.610712e+001 1.237673e+000 3.406016e+000 2.210823e+000 3.092007e+000 2.143641e+000 3.271658e+000 3.449185e+000 6.453725e+000 3.094111e+000 5.423236e+000 3.025508e+000 2.878473e+000 2.303910e+000
<GCONST> 1.039793e+002
<TRANSP> 5
 0.000000e+000 1.000000e+000 0.000000e+000 0.000000e+000 0.000000e+000
 0.000000e+000 6.810998e-001 3.189003e-001 0.000000e+000 0.000000e+000
 0.000000e+000 0.000000e+000 7.479305e-001 2.520695e-001 0.000000e+000
 0.000000e+000 0.000000e+000 0.000000e+000 7.313909e-001 2.686090e-001
 0.000000e+000 0.000000e+000 0.000000e+000 0.000000e+000 0.000000e+000
<ENDHMM>
~h "o"
<BEGINHMM>
<NUMSTATES> 5
<STATE> 2
<MEAN> 25
 1.469556e+000 2.028827e+000 -8.862850e+000 -4.222503e+000 9.371370e-001 8.025472e+000 2.233412e+000 -7.126999e-001 -1.458567e+000 -1.466113e+000 6.717816e-001 4.939113e+000 8.410217e-001 1.326468e-001 2.421070e-001 -1.835599e+000 -9.078016e-002 6.604819e-001 -5.075565e-003 -1.451477e-001 -1.493965e-001 1.375713e-001 -2.285907e-001 4.624631e-001 9.814984e-001
<VARIANCE> 25
 3.207690e+001 2.519457e+001 3.174960e+001 2.134871e+002 2.417322e+001 4.656448e+001 2.020107e+001 1.513365e+001 1.907503e+001 3.070191e+001 2.985597e+001 2.156116e+001 1.746249e+000 2.321167e+000 3.005473e+000 7.756625e+000 2.021017e+000 3.079441e+000 1.649696e+000 1.465683e+000 2.016271e+000 2.146690e+000 1.797231e+000 2.072127e+000 2.603832e+000
<GCONST> 9.804864e+001
<STATE> 3
<MEAN> 25
 8.962097e+000 1.218846e+001 -2.885828e+000 -4.702576e+000 -3.490828e-001 9.929259e+000 1.239342e+000 -4.303555e+000 -5.430888e+000 -3.187503e+000 -1.762054e+000 4.744056e+000 1.527479e-001 7.611784e-001 -1.967522e-001 2.241999e+000 1.787186e-001 -3.537430e-001 2.615815e-001 -5.059226e-001 -7.721094e-002 -3.512627e-001 7.344396e-002 -4.017530e-001 -6.179355e-001
<VARIANCE> 25
 8.220204e+000 3.490118e+001 1.308074e+001 1.505955e+002 1.732960e+001 3.176375e+001 1.528886e+001 1.293287e+001 1.625167e+001 2.150356e+001 1.971209e+001 2.059654e+001 5.121342e-001 1.940586e+000 1.875387e+000 8.782502e+000 1.743176e+000 1.622848e+000 1.973252e+000 1.242562e+000 7.620679e-001 2.886042e+000 3.537795e+000 2.052272e+000 2.183106e+000
<GCONST> 9.093570e+001
<STATE> 4
<MEAN> 25
 7.860616e+000 3.549837e+000 -4.435290e+000 -5.339613e+000 2.110849e+000 6.403771e+000 -4.257533e-001 -6.743678e+000 -1.444030e+000 2.980290e+000 3.935035e+000 1.976985e+000 -6.917878e-001 -2.880456e+000 9.088454e-001 -1.529938e+000 1.250725e+000 -1.600487e+000 -2.403879e+000 3.992435e-002 1.392417e+000 2.184852e+000 1.372553e+000 -7.063298e-001 2.605713e+000
<VARIANCE> 25
 1.467410e+001 9.913244e+001 2.284569e+001 2.366224e+002 3.531815e+001 4.419503e+001 5.155864e+001 2.062887e+001 2.215215e+001 7.759684e+001 4.187541e+001 1.465218e+001 1.700921e+000 9.093659e+000 5.603988e+000 1.943966e+001 5.589684e+000 4.101058e+000 7.856899e+000 4.310390e+000 1.032170e+000 8.531799e+000 6.824367e+000 2.059641e+000 5.921142e+000
<GCONST> 1.106970e+002
<TRANSP> 5
 0.000000e+000 1.000000e+000 0.000000e+000 0.000000e+000 0.000000e+000
 0.000000e+000 9.269111e-001 7.308891e-002 0.000000e+000 0.000000e+000
 0.000000e+000 0.000000e+000 8.699475e-001 1.300525e-001 0.000000e+000
 0.000000e+000 0.000000e+000 0.000000e+000 7.312250e-001 2.687750e-001
 0.000000e+000 0.000000e+000 0.000000e+000 0.000000e+000 0.000000e+000
<ENDHMM>
~h "p"
<BEGINHMM>
<NUMSTATES> 5
<STATE> 2
<MEAN> 25
 1.918420e+000 -4.995072e-002 -5.593008e+000 -2.046153e+000 2.794450e+000 9.390940e+000 2.285807e+000 -2.354561e+000 4.267929e-002 -2.160578e+000 -1.712622e+000 4.457453e-001 1.086594e-001 1.842225e-001 -4.322925e-001 -1.044555e-001 6.741214e-002 3.481193e-001 1.582554e-001 1.626279e-003 5.467529e-002 -8.626557e-002 4.634478e-002 -3.160004e-001 -1.748976e-001
<VARIANCE> 25
 2.879596e+001 6.743436e+001 3.146435e+001 1.713443e+002 3.237186e+001 5.987774e+001 2.491028e+001 3.062855e+001 2.754001e+001 2.470846e+001 1.772940e+001 2.165548e+001 1.289325e+000 3.235937e+000 2.096715e+000 8.165854e+000 2.259130e+000 3.022048e+000 1.711494e+000 3.033901e+000 2.146015e+000 2.102093e+000 1.775071e+000 1.573997e+000 4.710616e+000
<GCONST> 1.007116e+002
<STATE> 3
<MEAN> 25
 -4.325166e+000 4.240464e+000 -9.122592e+000 9.872737e+000 1.398231e+000 1.094383e+000 4.494769e+000 -1.885559e+000 4.929756e+000 -9.230779e-001 2.446354e+000 -1.296751e+000 -5.507976e-001 -3.087445e-002 -9.469217e-002 3.794432e-001 -5.551460e-002 -1.516123e-001 2.335260e-001 -1.681299e-002 1.428670e-002 -6.235753e-005 4.004011e-001 2.571771e-001 -3.461554e-001
<VARIANCE> 25
 3.953207e+001 4.383854e+001 3.549470e+001 5.841703e+001 3.575587e+001 5.476717e+001 3.447062e+001 4.794624e+001 3.243715e+001 4.454866e+001 3.460223e+001 1.872438e+001 6.931450e-001 1.092372e+000 1.693304e+000 2.170393e+000 1.887169e+000 2.914166e+000 2.461147e+000 3.722134e+000 3.180330e+000 3.233296e+000 1.861290e+000 1.831476e+000 8.678452e-001
<GCONST> 9.813931e+001
<STATE> 4
<MEAN> 25
 -2.640157e+000 3.141875e+000 -6.209330e+000 6.481926e+000 -1.429314e+000 2.989902e-001 4.200664e+000 -1.135093e+000 2.227294e+000 -2.080122e+000 4.922467e+000 1.185869e-001 1.972777e+000 -1.577096e+000 1.506793e+000 -3.018401e+000 -8.488449e-003 7.212702e-001 -6.453482e-001 -8.922186e-002 -5.832078e-001 4.497468e-001 -4.022584e-002 -2.739488e-001 3.627251e+000
<VARIANCE> 25
 5.831172e+001 4.795506e+001 5.233028e+001 1.269544e+002 4.567263e+001 7.822683e+001 4.218614e+001 4.630912e+001 3.449952e+001 3.961919e+001 2.566275e+001 2.533996e+001 4.433239e+000 5.390101e+000 7.555661e+000 1.711252e+001 6.389373e+000 1.063238e+001 4.326336e+000 6.325109e+000 4.808270e+000 5.575327e+000 3.353300e+000 3.133887e+000 9.742350e+000
<GCONST> 1.156216e+002
<TRANSP> 5
 0.000000e+000 1.000000e+000 0.000000e+000 0.000000e+000 0.000000e+000
 0.000000e+000 7.273957e-001 2.726043e-001 0.000000e+000 0.000000e+000
 0.000000e+000 0.000000e+000 8.795370e-001 1.204630e-001 0.000000e+000
 0.000000e+000 0.000000e+000 0.000000e+000 7.712791e-001 2.287209e-001
 0.000000e+000 0.000000e+000 0.000000e+000 0.000000e+000 0.000000e+000
<ENDHMM>
~h "r"
<BEGINHMM>
<NUMSTATES> 5
<STATE> 2
<MEAN> 25
 -3.254468e-002 -3.374230e+000 -8.038919e+000 -7.614366e-001 4.394698e+000 3.342518e+000 -1.447049e+000 4.929492e-001 8.939611e+000 -3.000013e+000 -2.357190e+000 1.888709e-001 6.600623e-001 -2.965590e-001 3.297971e-001 6.002458e-001 -8.123622e-001 1.327768e+000 -1.104243e+000 -3.111122e-001 5.705098e-001 -3.979272e-001 8.670415e-001 -4.029872e-001 1.915625e-001
<VARIANCE> 25
 2.498987e+001 3.655894e+001 7.468908e+001 5.818572e+001 6.210188e+001 3.924199e+001 3.802929e+001 3.707669e+001 2.998309e+001 3.117182e+001 3.986152e+001 6.494834e+001 2.042753e+000 3.349609e+000 3.083258e+000 4.586281e+000 4.114724e+000 2.399976e+000 3.370737e+000 3.165985e+000 2.531284e+000 4.166311e+000 3.613518e+000 4.848207e+000 3.828819e+000
<GCONST> 1.066817e+002
<STATE> 3
<MEAN> 25
 5.691264e+000 -7.219620e+000 -1.451071e+000 -4.502437e-001 -3.321994e+000 6.893644e+000 -9.553236e+000 7.237688e-001 9.999685e+000 -2.803163e+000 3.781299e+000 -2.826663e+000 7.583690e-001 -1.308612e+000 9.383756e-001 -3.060419e-001 -8.208699e-001 7.174488e-001 -1.592360e+000 1.229609e+000 -6.808682e-001 4.043812e-001 8.895850e-001 -5.467452e-001 5.617697e-001
<VARIANCE> 25
 1.156724e+001 2.302751e+001 4.326754e+001 3.351595e+001 2.965273e+001 2.946956e+001 2.894982e+001 4.774951e+001 4.512722e+001 1.965981e+001 2.740860e+001 3.582922e+001 1.359582e+000 2.577327e+000 1.452569e+000 6.256724e+000 2.220303e+000 1.670620e+000 3.270657e+000 7.290337e+000 1.942839e+000 2.838979e+000 5.355452e+000 2.622142e+000 2.908452e+000
<GCONST> 9.985397e+001
<STATE> 4
<MEAN> 25
 6.583328e+000 -1.198761e+001 1.955808e+000 -5.296444e+000 -2.323845e+000 8.088582e+000 -1.033735e+001 7.858810e+000 5.781324e+000 -1.051833e+000 2.140255e-001 -4.542253e+000 -3.132710e-001 -4.738196e-002 3.482123e-001 -7.075309e-001 7.483622e-001 -6.096460e-001 8.806854e-001 5.340490e-001 -1.034759e+000 3.488523e-001 -1.063704e+000 2.784835e-001 3.232597e-001
<VARIANCE> 25
 1.087446e+001 3.146502e+001 4.684935e+001 2.916238e+001 4.553836e+001 4.550636e+001 3.127532e+001 5.606623e+001 5.356489e+001 2.801871e+001 3.504281e+001 2.685118e+001 6.920488e-001 1.508631e+000 1.274762e+000 1.641749e+000 2.626338e+000 2.247818e+000 2.704017e+000 4.000686e+000 2.054554e+000 1.763392e+000 3.127449e+000 1.655915e+000 8.129808e-001
<GCONST> 9.593166e+001
<TRANSP> 5
 0.000000e+000 1.000000e+000 0.000000e+000 0.000000e+000 0.000000e+000
 0.000000e+000 6.895803e-001 3.104197e-001 0.000000e+000 0.000000e+000
 0.000000e+000 0.000000e+000 6.348975e-001 3.651026e-001 0.000000e+000
 0.000000e+000 0.000000e+000 0.000000e+000 7.601346e-001 2.398654e-001
 0.000000e+000 0.000000e+000 0.000000e+000 0.000000e+000 0.000000e+000
<ENDHMM>
~h "s"
<BEGINHMM>
<NUMSTATES> 5
<STATE> 2
<MEAN> 25
 -6.169379e+000 6.417402e+000 -7.231985e+000 7.898504e+000 3.574431e+000 -5.220735e+000 8.423409e+000 4.742393e-001 4.741804e+000 -3.241920e+000 1.849594e+000 9.142948e-001 -3.312846e+000 2.060034e+000 -2.007640e+000 1.923322e+000 1.834151e-002 -7.738298e-001 2.061178e+000 -7.984594e-002 7.994024e-001 -1.429252e+000 1.604490e+000 -3.214663e-001 4.644061e-001
<VARIANCE> 25
 4.550339e+001 4.552866e+001 4.931939e+001 6.167988e+001 4.584960e+001 2.814790e+001 6.228539e+001 5.638565e+001 5.452127e+001 4.919641e+001 5.088968e+001 2.545052e+001 5.014082e+000 6.374793e+000 4.329456e+000 6.887826e+000 4.049915e+000 3.807968e+000 4.325750e+000 4.774439e+000 3.894485e+000 4.314733e+000 3.809307e+000 2.816174e+000 3.358731e+000
<GCONST> 1.110204e+002
<STATE> 3
<MEAN> 25
 -2.278964e+001 1.249313e+001 -1.457868e+001 1.203335e+001 3.077200e+000 -6.763539e+000 1.335565e+001 1.023744e+000 3.797205e+000 -5.340543e+000 7.054838e+000 2.273335e+000 -8.579485e-001 -6.351962e-002 -2.042315e-001 -4.114932e-002 -2.943331e-002 -5.161828e-003 -2.746731e-002 1.634338e-001 -9.352309e-002 -4.895173e-002 1.531303e-001 3.011624e-001 3.143913e-001
<VARIANCE> 25
 2.273819e+001 2.480055e+001 3.266795e+001 3.642433e+001 3.873833e+001 2.952604e+001 3.670491e+001 5.466631e+001 3.030094e+001 2.577394e+001 2.639137e+001 2.097332e+001 2.034274e+000 1.743886e+000 1.542549e+000 1.284443e+000 1.466061e+000 1.631109e+000 1.752966e+000 1.794928e+000 1.838042e+000 1.819884e+000 1.691511e+000 1.366165e+000 5.690158e-001
<GCONST> 9.243594e+001
<STATE> 4
<MEAN> 25
 -1.508029e+001 6.465900e+000 -9.735125e+000 8.017511e+000 1.998195e+000 -6.270679e+000 8.583665e+000 6.750470e-001 5.093860e+000 -5.184668e+000 4.147089e+000 5.705154e-001 4.479592e+000 -1.806993e+000 2.392699e+000 -2.014924e+000 -5.332612e-001 7.930838e-001 -2.590271e+000 -4.696640e-001 -3.697105e-002 7.084498e-001 -9.993846e-001 -1.704233e+000 1.089389e+000
<VARIANCE> 25
 9.675665e+001 2.208649e+001 5.347256e+001 4.751940e+001 3.398853e+001 3.095121e+001 8.208591e+001 5.740544e+001 3.974470e+001 2.486463e+001 3.395663e+001 3.207047e+001 5.424942e+000 2.293848e+000 5.240944e+000 6.306695e+000 3.602287e+000 3.365177e+000 5.141745e+000 4.147133e+000 3.535212e+000 2.722011e+000 3.183893e+000 3.078885e+000 3.372857e+000
<GCONST> 1.080965e+002
<TRANSP> 5
 0.000000e+000 1.000000e+000 0.000000e+000 0.000000e+000 0.000000e+000
 0.000000e+000 7.559981e-001 2.440019e-001 0.000000e+000 0.000000e+000
 0.000000e+000 0.000000e+000 9.015117e-001 9.848829e-002 0.000000e+000
 0.000000e+000 0.000000e+000 0.000000e+000 7.738177e-001 2.261823e-001
 0.000000e+000 0.000000e+000 0.000000e+000 0.000000e+000 0.000000e+000
<ENDHMM>
~h "t"
<BEGINHMM>
<NUMSTATES> 5
<STATE> 2
<MEAN> 25
 1.421368e+000 -4.583822e+000 -5.219071e+000 2.831128e+000 -2.007766e+000 1.866004e+000 -1.504428e+000 4.799296e+000 2.542636e+000 -4.019498e+000 -2.623976e-001 -4.573259e+000 1.483274e-001 -3.633463e-001 5.927996e-001 -5.790085e-001 -1.052370e-001 -7.443973e-001 -4.622875e-001 7.843478e-001 1.119117e-001 9.885084e-002 -6.433233e-004 9.666738e-002 7.350387e-001
<VARIANCE> 25
 2.093886e+001 4.738383e+001 5.905529e+001 5.552321e+001 3.682336e+001 7.693624e+001 4.151104e+001 6.385893e+001 3.636491e+001 5.618541e+001 3.911394e+001 2.080679e+001 2.248863e+000 5.429683e+000 6.172600e+000 6.778659e+000 3.386976e+000 6.693682e+000 4.154307e+000 5.508713e+000 3.423465e+000 6.513215e+000 5.467508e+000 2.286363e+000 1.108666e+001
<GCONST> 1.116217e+002
<STATE> 3
<MEAN> 25
 1.911029e+000 -3.285060e+000 9.002987e-001 -2.769516e+000 -1.724030e+000 -7.596181e+000 -1.517326e+000 1.160647e+001 3.983511e+000 1.672378e+000 -4.343449e+000 -5.529807e-001 -2.422946e-001 7.321105e-001 -7.013531e-001 5.762430e-001 -1.727080e-002 1.531494e-001 3.380204e-001 -2.648263e-001 3.211931e-001 -2.957754e-001 -3.388939e-002 2.567376e-002 -1.199645e+000
<VARIANCE> 25
 7.008015e+000 5.435995e+001 4.730761e+001 4.818443e+001 1.739325e+001 3.572628e+001 2.208896e+001 2.391374e+001 2.885312e+001 3.294358e+001 1.915685e+001 1.563180e+001 5.987087e-001 1.298197e+000 1.113234e+000 1.577492e+000 1.553621e+000 1.811812e+000 1.700912e+000 1.672312e+000 1.873176e+000 2.623321e+000 1.782854e+000 1.220314e+000 1.263572e+000
<GCONST> 8.987653e+001
<STATE> 4
<MEAN> 25
 -2.401725e+000 -9.670811e-001 -9.714724e+000 5.043943e+000 2.110970e+000 7.979063e-001 1.092149e+000 2.783896e+000 5.275287e+000 -4.380856e+000 -2.839330e-001 -1.181006e+000 -1.630283e-001 -2.909510e-001 -1.310044e-002 -4.240980e-001 4.503667e-001 3.195902e-001 -2.324989e-002 -2.076895e-001 -1.672366e-001 1.406871e-002 1.512716e-002 1.341945e-001 3.257725e-001
<VARIANCE> 25
 2.463500e+001 4.958926e+001 5.456369e+001 4.416927e+001 6.208629e+001 5.712325e+001 3.619388e+001 4.971055e+001 3.006178e+001 3.169180e+001 3.736737e+001 2.699965e+001 1.443503e+000 2.594206e+000 4.046160e+000 4.249679e+000 2.851714e+000 4.349652e+000 3.427634e+000 4.980231e+000 2.942111e+000 3.545259e+000 3.339077e+000 1.774992e+000 4.945897e+000
<GCONST> 1.055302e+002
<TRANSP> 5
 0.000000e+000 1.000000e+000 0.000000e+000 0.000000e+000 0.000000e+000
 0.000000e+000 9.042078e-001 9.579225e-002 0.000000e+000 0.000000e+000
 0.000000e+000 0.000000e+000 9.067727e-001 9.322727e-002 0.000000e+000
 0.000000e+000 0.000000e+000 0.000000e+000 8.663567e-001 1.336433e-001
 0.000000e+000 0.000000e+000 0.000000e+000 0.000000e+000 0.000000e+000
<ENDHMM>
~h "w"
<BEGINHMM>
<NUMSTATES> 5
<STATE> 2
<MEAN> 25
 5.694137e+000 1.489320e+000 -2.271133e+000 -1.448160e+000 1.614856e+000 5.341401e+000 -3.918673e-001 -3.952201e+000 -1.225342e+000 2.897990e+000 -5.298278e-001 -2.597655e-001 1.237139e+000 -5.947140e-001 1.178228e+000 -1.400967e+000 -3.401442e-001 2.602170e-001 -1.053827e+000 -5.396239e-001 -1.137207e+000 9.039921e-001 7.862887e-001 3.023945e-001 1.559911e+000
<VARIANCE> 25
 1.903975e+001 4.811806e+001 4.893864e+001 1.450065e+002 2.633126e+001 3.697333e+001 5.918255e+001 4.514144e+001 3.950074e+001 5.879726e+001 2.837141e+001 2.365289e+001 2.316057e+000 3.531015e+000 4.386013e+000 5.791403e+000 2.231547e+000 2.468846e+000 3.643212e+000 4.844116e+000 4.381018e+000 2.630493e+000 3.054097e+000 2.345110e+000 5.611336e+000
<GCONST> 1.067165e+002
<STATE> 3
<MEAN> 25
 7.519701e+000 -1.976670e+000 1.394739e+000 -7.216715e+000 2.481191e-001 5.064308e+000 -3.079982e+000 -2.998999e+000 -4.229536e+000 5.357123e+000 1.516972e+000 1.912662e+000 -2.086275e-002 -4.419188e-001 4.095631e-001 -6.781850e-001 -1.082451e-001 -1.312231e-001 -3.263798e-001 2.828871e-001 -3.051856e-002 5.137020e-001 5.891610e-002 2.166556e-001 3.841175e-001
<VARIANCE> 25
 9.738305e+000 2.998694e+001 3.343370e+001 9.787997e+001 1.888435e+001 3.225871e+001 4.858628e+001 3.665414e+001 3.144248e+001 6.442221e+001 2.377402e+001 2.890684e+001 3.662394e-001 1.511149e+000 1.907875e+000 4.001796e+000 1.470824e+000 2.046770e+000 1.466877e+000 2.261128e+000 3.414344e+000 3.173337e+000 2.015572e+000 2.142874e+000 1.526872e+000
<GCONST> 9.577161e+001
<STATE> 4
<MEAN> 25
 6.642702e+000 -2.527683e+000 2.563602e+000 -9.181211e+000 1.575653e+000 2.333816e+000 -6.752872e+000 -4.178207e-001 -2.842864e+000 1.065935e+001 -5.390221e-001 4.823439e-001 -2.556160e-001 -6.816661e-002 1.186230e-001 3.138653e-001 -4.603949e-002 -6.528128e-001 1.650061e-001 7.009125e-001 3.131292e-001 -3.760540e-001 -5.131778e-001 -1.641235e-001 -5.252732e-002
<VARIANCE> 25
 6.875110e+000 3.367598e+001 3.162548e+001 5.879817e+001 1.752405e+001 5.048724e+001 3.851656e+001 3.419906e+001 6.706462e+001 4.971871e+001 1.959974e+001 2.018544e+001 3.123342e-001 1.226267e+000 1.746720e+000 2.498614e+000 1.794028e+000 2.237101e+000 1.551012e+000 2.244107e+000 3.189831e+000 2.861971e+000 1.708829e+000 2.459120e+000 1.245303e+000
<GCONST> 9.399789e+001
<TRANSP> 5
 0.000000e+000 1.000000e+000 0.000000e+000 0.000000e+000 0.000000e+000
 0.000000e+000 5.979519e-001 4.020481e-001 0.000000e+000 0.000000e+000
 0.000000e+000 0.000000e+000 5.749108e-001 4.250892e-001 0.000000e+000
 0.000000e+000 0.000000e+000 0.000000e+000 7.497168e-001 2.502832e-001
 0.000000e+000 0.000000e+000 0.000000e+000 0.000000e+000 0.000000e+000
<ENDHMM>
~h "y"
<BEGINHMM>
<NUMSTATES> 5
<STATE> 2
<MEAN> 25
 1.193730e+000 -5.177518e+000 1.293110e+001 -4.730720e+000 -7.989017e+000 -3.170789e+000 -3.017781e+000 6.879245e+000 -6.394893e+000 1.699153e+000 3.799358e+000 1.539174e+000 -3.032963e-001 -3.886228e-001 1.006073e+000 -8.438668e-001 -1.163956e+000 -6.974677e-001 8.436863e-001 9.807113e-001 -9.358946e-001 7.712646e-001 3.883527e-001 7.294492e-001 6.690578e-001
<VARIANCE> 25
 1.394431e+001 3.836634e+001 4.367207e+001 1.607674e+001 2.291879e+001 2.207638e+001 3.951632e+001 6.658930e+001 4.618002e+001 4.674468e+001 4.317467e+001 2.108339e+001 5.848914e-001 1.766759e+000 3.007033e+000 2.092391e+000 1.861241e+000 1.450499e+000 2.919483e+000 3.385913e+000 3.969924e+000 1.989764e+000 2.156882e+000 1.059593e+000 1.192730e+000
<GCONST> 9.560179e+001
<STATE> 3
<MEAN> 25
 3.263501e-001 -6.526964e+000 1.489227e+001 -7.429847e+000 -9.771958e+000 -6.139974e+000 1.359398e+000 9.090590e+000 -8.798229e+000 5.488771e+000 2.498983e+000 3.370297e+000 8.433326e-002 -2.417284e-001 -2.671483e-001 -2.241582e-001 3.575503e-001 -1.706472e-001 3.920321e-001 3.526987e-001 3.611209e-001 5.167690e-002 -7.061900e-001 2.234425e-001 4.367497e-002
<VARIANCE> 25
 6.985774e+000 1.406189e+001 1.941718e+001 1.066701e+001 1.414298e+001 1.568127e+001 2.890222e+001 2.130573e+001 2.469081e+001 2.217108e+001 1.772936e+001 1.428802e+001 2.713051e-001 7.124678e-001 1.431892e+000 5.081384e-001 1.184906e+000 5.565537e-001 1.277372e+000 1.138190e+000 2.260914e+000 1.292450e+000 1.809406e+000 7.201449e-001 1.937736e-001
<GCONST> 7.722435e+001
<STATE> 4
<MEAN> 25
 2.243726e+000 -6.106208e+000 7.973936e+000 -6.671386e+000 -1.628347e+000 -6.972346e+000 2.539060e+000 9.176490e+000 1.911669e-001 2.675187e+000 -6.037318e+000 4.227075e+000 7.750200e-002 4.697479e-001 -9.563364e-001 5.585133e-001 7.055143e-001 2.714489e-001 1.281672e-002 -3.820349e-001 9.035867e-001 -4.999894e-001 -6.246279e-001 -4.233613e-002 -8.675467e-001
<VARIANCE> 25
 6.761593e+000 2.058352e+001 2.600489e+001 2.115234e+001 2.617287e+001 1.465985e+001 2.581851e+001 1.672439e+001 4.206359e+001 2.668506e+001 3.007984e+001 1.221637e+001 3.561055e-001 1.021684e+000 1.094230e+000 8.292319e-001 1.932164e+000 8.124115e-001 1.459984e+000 1.012468e+000 1.624912e+000 1.123819e+000 2.261716e+000 9.548432e-001 8.079287e-001
<GCONST> 8.303268e+001
<TRANSP> 5
 0.000000e+000 1.000000e+000 0.000000e+000 0.000000e+000 0.000000e+000
 0.000000e+000 6.468377e-001 3.531623e-001 0.000000e+000 0.000000e+000
 0.000000e+000 0.000000e+000 8.340710e-001 1.659290e-001 0.000000e+000
 0.000000e+000 0.000000e+000 0.000000e+000 8.465419e-001 1.534581e-001
 0.000000e+000 0.000000e+000 0.000000e+000 0.000000e+000 0.000000e+000
<ENDHMM>
~h "aa"
<BEGINHMM>
<NUMSTATES> 5
<STATE> 2
<MEAN> 25
 3.254703e+000 -8.420959e+000 -4.104502e+000 -1.141436e+001 8.313120e+000 5.056597e+000 -5.896940e-001 3.192184e+000 3.747709e+000 -8.758944e-001 -5.640843e+000 -1.810136e+000 2.679459e-002 -6.413787e-001 -3.993284e-001 -6.340647e-001 1.223018e+000 7.309865e-001 7.180796e-001 -5.275736e-001 -3.158666e-001 -1.493818e-001 -4.464197e-001 1.871518e-001 4.335032e-001
<VARIANCE> 25
 9.588764e+000 1.340265e+001 3.717513e+001 3.558429e+001 2.936919e+001 4.365576e+001 4.442373e+001 3.421955e+001 3.951402e+001 3.541526e+001 3.443133e+001 2.809528e+001 3.102115e-001 9.165916e-001 1.513426e+000 1.613147e+000 2.067136e+000 1.470720e+000 2.480400e+000 2.423235e+000 1.689535e+000 1.747755e+000 2.003956e+000 1.469110e+000 8.313425e-001
<GCONST> 9.110999e+001
<STATE> 3
<MEAN> 25
 3.249713e+000 -9.351175e+000 -6.489244e+000 -1.258372e+001 1.277055e+001 7.852639e+000 2.229620e+000 -1.939013e+000 4.357496e+000 -2.623958e+000 -5.767718e+000 -9.171392e-001 2.874999e-002 6.782679e-002 -8.020229e-002 1.012284e-001 1.074961e-001 1.332134e-002 2.083868e-002 -2.132849e-001 1.581774e-001 5.656433e-002 -1.231519e-001 -7.067520e-003 -2.011595e-001
<VARIANCE> 25
 6.462590e+000 1.134116e+001 1.897132e+001 2.268862e+001 2.348450e+001 3.059359e+001 2.645577e+001 2.866477e+001 2.938137e+001 2.756120e+001 2.417012e+001 2.911217e+001 1.456432e-001 4.347446e-001 4.710298e-001 6.255943e-001 6.621490e-001 9.146256e-001 8.868755e-001 8.366716e-001 5.348843e-001 7.456768e-001 6.834552e-001 7.488427e-001 3.330767e-001
<GCONST> 7.529778e+001
<STATE> 4
<MEAN> 25
 -3.017306e-001 -2.806685e+000 -1.292990e+001 -6.619534e-001 9.071247e+000 4.259007e+000 3.498907e+000 -7.792584e-002 5.324001e+000 -5.683914e+000 -5.638759e+000 -7.220001e-001 -1.778807e-001 4.212963e-001 -1.781690e-001 7.343529e-001 -5.616511e-001 -2.468800e-001 -1.425040e-001 2.360661e-001 -1.591761e-002 -6.421416e-002 2.353698e-001 2.710710e-002 -8.044874e-001
<VARIANCE> 25
 2.050335e+001 2.464668e+001 3.405877e+001 6.287399e+001 4.074831e+001 4.456847e+001 3.046544e+001 2.875940e+001 2.812198e+001 3.735147e+001 3.272739e+001 3.135608e+001 6.164575e-001 1.443282e+000 1.481683e+000 1.896846e+000 2.026426e+000 1.844174e+000 2.460219e+000 2.356994e+000 2.042006e+000 1.958851e+000 1.995301e+000 2.000957e+000 1.098415e+000
<GCONST> 9.486897e+001
<TRANSP> 5
 0.000000e+000 1.000000e+000 0.000000e+000 0.000000e+000 0.000000e+000
 0.000000e+000 7.003826e-001 2.996173e-001 0.000000e+000 0.000000e+000
 0.000000e+000 0.000000e+000 9.171486e-001 8.285139e-002 0.000000e+000
 0.000000e+000 0.000000e+000 0.000000e+000 9.062135e-001 9.378652e-002
 0.000000e+000 0.000000e+000 0.000000e+000 0.000000e+000 0.000000e+000
<ENDHMM>
~h "ae"
<BEGINHMM>
<NUMSTATES> 5
<STATE> 2
<MEAN> 25
 -5.723575e-001 -3.522894e+000 -4.473205e-001 5.166440e+000 -1.037741e+000 -3.642622e+000 1.619452e+000 9.158589e-001 1.266369e+000 -3.198413e+000 -1.306445e+000 8.007838e-001 8.429485e-001 -1.305915e+000 1.149258e+000 -1.843431e+000 -1.241783e+000 -8.312611e-001 7.013866e-001 1.410332e+000 -5.874513e-002 -1.944701e-001 -7.266796e-001 -3.159723e-001 2.158102e+000
<VARIANCE> 25
 2.657998e+001 7.305970e+001 5.641047e+001 6.989770e+001 3.897838e+001 5.280156e+001 6.051726e+001 8.669990e+001 3.806919e+001 3.825887e+001 4.071297e+001 7.946224e+001 4.083783e+000 4.048522e+000 3.502180e+000 5.825908e+000 2.964351e+000 3.683796e+000 7.014415e+000 7.536482e+000 2.647412e+000 5.802136e+000 2.704989e+000 5.022712e+000 4.995425e+000
<GCONST> 1.124874e+002
<STATE> 3
<MEAN> 25
 1.332599e+000 -6.946146e+000 1.748159e+000 9.882551e-002 -4.672923e+000 -4.383859e+000 3.292101e+000 6.512898e+000 1.732448e+000 -4.492825e+000 -2.066742e+000 -1.075636e-001 -1.226759e-001 -2.026086e+000 8.821605e-001 -2.139802e+000 -7.852055e-001 2.719615e-001 1.864533e+000 2.600585e+000 -4.520797e-001 -9.339494e-001 -4.942275e-001 9.870124e-001 2.061061e+000
<VARIANCE> 25
 5.686854e+000 4.692567e+001 4.508087e+001 5.195184e+001 3.764509e+001 5.008683e+001 6.024115e+001 5.962074e+001 2.845062e+001 2.500036e+001 4.350068e+001 4.167011e+001 9.538327e-001 5.296709e+000 4.245723e+000 3.820747e+000 4.507619e+000 4.590034e+000 3.610148e+000 7.995623e+000 3.230988e+000 3.689463e+000 1.777693e+000 3.311943e+000 5.188663e+000
<GCONST> 1.057864e+002
<STATE> 4
<MEAN> 25
 1.169498e+000 -9.165192e+000 4.325829e+000 -3.919153e+000 -4.300429e+000 -3.070626e+000 8.152299e+000 1.096390e+001 -1.670307e+000 -5.390834e+000 -2.780656e+000 1.638402e+000 8.676299e-002 2.793729e-001 -1.983500e-001 2.911691e-001 2.786484e-001 9.651879e-003 -2.432138e-001 -2.830440e-001 -6.767191e-002 3.092071e-001 1.158224e-001 -1.806890e-001 -4.005845e-001
<VARIANCE> 25
 9.042074e+000 2.569961e+001 2.961774e+001 2.391968e+001 3.780227e+001 4.093087e+001 4.234641e+001 2.399150e+001 2.543204e+001 2.528160e+001 3.249154e+001 2.192511e+001 4.165966e-001 1.180066e+000 1.295510e+000 1.688187e+000 1.229144e+000 1.374259e+000 3.019545e+000 1.755123e+000 1.652312e+000 1.266410e+000 1.635917e+000 1.491474e+000 1.278869e+000
<GCONST> 8.940158e+001
<TRANSP> 5
 0.000000e+000 1.000000e+000 0.000000e+000 0.000000e+000 0.000000e+000
 0.000000e+000 4.720691e-001 5.279309e-001 0.000000e+000 0.000000e+000
 0.000000e+000 0.000000e+000 4.368389e-001 5.631611e-001 0.000000e+000
 0.000000e+000 0.000000e+000 0.000000e+000 9.178748e-001 8.212526e-002
 0.000000e+000 0.000000e+000 0.000000e+000 0.000000e+000 0.000000e+000
<ENDHMM>
~h "ah"
<BEGINHMM>
<NUMSTATES> 5
<STATE> 2
<MEAN> 25
 2.813625e+000 -6.249643e+000 -1.553519e-001 -7.348616e+000 4.461861e+000 8.259208e-001 -2.117856e+000 3.455884e+000 3.272063e+000 5.691770e-001 -4.549625e+000 -4.956844e-001 4.406958e-002 -5.042021e-001 1.110845e-001 -5.681297e-001 6.786370e-001 -7.897162e-002 4.556802e-001 4.710128e-001 -1.061576e-001 -4.623494e-002 -5.755534e-001 2.497171e-001 1.844614e-001
<VARIANCE> 25
 1.106439e+001 3.004967e+001 4.405343e+001 4.511568e+001 4.317025e+001 6.553913e+001 3.848928e+001 4.660918e+001 3.523406e+001 3.754244e+001 3.083118e+001 3.474581e+001 9.115703e-001 2.959711e+000 1.832114e+000 4.294946e+000 2.643208e+000 3.360611e+000 2.860309e+000 3.906507e+000 2.366062e+000 2.803794e+000 2.545327e+000 2.353749e+000 2.460822e+000
<GCONST> 1.011883e+002
<STATE> 3
<MEAN> 25
 2.735233e+000 -4.819098e+000 3.979318e-001 -6.004486e+000 5.206330e+000 -1.330780e+000 -8.112747e-001 4.212719e+000 2.752276e+000 8.785365e-001 -5.875136e+000 1.257213e-001 -2.075562e-002 7.552454e-001 -3.845352e-001 8.108150e-001 -1.295940e-001 5.602977e-002 1.379123e-001 -1.916516e-001 -1.218544e-002 -1.724882e-001 2.959751e-001 7.000019e-003 -1.056373e+000
<VARIANCE> 25
 7.340472e+000 2.846806e+001 3.669723e+001 3.887743e+001 3.568041e+001 5.674615e+001 3.007664e+001 3.924443e+001 3.160419e+001 3.105938e+001 2.898583e+001 2.794508e+001 3.938282e-001 1.535700e+000 1.200289e+000 1.916911e+000 1.736472e+000 2.099484e+000 1.975218e+000 2.117186e+000 1.684942e+000 2.044973e+000 1.715387e+000 1.492733e+000 1.396119e+000
<GCONST> 9.239101e+001
<STATE> 4
<MEAN> 25
 -1.132572e+000 2.057951e+000 -5.824900e+000 3.857220e+000 7.440095e-001 -6.424112e-001 1.142448e+000 2.777643e+000 4.223246e+000 -2.757292e+000 -1.221223e+000 1.019833e+000 -2.745895e-001 4.608321e-001 -2.763140e-001 6.786498e-001 -3.236184e-001 4.949513e-002 7.919388e-002 -3.618419e-001 -1.299824e-002 -1.292017e-001 4.207493e-001 4.994754e-002 -7.387320e-001
<VARIANCE> 25
 2.509237e+001 3.580483e+001 3.981653e+001 5.452356e+001 4.939153e+001 4.713276e+001 4.075705e+001 4.109936e+001 3.610177e+001 3.813247e+001 3.415254e+001 3.319333e+001 7.032695e-001 1.679788e+000 1.978370e+000 2.132317e+000 2.218539e+000 2.505064e+000 2.262013e+000 2.789553e+000 2.426760e+000 2.615698e+000 2.020769e+000 2.080277e+000 1.119817e+000
<GCONST> 9.842812e+001
<TRANSP> 5
 0.000000e+000 1.000000e+000 0.000000e+000 0.000000e+000 0.000000e+000
 0.000000e+000 5.145338e-001 4.854662e-001 0.000000e+000 0.000000e+000
 0.000000e+000 0.000000e+000 6.852689e-001 3.147310e-001 0.000000e+000
 0.000000e+000 0.000000e+000 0.000000e+000 8.210462e-001 1.789538e-001
 0.000000e+000 0.000000e+000 0.000000e+000 0.000000e+000 0.000000e+000
<ENDHMM>
~h "ao"
<BEGINHMM>
<NUMSTATES> 5
<STATE> 2
<MEAN> 25
 4.999469e+000 1.625385e+000 1.699801e+000 -5.747000e+000 -1.149902e+000 7.534051e+000 -4.675852e+000 -5.979790e+000 4.357964e+000 1.188982e+000 9.985496e-001 1.228836e+000 1.215404e+000 -7.973475e-001 1.466229e+000 -2.457068e+000 -5.411340e-001 1.077703e+000 -1.286885e+000 -7.673916e-001 -7.576194e-001 1.699149e+000 1.020821e+000 7.830065e-002 1.211069e+000
<VARIANCE> 25
 2.907470e+001 3.597651e+001 3.918549e+001 8.738213e+001 2.697898e+001 4.492739e+001 9.371073e+001 3.427561e+001 1.025385e+002 6.015812e+001 8.502410e+001 3.069453e+001 2.672724e+000 2.916831e+000 2.975451e+000 9.166152e+000 3.221461e+000 4.690178e+000 2.442755e+000 4.467047e+000 3.766090e+000 3.585896e+000 5.696846e+000 2.701157e+000 4.131150e+000
<GCONST> 1.100271e+002
<STATE> 3
<MEAN> 25
 7.498495e+000 -8.666899e-001 2.547648e+000 -1.021611e+001 8.292359e-002 6.246848e+000 -6.548389e+000 -8.595238e+000 2.193038e+000 4.779111e+000 5.345747e+000 5.557272e-001 2.502693e-001 -3.134126e-002 -8.576033e-001 -2.729804e-001 6.260215e-001 -2.093542e-001 1.689776e-001 1.154914e-001 -2.607740e-001 5.981250e-001 8.981396e-003 1.887658e-002 1.311716e-001
<VARIANCE> 25
 1.000840e+001 2.143560e+001 4.503810e+001 4.035211e+001 3.717790e+001 3.957227e+001 7.062811e+001 6.312934e+001 6.687124e+001 3.134404e+001 6.269166e+001 2.538258e+001 2.556717e-001 2.434352e+000 2.066800e+000 4.759947e+000 5.239433e+000 2.772964e+000 2.287383e+000 3.170878e+000 3.130172e+000 1.364885e+000 2.477309e+000 8.322425e-001 1.238103e+000
<GCONST> 9.839598e+001
<STATE> 4
<MEAN> 25
 7.494309e+000 1.521212e+000 -1.783447e+000 -1.155540e+001 3.902531e+000 4.050281e+000 -4.868847e+000 -3.101168e+000 -1.179575e+000 9.336736e+000 1.007846e+000 8.103478e-001 -9.135531e-002 3.136417e-001 -1.597369e-001 7.898832e-001 -9.082869e-002 -2.941692e-001 1.082910e-001 3.231410e-001 -1.356533e-002 -2.141515e-001 -2.708871e-001 -4.017046e-002 -5.874008e-001
<VARIANCE> 25
 5.709974e+000 2.712882e+001 1.995981e+001 8.438121e+001 1.475835e+001 1.858933e+001 8.201666e+001 4.785238e+001 5.211867e+001 2.750601e+001 4.475834e+001 2.751750e+001 3.462948e-001 1.106308e+000 1.388211e+000 2.828194e+000 1.312658e+000 2.006752e+000 1.841333e+000 2.017424e+000 2.474247e+000 1.394795e+000 1.952164e+000 1.903980e+000 9.703267e-001
<GCONST> 9.190282e+001
<TRANSP> 5
 0.000000e+000 1.000000e+000 0.000000e+000 0.000000e+000 0.000000e+000
 0.000000e+000 5.760372e-001 4.239628e-001 0.000000e+000 0.000000e+000
 0.000000e+000 0.000000e+000 6.996844e-001 3.003156e-001 0.000000e+000
 0.000000e+000 0.000000e+000 0.000000e+000 9.156964e-001 8.430359e-002
 0.000000e+000 0.000000e+000 0.000000e+000 0.000000e+000 0.000000e+000
<ENDHMM>
~h "ch"
<BEGINHMM>
<NUMSTATES> 5
<STATE> 2
<MEAN> 25
 7.199000e+000 9.525931e+000 -2.179163e-002 9.333800e+000 -5.277153e+000 -8.794210e-001 -1.321105e+000 -4.876614e+000 -1.054773e+000 -3.744616e+000 -1.954136e+000 -4.192789e+000 -8.211396e-001 1.155214e+000 -5.060428e-001 4.401735e-001 5.023766e-001 -4.239785e-001 1.211073e+000 4.904255e-001 -6.055905e-003 -7.457201e-001 -1.234694e-001 -9.032407e-001 -1.352404e+000
<VARIANCE> 25
 3.724825e+001 8.950219e+000 5.969107e+001 1.504533e+001 4.542341e+001 3.483831e+001 2.477087e+001 4.825375e+001 3.507351e+001 3.488771e+001 2.472009e+001 2.059773e+001 7.372643e-001 1.238792e+000 1.660769e+000 1.282185e+000 2.930163e+000 1.900877e+000 4.510677e+000 3.186205e+000 1.867807e+000 2.598758e+000 2.127327e+000 1.638776e+000 4.840743e-001
<GCONST> 9.350265e+001
<STATE> 3
<MEAN> 25
 2.168159e+000 1.152098e+001 -1.552390e+000 1.070379e+001 -2.179830e+000 -2.536965e+000 2.166731e+000 -2.932842e+000 4.035971e-001 -6.219506e+000 -1.400094e+000 -4.081044e+000 -2.510771e+000 9.699164e-002 -5.858319e-001 -4.136831e-001 1.043041e+000 -4.618474e-001 7.019479e-001 8.140469e-001 8.913039e-002 -7.898906e-001 1.746584e-001 3.802407e-001 -3.966331e-001
<VARIANCE> 25
 5.580093e+001 1.003455e+001 3.516348e+001 7.717265e+000 3.819213e+001 2.938261e+001 4.059009e+001 3.140954e+001 3.141176e+001 2.735883e+001 2.654450e+001 2.041551e+001 2.183893e+000 2.382503e+000 3.355239e+000 3.051655e+000 5.614952e+000 2.082671e+000 4.091754e+000 3.768118e+000 3.029340e+000 1.547002e+000 2.555612e+000 3.372505e+000 2.848917e+000
<GCONST> 9.901888e+001
<STATE> 4
<MEAN> 25
 -1.541790e+001 5.698717e+000 -1.924529e+000 6.730165e+000 3.265199e-002 -3.927135e+000 4.088522e+000 1.309496e+000 1.261372e+000 -6.079618e+000 4.009111e+000 -4.709937e-001 -4.389294e-001 -5.188761e-001 1.240457e+000 -5.489847e-001 -6.711837e-001 -1.903654e-002 -4.238278e-001 -1.509549e-001 -6.640708e-001 3.853227e-001 2.490235e-001 -6.723731e-002 1.131891e+000
<VARIANCE> 25
 3.363855e+001 3.372364e+001 4.306790e+001 2.824477e+001 2.154910e+001 1.825546e+001 1.792313e+001 4.210240e+001 3.408783e+001 1.885659e+001 2.306723e+001 2.096610e+001 9.420523e+000 1.528462e+000 5.518217e+000 3.097889e+000 2.672196e+000 1.327264e+000 3.103681e+000 1.874345e+000 2.467205e+000 1.652825e+000 2.357939e+000 1.860577e+000 2.311156e+000
<GCONST> 9.758739e+001
<TRANSP> 5
 0.000000e+000 1.000000e+000 0.000000e+000 0.000000e+000 0.000000e+000
 0.000000e+000 4.119166e-001 5.880834e-001 0.000000e+000 0.000000e+000
 0.000000e+000 0.000000e+000 7.478717e-001 2.521283e-001 0.000000e+000
 0.000000e+000 0.000000e+000 0.000000e+000 9.142141e-001 8.578586e-002
 0.000000e+000 0.000000e+000 0.000000e+000 0.000000e+000 0.000000e+000
<ENDHMM>
~h "eh"
<BEGINHMM>
<NUMSTATES> 5
<STATE> 2
<MEAN> 25
 2.725435e-001 -3.377343e+000 1.494749e+001 -3.480596e+000 -1.273264e+001 -4.999673e+000 4.385657e-001 4.266591e+000 -9.777100e+000 5.813332e+000 5.322830e+000 2.052769e+000 -1.659981e-001 -3.513050e-001 1.606803e+000 -1.494828e+000 -8.826950e-001 2.431722e-001 6.294673e-003 2.608485e-001 -1.131251e+000 1.635583e+000 3.292233e-001 5.203178e-002 1.101207e+000
<VARIANCE> 25
 1.307710e+001 2.291821e+001 2.448898e+001 2.006802e+001 1.687259e+001 3.523453e+001 4.210435e+001 3.180449e+001 3.500193e+001 3.481470e+001 2.664797e+001 2.122528e+001 9.093675e-001 1.360333e+000 2.275636e+000 2.234681e+000 1.787365e+000 1.972953e+000 2.407186e+000 2.086146e+000 2.960057e+000 2.504323e+000 1.666927e+000 1.383988e+000 2.272777e+000
<GCONST> 9.325121e+001
<STATE> 3
<MEAN> 25
 -1.125290e+000 -1.108315e+000 1.841416e+001 -5.667385e+000 -1.304841e+001 -3.521825e+000 -1.572262e+000 1.460030e+000 -1.222690e+001 1.008249e+001 4.317642e+000 1.888265e+000 -3.803946e-002 1.777347e-001 -6.467027e-002 1.255641e-001 8.859379e-002 -2.321848e-002 1.900297e-001 -1.950273e-001 7.072515e-002 -6.357554e-002 -2.484062e-002 -1.101045e-001 -4.325157e-001
<VARIANCE> 25
 8.919287e+000 1.750065e+001 1.297138e+001 1.776993e+001 1.456645e+001 2.496979e+001 2.667597e+001 2.379873e+001 2.303741e+001 2.372257e+001 1.787208e+001 2.212572e+001 2.953266e-001 5.669467e-001 8.736255e-001 8.148887e-001 6.492624e-001 7.041380e-001 1.098293e+000 9.692741e-001 1.142344e+000 9.087580e-001 7.114376e-001 6.290392e-001 7.762680e-001
<GCONST> 7.720394e+001
<STATE> 4
<MEAN> 25
 -2.703877e+000 4.583818e+000 8.472909e+000 2.894405e+000 -9.583249e+000 -2.962177e+000 4.342820e+000 2.920572e-001 -6.333007e+000 2.743375e+000 3.977726e+000 -8.720320e-001 -1.240861e-001 5.219268e-001 -1.148026e+000 9.697874e-001 4.002140e-001 2.181133e-001 1.126705e-001 -8.848622e-002 6.849714e-001 -8.970438e-001 -1.163032e-001 -8.121797e-002 -1.071699e+000
<VARIANCE> 25
 1.223305e+001 2.938573e+001 5.423875e+001 3.714732e+001 4.484452e+001 3.733909e+001 4.046674e+001 3.202369e+001 5.023085e+001 4.359848e+001 3.550076e+001 3.029752e+001 5.724612e-001 1.467903e+000 2.028450e+000 1.995049e+000 2.829891e+000 2.238143e+000 2.787148e+000 2.350772e+000 2.831192e+000 2.944348e+000 2.308388e+000 2.172559e+000 1.337735e+000
<GCONST> 9.767596e+001
<TRANSP> 5
 0.000000e+000 1.000000e+000 0.000000e+000 0.000000e+000 0.000000e+000
 0.000000e+000 6.900591e-001 3.099409e-001 0.000000e+000 0.000000e+000
 0.000000e+000 0.000000e+000 9.047647e-001 9.523539e-002 0.000000e+000
 0.000000e+000 0.000000e+000 0.000000e+000 8.758745e-001 1.241255e-001
 0.000000e+000 0.000000e+000 0.000000e+000 0.000000e+000 0.000000e+000
<ENDHMM>
~h "ih"
<BEGINHMM>
<NUMSTATES> 5
<STATE> 2
<MEAN> 25
 -4.145164e+000 3.606468e+000 8.532389e+000 3.755218e+000 -8.166136e+000 -6.692293e-001 1.714084e+000 -2.762908e+000 -6.160035e+000 -1.758793e+000 5.531549e+000 3.110123e-001 6.357706e-001 -5.577401e-001 3.739102e+000 -1.631796e+000 -1.817164e+000 5.804208e-003 -1.353576e+000 4.834618e-001 -2.655066e+000 1.687846e+000 7.956291e-001 -6.284583e-002 1.793910e+000
<VARIANCE> 25
 4.593718e+001 2.956748e+001 1.373710e+002 4.359880e+001 4.378095e+001 5.288863e+001 6.924088e+001 3.180451e+001 7.133907e+001 4.571381e+001 3.267939e+001 2.949317e+001 3.478206e+000 3.278199e+000 9.834483e+000 4.231031e+000 4.318001e+000 5.042621e+000 4.818999e+000 2.752722e+000 5.379615e+000 3.834715e+000 3.785554e+000 3.464558e+000 3.585311e+000
<GCONST> 1.109693e+002
<STATE> 3
<MEAN> 25
 -1.414166e+000 1.769498e+000 2.002716e+001 -3.354115e+000 -1.236121e+001 8.407860e-001 -5.380644e+000 -1.056413e+000 -1.427815e+001 5.724943e+000 6.008658e+000 -2.152906e-001 9.969373e-002 1.436614e-001 2.596313e-001 -5.171978e-001 -4.293156e-002 3.441216e-001 -3.198645e-001 -1.183393e-002 -2.475160e-001 6.396821e-001 -1.142405e-001 -8.667024e-003 1.597120e-002
<VARIANCE> 25
 1.011635e+001 1.822002e+001 3.377953e+001 2.972621e+001 2.091808e+001 2.923170e+001 2.795808e+001 2.349884e+001 3.567068e+001 2.467212e+001 4.250237e+001 3.132841e+001 5.974356e-001 1.144543e+000 2.376687e+000 2.050926e+000 1.475805e+000 1.872642e+000 1.767075e+000 1.412435e+000 2.050581e+000 2.332136e+000 1.761943e+000 1.925619e+000 1.059836e+000
<GCONST> 9.093288e+001
<STATE> 4
<MEAN> 25
 -1.609618e+000 5.974853e+000 1.242891e+001 1.529322e+000 -9.037366e+000 -1.053587e+000 -1.409562e+000 -3.185659e+000 -9.449224e+000 2.266824e+000 3.876427e+000 -1.183699e+000 1.203862e-001 3.260968e-001 -1.203545e+000 7.922511e-001 7.033468e-001 -2.441919e-001 2.976379e-001 -2.388388e-001 9.483073e-001 -6.344396e-001 -3.947636e-001 -6.240506e-002 -7.959620e-001
<VARIANCE> 25
 1.640866e+001 2.338728e+001 7.709107e+001 4.400180e+001 2.891680e+001 2.977478e+001 3.642108e+001 2.775899e+001 5.387430e+001 4.876299e+001 3.631170e+001 2.598270e+001 7.739104e-001 1.291418e+000 3.194412e+000 2.783025e+000 2.386675e+000 2.410067e+000 2.562737e+000 2.529754e+000 3.001391e+000 3.136628e+000 2.199363e+000 2.025941e+000 1.746172e+000
<GCONST> 9.852312e+001
<TRANSP> 5
 0.000000e+000 1.000000e+000 0.000000e+000 0.000000e+000 0.000000e+000
 0.000000e+000 7.374831e-001 2.625169e-001 0.000000e+000 0.000000e+000
 0.000000e+000 0.000000e+000 7.348399e-001 2.651601e-001 0.000000e+000
 0.000000e+000 0.000000e+000 0.000000e+000 8.589315e-001 1.410685e-001
 0.000000e+000 0.000000e+000 0.000000e+000 0.000000e+000 0.000000e+000
<ENDHMM>
~h "iy"
<BEGINHMM>
<NUMSTATES> 5
<STATE> 2
<MEAN> 25
 -1.731585e-002 3.213369e-001 1.732469e+001 -4.917396e+000 -8.828469e+000 1.270662e+000 -6.321783e+000 2.137040e+000 -1.325504e+001 4.297625e+000 2.639547e+000 2.680820e+000 1.311517e-001 3.114471e-001 -1.754383e-001 2.686012e-001 2.707403e-002 2.429839e-001 -1.373299e-001 -4.001223e-001 4.774372e-002 5.597487e-002 1.018238e-001 -1.906772e-001 -3.969541e-001
<VARIANCE> 25
 9.114345e+000 1.268393e+001 3.318498e+001 1.469731e+001 2.013720e+001 1.226690e+001 1.759928e+001 4.034600e+001 1.747615e+001 1.212559e+001 1.663726e+001 2.504481e+001 3.156873e-001 3.773002e-001 8.046848e-001 8.985392e-001 1.242325e+000 1.151819e+000 7.225190e-001 1.208081e+000 1.000220e+000 1.101938e+000 1.907128e+000 1.025816e+000 4.106935e-001
<GCONST> 7.799898e+001
<STATE> 3
<MEAN> 25
 4.160097e+000 5.671212e+000 4.348702e+000 5.377458e+000 -3.074768e+000 1.627626e+000 -1.809472e+000 -4.714673e+000 -5.019632e+000 -1.234156e+000 1.973706e+000 -3.002568e+000 -9.469184e-002 4.708818e-001 -8.413673e-001 7.051818e-001 1.666968e-001 -2.699941e-001 6.573312e-001 -4.082331e-001 7.536417e-001 -7.079759e-001 -1.796819e-001 9.994082e-003 -7.664961e-001
<VARIANCE> 25
 1.536276e+001 1.408919e+001 3.851040e+001 4.381234e+001 2.190741e+001 1.688728e+001 4.048909e+001 2.688829e+001 3.267121e+001 4.036903e+001 2.575190e+001 2.303362e+001 5.603614e-001 5.777114e-001 1.969949e+000 2.334057e+000 1.454739e+000 1.455381e+000 1.514682e+000 2.248448e+000 3.094597e+000 2.765713e+000 1.974471e+000 2.634089e+000 5.470076e-001
<GCONST> 9.079706e+001
<STATE> 4
<MEAN> 25
 -4.540350e-001 6.241755e+000 4.360086e+000 1.640100e+000 -3.940657e+000 2.722822e+000 3.052202e+000 -2.401269e+000 -2.921478e+000 1.204646e+000 1.727500e-001 -3.065694e-001 -3.640087e-001 -2.475128e-001 -2.001110e-001 2.451837e-002 3.034473e-001 5.953011e-002 2.524457e-001 3.997543e-001 3.020586e-001 2.007068e-003 -2.508314e-001 1.730575e-001 -2.190493e-001
<VARIANCE> 25
 9.412521e+000 4.577923e+001 9.180896e+001 1.040296e+002 4.997930e+001 2.118632e+001 3.303079e+001 2.622712e+001 7.109460e+001 1.006387e+002 2.665076e+001 1.320559e+001 4.316038e-001 1.004396e+000 1.795441e+000 2.754587e+000 2.338022e+000 2.354344e+000 1.296928e+000 1.699813e+000 1.666535e+000 2.013668e+000 2.968776e+000 1.050582e+000 6.238490e-001
<GCONST> 9.478048e+001
<TRANSP> 5
 0.000000e+000 1.000000e+000 0.000000e+000 0.000000e+000 0.000000e+000
 0.000000e+000 9.442582e-001 5.574185e-002 0.000000e+000 0.000000e+000
 0.000000e+000 0.000000e+000 8.776136e-001 1.223864e-001 0.000000e+000
 0.000000e+000 0.000000e+000 0.000000e+000 9.044816e-001 9.551834e-002
 0.000000e+000 0.000000e+000 0.000000e+000 0.000000e+000 0.000000e+000
<ENDHMM>
~h "th"
<BEGINHMM>
<NUMSTATES> 5
<STATE> 2
<MEAN> 25
 1.102798e+000 3.898547e+000 -1.019523e+001 1.183911e+000 2.488352e+000 2.153991e+000 -1.860091e+000 1.251273e+000 4.717184e+000 -2.264015e+000 -7.768085e-001 -5.713251e+000 -6.588300e-001 4.555573e-001 -1.048548e+000 9.480268e-001 -6.292565e-001 -1.034210e-002 5.471926e-001 -2.062214e-001 -5.055993e-002 -8.281100e-001 2.052808e-001 -1.055783e-002 -1.138353e+000
<VARIANCE> 25
 1.236555e+001 1.978531e+001 3.685135e+001 4.366079e+001 3.306470e+001 3.537483e+001 3.479763e+001 3.536532e+001 3.626535e+001 3.514742e+001 2.680687e+001 2.869723e+001 1.425556e+000 2.184487e+000 2.298293e+000 3.955387e+000 1.936766e+000 3.344307e+000 4.340488e+000 3.283710e+000 2.684894e+000 2.811724e+000 2.953961e+000 1.672903e+000 3.394129e+000
<GCONST> 9.951537e+001
<STATE> 3
<MEAN> 25
 -4.303133e+000 4.413465e+000 -1.128158e+001 5.501824e+000 -6.550980e-001 -1.087809e+000 2.649338e+000 -1.339910e+000 3.812937e+000 -6.005984e+000 1.474564e+000 -3.332389e+000 -1.640170e+000 -8.050054e-001 4.524145e-002 4.848769e-001 -6.989183e-001 -1.402966e+000 8.998825e-001 -9.952027e-001 5.219095e-001 -1.042410e+000 7.906522e-001 4.149821e-001 2.085058e+000
<VARIANCE> 25
 3.137806e+001 2.070860e+001 4.018708e+001 3.668012e+001 4.442960e+001 4.511340e+001 3.876191e+001 3.541790e+001 3.233566e+001 3.650048e+001 3.905124e+001 2.986039e+001 3.909741e+000 2.417194e+000 2.508670e+000 4.376637e+000 3.648749e+000 4.291176e+000 4.876341e+000 3.951315e+000 3.080587e+000 4.650944e+000 4.008065e+000 3.007185e+000 7.498118e+000
<GCONST> 1.061997e+002
<STATE> 4
<MEAN> 25
 -5.950752e+000 6.194823e-001 -7.860350e+000 3.691865e+000 -7.697319e-001 -4.429514e+000 1.416018e+000 -1.624174e+000 5.727559e+000 -6.730145e+000 1.374567e+000 -1.844172e+000 1.116308e+000 -1.268647e+000 1.956609e+000 -2.269454e+000 7.561641e-001 -1.759674e-001 -1.231298e+000 5.900451e-001 2.811768e-001 1.055123e+000 -8.710204e-001 -2.584990e-002 2.630512e+000
<VARIANCE> 25
 3.826583e+001 3.118121e+001 5.794067e+001 8.076611e+001 5.426952e+001 3.599773e+001 4.973573e+001 3.229924e+001 2.417687e+001 4.066600e+001 3.339021e+001 3.791457e+001 6.096297e+000 3.434215e+000 5.002280e+000 9.827585e+000 5.915275e+000 4.519407e+000 6.060555e+000 4.910902e+000 3.309639e+000 6.200208e+000 6.104202e+000 3.490444e+000 6.031803e+000
<GCONST> 1.119691e+002
<TRANSP> 5
 0.000000e+000 1.000000e+000 0.000000e+000 0.000000e+000 0.000000e+000
 0.000000e+000 7.965206e-001 2.034795e-001 0.000000e+000 0.000000e+000
 0.000000e+000 0.000000e+000 5.427445e-001 4.572555e-001 0.000000e+000
 0.000000e+000 0.000000e+000 0.000000e+000 7.543618e-001 2.456382e-001
 0.000000e+000 0.000000e+000 0.000000e+000 0.000000e+000 0.000000e+000
<ENDHMM>
~h "uh"
<BEGINHMM>
<NUMSTATES> 5
<STATE> 2
<MEAN> 25
 3.126616e+000 4.328242e+000 2.768058e+000 -5.493332e-001 -2.981200e+000 7.505361e-001 -7.471399e+000 -4.559973e+000 -2.766995e+000 -6.479914e-001 6.964182e+000 -1.877571e+000 2.006901e+000 -8.918898e-002 1.685985e+000 -1.822683e+000 -2.780601e-001 1.808773e+000 -2.780670e+000 -7.592779e-001 -1.959792e+000 2.416480e+000 1.088763e+000 -1.665142e-001 6.987655e-001
<VARIANCE> 25
 2.459790e+001 2.036518e+001 4.791760e+001 5.046026e+001 3.301815e+001 6.737105e+001 7.219849e+001 3.477938e+001 6.102031e+001 4.398245e+001 3.628234e+001 2.190773e+001 4.661184e+000 2.211095e+000 3.984641e+000 6.945557e+000 2.807166e+000 4.656869e+000 7.487458e+000 6.578111e+000 4.759488e+000 5.860044e+000 2.980687e+000 2.133009e+000 1.305846e+000
<GCONST> 1.076286e+002
<STATE> 3
<MEAN> 25
 6.146190e+000 3.475197e+000 2.767428e+000 -3.327032e+000 -3.466797e+000 5.539905e+000 -1.024122e+001 -5.927208e+000 -5.546626e+000 3.487511e+000 8.700019e+000 -8.351806e-001 3.471946e-001 -3.812755e-002 -3.138663e-001 4.488830e-001 9.968776e-002 6.497989e-001 -2.183607e-001 -4.888854e-001 -5.023575e-001 9.114708e-001 -1.299539e-001 1.385456e-001 -2.992095e-001
<VARIANCE> 25
 1.494197e+001 1.536772e+001 4.406773e+001 5.715171e+001 4.185490e+001 4.171110e+001 4.889486e+001 4.244407e+001 4.448872e+001 4.047841e+001 4.004350e+001 2.087157e+001 6.846599e-001 1.331315e+000 2.284455e+000 8.008148e+000 5.325015e+000 4.208589e+000 4.696094e+000 4.346289e+000 4.676651e+000 3.531330e+000 2.911478e+000 1.645694e+000 1.197820e+000
<GCONST> 1.020331e+002
<STATE> 4
<MEAN> 25
 5.917263e+000 5.135706e+000 5.909902e-001 -8.285874e-001 -1.046403e+000 5.372065e+000 -1.025545e+001 -4.378102e+000 -6.863219e+000 4.173275e+000 5.675038e+000 -1.011277e+000 -2.158813e-001 9.087533e-002 -4.135525e-001 7.082207e-001 5.904856e-002 -2.996976e-001 5.752568e-001 -5.582463e-002 4.763082e-001 -1.519509e-001 -5.604492e-001 2.068964e-001 -6.007742e-001
<VARIANCE> 25
 1.428535e+001 2.243782e+001 4.981348e+001 6.809919e+001 3.471957e+001 4.470248e+001 5.374366e+001 3.210752e+001 6.143253e+001 4.499800e+001 3.407514e+001 2.361403e+001 5.711394e-001 1.621791e+000 1.608624e+000 2.700526e+000 1.543931e+000 2.344316e+000 2.516969e+000 1.690083e+000 2.550668e+000 2.692070e+000 2.282033e+000 1.535940e+000 1.313710e+000
<GCONST> 9.684190e+001
<TRANSP> 5
 0.000000e+000 1.000000e+000 0.000000e+000 0.000000e+000 0.000000e+000
 0.000000e+000 5.133822e-001 4.866179e-001 0.000000e+000 0.000000e+000
 0.000000e+000 0.000000e+000 5.643784e-001 4.356216e-001 0.000000e+000
 0.000000e+000 0.000000e+000 0.000000e+000 8.670371e-001 1.329628e-001
 0.000000e+000 0.000000e+000 0.000000e+000 0.000000e+000 0.000000e+000
<ENDHMM>
~h "sil"
<BEGINHMM>
<NUMSTATES> 5
<STATE> 2
<MEAN> 25
 -7.000062e+000 3.531148e+000 -8.555044e+000 1.052207e+001 3.522785e+000 2.050038e+000 6.273512e+000 -1.418233e+000 4.611915e+000 -5.137160e+000 1.745398e+000 2.121758e+000 3.666427e-001 -1.487555e-001 -2.458804e-001 -8.652136e-002 -1.578255e-001 -2.176025e-001 -3.548123e-001 -5.310215e-001 -5.867825e-001 9.502098e-004 -4.290665e-002 -5.159598e-001 7.576129e-001
<VARIANCE> 25
 4.039943e+001 4.884196e+001 5.600791e+001 4.489027e+001 6.433900e+001 5.619745e+001 3.803156e+001 3.855679e+001 3.902649e+001 4.053210e+001 3.142531e+001 2.922054e+001 3.468016e+000 3.148976e+000 3.095229e+000 5.058856e+000 2.351067e+000 3.300366e+000 3.663942e+000 3.076262e+000 3.274153e+000 3.164374e+000 2.875081e+000 2.446424e+000 4.215184e+000
<GCONST> 1.063767e+002
<STATE> 3
<MEAN> 25
 -1.088437e+000 2.463239e+000 -6.838665e+000 3.704067e+000 2.532341e+000 2.652896e+000 1.753320e-001 -4.580252e+000 -3.297316e-001 -4.499600e+000 6.940620e-001 1.795126e-001 1.143929e+000 -1.007248e+000 6.817221e-001 -2.282254e+000 2.432209e-001 8.474137e-001 -8.464970e-001 -1.915198e-001 -8.686693e-001 3.530298e-001 2.157539e-001 -3.141236e-001 2.244516e+000
<VARIANCE> 25
 2.894105e+001 5.759925e+001 7.166943e+001 1.197358e+002 8.566902e+001 6.472569e+001 5.439801e+001 5.112629e+001 3.862966e+001 6.108840e+001 3.606856e+001 2.635027e+001 3.438251e+000 5.285057e+000 5.860730e+000 9.106428e+000 3.991071e+000 4.563848e+000 4.878734e+000 4.200777e+000 4.040207e+000 4.023596e+000 2.857194e+000 1.978898e+000 8.088372e+000
<GCONST> 1.130083e+002
<STATE> 4
<MEAN> 25
 -4.274866e+000 3.844583e+000 -5.577279e+000 5.810030e+000 6.145812e-001 7.771209e-001 3.358477e+000 -1.154156e+000 8.056474e-001 -5.806324e+000 3.513768e+000 1.183071e+000 -1.560789e-003 -9.377042e-002 -1.297510e-001 -5.191191e-002 9.114829e-002 2.831685e-001 8.548750e-002 2.422491e-001 -1.752709e-001 -3.984954e-002 2.131104e-001 1.547998e-001 -2.407755e-002
<VARIANCE> 25
 3.666212e+001 7.576974e+001 5.361321e+001 1.030104e+002 7.018957e+001 1.013823e+002 3.327431e+001 6.276287e+001 2.709552e+001 4.806503e+001 3.295275e+001 2.519416e+001 7.292986e-001 1.299865e+000 1.386403e+000 2.166553e+000 1.677741e+000 1.944675e+000 2.264985e+000 2.147908e+000 1.815913e+000 2.394447e+000 2.031227e+000 1.565248e+000 1.230821e+000
<GCONST> 9.954601e+001
<TRANSP> 5
 0.000000e+000 1.000000e+000 0.000000e+000 0.000000e+000 0.000000e+000
 0.000000e+000 6.145002e-001 3.854997e-001 0.000000e+000 0.000000e+000
 0.000000e+000 0.000000e+000 4.766505e-001 5.233495e-001 0.000000e+000
 0.000000e+000 0.000000e+000 0.000000e+000 6.997871e-001 3.002129e-001
 0.000000e+000 0.000000e+000 0.000000e+000 0.000000e+000 0.000000e+000
<ENDHMM>
