~o
<STREAMINFO> 1 25
<VECSIZE> 25<NULLD><MFCC_D_N_Z_0><DIAGC>
~t "T_b"
<TRANSP> 5
 0.000000e+000 1.000000e+000 0.000000e+000 0.000000e+000 0.000000e+000
 0.000000e+000 6.564121e-001 3.435879e-001 0.000000e+000 0.000000e+000
 0.000000e+000 0.000000e+000 5.145565e-001 4.854435e-001 0.000000e+000
 0.000000e+000 0.000000e+000 0.000000e+000 5.860102e-001 4.139898e-001
 0.000000e+000 0.000000e+000 0.000000e+000 0.000000e+000 0.000000e+000
~t "T_d"
<TRANSP> 5
 0.000000e+000 1.000000e+000 0.000000e+000 0.000000e+000 0.000000e+000
 0.000000e+000 7.571072e-001 2.428928e-001 0.000000e+000 0.000000e+000
 0.000000e+000 0.000000e+000 6.845140e-001 3.154860e-001 0.000000e+000
 0.000000e+000 0.000000e+000 0.000000e+000 5.364608e-001 4.635392e-001
 0.000000e+000 0.000000e+000 0.000000e+000 0.000000e+000 0.000000e+000
~t "T_g"
<TRANSP> 5
 0.000000e+000 1.000000e+000 0.000000e+000 0.000000e+000 0.000000e+000
 0.000000e+000 6.883216e-001 3.116784e-001 0.000000e+000 0.000000e+000
 0.000000e+000 0.000000e+000 7.097802e-001 2.902198e-001 0.000000e+000
 0.000000e+000 0.000000e+000 0.000000e+000 7.147294e-001 2.852706e-001
 0.000000e+000 0.000000e+000 0.000000e+000 0.000000e+000 0.000000e+000
~t "T_h"
<TRANSP> 5
 0.000000e+000 1.000000e+000 0.000000e+000 0.000000e+000 0.000000e+000
 0.000000e+000 8.649688e-001 1.350312e-001 0.000000e+000 0.000000e+000
 0.000000e+000 0.000000e+000 6.713641e-001 3.286359e-001 0.000000e+000
 0.000000e+000 0.000000e+000 0.000000e+000 8.571591e-001 1.428409e-001
 0.000000e+000 0.000000e+000 0.000000e+000 0.000000e+000 0.000000e+000
~t "T_j"
<TRANSP> 5
 0.000000e+000 1.000000e+000 0.000000e+000 0.000000e+000 0.000000e+000
 0.000000e+000 8.926893e-001 1.073107e-001 0.000000e+000 0.000000e+000
 0.000000e+000 0.000000e+000 7.472498e-001 2.527502e-001 0.000000e+000
 0.000000e+000 0.000000e+000 0.000000e+000 6.882730e-001 3.117271e-001
 0.000000e+000 0.000000e+000 0.000000e+000 0.000000e+000 0.000000e+000
~t "T_k"
<TRANSP> 5
 0.000000e+000 1.000000e+000 0.000000e+000 0.000000e+000 0.000000e+000
 0.000000e+000 8.002896e-001 1.997104e-001 0.000000e+000 0.000000e+000
 0.000000e+000 0.000000e+000 5.858532e-001 4.141468e-001 0.000000e+000
 0.000000e+000 0.000000e+000 0.000000e+000 7.381863e-001 2.618137e-001
 0.000000e+000 0.000000e+000 0.000000e+000 0.000000e+000 0.000000e+000
~t "T_l"
<TRANSP> 5
 0.000000e+000 1.000000e+000 0.000000e+000 0.000000e+000 0.000000e+000
 0.000000e+000 6.969991e-001 3.030009e-001 0.000000e+000 0.000000e+000
 0.000000e+000 0.000000e+000 7.645581e-001 2.354419e-001 0.000000e+000
 0.000000e+000 0.000000e+000 0.000000e+000 6.833706e-001 3.166294e-001
 0.000000e+000 0.000000e+000 0.000000e+000 0.000000e+000 0.000000e+000
~t "T_m"
<TRANSP> 5
 0.000000e+000 1.000000e+000 0.000000e+000 0.000000e+000 0.000000e+000
 0.000000e+000 6.663848e-001 3.336153e-001 0.000000e+000 0.000000e+000
 0.000000e+000 0.000000e+000 7.788938e-001 2.211062e-001 0.000000e+000
 0.000000e+000 0.000000e+000 0.000000e+000 6.843551e-001 3.156448e-001
 0.000000e+000 0.000000e+000 0.000000e+000 0.000000e+000 0.000000e+000
~t "T_n"
<TRANSP> 5
 0.000000e+000 1.000000e+000 0.000000e+000 0.000000e+000 0.000000e+000
 0.000000e+000 6.062559e-001 3.937441e-001 0.000000e+000 0.000000e+000
 0.000000e+000 0.000000e+000 7.686099e-001 2.313901e-001 0.000000e+000
 0.000000e+000 0.000000e+000 0.000000e+000 7.266548e-001 2.733453e-001
 0.000000e+000 0.000000e+000 0.000000e+000 0.000000e+000 0.000000e+000
~t "T_o"
<TRANSP> 5
 0.000000e+000 1.000000e+000 0.000000e+000 0.000000e+000 0.000000e+000
 0.000000e+000 9.025636e-001 9.743641e-002 0.000000e+000 0.000000e+000
 0.000000e+000 0.000000e+000 8.848781e-001 1.151219e-001 0.000000e+000
 0.000000e+000 0.000000e+000 0.000000e+000 6.724141e-001 3.275860e-001
 0.000000e+000 0.000000e+000 0.000000e+000 0.000000e+000 0.000000e+000
~t "T_p"
<TRANSP> 5
 0.000000e+000 1.000000e+000 0.000000e+000 0.000000e+000 0.000000e+000
 0.000000e+000 7.114816e-001 2.885184e-001 0.000000e+000 0.000000e+000
 0.000000e+000 0.000000e+000 8.652909e-001 1.347091e-001 0.000000e+000
 0.000000e+000 0.000000e+000 0.000000e+000 7.261814e-001 2.738186e-001
 0.000000e+000 0.000000e+000 0.000000e+000 0.000000e+000 0.000000e+000
~t "T_r"
<TRANSP> 5
 0.000000e+000 1.000000e+000 0.000000e+000 0.000000e+000 0.000000e+000
 0.000000e+000 6.534261e-001 3.465740e-001 0.000000e+000 0.000000e+000
 0.000000e+000 0.000000e+000 6.984378e-001 3.015622e-001 0.000000e+000
 0.000000e+000 0.000000e+000 0.000000e+000 6.982518e-001 3.017482e-001
 0.000000e+000 0.000000e+000 0.000000e+000 0.000000e+000 0.000000e+000
~t "T_s"
<TRANSP> 5
 0.000000e+000 1.000000e+000 0.000000e+000 0.000000e+000 0.000000e+000
 0.000000e+000 7.555226e-001 2.444774e-001 0.000000e+000 0.000000e+000
 0.000000e+000 0.000000e+000 9.047279e-001 9.527207e-002 0.000000e+000
 0.000000e+000 0.000000e+000 0.000000e+000 6.964470e-001 3.035530e-001
 0.000000e+000 0.000000e+000 0.000000e+000 0.000000e+000 0.000000e+000
~t "T_t"
<TRANSP> 5
 0.000000e+000 1.000000e+000 0.000000e+000 0.000000e+000 0.000000e+000
 0.000000e+000 8.683965e-001 1.316035e-001 0.000000e+000 0.000000e+000
 0.000000e+000 0.000000e+000 8.718650e-001 1.281350e-001 0.000000e+000
 0.000000e+000 0.000000e+000 0.000000e+000 7.558572e-001 2.441428e-001
 0.000000e+000 0.000000e+000 0.000000e+000 0.000000e+000 0.000000e+000
~t "T_w"
<TRANSP> 5
 0.000000e+000 1.000000e+000 0.000000e+000 0.000000e+000 0.000000e+000
 0.000000e+000 5.258241e-001 4.741759e-001 0.000000e+000 0.000000e+000
 0.000000e+000 0.000000e+000 7.103276e-001 2.896725e-001 0.000000e+000
 0.000000e+000 0.000000e+000 0.000000e+000 6.695383e-001 3.304617e-001
 0.000000e+000 0.000000e+000 0.000000e+000 0.000000e+000 0.000000e+000
~t "T_y"
<TRANSP> 5
 0.000000e+000 1.000000e+000 0.000000e+000 0.000000e+000 0.000000e+000
 0.000000e+000 6.430520e-001 3.569480e-001 0.000000e+000 0.000000e+000
 0.000000e+000 0.000000e+000 8.035627e-001 1.964373e-001 0.000000e+000
 0.000000e+000 0.000000e+000 0.000000e+000 7.665236e-001 2.334764e-001
 0.000000e+000 0.000000e+000 0.000000e+000 0.000000e+000 0.000000e+000
~t "T_aa"
<TRANSP> 5
 0.000000e+000 1.000000e+000 0.000000e+000 0.000000e+000 0.000000e+000
 0.000000e+000 7.571964e-001 2.428036e-001 0.000000e+000 0.000000e+000
 0.000000e+000 0.000000e+000 9.016513e-001 9.834867e-002 0.000000e+000
 0.000000e+000 0.000000e+000 0.000000e+000 9.067309e-001 9.326903e-002
 0.000000e+000 0.000000e+000 0.000000e+000 0.000000e+000 0.000000e+000
~t "T_ae"
<TRANSP> 5
 0.000000e+000 1.000000e+000 0.000000e+000 0.000000e+000 0.000000e+000
 0.000000e+000 4.777018e-001 5.222982e-001 0.000000e+000 0.000000e+000
 0.000000e+000 0.000000e+000 4.339326e-001 5.660674e-001 0.000000e+000
 0.000000e+000 0.000000e+000 0.000000e+000 9.057932e-001 9.420678e-002
 0.000000e+000 0.000000e+000 0.000000e+000 0.000000e+000 0.000000e+000
~t "T_ah"
<TRANSP> 5
 0.000000e+000 1.000000e+000 0.000000e+000 0.000000e+000 0.000000e+000
 0.000000e+000 6.315184e-001 3.684816e-001 0.000000e+000 0.000000e+000
 0.000000e+000 0.000000e+000 7.338078e-001 2.661922e-001 0.000000e+000
 0.000000e+000 0.000000e+000 0.000000e+000 8.258138e-001 1.741862e-001
 0.000000e+000 0.000000e+000 0.000000e+000 0.000000e+000 0.000000e+000
~t "T_ao"
<TRANSP> 5
 0.000000e+000 1.000000e+000 0.000000e+000 0.000000e+000 0.000000e+000
 0.000000e+000 5.583158e-001 4.416842e-001 0.000000e+000 0.000000e+000
 0.000000e+000 0.000000e+000 6.069140e-001 3.930860e-001 0.000000e+000
 0.000000e+000 0.000000e+000 0.000000e+000 9.156514e-001 8.434863e-002
 0.000000e+000 0.000000e+000 0.000000e+000 0.000000e+000 0.000000e+000
~t "T_ch"
<TRANSP> 5
 0.000000e+000 1.000000e+000 0.000000e+000 0.000000e+000 0.000000e+000
 0.000000e+000 8.022837e-001 1.977163e-001 0.000000e+000 0.000000e+000
 0.000000e+000 0.000000e+000 6.258533e-001 3.741467e-001 0.000000e+000
 0.000000e+000 0.000000e+000 0.000000e+000 9.045831e-001 9.541687e-002
 0.000000e+000 0.000000e+000 0.000000e+000 0.000000e+000 0.000000e+000
~t "T_eh"
<TRANSP> 5
 0.000000e+000 1.000000e+000 0.000000e+000 0.000000e+000 0.000000e+000
 0.000000e+000 6.580997e-001 3.419003e-001 0.000000e+000 0.000000e+000
 0.000000e+000 0.000000e+000 8.828086e-001 1.171914e-001 0.000000e+000
 0.000000e+000 0.000000e+000 0.000000e+000 8.819108e-001 1.180892e-001
 0.000000e+000 0.000000e+000 0.000000e+000 0.000000e+000 0.000000e+000
~t "T_ih"
<TRANSP> 5
 0.000000e+000 1.000000e+000 0.000000e+000 0.000000e+000 0.000000e+000
 0.000000e+000 7.018337e-001 2.981663e-001 0.000000e+000 0.000000e+000
 0.000000e+000 0.000000e+000 7.925449e-001 2.074551e-001 0.000000e+000
 0.000000e+000 0.000000e+000 0.000000e+000 8.225676e-001 1.774324e-001
 0.000000e+000 0.000000e+000 0.000000e+000 0.000000e+000 0.000000e+000
~t "T_iy"
<TRANSP> 5
 0.000000e+000 1.000000e+000 0.000000e+000 0.000000e+000 0.000000e+000
 0.000000e+000 9.219087e-001 7.809137e-002 0.000000e+000 0.000000e+000
 0.000000e+000 0.000000e+000 8.965186e-001 1.034814e-001 0.000000e+000
 0.000000e+000 0.000000e+000 0.000000e+000 9.183322e-001 8.166776e-002
 0.000000e+000 0.000000e+000 0.000000e+000 0.000000e+000 0.000000e+000
~t "T_th"
<TRANSP> 5
 0.000000e+000 1.000000e+000 0.000000e+000 0.000000e+000 0.000000e+000
 0.000000e+000 8.409798e-001 1.590202e-001 0.000000e+000 0.000000e+000
 0.000000e+000 0.000000e+000 7.811551e-001 2.188449e-001 0.000000e+000
 0.000000e+000 0.000000e+000 0.000000e+000 5.966854e-001 4.033146e-001
 0.000000e+000 0.000000e+000 0.000000e+000 0.000000e+000 0.000000e+000
~t "T_uh"
<TRANSP> 5
 0.000000e+000 1.000000e+000 0.000000e+000 0.000000e+000 0.000000e+000
 0.000000e+000 4.538766e-001 5.461234e-001 0.000000e+000 0.000000e+000
 0.000000e+000 0.000000e+000 7.231892e-001 2.768108e-001 0.000000e+000
 0.000000e+000 0.000000e+000 0.000000e+000 8.209155e-001 1.790845e-001
 0.000000e+000 0.000000e+000 0.000000e+000 0.000000e+000 0.000000e+000
~s "ST_aa_2_1"
<MEAN> 25
 2.521702e+000 -9.947518e+000 -5.101448e+000 -1.251077e+001 1.036500e+001 2.863040e+000 6.342715e-001 5.311776e+000 3.452837e+000 -1.077076e+000 -7.555663e+000 -2.909261e+000 4.842341e-002 -5.704322e-001 -3.768497e-001 -2.425305e-001 9.407661e-001 5.631018e-001 9.688637e-001 -7.655647e-001 -4.268340e-001 -4.047787e-002 -2.199943e-001 1.370914e-001 1.673394e-001
<VARIANCE> 25
 6.277091e+000 1.025522e+001 2.502308e+001 1.578918e+001 1.665216e+001 2.916596e+001 2.414999e+001 2.636056e+001 4.268996e+001 2.644023e+001 2.663203e+001 2.008730e+001 2.711552e-001 7.916062e-001 1.019729e+000 1.095941e+000 1.514585e+000 1.041133e+000 2.000322e+000 1.808235e+000 1.395685e+000 1.542013e+000 1.405530e+000 1.109144e+000 4.387377e-001
<GCONST> 8.274362e+001
~s "ST_aa_3_1"
<MEAN> 25
 2.917048e+000 -9.585127e+000 -6.318069e+000 -1.319600e+001 1.294997e+001 7.919927e+000 2.694142e+000 -2.759815e+000 5.034473e+000 -3.238490e+000 -5.729312e+000 -7.416547e-001 1.278228e-002 4.450726e-002 -4.144290e-002 6.697933e-002 5.652084e-002 9.702594e-003 -8.268232e-005 -1.678453e-001 1.894023e-001 7.440166e-002 -1.169785e-001 -1.506272e-002 -1.882143e-001
<VARIANCE> 25
 7.223876e+000 1.061835e+001 2.015426e+001 2.017053e+001 2.629474e+001 3.119988e+001 2.513566e+001 2.517665e+001 3.260934e+001 2.771677e+001 2.172745e+001 2.754462e+001 1.347328e-001 3.062275e-001 4.142707e-001 5.422630e-001 5.819968e-001 8.174073e-001 7.085741e-001 7.103026e-001 4.416466e-001 6.140333e-001 5.938596e-001 7.125828e-001 2.837760e-001
<GCONST> 7.312045e+001
~s "ST_aa_4_1"
<MEAN> 25
 -3.418276e-001 -3.390855e+000 -1.295673e+001 -1.267525e+000 9.350316e+000 3.733184e+000 4.285649e+000 8.108820e-001 4.963027e+000 -5.095187e+000 -6.632817e+000 -7.491832e-001 -1.788342e-001 4.304351e-001 -3.481993e-001 7.727568e-001 -3.938370e-001 -1.127262e-001 -1.093685e-001 1.876124e-001 -2.480954e-002 -1.838479e-001 1.701084e-001 7.669524e-002 -9.345762e-001
<VARIANCE> 25
 1.668312e+001 2.404904e+001 3.619017e+001 5.669737e+001 3.752486e+001 4.269834e+001 2.949379e+001 2.980402e+001 2.698689e+001 4.197791e+001 3.025023e+001 3.326292e+001 5.203484e-001 1.414274e+000 1.155198e+000 1.686305e+000 1.852964e+000 1.714227e+000 2.515401e+000 2.558327e+000 1.914725e+000 1.812476e+000 1.736510e+000 2.085993e+000 1.024871e+000
<GCONST> 9.360603e+001
~s "ST_s_2_1"
<MEAN> 25
 -8.366349e+000 7.640775e+000 -7.963257e+000 8.668945e+000 3.029361e+000 -5.909262e+000 1.023369e+001 2.037779e-001 4.182966e+000 -3.408529e+000 2.980193e+000 -1.056088e-001 -3.967599e+000 2.223528e+000 -2.108505e+000 2.066809e+000 -2.244946e-001 -1.084143e+000 2.012464e+000 -2.809294e-001 6.139205e-001 -1.317212e+000 1.858980e+000 -2.557527e-001 8.310050e-001
<VARIANCE> 25
 5.843561e+001 4.208210e+001 5.133036e+001 5.743610e+001 3.641967e+001 3.080088e+001 5.974837e+001 5.863964e+001 4.008522e+001 4.898537e+001 3.646494e+001 2.239945e+001 2.532586e+000 5.690124e+000 3.349785e+000 5.557236e+000 3.422045e+000 3.340195e+000 4.058167e+000 4.863083e+000 3.725309e+000 3.833559e+000 2.841240e+000 2.443007e+000 2.903883e+000
<GCONST> 1.078887e+002
~s "ST_s_3_1"
<MEAN> 25
 -2.385172e+001 1.248761e+001 -1.526779e+001 1.176191e+001 3.293956e+000 -6.688005e+000 1.373278e+001 1.361994e+000 4.372227e+000 -4.668938e+000 6.873819e+000 2.513124e+000 -4.100026e-001 -2.713636e-001 1.504120e-002 -6.833570e-002 -5.150151e-002 4.785180e-004 -1.331394e-001 1.696187e-001 2.515891e-002 -4.624277e-002 -5.207384e-002 2.477898e-001 2.418841e-001
<VARIANCE> 25
 1.980236e+001 2.239756e+001 3.233592e+001 3.838956e+001 4.014315e+001 2.797856e+001 3.501561e+001 5.063558e+001 2.739184e+001 2.272180e+001 2.557938e+001 2.132631e+001 1.797185e+000 1.913577e+000 1.503865e+000 1.416904e+000 1.635173e+000 1.470332e+000 1.714953e+000 1.712305e+000 1.667105e+000 1.774133e+000 1.586756e+000 1.398734e+000 3.928093e-001
<GCONST> 9.129868e+001
~s "ST_s_4_1"
<MEAN> 25
 -1.206897e+001 5.524309e+000 -8.427159e+000 6.605941e+000 1.592686e+000 -5.989223e+000 6.566525e+000 7.055954e-001 5.259676e+000 -4.637954e+000 2.702098e+000 -9.192305e-001 5.675863e+000 -1.955945e+000 3.003918e+000 -2.804764e+000 -5.410299e-001 1.474936e+000 -3.546824e+000 -7.450051e-001 -3.486366e-001 7.162712e-001 -9.385870e-001 -2.301091e+000 1.752566e+000
<VARIANCE> 25
 9.195076e+001 2.162801e+001 5.015787e+001 5.494290e+001 3.256594e+001 3.278723e+001 8.535799e+001 3.616309e+001 3.754935e+001 2.655426e+001 3.375398e+001 3.520693e+001 2.249931e+000 2.489079e+000 5.383633e+000 5.779020e+000 4.276100e+000 3.062248e+000 3.758891e+000 4.479805e+000 3.375278e+000 2.303069e+000 4.261291e+000 3.031591e+000 2.810187e+000
<GCONST> 1.066560e+002
~s "ST_uh_2_1"
<MEAN> 25
 2.860475e+000 4.410949e+000 6.753172e+000 -1.256883e+000 -3.152224e+000 -1.282222e+000 -1.080663e+001 -5.869918e+000 -2.972388e+000 7.883078e-001 8.195536e+000 -2.940407e+000 2.593783e+000 -4.240385e-001 2.009148e+000 -2.655410e+000 -6.992013e-001 2.787125e+000 -3.441033e+000 -8.246200e-001 -2.653396e+000 3.527929e+000 1.338861e+000 -7.364312e-002 8.366359e-001
<VARIANCE> 25
 1.076952e+001 1.684346e+001 2.788897e+001 3.303455e+001 2.261539e+001 4.769327e+001 3.409725e+001 2.313858e+001 4.269768e+001 3.502845e+001 3.611062e+001 1.986422e+001 3.701283e+000 1.588612e+000 3.724746e+000 2.428998e+000 2.364374e+000 3.297472e+000 6.216101e+000 6.230925e+000 3.458866e+000 4.038950e+000 3.066414e+000 1.815444e+000 8.635941e-001
<GCONST> 9.940482e+001
~s "ST_uh_3_1"
<MEAN> 25
 6.232699e+000 3.003174e+000 6.757857e+000 -6.028551e+000 -4.726652e+000 6.913867e+000 -1.281351e+001 -5.824896e+000 -8.752475e+000 4.959372e+000 1.032710e+001 -1.589586e+000 4.060508e-001 -1.830582e-001 -4.134101e-001 -1.331139e-002 -2.980989e-001 1.043701e+000 2.624860e-001 -3.428123e-002 -5.773629e-001 8.795153e-001 -5.602365e-001 4.472702e-001 -2.643338e-001
<VARIANCE> 25
 7.726830e+000 1.407528e+001 2.313102e+001 2.355380e+001 3.406545e+001 2.813241e+001 3.760584e+001 2.273071e+001 5.408946e+001 3.620859e+001 2.566613e+001 2.011140e+001 2.792037e-001 6.040550e-001 8.109332e-001 3.878302e+000 2.612177e+000 2.182890e+000 1.963853e+000 1.853145e+000 2.111269e+000 1.949246e+000 2.976593e+000 1.123860e+000 2.457355e-001
<GCONST> 8.799632e+001
~s "ST_uh_4_1"
<MEAN> 25
 6.505927e+000 5.100648e+000 4.854788e-001 -2.446832e+000 -5.274220e-001 6.336566e+000 -1.032241e+001 -3.319867e+000 -8.117805e+000 5.298374e+000 4.632441e+000 -1.098748e+000 -2.729124e-001 3.624925e-001 -6.495572e-001 1.054284e+000 1.459488e-001 -6.263024e-001 7.098461e-001 -3.238797e-001 7.860456e-001 -3.197781e-001 -6.021629e-001 2.172667e-001 -8.937845e-001
<VARIANCE> 25
 8.198394e+000 2.392342e+001 4.344578e+001 4.895758e+001 3.294855e+001 2.736309e+001 4.750216e+001 3.628252e+001 5.467364e+001 3.481448e+001 3.226863e+001 2.416792e+001 4.294452e-001 1.714841e+000 1.353311e+000 2.561490e+000 1.027897e+000 1.412432e+000 2.757489e+000 1.957684e+000 2.283462e+000 2.351794e+000 2.162628e+000 1.817577e+000 1.326705e+000
<GCONST> 9.368349e+001
~s "ST_l_2_1"
<MEAN> 25
 3.548928e+000 -4.720716e+000 2.014138e+000 -1.011480e+001 2.374264e+000 6.366130e+000 -8.393550e+000 -9.500874e-001 6.003406e+000 1.812436e+000 -2.778761e+000 -2.901369e+000 5.756021e-001 4.471443e-001 1.310853e+000 -2.960266e-001 -5.837396e-001 -2.148409e-001 -2.130924e+000 -6.734346e-001 6.086078e-002 1.346352e+000 8.597321e-001 2.377308e-002 -6.991476e-001
<VARIANCE> 25
 1.338124e+001 5.630025e+001 5.317833e+001 4.133045e+001 4.121634e+001 4.727054e+001 3.872872e+001 3.078300e+001 3.512504e+001 4.422235e+001 4.614924e+001 2.323492e+001 3.544232e-001 9.807581e-001 1.144058e+000 1.506615e+000 4.421224e+000 4.537503e+000 2.060519e+000 3.506313e+000 2.080855e+000 3.402653e+000 6.507590e+000 1.647780e+000 2.729957e-001
<GCONST> 9.674618e+001
~s "ST_l_3_1"
<MEAN> 25
 4.079071e+000 -2.524539e+000 8.055128e+000 -9.733072e+000 1.048770e+000 1.715289e+000 -1.438395e+001 -1.184416e+000 3.165446e+000 4.480744e+000 1.378428e+000 -1.006690e+000 9.295944e-004 1.580383e-001 3.131323e-002 -1.739631e-002 1.951993e-001 -8.937024e-002 -4.452876e-001 2.419537e-001 -1.010821e-001 8.028134e-002 2.059086e-001 -2.186909e-001 -1.484892e-001
<VARIANCE> 25
 1.465433e+001 2.284827e+001 3.422074e+001 3.387268e+001 3.102868e+001 6.060337e+001 3.340470e+001 3.918154e+001 3.940307e+001 5.902064e+001 3.265483e+001 3.045158e+001 2.527106e-001 5.968385e-001 1.092688e+000 9.849832e-001 1.031465e+000 8.546486e-001 1.277790e+000 1.593078e+000 1.240190e+000 2.262465e+000 9.081930e-001 1.067074e+000 2.557775e-001
<GCONST> 8.658951e+001
~s "ST_l_4_1"
<MEAN> 25
 2.601773e+000 -1.010144e+000 2.577863e+000 -5.903824e+000 1.137387e+000 2.680300e+000 -1.022694e+001 1.675581e+000 6.816227e+000 -1.952323e-001 7.677153e-001 -2.020478e+000 -4.975224e-001 -6.496394e-001 -1.616750e+000 3.258987e-001 3.295274e-002 -4.824254e-001 2.713617e+000 1.418945e+000 5.977621e-001 -1.084562e+000 -1.269282e+000 1.134043e-001 6.971898e-001
<VARIANCE> 25
 1.514162e+001 2.833548e+001 6.337821e+001 5.861228e+001 4.687983e+001 4.221698e+001 7.747231e+001 4.055693e+001 4.634280e+001 5.713425e+001 3.450996e+001 3.077590e+001 5.196487e-001 1.653568e+000 2.872117e+000 1.529132e+000 4.730940e+000 2.731556e+000 5.368729e+000 4.213751e+000 2.592402e+000 4.332412e+000 4.577768e+000 3.633456e+000 1.323133e+000
<GCONST> 1.032372e+002
~s "ST_y_2_1"
<MEAN> 25
 1.612871e-001 -3.054650e+000 1.493376e+001 -5.064824e+000 -8.795187e+000 -4.930962e+000 -2.021290e+000 5.009198e+000 -7.410878e+000 2.864832e+000 5.514046e+000 2.743136e+000 -6.231263e-002 -7.687012e-001 2.457948e-001 -9.105664e-001 -6.871349e-001 -7.414931e-001 8.955730e-001 1.134233e+000 -1.486276e-002 4.560386e-001 -2.239276e-002 5.559709e-001 8.758906e-001
<VARIANCE> 25
 1.264916e+001 3.174088e+001 4.440201e+001 1.298327e+001 2.709766e+001 1.774940e+001 2.898688e+001 4.799900e+001 3.758731e+001 5.601363e+001 3.747734e+001 2.596439e+001 5.801827e-001 1.967599e+000 4.330137e+000 1.582345e+000 2.074126e+000 1.177207e+000 3.255184e+000 3.618720e+000 4.495181e+000 1.896290e+000 2.472720e+000 1.432829e+000 1.403311e+000
<GCONST> 9.540829e+001
~s "ST_y_3_1"
<MEAN> 25
 2.218149e-001 -6.844018e+000 1.483037e+001 -8.356447e+000 -9.221262e+000 -7.157991e+000 2.616766e+000 9.937348e+000 -8.834884e+000 5.663419e+000 1.866135e+000 3.634923e+000 7.324380e-002 -1.888699e-001 -1.204254e-001 -1.904752e-001 4.626966e-001 -1.048378e-001 2.046950e-001 3.402390e-001 2.936887e-001 5.060387e-002 -7.990512e-001 1.968708e-001 -9.450828e-003
<VARIANCE> 25
 6.861400e+000 1.064889e+001 2.036686e+001 9.824410e+000 1.800118e+001 1.126651e+001 1.868871e+001 1.685252e+001 2.235119e+001 2.431541e+001 1.574167e+001 1.304902e+001 2.113989e-001 5.085444e-001 1.151703e+000 4.273679e-001 9.137580e-001 5.067754e-001 6.790873e-001 7.506245e-001 1.837220e+000 1.086211e+000 1.713246e+000 5.938581e-001 1.175888e-001
<GCONST> 7.240963e+001
~s "ST_y_4_1"
<MEAN> 25
 2.116411e+000 -7.571958e+000 1.097886e+001 -8.470635e+000 -2.754038e+000 -7.592793e+000 1.308122e+000 9.236642e+000 -3.178234e-001 4.358159e+000 -5.843410e+000 4.215412e+000 2.434686e-001 2.354141e-001 -9.890490e-001 3.803893e-001 8.591127e-001 1.372178e-001 -8.087271e-002 -5.532508e-001 1.076941e+000 -3.106948e-001 -8.360881e-001 6.045404e-002 -6.105310e-001
<VARIANCE> 25
 7.791190e+000 1.240517e+001 2.426918e+001 1.037707e+001 2.547538e+001 1.392880e+001 1.759766e+001 1.741102e+001 3.509709e+001 3.367756e+001 2.204580e+001 9.440339e+000 3.419780e-001 6.469217e-001 1.110007e+000 5.248774e-001 1.276332e+000 8.972617e-001 1.164670e+000 8.018843e-001 1.134101e+000 8.527168e-001 1.455290e+000 5.550974e-001 3.819208e-001
<GCONST> 7.686547e+001
~s "ST_b_2_1"
<MEAN> 25
 5.011396e+000 1.591570e+001 7.417504e-002 1.270658e+001 -3.119015e-001 5.336444e-001 -1.154209e+000 -7.844881e+000 -5.779146e+000 -3.867950e+000 -9.277481e-001 -4.276006e+000 1.310398e+000 -1.856973e-001 8.836706e-001 -5.615919e-001 -1.628207e-001 4.428462e-001 -1.091823e+000 -1.109581e+000 -2.884794e-001 1.144639e+000 3.231990e-001 -9.198889e-001 1.562484e+000
<VARIANCE> 25
 1.837021e+001 6.774857e+001 2.897058e+001 1.213291e+002 2.710575e+001 7.875162e+001 3.079617e+001 2.514256e+001 1.870250e+001 5.201405e+001 3.317308e+001 3.264776e+001 2.110930e+000 5.028129e+000 1.964056e+000 4.821313e+000 2.599900e+000 2.871116e+000 3.457151e+000 3.088559e+000 3.166148e+000 5.157454e+000 4.497951e+000 2.282557e+000 1.641513e+000
<GCONST> 1.040300e+002
~s "ST_b_3_1"
<MEAN> 25
 5.594518e+000 3.990384e+000 2.758233e-001 2.930937e+000 -1.422811e+000 3.182045e+000 -6.096651e+000 -4.721754e+000 -2.840381e+000 3.682140e+000 3.979066e+000 -1.994164e+000 -3.756591e-001 -2.984432e+000 2.065149e+000 -2.776230e+000 -1.177946e+000 -2.537405e-001 -1.458984e+000 1.249719e+000 2.281158e-002 2.456814e+000 4.266438e-001 9.334025e-002 2.814953e+000
<VARIANCE> 25
 1.680846e+001 1.032521e+002 5.619928e+001 2.128383e+002 4.330905e+001 3.838173e+001 4.235581e+001 8.267191e+001 3.671299e+001 4.982059e+001 2.523908e+001 3.697486e+001 1.350895e+000 6.656862e+000 3.219527e+000 8.061551e+000 5.127414e+000 4.698901e+000 5.278137e+000 8.245887e+000 6.107074e+000 5.770764e+000 4.531478e+000 3.662803e+000 4.360936e+000
<GCONST> 1.129747e+002
~s "ST_b_4_1"
<MEAN> 25
 6.204420e+000 1.704603e+000 -3.531073e-001 -4.629466e+000 1.540865e+000 -2.369424e-001 -6.190379e+000 -4.614416e+000 3.849837e+000 9.855901e+000 8.975674e-001 -4.823553e+000 -2.830318e-001 -6.625127e-001 1.083435e+000 5.890967e-002 -3.026594e-001 -9.313424e-001 2.952770e-001 9.205065e-001 7.352779e-001 -4.194517e-003 -9.286194e-001 -1.065823e-001 4.225761e-001
<VARIANCE> 25
 1.225167e+001 1.399358e+002 2.897272e+001 1.953837e+002 5.876079e+001 2.491716e+001 2.922244e+001 5.205617e+001 5.879724e+001 6.131327e+001 3.474067e+001 2.857224e+001 4.060183e-001 1.390875e+000 2.196098e+000 1.816144e+000 1.341813e+000 2.300616e+000 2.032375e+000 1.039186e+000 3.239108e+000 1.294107e+000 2.669803e+000 1.891522e+000 8.947808e-001
<GCONST> 9.736996e+001
~s "ST_o_2_1"
<MEAN> 25
 2.569484e+000 2.369648e+000 -9.133636e+000 -7.779047e+000 7.908629e-001 8.713820e+000 2.585533e+000 -4.485298e-001 -1.728952e+000 3.613215e-001 2.006919e+000 4.883635e+000 6.971353e-001 -9.343679e-003 9.519346e-001 -2.234274e+000 -9.842271e-002 6.468395e-001 -2.715006e-001 -1.051868e-001 -3.520101e-001 5.112219e-001 -1.698285e-001 5.489234e-001 1.286121e+000
<VARIANCE> 25
 2.186669e+001 1.900799e+001 2.586962e+001 1.671729e+002 1.896098e+001 4.076747e+001 2.085522e+001 1.475399e+001 1.373443e+001 1.599865e+001 2.350730e+001 1.826634e+001 1.607973e+000 1.064245e+000 1.832215e+000 6.217455e+000 1.242238e+000 2.156855e+000 1.924623e+000 1.151298e+000 1.628210e+000 1.269172e+000 2.025555e+000 1.768988e+000 2.122928e+000
<GCONST> 9.168922e+001
~s "ST_o_3_1"
<MEAN> 25
 8.731275e+000 1.117233e+001 -3.165290e+000 -7.735534e+000 -2.086536e-001 9.678013e+000 1.130120e+000 -3.031002e+000 -5.894985e+000 -2.367989e+000 -1.199778e+000 5.542554e+000 2.153662e-001 1.168488e+000 -6.684533e-003 2.095135e+000 7.389694e-002 -3.991808e-001 8.680137e-002 -3.225496e-001 -9.915951e-002 -6.326396e-001 -2.331005e-001 -3.184194e-001 -7.988074e-001
<VARIANCE> 25
 6.182264e+000 3.677800e+001 1.397751e+001 1.460600e+002 1.516332e+001 2.621251e+001 1.425795e+001 1.448042e+001 1.006335e+001 2.233588e+001 2.503362e+001 2.001982e+001 4.116013e-001 1.035819e+000 1.745300e+000 5.081265e+000 1.608515e+000 1.117230e+000 2.060207e+000 9.593047e-001 6.623296e-001 2.016245e+000 2.625071e+000 1.606502e+000 1.180996e+000
<GCONST> 8.643442e+001
~s "ST_o_4_1"
<MEAN> 25
 7.498506e+000 7.711895e+000 -3.908994e+000 -2.337946e+000 3.876274e-001 7.150379e+000 3.392090e+000 -6.592586e+000 -3.837410e+000 -2.144243e+000 1.253754e+000 3.300285e+000 -2.293836e-001 -2.737656e+000 -4.148801e-001 -1.754586e+000 7.638417e-001 -9.064103e-001 -1.270276e+000 -3.614745e-001 9.713838e-001 2.272557e+000 2.492451e+000 -3.883110e-001 2.538884e+000
<VARIANCE> 25
 1.730026e+001 1.004742e+002 2.535690e+001 2.020580e+002 2.876790e+001 3.408022e+001 3.103908e+001 1.017248e+001 2.830062e+001 7.349422e+001 5.925113e+001 2.242460e+001 1.948613e+000 5.147979e+000 3.272899e+000 2.203352e+001 3.430493e+000 3.770854e+000 5.984878e+000 2.323789e+000 1.166605e+000 9.456030e+000 5.139189e+000 3.204157e+000 4.272141e+000
<GCONST> 1.078547e+002
~s "ST_r_2_1"
<MEAN> 25
 -5.516233e-001 -4.048975e+000 -9.327740e+000 -1.086971e-001 3.574929e+000 3.683450e+000 -2.133307e+000 1.642027e-001 9.558414e+000 -2.051330e+000 -2.151537e+000 1.193447e-002 9.782139e-001 -3.525773e-001 3.269331e-001 6.970627e-001 -9.224204e-001 1.436817e+000 -1.004142e+000 -6.741186e-001 5.492951e-001 -4.757224e-001 8.163356e-001 -6.075023e-001 1.831410e-001
<VARIANCE> 25
 2.669040e+001 3.276034e+001 7.165354e+001 6.168540e+001 8.307997e+001 3.807855e+001 5.845662e+001 4.110921e+001 3.185630e+001 3.432636e+001 3.732626e+001 7.332346e+001 2.027236e+000 2.841327e+000 3.341640e+000 6.200945e+000 3.934017e+000 2.586029e+000 3.929466e+000 3.510622e+000 2.917539e+000 4.709904e+000 4.089059e+000 5.699811e+000 4.477103e+000
<GCONST> 1.088644e+002
~s "ST_r_3_1"
<MEAN> 25
 6.629671e+000 -6.841585e+000 -2.835050e+000 5.656766e-001 -5.577763e+000 7.277332e+000 -1.034409e+001 -2.210723e+000 1.105818e+001 -4.033428e+000 5.133552e+000 -1.599989e+000 6.473866e-001 -1.161242e+000 9.988816e-001 -3.634488e-001 -8.066393e-001 6.705863e-001 -1.330477e+000 1.267721e+000 -7.843404e-001 3.274133e-001 8.476170e-001 -3.469734e-001 3.123083e-001
<VARIANCE> 25
 9.903356e+000 1.755625e+001 4.371827e+001 2.558321e+001 2.126774e+001 2.445169e+001 2.371842e+001 4.695663e+001 6.728316e+001 2.142355e+001 1.949759e+001 3.854926e+001 6.684399e-001 1.889070e+000 1.534431e+000 4.627223e+000 1.474439e+000 1.626341e+000 2.461597e+000 5.784813e+000 1.646914e+000 2.137595e+000 3.846912e+000 2.368122e+000 1.637542e+000
<GCONST> 9.497511e+001
~s "ST_r_4_1"
<MEAN> 25
 7.012818e+000 -1.291582e+001 1.951401e+000 -6.523695e+000 -2.452479e+000 8.766723e+000 -1.190248e+001 9.013978e+000 4.073505e+000 1.440479e-002 8.870673e-001 -5.594076e+000 -5.140216e-001 -1.411111e-001 5.484570e-001 -1.156072e+000 1.088034e+000 -3.787982e-001 5.826233e-001 1.011217e+000 -1.285764e+000 6.488521e-001 -1.509563e+000 -2.810773e-002 4.602968e-001
<VARIANCE> 25
 7.799143e+000 2.326749e+001 3.567518e+001 1.862729e+001 3.656739e+001 4.858763e+001 2.716815e+001 6.146473e+001 3.185592e+001 1.923439e+001 4.041623e+001 2.383858e+001 5.949448e-001 1.578900e+000 1.435638e+000 1.445174e+000 1.842528e+000 1.903119e+000 3.535163e+000 4.235633e+000 1.716237e+000 1.757395e+000 2.466519e+000 2.039877e+000 6.348492e-001
<GCONST> 9.273208e+001
~s "ST_h_2_1"
<MEAN> 25
 -5.277150e+000 -4.500165e+000 -1.486084e+001 5.638353e+000 8.063676e+000 6.556000e+000 3.253203e+000 -4.108297e+000 1.937057e+000 -7.213083e+000 5.410785e+000 3.919952e+000 -1.662305e-001 -9.846894e-001 1.894388e-002 -1.477803e-001 7.974615e-001 3.759697e-001 2.076176e-001 -7.634651e-001 2.183906e-001 -3.446416e-001 -1.932952e-001 5.113097e-001 6.138173e-001
<VARIANCE> 25
 1.333729e+001 4.286175e+001 3.656455e+001 5.281953e+001 3.092642e+001 2.908350e+001 4.526521e+001 4.191001e+001 3.507119e+001 2.862365e+001 2.469127e+001 3.289269e+001 5.591458e-001 1.348272e+000 2.537975e+000 1.733130e+000 2.014330e+000 1.676318e+000 3.539206e+000 2.641172e+000 2.225906e+000 1.956113e+000 2.285802e+000 2.004165e+000 5.823680e-001
<GCONST> 9.492579e+001
~s "ST_h_3_1"
<MEAN> 25
 -1.383042e-002 -7.645235e+000 -6.134576e+000 -2.235298e-001 1.370528e+001 9.557445e+000 7.072250e+000 -7.712702e+000 2.955771e+000 -6.056671e+000 -1.632439e+000 4.105276e+000 2.010810e+000 -1.171339e-001 1.697914e+000 -2.155077e+000 -1.188160e-001 1.651904e-001 -3.297909e-001 4.227374e-001 -1.468071e+000 1.311538e+000 -9.951814e-001 -1.237953e+000 3.000304e+000
<VARIANCE> 25
 3.151605e+001 2.397738e+001 2.395438e+001 7.468756e+001 3.368791e+001 2.745581e+001 1.736146e+001 2.127539e+001 3.203125e+001 2.899669e+001 1.997628e+001 3.036205e+001 2.487048e+000 3.213797e+000 1.779512e+000 4.461665e+000 1.667575e+000 1.624222e+000 2.052947e+000 1.689238e+000 1.889796e+000 1.767355e+000 1.632404e+000 1.709846e+000 2.315946e+000
<GCONST> 9.550974e+001
~s "ST_h_4_1"
<MEAN> 25
 3.626785e+000 -1.034775e+001 -3.742680e+000 -9.928619e+000 1.145315e+001 9.479996e+000 8.652851e+000 -8.725684e+000 1.653334e+000 -1.474830e+000 -1.351831e+000 -1.391008e+000 -3.899825e-002 -1.082276e-002 -5.370240e-002 -3.531550e-002 -9.141207e-002 -1.772150e-001 -9.666017e-002 1.906193e-001 1.541589e-001 7.891180e-002 -2.611937e-001 -1.928069e-001 -7.477153e-003
<VARIANCE> 25
 2.796541e+000 9.933494e+000 7.067367e+000 2.696896e+001 1.337213e+001 1.857751e+001 2.858386e+001 1.978658e+001 2.030748e+001 1.211678e+001 1.511027e+001 3.890762e+001 1.620104e-001 7.632608e-001 4.786730e-001 1.620376e+000 5.020487e-001 4.489579e-001 7.670141e-001 8.098508e-001 9.236549e-001 6.957589e-001 6.033923e-001 1.704697e+000 6.490329e-001
<GCONST> 7.309991e+001
~s "ST_k_2_1"
<MEAN> 25
 -4.959167e+000 -3.899170e-001 -6.461295e+000 5.179992e+000 -1.201517e+000 -3.532652e+000 -1.336008e+000 6.673862e-001 -2.798120e+000 5.769342e-001 3.968967e+000 -2.548501e+000 5.580592e-001 -1.740468e+000 4.294820e-001 -1.658628e+000 1.185138e+000 1.687002e-001 -1.037937e+000 6.801615e-001 -4.545217e-001 8.853641e-001 -5.721976e-001 -3.146498e-001 3.090896e+000
<VARIANCE> 25
 2.461577e+001 4.771470e+001 9.539743e+001 3.442144e+001 8.109349e+001 6.366499e+001 5.213693e+001 3.476971e+001 4.400007e+001 4.999624e+001 3.389735e+001 2.419722e+001 4.644338e+000 4.512160e+000 1.871172e+001 5.626012e+000 8.599335e+000 3.819736e+000 6.533134e+000 4.523728e+000 6.907747e+000 6.423035e+000 3.081845e+000 2.739513e+000 3.525024e+000
<GCONST> 1.133326e+002
~s "ST_k_3_1"
<MEAN> 25
 1.941954e+000 -7.725505e+000 3.534235e+000 -8.354869e+000 6.051993e-001 -4.941111e+000 -3.733537e+000 7.574450e+000 -3.385042e+000 6.226418e+000 -1.286561e+000 -1.714136e+000 6.793218e-001 -1.266939e+000 9.367449e-001 -2.133818e+000 6.339638e-001 -1.243869e-002 6.803364e-001 4.856729e-001 4.405029e-001 2.208154e-001 -8.609040e-001 4.121905e-001 1.344774e+000
<VARIANCE> 25
 1.355016e+001 1.408187e+001 6.118251e+001 2.252616e+001 2.114231e+001 5.970566e+001 3.285667e+001 2.411742e+001 3.353350e+001 3.651628e+001 1.973513e+001 1.855989e+001 1.512781e+000 2.583971e+000 4.631441e+000 3.667258e+000 1.406104e+000 7.627463e-001 2.855386e+000 1.960811e+000 1.511715e+000 4.065900e+000 1.324304e+000 8.478974e-001 3.145645e+000
<GCONST> 9.432219e+001
~s "ST_k_4_1"
<MEAN> 25
 3.726456e-001 -4.380931e+000 4.363191e+000 -6.169175e+000 -9.351881e-001 -3.913269e+000 -2.183738e-001 3.869365e+000 -1.997758e+000 3.685963e+000 -1.387079e+000 -1.666811e+000 1.837536e-002 3.108964e-001 1.576833e-001 -6.897079e-002 3.137949e-001 -1.671802e-002 2.337467e-001 -4.334711e-002 5.371324e-001 -2.459254e-001 -3.112805e-001 -6.279393e-002 -9.318475e-002
<VARIANCE> 25
 3.210717e+001 4.886226e+001 8.329501e+001 5.938047e+001 5.872844e+001 4.665662e+001 3.106677e+001 5.666775e+001 4.979824e+001 3.088135e+001 3.599818e+001 2.654033e+001 9.337038e-001 3.819024e+000 3.549735e+000 3.372097e+000 1.609144e+000 1.128091e+000 1.878863e+000 1.991617e+000 1.901277e+000 2.544040e+000 2.191226e+000 1.347623e+000 2.508397e+000
<GCONST> 1.006491e+002
~s "ST_n_2_1"
<MEAN> 25
 5.516941e+000 -3.191834e-001 3.678257e+000 2.188194e+000 -2.658487e-001 1.571806e-001 -5.553993e+000 -5.597268e+000 -2.341779e-001 3.421971e+000 -4.514424e-001 1.092180e-002 2.735216e-001 1.261479e+000 7.973153e-001 1.872400e+000 -1.242466e-002 -1.453830e+000 -5.346330e-001 -2.246255e+000 8.897952e-002 1.493587e+000 -2.150130e-001 1.021185e-001 -9.540436e-001
<VARIANCE> 25
 6.971056e+000 3.837829e+001 4.221645e+001 3.411122e+001 4.105756e+001 4.267661e+001 4.054477e+001 6.446200e+001 4.141858e+001 4.065371e+001 2.642187e+001 2.774552e+001 4.815161e-001 1.961942e+000 2.135192e+000 2.895977e+000 2.769017e+000 2.388763e+000 2.206674e+000 3.984300e+000 1.983540e+000 2.629347e+000 2.779496e+000 1.871992e+000 1.269527e+000
<GCONST> 9.753947e+001
~s "ST_n_3_1"
<MEAN> 25
 5.379738e+000 2.299515e+000 7.692345e+000 4.946511e+000 -1.846818e+000 -3.383749e+000 -6.869931e+000 -8.131209e+000 -1.304285e+000 8.372116e+000 -2.353410e+000 -8.636811e-002 -9.027118e-003 9.020089e-002 -3.296889e-003 2.131082e-001 5.669944e-002 -1.692934e-001 7.169443e-002 -8.985316e-002 1.025269e-001 2.259654e-001 -3.979746e-001 -2.817482e-002 -2.844198e-001
<VARIANCE> 25
 4.767314e+000 1.956329e+001 2.292760e+001 1.690806e+001 3.501133e+001 2.819659e+001 4.288136e+001 2.636735e+001 4.828720e+001 3.553512e+001 2.648471e+001 2.253538e+001 1.885101e-001 6.393009e-001 9.242561e-001 5.813345e-001 7.130774e-001 9.282618e-001 1.303247e+000 9.910020e-001 1.087883e+000 1.490645e+000 1.018612e+000 7.792436e-001 5.816547e-001
<GCONST> 8.102389e+001
~s "ST_n_4_1"
<MEAN> 25
 4.181577e+000 5.209507e+000 1.902659e+000 8.220352e+000 -3.619569e+000 2.374833e-001 -3.342659e+000 -6.904588e+000 8.330929e-001 3.354383e+000 -3.786064e+000 6.153354e-001 -3.019748e-001 2.247452e-001 -7.587629e-001 -2.796781e-002 4.657714e-002 5.511286e-001 1.704215e-002 5.925078e-001 1.984870e-001 -1.313138e+000 1.695024e-001 4.228626e-002 -4.863549e-001
<VARIANCE> 25
 8.383019e+000 3.235632e+001 3.793806e+001 2.829069e+001 3.792055e+001 4.779409e+001 3.528174e+001 3.683789e+001 3.254760e+001 4.813298e+001 2.992814e+001 2.284966e+001 3.650088e-001 2.783816e+000 1.579119e+000 2.545987e+000 1.952570e+000 2.952137e+000 2.301481e+000 4.515008e+000 2.121459e+000 4.079751e+000 2.601204e+000 2.083841e+000 1.561549e+000
<GCONST> 9.687914e+001
~s "ST_n_4_2"
<MEAN> 25
 4.455110e+000 -8.559967e-001 3.447243e+000 3.268713e+000 4.415082e-001 -3.513473e-001 -8.260316e+000 -5.379410e+000 1.445997e+000 3.275549e+000 -4.328796e-001 -1.363707e+000 -3.384680e-001 -2.101147e+000 -1.162699e+000 -1.990492e+000 9.432450e-002 1.502115e+000 2.888629e-001 4.033298e+000 6.497950e-001 -3.273532e+000 4.362454e-002 -5.673009e-001 1.576970e+000
<VARIANCE> 25
 7.168410e+000 2.461578e+001 3.142996e+001 2.661087e+001 2.607592e+001 4.176614e+001 2.865582e+001 5.923626e+001 3.573323e+001 6.801656e+001 2.350751e+001 2.779233e+001 2.985705e-001 1.374585e+000 1.299124e+000 2.950346e+000 2.870275e+000 2.585836e+000 2.263942e+000 4.126715e+000 3.049766e+000 2.554200e+000 2.154002e+000 2.954184e+000 6.152960e-001
<GCONST> 9.466674e+001
~s "ST_d_2_1"
<MEAN> 25
 2.113821e-001 7.701108e+000 -5.027089e+000 1.136634e+001 1.570663e+000 -1.807197e+000 9.461935e-001 -3.523565e+000 5.862748e+000 1.903134e-002 -2.398334e+000 2.041131e+000 -2.613600e-001 3.154804e-001 1.842396e-001 7.801213e-001 1.412357e-001 -1.311431e-001 3.219141e-001 5.531281e-002 7.088052e-002 -5.812749e-001 1.607527e-002 -2.228690e-002 -1.890782e-001
<VARIANCE> 25
 3.364888e+001 2.500098e+001 3.365816e+001 2.224401e+001 6.400491e+001 2.554457e+001 4.727088e+001 4.458046e+001 4.942498e+001 3.128243e+001 5.931963e+001 3.059922e+001 9.367433e-001 1.915755e+000 2.294056e+000 1.640946e+000 2.615407e+000 1.895214e+000 2.836576e+000 3.071348e+000 3.612088e+000 4.510064e+000 4.037895e+000 2.531086e+000 5.056941e-001
<GCONST> 9.930912e+001
~s "ST_d_3_1"
<MEAN> 25
 5.002295e+000 1.420409e+001 2.866787e+000 1.542933e+001 -2.265856e+000 -1.826529e+000 8.730823e-002 -6.219973e+000 -1.384467e+000 -3.126203e+000 -5.063711e+000 -4.270478e+000 2.335884e-001 -4.331837e-001 4.927443e-001 -5.379796e-001 -1.474634e-001 -6.574166e-001 -2.878058e-001 1.177896e-001 8.429934e-003 -1.144456e+000 1.076811e+000 -3.923911e-001 2.149237e+000
<VARIANCE> 25
 2.387306e+001 3.458801e+001 2.485818e+001 2.480559e+001 4.579634e+001 3.361364e+001 3.231337e+001 4.130283e+001 2.862658e+001 4.245842e+001 2.956294e+001 2.441091e+001 6.363270e+000 5.173219e+000 3.118848e+000 2.850717e+000 5.291797e+000 4.865786e+000 3.421717e+000 6.354667e+000 5.075664e+000 5.707359e+000 8.662957e+000 4.521588e+000 2.412806e+000
<GCONST> 1.072291e+002
~s "ST_d_4_1"
<MEAN> 25
 8.155375e-001 3.913315e+000 2.400703e+000 5.897269e+000 -2.423066e+000 -7.643240e+000 -1.780015e+000 -3.414757e+000 4.152760e+000 -6.937422e+000 4.903228e+000 1.723609e-001 -8.436453e-001 -3.401955e+000 1.466654e+000 -4.039433e+000 -1.429968e+000 -2.509942e+000 -1.314344e-001 2.482738e+000 4.893761e-001 1.156008e+000 1.641196e+000 1.414819e+000 3.673411e+000
<VARIANCE> 25
 1.782505e+001 4.020146e+001 3.129087e+001 5.743452e+001 4.016173e+001 3.896489e+001 6.516383e+001 6.384561e+001 4.103469e+001 4.445594e+001 3.377693e+001 3.141898e+001 1.686555e+000 2.060443e+000 2.851949e+000 2.615609e+000 3.875631e+000 4.302717e+000 7.560615e+000 6.709367e+000 6.183913e+000 3.975951e+000 8.602115e+000 3.150842e+000 2.409857e+000
<GCONST> 1.075574e+002
~s "ST_th_2_1"
<MEAN> 25
 1.099220e+000 3.819705e+000 -9.141418e+000 2.215019e+000 2.431773e+000 2.586768e+000 -1.750788e+000 2.159623e+000 4.073466e+000 -1.913422e+000 -4.875821e-001 -4.897393e+000 -4.186773e-001 5.153093e-001 -9.322265e-001 8.068301e-001 -5.492052e-001 2.337404e-001 3.395370e-001 1.171624e-001 -1.958969e-001 -6.893771e-001 2.110681e-001 4.939371e-002 -1.373734e+000
<VARIANCE> 25
 1.656455e+001 1.770353e+001 4.546068e+001 4.897088e+001 3.748096e+001 2.958286e+001 3.913546e+001 4.460106e+001 3.409735e+001 3.802163e+001 2.998584e+001 3.185654e+001 7.666869e-001 1.685647e+000 1.981346e+000 3.346416e+000 1.886496e+000 2.748675e+000 3.681523e+000 2.962624e+000 1.937525e+000 2.654463e+000 2.390277e+000 1.568070e+000 1.748532e+000
<GCONST> 9.754225e+001
~s "ST_th_3_1"
<MEAN> 25
 -6.300970e+000 4.726830e+000 -9.999248e+000 7.520205e+000 -2.119726e+000 -2.627581e+000 3.897738e+000 -9.647328e-001 3.213460e+000 -6.623605e+000 3.482724e+000 -1.611967e+000 -1.746386e+000 -4.454902e-001 1.695182e-001 7.189600e-001 -9.624103e-001 -1.476273e+000 1.193748e+000 -1.235552e+000 3.726711e-001 -1.308303e+000 9.539363e-001 4.358990e-001 2.133394e+000
<VARIANCE> 25
 3.597428e+001 2.810200e+001 4.473731e+001 4.093766e+001 3.435050e+001 4.329915e+001 4.259432e+001 3.404017e+001 2.868795e+001 3.363679e+001 2.887208e+001 3.237522e+001 2.740396e+000 2.325381e+000 3.292091e+000 3.814105e+000 3.438495e+000 4.155313e+000 3.532195e+000 3.255959e+000 3.651325e+000 3.698052e+000 3.383901e+000 2.983263e+000 6.427982e+000
<GCONST> 1.049345e+002
~s "ST_th_4_1"
<MEAN> 25
 -4.907901e+000 2.146216e-001 -5.355349e+000 1.280980e+000 -3.086725e+000 -5.527636e+000 4.425274e-001 -2.115531e+000 5.581078e+000 -7.229495e+000 2.182152e+000 -3.562196e+000 2.827497e+000 -1.962731e+000 3.338237e+000 -4.397276e+000 1.802938e+000 1.793077e-001 -2.836069e+000 1.553822e+000 2.112029e-001 2.489372e+000 -2.180059e+000 -5.056419e-001 3.460501e+000
<VARIANCE> 25
 4.130378e+001 2.694142e+001 4.236240e+001 9.205858e+001 3.510789e+001 2.415602e+001 6.478072e+001 2.863774e+001 2.033227e+001 4.127921e+001 3.188870e+001 2.400859e+001 2.050156e+000 3.037640e+000 4.932644e+000 5.914411e+000 5.795266e+000 3.372304e+000 3.358251e+000 4.325231e+000 4.989744e+000 3.499450e+000 5.086569e+000 2.248967e+000 3.920572e+000
<GCONST> 1.063862e+002
~s "ST_g_2_1"
<MEAN> 25
 1.361073e+000 1.061042e+001 2.123071e-001 1.015279e+001 -4.783074e+000 -2.173845e+000 3.681764e+000 -6.499318e+000 -2.373772e+000 3.249231e+000 3.959154e+000 -6.976326e+000 3.392807e-001 1.406482e-001 -2.551742e-001 7.162200e-001 -4.659546e-001 -1.346560e-001 5.852160e-001 -1.055264e+000 -3.105228e-001 4.277528e-001 3.336098e-001 -3.517811e-001 1.618039e-002
<VARIANCE> 25
 2.673772e+001 1.910113e+001 3.404006e+001 2.186890e+001 3.612777e+001 1.917446e+001 3.305105e+001 6.471059e+001 2.223125e+001 3.059273e+001 1.885014e+001 1.114357e+001 7.010476e-001 8.680562e-001 1.054627e+000 9.446825e-001 2.273724e+000 1.042920e+000 1.808665e+000 2.805760e+000 2.711460e+000 1.993713e+000 1.894419e+000 1.911788e+000 4.372122e-001
<GCONST> 8.900803e+001
~s "ST_g_3_1"
<MEAN> 25
 6.449180e-001 7.170005e+000 -6.660293e+000 1.159595e+001 -4.045985e+000 2.153172e+000 5.814623e+000 -9.812648e+000 3.811943e+000 2.574636e+000 -1.426926e+000 -3.416100e+000 6.070469e-002 -3.670670e-001 2.338929e-002 -2.808261e-001 -2.919739e-001 -2.061563e-001 1.457687e-001 -1.702530e-001 -1.609119e-001 5.294402e-004 1.163644e-001 -3.181671e-001 4.782860e-001
<VARIANCE> 25
 2.706114e+001 6.184974e+001 3.837716e+001 3.786174e+001 2.461107e+001 3.931596e+001 3.267965e+001 1.876159e+001 5.174411e+001 3.189677e+001 3.206498e+001 2.774028e+001 1.528885e+000 2.971347e+000 3.661589e+000 1.813751e+000 3.121785e+000 2.933365e+000 3.431768e+000 2.764128e+000 3.610695e+000 2.685717e+000 3.059603e+000 2.436228e+000 1.305389e+000
<GCONST> 1.005623e+002
~s "ST_g_4_1"
<MEAN> 25
 8.710554e-001 4.721034e+000 2.234570e+000 8.847153e+000 -4.552469e+000 -2.532792e+000 2.121487e+000 -1.950075e+000 -5.479231e+000 1.166528e+000 6.385926e+000 -7.447326e+000 -7.601855e-001 -1.958580e+000 2.105118e+000 -2.008470e+000 -3.735760e-002 3.123300e-001 -1.269294e+000 1.976513e+000 -2.990155e-001 -3.003339e-001 1.844292e-001 7.268972e-001 2.478823e+000
<VARIANCE> 25
 3.508628e+001 3.647049e+001 7.455661e+001 4.383329e+001 4.395660e+001 2.800256e+001 5.661794e+001 6.010823e+001 7.995963e+001 4.055153e+001 2.340893e+001 4.185742e+001 4.144841e+000 3.409367e+000 6.940681e+000 6.834664e+000 4.338408e+000 4.069820e+000 8.976069e+000 6.668755e+000 7.814137e+000 5.337830e+000 4.011728e+000 5.035999e+000 2.713876e+000
<GCONST> 1.126185e+002
~s "ST_t_2_1"
<MEAN> 25
 -7.646941e-001 -2.612103e+000 -4.831411e+000 5.087159e+000 -4.031784e+000 -1.069353e+000 -2.061052e+000 5.483409e+000 2.970676e+000 -4.815879e+000 2.944483e+000 -5.041027e+000 1.452837e-001 -1.043326e+000 1.692549e+000 -1.347643e+000 4.785091e-002 -7.990039e-001 -7.544238e-001 1.140778e+000 -1.547612e-001 5.269192e-001 -2.048402e-001 6.325681e-002 1.916941e+000
<VARIANCE> 25
 2.429618e+001 4.142018e+001 6.999995e+001 6.806911e+001 2.950753e+001 5.819455e+001 4.240054e+001 6.294433e+001 3.733184e+001 4.338097e+001 3.968903e+001 2.073616e+001 3.079791e+000 5.281329e+000 6.743905e+000 7.821846e+000 3.663231e+000 5.088777e+000 4.421009e+000 5.141076e+000 3.579961e+000 6.400112e+000 5.278741e+000 2.161897e+000 1.244358e+001
<GCONST> 1.116619e+002
~s "ST_t_3_1"
<MEAN> 25
 2.698015e+000 -9.329754e+000 6.413257e+000 -7.850565e+000 -4.908362e-001 -8.200117e+000 -2.025120e+000 1.152467e+001 2.914437e+000 4.136909e+000 -4.792649e+000 -3.551985e-001 -3.140342e-002 4.980840e-001 -3.755924e-001 3.581537e-001 1.643697e-001 -2.734195e-001 5.979812e-001 -1.316164e-001 2.708932e-001 2.220763e-001 -3.495784e-001 3.036332e-001 -8.222664e-001
<VARIANCE> 25
 3.622368e+000 9.917605e+000 2.170667e+001 1.760798e+001 1.200737e+001 2.177158e+001 1.556560e+001 1.796099e+001 1.622175e+001 9.017842e+000 1.550032e+001 1.300867e+001 2.181234e-001 8.758836e-001 8.088571e-001 9.513691e-001 6.815107e-001 9.650330e-001 1.052620e+000 9.370929e-001 8.583714e-001 1.206010e+000 1.087782e+000 8.550076e-001 8.241356e-001
<GCONST> 7.438451e+001
~s "ST_t_4_1"
<MEAN> 25
 -9.476402e-001 6.487867e-001 -5.315272e+000 2.258246e+000 -2.678889e+000 -5.995354e+000 6.855481e-001 7.774916e+000 7.099356e+000 -6.492671e-001 -1.699419e+000 -1.195313e+000 -5.134194e-001 6.083995e-001 -7.816331e-001 5.172800e-001 6.136790e-002 9.710296e-001 2.214222e-001 -2.925113e-001 -2.116309e-001 -1.063071e+000 4.099961e-001 1.830127e-001 -1.051073e+000
<VARIANCE> 25
 2.472565e+001 2.823305e+001 4.638893e+001 2.194441e+001 2.753753e+001 5.873399e+001 2.867755e+001 3.440767e+001 2.275026e+001 3.072802e+001 2.738471e+001 1.978249e+001 9.479779e-001 2.603919e+000 3.250794e+000 1.975375e+000 3.559155e+000 3.623649e+000 1.863782e+000 2.851003e+000 2.551928e+000 3.389307e+000 2.011164e+000 2.522000e+000 2.097369e+000
<GCONST> 9.806079e+001
~s "ST_ao_2_1"
<MEAN> 25
 4.311891e+000 5.912443e-001 1.828329e+000 -4.683448e+000 -2.707367e+000 8.596163e+000 -4.991919e+000 -6.057263e+000 5.343673e+000 7.221997e-001 1.572280e+000 1.380244e+000 9.446248e-001 -9.110435e-001 1.427675e+000 -1.922139e+000 -3.782984e-001 3.736453e-001 -1.080420e+000 -7.401515e-001 -5.061551e-001 2.087698e+000 7.670316e-001 -8.557484e-002 1.174873e+000
<VARIANCE> 25
 3.450211e+001 3.737177e+001 3.463702e+001 7.913729e+001 2.847813e+001 4.097978e+001 1.033848e+002 3.599014e+001 1.244346e+002 5.845198e+001 9.436481e+001 3.163353e+001 2.656832e+000 3.417417e+000 2.859194e+000 1.099082e+001 2.441774e+000 3.437390e+000 3.311754e+000 5.611579e+000 5.750815e+000 2.429179e+000 7.063739e+000 3.075529e+000 4.293655e+000
<GCONST> 1.110781e+002
~s "ST_ao_3_1"
<MEAN> 25
 7.004350e+000 -1.247868e+000 3.481898e+000 -7.895345e+000 2.987794e-001 4.806179e+000 -6.745108e+000 -9.661963e+000 4.114821e+000 3.932524e+000 3.937344e+000 1.547445e-001 2.283307e-001 1.360733e-001 -1.101959e+000 -1.924173e-001 1.279151e+000 -9.050843e-001 5.455517e-001 -1.649711e-002 2.691627e-001 7.227001e-001 -4.074171e-001 1.055300e-001 7.686204e-002
<VARIANCE> 25
 1.203311e+001 2.016003e+001 5.593007e+001 2.976988e+001 3.959936e+001 4.095847e+001 6.412328e+001 7.324614e+001 8.691473e+001 2.664762e+001 7.318427e+001 4.204903e+001 3.782653e-001 3.022489e+000 2.453660e+000 6.096798e+000 6.679337e+000 2.907716e+000 3.576718e+000 4.163875e+000 3.360987e+000 1.667717e+000 2.370190e+000 1.058982e+000 1.762461e+000
<GCONST> 1.021986e+002
~s "ST_ao_4_1"
<MEAN> 25
 6.994739e+000 1.485502e+000 -1.518587e+000 -1.180299e+001 3.787830e+000 4.121573e+000 -4.880420e+000 -3.391758e+000 -7.986711e-001 8.835134e+000 2.575755e+000 4.079859e-001 3.222242e-002 4.890357e-001 -2.984273e-001 6.209760e-001 -7.995107e-002 -6.596812e-002 1.677766e-001 1.039010e-001 -1.822535e-001 -2.256908e-001 -5.395633e-002 1.217295e-002 -6.586122e-001
<VARIANCE> 25
 4.026027e+000 2.270673e+001 1.990301e+001 7.290666e+001 1.339436e+001 2.056221e+001 1.018285e+002 4.373916e+001 5.650873e+001 2.625691e+001 3.099021e+001 2.622204e+001 2.876529e-001 8.152360e-001 1.150389e+000 3.299748e+000 9.606685e-001 1.749205e+000 1.674269e+000 1.692436e+000 2.222424e+000 1.056225e+000 1.509223e+000 1.581399e+000 9.440531e-001
<GCONST> 8.887472e+001
~s "ST_sil_2_1"
<MEAN> 25
 -4.307302e+000 6.143117e+000 -7.222383e+000 1.090724e+001 3.159708e+000 9.908718e-001 4.790522e+000 1.628674e+000 4.206846e+000 -4.882704e+000 8.447229e-001 3.286199e+000 -3.926735e-002 4.760644e-002 -2.173042e-001 3.050178e-001 -4.203087e-002 5.808815e-002 4.061243e-002 -2.221557e-001 -5.473408e-002 -5.363740e-003 2.653470e-001 -3.282270e-001 1.458542e-001
<VARIANCE> 25
 3.692262e+001 6.390646e+001 6.702222e+001 6.361887e+001 7.650863e+001 5.777801e+001 3.572210e+001 4.951510e+001 3.552132e+001 3.511740e+001 3.682082e+001 3.287411e+001 2.460794e+000 2.296206e+000 1.634261e+000 3.219526e+000 1.612187e+000 2.889552e+000 3.037031e+000 2.921611e+000 2.971944e+000 2.611013e+000 2.914322e+000 2.154688e+000 2.352270e+000
<GCONST> 1.040262e+002
~s "silst"
<MEAN> 25
 -5.126966e+000 4.036370e+000 -6.902500e+000 9.076871e+000 1.720123e+000 1.111753e+000 3.757615e+000 -2.807600e+000 2.710023e+000 -4.808589e+000 2.386262e-001 2.217424e+000 4.446031e-001 -2.255532e-001 5.223809e-001 -3.998624e-001 2.711345e-001 1.874695e-001 -2.049163e-001 -4.004416e-001 -3.395057e-001 1.283240e-001 -8.070809e-002 -2.079615e-001 8.780838e-001
<VARIANCE> 25
 3.148767e+001 3.841448e+001 5.658967e+001 4.543395e+001 5.293119e+001 6.119053e+001 5.385035e+001 4.626309e+001 5.085838e+001 3.734594e+001 3.564475e+001 3.435407e+001 3.186825e+000 4.144522e+000 4.536895e+000 5.367098e+000 4.341578e+000 4.443301e+000 4.326615e+000 3.862032e+000 4.425530e+000 3.459000e+000 3.035843e+000 3.173010e+000 4.464584e+000
<GCONST> 1.094988e+002
~s "ST_sil_3_1"
<MEAN> 25
 -5.126966e+000 4.036370e+000 -6.902500e+000 9.076871e+000 1.720123e+000 1.111753e+000 3.757615e+000 -2.807600e+000 2.710023e+000 -4.808589e+000 2.386262e-001 2.217424e+000 4.446031e-001 -2.255532e-001 5.223809e-001 -3.998624e-001 2.711345e-001 1.874695e-001 -2.049163e-001 -4.004416e-001 -3.395057e-001 1.283240e-001 -8.070809e-002 -2.079615e-001 8.780838e-001
<VARIANCE> 25
 3.148767e+001 3.841448e+001 5.658967e+001 4.543395e+001 5.293119e+001 6.119053e+001 5.385035e+001 4.626309e+001 5.085838e+001 3.734594e+001 3.564475e+001 3.435407e+001 3.186825e+000 4.144522e+000 4.536895e+000 5.367098e+000 4.341578e+000 4.443301e+000 4.326615e+000 3.862032e+000 4.425530e+000 3.459000e+000 3.035843e+000 3.173010e+000 4.464584e+000
<GCONST> 1.094988e+002
~s "ST_sil_4_1"
<MEAN> 25
 -6.481906e+000 3.273646e+000 -5.342288e+000 7.745451e+000 -1.491581e-001 -1.891594e-001 4.711347e+000 -2.006912e+000 1.150581e+000 -6.971571e+000 3.459985e+000 3.749952e-001 -8.807219e-002 -2.200537e-001 -3.895204e-001 9.437758e-002 2.113232e-001 1.426222e-001 6.340693e-002 1.602338e-002 -2.441259e-001 -1.161140e-001 1.767706e-001 1.135969e-001 -6.359330e-004
<VARIANCE> 25
 3.672351e+001 5.544740e+001 6.232870e+001 6.545601e+001 5.632355e+001 8.272424e+001 4.220420e+001 5.281137e+001 3.355761e+001 5.138269e+001 3.150195e+001 1.976792e+001 7.052853e-001 1.411653e+000 1.577231e+000 2.798580e+000 1.898823e+000 2.564188e+000 2.121205e+000 1.988228e+000 1.966362e+000 2.917938e+000 1.956156e+000 1.380438e+000 1.158848e+000
<GCONST> 9.931249e+001
~s "ST_iy_2_1"
<MEAN> 25
 -1.110095e+000 7.669340e-001 2.000620e+001 -5.343034e+000 -1.104805e+001 7.533052e-001 -7.799207e+000 1.946717e+000 -1.537398e+001 4.081203e+000 2.311557e+000 4.834117e+000 1.110084e-001 2.083849e-001 -7.296096e-002 7.253629e-002 -2.229837e-001 4.894174e-001 -2.074721e-001 -2.813786e-002 -1.327012e-001 5.055488e-002 1.014611e-001 -5.166749e-002 -1.377007e-001
<VARIANCE> 25
 3.975117e+000 1.321367e+001 1.321242e+001 8.996966e+000 4.652445e+000 1.017461e+001 1.034770e+001 4.492214e+001 8.518871e+000 7.994421e+000 1.168527e+001 9.963675e+000 1.645617e-001 4.268105e-001 6.810874e-001 5.627751e-001 4.466560e-001 8.760650e-001 6.235157e-001 1.150314e+000 9.000553e-001 4.898729e-001 1.314399e+000 8.203250e-001 1.481951e-001
<GCONST> 6.612531e+001
~s "ST_j_2_1"
<MEAN> 25
 -8.578005e-001 1.562424e+001 3.721041e+000 6.630524e+000 -5.241922e-001 -3.374950e+000 2.157576e+000 -1.058955e+001 1.344129e+000 -3.588064e+000 1.485527e+000 -1.561765e+000 -4.522267e-001 -1.624979e+000 1.730926e+000 -1.602972e+000 -6.212333e-001 -1.032292e+000 -5.730408e-001 1.174416e+000 -4.804980e-001 -5.471050e-001 1.577133e+000 6.913019e-001 2.521893e+000
<VARIANCE> 25
 5.460955e+001 6.196738e+001 4.520868e+001 5.355065e+001 4.533706e+001 3.670605e+001 3.928559e+001 8.459951e+001 2.722935e+001 6.186212e+001 6.469411e+001 1.326463e+001 7.708254e+000 9.907027e+000 4.565372e+000 2.287664e+000 5.191094e+000 4.538170e+000 5.365121e+000 1.536140e+001 4.392850e+000 6.578776e+000 5.989097e+000 1.503590e+000 1.693152e+000
<GCONST> 1.119165e+002
~s "ST_iy_3_1"
<MEAN> 25
 5.008958e+000 2.503361e+000 7.419772e+000 2.328409e+000 -3.305881e+000 1.565917e+000 -4.819347e+000 -8.148108e-001 -8.290956e+000 1.509262e+000 3.692071e+000 -3.590469e+000 2.405192e-001 4.056798e-001 -1.097241e+000 1.037536e+000 7.828047e-001 -4.249913e-001 2.711532e-001 -7.208918e-001 8.789488e-001 -4.242485e-001 -2.643320e-001 -4.459620e-001 -1.035650e+000
<VARIANCE> 25
 1.009724e+001 1.166528e+001 2.385209e+001 3.220219e+001 2.685795e+001 1.974087e+001 1.691801e+001 2.688462e+001 1.575044e+001 4.053759e+001 2.642654e+001 2.029563e+001 6.861643e-001 4.628359e-001 1.358271e+000 2.035857e+000 2.134222e+000 1.626292e+000 1.403600e+000 1.471533e+000 2.077875e+000 3.606979e+000 2.814348e+000 1.827204e+000 5.092227e-001
<GCONST> 8.731349e+001
~s "ST_j_3_1"
<MEAN> 25
 1.106788e+000 -6.048808e+000 1.011261e+001 -8.060220e+000 -6.869114e+000 -7.655969e+000 -2.138905e+000 7.580187e+000 1.561348e+000 -4.654153e-001 1.293065e+000 4.074063e+000 9.225875e-001 -2.666657e+000 -2.481203e+000 -1.547562e+000 7.939413e-001 1.151821e+000 1.073133e+000 2.051604e+000 2.171798e+000 4.744371e-001 -3.766797e+000 -3.989162e-001 1.425681e+000
<VARIANCE> 25
 6.096387e+000 2.878372e+001 3.167251e+001 2.143609e+001 1.827191e+001 9.504910e+000 5.300776e+001 3.087241e+001 6.556093e+001 3.392812e+001 4.523038e+001 1.512972e+001 5.595208e-001 2.343021e+000 2.985677e+000 1.413312e+000 2.836694e+000 1.474654e+000 2.560118e+000 3.249876e+000 1.844378e+000 3.310314e+000 1.392314e+000 1.371573e+000 5.476241e-001
<GCONST> 9.154229e+001
~s "ST_iy_4_1"
<MEAN> 25
 4.204328e-002 6.703514e+000 3.987806e+000 2.186167e+000 -3.579495e+000 2.952850e+000 3.435035e+000 -3.572080e+000 -2.352281e+000 7.440405e-001 -4.400918e-002 -8.288757e-001 -3.825888e-001 -4.072692e-002 -1.353922e-001 -1.527040e-002 1.804414e-001 6.266753e-002 4.350311e-001 2.008273e-001 3.799254e-001 -7.370301e-002 -1.966169e-001 2.716613e-001 -2.390476e-001
<VARIANCE> 25
 7.821075e+000 4.204341e+001 7.734325e+001 1.117229e+002 4.004425e+001 1.761250e+001 2.976612e+001 3.233136e+001 5.032734e+001 9.463847e+001 2.564726e+001 1.430203e+001 4.027970e-001 9.628883e-001 1.885685e+000 2.675016e+000 2.127905e+000 2.098657e+000 1.358178e+000 2.112187e+000 2.157656e+000 1.956487e+000 2.893704e+000 1.648732e+000 5.147042e-001
<GCONST> 9.416814e+001
~s "ST_j_4_1"
<MEAN> 25
 5.448657e-001 -9.684176e+000 -6.294809e+000 -6.840374e+000 8.256177e-001 4.418014e+000 -4.526407e-001 3.390919e+000 1.158712e+001 -6.790440e+000 -9.411842e+000 -2.223128e+000 -1.174198e-002 -1.531433e-001 -1.396624e+000 5.028947e-001 1.255933e+000 2.132966e+000 -8.532705e-001 -1.079684e+000 5.578850e-001 -7.036790e-001 -1.342717e-001 -1.371642e+000 2.157423e-001
<VARIANCE> 25
 6.362000e+000 1.586095e+001 4.201832e+001 1.691843e+001 3.572064e+000 3.929609e+001 4.631672e+001 3.265327e+001 2.292607e+001 2.765693e+001 1.863069e+001 2.233769e+001 1.728357e+000 2.632417e+000 8.049159e+000 1.427114e+000 1.385954e+000 1.173216e+000 2.793635e+000 2.932436e+000 3.960668e+000 3.837718e+000 3.049094e+000 2.598556e+000 7.296983e-001
<GCONST> 9.289817e+001
~s "ST_ae_2_1"
<MEAN> 25
 1.036658e+000 -4.938990e+000 -1.610325e+000 3.758120e+000 -3.267199e+000 -4.299174e+000 1.087678e+000 3.005788e+000 1.072908e+000 -3.856901e+000 -2.348122e+000 6.409750e-001 2.228377e-001 -2.071836e+000 1.086039e+000 -2.417107e+000 -1.212737e+000 -4.680362e-001 1.273589e+000 2.304168e+000 7.229401e-002 -4.772519e-001 -8.036125e-001 3.665292e-001 2.336193e+000
<VARIANCE> 25
 9.893053e+000 5.942530e+001 6.243509e+001 5.780256e+001 4.335303e+001 4.331609e+001 4.758739e+001 7.435204e+001 3.767146e+001 2.560252e+001 4.298001e+001 5.320687e+001 2.019033e+000 6.418473e+000 5.098762e+000 5.335301e+000 4.941915e+000 3.472237e+000 6.288950e+000 8.748940e+000 2.515392e+000 4.956432e+000 2.165415e+000 4.535204e+000 7.748339e+000
<GCONST> 1.104009e+002
~s "ST_ae_3_1"
<MEAN> 25
 1.150500e+000 -9.480640e+000 4.412128e+000 -4.408656e+000 -3.596189e+000 -4.620616e+000 6.017199e+000 1.072125e+001 2.050363e+000 -5.189968e+000 -2.566563e+000 1.014535e+000 -3.023185e-001 -1.060454e+000 7.262407e-001 -1.481815e+000 -1.632274e-001 8.568628e-001 2.092887e+000 1.727441e+000 -1.109549e+000 -1.047837e+000 -6.070328e-001 1.077730e+000 1.144502e+000
<VARIANCE> 25
 6.820621e+000 2.474539e+001 2.025423e+001 1.617722e+001 5.027641e+001 4.797289e+001 6.606456e+001 2.271447e+001 2.997788e+001 1.687602e+001 4.190508e+001 2.630913e+001 4.703228e-001 2.098542e+000 1.812734e+000 1.747918e+000 1.654999e+000 2.824993e+000 1.868845e+000 3.933991e+000 2.454952e+000 1.736312e+000 1.293709e+000 2.014159e+000 2.008327e+000
<GCONST> 9.298331e+001
~s "ST_ae_4_1"
<MEAN> 25
 1.435840e+000 -9.443253e+000 5.354929e+000 -4.623632e+000 -5.288270e+000 -2.845897e+000 8.612679e+000 1.111726e+001 -2.108519e+000 -5.409188e+000 -2.206177e+000 1.474964e+000 1.253151e-001 2.896110e-001 -2.645140e-001 3.479680e-001 2.345120e-001 -9.244191e-002 -3.038603e-001 -2.209771e-001 -2.852647e-002 3.166784e-001 2.023625e-002 -1.889353e-001 -4.618682e-001
<VARIANCE> 25
 8.343909e+000 2.564978e+001 2.888365e+001 1.955876e+001 3.828094e+001 4.139972e+001 3.612081e+001 2.412374e+001 2.527744e+001 2.850258e+001 3.665494e+001 1.999280e+001 3.668631e-001 9.620445e-001 1.611021e+000 1.437534e+000 1.093992e+000 1.202566e+000 2.539221e+000 1.152648e+000 1.736201e+000 1.121213e+000 1.349085e+000 1.251087e+000 1.214107e+000
<GCONST> 8.749492e+001
~s "ST_w_2_1"
<MEAN> 25
 6.084276e+000 1.354759e+000 -1.280566e+000 -6.972023e-001 2.271326e+000 5.055413e+000 -2.657460e+000 -3.994134e+000 -2.294438e+000 3.166868e+000 -7.524779e-001 -8.163940e-001 1.060942e+000 -1.149767e+000 1.144907e+000 -1.966293e+000 -4.098660e-001 5.254145e-001 -1.227540e+000 8.757436e-002 -9.027035e-001 8.351073e-001 8.583753e-001 -9.915894e-002 1.851642e+000
<VARIANCE> 25
 1.207917e+001 5.624965e+001 4.244929e+001 1.275055e+002 2.541524e+001 3.223236e+001 6.409987e+001 4.033979e+001 4.673479e+001 5.854807e+001 3.481882e+001 2.134866e+001 1.925207e+000 4.959863e+000 3.534366e+000 8.295170e+000 2.012046e+000 3.080363e+000 3.461653e+000 5.238060e+000 3.574997e+000 3.016263e+000 3.308625e+000 1.921406e+000 6.010210e+000
<GCONST> 1.065338e+002
~s "ST_w_3_1"
<MEAN> 25
 7.154388e+000 -1.263482e+000 -2.985273e-001 -1.100442e+001 9.687602e-001 7.785826e+000 -6.040503e-001 -3.053382e+000 -3.188812e+000 2.602191e+000 9.702044e-001 3.382326e+000 -1.201957e-002 -5.245391e-001 3.171597e-001 -7.914641e-001 1.297191e-002 -1.546393e-001 -8.908235e-002 5.469445e-002 2.652851e-001 6.577061e-001 -1.832662e-002 3.048193e-001 5.176182e-001
<VARIANCE> 25
 6.246220e+000 2.887436e+001 3.422316e+001 7.959042e+001 1.781765e+001 2.355418e+001 3.816608e+001 3.266992e+001 3.229292e+001 4.480283e+001 2.340666e+001 3.472566e+001 3.488936e-001 1.746405e+000 1.348487e+000 4.051701e+000 2.346180e+000 1.473358e+000 1.906694e+000 1.727910e+000 2.182689e+000 2.980412e+000 1.888323e+000 2.823917e+000 1.782197e+000
<GCONST> 9.395676e+001
~s "ST_w_4_1"
<MEAN> 25
 6.183390e+000 -4.737310e+000 3.891145e+000 -9.488579e+000 2.717613e+000 1.197539e+000 -6.161711e+000 -1.332210e+000 -1.192602e+000 1.161622e+001 -8.822071e-001 -2.909666e-001 -3.185850e-001 -5.158981e-001 5.234940e-001 5.349535e-001 1.042752e-002 -1.354812e+000 1.639055e-003 8.926005e-001 4.334159e-001 2.649075e-002 -6.656310e-001 -1.035283e-001 2.207825e-001
<VARIANCE> 25
 4.745363e+000 1.820852e+001 2.889712e+001 7.104365e+001 1.649788e+001 4.381641e+001 4.360767e+001 2.870265e+001 4.028759e+001 5.612720e+001 2.734155e+001 1.166280e+001 2.601995e-001 7.197186e-001 1.281418e+000 1.465642e+000 1.655355e+000 1.463641e+000 1.530979e+000 2.089254e+000 3.506401e+000 1.823313e+000 1.922546e+000 1.884785e+000 8.742798e-001
<GCONST> 8.924803e+001
~s "ST_m_2_1"
<MEAN> 25
 4.395645e+000 -5.536209e-002 1.703183e+000 -6.592813e-002 3.526779e+000 4.479489e+000 -1.311774e-001 -7.625209e+000 -3.382762e+000 -4.495979e+000 2.770170e+000 -1.227538e-001 -7.109259e-002 6.474072e-001 1.677591e+000 2.194304e+000 4.159042e-001 -5.303120e-001 -9.082758e-001 -2.233399e+000 -1.749840e+000 -1.572103e-002 -5.250543e-001 2.669453e-001 -5.705363e-001
<VARIANCE> 25
 6.454283e+000 1.256215e+001 4.632727e+001 7.951521e+001 2.643589e+001 2.500640e+001 3.322225e+001 4.222311e+001 3.568114e+001 2.626381e+001 3.828751e+001 1.835625e+001 2.522728e-001 1.254882e+000 1.007561e+000 3.839547e+000 2.072134e+000 1.946614e+000 1.324914e+000 2.532868e+000 3.077019e+000 1.390671e+000 2.233378e+000 8.711469e-001 1.346033e+000
<GCONST> 9.091652e+001
~s "ST_m_3_1"
<MEAN> 25
 4.591765e+000 2.144565e-001 5.055340e+000 4.944875e+000 5.786933e+000 3.426277e+000 -3.226981e+000 -1.188394e+001 -8.741893e+000 -3.946319e+000 1.015185e+000 -2.994044e-001 2.048878e-001 -6.772260e-002 -3.398671e-001 -6.830806e-001 -5.550677e-001 -9.989191e-002 1.148631e-001 5.869663e-001 2.140322e-001 -5.220679e-003 4.342719e-002 2.834442e-002 3.903714e-001
<VARIANCE> 25
 6.361842e+000 1.329735e+001 2.591078e+001 2.433347e+001 2.190917e+001 3.245092e+001 2.593973e+001 1.421875e+001 3.161545e+001 3.308442e+001 4.845355e+001 2.356798e+001 2.252153e-001 5.167633e-001 1.306518e+000 1.663997e+000 1.399308e+000 7.675202e-001 9.421848e-001 1.678300e+000 2.155687e+000 1.142946e+000 1.239078e+000 9.509491e-001 4.933150e-001
<GCONST> 8.281602e+001
~s "ST_m_4_1"
<MEAN> 25
 6.485178e+000 -2.151128e+000 -1.291348e+000 -5.982483e+000 2.800074e+000 6.184871e+000 -3.288983e-001 -4.681293e+000 -2.072263e+000 -4.226705e+000 2.035884e+000 1.179688e+000 2.862045e-001 -1.489610e+000 -1.166930e+000 -2.889266e+000 2.206270e-001 6.237615e-001 3.279426e-001 2.364064e+000 1.178446e+000 9.725597e-001 -3.325585e-001 2.997533e-001 1.185273e+000
<VARIANCE> 25
 8.874677e+000 2.042657e+001 3.174910e+001 6.530809e+001 3.581063e+001 4.140812e+001 2.468414e+001 2.992359e+001 2.348844e+001 3.399110e+001 3.139598e+001 2.583282e+001 3.885494e-001 1.259436e+000 2.860547e+000 3.700938e+000 3.965861e+000 1.962325e+000 2.473453e+000 4.026012e+000 3.426682e+000 2.329491e+000 3.371513e+000 2.264226e+000 5.967764e-001
<GCONST> 9.566020e+001
~s "ST_ah_2_1"
<MEAN> 25
 3.386980e+000 -6.364742e+000 3.409998e+000 -7.940100e+000 3.579007e+000 -4.481450e+000 -1.356597e+000 4.886336e+000 3.191276e+000 6.269344e+000 -6.874416e+000 4.283997e-001 -2.614230e-001 4.795404e-001 -3.588046e-001 7.575006e-001 4.535421e-001 -4.478819e-002 3.229957e-001 1.527905e-001 5.519729e-001 -5.930052e-001 -6.251971e-001 9.762058e-002 -1.048571e+000
<VARIANCE> 25
 6.012208e+000 1.478377e+001 3.145042e+001 2.117174e+001 3.567941e+001 5.677048e+001 5.501185e+001 5.167949e+001 2.667155e+001 4.229069e+001 2.487442e+001 2.151697e+001 4.933938e-001 1.403885e+000 1.125186e+000 1.286634e+000 1.641041e+000 1.150440e+000 1.265528e+000 1.548022e+000 1.607859e+000 1.606389e+000 1.827703e+000 1.109620e+000 1.208404e+000
<GCONST> 8.896836e+001
~s "ST_ah_2_2"
<MEAN> 25
 3.406971e+000 -6.565780e+000 3.612353e+000 -7.057381e+000 2.493186e+000 -2.256445e+000 -4.815259e+000 6.739738e+000 2.814384e+000 2.240997e-001 -5.035766e+000 8.604994e-001 -2.802591e-001 -4.090971e-001 4.978340e-001 -8.972108e-001 9.870972e-001 -8.469725e-001 1.392154e+000 8.142209e-001 -6.371237e-001 2.907593e-001 -1.054505e+000 9.767547e-001 2.464723e-002
<VARIANCE> 25
 4.833150e+000 1.466617e+001 2.848753e+001 2.335137e+001 2.254183e+001 4.525340e+001 2.891768e+001 4.048172e+001 3.792682e+001 2.975719e+001 1.919895e+001 2.288404e+001 4.590258e-001 1.319789e+000 1.312632e+000 2.365723e+000 1.491444e+000 2.271992e+000 2.216608e+000 4.134139e+000 1.553739e+000 2.302358e+000 1.733294e+000 1.546384e+000 7.057983e-001
<GCONST> 8.979478e+001
~s "ST_ah_2_3"
<MEAN> 25
 3.259063e+000 -9.030359e+000 -6.172962e-001 -9.832351e+000 7.089490e+000 4.939640e+000 -9.839160e-001 1.096660e+000 1.440740e+000 -6.196506e-001 -4.560035e+000 -4.117662e-001 1.229201e-001 -6.447740e-001 5.294821e-001 -6.360155e-001 3.852349e-001 -5.836378e-001 1.774881e-001 7.889079e-001 -4.441513e-002 4.343740e-001 -6.616068e-001 7.847742e-002 6.092109e-001
<VARIANCE> 25
 6.775560e+000 1.804417e+001 2.621337e+001 2.367599e+001 4.044186e+001 5.472927e+001 3.342927e+001 4.865313e+001 3.297746e+001 3.351664e+001 2.896403e+001 3.253533e+001 5.906494e-001 2.043560e+000 1.449369e+000 3.012816e+000 2.843549e+000 3.607771e+000 2.537961e+000 3.416022e+000 2.014436e+000 2.188174e+000 2.515573e+000 2.340434e+000 1.604679e+000
<GCONST> 9.601578e+001
~s "ST_ah_3_1"
<MEAN> 25
 2.779077e+000 -2.923860e+000 2.304723e+000 -5.165597e+000 2.816990e+000 -6.055191e+000 -6.615703e-001 5.908522e+000 4.653704e+000 4.133223e+000 -7.116233e+000 1.394485e+000 -1.286609e-001 1.217965e+000 -7.818094e-001 1.235415e+000 -2.336485e-001 3.163142e-001 1.894689e-001 -1.715215e-002 5.548622e-002 -4.935482e-001 3.147933e-001 -1.718234e-001 -1.619130e+000
<VARIANCE> 25
 5.318405e+000 2.522870e+001 2.620245e+001 2.918084e+001 3.286932e+001 4.097408e+001 2.754616e+001 2.459146e+001 2.655294e+001 3.045141e+001 1.966761e+001 2.607449e+001 3.167332e-001 1.098534e+000 1.021815e+000 1.132364e+000 1.308530e+000 1.192693e+000 1.574473e+000 1.363503e+000 1.536819e+000 2.016929e+000 1.388726e+000 1.298937e+000 9.497539e-001
<GCONST> 8.611333e+001
~s "ST_ah_3_2"
<MEAN> 25
 2.517714e+000 -4.050099e+000 3.059172e+000 -4.717968e+000 7.168397e+000 -2.558410e+000 -4.251615e-001 6.406535e+000 -1.334640e+000 2.063038e-001 -8.390654e+000 2.234836e+000 -6.922003e-002 8.189825e-001 -5.628517e-001 7.524014e-001 4.239569e-002 -9.492610e-002 4.167271e-001 -3.053913e-001 1.050794e-001 -1.090780e-001 5.644052e-002 -1.402144e-001 -1.264052e+000
<VARIANCE> 25
 4.130040e+000 1.620867e+001 2.402508e+001 1.803798e+001 1.901568e+001 2.720902e+001 1.776779e+001 2.825229e+001 1.905268e+001 2.220647e+001 1.220028e+001 1.402915e+001 3.260659e-001 1.066683e+000 9.189093e-001 9.681402e-001 1.151385e+000 1.013683e+000 1.206241e+000 9.617909e-001 1.193429e+000 1.064920e+000 9.109401e-001 7.579084e-001 9.883679e-001
<GCONST> 7.886752e+001
~s "ST_ah_3_3"
<MEAN> 25
 3.303752e+000 -6.298722e+000 7.178212e-001 -7.645563e+000 5.367805e+000 -3.340952e-001 -1.586258e+000 4.113214e+000 1.534354e+000 1.027887e+000 -4.894756e+000 -6.288823e-001 9.843833e-002 1.026055e+000 -2.957648e-001 9.571445e-001 -2.904180e-001 -1.111238e-002 -1.854824e-001 -1.277353e-001 -1.313148e-001 -2.523910e-001 6.191614e-001 -2.260120e-002 -1.117660e+000
<VARIANCE> 25
 6.665111e+000 2.420261e+001 3.088687e+001 3.430293e+001 3.407342e+001 5.355532e+001 3.012995e+001 4.050096e+001 3.009172e+001 3.356964e+001 3.072898e+001 3.164825e+001 3.600354e-001 1.676001e+000 1.318080e+000 2.157873e+000 1.630495e+000 2.883235e+000 2.234367e+000 2.172875e+000 2.023637e+000 2.357388e+000 1.847656e+000 1.569227e+000 1.799100e+000
<GCONST> 9.329188e+001
~s "ST_ah_4_1"
<MEAN> 25
 5.350450e-001 -1.333703e-001 -1.199233e+001 6.433000e+000 6.791439e-001 9.600541e+000 3.542788e+000 1.081755e+000 2.750310e+000 -4.888684e+000 -1.480072e+000 -2.511835e+000 -5.311406e-001 3.825854e-001 -8.915594e-001 3.536742e-001 -3.055287e-001 2.795269e-001 2.970771e-001 -1.358959e-001 1.056737e-001 4.800367e-003 2.365595e-001 1.784103e-001 -1.061332e+000
<VARIANCE> 25
 1.036496e+001 1.619759e+001 4.686266e+001 2.798150e+001 3.637896e+001 4.665144e+001 3.400904e+001 4.928930e+001 2.487658e+001 4.225477e+001 2.416002e+001 2.505570e+001 5.439613e-001 6.236587e-001 1.454271e+000 1.322737e+000 2.502053e+000 2.489218e+000 3.039104e+000 2.441940e+000 2.325487e+000 3.455848e+000 2.584260e+000 1.620064e+000 5.657920e-001
<GCONST> 9.282645e+001
~s "ST_ah_4_2"
<MEAN> 25
 -1.489962e+000 3.403173e+000 -6.399935e+000 5.102329e+000 -2.750236e-001 -2.142994e+000 1.041337e+000 3.974843e+000 4.798769e+000 -2.965665e+000 -1.278556e+000 1.128159e+000 -4.634386e-001 2.201540e-001 -5.869673e-001 5.037572e-001 -1.938536e-001 1.765649e-001 2.284442e-001 -2.992518e-001 7.347156e-002 -2.116133e-001 4.600659e-001 1.251447e-001 -7.681809e-001
<VARIANCE> 25
 1.300615e+001 2.786106e+001 3.312337e+001 2.919332e+001 5.042099e+001 3.446933e+001 3.416442e+001 3.219607e+001 3.245707e+001 3.422202e+001 3.194463e+001 2.936745e+001 3.679121e-001 1.023371e+000 1.337718e+000 1.333325e+000 1.995102e+000 1.820709e+000 2.039914e+000 2.270694e+000 2.412292e+000 2.308533e+000 1.890380e+000 1.765330e+000 4.376164e-001
<GCONST> 9.155458e+001
~s "ST_ah_4_3"
<MEAN> 25
 2.117379e+000 -2.012588e+000 -3.123592e+000 -3.161165e+000 2.718180e+000 1.185696e+000 -9.512032e-001 2.928994e+000 1.865905e+000 -1.547471e+000 -6.413687e-001 -1.277390e+000 -3.134640e-002 1.004456e+000 -4.748161e-002 1.064505e+000 -9.379233e-001 -9.878256e-002 5.173332e-003 -4.640793e-001 6.484726e-002 9.726760e-004 8.861589e-001 1.189552e-001 -1.125054e+000
<VARIANCE> 25
 1.475748e+001 4.023885e+001 5.832413e+001 6.962301e+001 4.957257e+001 5.122713e+001 4.104289e+001 5.213604e+001 3.476641e+001 4.381744e+001 2.934839e+001 3.030586e+001 5.639853e-001 2.054747e+000 1.784133e+000 3.336357e+000 1.986536e+000 2.635467e+000 2.052933e+000 3.157853e+000 2.088814e+000 2.478640e+000 1.851400e+000 1.826351e+000 1.327037e+000
<GCONST> 9.887144e+001
~s "ST_ch_2_1"
<MEAN> 25
 9.133801e+000 9.379861e+000 1.979155e+000 9.125998e+000 -7.734658e+000 6.572106e-002 -1.758015e+000 -7.199090e+000 -2.594751e+000 -1.426387e+000 -5.960502e-001 -2.806664e+000 -8.135398e-001 1.287515e+000 -1.121344e+000 7.119312e-001 9.854307e-001 -6.879967e-001 1.832013e+000 3.867413e-001 -1.860310e-001 -1.044064e+000 -2.598333e-002 -4.640961e-001 -1.392128e+000
<VARIANCE> 25
 1.242965e+001 1.103543e+001 2.584834e+001 9.974434e+000 2.331009e+001 2.386451e+001 2.675589e+001 1.950550e+001 1.718195e+001 1.806144e+001 2.182739e+001 2.169044e+001 1.149921e+000 3.340230e-001 5.253456e-001 1.046903e+000 3.585453e+000 1.828917e+000 1.949953e+000 1.407368e+000 1.951603e+000 2.016751e+000 2.098689e+000 1.439165e+000 3.310660e-001
<GCONST> 8.360229e+001
~s "ST_ch_3_1"
<MEAN> 25
 6.668231e-001 1.408658e+001 -4.799354e+000 9.807549e+000 1.932917e+000 -3.628430e+000 3.294447e+000 -2.689069e+000 5.471970e-002 -6.901769e+000 -1.452450e+000 -5.101385e+000 -4.287316e+000 -4.364659e-001 -6.055956e-001 -2.497783e+000 1.376922e+000 -4.807308e-001 -5.327693e-001 1.055135e+000 2.336782e-001 -4.877079e-001 5.876737e-002 7.644182e-002 1.407937e+000
<VARIANCE> 25
 2.324121e+001 8.657197e+000 1.967286e+001 1.045154e+001 1.217534e+001 2.764736e+001 3.391662e+001 3.604656e+001 4.112409e+001 1.827251e+001 1.378995e+001 1.833504e+001 1.836895e+000 1.827568e+000 3.415987e+000 3.349622e+000 3.541564e+000 1.519779e+000 2.365000e+000 3.668709e+000 3.059605e+000 1.633416e+000 2.418818e+000 4.259300e+000 3.973116e+000
<GCONST> 9.447266e+001
~s "ST_ch_4_1"
<MEAN> 25
 -1.602337e+001 6.106514e+000 -1.752326e+000 5.432153e+000 5.171362e-001 -3.613217e+000 3.902382e+000 1.901235e-001 4.698129e-001 -5.690374e+000 3.401164e+000 -5.945518e-001 -1.062674e+000 -3.666233e-001 1.511940e+000 -3.019019e-001 -8.171930e-001 7.357603e-002 -1.142705e-001 -3.618531e-001 -6.696445e-001 1.660775e-001 3.648039e-001 -8.815085e-002 1.203558e+000
<VARIANCE> 25
 2.483138e+001 2.963360e+001 3.521209e+001 3.304018e+001 2.062156e+001 2.171535e+001 1.861075e+001 3.922006e+001 3.490574e+001 1.638558e+001 2.312944e+001 1.898849e+001 7.926719e+000 1.228716e+000 5.002597e+000 2.976250e+000 2.442824e+000 1.788038e+000 2.434515e+000 1.980665e+000 2.036185e+000 1.256928e+000 2.228905e+000 1.624908e+000 2.281606e+000
<GCONST> 9.581421e+001
~s "ST_eh_2_1"
<MEAN> 25
 1.132577e+000 -3.414828e+000 1.479789e+001 -2.756807e+000 -1.213647e+001 -5.695453e+000 -1.256287e-002 4.896003e+000 -9.380405e+000 4.878237e+000 5.371783e+000 2.077993e+000 -2.990877e-001 -4.437770e-001 1.697129e+000 -1.664171e+000 -1.259551e+000 1.538523e-001 3.408997e-001 6.007042e-001 -1.519314e+000 1.804152e+000 5.538826e-001 2.283406e-001 1.231312e+000
<VARIANCE> 25
 1.323931e+001 2.055299e+001 1.808569e+001 2.167723e+001 1.705720e+001 2.937509e+001 4.426496e+001 3.092233e+001 3.664404e+001 3.610744e+001 2.601250e+001 1.978591e+001 1.053040e+000 1.515722e+000 2.301633e+000 2.725170e+000 1.975936e+000 2.571722e+000 2.753650e+000 3.137388e+000 3.572081e+000 3.008300e+000 1.915319e+000 1.971642e+000 2.257159e+000
<GCONST> 9.499724e+001
~s "ST_eh_3_1"
<MEAN> 25
 -1.070650e+000 -1.100133e+000 1.833069e+001 -6.240271e+000 -1.306921e+001 -3.029153e+000 -1.942657e+000 2.254142e+000 -1.289762e+001 1.125094e+001 3.691921e+000 2.130522e+000 -1.543433e-001 1.016787e-001 1.869914e-001 -4.136096e-002 1.398748e-001 -5.380844e-002 2.107789e-001 -3.020596e-001 -7.811988e-002 9.526075e-002 -4.926697e-002 -9.148743e-002 -2.496288e-001
<VARIANCE> 25
 9.118821e+000 1.876796e+001 1.144477e+001 1.634378e+001 1.498096e+001 2.554432e+001 2.702848e+001 2.457021e+001 2.048666e+001 2.006209e+001 1.642876e+001 2.575583e+001 2.514924e-001 4.281536e-001 6.842158e-001 5.258362e-001 5.793153e-001 6.035780e-001 9.973098e-001 7.205070e-001 9.975103e-001 6.833107e-001 6.544054e-001 5.096896e-001 3.382443e-001
<GCONST> 7.363531e+001
~s "ST_eh_4_1"
<MEAN> 25
 -2.567421e+000 3.913020e+000 1.111847e+001 9.680820e-001 -1.107468e+001 -3.801723e+000 4.035028e+000 3.830499e-001 -7.904076e+000 4.619786e+000 4.387205e+000 -8.348700e-001 -1.356622e-001 6.133332e-001 -1.170217e+000 9.294802e-001 2.120835e-001 1.599752e-001 2.182282e-001 -4.998926e-002 6.622735e-001 -9.650840e-001 -6.408943e-002 -1.343768e-001 -1.272404e+000
<VARIANCE> 25
 7.350781e+000 2.677932e+001 3.931552e+001 3.371822e+001 3.682338e+001 3.788055e+001 3.335016e+001 2.886399e+001 4.975993e+001 4.427452e+001 3.870704e+001 2.766759e+001 4.432515e-001 1.259184e+000 1.850346e+000 1.910639e+000 2.202750e+000 2.003247e+000 2.385378e+000 2.121680e+000 2.729053e+000 2.863795e+000 2.220362e+000 1.995681e+000 1.400220e+000
<GCONST> 9.487024e+001
~s "ST_p_2_1"
<MEAN> 25
 3.572010e+000 2.648165e+000 -9.579208e+000 -1.221572e+000 3.605150e+000 8.562310e+000 3.293962e+000 -4.175506e+000 2.652398e+000 -1.558548e+000 1.783055e-001 -2.006072e+000 -4.427918e-001 5.813733e-001 -6.975169e-001 9.851800e-001 -6.133628e-002 7.560199e-002 2.636062e-001 -1.050635e-001 2.243783e-001 -4.255243e-001 2.999523e-001 -2.479166e-001 -9.240536e-001
<VARIANCE> 25
 1.504646e+001 7.649545e+001 4.296453e+001 1.271465e+002 3.597314e+001 5.425985e+001 3.295087e+001 3.803021e+001 2.664491e+001 3.077592e+001 2.680376e+001 1.993306e+001 7.802001e-001 2.748225e+000 1.643761e+000 6.962143e+000 3.532611e+000 2.169417e+000 2.205504e+000 2.971679e+000 3.118437e+000 2.698564e+000 2.339764e+000 2.295714e+000 1.829967e+000
<GCONST> 1.008335e+002
~s "ST_p_3_1"
<MEAN> 25
 -6.749805e+000 4.153703e+000 -8.703471e+000 1.174157e+001 2.363550e+000 6.378499e-001 6.039905e+000 -1.818124e+000 4.292820e+000 -1.082230e+000 3.559300e+000 -1.141768e+000 -3.908527e-001 -4.919765e-002 9.495667e-002 3.355468e-001 9.597339e-003 5.824245e-003 5.504911e-002 2.281558e-001 -2.016557e-001 -2.480357e-001 2.280883e-001 3.714423e-001 -3.448446e-001
<VARIANCE> 25
 2.834471e+001 5.304067e+001 3.726847e+001 6.030314e+001 3.823483e+001 5.947827e+001 2.783132e+001 5.038905e+001 4.117522e+001 5.411200e+001 2.443394e+001 2.417964e+001 8.164360e-001 1.124511e+000 1.183671e+000 1.760057e+000 1.911876e+000 2.901479e+000 1.922970e+000 3.325213e+000 2.442767e+000 2.976220e+000 1.712687e+000 2.104755e+000 5.728220e-001
<GCONST> 9.697172e+001
~s "ST_p_4_1"
<MEAN> 25
 -6.611465e-001 2.652843e+000 -6.740580e+000 4.793126e+000 -1.221170e+000 3.010105e+000 3.519618e+000 -1.215828e+000 1.778189e+000 -2.759997e+000 3.873204e+000 3.253621e-001 2.451957e+000 -2.161156e+000 1.438544e+000 -4.356936e+000 -9.629956e-002 1.386402e+000 -7.047159e-001 -8.308128e-001 -5.011024e-001 6.416968e-001 -2.762714e-001 -4.904943e-001 4.573965e+000
<VARIANCE> 25
 5.368600e+001 5.286237e+001 4.271602e+001 1.633364e+002 4.899553e+001 8.469448e+001 3.413554e+001 4.402495e+001 4.119873e+001 3.634743e+001 2.936564e+001 2.271536e+001 4.310616e+000 4.895536e+000 5.725293e+000 1.648392e+001 7.260799e+000 1.171655e+001 4.659024e+000 5.394691e+000 5.563931e+000 3.833776e+000 3.236018e+000 2.423860e+000 7.764057e+000
<GCONST> 1.146422e+002
~s "ST_ih_2_1"
<MEAN> 25
 -2.310868e+000 3.756429e+000 1.464325e+001 2.242563e+000 -9.809691e+000 -5.140974e-001 -1.800259e+000 -2.934222e+000 -9.175166e+000 1.620701e-001 6.075072e+000 -6.459662e-001 5.066413e-001 -1.103253e+000 3.836288e+000 -2.230049e+000 -1.726415e+000 4.344174e-001 -1.680361e+000 1.053428e+000 -3.025370e+000 1.911793e+000 6.649424e-001 3.099832e-001 2.026823e+000
<VARIANCE> 25
 3.565538e+001 3.094744e+001 7.592383e+001 4.786389e+001 3.998093e+001 4.141085e+001 4.546475e+001 3.513511e+001 6.691695e+001 3.659066e+001 3.061430e+001 2.455177e+001 3.806887e+000 3.117524e+000 6.708447e+000 3.656456e+000 4.236137e+000 4.294566e+000 3.663506e+000 2.480983e+000 4.096707e+000 3.837500e+000 3.266379e+000 3.646969e+000 2.635159e+000
<GCONST> 1.073481e+002
~s "ST_ih_3_1"
<MEAN> 25
 -1.889241e+000 1.587193e+000 2.136486e+001 -4.494220e+000 -1.218792e+001 1.461781e+000 -6.804099e+000 -3.928013e-001 -1.576695e+001 7.506777e+000 4.025478e+000 8.542203e-001 7.101963e-002 1.849208e-001 -2.125738e-002 -3.212194e-001 -6.439631e-003 2.212316e-002 9.044039e-002 -7.187639e-002 2.889589e-002 5.012153e-001 -9.547450e-002 1.179846e-001 -4.171284e-002
<VARIANCE> 25
 9.377284e+000 1.437318e+001 1.810646e+001 1.901248e+001 1.740139e+001 2.344338e+001 1.765440e+001 1.987837e+001 2.688727e+001 1.891212e+001 2.996561e+001 2.220537e+001 3.618608e-001 8.376729e-001 7.822973e-001 9.139387e-001 8.184295e-001 1.378897e+000 1.475423e+000 1.161938e+000 1.254446e+000 1.603941e+000 1.135740e+000 1.421027e+000 6.814856e-001
<GCONST> 8.122070e+001
~s "ST_ih_4_1"
<MEAN> 25
 -1.406727e+000 5.630400e+000 1.297358e+001 8.159791e-001 -9.561186e+000 -9.063146e-001 -1.089777e+000 -3.099206e+000 -9.885900e+000 2.831047e+000 4.243785e+000 -1.677098e+000 2.391236e-001 3.466944e-001 -1.636316e+000 9.967220e-001 8.514841e-001 -2.721421e-001 4.281254e-001 -2.262493e-001 1.141900e+000 -8.272765e-001 -3.773808e-001 -2.401567e-001 -1.034185e+000
<VARIANCE> 25
 1.225558e+001 2.100702e+001 5.775618e+001 3.686991e+001 2.615009e+001 2.759390e+001 2.996359e+001 2.496021e+001 4.564779e+001 4.582382e+001 4.401254e+001 2.525277e+001 8.250466e-001 1.219656e+000 2.555819e+000 2.652801e+000 2.707198e+000 2.451519e+000 2.575627e+000 2.803334e+000 2.566194e+000 2.984337e+000 2.135270e+000 2.281730e+000 1.309541e+000
<GCONST> 9.669804e+001
~h "b"
<BEGINHMM>
<NUMSTATES> 5
<STATE> 2
~s "ST_b_2_1"
<STATE> 3
~s "ST_b_3_1"
<STATE> 4
~s "ST_b_4_1"
~t "T_b"
<ENDHMM>
~h "d"
<BEGINHMM>
<NUMSTATES> 5
<STATE> 2
~s "ST_d_2_1"
<STATE> 3
~s "ST_d_3_1"
<STATE> 4
~s "ST_d_4_1"
~t "T_d"
<ENDHMM>
~h "g"
<BEGINHMM>
<NUMSTATES> 5
<STATE> 2
~s "ST_g_2_1"
<STATE> 3
~s "ST_g_3_1"
<STATE> 4
~s "ST_g_4_1"
~t "T_g"
<ENDHMM>
~h "h"
<BEGINHMM>
<NUMSTATES> 5
<STATE> 2
~s "ST_h_2_1"
<STATE> 3
~s "ST_h_3_1"
<STATE> 4
~s "ST_h_4_1"
~t "T_h"
<ENDHMM>
~h "j"
<BEGINHMM>
<NUMSTATES> 5
<STATE> 2
~s "ST_j_2_1"
<STATE> 3
~s "ST_j_3_1"
<STATE> 4
~s "ST_j_4_1"
~t "T_j"
<ENDHMM>
~h "k"
<BEGINHMM>
<NUMSTATES> 5
<STATE> 2
~s "ST_k_2_1"
<STATE> 3
~s "ST_k_3_1"
<STATE> 4
~s "ST_k_4_1"
~t "T_k"
<ENDHMM>
~h "l"
<BEGINHMM>
<NUMSTATES> 5
<STATE> 2
~s "ST_l_2_1"
<STATE> 3
~s "ST_l_3_1"
<STATE> 4
~s "ST_l_4_1"
~t "T_l"
<ENDHMM>
~h "m"
<BEGINHMM>
<NUMSTATES> 5
<STATE> 2
~s "ST_m_2_1"
<STATE> 3
~s "ST_m_3_1"
<STATE> 4
~s "ST_m_4_1"
~t "T_m"
<ENDHMM>
~h "n"
<BEGINHMM>
<NUMSTATES> 5
<STATE> 2
~s "ST_n_2_1"
<STATE> 3
~s "ST_n_3_1"
<STATE> 4
~s "ST_n_4_1"
~t "T_n"
<ENDHMM>
~h "o"
<BEGINHMM>
<NUMSTATES> 5
<STATE> 2
~s "ST_o_2_1"
<STATE> 3
~s "ST_o_3_1"
<STATE> 4
~s "ST_o_4_1"
~t "T_o"
<ENDHMM>
~h "p"
<BEGINHMM>
<NUMSTATES> 5
<STATE> 2
~s "ST_p_2_1"
<STATE> 3
~s "ST_p_3_1"
<STATE> 4
~s "ST_p_4_1"
~t "T_p"
<ENDHMM>
~h "r"
<BEGINHMM>
<NUMSTATES> 5
<STATE> 2
~s "ST_r_2_1"
<STATE> 3
~s "ST_r_3_1"
<STATE> 4
~s "ST_r_4_1"
~t "T_r"
<ENDHMM>
~h "s"
<BEGINHMM>
<NUMSTATES> 5
<STATE> 2
~s "ST_s_2_1"
<STATE> 3
~s "ST_s_3_1"
<STATE> 4
~s "ST_s_4_1"
~t "T_s"
<ENDHMM>
~h "t"
<BEGINHMM>
<NUMSTATES> 5
<STATE> 2
~s "ST_t_2_1"
<STATE> 3
~s "ST_t_3_1"
<STATE> 4
~s "ST_t_4_1"
~t "T_t"
<ENDHMM>
~h "w"
<BEGINHMM>
<NUMSTATES> 5
<STATE> 2
~s "ST_w_2_1"
<STATE> 3
~s "ST_w_3_1"
<STATE> 4
~s "ST_w_4_1"
~t "T_w"
<ENDHMM>
~h "y"
<BEGINHMM>
<NUMSTATES> 5
<STATE> 2
~s "ST_y_2_1"
<STATE> 3
~s "ST_y_3_1"
<STATE> 4
~s "ST_y_4_1"
~t "T_y"
<ENDHMM>
~h "t-aa"
<BEGINHMM>
<NUMSTATES> 5
<STATE> 2
~s "ST_aa_2_1"
<STATE> 3
~s "ST_aa_3_1"
<STATE> 4
~s "ST_aa_4_1"
~t "T_aa"
<ENDHMM>
~h "t-ah"
<BEGINHMM>
<NUMSTATES> 5
<STATE> 2
~s "ST_ah_2_2"
<STATE> 3
~s "ST_ah_3_1"
<STATE> 4
~s "ST_ah_4_2"
~t "T_ah"
<ENDHMM>
~h "t-ih"
<BEGINHMM>
<NUMSTATES> 5
<STATE> 2
~s "ST_ih_2_1"
<STATE> 3
~s "ST_ih_3_1"
<STATE> 4
~s "ST_ih_4_1"
~t "T_ih"
<ENDHMM>
~h "d-eh+k"
<BEGINHMM>
<NUMSTATES> 5
<STATE> 2
~s "ST_eh_2_1"
<STATE> 3
~s "ST_eh_3_1"
<STATE> 4
~s "ST_eh_4_1"
~t "T_eh"
<ENDHMM>
~h "ae"
<BEGINHMM>
<NUMSTATES> 5
<STATE> 2
~s "ST_ae_2_1"
<STATE> 3
~s "ST_ae_3_1"
<STATE> 4
~s "ST_ae_4_1"
<TRANSP> 5
 0.000000e+000 1.000000e+000 0.000000e+000 0.000000e+000 0.000000e+000
 0.000000e+000 4.777018e-001 5.222982e-001 0.000000e+000 0.000000e+000
 0.000000e+000 0.000000e+000 4.339326e-001 5.660674e-001 0.000000e+000
 0.000000e+000 0.000000e+000 0.000000e+000 9.057932e-001 9.420678e-002
 0.000000e+000 0.000000e+000 0.000000e+000 0.000000e+000 0.000000e+000
<ENDHMM>
~h "ah"
<BEGINHMM>
<NUMSTATES> 5
<STATE> 2
~s "ST_ah_2_1"
<STATE> 3
~s "ST_ah_3_1"
<STATE> 4
~s "ST_ah_4_1"
~t "T_ah"
<ENDHMM>
~h "ao"
<BEGINHMM>
<NUMSTATES> 5
<STATE> 2
~s "ST_ao_2_1"
<STATE> 3
~s "ST_ao_3_1"
<STATE> 4
~s "ST_ao_4_1"
~t "T_ao"
<ENDHMM>
~h "ch"
<BEGINHMM>
<NUMSTATES> 5
<STATE> 2
~s "ST_ch_2_1"
<STATE> 3
~s "ST_ch_3_1"
<STATE> 4
~s "ST_ch_4_1"
~t "T_ch"
<ENDHMM>
~h "iy"
<BEGINHMM>
<NUMSTATES> 5
<STATE> 2
~s "ST_iy_2_1"
<STATE> 3
~s "ST_iy_3_1"
<STATE> 4
~s "ST_iy_4_1"
~t "T_iy"
<ENDHMM>
~h "sp"
<BEGINHMM>
<NUMSTATES> 3
<STATE> 2
~s "ST_sil_3_1"
<TRANSP> 3
 0.000000e+000 5.215736e-001 4.784264e-001
 0.000000e+000 8.765774e-001 1.234226e-001
 0.000000e+000 0.000000e+000 0.000000e+000
<ENDHMM>
~h "th"
<BEGINHMM>
<NUMSTATES> 5
<STATE> 2
~s "ST_th_2_1"
<STATE> 3
~s "ST_th_3_1"
<STATE> 4
~s "ST_th_4_1"
~t "T_th"
<ENDHMM>
~h "uh"
<BEGINHMM>
<NUMSTATES> 5
<STATE> 2
~s "ST_uh_2_1"
<STATE> 3
~s "ST_uh_3_1"
<STATE> 4
~s "ST_uh_4_1"
~t "T_uh"
<ENDHMM>
~h "h-ah+ah"
<BEGINHMM>
<NUMSTATES> 5
<STATE> 2
~s "ST_ah_2_3"
<STATE> 3
~s "ST_ah_3_3"
<STATE> 4
~s "ST_ah_4_1"
~t "T_ah"
<ENDHMM>
~h "h-ah+th"
<BEGINHMM>
<NUMSTATES> 5
<STATE> 2
~s "ST_ah_2_3"
<STATE> 3
~s "ST_ah_3_3"
<STATE> 4
~s "ST_ah_4_3"
~t "T_ah"
<ENDHMM>
~h "k-ae+th"
<BEGINHMM>
<NUMSTATES> 5
<STATE> 2
~s "ST_ae_2_1"
<STATE> 3
~s "ST_ae_3_1"
<STATE> 4
~s "ST_ae_4_1"
~t "T_ae"
<ENDHMM>
~h "m-ah+g"
<BEGINHMM>
<NUMSTATES> 5
<STATE> 2
~s "ST_ah_2_3"
<STATE> 3
~s "ST_ah_3_3"
<STATE> 4
~s "ST_ah_4_2"
~t "T_ah"
<ENDHMM>
~h "m-ah"
<BEGINHMM>
<NUMSTATES> 5
<STATE> 2
~s "ST_ah_2_1"
<STATE> 3
~s "ST_ah_3_1"
<STATE> 4
~s "ST_ah_4_2"
~t "T_ah"
<ENDHMM>
~h "eh-n+ah"
<BEGINHMM>
<NUMSTATES> 5
<STATE> 2
~s "ST_n_2_1"
<STATE> 3
~s "ST_n_3_1"
<STATE> 4
~s "ST_n_4_2"
~t "T_n"
<ENDHMM>
~h "n-ah"
<BEGINHMM>
<NUMSTATES> 5
<STATE> 2
~s "ST_ah_2_2"
<STATE> 3
~s "ST_ah_3_2"
<STATE> 4
~s "ST_ah_4_2"
~t "T_ah"
<ENDHMM>
~h "sil"
<BEGINHMM>
<NUMSTATES> 5
<STATE> 2
~s "ST_sil_2_1"
<STATE> 3
~s "ST_sil_3_1"
<STATE> 4
~s "ST_sil_4_1"
<TRANSP> 5
 0.000000e+000 1.000000e+000 0.000000e+000 0.000000e+000 0.000000e+000
 0.000000e+000 3.587882e-001 2.351677e-001 4.060441e-001 0.000000e+000
 0.000000e+000 0.000000e+000 7.291099e-001 2.708901e-001 0.000000e+000
 0.000000e+000 2.151465e-002 0.000000e+000 6.839414e-001 2.945440e-001
 0.000000e+000 0.000000e+000 0.000000e+000 0.000000e+000 0.000000e+000
<ENDHMM>
