~h "aa"
<BEGINHMM>
<NUMSTATES> 5
<STATE> 2
<MEAN> 25
 -1.269614e-008 6.150066e-008 5.395258e-008 1.256654e-007 4.702851e-008 1.127652e-007 8.928097e-008 -8.971297e-008 -1.155853e-007 3.507038e-008 2.539227e-008 -1.068252e-007 4.637253e-003 1.316432e-003 2.617990e-003 -2.432724e-003 -1.110046e-002 -7.457927e-003 -6.235132e-003 2.702022e-003 -5.383956e-003 -9.665225e-004 -2.606054e-003 -2.915752e-003 1.023890e-003
<VARIANCE> 25
 4.827732e+001 5.891769e+001 1.135399e+002 8.970766e+001 7.509954e+001 5.927683e+001 6.362722e+001 5.887491e+001 6.741764e+001 5.673739e+001 4.680426e+001 3.099930e+001 1.793337e+000 2.423446e+000 3.181031e+000 3.938924e+000 2.553319e+000 2.584314e+000 3.072282e+000 3.276304e+000 2.817446e+000 3.084780e+000 2.604987e+000 1.986813e+000 2.895799e+000
<GCONST> 1.083504e+002
<STATE> 3
<MEAN> 25
 -1.269614e-008 6.150066e-008 5.395258e-008 1.256654e-007 4.702851e-008 1.127652e-007 8.928097e-008 -8.971297e-008 -1.155853e-007 3.507038e-008 2.539227e-008 -1.068252e-007 4.637253e-003 1.316432e-003 2.617990e-003 -2.432724e-003 -1.110046e-002 -7.457927e-003 -6.235132e-003 2.702022e-003 -5.383956e-003 -9.665225e-004 -2.606054e-003 -2.915752e-003 1.023890e-003
<VARIANCE> 25
 4.827732e+001 5.891769e+001 1.135399e+002 8.970766e+001 7.509954e+001 5.927683e+001 6.362722e+001 5.887491e+001 6.741764e+001 5.673739e+001 4.680426e+001 3.099930e+001 1.793337e+000 2.423446e+000 3.181031e+000 3.938924e+000 2.553319e+000 2.584314e+000 3.072282e+000 3.276304e+000 2.817446e+000 3.084780e+000 2.604987e+000 1.986813e+000 2.895799e+000
<GCONST> 1.083504e+002
<STATE> 4
<MEAN> 25
 -1.269614e-008 6.150066e-008 5.395258e-008 1.256654e-007 4.702851e-008 1.127652e-007 8.928097e-008 -8.971297e-008 -1.155853e-007 3.507038e-008 2.539227e-008 -1.068252e-007 4.637253e-003 1.316432e-003 2.617990e-003 -2.432724e-003 -1.110046e-002 -7.457927e-003 -6.235132e-003 2.702022e-003 -5.383956e-003 -9.665225e-004 -2.606054e-003 -2.915752e-003 1.023890e-003
<VARIANCE> 25
 4.827732e+001 5.891769e+001 1.135399e+002 8.970766e+001 7.509954e+001 5.927683e+001 6.362722e+001 5.887491e+001 6.741764e+001 5.673739e+001 4.680426e+001 3.099930e+001 1.793337e+000 2.423446e+000 3.181031e+000 3.938924e+000 2.553319e+000 2.584314e+000 3.072282e+000 3.276304e+000 2.817446e+000 3.084780e+000 2.604987e+000 1.986813e+000 2.895799e+000
<GCONST> 1.083504e+002
<TRANSP> 5
 0.000000e+000 1.000000e+000 0.000000e+000 0.000000e+000 0.000000e+000
 0.000000e+000 6.000000e-001 4.000000e-001 0.000000e+000 0.000000e+000
 0.000000e+000 0.000000e+000 6.000000e-001 4.000000e-001 0.000000e+000
 0.000000e+000 0.000000e+000 0.000000e+000 7.000000e-001 3.000000e-001
 0.000000e+000 0.000000e+000 0.000000e+000 0.000000e+000 0.000000e+000
<ENDHMM>
~h "l"
<BEGINHMM>
<NUMSTATES> 5
<STATE> 2
<MEAN> 25
 -1.269614e-008 6.150066e-008 5.395258e-008 1.256654e-007 4.702851e-008 1.127652e-007 8.928097e-008 -8.971297e-008 -1.155853e-007 3.507038e-008 2.539227e-008 -1.068252e-007 4.637253e-003 1.316432e-003 2.617990e-003 -2.432724e-003 -1.110046e-002 -7.457927e-003 -6.235132e-003 2.702022e-003 -5.383956e-003 -9.665225e-004 -2.606054e-003 -2.915752e-003 1.023890e-003
<VARIANCE> 25
 4.827732e+001 5.891769e+001 1.135399e+002 8.970766e+001 7.509954e+001 5.927683e+001 6.362722e+001 5.887491e+001 6.741764e+001 5.673739e+001 4.680426e+001 3.099930e+001 1.793337e+000 2.423446e+000 3.181031e+000 3.938924e+000 2.553319e+000 2.584314e+000 3.072282e+000 3.276304e+000 2.817446e+000 3.084780e+000 2.604987e+000 1.986813e+000 2.895799e+000
<GCONST> 1.083504e+002
<STATE> 3
<MEAN> 25
 -1.269614e-008 6.150066e-008 5.395258e-008 1.256654e-007 4.702851e-008 1.127652e-007 8.928097e-008 -8.971297e-008 -1.155853e-007 3.507038e-008 2.539227e-008 -1.068252e-007 4.637253e-003 1.316432e-003 2.617990e-003 -2.432724e-003 -1.110046e-002 -7.457927e-003 -6.235132e-003 2.702022e-003 -5.383956e-003 -9.665225e-004 -2.606054e-003 -2.915752e-003 1.023890e-003
<VARIANCE> 25
 4.827732e+001 5.891769e+001 1.135399e+002 8.970766e+001 7.509954e+001 5.927683e+001 6.362722e+001 5.887491e+001 6.741764e+001 5.673739e+001 4.680426e+001 3.099930e+001 1.793337e+000 2.423446e+000 3.181031e+000 3.938924e+000 2.553319e+000 2.584314e+000 3.072282e+000 3.276304e+000 2.817446e+000 3.084780e+000 2.604987e+000 1.986813e+000 2.895799e+000
<GCONST> 1.083504e+002
<STATE> 4
<MEAN> 25
 -1.269614e-008 6.150066e-008 5.395258e-008 1.256654e-007 4.702851e-008 1.127652e-007 8.928097e-008 -8.971297e-008 -1.155853e-007 3.507038e-008 2.539227e-008 -1.068252e-007 4.637253e-003 1.316432e-003 2.617990e-003 -2.432724e-003 -1.110046e-002 -7.457927e-003 -6.235132e-003 2.702022e-003 -5.383956e-003 -9.665225e-004 -2.606054e-003 -2.915752e-003 1.023890e-003
<VARIANCE> 25
 4.827732e+001 5.891769e+001 1.135399e+002 8.970766e+001 7.509954e+001 5.927683e+001 6.362722e+001 5.887491e+001 6.741764e+001 5.673739e+001 4.680426e+001 3.099930e+001 1.793337e+000 2.423446e+000 3.181031e+000 3.938924e+000 2.553319e+000 2.584314e+000 3.072282e+000 3.276304e+000 2.817446e+000 3.084780e+000 2.604987e+000 1.986813e+000 2.895799e+000
<GCONST> 1.083504e+002
<TRANSP> 5
 0.000000e+000 1.000000e+000 0.000000e+000 0.000000e+000 0.000000e+000
 0.000000e+000 6.000000e-001 4.000000e-001 0.000000e+000 0.000000e+000
 0.000000e+000 0.000000e+000 6.000000e-001 4.000000e-001 0.000000e+000
 0.000000e+000 0.000000e+000 0.000000e+000 7.000000e-001 3.000000e-001
 0.000000e+000 0.000000e+000 0.000000e+000 0.000000e+000 0.000000e+000
<ENDHMM>
~h "ao"
<BEGINHMM>
<NUMSTATES> 5
<STATE> 2
<MEAN> 25
 -1.269614e-008 6.150066e-008 5.395258e-008 1.256654e-007 4.702851e-008 1.127652e-007 8.928097e-008 -8.971297e-008 -1.155853e-007 3.507038e-008 2.539227e-008 -1.068252e-007 4.637253e-003 1.316432e-003 2.617990e-003 -2.432724e-003 -1.110046e-002 -7.457927e-003 -6.235132e-003 2.702022e-003 -5.383956e-003 -9.665225e-004 -2.606054e-003 -2.915752e-003 1.023890e-003
<VARIANCE> 25
 4.827732e+001 5.891769e+001 1.135399e+002 8.970766e+001 7.509954e+001 5.927683e+001 6.362722e+001 5.887491e+001 6.741764e+001 5.673739e+001 4.680426e+001 3.099930e+001 1.793337e+000 2.423446e+000 3.181031e+000 3.938924e+000 2.553319e+000 2.584314e+000 3.072282e+000 3.276304e+000 2.817446e+000 3.084780e+000 2.604987e+000 1.986813e+000 2.895799e+000
<GCONST> 1.083504e+002
<STATE> 3
<MEAN> 25
 -1.269614e-008 6.150066e-008 5.395258e-008 1.256654e-007 4.702851e-008 1.127652e-007 8.928097e-008 -8.971297e-008 -1.155853e-007 3.507038e-008 2.539227e-008 -1.068252e-007 4.637253e-003 1.316432e-003 2.617990e-003 -2.432724e-003 -1.110046e-002 -7.457927e-003 -6.235132e-003 2.702022e-003 -5.383956e-003 -9.665225e-004 -2.606054e-003 -2.915752e-003 1.023890e-003
<VARIANCE> 25
 4.827732e+001 5.891769e+001 1.135399e+002 8.970766e+001 7.509954e+001 5.927683e+001 6.362722e+001 5.887491e+001 6.741764e+001 5.673739e+001 4.680426e+001 3.099930e+001 1.793337e+000 2.423446e+000 3.181031e+000 3.938924e+000 2.553319e+000 2.584314e+000 3.072282e+000 3.276304e+000 2.817446e+000 3.084780e+000 2.604987e+000 1.986813e+000 2.895799e+000
<GCONST> 1.083504e+002
<STATE> 4
<MEAN> 25
 -1.269614e-008 6.150066e-008 5.395258e-008 1.256654e-007 4.702851e-008 1.127652e-007 8.928097e-008 -8.971297e-008 -1.155853e-007 3.507038e-008 2.539227e-008 -1.068252e-007 4.637253e-003 1.316432e-003 2.617990e-003 -2.432724e-003 -1.110046e-002 -7.457927e-003 -6.235132e-003 2.702022e-003 -5.383956e-003 -9.665225e-004 -2.606054e-003 -2.915752e-003 1.023890e-003
<VARIANCE> 25
 4.827732e+001 5.891769e+001 1.135399e+002 8.970766e+001 7.509954e+001 5.927683e+001 6.362722e+001 5.887491e+001 6.741764e+001 5.673739e+001 4.680426e+001 3.099930e+001 1.793337e+000 2.423446e+000 3.181031e+000 3.938924e+000 2.553319e+000 2.584314e+000 3.072282e+000 3.276304e+000 2.817446e+000 3.084780e+000 2.604987e+000 1.986813e+000 2.895799e+000
<GCONST> 1.083504e+002
<TRANSP> 5
 0.000000e+000 1.000000e+000 0.000000e+000 0.000000e+000 0.000000e+000
 0.000000e+000 6.000000e-001 4.000000e-001 0.000000e+000 0.000000e+000
 0.000000e+000 0.000000e+000 6.000000e-001 4.000000e-001 0.000000e+000
 0.000000e+000 0.000000e+000 0.000000e+000 7.000000e-001 3.000000e-001
 0.000000e+000 0.000000e+000 0.000000e+000 0.000000e+000 0.000000e+000
<ENDHMM>
~h "k"
<BEGINHMM>
<NUMSTATES> 5
<STATE> 2
<MEAN> 25
 -1.269614e-008 6.150066e-008 5.395258e-008 1.256654e-007 4.702851e-008 1.127652e-007 8.928097e-008 -8.971297e-008 -1.155853e-007 3.507038e-008 2.539227e-008 -1.068252e-007 4.637253e-003 1.316432e-003 2.617990e-003 -2.432724e-003 -1.110046e-002 -7.457927e-003 -6.235132e-003 2.702022e-003 -5.383956e-003 -9.665225e-004 -2.606054e-003 -2.915752e-003 1.023890e-003
<VARIANCE> 25
 4.827732e+001 5.891769e+001 1.135399e+002 8.970766e+001 7.509954e+001 5.927683e+001 6.362722e+001 5.887491e+001 6.741764e+001 5.673739e+001 4.680426e+001 3.099930e+001 1.793337e+000 2.423446e+000 3.181031e+000 3.938924e+000 2.553319e+000 2.584314e+000 3.072282e+000 3.276304e+000 2.817446e+000 3.084780e+000 2.604987e+000 1.986813e+000 2.895799e+000
<GCONST> 1.083504e+002
<STATE> 3
<MEAN> 25
 -1.269614e-008 6.150066e-008 5.395258e-008 1.256654e-007 4.702851e-008 1.127652e-007 8.928097e-008 -8.971297e-008 -1.155853e-007 3.507038e-008 2.539227e-008 -1.068252e-007 4.637253e-003 1.316432e-003 2.617990e-003 -2.432724e-003 -1.110046e-002 -7.457927e-003 -6.235132e-003 2.702022e-003 -5.383956e-003 -9.665225e-004 -2.606054e-003 -2.915752e-003 1.023890e-003
<VARIANCE> 25
 4.827732e+001 5.891769e+001 1.135399e+002 8.970766e+001 7.509954e+001 5.927683e+001 6.362722e+001 5.887491e+001 6.741764e+001 5.673739e+001 4.680426e+001 3.099930e+001 1.793337e+000 2.423446e+000 3.181031e+000 3.938924e+000 2.553319e+000 2.584314e+000 3.072282e+000 3.276304e+000 2.817446e+000 3.084780e+000 2.604987e+000 1.986813e+000 2.895799e+000
<GCONST> 1.083504e+002
<STATE> 4
<MEAN> 25
 -1.269614e-008 6.150066e-008 5.395258e-008 1.256654e-007 4.702851e-008 1.127652e-007 8.928097e-008 -8.971297e-008 -1.155853e-007 3.507038e-008 2.539227e-008 -1.068252e-007 4.637253e-003 1.316432e-003 2.617990e-003 -2.432724e-003 -1.110046e-002 -7.457927e-003 -6.235132e-003 2.702022e-003 -5.383956e-003 -9.665225e-004 -2.606054e-003 -2.915752e-003 1.023890e-003
<VARIANCE> 25
 4.827732e+001 5.891769e+001 1.135399e+002 8.970766e+001 7.509954e+001 5.927683e+001 6.362722e+001 5.887491e+001 6.741764e+001 5.673739e+001 4.680426e+001 3.099930e+001 1.793337e+000 2.423446e+000 3.181031e+000 3.938924e+000 2.553319e+000 2.584314e+000 3.072282e+000 3.276304e+000 2.817446e+000 3.084780e+000 2.604987e+000 1.986813e+000 2.895799e+000
<GCONST> 1.083504e+002
<TRANSP> 5
 0.000000e+000 1.000000e+000 0.000000e+000 0.000000e+000 0.000000e+000
 0.000000e+000 6.000000e-001 4.000000e-001 0.000000e+000 0.000000e+000
 0.000000e+000 0.000000e+000 6.000000e-001 4.000000e-001 0.000000e+000
 0.000000e+000 0.000000e+000 0.000000e+000 7.000000e-001 3.000000e-001
 0.000000e+000 0.000000e+000 0.000000e+000 0.000000e+000 0.000000e+000
<ENDHMM>
~h "eh"
<BEGINHMM>
<NUMSTATES> 5
<STATE> 2
<MEAN> 25
 -1.269614e-008 6.150066e-008 5.395258e-008 1.256654e-007 4.702851e-008 1.127652e-007 8.928097e-008 -8.971297e-008 -1.155853e-007 3.507038e-008 2.539227e-008 -1.068252e-007 4.637253e-003 1.316432e-003 2.617990e-003 -2.432724e-003 -1.110046e-002 -7.457927e-003 -6.235132e-003 2.702022e-003 -5.383956e-003 -9.665225e-004 -2.606054e-003 -2.915752e-003 1.023890e-003
<VARIANCE> 25
 4.827732e+001 5.891769e+001 1.135399e+002 8.970766e+001 7.509954e+001 5.927683e+001 6.362722e+001 5.887491e+001 6.741764e+001 5.673739e+001 4.680426e+001 3.099930e+001 1.793337e+000 2.423446e+000 3.181031e+000 3.938924e+000 2.553319e+000 2.584314e+000 3.072282e+000 3.276304e+000 2.817446e+000 3.084780e+000 2.604987e+000 1.986813e+000 2.895799e+000
<GCONST> 1.083504e+002
<STATE> 3
<MEAN> 25
 -1.269614e-008 6.150066e-008 5.395258e-008 1.256654e-007 4.702851e-008 1.127652e-007 8.928097e-008 -8.971297e-008 -1.155853e-007 3.507038e-008 2.539227e-008 -1.068252e-007 4.637253e-003 1.316432e-003 2.617990e-003 -2.432724e-003 -1.110046e-002 -7.457927e-003 -6.235132e-003 2.702022e-003 -5.383956e-003 -9.665225e-004 -2.606054e-003 -2.915752e-003 1.023890e-003
<VARIANCE> 25
 4.827732e+001 5.891769e+001 1.135399e+002 8.970766e+001 7.509954e+001 5.927683e+001 6.362722e+001 5.887491e+001 6.741764e+001 5.673739e+001 4.680426e+001 3.099930e+001 1.793337e+000 2.423446e+000 3.181031e+000 3.938924e+000 2.553319e+000 2.584314e+000 3.072282e+000 3.276304e+000 2.817446e+000 3.084780e+000 2.604987e+000 1.986813e+000 2.895799e+000
<GCONST> 1.083504e+002
<STATE> 4
<MEAN> 25
 -1.269614e-008 6.150066e-008 5.395258e-008 1.256654e-007 4.702851e-008 1.127652e-007 8.928097e-008 -8.971297e-008 -1.155853e-007 3.507038e-008 2.539227e-008 -1.068252e-007 4.637253e-003 1.316432e-003 2.617990e-003 -2.432724e-003 -1.110046e-002 -7.457927e-003 -6.235132e-003 2.702022e-003 -5.383956e-003 -9.665225e-004 -2.606054e-003 -2.915752e-003 1.023890e-003
<VARIANCE> 25
 4.827732e+001 5.891769e+001 1.135399e+002 8.970766e+001 7.509954e+001 5.927683e+001 6.362722e+001 5.887491e+001 6.741764e+001 5.673739e+001 4.680426e+001 3.099930e+001 1.793337e+000 2.423446e+000 3.181031e+000 3.938924e+000 2.553319e+000 2.584314e+000 3.072282e+000 3.276304e+000 2.817446e+000 3.084780e+000 2.604987e+000 1.986813e+000 2.895799e+000
<GCONST> 1.083504e+002
<TRANSP> 5
 0.000000e+000 1.000000e+000 0.000000e+000 0.000000e+000 0.000000e+000
 0.000000e+000 6.000000e-001 4.000000e-001 0.000000e+000 0.000000e+000
 0.000000e+000 0.000000e+000 6.000000e-001 4.000000e-001 0.000000e+000
 0.000000e+000 0.000000e+000 0.000000e+000 7.000000e-001 3.000000e-001
 0.000000e+000 0.000000e+000 0.000000e+000 0.000000e+000 0.000000e+000
<ENDHMM>
~h "p"
<BEGINHMM>
<NUMSTATES> 5
<STATE> 2
<MEAN> 25
 -1.269614e-008 6.150066e-008 5.395258e-008 1.256654e-007 4.702851e-008 1.127652e-007 8.928097e-008 -8.971297e-008 -1.155853e-007 3.507038e-008 2.539227e-008 -1.068252e-007 4.637253e-003 1.316432e-003 2.617990e-003 -2.432724e-003 -1.110046e-002 -7.457927e-003 -6.235132e-003 2.702022e-003 -5.383956e-003 -9.665225e-004 -2.606054e-003 -2.915752e-003 1.023890e-003
<VARIANCE> 25
 4.827732e+001 5.891769e+001 1.135399e+002 8.970766e+001 7.509954e+001 5.927683e+001 6.362722e+001 5.887491e+001 6.741764e+001 5.673739e+001 4.680426e+001 3.099930e+001 1.793337e+000 2.423446e+000 3.181031e+000 3.938924e+000 2.553319e+000 2.584314e+000 3.072282e+000 3.276304e+000 2.817446e+000 3.084780e+000 2.604987e+000 1.986813e+000 2.895799e+000
<GCONST> 1.083504e+002
<STATE> 3
<MEAN> 25
 -1.269614e-008 6.150066e-008 5.395258e-008 1.256654e-007 4.702851e-008 1.127652e-007 8.928097e-008 -8.971297e-008 -1.155853e-007 3.507038e-008 2.539227e-008 -1.068252e-007 4.637253e-003 1.316432e-003 2.617990e-003 -2.432724e-003 -1.110046e-002 -7.457927e-003 -6.235132e-003 2.702022e-003 -5.383956e-003 -9.665225e-004 -2.606054e-003 -2.915752e-003 1.023890e-003
<VARIANCE> 25
 4.827732e+001 5.891769e+001 1.135399e+002 8.970766e+001 7.509954e+001 5.927683e+001 6.362722e+001 5.887491e+001 6.741764e+001 5.673739e+001 4.680426e+001 3.099930e+001 1.793337e+000 2.423446e+000 3.181031e+000 3.938924e+000 2.553319e+000 2.584314e+000 3.072282e+000 3.276304e+000 2.817446e+000 3.084780e+000 2.604987e+000 1.986813e+000 2.895799e+000
<GCONST> 1.083504e+002
<STATE> 4
<MEAN> 25
 -1.269614e-008 6.150066e-008 5.395258e-008 1.256654e-007 4.702851e-008 1.127652e-007 8.928097e-008 -8.971297e-008 -1.155853e-007 3.507038e-008 2.539227e-008 -1.068252e-007 4.637253e-003 1.316432e-003 2.617990e-003 -2.432724e-003 -1.110046e-002 -7.457927e-003 -6.235132e-003 2.702022e-003 -5.383956e-003 -9.665225e-004 -2.606054e-003 -2.915752e-003 1.023890e-003
<VARIANCE> 25
 4.827732e+001 5.891769e+001 1.135399e+002 8.970766e+001 7.509954e+001 5.927683e+001 6.362722e+001 5.887491e+001 6.741764e+001 5.673739e+001 4.680426e+001 3.099930e+001 1.793337e+000 2.423446e+000 3.181031e+000 3.938924e+000 2.553319e+000 2.584314e+000 3.072282e+000 3.276304e+000 2.817446e+000 3.084780e+000 2.604987e+000 1.986813e+000 2.895799e+000
<GCONST> 1.083504e+002
<TRANSP> 5
 0.000000e+000 1.000000e+000 0.000000e+000 0.000000e+000 0.000000e+000
 0.000000e+000 6.000000e-001 4.000000e-001 0.000000e+000 0.000000e+000
 0.000000e+000 0.000000e+000 6.000000e-001 4.000000e-001 0.000000e+000
 0.000000e+000 0.000000e+000 0.000000e+000 7.000000e-001 3.000000e-001
 0.000000e+000 0.000000e+000 0.000000e+000 0.000000e+000 0.000000e+000
<ENDHMM>
~h "ah"
<BEGINHMM>
<NUMSTATES> 5
<STATE> 2
<MEAN> 25
 -1.269614e-008 6.150066e-008 5.395258e-008 1.256654e-007 4.702851e-008 1.127652e-007 8.928097e-008 -8.971297e-008 -1.155853e-007 3.507038e-008 2.539227e-008 -1.068252e-007 4.637253e-003 1.316432e-003 2.617990e-003 -2.432724e-003 -1.110046e-002 -7.457927e-003 -6.235132e-003 2.702022e-003 -5.383956e-003 -9.665225e-004 -2.606054e-003 -2.915752e-003 1.023890e-003
<VARIANCE> 25
 4.827732e+001 5.891769e+001 1.135399e+002 8.970766e+001 7.509954e+001 5.927683e+001 6.362722e+001 5.887491e+001 6.741764e+001 5.673739e+001 4.680426e+001 3.099930e+001 1.793337e+000 2.423446e+000 3.181031e+000 3.938924e+000 2.553319e+000 2.584314e+000 3.072282e+000 3.276304e+000 2.817446e+000 3.084780e+000 2.604987e+000 1.986813e+000 2.895799e+000
<GCONST> 1.083504e+002
<STATE> 3
<MEAN> 25
 -1.269614e-008 6.150066e-008 5.395258e-008 1.256654e-007 4.702851e-008 1.127652e-007 8.928097e-008 -8.971297e-008 -1.155853e-007 3.507038e-008 2.539227e-008 -1.068252e-007 4.637253e-003 1.316432e-003 2.617990e-003 -2.432724e-003 -1.110046e-002 -7.457927e-003 -6.235132e-003 2.702022e-003 -5.383956e-003 -9.665225e-004 -2.606054e-003 -2.915752e-003 1.023890e-003
<VARIANCE> 25
 4.827732e+001 5.891769e+001 1.135399e+002 8.970766e+001 7.509954e+001 5.927683e+001 6.362722e+001 5.887491e+001 6.741764e+001 5.673739e+001 4.680426e+001 3.099930e+001 1.793337e+000 2.423446e+000 3.181031e+000 3.938924e+000 2.553319e+000 2.584314e+000 3.072282e+000 3.276304e+000 2.817446e+000 3.084780e+000 2.604987e+000 1.986813e+000 2.895799e+000
<GCONST> 1.083504e+002
<STATE> 4
<MEAN> 25
 -1.269614e-008 6.150066e-008 5.395258e-008 1.256654e-007 4.702851e-008 1.127652e-007 8.928097e-008 -8.971297e-008 -1.155853e-007 3.507038e-008 2.539227e-008 -1.068252e-007 4.637253e-003 1.316432e-003 2.617990e-003 -2.432724e-003 -1.110046e-002 -7.457927e-003 -6.235132e-003 2.702022e-003 -5.383956e-003 -9.665225e-004 -2.606054e-003 -2.915752e-003 1.023890e-003
<VARIANCE> 25
 4.827732e+001 5.891769e+001 1.135399e+002 8.970766e+001 7.509954e+001 5.927683e+001 6.362722e+001 5.887491e+001 6.741764e+001 5.673739e+001 4.680426e+001 3.099930e+001 1.793337e+000 2.423446e+000 3.181031e+000 3.938924e+000 2.553319e+000 2.584314e+000 3.072282e+000 3.276304e+000 2.817446e+000 3.084780e+000 2.604987e+000 1.986813e+000 2.895799e+000
<GCONST> 1.083504e+002
<TRANSP> 5
 0.000000e+000 1.000000e+000 0.000000e+000 0.000000e+000 0.000000e+000
 0.000000e+000 6.000000e-001 4.000000e-001 0.000000e+000 0.000000e+000
 0.000000e+000 0.000000e+000 6.000000e-001 4.000000e-001 0.000000e+000
 0.000000e+000 0.000000e+000 0.000000e+000 7.000000e-001 3.000000e-001
 0.000000e+000 0.000000e+000 0.000000e+000 0.000000e+000 0.000000e+000
<ENDHMM>
~h "n"
<BEGINHMM>
<NUMSTATES> 5
<STATE> 2
<MEAN> 25
 -1.269614e-008 6.150066e-008 5.395258e-008 1.256654e-007 4.702851e-008 1.127652e-007 8.928097e-008 -8.971297e-008 -1.155853e-007 3.507038e-008 2.539227e-008 -1.068252e-007 4.637253e-003 1.316432e-003 2.617990e-003 -2.432724e-003 -1.110046e-002 -7.457927e-003 -6.235132e-003 2.702022e-003 -5.383956e-003 -9.665225e-004 -2.606054e-003 -2.915752e-003 1.023890e-003
<VARIANCE> 25
 4.827732e+001 5.891769e+001 1.135399e+002 8.970766e+001 7.509954e+001 5.927683e+001 6.362722e+001 5.887491e+001 6.741764e+001 5.673739e+001 4.680426e+001 3.099930e+001 1.793337e+000 2.423446e+000 3.181031e+000 3.938924e+000 2.553319e+000 2.584314e+000 3.072282e+000 3.276304e+000 2.817446e+000 3.084780e+000 2.604987e+000 1.986813e+000 2.895799e+000
<GCONST> 1.083504e+002
<STATE> 3
<MEAN> 25
 -1.269614e-008 6.150066e-008 5.395258e-008 1.256654e-007 4.702851e-008 1.127652e-007 8.928097e-008 -8.971297e-008 -1.155853e-007 3.507038e-008 2.539227e-008 -1.068252e-007 4.637253e-003 1.316432e-003 2.617990e-003 -2.432724e-003 -1.110046e-002 -7.457927e-003 -6.235132e-003 2.702022e-003 -5.383956e-003 -9.665225e-004 -2.606054e-003 -2.915752e-003 1.023890e-003
<VARIANCE> 25
 4.827732e+001 5.891769e+001 1.135399e+002 8.970766e+001 7.509954e+001 5.927683e+001 6.362722e+001 5.887491e+001 6.741764e+001 5.673739e+001 4.680426e+001 3.099930e+001 1.793337e+000 2.423446e+000 3.181031e+000 3.938924e+000 2.553319e+000 2.584314e+000 3.072282e+000 3.276304e+000 2.817446e+000 3.084780e+000 2.604987e+000 1.986813e+000 2.895799e+000
<GCONST> 1.083504e+002
<STATE> 4
<MEAN> 25
 -1.269614e-008 6.150066e-008 5.395258e-008 1.256654e-007 4.702851e-008 1.127652e-007 8.928097e-008 -8.971297e-008 -1.155853e-007 3.507038e-008 2.539227e-008 -1.068252e-007 4.637253e-003 1.316432e-003 2.617990e-003 -2.432724e-003 -1.110046e-002 -7.457927e-003 -6.235132e-003 2.702022e-003 -5.383956e-003 -9.665225e-004 -2.606054e-003 -2.915752e-003 1.023890e-003
<VARIANCE> 25
 4.827732e+001 5.891769e+001 1.135399e+002 8.970766e+001 7.509954e+001 5.927683e+001 6.362722e+001 5.887491e+001 6.741764e+001 5.673739e+001 4.680426e+001 3.099930e+001 1.793337e+000 2.423446e+000 3.181031e+000 3.938924e+000 2.553319e+000 2.584314e+000 3.072282e+000 3.276304e+000 2.817446e+000 3.084780e+000 2.604987e+000 1.986813e+000 2.895799e+000
<GCONST> 1.083504e+002
<TRANSP> 5
 0.000000e+000 1.000000e+000 0.000000e+000 0.000000e+000 0.000000e+000
 0.000000e+000 6.000000e-001 4.000000e-001 0.000000e+000 0.000000e+000
 0.000000e+000 0.000000e+000 6.000000e-001 4.000000e-001 0.000000e+000
 0.000000e+000 0.000000e+000 0.000000e+000 7.000000e-001 3.000000e-001
 0.000000e+000 0.000000e+000 0.000000e+000 0.000000e+000 0.000000e+000
<ENDHMM>
~h "s"
<BEGINHMM>
<NUMSTATES> 5
<STATE> 2
<MEAN> 25
 -1.269614e-008 6.150066e-008 5.395258e-008 1.256654e-007 4.702851e-008 1.127652e-007 8.928097e-008 -8.971297e-008 -1.155853e-007 3.507038e-008 2.539227e-008 -1.068252e-007 4.637253e-003 1.316432e-003 2.617990e-003 -2.432724e-003 -1.110046e-002 -7.457927e-003 -6.235132e-003 2.702022e-003 -5.383956e-003 -9.665225e-004 -2.606054e-003 -2.915752e-003 1.023890e-003
<VARIANCE> 25
 4.827732e+001 5.891769e+001 1.135399e+002 8.970766e+001 7.509954e+001 5.927683e+001 6.362722e+001 5.887491e+001 6.741764e+001 5.673739e+001 4.680426e+001 3.099930e+001 1.793337e+000 2.423446e+000 3.181031e+000 3.938924e+000 2.553319e+000 2.584314e+000 3.072282e+000 3.276304e+000 2.817446e+000 3.084780e+000 2.604987e+000 1.986813e+000 2.895799e+000
<GCONST> 1.083504e+002
<STATE> 3
<MEAN> 25
 -1.269614e-008 6.150066e-008 5.395258e-008 1.256654e-007 4.702851e-008 1.127652e-007 8.928097e-008 -8.971297e-008 -1.155853e-007 3.507038e-008 2.539227e-008 -1.068252e-007 4.637253e-003 1.316432e-003 2.617990e-003 -2.432724e-003 -1.110046e-002 -7.457927e-003 -6.235132e-003 2.702022e-003 -5.383956e-003 -9.665225e-004 -2.606054e-003 -2.915752e-003 1.023890e-003
<VARIANCE> 25
 4.827732e+001 5.891769e+001 1.135399e+002 8.970766e+001 7.509954e+001 5.927683e+001 6.362722e+001 5.887491e+001 6.741764e+001 5.673739e+001 4.680426e+001 3.099930e+001 1.793337e+000 2.423446e+000 3.181031e+000 3.938924e+000 2.553319e+000 2.584314e+000 3.072282e+000 3.276304e+000 2.817446e+000 3.084780e+000 2.604987e+000 1.986813e+000 2.895799e+000
<GCONST> 1.083504e+002
<STATE> 4
<MEAN> 25
 -1.269614e-008 6.150066e-008 5.395258e-008 1.256654e-007 4.702851e-008 1.127652e-007 8.928097e-008 -8.971297e-008 -1.155853e-007 3.507038e-008 2.539227e-008 -1.068252e-007 4.637253e-003 1.316432e-003 2.617990e-003 -2.432724e-003 -1.110046e-002 -7.457927e-003 -6.235132e-003 2.702022e-003 -5.383956e-003 -9.665225e-004 -2.606054e-003 -2.915752e-003 1.023890e-003
<VARIANCE> 25
 4.827732e+001 5.891769e+001 1.135399e+002 8.970766e+001 7.509954e+001 5.927683e+001 6.362722e+001 5.887491e+001 6.741764e+001 5.673739e+001 4.680426e+001 3.099930e+001 1.793337e+000 2.423446e+000 3.181031e+000 3.938924e+000 2.553319e+000 2.584314e+000 3.072282e+000 3.276304e+000 2.817446e+000 3.084780e+000 2.604987e+000 1.986813e+000 2.895799e+000
<GCONST> 1.083504e+002
<TRANSP> 5
 0.000000e+000 1.000000e+000 0.000000e+000 0.000000e+000 0.000000e+000
 0.000000e+000 6.000000e-001 4.000000e-001 0.000000e+000 0.000000e+000
 0.000000e+000 0.000000e+000 6.000000e-001 4.000000e-001 0.000000e+000
 0.000000e+000 0.000000e+000 0.000000e+000 7.000000e-001 3.000000e-001
 0.000000e+000 0.000000e+000 0.000000e+000 0.000000e+000 0.000000e+000
<ENDHMM>
~h "r"
<BEGINHMM>
<NUMSTATES> 5
<STATE> 2
<MEAN> 25
 -1.269614e-008 6.150066e-008 5.395258e-008 1.256654e-007 4.702851e-008 1.127652e-007 8.928097e-008 -8.971297e-008 -1.155853e-007 3.507038e-008 2.539227e-008 -1.068252e-007 4.637253e-003 1.316432e-003 2.617990e-003 -2.432724e-003 -1.110046e-002 -7.457927e-003 -6.235132e-003 2.702022e-003 -5.383956e-003 -9.665225e-004 -2.606054e-003 -2.915752e-003 1.023890e-003
<VARIANCE> 25
 4.827732e+001 5.891769e+001 1.135399e+002 8.970766e+001 7.509954e+001 5.927683e+001 6.362722e+001 5.887491e+001 6.741764e+001 5.673739e+001 4.680426e+001 3.099930e+001 1.793337e+000 2.423446e+000 3.181031e+000 3.938924e+000 2.553319e+000 2.584314e+000 3.072282e+000 3.276304e+000 2.817446e+000 3.084780e+000 2.604987e+000 1.986813e+000 2.895799e+000
<GCONST> 1.083504e+002
<STATE> 3
<MEAN> 25
 -1.269614e-008 6.150066e-008 5.395258e-008 1.256654e-007 4.702851e-008 1.127652e-007 8.928097e-008 -8.971297e-008 -1.155853e-007 3.507038e-008 2.539227e-008 -1.068252e-007 4.637253e-003 1.316432e-003 2.617990e-003 -2.432724e-003 -1.110046e-002 -7.457927e-003 -6.235132e-003 2.702022e-003 -5.383956e-003 -9.665225e-004 -2.606054e-003 -2.915752e-003 1.023890e-003
<VARIANCE> 25
 4.827732e+001 5.891769e+001 1.135399e+002 8.970766e+001 7.509954e+001 5.927683e+001 6.362722e+001 5.887491e+001 6.741764e+001 5.673739e+001 4.680426e+001 3.099930e+001 1.793337e+000 2.423446e+000 3.181031e+000 3.938924e+000 2.553319e+000 2.584314e+000 3.072282e+000 3.276304e+000 2.817446e+000 3.084780e+000 2.604987e+000 1.986813e+000 2.895799e+000
<GCONST> 1.083504e+002
<STATE> 4
<MEAN> 25
 -1.269614e-008 6.150066e-008 5.395258e-008 1.256654e-007 4.702851e-008 1.127652e-007 8.928097e-008 -8.971297e-008 -1.155853e-007 3.507038e-008 2.539227e-008 -1.068252e-007 4.637253e-003 1.316432e-003 2.617990e-003 -2.432724e-003 -1.110046e-002 -7.457927e-003 -6.235132e-003 2.702022e-003 -5.383956e-003 -9.665225e-004 -2.606054e-003 -2.915752e-003 1.023890e-003
<VARIANCE> 25
 4.827732e+001 5.891769e+001 1.135399e+002 8.970766e+001 7.509954e+001 5.927683e+001 6.362722e+001 5.887491e+001 6.741764e+001 5.673739e+001 4.680426e+001 3.099930e+001 1.793337e+000 2.423446e+000 3.181031e+000 3.938924e+000 2.553319e+000 2.584314e+000 3.072282e+000 3.276304e+000 2.817446e+000 3.084780e+000 2.604987e+000 1.986813e+000 2.895799e+000
<GCONST> 1.083504e+002
<TRANSP> 5
 0.000000e+000 1.000000e+000 0.000000e+000 0.000000e+000 0.000000e+000
 0.000000e+000 6.000000e-001 4.000000e-001 0.000000e+000 0.000000e+000
 0.000000e+000 0.000000e+000 6.000000e-001 4.000000e-001 0.000000e+000
 0.000000e+000 0.000000e+000 0.000000e+000 7.000000e-001 3.000000e-001
 0.000000e+000 0.000000e+000 0.000000e+000 0.000000e+000 0.000000e+000
<ENDHMM>
~h "th"
<BEGINHMM>
<NUMSTATES> 5
<STATE> 2
<MEAN> 25
 -1.269614e-008 6.150066e-008 5.395258e-008 1.256654e-007 4.702851e-008 1.127652e-007 8.928097e-008 -8.971297e-008 -1.155853e-007 3.507038e-008 2.539227e-008 -1.068252e-007 4.637253e-003 1.316432e-003 2.617990e-003 -2.432724e-003 -1.110046e-002 -7.457927e-003 -6.235132e-003 2.702022e-003 -5.383956e-003 -9.665225e-004 -2.606054e-003 -2.915752e-003 1.023890e-003
<VARIANCE> 25
 4.827732e+001 5.891769e+001 1.135399e+002 8.970766e+001 7.509954e+001 5.927683e+001 6.362722e+001 5.887491e+001 6.741764e+001 5.673739e+001 4.680426e+001 3.099930e+001 1.793337e+000 2.423446e+000 3.181031e+000 3.938924e+000 2.553319e+000 2.584314e+000 3.072282e+000 3.276304e+000 2.817446e+000 3.084780e+000 2.604987e+000 1.986813e+000 2.895799e+000
<GCONST> 1.083504e+002
<STATE> 3
<MEAN> 25
 -1.269614e-008 6.150066e-008 5.395258e-008 1.256654e-007 4.702851e-008 1.127652e-007 8.928097e-008 -8.971297e-008 -1.155853e-007 3.507038e-008 2.539227e-008 -1.068252e-007 4.637253e-003 1.316432e-003 2.617990e-003 -2.432724e-003 -1.110046e-002 -7.457927e-003 -6.235132e-003 2.702022e-003 -5.383956e-003 -9.665225e-004 -2.606054e-003 -2.915752e-003 1.023890e-003
<VARIANCE> 25
 4.827732e+001 5.891769e+001 1.135399e+002 8.970766e+001 7.509954e+001 5.927683e+001 6.362722e+001 5.887491e+001 6.741764e+001 5.673739e+001 4.680426e+001 3.099930e+001 1.793337e+000 2.423446e+000 3.181031e+000 3.938924e+000 2.553319e+000 2.584314e+000 3.072282e+000 3.276304e+000 2.817446e+000 3.084780e+000 2.604987e+000 1.986813e+000 2.895799e+000
<GCONST> 1.083504e+002
<STATE> 4
<MEAN> 25
 -1.269614e-008 6.150066e-008 5.395258e-008 1.256654e-007 4.702851e-008 1.127652e-007 8.928097e-008 -8.971297e-008 -1.155853e-007 3.507038e-008 2.539227e-008 -1.068252e-007 4.637253e-003 1.316432e-003 2.617990e-003 -2.432724e-003 -1.110046e-002 -7.457927e-003 -6.235132e-003 2.702022e-003 -5.383956e-003 -9.665225e-004 -2.606054e-003 -2.915752e-003 1.023890e-003
<VARIANCE> 25
 4.827732e+001 5.891769e+001 1.135399e+002 8.970766e+001 7.509954e+001 5.927683e+001 6.362722e+001 5.887491e+001 6.741764e+001 5.673739e+001 4.680426e+001 3.099930e+001 1.793337e+000 2.423446e+000 3.181031e+000 3.938924e+000 2.553319e+000 2.584314e+000 3.072282e+000 3.276304e+000 2.817446e+000 3.084780e+000 2.604987e+000 1.986813e+000 2.895799e+000
<GCONST> 1.083504e+002
<TRANSP> 5
 0.000000e+000 1.000000e+000 0.000000e+000 0.000000e+000 0.000000e+000
 0.000000e+000 6.000000e-001 4.000000e-001 0.000000e+000 0.000000e+000
 0.000000e+000 0.000000e+000 6.000000e-001 4.000000e-001 0.000000e+000
 0.000000e+000 0.000000e+000 0.000000e+000 7.000000e-001 3.000000e-001
 0.000000e+000 0.000000e+000 0.000000e+000 0.000000e+000 0.000000e+000
<ENDHMM>
~h "ih"
<BEGINHMM>
<NUMSTATES> 5
<STATE> 2
<MEAN> 25
 -1.269614e-008 6.150066e-008 5.395258e-008 1.256654e-007 4.702851e-008 1.127652e-007 8.928097e-008 -8.971297e-008 -1.155853e-007 3.507038e-008 2.539227e-008 -1.068252e-007 4.637253e-003 1.316432e-003 2.617990e-003 -2.432724e-003 -1.110046e-002 -7.457927e-003 -6.235132e-003 2.702022e-003 -5.383956e-003 -9.665225e-004 -2.606054e-003 -2.915752e-003 1.023890e-003
<VARIANCE> 25
 4.827732e+001 5.891769e+001 1.135399e+002 8.970766e+001 7.509954e+001 5.927683e+001 6.362722e+001 5.887491e+001 6.741764e+001 5.673739e+001 4.680426e+001 3.099930e+001 1.793337e+000 2.423446e+000 3.181031e+000 3.938924e+000 2.553319e+000 2.584314e+000 3.072282e+000 3.276304e+000 2.817446e+000 3.084780e+000 2.604987e+000 1.986813e+000 2.895799e+000
<GCONST> 1.083504e+002
<STATE> 3
<MEAN> 25
 -1.269614e-008 6.150066e-008 5.395258e-008 1.256654e-007 4.702851e-008 1.127652e-007 8.928097e-008 -8.971297e-008 -1.155853e-007 3.507038e-008 2.539227e-008 -1.068252e-007 4.637253e-003 1.316432e-003 2.617990e-003 -2.432724e-003 -1.110046e-002 -7.457927e-003 -6.235132e-003 2.702022e-003 -5.383956e-003 -9.665225e-004 -2.606054e-003 -2.915752e-003 1.023890e-003
<VARIANCE> 25
 4.827732e+001 5.891769e+001 1.135399e+002 8.970766e+001 7.509954e+001 5.927683e+001 6.362722e+001 5.887491e+001 6.741764e+001 5.673739e+001 4.680426e+001 3.099930e+001 1.793337e+000 2.423446e+000 3.181031e+000 3.938924e+000 2.553319e+000 2.584314e+000 3.072282e+000 3.276304e+000 2.817446e+000 3.084780e+000 2.604987e+000 1.986813e+000 2.895799e+000
<GCONST> 1.083504e+002
<STATE> 4
<MEAN> 25
 -1.269614e-008 6.150066e-008 5.395258e-008 1.256654e-007 4.702851e-008 1.127652e-007 8.928097e-008 -8.971297e-008 -1.155853e-007 3.507038e-008 2.539227e-008 -1.068252e-007 4.637253e-003 1.316432e-003 2.617990e-003 -2.432724e-003 -1.110046e-002 -7.457927e-003 -6.235132e-003 2.702022e-003 -5.383956e-003 -9.665225e-004 -2.606054e-003 -2.915752e-003 1.023890e-003
<VARIANCE> 25
 4.827732e+001 5.891769e+001 1.135399e+002 8.970766e+001 7.509954e+001 5.927683e+001 6.362722e+001 5.887491e+001 6.741764e+001 5.673739e+001 4.680426e+001 3.099930e+001 1.793337e+000 2.423446e+000 3.181031e+000 3.938924e+000 2.553319e+000 2.584314e+000 3.072282e+000 3.276304e+000 2.817446e+000 3.084780e+000 2.604987e+000 1.986813e+000 2.895799e+000
<GCONST> 1.083504e+002
<TRANSP> 5
 0.000000e+000 1.000000e+000 0.000000e+000 0.000000e+000 0.000000e+000
 0.000000e+000 6.000000e-001 4.000000e-001 0.000000e+000 0.000000e+000
 0.000000e+000 0.000000e+000 6.000000e-001 4.000000e-001 0.000000e+000
 0.000000e+000 0.000000e+000 0.000000e+000 7.000000e-001 3.000000e-001
 0.000000e+000 0.000000e+000 0.000000e+000 0.000000e+000 0.000000e+000
<ENDHMM>
~h "ae"
<BEGINHMM>
<NUMSTATES> 5
<STATE> 2
<MEAN> 25
 -1.269614e-008 6.150066e-008 5.395258e-008 1.256654e-007 4.702851e-008 1.127652e-007 8.928097e-008 -8.971297e-008 -1.155853e-007 3.507038e-008 2.539227e-008 -1.068252e-007 4.637253e-003 1.316432e-003 2.617990e-003 -2.432724e-003 -1.110046e-002 -7.457927e-003 -6.235132e-003 2.702022e-003 -5.383956e-003 -9.665225e-004 -2.606054e-003 -2.915752e-003 1.023890e-003
<VARIANCE> 25
 4.827732e+001 5.891769e+001 1.135399e+002 8.970766e+001 7.509954e+001 5.927683e+001 6.362722e+001 5.887491e+001 6.741764e+001 5.673739e+001 4.680426e+001 3.099930e+001 1.793337e+000 2.423446e+000 3.181031e+000 3.938924e+000 2.553319e+000 2.584314e+000 3.072282e+000 3.276304e+000 2.817446e+000 3.084780e+000 2.604987e+000 1.986813e+000 2.895799e+000
<GCONST> 1.083504e+002
<STATE> 3
<MEAN> 25
 -1.269614e-008 6.150066e-008 5.395258e-008 1.256654e-007 4.702851e-008 1.127652e-007 8.928097e-008 -8.971297e-008 -1.155853e-007 3.507038e-008 2.539227e-008 -1.068252e-007 4.637253e-003 1.316432e-003 2.617990e-003 -2.432724e-003 -1.110046e-002 -7.457927e-003 -6.235132e-003 2.702022e-003 -5.383956e-003 -9.665225e-004 -2.606054e-003 -2.915752e-003 1.023890e-003
<VARIANCE> 25
 4.827732e+001 5.891769e+001 1.135399e+002 8.970766e+001 7.509954e+001 5.927683e+001 6.362722e+001 5.887491e+001 6.741764e+001 5.673739e+001 4.680426e+001 3.099930e+001 1.793337e+000 2.423446e+000 3.181031e+000 3.938924e+000 2.553319e+000 2.584314e+000 3.072282e+000 3.276304e+000 2.817446e+000 3.084780e+000 2.604987e+000 1.986813e+000 2.895799e+000
<GCONST> 1.083504e+002
<STATE> 4
<MEAN> 25
 -1.269614e-008 6.150066e-008 5.395258e-008 1.256654e-007 4.702851e-008 1.127652e-007 8.928097e-008 -8.971297e-008 -1.155853e-007 3.507038e-008 2.539227e-008 -1.068252e-007 4.637253e-003 1.316432e-003 2.617990e-003 -2.432724e-003 -1.110046e-002 -7.457927e-003 -6.235132e-003 2.702022e-003 -5.383956e-003 -9.665225e-004 -2.606054e-003 -2.915752e-003 1.023890e-003
<VARIANCE> 25
 4.827732e+001 5.891769e+001 1.135399e+002 8.970766e+001 7.509954e+001 5.927683e+001 6.362722e+001 5.887491e+001 6.741764e+001 5.673739e+001 4.680426e+001 3.099930e+001 1.793337e+000 2.423446e+000 3.181031e+000 3.938924e+000 2.553319e+000 2.584314e+000 3.072282e+000 3.276304e+000 2.817446e+000 3.084780e+000 2.604987e+000 1.986813e+000 2.895799e+000
<GCONST> 1.083504e+002
<TRANSP> 5
 0.000000e+000 1.000000e+000 0.000000e+000 0.000000e+000 0.000000e+000
 0.000000e+000 6.000000e-001 4.000000e-001 0.000000e+000 0.000000e+000
 0.000000e+000 0.000000e+000 6.000000e-001 4.000000e-001 0.000000e+000
 0.000000e+000 0.000000e+000 0.000000e+000 7.000000e-001 3.000000e-001
 0.000000e+000 0.000000e+000 0.000000e+000 0.000000e+000 0.000000e+000
<ENDHMM>
~h "m"
<BEGINHMM>
<NUMSTATES> 5
<STATE> 2
<MEAN> 25
 -1.269614e-008 6.150066e-008 5.395258e-008 1.256654e-007 4.702851e-008 1.127652e-007 8.928097e-008 -8.971297e-008 -1.155853e-007 3.507038e-008 2.539227e-008 -1.068252e-007 4.637253e-003 1.316432e-003 2.617990e-003 -2.432724e-003 -1.110046e-002 -7.457927e-003 -6.235132e-003 2.702022e-003 -5.383956e-003 -9.665225e-004 -2.606054e-003 -2.915752e-003 1.023890e-003
<VARIANCE> 25
 4.827732e+001 5.891769e+001 1.135399e+002 8.970766e+001 7.509954e+001 5.927683e+001 6.362722e+001 5.887491e+001 6.741764e+001 5.673739e+001 4.680426e+001 3.099930e+001 1.793337e+000 2.423446e+000 3.181031e+000 3.938924e+000 2.553319e+000 2.584314e+000 3.072282e+000 3.276304e+000 2.817446e+000 3.084780e+000 2.604987e+000 1.986813e+000 2.895799e+000
<GCONST> 1.083504e+002
<STATE> 3
<MEAN> 25
 -1.269614e-008 6.150066e-008 5.395258e-008 1.256654e-007 4.702851e-008 1.127652e-007 8.928097e-008 -8.971297e-008 -1.155853e-007 3.507038e-008 2.539227e-008 -1.068252e-007 4.637253e-003 1.316432e-003 2.617990e-003 -2.432724e-003 -1.110046e-002 -7.457927e-003 -6.235132e-003 2.702022e-003 -5.383956e-003 -9.665225e-004 -2.606054e-003 -2.915752e-003 1.023890e-003
<VARIANCE> 25
 4.827732e+001 5.891769e+001 1.135399e+002 8.970766e+001 7.509954e+001 5.927683e+001 6.362722e+001 5.887491e+001 6.741764e+001 5.673739e+001 4.680426e+001 3.099930e+001 1.793337e+000 2.423446e+000 3.181031e+000 3.938924e+000 2.553319e+000 2.584314e+000 3.072282e+000 3.276304e+000 2.817446e+000 3.084780e+000 2.604987e+000 1.986813e+000 2.895799e+000
<GCONST> 1.083504e+002
<STATE> 4
<MEAN> 25
 -1.269614e-008 6.150066e-008 5.395258e-008 1.256654e-007 4.702851e-008 1.127652e-007 8.928097e-008 -8.971297e-008 -1.155853e-007 3.507038e-008 2.539227e-008 -1.068252e-007 4.637253e-003 1.316432e-003 2.617990e-003 -2.432724e-003 -1.110046e-002 -7.457927e-003 -6.235132e-003 2.702022e-003 -5.383956e-003 -9.665225e-004 -2.606054e-003 -2.915752e-003 1.023890e-003
<VARIANCE> 25
 4.827732e+001 5.891769e+001 1.135399e+002 8.970766e+001 7.509954e+001 5.927683e+001 6.362722e+001 5.887491e+001 6.741764e+001 5.673739e+001 4.680426e+001 3.099930e+001 1.793337e+000 2.423446e+000 3.181031e+000 3.938924e+000 2.553319e+000 2.584314e+000 3.072282e+000 3.276304e+000 2.817446e+000 3.084780e+000 2.604987e+000 1.986813e+000 2.895799e+000
<GCONST> 1.083504e+002
<TRANSP> 5
 0.000000e+000 1.000000e+000 0.000000e+000 0.000000e+000 0.000000e+000
 0.000000e+000 6.000000e-001 4.000000e-001 0.000000e+000 0.000000e+000
 0.000000e+000 0.000000e+000 6.000000e-001 4.000000e-001 0.000000e+000
 0.000000e+000 0.000000e+000 0.000000e+000 7.000000e-001 3.000000e-001
 0.000000e+000 0.000000e+000 0.000000e+000 0.000000e+000 0.000000e+000
<ENDHMM>
~h "w"
<BEGINHMM>
<NUMSTATES> 5
<STATE> 2
<MEAN> 25
 -1.269614e-008 6.150066e-008 5.395258e-008 1.256654e-007 4.702851e-008 1.127652e-007 8.928097e-008 -8.971297e-008 -1.155853e-007 3.507038e-008 2.539227e-008 -1.068252e-007 4.637253e-003 1.316432e-003 2.617990e-003 -2.432724e-003 -1.110046e-002 -7.457927e-003 -6.235132e-003 2.702022e-003 -5.383956e-003 -9.665225e-004 -2.606054e-003 -2.915752e-003 1.023890e-003
<VARIANCE> 25
 4.827732e+001 5.891769e+001 1.135399e+002 8.970766e+001 7.509954e+001 5.927683e+001 6.362722e+001 5.887491e+001 6.741764e+001 5.673739e+001 4.680426e+001 3.099930e+001 1.793337e+000 2.423446e+000 3.181031e+000 3.938924e+000 2.553319e+000 2.584314e+000 3.072282e+000 3.276304e+000 2.817446e+000 3.084780e+000 2.604987e+000 1.986813e+000 2.895799e+000
<GCONST> 1.083504e+002
<STATE> 3
<MEAN> 25
 -1.269614e-008 6.150066e-008 5.395258e-008 1.256654e-007 4.702851e-008 1.127652e-007 8.928097e-008 -8.971297e-008 -1.155853e-007 3.507038e-008 2.539227e-008 -1.068252e-007 4.637253e-003 1.316432e-003 2.617990e-003 -2.432724e-003 -1.110046e-002 -7.457927e-003 -6.235132e-003 2.702022e-003 -5.383956e-003 -9.665225e-004 -2.606054e-003 -2.915752e-003 1.023890e-003
<VARIANCE> 25
 4.827732e+001 5.891769e+001 1.135399e+002 8.970766e+001 7.509954e+001 5.927683e+001 6.362722e+001 5.887491e+001 6.741764e+001 5.673739e+001 4.680426e+001 3.099930e+001 1.793337e+000 2.423446e+000 3.181031e+000 3.938924e+000 2.553319e+000 2.584314e+000 3.072282e+000 3.276304e+000 2.817446e+000 3.084780e+000 2.604987e+000 1.986813e+000 2.895799e+000
<GCONST> 1.083504e+002
<STATE> 4
<MEAN> 25
 -1.269614e-008 6.150066e-008 5.395258e-008 1.256654e-007 4.702851e-008 1.127652e-007 8.928097e-008 -8.971297e-008 -1.155853e-007 3.507038e-008 2.539227e-008 -1.068252e-007 4.637253e-003 1.316432e-003 2.617990e-003 -2.432724e-003 -1.110046e-002 -7.457927e-003 -6.235132e-003 2.702022e-003 -5.383956e-003 -9.665225e-004 -2.606054e-003 -2.915752e-003 1.023890e-003
<VARIANCE> 25
 4.827732e+001 5.891769e+001 1.135399e+002 8.970766e+001 7.509954e+001 5.927683e+001 6.362722e+001 5.887491e+001 6.741764e+001 5.673739e+001 4.680426e+001 3.099930e+001 1.793337e+000 2.423446e+000 3.181031e+000 3.938924e+000 2.553319e+000 2.584314e+000 3.072282e+000 3.276304e+000 2.817446e+000 3.084780e+000 2.604987e+000 1.986813e+000 2.895799e+000
<GCONST> 1.083504e+002
<TRANSP> 5
 0.000000e+000 1.000000e+000 0.000000e+000 0.000000e+000 0.000000e+000
 0.000000e+000 6.000000e-001 4.000000e-001 0.000000e+000 0.000000e+000
 0.000000e+000 0.000000e+000 6.000000e-001 4.000000e-001 0.000000e+000
 0.000000e+000 0.000000e+000 0.000000e+000 7.000000e-001 3.000000e-001
 0.000000e+000 0.000000e+000 0.000000e+000 0.000000e+000 0.000000e+000
<ENDHMM>
~h "y"
<BEGINHMM>
<NUMSTATES> 5
<STATE> 2
<MEAN> 25
 -1.269614e-008 6.150066e-008 5.395258e-008 1.256654e-007 4.702851e-008 1.127652e-007 8.928097e-008 -8.971297e-008 -1.155853e-007 3.507038e-008 2.539227e-008 -1.068252e-007 4.637253e-003 1.316432e-003 2.617990e-003 -2.432724e-003 -1.110046e-002 -7.457927e-003 -6.235132e-003 2.702022e-003 -5.383956e-003 -9.665225e-004 -2.606054e-003 -2.915752e-003 1.023890e-003
<VARIANCE> 25
 4.827732e+001 5.891769e+001 1.135399e+002 8.970766e+001 7.509954e+001 5.927683e+001 6.362722e+001 5.887491e+001 6.741764e+001 5.673739e+001 4.680426e+001 3.099930e+001 1.793337e+000 2.423446e+000 3.181031e+000 3.938924e+000 2.553319e+000 2.584314e+000 3.072282e+000 3.276304e+000 2.817446e+000 3.084780e+000 2.604987e+000 1.986813e+000 2.895799e+000
<GCONST> 1.083504e+002
<STATE> 3
<MEAN> 25
 -1.269614e-008 6.150066e-008 5.395258e-008 1.256654e-007 4.702851e-008 1.127652e-007 8.928097e-008 -8.971297e-008 -1.155853e-007 3.507038e-008 2.539227e-008 -1.068252e-007 4.637253e-003 1.316432e-003 2.617990e-003 -2.432724e-003 -1.110046e-002 -7.457927e-003 -6.235132e-003 2.702022e-003 -5.383956e-003 -9.665225e-004 -2.606054e-003 -2.915752e-003 1.023890e-003
<VARIANCE> 25
 4.827732e+001 5.891769e+001 1.135399e+002 8.970766e+001 7.509954e+001 5.927683e+001 6.362722e+001 5.887491e+001 6.741764e+001 5.673739e+001 4.680426e+001 3.099930e+001 1.793337e+000 2.423446e+000 3.181031e+000 3.938924e+000 2.553319e+000 2.584314e+000 3.072282e+000 3.276304e+000 2.817446e+000 3.084780e+000 2.604987e+000 1.986813e+000 2.895799e+000
<GCONST> 1.083504e+002
<STATE> 4
<MEAN> 25
 -1.269614e-008 6.150066e-008 5.395258e-008 1.256654e-007 4.702851e-008 1.127652e-007 8.928097e-008 -8.971297e-008 -1.155853e-007 3.507038e-008 2.539227e-008 -1.068252e-007 4.637253e-003 1.316432e-003 2.617990e-003 -2.432724e-003 -1.110046e-002 -7.457927e-003 -6.235132e-003 2.702022e-003 -5.383956e-003 -9.665225e-004 -2.606054e-003 -2.915752e-003 1.023890e-003
<VARIANCE> 25
 4.827732e+001 5.891769e+001 1.135399e+002 8.970766e+001 7.509954e+001 5.927683e+001 6.362722e+001 5.887491e+001 6.741764e+001 5.673739e+001 4.680426e+001 3.099930e+001 1.793337e+000 2.423446e+000 3.181031e+000 3.938924e+000 2.553319e+000 2.584314e+000 3.072282e+000 3.276304e+000 2.817446e+000 3.084780e+000 2.604987e+000 1.986813e+000 2.895799e+000
<GCONST> 1.083504e+002
<TRANSP> 5
 0.000000e+000 1.000000e+000 0.000000e+000 0.000000e+000 0.000000e+000
 0.000000e+000 6.000000e-001 4.000000e-001 0.000000e+000 0.000000e+000
 0.000000e+000 0.000000e+000 6.000000e-001 4.000000e-001 0.000000e+000
 0.000000e+000 0.000000e+000 0.000000e+000 7.000000e-001 3.000000e-001
 0.000000e+000 0.000000e+000 0.000000e+000 0.000000e+000 0.000000e+000
<ENDHMM>
~h "uh"
<BEGINHMM>
<NUMSTATES> 5
<STATE> 2
<MEAN> 25
 -1.269614e-008 6.150066e-008 5.395258e-008 1.256654e-007 4.702851e-008 1.127652e-007 8.928097e-008 -8.971297e-008 -1.155853e-007 3.507038e-008 2.539227e-008 -1.068252e-007 4.637253e-003 1.316432e-003 2.617990e-003 -2.432724e-003 -1.110046e-002 -7.457927e-003 -6.235132e-003 2.702022e-003 -5.383956e-003 -9.665225e-004 -2.606054e-003 -2.915752e-003 1.023890e-003
<VARIANCE> 25
 4.827732e+001 5.891769e+001 1.135399e+002 8.970766e+001 7.509954e+001 5.927683e+001 6.362722e+001 5.887491e+001 6.741764e+001 5.673739e+001 4.680426e+001 3.099930e+001 1.793337e+000 2.423446e+000 3.181031e+000 3.938924e+000 2.553319e+000 2.584314e+000 3.072282e+000 3.276304e+000 2.817446e+000 3.084780e+000 2.604987e+000 1.986813e+000 2.895799e+000
<GCONST> 1.083504e+002
<STATE> 3
<MEAN> 25
 -1.269614e-008 6.150066e-008 5.395258e-008 1.256654e-007 4.702851e-008 1.127652e-007 8.928097e-008 -8.971297e-008 -1.155853e-007 3.507038e-008 2.539227e-008 -1.068252e-007 4.637253e-003 1.316432e-003 2.617990e-003 -2.432724e-003 -1.110046e-002 -7.457927e-003 -6.235132e-003 2.702022e-003 -5.383956e-003 -9.665225e-004 -2.606054e-003 -2.915752e-003 1.023890e-003
<VARIANCE> 25
 4.827732e+001 5.891769e+001 1.135399e+002 8.970766e+001 7.509954e+001 5.927683e+001 6.362722e+001 5.887491e+001 6.741764e+001 5.673739e+001 4.680426e+001 3.099930e+001 1.793337e+000 2.423446e+000 3.181031e+000 3.938924e+000 2.553319e+000 2.584314e+000 3.072282e+000 3.276304e+000 2.817446e+000 3.084780e+000 2.604987e+000 1.986813e+000 2.895799e+000
<GCONST> 1.083504e+002
<STATE> 4
<MEAN> 25
 -1.269614e-008 6.150066e-008 5.395258e-008 1.256654e-007 4.702851e-008 1.127652e-007 8.928097e-008 -8.971297e-008 -1.155853e-007 3.507038e-008 2.539227e-008 -1.068252e-007 4.637253e-003 1.316432e-003 2.617990e-003 -2.432724e-003 -1.110046e-002 -7.457927e-003 -6.235132e-003 2.702022e-003 -5.383956e-003 -9.665225e-004 -2.606054e-003 -2.915752e-003 1.023890e-003
<VARIANCE> 25
 4.827732e+001 5.891769e+001 1.135399e+002 8.970766e+001 7.509954e+001 5.927683e+001 6.362722e+001 5.887491e+001 6.741764e+001 5.673739e+001 4.680426e+001 3.099930e+001 1.793337e+000 2.423446e+000 3.181031e+000 3.938924e+000 2.553319e+000 2.584314e+000 3.072282e+000 3.276304e+000 2.817446e+000 3.084780e+000 2.604987e+000 1.986813e+000 2.895799e+000
<GCONST> 1.083504e+002
<TRANSP> 5
 0.000000e+000 1.000000e+000 0.000000e+000 0.000000e+000 0.000000e+000
 0.000000e+000 6.000000e-001 4.000000e-001 0.000000e+000 0.000000e+000
 0.000000e+000 0.000000e+000 6.000000e-001 4.000000e-001 0.000000e+000
 0.000000e+000 0.000000e+000 0.000000e+000 7.000000e-001 3.000000e-001
 0.000000e+000 0.000000e+000 0.000000e+000 0.000000e+000 0.000000e+000
<ENDHMM>
~h "t"
<BEGINHMM>
<NUMSTATES> 5
<STATE> 2
<MEAN> 25
 -1.269614e-008 6.150066e-008 5.395258e-008 1.256654e-007 4.702851e-008 1.127652e-007 8.928097e-008 -8.971297e-008 -1.155853e-007 3.507038e-008 2.539227e-008 -1.068252e-007 4.637253e-003 1.316432e-003 2.617990e-003 -2.432724e-003 -1.110046e-002 -7.457927e-003 -6.235132e-003 2.702022e-003 -5.383956e-003 -9.665225e-004 -2.606054e-003 -2.915752e-003 1.023890e-003
<VARIANCE> 25
 4.827732e+001 5.891769e+001 1.135399e+002 8.970766e+001 7.509954e+001 5.927683e+001 6.362722e+001 5.887491e+001 6.741764e+001 5.673739e+001 4.680426e+001 3.099930e+001 1.793337e+000 2.423446e+000 3.181031e+000 3.938924e+000 2.553319e+000 2.584314e+000 3.072282e+000 3.276304e+000 2.817446e+000 3.084780e+000 2.604987e+000 1.986813e+000 2.895799e+000
<GCONST> 1.083504e+002
<STATE> 3
<MEAN> 25
 -1.269614e-008 6.150066e-008 5.395258e-008 1.256654e-007 4.702851e-008 1.127652e-007 8.928097e-008 -8.971297e-008 -1.155853e-007 3.507038e-008 2.539227e-008 -1.068252e-007 4.637253e-003 1.316432e-003 2.617990e-003 -2.432724e-003 -1.110046e-002 -7.457927e-003 -6.235132e-003 2.702022e-003 -5.383956e-003 -9.665225e-004 -2.606054e-003 -2.915752e-003 1.023890e-003
<VARIANCE> 25
 4.827732e+001 5.891769e+001 1.135399e+002 8.970766e+001 7.509954e+001 5.927683e+001 6.362722e+001 5.887491e+001 6.741764e+001 5.673739e+001 4.680426e+001 3.099930e+001 1.793337e+000 2.423446e+000 3.181031e+000 3.938924e+000 2.553319e+000 2.584314e+000 3.072282e+000 3.276304e+000 2.817446e+000 3.084780e+000 2.604987e+000 1.986813e+000 2.895799e+000
<GCONST> 1.083504e+002
<STATE> 4
<MEAN> 25
 -1.269614e-008 6.150066e-008 5.395258e-008 1.256654e-007 4.702851e-008 1.127652e-007 8.928097e-008 -8.971297e-008 -1.155853e-007 3.507038e-008 2.539227e-008 -1.068252e-007 4.637253e-003 1.316432e-003 2.617990e-003 -2.432724e-003 -1.110046e-002 -7.457927e-003 -6.235132e-003 2.702022e-003 -5.383956e-003 -9.665225e-004 -2.606054e-003 -2.915752e-003 1.023890e-003
<VARIANCE> 25
 4.827732e+001 5.891769e+001 1.135399e+002 8.970766e+001 7.509954e+001 5.927683e+001 6.362722e+001 5.887491e+001 6.741764e+001 5.673739e+001 4.680426e+001 3.099930e+001 1.793337e+000 2.423446e+000 3.181031e+000 3.938924e+000 2.553319e+000 2.584314e+000 3.072282e+000 3.276304e+000 2.817446e+000 3.084780e+000 2.604987e+000 1.986813e+000 2.895799e+000
<GCONST> 1.083504e+002
<TRANSP> 5
 0.000000e+000 1.000000e+000 0.000000e+000 0.000000e+000 0.000000e+000
 0.000000e+000 6.000000e-001 4.000000e-001 0.000000e+000 0.000000e+000
 0.000000e+000 0.000000e+000 6.000000e-001 4.000000e-001 0.000000e+000
 0.000000e+000 0.000000e+000 0.000000e+000 7.000000e-001 3.000000e-001
 0.000000e+000 0.000000e+000 0.000000e+000 0.000000e+000 0.000000e+000
<ENDHMM>
~h "b"
<BEGINHMM>
<NUMSTATES> 5
<STATE> 2
<MEAN> 25
 -1.269614e-008 6.150066e-008 5.395258e-008 1.256654e-007 4.702851e-008 1.127652e-007 8.928097e-008 -8.971297e-008 -1.155853e-007 3.507038e-008 2.539227e-008 -1.068252e-007 4.637253e-003 1.316432e-003 2.617990e-003 -2.432724e-003 -1.110046e-002 -7.457927e-003 -6.235132e-003 2.702022e-003 -5.383956e-003 -9.665225e-004 -2.606054e-003 -2.915752e-003 1.023890e-003
<VARIANCE> 25
 4.827732e+001 5.891769e+001 1.135399e+002 8.970766e+001 7.509954e+001 5.927683e+001 6.362722e+001 5.887491e+001 6.741764e+001 5.673739e+001 4.680426e+001 3.099930e+001 1.793337e+000 2.423446e+000 3.181031e+000 3.938924e+000 2.553319e+000 2.584314e+000 3.072282e+000 3.276304e+000 2.817446e+000 3.084780e+000 2.604987e+000 1.986813e+000 2.895799e+000
<GCONST> 1.083504e+002
<STATE> 3
<MEAN> 25
 -1.269614e-008 6.150066e-008 5.395258e-008 1.256654e-007 4.702851e-008 1.127652e-007 8.928097e-008 -8.971297e-008 -1.155853e-007 3.507038e-008 2.539227e-008 -1.068252e-007 4.637253e-003 1.316432e-003 2.617990e-003 -2.432724e-003 -1.110046e-002 -7.457927e-003 -6.235132e-003 2.702022e-003 -5.383956e-003 -9.665225e-004 -2.606054e-003 -2.915752e-003 1.023890e-003
<VARIANCE> 25
 4.827732e+001 5.891769e+001 1.135399e+002 8.970766e+001 7.509954e+001 5.927683e+001 6.362722e+001 5.887491e+001 6.741764e+001 5.673739e+001 4.680426e+001 3.099930e+001 1.793337e+000 2.423446e+000 3.181031e+000 3.938924e+000 2.553319e+000 2.584314e+000 3.072282e+000 3.276304e+000 2.817446e+000 3.084780e+000 2.604987e+000 1.986813e+000 2.895799e+000
<GCONST> 1.083504e+002
<STATE> 4
<MEAN> 25
 -1.269614e-008 6.150066e-008 5.395258e-008 1.256654e-007 4.702851e-008 1.127652e-007 8.928097e-008 -8.971297e-008 -1.155853e-007 3.507038e-008 2.539227e-008 -1.068252e-007 4.637253e-003 1.316432e-003 2.617990e-003 -2.432724e-003 -1.110046e-002 -7.457927e-003 -6.235132e-003 2.702022e-003 -5.383956e-003 -9.665225e-004 -2.606054e-003 -2.915752e-003 1.023890e-003
<VARIANCE> 25
 4.827732e+001 5.891769e+001 1.135399e+002 8.970766e+001 7.509954e+001 5.927683e+001 6.362722e+001 5.887491e+001 6.741764e+001 5.673739e+001 4.680426e+001 3.099930e+001 1.793337e+000 2.423446e+000 3.181031e+000 3.938924e+000 2.553319e+000 2.584314e+000 3.072282e+000 3.276304e+000 2.817446e+000 3.084780e+000 2.604987e+000 1.986813e+000 2.895799e+000
<GCONST> 1.083504e+002
<TRANSP> 5
 0.000000e+000 1.000000e+000 0.000000e+000 0.000000e+000 0.000000e+000
 0.000000e+000 6.000000e-001 4.000000e-001 0.000000e+000 0.000000e+000
 0.000000e+000 0.000000e+000 6.000000e-001 4.000000e-001 0.000000e+000
 0.000000e+000 0.000000e+000 0.000000e+000 7.000000e-001 3.000000e-001
 0.000000e+000 0.000000e+000 0.000000e+000 0.000000e+000 0.000000e+000
<ENDHMM>
~h "d"
<BEGINHMM>
<NUMSTATES> 5
<STATE> 2
<MEAN> 25
 -1.269614e-008 6.150066e-008 5.395258e-008 1.256654e-007 4.702851e-008 1.127652e-007 8.928097e-008 -8.971297e-008 -1.155853e-007 3.507038e-008 2.539227e-008 -1.068252e-007 4.637253e-003 1.316432e-003 2.617990e-003 -2.432724e-003 -1.110046e-002 -7.457927e-003 -6.235132e-003 2.702022e-003 -5.383956e-003 -9.665225e-004 -2.606054e-003 -2.915752e-003 1.023890e-003
<VARIANCE> 25
 4.827732e+001 5.891769e+001 1.135399e+002 8.970766e+001 7.509954e+001 5.927683e+001 6.362722e+001 5.887491e+001 6.741764e+001 5.673739e+001 4.680426e+001 3.099930e+001 1.793337e+000 2.423446e+000 3.181031e+000 3.938924e+000 2.553319e+000 2.584314e+000 3.072282e+000 3.276304e+000 2.817446e+000 3.084780e+000 2.604987e+000 1.986813e+000 2.895799e+000
<GCONST> 1.083504e+002
<STATE> 3
<MEAN> 25
 -1.269614e-008 6.150066e-008 5.395258e-008 1.256654e-007 4.702851e-008 1.127652e-007 8.928097e-008 -8.971297e-008 -1.155853e-007 3.507038e-008 2.539227e-008 -1.068252e-007 4.637253e-003 1.316432e-003 2.617990e-003 -2.432724e-003 -1.110046e-002 -7.457927e-003 -6.235132e-003 2.702022e-003 -5.383956e-003 -9.665225e-004 -2.606054e-003 -2.915752e-003 1.023890e-003
<VARIANCE> 25
 4.827732e+001 5.891769e+001 1.135399e+002 8.970766e+001 7.509954e+001 5.927683e+001 6.362722e+001 5.887491e+001 6.741764e+001 5.673739e+001 4.680426e+001 3.099930e+001 1.793337e+000 2.423446e+000 3.181031e+000 3.938924e+000 2.553319e+000 2.584314e+000 3.072282e+000 3.276304e+000 2.817446e+000 3.084780e+000 2.604987e+000 1.986813e+000 2.895799e+000
<GCONST> 1.083504e+002
<STATE> 4
<MEAN> 25
 -1.269614e-008 6.150066e-008 5.395258e-008 1.256654e-007 4.702851e-008 1.127652e-007 8.928097e-008 -8.971297e-008 -1.155853e-007 3.507038e-008 2.539227e-008 -1.068252e-007 4.637253e-003 1.316432e-003 2.617990e-003 -2.432724e-003 -1.110046e-002 -7.457927e-003 -6.235132e-003 2.702022e-003 -5.383956e-003 -9.665225e-004 -2.606054e-003 -2.915752e-003 1.023890e-003
<VARIANCE> 25
 4.827732e+001 5.891769e+001 1.135399e+002 8.970766e+001 7.509954e+001 5.927683e+001 6.362722e+001 5.887491e+001 6.741764e+001 5.673739e+001 4.680426e+001 3.099930e+001 1.793337e+000 2.423446e+000 3.181031e+000 3.938924e+000 2.553319e+000 2.584314e+000 3.072282e+000 3.276304e+000 2.817446e+000 3.084780e+000 2.604987e+000 1.986813e+000 2.895799e+000
<GCONST> 1.083504e+002
<TRANSP> 5
 0.000000e+000 1.000000e+000 0.000000e+000 0.000000e+000 0.000000e+000
 0.000000e+000 6.000000e-001 4.000000e-001 0.000000e+000 0.000000e+000
 0.000000e+000 0.000000e+000 6.000000e-001 4.000000e-001 0.000000e+000
 0.000000e+000 0.000000e+000 0.000000e+000 7.000000e-001 3.000000e-001
 0.000000e+000 0.000000e+000 0.000000e+000 0.000000e+000 0.000000e+000
<ENDHMM>
~h "ch"
<BEGINHMM>
<NUMSTATES> 5
<STATE> 2
<MEAN> 25
 -1.269614e-008 6.150066e-008 5.395258e-008 1.256654e-007 4.702851e-008 1.127652e-007 8.928097e-008 -8.971297e-008 -1.155853e-007 3.507038e-008 2.539227e-008 -1.068252e-007 4.637253e-003 1.316432e-003 2.617990e-003 -2.432724e-003 -1.110046e-002 -7.457927e-003 -6.235132e-003 2.702022e-003 -5.383956e-003 -9.665225e-004 -2.606054e-003 -2.915752e-003 1.023890e-003
<VARIANCE> 25
 4.827732e+001 5.891769e+001 1.135399e+002 8.970766e+001 7.509954e+001 5.927683e+001 6.362722e+001 5.887491e+001 6.741764e+001 5.673739e+001 4.680426e+001 3.099930e+001 1.793337e+000 2.423446e+000 3.181031e+000 3.938924e+000 2.553319e+000 2.584314e+000 3.072282e+000 3.276304e+000 2.817446e+000 3.084780e+000 2.604987e+000 1.986813e+000 2.895799e+000
<GCONST> 1.083504e+002
<STATE> 3
<MEAN> 25
 -1.269614e-008 6.150066e-008 5.395258e-008 1.256654e-007 4.702851e-008 1.127652e-007 8.928097e-008 -8.971297e-008 -1.155853e-007 3.507038e-008 2.539227e-008 -1.068252e-007 4.637253e-003 1.316432e-003 2.617990e-003 -2.432724e-003 -1.110046e-002 -7.457927e-003 -6.235132e-003 2.702022e-003 -5.383956e-003 -9.665225e-004 -2.606054e-003 -2.915752e-003 1.023890e-003
<VARIANCE> 25
 4.827732e+001 5.891769e+001 1.135399e+002 8.970766e+001 7.509954e+001 5.927683e+001 6.362722e+001 5.887491e+001 6.741764e+001 5.673739e+001 4.680426e+001 3.099930e+001 1.793337e+000 2.423446e+000 3.181031e+000 3.938924e+000 2.553319e+000 2.584314e+000 3.072282e+000 3.276304e+000 2.817446e+000 3.084780e+000 2.604987e+000 1.986813e+000 2.895799e+000
<GCONST> 1.083504e+002
<STATE> 4
<MEAN> 25
 -1.269614e-008 6.150066e-008 5.395258e-008 1.256654e-007 4.702851e-008 1.127652e-007 8.928097e-008 -8.971297e-008 -1.155853e-007 3.507038e-008 2.539227e-008 -1.068252e-007 4.637253e-003 1.316432e-003 2.617990e-003 -2.432724e-003 -1.110046e-002 -7.457927e-003 -6.235132e-003 2.702022e-003 -5.383956e-003 -9.665225e-004 -2.606054e-003 -2.915752e-003 1.023890e-003
<VARIANCE> 25
 4.827732e+001 5.891769e+001 1.135399e+002 8.970766e+001 7.509954e+001 5.927683e+001 6.362722e+001 5.887491e+001 6.741764e+001 5.673739e+001 4.680426e+001 3.099930e+001 1.793337e+000 2.423446e+000 3.181031e+000 3.938924e+000 2.553319e+000 2.584314e+000 3.072282e+000 3.276304e+000 2.817446e+000 3.084780e+000 2.604987e+000 1.986813e+000 2.895799e+000
<GCONST> 1.083504e+002
<TRANSP> 5
 0.000000e+000 1.000000e+000 0.000000e+000 0.000000e+000 0.000000e+000
 0.000000e+000 6.000000e-001 4.000000e-001 0.000000e+000 0.000000e+000
 0.000000e+000 0.000000e+000 6.000000e-001 4.000000e-001 0.000000e+000
 0.000000e+000 0.000000e+000 0.000000e+000 7.000000e-001 3.000000e-001
 0.000000e+000 0.000000e+000 0.000000e+000 0.000000e+000 0.000000e+000
<ENDHMM>
~h "g"
<BEGINHMM>
<NUMSTATES> 5
<STATE> 2
<MEAN> 25
 -1.269614e-008 6.150066e-008 5.395258e-008 1.256654e-007 4.702851e-008 1.127652e-007 8.928097e-008 -8.971297e-008 -1.155853e-007 3.507038e-008 2.539227e-008 -1.068252e-007 4.637253e-003 1.316432e-003 2.617990e-003 -2.432724e-003 -1.110046e-002 -7.457927e-003 -6.235132e-003 2.702022e-003 -5.383956e-003 -9.665225e-004 -2.606054e-003 -2.915752e-003 1.023890e-003
<VARIANCE> 25
 4.827732e+001 5.891769e+001 1.135399e+002 8.970766e+001 7.509954e+001 5.927683e+001 6.362722e+001 5.887491e+001 6.741764e+001 5.673739e+001 4.680426e+001 3.099930e+001 1.793337e+000 2.423446e+000 3.181031e+000 3.938924e+000 2.553319e+000 2.584314e+000 3.072282e+000 3.276304e+000 2.817446e+000 3.084780e+000 2.604987e+000 1.986813e+000 2.895799e+000
<GCONST> 1.083504e+002
<STATE> 3
<MEAN> 25
 -1.269614e-008 6.150066e-008 5.395258e-008 1.256654e-007 4.702851e-008 1.127652e-007 8.928097e-008 -8.971297e-008 -1.155853e-007 3.507038e-008 2.539227e-008 -1.068252e-007 4.637253e-003 1.316432e-003 2.617990e-003 -2.432724e-003 -1.110046e-002 -7.457927e-003 -6.235132e-003 2.702022e-003 -5.383956e-003 -9.665225e-004 -2.606054e-003 -2.915752e-003 1.023890e-003
<VARIANCE> 25
 4.827732e+001 5.891769e+001 1.135399e+002 8.970766e+001 7.509954e+001 5.927683e+001 6.362722e+001 5.887491e+001 6.741764e+001 5.673739e+001 4.680426e+001 3.099930e+001 1.793337e+000 2.423446e+000 3.181031e+000 3.938924e+000 2.553319e+000 2.584314e+000 3.072282e+000 3.276304e+000 2.817446e+000 3.084780e+000 2.604987e+000 1.986813e+000 2.895799e+000
<GCONST> 1.083504e+002
<STATE> 4
<MEAN> 25
 -1.269614e-008 6.150066e-008 5.395258e-008 1.256654e-007 4.702851e-008 1.127652e-007 8.928097e-008 -8.971297e-008 -1.155853e-007 3.507038e-008 2.539227e-008 -1.068252e-007 4.637253e-003 1.316432e-003 2.617990e-003 -2.432724e-003 -1.110046e-002 -7.457927e-003 -6.235132e-003 2.702022e-003 -5.383956e-003 -9.665225e-004 -2.606054e-003 -2.915752e-003 1.023890e-003
<VARIANCE> 25
 4.827732e+001 5.891769e+001 1.135399e+002 8.970766e+001 7.509954e+001 5.927683e+001 6.362722e+001 5.887491e+001 6.741764e+001 5.673739e+001 4.680426e+001 3.099930e+001 1.793337e+000 2.423446e+000 3.181031e+000 3.938924e+000 2.553319e+000 2.584314e+000 3.072282e+000 3.276304e+000 2.817446e+000 3.084780e+000 2.604987e+000 1.986813e+000 2.895799e+000
<GCONST> 1.083504e+002
<TRANSP> 5
 0.000000e+000 1.000000e+000 0.000000e+000 0.000000e+000 0.000000e+000
 0.000000e+000 6.000000e-001 4.000000e-001 0.000000e+000 0.000000e+000
 0.000000e+000 0.000000e+000 6.000000e-001 4.000000e-001 0.000000e+000
 0.000000e+000 0.000000e+000 0.000000e+000 7.000000e-001 3.000000e-001
 0.000000e+000 0.000000e+000 0.000000e+000 0.000000e+000 0.000000e+000
<ENDHMM>
~h "h"
<BEGINHMM>
<NUMSTATES> 5
<STATE> 2
<MEAN> 25
 -1.269614e-008 6.150066e-008 5.395258e-008 1.256654e-007 4.702851e-008 1.127652e-007 8.928097e-008 -8.971297e-008 -1.155853e-007 3.507038e-008 2.539227e-008 -1.068252e-007 4.637253e-003 1.316432e-003 2.617990e-003 -2.432724e-003 -1.110046e-002 -7.457927e-003 -6.235132e-003 2.702022e-003 -5.383956e-003 -9.665225e-004 -2.606054e-003 -2.915752e-003 1.023890e-003
<VARIANCE> 25
 4.827732e+001 5.891769e+001 1.135399e+002 8.970766e+001 7.509954e+001 5.927683e+001 6.362722e+001 5.887491e+001 6.741764e+001 5.673739e+001 4.680426e+001 3.099930e+001 1.793337e+000 2.423446e+000 3.181031e+000 3.938924e+000 2.553319e+000 2.584314e+000 3.072282e+000 3.276304e+000 2.817446e+000 3.084780e+000 2.604987e+000 1.986813e+000 2.895799e+000
<GCONST> 1.083504e+002
<STATE> 3
<MEAN> 25
 -1.269614e-008 6.150066e-008 5.395258e-008 1.256654e-007 4.702851e-008 1.127652e-007 8.928097e-008 -8.971297e-008 -1.155853e-007 3.507038e-008 2.539227e-008 -1.068252e-007 4.637253e-003 1.316432e-003 2.617990e-003 -2.432724e-003 -1.110046e-002 -7.457927e-003 -6.235132e-003 2.702022e-003 -5.383956e-003 -9.665225e-004 -2.606054e-003 -2.915752e-003 1.023890e-003
<VARIANCE> 25
 4.827732e+001 5.891769e+001 1.135399e+002 8.970766e+001 7.509954e+001 5.927683e+001 6.362722e+001 5.887491e+001 6.741764e+001 5.673739e+001 4.680426e+001 3.099930e+001 1.793337e+000 2.423446e+000 3.181031e+000 3.938924e+000 2.553319e+000 2.584314e+000 3.072282e+000 3.276304e+000 2.817446e+000 3.084780e+000 2.604987e+000 1.986813e+000 2.895799e+000
<GCONST> 1.083504e+002
<STATE> 4
<MEAN> 25
 -1.269614e-008 6.150066e-008 5.395258e-008 1.256654e-007 4.702851e-008 1.127652e-007 8.928097e-008 -8.971297e-008 -1.155853e-007 3.507038e-008 2.539227e-008 -1.068252e-007 4.637253e-003 1.316432e-003 2.617990e-003 -2.432724e-003 -1.110046e-002 -7.457927e-003 -6.235132e-003 2.702022e-003 -5.383956e-003 -9.665225e-004 -2.606054e-003 -2.915752e-003 1.023890e-003
<VARIANCE> 25
 4.827732e+001 5.891769e+001 1.135399e+002 8.970766e+001 7.509954e+001 5.927683e+001 6.362722e+001 5.887491e+001 6.741764e+001 5.673739e+001 4.680426e+001 3.099930e+001 1.793337e+000 2.423446e+000 3.181031e+000 3.938924e+000 2.553319e+000 2.584314e+000 3.072282e+000 3.276304e+000 2.817446e+000 3.084780e+000 2.604987e+000 1.986813e+000 2.895799e+000
<GCONST> 1.083504e+002
<TRANSP> 5
 0.000000e+000 1.000000e+000 0.000000e+000 0.000000e+000 0.000000e+000
 0.000000e+000 6.000000e-001 4.000000e-001 0.000000e+000 0.000000e+000
 0.000000e+000 0.000000e+000 6.000000e-001 4.000000e-001 0.000000e+000
 0.000000e+000 0.000000e+000 0.000000e+000 7.000000e-001 3.000000e-001
 0.000000e+000 0.000000e+000 0.000000e+000 0.000000e+000 0.000000e+000
<ENDHMM>
~h "iy"
<BEGINHMM>
<NUMSTATES> 5
<STATE> 2
<MEAN> 25
 -1.269614e-008 6.150066e-008 5.395258e-008 1.256654e-007 4.702851e-008 1.127652e-007 8.928097e-008 -8.971297e-008 -1.155853e-007 3.507038e-008 2.539227e-008 -1.068252e-007 4.637253e-003 1.316432e-003 2.617990e-003 -2.432724e-003 -1.110046e-002 -7.457927e-003 -6.235132e-003 2.702022e-003 -5.383956e-003 -9.665225e-004 -2.606054e-003 -2.915752e-003 1.023890e-003
<VARIANCE> 25
 4.827732e+001 5.891769e+001 1.135399e+002 8.970766e+001 7.509954e+001 5.927683e+001 6.362722e+001 5.887491e+001 6.741764e+001 5.673739e+001 4.680426e+001 3.099930e+001 1.793337e+000 2.423446e+000 3.181031e+000 3.938924e+000 2.553319e+000 2.584314e+000 3.072282e+000 3.276304e+000 2.817446e+000 3.084780e+000 2.604987e+000 1.986813e+000 2.895799e+000
<GCONST> 1.083504e+002
<STATE> 3
<MEAN> 25
 -1.269614e-008 6.150066e-008 5.395258e-008 1.256654e-007 4.702851e-008 1.127652e-007 8.928097e-008 -8.971297e-008 -1.155853e-007 3.507038e-008 2.539227e-008 -1.068252e-007 4.637253e-003 1.316432e-003 2.617990e-003 -2.432724e-003 -1.110046e-002 -7.457927e-003 -6.235132e-003 2.702022e-003 -5.383956e-003 -9.665225e-004 -2.606054e-003 -2.915752e-003 1.023890e-003
<VARIANCE> 25
 4.827732e+001 5.891769e+001 1.135399e+002 8.970766e+001 7.509954e+001 5.927683e+001 6.362722e+001 5.887491e+001 6.741764e+001 5.673739e+001 4.680426e+001 3.099930e+001 1.793337e+000 2.423446e+000 3.181031e+000 3.938924e+000 2.553319e+000 2.584314e+000 3.072282e+000 3.276304e+000 2.817446e+000 3.084780e+000 2.604987e+000 1.986813e+000 2.895799e+000
<GCONST> 1.083504e+002
<STATE> 4
<MEAN> 25
 -1.269614e-008 6.150066e-008 5.395258e-008 1.256654e-007 4.702851e-008 1.127652e-007 8.928097e-008 -8.971297e-008 -1.155853e-007 3.507038e-008 2.539227e-008 -1.068252e-007 4.637253e-003 1.316432e-003 2.617990e-003 -2.432724e-003 -1.110046e-002 -7.457927e-003 -6.235132e-003 2.702022e-003 -5.383956e-003 -9.665225e-004 -2.606054e-003 -2.915752e-003 1.023890e-003
<VARIANCE> 25
 4.827732e+001 5.891769e+001 1.135399e+002 8.970766e+001 7.509954e+001 5.927683e+001 6.362722e+001 5.887491e+001 6.741764e+001 5.673739e+001 4.680426e+001 3.099930e+001 1.793337e+000 2.423446e+000 3.181031e+000 3.938924e+000 2.553319e+000 2.584314e+000 3.072282e+000 3.276304e+000 2.817446e+000 3.084780e+000 2.604987e+000 1.986813e+000 2.895799e+000
<GCONST> 1.083504e+002
<TRANSP> 5
 0.000000e+000 1.000000e+000 0.000000e+000 0.000000e+000 0.000000e+000
 0.000000e+000 6.000000e-001 4.000000e-001 0.000000e+000 0.000000e+000
 0.000000e+000 0.000000e+000 6.000000e-001 4.000000e-001 0.000000e+000
 0.000000e+000 0.000000e+000 0.000000e+000 7.000000e-001 3.000000e-001
 0.000000e+000 0.000000e+000 0.000000e+000 0.000000e+000 0.000000e+000
<ENDHMM>
~h "j"
<BEGINHMM>
<NUMSTATES> 5
<STATE> 2
<MEAN> 25
 -1.269614e-008 6.150066e-008 5.395258e-008 1.256654e-007 4.702851e-008 1.127652e-007 8.928097e-008 -8.971297e-008 -1.155853e-007 3.507038e-008 2.539227e-008 -1.068252e-007 4.637253e-003 1.316432e-003 2.617990e-003 -2.432724e-003 -1.110046e-002 -7.457927e-003 -6.235132e-003 2.702022e-003 -5.383956e-003 -9.665225e-004 -2.606054e-003 -2.915752e-003 1.023890e-003
<VARIANCE> 25
 4.827732e+001 5.891769e+001 1.135399e+002 8.970766e+001 7.509954e+001 5.927683e+001 6.362722e+001 5.887491e+001 6.741764e+001 5.673739e+001 4.680426e+001 3.099930e+001 1.793337e+000 2.423446e+000 3.181031e+000 3.938924e+000 2.553319e+000 2.584314e+000 3.072282e+000 3.276304e+000 2.817446e+000 3.084780e+000 2.604987e+000 1.986813e+000 2.895799e+000
<GCONST> 1.083504e+002
<STATE> 3
<MEAN> 25
 -1.269614e-008 6.150066e-008 5.395258e-008 1.256654e-007 4.702851e-008 1.127652e-007 8.928097e-008 -8.971297e-008 -1.155853e-007 3.507038e-008 2.539227e-008 -1.068252e-007 4.637253e-003 1.316432e-003 2.617990e-003 -2.432724e-003 -1.110046e-002 -7.457927e-003 -6.235132e-003 2.702022e-003 -5.383956e-003 -9.665225e-004 -2.606054e-003 -2.915752e-003 1.023890e-003
<VARIANCE> 25
 4.827732e+001 5.891769e+001 1.135399e+002 8.970766e+001 7.509954e+001 5.927683e+001 6.362722e+001 5.887491e+001 6.741764e+001 5.673739e+001 4.680426e+001 3.099930e+001 1.793337e+000 2.423446e+000 3.181031e+000 3.938924e+000 2.553319e+000 2.584314e+000 3.072282e+000 3.276304e+000 2.817446e+000 3.084780e+000 2.604987e+000 1.986813e+000 2.895799e+000
<GCONST> 1.083504e+002
<STATE> 4
<MEAN> 25
 -1.269614e-008 6.150066e-008 5.395258e-008 1.256654e-007 4.702851e-008 1.127652e-007 8.928097e-008 -8.971297e-008 -1.155853e-007 3.507038e-008 2.539227e-008 -1.068252e-007 4.637253e-003 1.316432e-003 2.617990e-003 -2.432724e-003 -1.110046e-002 -7.457927e-003 -6.235132e-003 2.702022e-003 -5.383956e-003 -9.665225e-004 -2.606054e-003 -2.915752e-003 1.023890e-003
<VARIANCE> 25
 4.827732e+001 5.891769e+001 1.135399e+002 8.970766e+001 7.509954e+001 5.927683e+001 6.362722e+001 5.887491e+001 6.741764e+001 5.673739e+001 4.680426e+001 3.099930e+001 1.793337e+000 2.423446e+000 3.181031e+000 3.938924e+000 2.553319e+000 2.584314e+000 3.072282e+000 3.276304e+000 2.817446e+000 3.084780e+000 2.604987e+000 1.986813e+000 2.895799e+000
<GCONST> 1.083504e+002
<TRANSP> 5
 0.000000e+000 1.000000e+000 0.000000e+000 0.000000e+000 0.000000e+000
 0.000000e+000 6.000000e-001 4.000000e-001 0.000000e+000 0.000000e+000
 0.000000e+000 0.000000e+000 6.000000e-001 4.000000e-001 0.000000e+000
 0.000000e+000 0.000000e+000 0.000000e+000 7.000000e-001 3.000000e-001
 0.000000e+000 0.000000e+000 0.000000e+000 0.000000e+000 0.000000e+000
<ENDHMM>
~h "o"
<BEGINHMM>
<NUMSTATES> 5
<STATE> 2
<MEAN> 25
 -1.269614e-008 6.150066e-008 5.395258e-008 1.256654e-007 4.702851e-008 1.127652e-007 8.928097e-008 -8.971297e-008 -1.155853e-007 3.507038e-008 2.539227e-008 -1.068252e-007 4.637253e-003 1.316432e-003 2.617990e-003 -2.432724e-003 -1.110046e-002 -7.457927e-003 -6.235132e-003 2.702022e-003 -5.383956e-003 -9.665225e-004 -2.606054e-003 -2.915752e-003 1.023890e-003
<VARIANCE> 25
 4.827732e+001 5.891769e+001 1.135399e+002 8.970766e+001 7.509954e+001 5.927683e+001 6.362722e+001 5.887491e+001 6.741764e+001 5.673739e+001 4.680426e+001 3.099930e+001 1.793337e+000 2.423446e+000 3.181031e+000 3.938924e+000 2.553319e+000 2.584314e+000 3.072282e+000 3.276304e+000 2.817446e+000 3.084780e+000 2.604987e+000 1.986813e+000 2.895799e+000
<GCONST> 1.083504e+002
<STATE> 3
<MEAN> 25
 -1.269614e-008 6.150066e-008 5.395258e-008 1.256654e-007 4.702851e-008 1.127652e-007 8.928097e-008 -8.971297e-008 -1.155853e-007 3.507038e-008 2.539227e-008 -1.068252e-007 4.637253e-003 1.316432e-003 2.617990e-003 -2.432724e-003 -1.110046e-002 -7.457927e-003 -6.235132e-003 2.702022e-003 -5.383956e-003 -9.665225e-004 -2.606054e-003 -2.915752e-003 1.023890e-003
<VARIANCE> 25
 4.827732e+001 5.891769e+001 1.135399e+002 8.970766e+001 7.509954e+001 5.927683e+001 6.362722e+001 5.887491e+001 6.741764e+001 5.673739e+001 4.680426e+001 3.099930e+001 1.793337e+000 2.423446e+000 3.181031e+000 3.938924e+000 2.553319e+000 2.584314e+000 3.072282e+000 3.276304e+000 2.817446e+000 3.084780e+000 2.604987e+000 1.986813e+000 2.895799e+000
<GCONST> 1.083504e+002
<STATE> 4
<MEAN> 25
 -1.269614e-008 6.150066e-008 5.395258e-008 1.256654e-007 4.702851e-008 1.127652e-007 8.928097e-008 -8.971297e-008 -1.155853e-007 3.507038e-008 2.539227e-008 -1.068252e-007 4.637253e-003 1.316432e-003 2.617990e-003 -2.432724e-003 -1.110046e-002 -7.457927e-003 -6.235132e-003 2.702022e-003 -5.383956e-003 -9.665225e-004 -2.606054e-003 -2.915752e-003 1.023890e-003
<VARIANCE> 25
 4.827732e+001 5.891769e+001 1.135399e+002 8.970766e+001 7.509954e+001 5.927683e+001 6.362722e+001 5.887491e+001 6.741764e+001 5.673739e+001 4.680426e+001 3.099930e+001 1.793337e+000 2.423446e+000 3.181031e+000 3.938924e+000 2.553319e+000 2.584314e+000 3.072282e+000 3.276304e+000 2.817446e+000 3.084780e+000 2.604987e+000 1.986813e+000 2.895799e+000
<GCONST> 1.083504e+002
<TRANSP> 5
 0.000000e+000 1.000000e+000 0.000000e+000 0.000000e+000 0.000000e+000
 0.000000e+000 6.000000e-001 4.000000e-001 0.000000e+000 0.000000e+000
 0.000000e+000 0.000000e+000 6.000000e-001 4.000000e-001 0.000000e+000
 0.000000e+000 0.000000e+000 0.000000e+000 7.000000e-001 3.000000e-001
 0.000000e+000 0.000000e+000 0.000000e+000 0.000000e+000 0.000000e+000
<ENDHMM>
~h "sil"
<BEGINHMM>
<NUMSTATES> 5
<STATE> 2
<MEAN> 25
 -1.269614e-008 6.150066e-008 5.395258e-008 1.256654e-007 4.702851e-008 1.127652e-007 8.928097e-008 -8.971297e-008 -1.155853e-007 3.507038e-008 2.539227e-008 -1.068252e-007 4.637253e-003 1.316432e-003 2.617990e-003 -2.432724e-003 -1.110046e-002 -7.457927e-003 -6.235132e-003 2.702022e-003 -5.383956e-003 -9.665225e-004 -2.606054e-003 -2.915752e-003 1.023890e-003
<VARIANCE> 25
 4.827732e+001 5.891769e+001 1.135399e+002 8.970766e+001 7.509954e+001 5.927683e+001 6.362722e+001 5.887491e+001 6.741764e+001 5.673739e+001 4.680426e+001 3.099930e+001 1.793337e+000 2.423446e+000 3.181031e+000 3.938924e+000 2.553319e+000 2.584314e+000 3.072282e+000 3.276304e+000 2.817446e+000 3.084780e+000 2.604987e+000 1.986813e+000 2.895799e+000
<GCONST> 1.083504e+002
<STATE> 3
<MEAN> 25
 -1.269614e-008 6.150066e-008 5.395258e-008 1.256654e-007 4.702851e-008 1.127652e-007 8.928097e-008 -8.971297e-008 -1.155853e-007 3.507038e-008 2.539227e-008 -1.068252e-007 4.637253e-003 1.316432e-003 2.617990e-003 -2.432724e-003 -1.110046e-002 -7.457927e-003 -6.235132e-003 2.702022e-003 -5.383956e-003 -9.665225e-004 -2.606054e-003 -2.915752e-003 1.023890e-003
<VARIANCE> 25
 4.827732e+001 5.891769e+001 1.135399e+002 8.970766e+001 7.509954e+001 5.927683e+001 6.362722e+001 5.887491e+001 6.741764e+001 5.673739e+001 4.680426e+001 3.099930e+001 1.793337e+000 2.423446e+000 3.181031e+000 3.938924e+000 2.553319e+000 2.584314e+000 3.072282e+000 3.276304e+000 2.817446e+000 3.084780e+000 2.604987e+000 1.986813e+000 2.895799e+000
<GCONST> 1.083504e+002
<STATE> 4
<MEAN> 25
 -1.269614e-008 6.150066e-008 5.395258e-008 1.256654e-007 4.702851e-008 1.127652e-007 8.928097e-008 -8.971297e-008 -1.155853e-007 3.507038e-008 2.539227e-008 -1.068252e-007 4.637253e-003 1.316432e-003 2.617990e-003 -2.432724e-003 -1.110046e-002 -7.457927e-003 -6.235132e-003 2.702022e-003 -5.383956e-003 -9.665225e-004 -2.606054e-003 -2.915752e-003 1.023890e-003
<VARIANCE> 25
 4.827732e+001 5.891769e+001 1.135399e+002 8.970766e+001 7.509954e+001 5.927683e+001 6.362722e+001 5.887491e+001 6.741764e+001 5.673739e+001 4.680426e+001 3.099930e+001 1.793337e+000 2.423446e+000 3.181031e+000 3.938924e+000 2.553319e+000 2.584314e+000 3.072282e+000 3.276304e+000 2.817446e+000 3.084780e+000 2.604987e+000 1.986813e+000 2.895799e+000
<GCONST> 1.083504e+002
<TRANSP> 5
 0.000000e+000 1.000000e+000 0.000000e+000 0.000000e+000 0.000000e+000
 0.000000e+000 6.000000e-001 4.000000e-001 0.000000e+000 0.000000e+000
 0.000000e+000 0.000000e+000 6.000000e-001 4.000000e-001 0.000000e+000
 0.000000e+000 0.000000e+000 0.000000e+000 7.000000e-001 3.000000e-001
 0.000000e+000 0.000000e+000 0.000000e+000 0.000000e+000 0.000000e+000
<ENDHMM>
