~o
<STREAMINFO> 1 25
<VECSIZE> 25<NULLD><MFCC_D_N_Z_0><DIAGC>
~s "silst"
<MEAN> 25
 -4.864071e+000 3.862000e+000 -6.971642e+000 8.376438e+000 2.476100e+000 1.349465e+000 3.419034e+000 -3.137231e+000 2.450261e+000 -4.573109e+000 1.665782e-001 2.053473e+000 6.133850e-001 -3.810419e-001 7.229131e-001 -6.467396e-001 2.850352e-001 2.234033e-001 -2.818135e-001 -4.301134e-001 -4.423756e-001 2.270763e-001 -1.590802e-001 -2.559082e-001 1.214950e+000
<VARIANCE> 25
 3.506801e+001 4.075958e+001 5.989874e+001 5.933917e+001 5.868344e+001 6.634343e+001 5.468458e+001 4.517480e+001 5.030385e+001 3.655059e+001 3.574951e+001 3.320070e+001 3.277857e+000 4.610943e+000 4.678821e+000 5.901197e+000 4.648499e+000 4.631196e+000 4.507978e+000 3.863437e+000 4.359602e+000 3.457148e+000 3.063793e+000 3.065670e+000 5.032681e+000
<GCONST> 1.105921e+002
~h "b"
<BEGINHMM>
<NUMSTATES> 5
<STATE> 2
<MEAN> 25
 5.781738e+000 1.298691e+001 -1.177315e+000 1.201708e+001 1.790216e+000 3.551272e+000 -2.296474e+000 -7.534196e+000 -5.547222e+000 -3.764157e+000 -1.634364e+000 -3.665406e+000 8.173928e-001 -4.284842e-001 9.180236e-001 -8.504806e-001 -3.879181e-001 1.753139e-001 -1.004068e+000 -6.851428e-001 -9.923856e-002 1.225200e+000 4.739033e-001 -5.556541e-001 1.581958e+000
<VARIANCE> 25
 1.499679e+001 6.779070e+001 2.874863e+001 1.018966e+002 3.505478e+001 9.296174e+001 3.624711e+001 2.660919e+001 1.970783e+001 5.082013e+001 2.626645e+001 2.680323e+001 2.102398e+000 5.214826e+000 2.211465e+000 5.414638e+000 2.618522e+000 3.193086e+000 2.921971e+000 4.350063e+000 3.062968e+000 3.415608e+000 3.588967e+000 3.532885e+000 2.390066e+000
<GCONST> 1.045830e+002
<STATE> 3
<MEAN> 25
 5.281461e+000 1.818573e+000 2.052842e+000 2.179155e+000 -1.830288e+000 1.320819e+000 -7.049796e+000 -2.026895e+000 -3.167805e+000 4.172986e+000 3.181139e+000 -8.647091e-001 -6.732338e-001 -2.922172e+000 2.304220e+000 -3.160244e+000 -1.606432e+000 -7.580632e-001 -1.064903e+000 2.078081e+000 -7.251068e-001 2.599151e+000 2.837845e-001 7.796675e-001 3.068570e+000
<VARIANCE> 25
 1.428370e+001 7.910226e+001 6.198901e+001 1.764844e+002 4.414586e+001 4.423796e+001 4.041232e+001 9.301186e+001 4.398783e+001 4.228847e+001 2.321521e+001 3.681240e+001 1.384934e+000 7.405508e+000 4.724879e+000 7.099362e+000 6.442211e+000 4.574737e+000 5.486031e+000 1.035500e+001 7.575447e+000 6.522991e+000 3.966341e+000 3.267180e+000 4.347027e+000
<GCONST> 1.135603e+002
<STATE> 4
<MEAN> 25
 4.493051e+000 4.601785e+000 -1.568053e+000 -1.370080e+000 -1.330901e-001 -1.536813e+000 -6.553445e+000 -4.369914e+000 3.597787e+000 8.084806e+000 1.326612e+000 -4.217696e+000 -1.718027e-001 -2.970020e-001 9.087365e-001 4.622937e-001 -5.354335e-001 -4.974845e-001 1.792207e-001 4.466010e-001 4.443588e-001 -1.082396e-001 -4.795092e-001 -1.828820e-001 2.697881e-001
<VARIANCE> 25
 1.440060e+001 1.346700e+002 4.270395e+001 1.785060e+002 5.125151e+001 2.581611e+001 2.715883e+001 6.399692e+001 6.947229e+001 5.396962e+001 2.977667e+001 2.903567e+001 5.891982e-001 1.338884e+000 1.427027e+000 2.994605e+000 2.018772e+000 2.514008e+000 2.227770e+000 1.643170e+000 3.488414e+000 2.799817e+000 2.332262e+000 1.917683e+000 8.191314e-001
<GCONST> 9.981051e+001
<TRANSP> 5
 0.000000e+000 1.000000e+000 0.000000e+000 0.000000e+000 0.000000e+000
 0.000000e+000 6.498753e-001 3.501247e-001 0.000000e+000 0.000000e+000
 0.000000e+000 0.000000e+000 3.893242e-001 6.106758e-001 0.000000e+000
 0.000000e+000 0.000000e+000 0.000000e+000 7.148495e-001 2.851505e-001
 0.000000e+000 0.000000e+000 0.000000e+000 0.000000e+000 0.000000e+000
<ENDHMM>
~h "d"
<BEGINHMM>
<NUMSTATES> 5
<STATE> 2
<MEAN> 25
 1.281721e+000 8.291152e+000 -4.987542e+000 1.185565e+001 1.997147e+000 -1.861225e+000 -1.437128e-001 -2.980585e+000 4.623937e+000 -3.306971e-001 -2.389412e+000 2.016379e+000 -3.335903e-001 3.028568e-001 2.359593e-001 8.574234e-001 1.766075e-001 -2.500935e-001 2.012566e-001 1.122727e-001 1.013096e-001 -6.855552e-001 -1.882242e-001 2.701889e-002 -1.900712e-001
<VARIANCE> 25
 3.892194e+001 2.462417e+001 3.748867e+001 2.030168e+001 5.482098e+001 2.494812e+001 5.402095e+001 4.290760e+001 5.247913e+001 3.925908e+001 5.060602e+001 2.933090e+001 9.436204e-001 1.973198e+000 2.373217e+000 1.751307e+000 2.964264e+000 2.678179e+000 3.011944e+000 3.762178e+000 3.961883e+000 5.146098e+000 4.665535e+000 2.187175e+000 6.458268e-001
<GCONST> 1.007957e+002
<STATE> 3
<MEAN> 25
 4.804165e+000 1.333157e+001 2.391950e+000 1.549028e+001 -7.733395e-001 -2.050950e+000 5.094269e-002 -6.110237e+000 -1.256057e+000 -3.679276e+000 -4.562234e+000 -3.769302e+000 -1.642387e-001 -7.221357e-001 4.864618e-001 -6.547090e-001 -5.152314e-001 -7.791792e-001 -1.084350e-001 2.891946e-002 1.232408e-002 -1.074582e+000 1.316098e+000 -1.769456e-001 2.445882e+000
<VARIANCE> 25
 2.429350e+001 3.374060e+001 2.521280e+001 3.053102e+001 4.821141e+001 4.162854e+001 4.084846e+001 4.299176e+001 2.944457e+001 5.837362e+001 3.657971e+001 2.724219e+001 6.515115e+000 5.718100e+000 3.380740e+000 3.491978e+000 6.623690e+000 5.722609e+000 3.881625e+000 6.492491e+000 6.075600e+000 5.787363e+000 8.512982e+000 4.993840e+000 3.259846e+000
<GCONST> 1.101706e+002
<STATE> 4
<MEAN> 25
 7.876855e-001 2.829904e+000 1.829390e+000 4.786653e+000 -3.119371e+000 -7.784333e+000 -2.478468e+000 -1.681410e+000 4.688068e+000 -5.912030e+000 4.173349e+000 3.912527e-001 -5.367009e-001 -3.217446e+000 1.302513e+000 -4.353132e+000 -1.301601e+000 -2.267218e+000 -7.753807e-002 2.411285e+000 9.267393e-001 1.600900e+000 8.160124e-001 1.282179e+000 3.488298e+000
<VARIANCE> 25
 1.757665e+001 4.173919e+001 3.337170e+001 4.901216e+001 4.098783e+001 4.145742e+001 5.248205e+001 6.172185e+001 4.955015e+001 3.791867e+001 3.189413e+001 2.850444e+001 1.496903e+000 2.665404e+000 3.415033e+000 3.906800e+000 4.178778e+000 4.928686e+000 6.788002e+000 5.797377e+000 8.061327e+000 3.726746e+000 7.347915e+000 3.593274e+000 2.632464e+000
<GCONST> 1.081330e+002
<TRANSP> 5
 0.000000e+000 1.000000e+000 0.000000e+000 0.000000e+000 0.000000e+000
 0.000000e+000 7.427809e-001 2.572191e-001 0.000000e+000 0.000000e+000
 0.000000e+000 0.000000e+000 7.017058e-001 2.982942e-001 0.000000e+000
 0.000000e+000 0.000000e+000 0.000000e+000 4.647441e-001 5.352559e-001
 0.000000e+000 0.000000e+000 0.000000e+000 0.000000e+000 0.000000e+000
<ENDHMM>
~h "g"
<BEGINHMM>
<NUMSTATES> 5
<STATE> 2
<MEAN> 25
 2.001014e+000 8.649933e+000 3.362722e-001 7.547399e+000 -3.776291e+000 -2.378079e+000 -4.489864e-001 -4.838139e+000 -2.409237e+000 3.165895e+000 4.326471e+000 -8.494872e+000 1.771146e-002 -2.465571e-002 -3.049849e-001 4.496214e-001 -5.381832e-001 4.236332e-003 3.571903e-001 -4.976173e-001 -4.845653e-001 1.645524e-001 5.072483e-001 -4.286529e-001 2.199590e-001
<VARIANCE> 25
 1.895653e+001 2.409821e+001 3.181665e+001 3.598675e+001 3.226312e+001 1.926724e+001 8.548151e+001 5.884030e+001 2.231283e+001 2.446003e+001 2.080914e+001 2.138793e+001 7.138588e-001 7.126727e-001 1.559393e+000 1.938932e+000 3.286739e+000 8.831782e-001 3.439606e+000 3.944541e+000 2.964720e+000 2.181337e+000 2.138709e+000 2.190213e+000 9.275891e-001
<GCONST> 9.390997e+001
<STATE> 3
<MEAN> 25
 2.532260e+000 6.580002e+000 -5.630283e+000 1.057720e+001 -4.596032e+000 2.382345e+000 3.415219e+000 -8.638738e+000 9.998377e-001 2.212274e+000 1.038966e-001 -3.568392e+000 -1.425513e-001 -5.630449e-001 -2.470283e-001 1.189132e-001 -4.712007e-001 -1.568455e-001 2.907414e-001 -4.626231e-001 3.721669e-002 -5.286314e-001 3.241257e-001 2.615843e-001 3.115718e-001
<VARIANCE> 25
 2.160012e+001 6.004945e+001 5.402785e+001 4.260809e+001 3.063996e+001 3.444891e+001 7.196341e+001 3.452758e+001 9.433733e+001 3.269429e+001 4.465511e+001 2.599726e+001 1.409531e+000 2.218163e+000 3.577249e+000 2.021473e+000 3.165888e+000 2.310349e+000 4.339744e+000 4.838146e+000 3.626312e+000 3.999291e+000 2.974815e+000 1.891727e+000 1.297802e+000
<GCONST> 1.035423e+002
<STATE> 4
<MEAN> 25
 5.160984e-001 4.563303e+000 1.314374e+000 9.409579e+000 -4.978214e+000 -2.354563e+000 2.257186e+000 -2.793469e+000 -3.875445e+000 7.348788e-001 5.420717e+000 -6.587509e+000 -4.641705e-001 -1.720583e+000 1.964340e+000 -2.044021e+000 -2.172083e-001 4.951746e-001 -1.223429e+000 1.807446e+000 -4.277086e-001 -4.811081e-002 -1.694907e-002 5.075968e-001 2.263625e+000
<VARIANCE> 25
 3.500041e+001 4.086993e+001 7.926044e+001 4.080238e+001 3.910529e+001 2.525126e+001 6.043976e+001 6.215893e+001 7.825935e+001 3.799593e+001 2.601149e+001 3.706379e+001 3.944778e+000 3.626827e+000 5.362957e+000 6.084348e+000 3.589276e+000 4.021318e+000 7.654228e+000 6.282296e+000 6.294346e+000 5.144114e+000 4.190379e+000 4.611263e+000 2.379291e+000
<GCONST> 1.112835e+002
<TRANSP> 5
 0.000000e+000 1.000000e+000 0.000000e+000 0.000000e+000 0.000000e+000
 0.000000e+000 7.230929e-001 2.769071e-001 0.000000e+000 0.000000e+000
 0.000000e+000 0.000000e+000 6.335508e-001 3.664492e-001 0.000000e+000
 0.000000e+000 0.000000e+000 0.000000e+000 7.426044e-001 2.573957e-001
 0.000000e+000 0.000000e+000 0.000000e+000 0.000000e+000 0.000000e+000
<ENDHMM>
~h "h"
<BEGINHMM>
<NUMSTATES> 5
<STATE> 2
<MEAN> 25
 -5.314182e+000 -3.196372e+000 -1.386526e+001 5.704109e+000 7.441024e+000 6.594769e+000 4.202355e+000 -3.504811e+000 1.508376e+000 -7.278477e+000 5.410117e+000 3.671276e+000 -1.921028e-001 -9.465099e-001 -7.980001e-002 -1.001880e-001 6.540104e-001 3.975041e-001 1.124158e-001 -7.223401e-001 1.518525e-001 -3.004161e-001 -7.900179e-002 4.636272e-001 4.761680e-001
<VARIANCE> 25
 1.291726e+001 5.007780e+001 5.119504e+001 4.798781e+001 2.957426e+001 3.061422e+001 4.536935e+001 4.022702e+001 3.284583e+001 2.797922e+001 2.351666e+001 3.111694e+001 6.028251e-001 1.249042e+000 2.244318e+000 1.647672e+000 2.047740e+000 1.642790e+000 3.306089e+000 2.531974e+000 2.197392e+000 1.849825e+000 2.209589e+000 1.912038e+000 6.071700e-001
<GCONST> 9.466846e+001
<STATE> 3
<MEAN> 25
 -5.123848e-001 -7.311542e+000 -5.747540e+000 -7.018198e-002 1.297836e+001 9.239665e+000 6.833836e+000 -7.238173e+000 2.807939e+000 -6.030802e+000 -1.311039e+000 4.274396e+000 1.835421e+000 -4.396953e-002 1.621025e+000 -1.943258e+000 3.070346e-002 1.629555e-001 -2.266257e-001 3.043902e-001 -1.259637e+000 1.202666e+000 -9.743595e-001 -1.121100e+000 2.762429e+000
<VARIANCE> 25
 3.150500e+001 2.909212e+001 3.772956e+001 7.157775e+001 4.415587e+001 3.109967e+001 1.989894e+001 2.428564e+001 3.406716e+001 2.858754e+001 2.085149e+001 2.817470e+001 2.488035e+000 3.095273e+000 1.848874e+000 4.597220e+000 1.980168e+000 1.573457e+000 2.162331e+000 1.815437e+000 2.047803e+000 1.795147e+000 1.670224e+000 1.720153e+000 2.553644e+000
<GCONST> 9.731152e+001
<STATE> 4
<MEAN> 25
 3.420498e+000 -9.758682e+000 -3.414087e+000 -9.912143e+000 1.115543e+001 8.931246e+000 8.520206e+000 -8.396190e+000 1.740930e+000 -1.469690e+000 -1.650002e+000 -1.304936e+000 -3.710625e-002 8.939459e-002 -7.680029e-002 4.672242e-002 -1.555548e-001 -2.100233e-001 -1.149802e-001 2.629052e-001 1.929667e-001 7.861076e-002 -2.583809e-001 -2.034618e-001 -1.005139e-001
<VARIANCE> 25
 3.771620e+000 1.541312e+001 1.224131e+001 2.931254e+001 1.698421e+001 2.047540e+001 3.041414e+001 2.251272e+001 2.037745e+001 1.236605e+001 1.610507e+001 3.518818e+001 1.882529e-001 8.682921e-001 4.970190e-001 1.695857e+000 6.191381e-001 6.133891e-001 7.701575e-001 8.526855e-001 1.012480e+000 7.144855e-001 6.056174e-001 1.672947e+000 7.658482e-001
<GCONST> 7.619389e+001
<TRANSP> 5
 0.000000e+000 1.000000e+000 0.000000e+000 0.000000e+000 0.000000e+000
 0.000000e+000 8.689038e-001 1.310962e-001 0.000000e+000 0.000000e+000
 0.000000e+000 0.000000e+000 6.827011e-001 3.172990e-001 0.000000e+000
 0.000000e+000 0.000000e+000 0.000000e+000 8.755212e-001 1.244788e-001
 0.000000e+000 0.000000e+000 0.000000e+000 0.000000e+000 0.000000e+000
<ENDHMM>
~h "j"
<BEGINHMM>
<NUMSTATES> 5
<STATE> 2
<MEAN> 25
 -1.939685e+000 1.641621e+001 3.843328e+000 6.934767e+000 3.609102e-001 -3.919116e+000 3.227502e+000 -8.701651e+000 1.378584e+000 -4.553919e+000 2.275647e+000 -1.719712e+000 -3.191637e-001 -1.477152e+000 1.678619e+000 -1.529670e+000 -6.560993e-001 -7.287588e-001 -5.565811e-001 7.046631e-001 -6.562983e-001 -2.520760e-001 1.498399e+000 5.212061e-001 2.287725e+000
<VARIANCE> 25
 6.441782e+001 5.787952e+001 4.378098e+001 5.332670e+001 5.377462e+001 3.062796e+001 4.246564e+001 7.656091e+001 3.064003e+001 5.520142e+001 6.404202e+001 1.473490e+001 7.742465e+000 9.622823e+000 4.255054e+000 2.411235e+000 5.246719e+000 3.534912e+000 4.576916e+000 1.305878e+001 4.305622e+000 6.043893e+000 5.083521e+000 1.656267e+000 1.923670e+000
<GCONST> 1.113965e+002
<STATE> 3
<MEAN> 25
 1.201003e+000 -6.186092e+000 1.071228e+001 -7.776049e+000 -5.787917e+000 -7.107139e+000 -2.711831e+000 7.584976e+000 3.965535e-001 -2.552435e-001 5.038649e-001 4.418991e+000 6.866302e-001 -2.257656e+000 -2.398591e+000 -1.266021e+000 8.999511e-001 8.398443e-001 8.497526e-001 1.696124e+000 2.111176e+000 4.910055e-001 -3.417620e+000 -3.889901e-001 1.425956e+000
<VARIANCE> 25
 5.404925e+000 2.900974e+001 4.117376e+001 1.886600e+001 1.814547e+001 9.613329e+000 3.901823e+001 3.323707e+001 7.749184e+001 3.356002e+001 6.344053e+001 2.029087e+001 5.447500e-001 2.492096e+000 3.331613e+000 1.489441e+000 2.690458e+000 1.934920e+000 1.894843e+000 3.606729e+000 1.978586e+000 3.056653e+000 1.248681e+000 1.720580e+000 7.111488e-001
<GCONST> 9.271293e+001
<STATE> 4
<MEAN> 25
 8.658896e-001 -9.189691e+000 -4.698023e+000 -6.027713e+000 6.728424e-001 4.349103e+000 -6.458269e-001 3.648874e+000 1.087470e+001 -7.028687e+000 -7.759551e+000 -2.656184e+000 2.110916e-001 -1.714222e-001 -9.847242e-001 3.342434e-001 1.080725e+000 1.917859e+000 -8.583349e-001 -1.060675e+000 3.746830e-001 -2.564100e-001 -2.046704e-001 -1.293491e+000 -1.546121e-002
<VARIANCE> 25
 6.860900e+000 2.504902e+001 5.643731e+001 1.322897e+001 4.741921e+000 4.205787e+001 3.593183e+001 3.401064e+001 3.569696e+001 2.422105e+001 3.251668e+001 1.789765e+001 1.513541e+000 2.228755e+000 7.213340e+000 1.278722e+000 1.819919e+000 1.268785e+000 2.473760e+000 2.886976e+000 3.561276e+000 3.522147e+000 2.744800e+000 2.626571e+000 7.004606e-001
<GCONST> 9.363068e+001
<TRANSP> 5
 0.000000e+000 1.000000e+000 0.000000e+000 0.000000e+000 0.000000e+000
 0.000000e+000 8.937284e-001 1.062717e-001 0.000000e+000 0.000000e+000
 0.000000e+000 0.000000e+000 7.705315e-001 2.294685e-001 0.000000e+000
 0.000000e+000 0.000000e+000 0.000000e+000 6.906565e-001 3.093435e-001
 0.000000e+000 0.000000e+000 0.000000e+000 0.000000e+000 0.000000e+000
<ENDHMM>
~h "k"
<BEGINHMM>
<NUMSTATES> 5
<STATE> 2
<MEAN> 25
 -5.227094e+000 -6.078109e-001 -6.455910e+000 5.711798e+000 -1.251637e+000 -3.306991e+000 -4.939781e-001 -4.259219e-002 -2.631783e+000 3.435037e-001 3.847831e+000 -2.568576e+000 4.640076e-001 -1.560902e+000 7.514670e-001 -1.608114e+000 8.133227e-001 -6.672745e-002 -9.239936e-001 7.244538e-001 -7.619766e-001 7.985708e-001 -3.123339e-001 -2.469659e-001 2.953827e+000
<VARIANCE> 25
 2.807996e+001 4.778454e+001 9.201254e+001 3.656738e+001 7.538710e+001 6.145459e+001 5.506839e+001 3.607460e+001 4.722811e+001 4.168699e+001 3.307006e+001 2.875487e+001 5.241756e+000 5.447500e+000 1.785546e+001 5.808692e+000 8.167280e+000 5.497983e+000 6.797569e+000 4.527091e+000 6.562511e+000 5.281335e+000 3.668204e+000 2.997568e+000 3.393778e+000
<GCONST> 1.141371e+002
<STATE> 3
<MEAN> 25
 2.297082e+000 -8.363734e+000 6.623911e+000 -9.460769e+000 1.484156e-001 -7.081432e+000 -4.186013e+000 8.368171e+000 -4.358300e+000 7.318260e+000 -1.490639e+000 -1.764392e+000 6.009219e-001 -9.545296e-001 8.321981e-001 -1.734916e+000 5.400301e-001 -9.583395e-002 5.522444e-001 5.694970e-001 4.783504e-001 4.331531e-001 -8.766419e-001 3.701996e-001 1.019596e+000
<VARIANCE> 25
 9.926274e+000 9.146541e+000 3.569931e+001 1.438056e+001 2.563807e+001 3.940908e+001 3.244567e+001 1.848664e+001 2.572036e+001 2.342915e+001 1.887910e+001 1.841018e+001 1.247695e+000 2.180506e+000 3.652334e+000 3.694417e+000 1.079761e+000 7.245074e-001 2.160428e+000 1.811433e+000 1.376836e+000 3.744595e+000 1.368717e+000 8.490545e-001 2.545639e+000
<GCONST> 8.971008e+001
<STATE> 4
<MEAN> 25
 2.265045e-001 -7.689940e-001 4.358476e+000 -2.006988e+000 -4.907211e+000 -1.927679e+000 1.973625e-001 8.789710e-001 -3.728580e+000 3.493656e+000 9.333476e-001 -1.570012e+000 5.249732e-002 3.627394e-001 3.560038e-002 3.870526e-002 1.866063e-001 5.496055e-002 1.078394e-001 -1.703344e-001 4.308781e-001 -9.677695e-002 -1.569457e-001 -3.135137e-002 -1.680929e-001
<VARIANCE> 25
 3.325515e+001 5.479242e+001 1.227400e+002 6.358614e+001 6.569978e+001 3.694271e+001 4.176032e+001 6.073678e+001 6.436076e+001 3.742425e+001 4.787199e+001 2.973476e+001 1.461917e+000 3.914088e+000 5.308073e+000 3.910836e+000 2.298881e+000 1.475719e+000 2.602478e+000 2.647285e+000 2.712648e+000 3.516170e+000 2.867658e+000 1.916643e+000 3.790462e+000
<GCONST> 1.063185e+002
<TRANSP> 5
 0.000000e+000 1.000000e+000 0.000000e+000 0.000000e+000 0.000000e+000
 0.000000e+000 8.125218e-001 1.874782e-001 0.000000e+000 0.000000e+000
 0.000000e+000 0.000000e+000 7.157778e-001 2.842222e-001 0.000000e+000
 0.000000e+000 0.000000e+000 0.000000e+000 6.590148e-001 3.409852e-001
 0.000000e+000 0.000000e+000 0.000000e+000 0.000000e+000 0.000000e+000
<ENDHMM>
~h "l"
<BEGINHMM>
<NUMSTATES> 5
<STATE> 2
<MEAN> 25
 3.543209e+000 -4.546309e+000 3.334144e+000 -9.357234e+000 1.825500e+000 4.610018e+000 -9.885650e+000 -6.832179e-002 6.219411e+000 9.586005e-001 -1.838147e+000 -2.545471e+000 5.025305e-001 6.263785e-001 1.211220e+000 -2.595068e-001 -2.783582e-001 -1.670876e-001 -2.325052e+000 -8.062738e-001 2.091076e-001 1.060660e+000 7.122545e-001 1.422752e-001 -7.199019e-001
<VARIANCE> 25
 1.226830e+001 4.479409e+001 6.203746e+001 4.488816e+001 4.498920e+001 4.922090e+001 4.321832e+001 3.534193e+001 3.395114e+001 4.318623e+001 4.707034e+001 2.772955e+001 3.610486e-001 1.004273e+000 1.039070e+000 1.696383e+000 4.829747e+000 3.886035e+000 2.299306e+000 3.704083e+000 2.228254e+000 4.266936e+000 6.726260e+000 1.530391e+000 2.754298e-001
<GCONST> 9.760740e+001
<STATE> 3
<MEAN> 25
 3.939895e+000 -2.665576e+000 8.668556e+000 -8.975945e+000 8.826149e-001 1.321788e-001 -1.609569e+001 3.287484e-002 3.945686e+000 2.894565e+000 9.871274e-001 -6.396730e-002 4.276362e-002 1.187884e-001 -1.157830e-001 -3.288490e-003 1.734868e-001 3.083211e-002 -3.851507e-001 1.416242e-001 -4.592629e-002 1.424472e-001 7.697034e-002 -1.599068e-001 -1.548483e-001
<VARIANCE> 25
 1.293426e+001 1.966653e+001 3.125008e+001 3.490067e+001 2.844319e+001 6.023580e+001 3.407998e+001 4.346767e+001 3.788273e+001 5.347154e+001 3.761697e+001 3.095874e+001 2.616221e-001 5.970021e-001 9.991574e-001 1.272367e+000 1.292650e+000 1.086850e+000 1.434501e+000 1.802904e+000 1.128087e+000 1.888128e+000 8.417864e-001 1.061269e+000 2.873162e-001
<GCONST> 8.697063e+001
<STATE> 4
<MEAN> 25
 1.578807e+000 -4.311277e-001 2.715918e+000 -2.588197e+000 3.150111e-001 1.495672e+000 -9.144709e+000 2.265611e+000 6.663173e+000 -2.824748e+000 5.064170e-001 4.440404e-002 -3.872327e-001 -5.884701e-001 -1.521063e+000 3.301554e-001 -1.143325e-001 -3.399954e-001 2.551965e+000 1.077561e+000 5.552803e-001 -7.443382e-001 -7.555176e-001 -3.702258e-002 4.968967e-001
<VARIANCE> 25
 1.525549e+001 3.291559e+001 6.843126e+001 7.785419e+001 4.427480e+001 3.928356e+001 9.160406e+001 3.926302e+001 4.268127e+001 6.291939e+001 3.302971e+001 3.970726e+001 5.239283e-001 1.739480e+000 3.020282e+000 1.722419e+000 3.618043e+000 2.703889e+000 5.966283e+000 4.615220e+000 2.572937e+000 4.279088e+000 4.624434e+000 3.327376e+000 1.373150e+000
<GCONST> 1.040718e+002
<TRANSP> 5
 0.000000e+000 1.000000e+000 0.000000e+000 0.000000e+000 0.000000e+000
 0.000000e+000 6.832443e-001 3.167557e-001 0.000000e+000 0.000000e+000
 0.000000e+000 0.000000e+000 7.545187e-001 2.454813e-001 0.000000e+000
 0.000000e+000 0.000000e+000 0.000000e+000 7.214289e-001 2.785711e-001
 0.000000e+000 0.000000e+000 0.000000e+000 0.000000e+000 0.000000e+000
<ENDHMM>
~h "m"
<BEGINHMM>
<NUMSTATES> 5
<STATE> 2
<MEAN> 25
 4.642501e+000 -2.721732e-001 9.731880e-001 -7.065600e-001 3.609105e+000 4.601390e+000 -4.139456e-001 -6.940718e+000 -2.872010e+000 -4.162985e+000 2.872062e+000 8.059003e-002 3.278036e-002 8.672791e-001 1.516654e+000 2.214068e+000 2.961373e-001 -5.105206e-001 -9.042174e-001 -2.341074e+000 -1.462577e+000 -4.999083e-003 -1.532844e-001 1.684044e-001 -7.078431e-001
<VARIANCE> 25
 6.237801e+000 2.070650e+001 4.570502e+001 7.959484e+001 2.602332e+001 3.106053e+001 2.969623e+001 4.763226e+001 3.578299e+001 3.122686e+001 3.792809e+001 1.888975e+001 3.386706e-001 1.546900e+000 1.300484e+000 3.616784e+000 2.520348e+000 2.309106e+000 1.542139e+000 3.354288e+000 3.637820e+000 1.467651e+000 3.005967e+000 1.408947e+000 1.228078e+000
<GCONST> 9.418014e+001
<STATE> 3
<MEAN> 25
 5.205605e+000 8.870984e-001 4.151274e+000 5.777659e+000 5.105080e+000 2.536272e+000 -3.307701e+000 -1.192397e+001 -7.557371e+000 -3.117208e+000 1.864064e+000 -9.023633e-001 2.093974e-001 -1.332830e-001 -3.417265e-001 -7.750462e-001 -5.392200e-001 -6.132158e-002 1.478553e-001 7.285573e-001 2.562022e-001 -5.354999e-002 4.986028e-002 5.604402e-002 3.963827e-001
<VARIANCE> 25
 8.409166e+000 1.383329e+001 2.408532e+001 2.609692e+001 2.136333e+001 3.872766e+001 2.676729e+001 1.678426e+001 3.090671e+001 3.379807e+001 5.564523e+001 2.336504e+001 2.510694e-001 6.870880e-001 1.471682e+000 2.054235e+000 1.369819e+000 8.943357e-001 9.847159e-001 1.999041e+000 2.119209e+000 1.196465e+000 1.462561e+000 9.798253e-001 5.331752e-001
<GCONST> 8.498479e+001
<STATE> 4
<MEAN> 25
 6.621770e+000 -3.511115e+000 -1.759358e+000 -7.516511e+000 3.687791e+000 6.789129e+000 -7.377227e-001 -3.650977e+000 -1.709887e+000 -3.376621e+000 1.728746e+000 1.664248e+000 1.357078e-001 -1.466155e+000 -8.294519e-001 -2.269346e+000 4.590386e-001 3.145767e-001 1.874273e-002 2.109197e+000 9.758973e-001 1.195444e+000 -6.830941e-001 1.045537e-001 1.051729e+000
<VARIANCE> 25
 7.162082e+000 2.345845e+001 3.154539e+001 5.671786e+001 3.685789e+001 3.986674e+001 2.335817e+001 2.384695e+001 2.256538e+001 3.288005e+001 2.759867e+001 2.374465e+001 3.925818e-001 1.166726e+000 2.955727e+000 4.568384e+000 3.559278e+000 2.117701e+000 2.495956e+000 4.415100e+000 3.041994e+000 1.909286e+000 3.289603e+000 2.315668e+000 6.582819e-001
<GCONST> 9.488337e+001
<TRANSP> 5
 0.000000e+000 1.000000e+000 0.000000e+000 0.000000e+000 0.000000e+000
 0.000000e+000 6.857671e-001 3.142330e-001 0.000000e+000 0.000000e+000
 0.000000e+000 0.000000e+000 7.983116e-001 2.016885e-001 0.000000e+000
 0.000000e+000 0.000000e+000 0.000000e+000 7.011703e-001 2.988298e-001
 0.000000e+000 0.000000e+000 0.000000e+000 0.000000e+000 0.000000e+000
<ENDHMM>
~h "n"
<BEGINHMM>
<NUMSTATES> 5
<STATE> 2
<MEAN> 25
 5.591012e+000 -8.040284e-002 3.874041e+000 2.709024e+000 -8.177317e-001 -5.139499e-001 -4.939555e+000 -5.244624e+000 -8.178344e-002 3.309277e+000 -3.400579e-001 -1.783530e-001 3.130905e-001 1.255527e+000 6.647155e-001 1.849149e+000 3.074723e-003 -1.251085e+000 -5.661234e-001 -2.377252e+000 2.997396e-001 1.463798e+000 -5.129552e-001 2.098062e-003 -9.964159e-001
<VARIANCE> 25
 7.934958e+000 3.131369e+001 3.968981e+001 3.093546e+001 4.358770e+001 4.016847e+001 5.072199e+001 7.534911e+001 3.835434e+001 4.014281e+001 2.539769e+001 2.488013e+001 4.965563e-001 1.609909e+000 2.309539e+000 2.424299e+000 2.751774e+000 2.381998e+000 2.409852e+000 3.907260e+000 2.148783e+000 2.308087e+000 2.794330e+000 1.963311e+000 8.661462e-001
<GCONST> 9.686079e+001
<STATE> 3
<MEAN> 25
 5.499650e+000 2.485143e+000 7.132744e+000 5.584008e+000 -2.229345e+000 -3.451684e+000 -6.060100e+000 -7.564792e+000 -6.329845e-001 7.401664e+000 -3.095826e+000 -4.190809e-001 1.194091e-003 1.857567e-001 -1.202791e-001 2.558510e-001 7.028850e-003 -3.135327e-002 3.431171e-002 -7.005447e-002 8.314583e-002 2.603062e-002 -3.109586e-001 -8.952023e-003 -3.515786e-001
<VARIANCE> 25
 6.016160e+000 1.782801e+001 2.298554e+001 1.804369e+001 3.147499e+001 2.779848e+001 4.298394e+001 2.726156e+001 4.776547e+001 3.843215e+001 2.965175e+001 2.162386e+001 1.902954e-001 7.094979e-001 9.572983e-001 6.296471e-001 7.650514e-001 9.570491e-001 1.359208e+000 1.111766e+000 1.075853e+000 1.649784e+000 1.084649e+000 8.081003e-001 6.578490e-001
<GCONST> 8.208450e+001
<STATE> 4
<MEAN> 25
 3.511872e+000 4.124226e+000 1.874560e+000 7.770728e+000 -2.073386e+000 -2.195032e-001 -4.358535e+000 -6.780582e+000 1.393581e+000 2.033925e+000 -2.387529e+000 -3.138424e-001 -4.563353e-001 -5.880159e-001 -8.969611e-001 -6.969787e-001 5.070302e-002 7.697814e-001 1.836025e-001 1.696281e+000 2.044795e-001 -1.900622e+000 4.108219e-001 -2.236199e-001 2.947124e-001
<VARIANCE> 25
 1.449407e+001 3.348772e+001 3.343558e+001 3.146688e+001 3.976478e+001 4.426643e+001 4.096745e+001 4.326426e+001 3.344211e+001 5.468614e+001 3.107573e+001 2.715446e+001 4.704172e-001 3.422524e+000 1.725208e+000 3.518470e+000 2.363888e+000 3.411006e+000 2.756969e+000 6.425467e+000 2.930312e+000 4.762691e+000 2.805040e+000 2.808541e+000 2.133691e+000
<GCONST> 1.009923e+002
<TRANSP> 5
 0.000000e+000 1.000000e+000 0.000000e+000 0.000000e+000 0.000000e+000
 0.000000e+000 5.963755e-001 4.036246e-001 0.000000e+000 0.000000e+000
 0.000000e+000 0.000000e+000 7.951823e-001 2.048177e-001 0.000000e+000
 0.000000e+000 0.000000e+000 0.000000e+000 6.699583e-001 3.300417e-001
 0.000000e+000 0.000000e+000 0.000000e+000 0.000000e+000 0.000000e+000
<ENDHMM>
~h "o"
<BEGINHMM>
<NUMSTATES> 5
<STATE> 2
<MEAN> 25
 8.435212e-001 1.842639e+000 -9.288544e+000 -2.274961e+000 5.822472e-001 7.680101e+000 2.572902e+000 -6.008071e-002 -1.588921e+000 -9.480035e-001 1.771286e+000 4.311726e+000 7.291707e-001 1.286906e-001 5.632910e-001 -2.024246e+000 -1.720030e-001 6.979577e-001 -1.043466e-001 -4.170713e-002 -1.665220e-001 3.140631e-001 -2.449036e-001 4.704044e-001 1.050547e+000
<VARIANCE> 25
 2.868656e+001 1.535112e+001 2.599414e+001 2.033309e+002 1.803259e+001 4.768587e+001 1.830709e+001 1.490376e+001 1.349823e+001 2.372972e+001 2.047273e+001 1.948371e+001 1.812607e+000 1.229753e+000 1.888513e+000 7.679643e+000 1.122289e+000 2.687077e+000 1.657676e+000 1.434760e+000 1.570374e+000 1.656866e+000 2.046267e+000 2.206432e+000 2.358136e+000
<GCONST> 9.349861e+001
<STATE> 3
<MEAN> 25
 8.631757e+000 1.133039e+001 -3.390346e+000 -7.483071e+000 -3.025405e-001 9.745038e+000 1.240035e+000 -3.208033e+000 -5.603845e+000 -2.504285e+000 -1.722149e+000 5.542994e+000 2.116747e-001 9.389735e-001 6.627555e-002 1.795622e+000 8.382293e-002 -3.345458e-001 6.148225e-002 -4.174295e-001 -5.640554e-003 -4.608560e-001 -1.498834e-001 -2.930917e-001 -5.570105e-001
<VARIANCE> 25
 6.915744e+000 3.573962e+001 1.558883e+001 1.562330e+002 1.532551e+001 2.748141e+001 1.455034e+001 1.355367e+001 1.191718e+001 2.088351e+001 2.485527e+001 2.008052e+001 4.589998e-001 1.475795e+000 1.925162e+000 7.234128e+000 1.557361e+000 1.372523e+000 2.025757e+000 1.133420e+000 7.368230e-001 2.367652e+000 2.593732e+000 1.677746e+000 1.872459e+000
<GCONST> 8.880138e+001
<STATE> 4
<MEAN> 25
 7.872326e+000 3.107783e+000 -3.796400e+000 -8.026654e+000 2.393908e-001 8.621495e+000 1.519531e+000 -7.116152e+000 -1.226808e+000 1.656409e+000 2.384604e+000 3.071729e+000 -3.655021e-001 -2.607260e+000 1.027095e-001 -1.171233e+000 1.268973e+000 -1.466130e+000 -1.681272e+000 -5.408819e-001 1.065763e+000 2.303013e+000 2.066673e+000 -5.977174e-001 2.515734e+000
<VARIANCE> 25
 1.718340e+001 9.061660e+001 2.326592e+001 2.209686e+002 4.525934e+001 4.943974e+001 4.897394e+001 1.737245e+001 3.027401e+001 7.404694e+001 5.042533e+001 1.954912e+001 1.862644e+000 6.438589e+000 4.072569e+000 2.480745e+001 5.189437e+000 4.295372e+000 8.675906e+000 2.890532e+000 1.528559e+000 8.349366e+000 6.099529e+000 2.939074e+000 4.786180e+000
<GCONST> 1.113347e+002
<TRANSP> 5
 0.000000e+000 1.000000e+000 0.000000e+000 0.000000e+000 0.000000e+000
 0.000000e+000 9.082774e-001 9.172262e-002 0.000000e+000 0.000000e+000
 0.000000e+000 0.000000e+000 8.908002e-001 1.091998e-001 0.000000e+000
 0.000000e+000 0.000000e+000 0.000000e+000 6.932492e-001 3.067509e-001
 0.000000e+000 0.000000e+000 0.000000e+000 0.000000e+000 0.000000e+000
<ENDHMM>
~h "p"
<BEGINHMM>
<NUMSTATES> 5
<STATE> 2
<MEAN> 25
 3.971673e+000 1.367230e+000 -8.215069e+000 -2.036584e+000 2.077495e+000 9.147614e+000 3.261572e+000 -3.108168e+000 1.563076e+000 -1.999649e+000 -5.262520e-001 -1.506423e+000 -3.503785e-001 6.991525e-001 -9.502705e-001 1.361375e+000 -9.348159e-002 1.096293e-001 1.684254e-001 -3.738793e-003 4.867803e-001 -4.059724e-001 4.627002e-001 -2.895257e-001 -1.211462e+000
<VARIANCE> 25
 1.239632e+001 4.721895e+001 3.651447e+001 1.164265e+002 3.003754e+001 5.717604e+001 3.229118e+001 3.604295e+001 2.966513e+001 2.633899e+001 2.699933e+001 1.950767e+001 7.078339e-001 2.472599e+000 1.725614e+000 5.805157e+000 3.372628e+000 1.964513e+000 2.318302e+000 3.528861e+000 3.023099e+000 2.530986e+000 2.070746e+000 2.358566e+000 1.903552e+000
<GCONST> 9.923119e+001
<STATE> 3
<MEAN> 25
 -5.914661e+000 4.303442e+000 -8.955069e+000 1.058503e+001 2.041720e+000 4.956649e-001 5.638486e+000 -1.987926e+000 4.482466e+000 -1.193518e+000 3.413845e+000 -1.212373e+000 -4.597108e-001 1.212994e-002 4.448310e-002 2.401053e-001 3.167555e-002 -1.137912e-001 5.534975e-002 6.067830e-002 -1.685834e-001 -1.227166e-001 2.185666e-001 3.303370e-001 -3.305119e-001
<VARIANCE> 25
 3.320253e+001 4.372334e+001 4.207666e+001 5.580499e+001 3.404268e+001 6.293776e+001 3.063345e+001 4.971270e+001 3.556062e+001 4.778699e+001 2.607959e+001 2.236413e+001 7.338300e-001 1.015148e+000 1.335132e+000 1.868431e+000 1.842476e+000 2.746466e+000 2.222734e+000 3.516617e+000 2.288131e+000 3.219823e+000 1.698836e+000 2.052405e+000 6.393403e-001
<GCONST> 9.688956e+001
<STATE> 4
<MEAN> 25
 -5.410991e-001 2.575902e+000 -6.225120e+000 5.231073e+000 -1.358603e+000 1.481810e+000 3.160288e+000 -1.430208e+000 1.511475e+000 -2.624852e+000 4.362326e+000 4.794138e-001 2.345710e+000 -1.872702e+000 1.727678e+000 -3.552706e+000 -1.630480e-001 8.813885e-001 -8.304075e-001 -2.774424e-001 -6.095659e-001 7.636188e-001 -6.629779e-002 -3.695853e-001 4.239202e+000
<VARIANCE> 25
 5.229079e+001 4.465471e+001 5.575554e+001 1.432475e+002 4.766112e+001 8.124207e+001 3.802627e+001 4.268444e+001 3.682742e+001 3.896872e+001 3.001693e+001 2.128728e+001 4.137094e+000 4.889752e+000 8.872248e+000 1.727631e+001 7.104874e+000 1.247921e+001 4.474026e+000 6.000881e+000 6.079777e+000 5.101433e+000 3.462912e+000 2.436524e+000 7.822704e+000
<GCONST> 1.155094e+002
<TRANSP> 5
 0.000000e+000 1.000000e+000 0.000000e+000 0.000000e+000 0.000000e+000
 0.000000e+000 6.934087e-001 3.065913e-001 0.000000e+000 0.000000e+000
 0.000000e+000 0.000000e+000 8.856988e-001 1.143012e-001 0.000000e+000
 0.000000e+000 0.000000e+000 0.000000e+000 7.263270e-001 2.736730e-001
 0.000000e+000 0.000000e+000 0.000000e+000 0.000000e+000 0.000000e+000
<ENDHMM>
~h "r"
<BEGINHMM>
<NUMSTATES> 5
<STATE> 2
<MEAN> 25
 -8.623378e-001 -3.166422e+000 -7.413023e+000 4.663143e-001 4.330088e+000 2.867582e+000 -7.552115e-001 3.666590e-001 8.714117e+000 -3.005340e+000 -2.420364e+000 1.023906e+000 9.770536e-001 -4.201989e-001 6.289124e-001 2.250219e-001 -9.989507e-001 1.541528e+000 -1.309433e+000 -2.587866e-001 6.012718e-001 -2.092891e-001 8.530952e-001 -7.780659e-001 4.781616e-001
<VARIANCE> 25
 2.655841e+001 3.780368e+001 8.289104e+001 6.047776e+001 7.466101e+001 3.707924e+001 3.705713e+001 3.554886e+001 3.606998e+001 3.169887e+001 4.533987e+001 6.339782e+001 2.550934e+000 3.251254e+000 4.034298e+000 5.535497e+000 4.186989e+000 2.162724e+000 3.660141e+000 2.844482e+000 3.050668e+000 4.582315e+000 3.379659e+000 5.303669e+000 4.383399e+000
<GCONST> 1.082625e+002
<STATE> 3
<MEAN> 25
 6.338259e+000 -7.297820e+000 -6.973864e-001 1.669645e-001 -5.323565e+000 7.003232e+000 -1.014198e+001 -3.199145e-001 1.066359e+001 -3.499617e+000 4.828389e+000 -1.891669e+000 6.579987e-001 -1.116144e+000 9.883376e-001 -1.833639e-001 -9.650689e-001 7.104784e-001 -1.401449e+000 1.015351e+000 -7.926409e-001 2.934091e-001 1.061352e+000 -3.289435e-001 3.076619e-001
<VARIANCE> 25
 1.136866e+001 1.630210e+001 4.790715e+001 3.015495e+001 2.780803e+001 2.609895e+001 2.029353e+001 4.482436e+001 6.849909e+001 1.983488e+001 2.028782e+001 4.004871e+001 8.855945e-001 2.368115e+000 1.542821e+000 5.378438e+000 1.785759e+000 1.509363e+000 2.392341e+000 6.371324e+000 1.777429e+000 2.346077e+000 4.594640e+000 2.444166e+000 2.041095e+000
<GCONST> 9.689156e+001
<STATE> 4
<MEAN> 25
 6.678584e+000 -1.282167e+001 2.777259e+000 -6.386460e+000 -2.349545e+000 8.325220e+000 -1.103717e+001 9.687489e+000 4.420344e+000 -6.741360e-001 2.693101e-001 -5.557477e+000 -3.926342e-001 -1.625096e-001 5.334441e-001 -1.036179e+000 9.284218e-001 -5.499912e-001 8.304324e-001 8.339216e-001 -1.203184e+000 4.797944e-001 -1.395947e+000 1.798903e-001 4.193961e-001
<VARIANCE> 25
 9.132368e+000 2.731141e+001 3.929865e+001 2.156631e+001 3.712019e+001 4.841539e+001 2.852435e+001 4.647995e+001 3.552994e+001 2.290443e+001 3.734449e+001 2.497393e+001 5.875663e-001 1.486391e+000 1.449903e+000 1.475271e+000 2.163774e+000 1.970291e+000 2.901330e+000 4.069452e+000 1.822601e+000 1.983918e+000 2.678216e+000 1.807023e+000 5.931187e-001
<GCONST> 9.331531e+001
<TRANSP> 5
 0.000000e+000 1.000000e+000 0.000000e+000 0.000000e+000 0.000000e+000
 0.000000e+000 6.135046e-001 3.864955e-001 0.000000e+000 0.000000e+000
 0.000000e+000 0.000000e+000 7.058795e-001 2.941205e-001 0.000000e+000
 0.000000e+000 0.000000e+000 0.000000e+000 7.200848e-001 2.799152e-001
 0.000000e+000 0.000000e+000 0.000000e+000 0.000000e+000 0.000000e+000
<ENDHMM>
~h "s"
<BEGINHMM>
<NUMSTATES> 5
<STATE> 2
<MEAN> 25
 -7.517913e+000 7.532923e+000 -6.927044e+000 8.750480e+000 2.974199e+000 -6.189501e+000 9.374887e+000 5.016897e-001 3.890819e+000 -3.485115e+000 3.260098e+000 4.348569e-001 -4.020345e+000 2.298195e+000 -2.322946e+000 2.085000e+000 -1.470681e-001 -9.655918e-001 2.146276e+000 -1.059228e-001 7.713691e-001 -1.509527e+000 1.791459e+000 -2.467052e-001 6.127867e-001
<VARIANCE> 25
 5.438028e+001 4.468848e+001 5.653558e+001 6.016354e+001 3.875039e+001 2.800344e+001 6.617185e+001 5.603732e+001 4.928512e+001 5.009827e+001 4.301810e+001 2.356954e+001 2.461820e+000 5.748524e+000 3.698844e+000 6.261904e+000 3.537059e+000 3.597773e+000 4.079809e+000 4.633160e+000 4.052365e+000 3.811047e+000 3.101500e+000 2.406075e+000 2.907818e+000
<GCONST> 1.089052e+002
<STATE> 3
<MEAN> 25
 -2.328896e+001 1.237494e+001 -1.464688e+001 1.176592e+001 3.113190e+000 -6.745219e+000 1.334095e+001 1.279870e+000 3.888688e+000 -5.267442e+000 7.066594e+000 2.464727e+000 -4.969209e-001 -2.575246e-001 -5.438016e-002 -7.957958e-002 -7.342318e-002 8.284169e-003 -9.901576e-002 1.266182e-001 -2.148942e-002 -3.099546e-002 2.571078e-002 2.500695e-001 2.056170e-001
<VARIANCE> 25
 2.062989e+001 2.365732e+001 3.309475e+001 3.701382e+001 3.931498e+001 2.873477e+001 3.734501e+001 5.387287e+001 2.962524e+001 2.536019e+001 2.601393e+001 2.072199e+001 1.819323e+000 1.817943e+000 1.496422e+000 1.324545e+000 1.514231e+000 1.545498e+000 1.695687e+000 1.754554e+000 1.794305e+000 1.790807e+000 1.720028e+000 1.382207e+000 4.844545e-001
<GCONST> 9.192563e+001
<STATE> 4
<MEAN> 25
 -1.251226e+001 5.412079e+000 -8.409849e+000 6.879479e+000 1.679964e+000 -6.151719e+000 6.656851e+000 1.148006e+000 5.088361e+000 -5.124754e+000 3.295395e+000 -4.481473e-001 5.449168e+000 -1.967584e+000 2.854178e+000 -2.642971e+000 -3.878635e-001 1.230364e+000 -3.329718e+000 -6.040708e-001 -1.448112e-001 8.860022e-001 -1.069907e+000 -2.082935e+000 1.521115e+000
<VARIANCE> 25
 9.378346e+001 2.212000e+001 4.733708e+001 5.585799e+001 3.124872e+001 3.141471e+001 8.837386e+001 3.842267e+001 3.512767e+001 2.711659e+001 3.358125e+001 3.340307e+001 2.656309e+000 2.404509e+000 5.238262e+000 6.282878e+000 3.900548e+000 3.190627e+000 3.736604e+000 4.962299e+000 3.332088e+000 2.765389e+000 3.516057e+000 2.791343e+000 3.300246e+000
<GCONST> 1.068539e+002
<TRANSP> 5
 0.000000e+000 1.000000e+000 0.000000e+000 0.000000e+000 0.000000e+000
 0.000000e+000 7.485989e-001 2.514011e-001 0.000000e+000 0.000000e+000
 0.000000e+000 0.000000e+000 9.048544e-001 9.514558e-002 0.000000e+000
 0.000000e+000 0.000000e+000 0.000000e+000 7.069630e-001 2.930370e-001
 0.000000e+000 0.000000e+000 0.000000e+000 0.000000e+000 0.000000e+000
<ENDHMM>
~h "t"
<BEGINHMM>
<NUMSTATES> 5
<STATE> 2
<MEAN> 25
 -5.038244e-001 -2.975703e+000 -5.723051e+000 4.861392e+000 -3.816629e+000 9.861273e-002 -2.014325e+000 5.595049e+000 2.791477e+000 -5.581896e+000 2.403202e+000 -5.110016e+000 5.643985e-002 -8.285085e-001 1.311669e+000 -1.191844e+000 2.480936e-002 -7.299804e-001 -6.925592e-001 1.073236e+000 9.923971e-003 3.575228e-001 -1.876234e-001 7.339027e-002 1.595587e+000
<VARIANCE> 25
 2.390216e+001 3.842181e+001 6.177108e+001 6.178283e+001 3.008300e+001 6.337083e+001 4.766627e+001 5.832829e+001 3.683286e+001 5.103369e+001 4.052182e+001 2.061097e+001 3.046120e+000 5.056062e+000 6.510338e+000 7.472238e+000 3.972583e+000 5.459596e+000 4.596810e+000 5.626114e+000 3.498912e+000 6.836870e+000 5.671579e+000 2.151555e+000 1.216407e+001
<GCONST> 1.118899e+002
<STATE> 3
<MEAN> 25
 2.582502e+000 -7.352796e+000 4.866466e+000 -6.584435e+000 -7.295699e-001 -8.377998e+000 -1.966190e+000 1.167840e+001 3.604898e+000 3.864799e+000 -4.847291e+000 -4.392597e-001 -6.748839e-002 6.973348e-001 -5.753607e-001 5.168603e-001 8.813779e-002 -1.754020e-001 5.505772e-001 -8.051457e-002 2.972356e-001 7.332100e-002 -2.047720e-001 1.518035e-001 -1.085954e+000
<VARIANCE> 25
 4.483838e+000 2.436827e+001 2.832252e+001 2.383133e+001 1.240867e+001 2.337701e+001 1.713202e+001 1.962859e+001 2.234722e+001 1.203288e+001 1.658794e+001 1.412033e+001 3.082927e-001 1.175234e+000 9.558783e-001 1.185646e+000 9.036803e-001 1.132256e+000 1.200869e+000 1.035081e+000 9.894170e-001 1.577273e+000 1.367106e+000 1.055940e+000 1.158619e+000
<GCONST> 8.000386e+001
<STATE> 4
<MEAN> 25
 -2.436347e+000 1.107905e+000 -8.037361e+000 2.701603e+000 -1.640884e+000 -4.409450e+000 8.296710e-001 6.843990e+000 7.134753e+000 -2.414506e+000 -7.658309e-001 -8.946846e-001 -5.805982e-001 1.172338e-001 -6.217973e-001 1.030917e-001 4.992708e-001 1.223692e+000 3.177314e-001 -6.950539e-001 -4.769386e-001 -1.092486e+000 1.421686e-001 5.260165e-001 -5.799344e-001
<VARIANCE> 25
 2.194254e+001 2.685459e+001 3.940168e+001 2.123215e+001 3.388108e+001 6.237448e+001 4.031095e+001 2.954520e+001 2.427138e+001 2.718443e+001 3.181270e+001 2.432192e+001 8.805858e-001 2.220275e+000 3.453080e+000 1.505502e+000 3.617498e+000 4.093728e+000 2.583000e+000 3.234254e+000 2.420785e+000 3.785033e+000 2.017873e+000 2.487892e+000 1.685322e+000
<GCONST> 9.842429e+001
<TRANSP> 5
 0.000000e+000 1.000000e+000 0.000000e+000 0.000000e+000 0.000000e+000
 0.000000e+000 8.731613e-001 1.268388e-001 0.000000e+000 0.000000e+000
 0.000000e+000 0.000000e+000 8.947855e-001 1.052145e-001 0.000000e+000
 0.000000e+000 0.000000e+000 0.000000e+000 6.617064e-001 3.382936e-001
 0.000000e+000 0.000000e+000 0.000000e+000 0.000000e+000 0.000000e+000
<ENDHMM>
~h "w"
<BEGINHMM>
<NUMSTATES> 5
<STATE> 2
<MEAN> 25
 6.433079e+000 3.543024e-001 -1.200086e+000 -1.207040e+000 1.843375e+000 4.307546e+000 -2.989234e+000 -4.322186e+000 -1.372047e+000 4.123169e+000 -3.481182e-001 -1.300739e+000 1.049903e+000 -9.452525e-001 1.092589e+000 -1.834396e+000 -4.687085e-001 6.847937e-001 -1.270099e+000 -7.353821e-002 -1.226465e+000 9.124561e-001 1.322094e+000 -1.547860e-002 1.551725e+000
<VARIANCE> 25
 1.364862e+001 5.093348e+001 3.552345e+001 1.187561e+002 2.854852e+001 3.849902e+001 6.146787e+001 4.137989e+001 4.174881e+001 6.252012e+001 3.206733e+001 2.000522e+001 1.610552e+000 5.589788e+000 4.169986e+000 7.862800e+000 1.700478e+000 2.625508e+000 3.137004e+000 5.541651e+000 3.351666e+000 3.184649e+000 3.353106e+000 1.755386e+000 6.229125e+000
<GCONST> 1.060218e+002
<STATE> 3
<MEAN> 25
 7.678030e+000 -8.615170e-001 -3.767243e-001 -1.025484e+001 6.504320e-001 7.072003e+000 -6.158883e-001 -3.494807e+000 -3.718782e+000 3.116841e+000 1.521004e+000 2.726482e+000 3.769823e-003 -3.938908e-001 3.793674e-001 -8.346085e-001 -4.283410e-002 -1.711019e-001 -2.535240e-001 2.958755e-001 2.777215e-002 6.191706e-001 -2.543065e-002 3.025829e-001 3.997412e-001
<VARIANCE> 25
 9.411175e+000 3.203689e+001 3.737947e+001 9.511969e+001 2.062429e+001 2.597488e+001 4.512289e+001 3.214353e+001 3.026940e+001 4.683678e+001 1.951657e+001 3.162944e+001 3.416644e-001 1.826112e+000 1.599557e+000 3.543858e+000 2.061279e+000 1.559076e+000 1.553249e+000 1.947958e+000 2.562243e+000 3.318257e+000 1.879386e+000 2.582592e+000 1.521136e+000
<GCONST> 9.475460e+001
<STATE> 4
<MEAN> 25
 6.607412e+000 -4.022313e+000 3.228671e+000 -9.627151e+000 2.247818e+000 7.972815e-001 -7.133646e+000 -9.371853e-001 -1.054392e+000 1.256833e+001 -1.081042e+000 -6.340970e-001 -2.588806e-001 -2.600083e-001 2.574024e-001 5.480834e-001 -6.545254e-002 -9.574146e-001 1.572003e-001 7.332884e-001 4.362997e-001 -1.779976e-001 -5.869542e-001 -1.295419e-001 -8.219012e-003
<VARIANCE> 25
 5.128660e+000 2.037678e+001 3.080142e+001 5.711594e+001 1.406948e+001 3.658176e+001 3.913772e+001 2.520454e+001 3.972147e+001 4.465621e+001 3.198164e+001 1.382925e+001 2.987579e-001 9.046385e-001 1.478675e+000 1.603189e+000 1.487911e+000 1.712190e+000 1.575130e+000 1.989026e+000 3.374733e+000 1.763124e+000 1.991911e+000 2.063311e+000 8.919134e-001
<GCONST> 8.949367e+001
<TRANSP> 5
 0.000000e+000 1.000000e+000 0.000000e+000 0.000000e+000 0.000000e+000
 0.000000e+000 4.025072e-001 5.974929e-001 0.000000e+000 0.000000e+000
 0.000000e+000 0.000000e+000 7.114906e-001 2.885093e-001 0.000000e+000
 0.000000e+000 0.000000e+000 0.000000e+000 7.040515e-001 2.959485e-001
 0.000000e+000 0.000000e+000 0.000000e+000 0.000000e+000 0.000000e+000
<ENDHMM>
~h "y"
<BEGINHMM>
<NUMSTATES> 5
<STATE> 2
<MEAN> 25
 9.511358e-001 -4.936933e+000 1.255268e+001 -4.950458e+000 -7.806925e+000 -3.945879e+000 -2.581616e+000 6.669896e+000 -5.660374e+000 1.673289e+000 4.054836e+000 2.211617e+000 -2.079109e-001 -6.683345e-001 5.504426e-001 -7.918784e-001 -1.066520e+000 -6.986159e-001 1.148759e+000 1.171402e+000 -3.693286e-001 5.673856e-001 3.087483e-002 6.417720e-001 7.820519e-001
<VARIANCE> 25
 1.377499e+001 3.019430e+001 4.859137e+001 1.358931e+001 2.632994e+001 1.962504e+001 3.845199e+001 5.947894e+001 4.552808e+001 5.042704e+001 4.354186e+001 2.399302e+001 6.607542e-001 2.101684e+000 4.289102e+000 2.087780e+000 2.278605e+000 1.356013e+000 3.208333e+000 3.830533e+000 4.876204e+000 2.368609e+000 2.787475e+000 1.642066e+000 1.286793e+000
<GCONST> 9.752038e+001
<STATE> 3
<MEAN> 25
 6.747887e-001 -7.131416e+000 1.457009e+001 -7.991432e+000 -9.543582e+000 -6.546164e+000 2.444630e+000 9.763865e+000 -8.533746e+000 5.382435e+000 2.083174e+000 3.350018e+000 7.236367e-002 -1.825943e-001 -1.436612e-001 -2.017418e-001 4.525739e-001 -8.868428e-002 2.308237e-001 3.689970e-001 2.462983e-001 1.856807e-002 -7.594925e-001 2.679258e-001 -1.446650e-002
<VARIANCE> 25
 6.797591e+000 1.014689e+001 1.848349e+001 1.033835e+001 1.743462e+001 1.318239e+001 2.467687e+001 1.733389e+001 2.217806e+001 2.126890e+001 1.513772e+001 1.206591e+001 2.344467e-001 5.399036e-001 1.209488e+000 4.867953e-001 1.091758e+000 4.686272e-001 9.335984e-001 8.445513e-001 2.019164e+000 1.221769e+000 1.671738e+000 6.726903e-001 1.144868e-001
<GCONST> 7.364185e+001
<STATE> 4
<MEAN> 25
 2.438169e+000 -7.856149e+000 9.360708e+000 -7.850049e+000 -2.066984e+000 -7.196522e+000 2.210614e+000 9.613661e+000 8.372986e-002 3.194510e+000 -6.472717e+000 4.426969e+000 1.834184e-001 2.941074e-001 -1.131956e+000 4.279148e-001 1.058066e+000 1.727752e-001 -2.029784e-002 -5.655830e-001 1.220439e+000 -5.014716e-001 -1.007553e+000 6.419721e-002 -7.166625e-001
<VARIANCE> 25
 6.522384e+000 1.288355e+001 2.140951e+001 1.451007e+001 2.174741e+001 1.503910e+001 2.751893e+001 1.644495e+001 3.846265e+001 2.776242e+001 2.219627e+001 1.004472e+001 3.891420e-001 9.190865e-001 1.116882e+000 6.640188e-001 1.592468e+000 8.325871e-001 1.316776e+000 8.886350e-001 1.329667e+000 1.099713e+000 1.873201e+000 7.494410e-001 6.563998e-001
<GCONST> 7.981248e+001
<TRANSP> 5
 0.000000e+000 1.000000e+000 0.000000e+000 0.000000e+000 0.000000e+000
 0.000000e+000 6.194556e-001 3.805444e-001 0.000000e+000 0.000000e+000
 0.000000e+000 0.000000e+000 8.147160e-001 1.852840e-001 0.000000e+000
 0.000000e+000 0.000000e+000 0.000000e+000 7.830951e-001 2.169049e-001
 0.000000e+000 0.000000e+000 0.000000e+000 0.000000e+000 0.000000e+000
<ENDHMM>
~h "aa"
<BEGINHMM>
<NUMSTATES> 5
<STATE> 2
<MEAN> 25
 2.475314e+000 -9.318099e+000 -5.283554e+000 -1.189196e+001 1.016197e+001 3.984863e+000 6.315630e-001 4.073095e+000 3.920974e+000 -1.388505e+000 -6.986576e+000 -2.440244e+000 5.091310e-002 -6.433728e-001 -5.045387e-001 -4.054533e-001 1.193229e+000 6.626059e-001 9.179047e-001 -8.158672e-001 -2.815199e-001 -2.018419e-001 -3.611621e-001 2.333306e-001 3.166562e-001
<VARIANCE> 25
 7.222649e+000 1.014488e+001 2.283745e+001 1.962963e+001 1.943801e+001 3.614814e+001 2.982789e+001 3.215501e+001 3.939582e+001 2.369791e+001 3.378127e+001 2.435808e+001 2.972614e-001 7.951092e-001 1.106345e+000 1.090535e+000 1.557759e+000 1.177760e+000 2.097292e+000 2.062471e+000 1.466705e+000 1.607510e+000 1.549582e+000 1.263565e+000 5.571545e-001
<GCONST> 8.508068e+001
<STATE> 3
<MEAN> 25
 3.308663e+000 -9.523412e+000 -6.508320e+000 -1.296309e+001 1.283964e+001 8.674234e+000 2.343028e+000 -2.922505e+000 4.532104e+000 -3.055067e+000 -5.384037e+000 -4.796023e-001 5.194348e-004 1.600588e-002 -1.415844e-002 3.442020e-002 5.264642e-002 1.580437e-002 -3.060041e-002 -1.435781e-001 1.665774e-001 7.247824e-002 -1.063309e-001 -3.824613e-002 -1.054983e-001
<VARIANCE> 25
 6.692869e+000 1.045109e+001 1.884110e+001 2.112257e+001 2.349836e+001 3.006383e+001 2.543390e+001 2.670107e+001 3.003528e+001 2.646701e+001 2.269633e+001 2.809563e+001 1.392177e-001 3.144822e-001 4.134434e-001 5.518823e-001 5.928542e-001 8.614774e-001 7.435683e-001 7.051005e-001 4.499860e-001 6.269354e-001 6.115878e-001 7.165715e-001 2.396765e-001
<GCONST> 7.295547e+001
<STATE> 4
<MEAN> 25
 -4.281191e-001 -3.473427e+000 -1.278264e+001 -9.260055e-001 9.466696e+000 4.135278e+000 4.102695e+000 -1.936575e-001 5.084163e+000 -5.480427e+000 -5.498078e+000 -8.684137e-001 -1.887693e-001 4.164065e-001 -2.528103e-001 7.516484e-001 -4.423907e-001 -2.299071e-001 -1.255892e-001 2.352158e-001 1.475864e-002 -1.258311e-001 1.948429e-001 1.540724e-002 -8.401465e-001
<VARIANCE> 25
 2.114419e+001 2.353300e+001 3.334774e+001 6.120225e+001 3.702996e+001 4.220016e+001 2.936840e+001 2.901875e+001 2.725618e+001 3.760254e+001 3.272894e+001 3.071631e+001 5.316736e-001 1.368317e+000 1.218681e+000 1.709232e+000 1.836846e+000 1.775021e+000 2.275323e+000 2.288505e+000 1.913487e+000 1.831665e+000 1.843770e+000 1.919755e+000 1.011724e+000
<GCONST> 9.350266e+001
<TRANSP> 5
 0.000000e+000 1.000000e+000 0.000000e+000 0.000000e+000 0.000000e+000
 0.000000e+000 7.040161e-001 2.959839e-001 0.000000e+000 0.000000e+000
 0.000000e+000 0.000000e+000 9.091186e-001 9.088140e-002 0.000000e+000
 0.000000e+000 0.000000e+000 0.000000e+000 9.094828e-001 9.051722e-002
 0.000000e+000 0.000000e+000 0.000000e+000 0.000000e+000 0.000000e+000
<ENDHMM>
~h "ae"
<BEGINHMM>
<NUMSTATES> 5
<STATE> 2
<MEAN> 25
 1.083920e+000 -4.421438e+000 -1.872904e+000 4.407899e+000 -3.056901e+000 -4.046371e+000 1.157983e+000 2.607662e+000 9.031061e-001 -3.979858e+000 -1.976003e+000 8.714606e-001 2.970991e-001 -1.934098e+000 9.328085e-001 -2.301872e+000 -1.218644e+000 -4.377930e-001 1.174638e+000 2.175497e+000 9.944778e-002 -3.800810e-001 -7.742524e-001 3.248866e-001 2.151126e+000
<VARIANCE> 25
 1.024529e+001 5.712327e+001 6.403932e+001 5.482354e+001 4.234165e+001 4.349846e+001 4.865854e+001 7.464355e+001 4.010978e+001 2.692112e+001 3.905474e+001 5.469971e+001 2.432748e+000 6.369877e+000 4.576190e+000 5.403485e+000 4.685129e+000 3.395769e+000 6.298731e+000 8.625080e+000 2.553793e+000 5.379643e+000 1.978231e+000 4.626559e+000 7.184212e+000
<GCONST> 1.103665e+002
<STATE> 3
<MEAN> 25
 1.191887e+000 -9.704605e+000 4.147648e+000 -4.351037e+000 -3.747325e+000 -4.532396e+000 5.408777e+000 1.041138e+001 2.017676e+000 -5.033538e+000 -2.874211e+000 9.607828e-001 -2.603826e-001 -1.387923e+000 9.226673e-001 -1.737630e+000 -2.119613e-001 7.530310e-001 2.151605e+000 2.039366e+000 -1.044356e+000 -1.140857e+000 -7.583545e-001 1.061404e+000 1.482882e+000
<VARIANCE> 25
 7.070716e+000 2.426387e+001 2.128186e+001 1.670593e+001 5.034003e+001 4.816782e+001 6.791963e+001 2.495633e+001 3.049610e+001 1.719028e+001 4.302105e+001 2.671523e+001 4.996092e-001 2.543209e+000 2.690152e+000 2.155409e+000 2.052503e+000 3.161507e+000 2.025448e+000 4.376102e+000 2.573029e+000 1.787156e+000 1.517023e+000 2.088001e+000 3.304105e+000
<GCONST> 9.542627e+001
<STATE> 4
<MEAN> 25
 1.212265e+000 -9.294850e+000 4.921018e+000 -4.307384e+000 -5.006709e+000 -2.928248e+000 8.607718e+000 1.105988e+001 -2.152048e+000 -5.526049e+000 -2.452265e+000 1.744280e+000 8.891803e-002 2.611827e-001 -2.496891e-001 3.123657e-001 2.245361e-001 -6.612300e-002 -2.587118e-001 -2.069845e-001 -4.081008e-002 2.865876e-001 6.731677e-002 -1.821124e-001 -4.402747e-001
<VARIANCE> 25
 9.290870e+000 2.548912e+001 3.376416e+001 2.332794e+001 3.860778e+001 4.036544e+001 3.680765e+001 2.380066e+001 2.503046e+001 2.773174e+001 3.667478e+001 2.200184e+001 3.855070e-001 9.611276e-001 1.524171e+000 1.487652e+000 1.117602e+000 1.221784e+000 2.526183e+000 1.170935e+000 1.716542e+000 1.188031e+000 1.403324e+000 1.271517e+000 1.206838e+000
<GCONST> 8.814748e+001
<TRANSP> 5
 0.000000e+000 1.000000e+000 0.000000e+000 0.000000e+000 0.000000e+000
 0.000000e+000 4.634379e-001 5.365620e-001 0.000000e+000 0.000000e+000
 0.000000e+000 0.000000e+000 4.018492e-001 5.981508e-001 0.000000e+000
 0.000000e+000 0.000000e+000 0.000000e+000 9.100892e-001 8.991081e-002
 0.000000e+000 0.000000e+000 0.000000e+000 0.000000e+000 0.000000e+000
<ENDHMM>
~h "ah"
<BEGINHMM>
<NUMSTATES> 5
<STATE> 2
<MEAN> 25
 3.503567e+000 -8.409203e+000 1.409559e-001 -8.832678e+000 5.399000e+000 2.835086e+000 -1.808110e+000 2.642081e+000 2.759633e+000 2.336244e-001 -4.922296e+000 -7.947685e-001 3.539802e-002 -6.022208e-001 4.039214e-001 -6.680536e-001 5.524818e-001 -4.446783e-001 4.562230e-001 8.141249e-001 -1.422152e-001 1.780150e-001 -7.761884e-001 2.875905e-001 3.576831e-001
<VARIANCE> 25
 6.837821e+000 1.999869e+001 2.937426e+001 2.805962e+001 4.128271e+001 6.341273e+001 3.997573e+001 4.849818e+001 3.599391e+001 4.038544e+001 2.857923e+001 3.128663e+001 5.915686e-001 2.016296e+000 1.541052e+000 3.501078e+000 2.524969e+000 3.796898e+000 2.990631e+000 4.297327e+000 2.180504e+000 2.822332e+000 2.730851e+000 2.460527e+000 1.439942e+000
<GCONST> 9.785954e+001
<STATE> 3
<MEAN> 25
 3.064946e+000 -4.882005e+000 1.565855e+000 -6.276188e+000 4.774368e+000 -2.746431e+000 -1.131669e+000 5.057263e+000 2.395651e+000 2.175080e+000 -6.676999e+000 5.980721e-001 1.449798e-004 9.919469e-001 -4.517059e-001 9.854005e-001 -1.938289e-001 4.040960e-002 1.075421e-001 -1.803055e-001 -2.511585e-002 -2.649530e-001 3.351475e-001 -1.044951e-001 -1.285890e+000
<VARIANCE> 25
 5.878197e+000 2.420979e+001 3.008096e+001 3.014270e+001 3.358364e+001 5.119006e+001 2.936238e+001 3.469962e+001 3.340011e+001 3.115776e+001 2.388285e+001 2.658525e+001 3.395763e-001 1.344536e+000 1.174390e+000 1.613722e+000 1.443727e+000 1.840746e+000 1.849411e+000 1.718602e+000 1.645413e+000 2.008111e+000 1.534411e+000 1.323240e+000 1.318484e+000
<GCONST> 8.966090e+001
<STATE> 4
<MEAN> 25
 -7.330099e-001 2.251198e+000 -6.188446e+000 3.924962e+000 5.658709e-003 -7.117257e-001 1.088999e+000 3.527866e+000 4.476143e+000 -2.757379e+000 -1.154253e+000 4.010150e-001 -3.874057e-001 3.978917e-001 -5.197064e-001 5.910544e-001 -2.628731e-001 1.681050e-001 1.772185e-001 -3.307818e-001 9.458587e-002 -2.047329e-001 4.802892e-001 1.387052e-001 -8.486191e-001
<VARIANCE> 25
 1.730482e+001 3.335561e+001 4.022446e+001 4.561420e+001 4.988628e+001 4.703686e+001 3.670210e+001 3.718346e+001 3.468772e+001 3.596974e+001 3.235409e+001 3.130490e+001 4.476578e-001 1.325266e+000 1.483563e+000 1.751457e+000 2.019546e+000 2.015392e+000 2.127681e+000 2.518975e+000 2.514718e+000 2.515522e+000 1.970188e+000 1.818457e+000 6.119524e-001
<GCONST> 9.499380e+001
<TRANSP> 5
 0.000000e+000 1.000000e+000 0.000000e+000 0.000000e+000 0.000000e+000
 0.000000e+000 5.392329e-001 4.607671e-001 0.000000e+000 0.000000e+000
 0.000000e+000 0.000000e+000 7.521852e-001 2.478147e-001 0.000000e+000
 0.000000e+000 0.000000e+000 0.000000e+000 8.205638e-001 1.794362e-001
 0.000000e+000 0.000000e+000 0.000000e+000 0.000000e+000 0.000000e+000
<ENDHMM>
~h "ao"
<BEGINHMM>
<NUMSTATES> 5
<STATE> 2
<MEAN> 25
 4.288288e+000 6.047141e-001 1.628870e+000 -4.427733e+000 -2.555265e+000 8.377172e+000 -5.078555e+000 -6.018737e+000 5.941554e+000 6.450143e-001 1.241390e+000 1.176663e+000 1.020048e+000 -8.849704e-001 1.470359e+000 -2.120019e+000 -3.701836e-001 3.842688e-001 -1.116911e+000 -8.923715e-001 -6.374710e-001 2.126167e+000 8.178714e-001 -1.080970e-001 1.228179e+000
<VARIANCE> 25
 3.504478e+001 3.800745e+001 3.762157e+001 7.419938e+001 2.874894e+001 4.261383e+001 1.003390e+002 3.588758e+001 1.187213e+002 5.927638e+001 9.126459e+001 3.450388e+001 2.848969e+000 3.493715e+000 2.789967e+000 1.046601e+001 2.629781e+000 3.646921e+000 3.293389e+000 5.545258e+000 5.344951e+000 2.429292e+000 7.039590e+000 3.081195e+000 4.228840e+000
<GCONST> 1.112095e+002
<STATE> 3
<MEAN> 25
 7.097661e+000 -9.313015e-001 3.473717e+000 -8.093901e+000 1.444773e-001 5.076333e+000 -6.538674e+000 -9.867014e+000 3.801944e+000 3.904747e+000 4.170607e+000 3.322859e-001 2.255373e-001 9.030471e-002 -1.038394e+000 -3.016197e-001 1.247242e+000 -8.526242e-001 4.519298e-001 -9.166788e-002 1.737087e-001 7.501154e-001 -3.083616e-001 1.008727e-001 1.373659e-001
<VARIANCE> 25
 1.180749e+001 2.306148e+001 5.521949e+001 3.329364e+001 3.904736e+001 4.288662e+001 5.783443e+001 7.182059e+001 9.007320e+001 2.631789e+001 7.465627e+001 3.802500e+001 3.706342e-001 2.944827e+000 2.432725e+000 6.019075e+000 6.609396e+000 2.834443e+000 3.480760e+000 4.253265e+000 3.266614e+000 1.584727e+000 2.432805e+000 1.072964e+000 1.704282e+000
<GCONST> 1.020811e+002
<STATE> 4
<MEAN> 25
 7.014046e+000 1.393534e+000 -1.504771e+000 -1.169470e+001 3.784576e+000 4.047633e+000 -5.285576e+000 -3.325115e+000 -9.583461e-001 8.999386e+000 2.579734e+000 3.439345e-001 1.803202e-002 4.717195e-001 -2.816252e-001 6.456872e-001 -7.188502e-002 -6.274603e-002 1.816281e-001 1.336487e-001 -1.859792e-001 -2.329911e-001 -7.633618e-002 2.489964e-002 -6.656102e-001
<VARIANCE> 25
 4.041117e+000 2.233307e+001 1.997737e+001 7.314854e+001 1.360792e+001 2.020891e+001 9.403175e+001 4.404144e+001 5.568763e+001 2.499199e+001 3.149868e+001 2.632334e+001 2.839420e-001 8.054486e-001 1.169578e+000 3.205576e+000 9.772412e-001 1.786333e+000 1.691091e+000 1.669856e+000 2.226451e+000 1.069036e+000 1.522516e+000 1.604839e+000 9.281812e-001
<GCONST> 8.876833e+001
<TRANSP> 5
 0.000000e+000 1.000000e+000 0.000000e+000 0.000000e+000 0.000000e+000
 0.000000e+000 5.538281e-001 4.461718e-001 0.000000e+000 0.000000e+000
 0.000000e+000 0.000000e+000 6.092157e-001 3.907843e-001 0.000000e+000
 0.000000e+000 0.000000e+000 0.000000e+000 9.142367e-001 8.576333e-002
 0.000000e+000 0.000000e+000 0.000000e+000 0.000000e+000 0.000000e+000
<ENDHMM>
~h "ch"
<BEGINHMM>
<NUMSTATES> 5
<STATE> 2
<MEAN> 25
 8.990201e+000 9.931276e+000 7.703137e-002 9.455041e+000 -6.601735e+000 -4.127786e-001 -1.663638e+000 -7.604298e+000 -2.049925e+000 -9.305999e-001 -5.174019e-001 -3.368143e+000 -7.720728e-001 1.257088e+000 -1.117840e+000 7.382919e-001 8.452139e-001 -6.872007e-001 1.746929e+000 5.756320e-001 3.064787e-002 -1.056171e+000 -3.347336e-001 -2.766495e-001 -1.366370e+000
<VARIANCE> 25
 2.178573e+001 9.475501e+000 3.128788e+001 8.365895e+000 2.690557e+001 2.233820e+001 2.587410e+001 1.855182e+001 1.522066e+001 1.983224e+001 2.039949e+001 1.896698e+001 7.535857e-001 3.291281e-001 4.575562e-001 9.956790e-001 3.581352e+000 1.492240e+000 2.053040e+000 2.052397e+000 1.554973e+000 2.412210e+000 1.942812e+000 1.512022e+000 3.763280e-001
<GCONST> 8.344113e+001
<STATE> 3
<MEAN> 25
 1.511166e+000 1.345083e+001 -5.838552e+000 1.068841e+001 1.752879e+000 -2.466393e+000 8.821523e-001 -1.041250e+000 1.628098e+000 -8.355380e+000 -2.457549e+000 -5.371404e+000 -3.752198e+000 -7.476102e-001 -3.262900e-001 -1.966026e+000 8.454090e-001 2.857430e-002 -4.525885e-001 1.002317e+000 2.935869e-001 -9.060242e-001 1.881864e-001 9.639850e-002 8.805302e-001
<VARIANCE> 25
 2.578170e+001 8.209512e+000 3.143099e+001 1.029583e+001 1.419285e+001 2.613864e+001 5.823275e+001 3.772252e+001 4.387167e+001 2.450275e+001 2.137502e+001 1.992261e+001 2.189931e+000 2.424886e+000 4.489790e+000 3.331734e+000 5.536553e+000 2.237176e+000 3.790509e+000 4.698930e+000 3.271606e+000 1.721302e+000 2.200892e+000 5.248106e+000 4.315661e+000
<GCONST> 9.913512e+001
<STATE> 4
<MEAN> 25
 -1.614506e+001 4.490723e+000 -2.640305e+000 6.720212e+000 2.460035e-001 -3.601434e+000 4.426816e+000 2.047277e+000 2.080357e+000 -6.153321e+000 4.365339e+000 3.054206e-001 -6.011989e-001 -3.525515e-001 9.910157e-001 -3.658925e-001 -5.263299e-001 -1.215997e-002 -1.408958e-001 -1.654191e-001 -4.445029e-001 2.303220e-001 1.809256e-001 -3.098935e-002 9.627716e-001
<VARIANCE> 25
 2.421333e+001 2.589320e+001 3.338388e+001 3.033513e+001 1.951739e+001 1.892511e+001 1.673800e+001 3.797711e+001 2.908591e+001 1.913144e+001 2.387885e+001 1.765955e+001 7.515315e+000 1.262099e+000 4.393951e+000 2.518116e+000 1.916174e+000 1.473854e+000 2.259987e+000 2.034738e+000 1.977603e+000 1.453375e+000 2.553508e+000 1.935667e+000 2.219014e+000
<GCONST> 9.470866e+001
<TRANSP> 5
 0.000000e+000 1.000000e+000 0.000000e+000 0.000000e+000 0.000000e+000
 0.000000e+000 7.682680e-001 2.317319e-001 0.000000e+000 0.000000e+000
 0.000000e+000 0.000000e+000 6.340744e-001 3.659256e-001 0.000000e+000
 0.000000e+000 0.000000e+000 0.000000e+000 9.038624e-001 9.613766e-002
 0.000000e+000 0.000000e+000 0.000000e+000 0.000000e+000 0.000000e+000
<ENDHMM>
~h "eh"
<BEGINHMM>
<NUMSTATES> 5
<STATE> 2
<MEAN> 25
 7.722513e-001 -3.732977e+000 1.470796e+001 -2.969564e+000 -1.195079e+001 -5.823779e+000 4.912915e-001 4.572977e+000 -9.142520e+000 4.649654e+000 5.781052e+000 1.869073e+000 -2.067762e-001 -5.462660e-001 1.766851e+000 -1.718527e+000 -1.235220e+000 2.761320e-001 6.733621e-002 5.723631e-001 -1.387890e+000 1.784090e+000 4.670613e-001 1.656494e-001 1.261046e+000
<VARIANCE> 25
 1.284909e+001 1.972711e+001 2.103135e+001 1.946546e+001 1.807638e+001 3.269794e+001 3.991010e+001 3.013947e+001 3.497243e+001 3.610059e+001 2.678170e+001 1.850995e+001 1.085257e+000 1.453569e+000 2.275173e+000 2.669079e+000 1.931780e+000 2.371868e+000 3.201435e+000 2.841480e+000 3.390359e+000 3.184512e+000 1.899222e+000 1.944554e+000 2.008018e+000
<GCONST> 9.469066e+001
<STATE> 3
<MEAN> 25
 -1.001007e+000 -1.565149e+000 1.837678e+001 -6.456805e+000 -1.304777e+001 -3.247111e+000 -1.863366e+000 1.799997e+000 -1.212682e+001 1.054845e+001 4.138710e+000 2.079380e+000 -1.007453e-001 9.634461e-002 1.279226e-001 -2.012416e-002 1.148366e-001 -2.583989e-002 1.736523e-001 -2.518246e-001 -4.049139e-002 6.791776e-002 -4.530305e-002 -5.328543e-002 -2.327960e-001
<VARIANCE> 25
 9.162380e+000 1.753079e+001 1.179657e+001 1.525299e+001 1.383986e+001 2.531849e+001 2.550938e+001 2.259594e+001 2.134255e+001 2.098106e+001 1.593867e+001 2.385349e+001 2.565525e-001 4.310803e-001 6.148715e-001 5.260978e-001 5.572314e-001 6.048881e-001 9.650015e-001 7.772710e-001 8.686070e-001 6.435575e-001 6.195442e-001 4.778767e-001 3.303773e-001
<GCONST> 7.286761e+001
<STATE> 4
<MEAN> 25
 -2.211888e+000 3.703233e+000 1.065396e+001 1.341088e+000 -1.083249e+001 -3.649045e+000 3.685461e+000 4.460292e-001 -7.635473e+000 4.222710e+000 4.393850e+000 -7.824631e-001 -9.608301e-002 6.310980e-001 -1.165716e+000 9.643426e-001 2.981186e-001 2.245722e-001 1.600798e-001 -9.952661e-002 7.003418e-001 -9.504890e-001 -8.582351e-002 -1.749400e-001 -1.248676e+000
<VARIANCE> 25
 9.181763e+000 2.937296e+001 4.303205e+001 3.273454e+001 3.673705e+001 3.649284e+001 3.819294e+001 3.128170e+001 4.626881e+001 4.142048e+001 3.621651e+001 2.766012e+001 4.779403e-001 1.282750e+000 1.850517e+000 1.968594e+000 2.508046e+000 2.107447e+000 2.644150e+000 2.239713e+000 2.751665e+000 2.744401e+000 2.174474e+000 2.052382e+000 1.368709e+000
<GCONST> 9.562756e+001
<TRANSP> 5
 0.000000e+000 1.000000e+000 0.000000e+000 0.000000e+000 0.000000e+000
 0.000000e+000 6.569207e-001 3.430793e-001 0.000000e+000 0.000000e+000
 0.000000e+000 0.000000e+000 8.861678e-001 1.138322e-001 0.000000e+000
 0.000000e+000 0.000000e+000 0.000000e+000 8.844702e-001 1.155297e-001
 0.000000e+000 0.000000e+000 0.000000e+000 0.000000e+000 0.000000e+000
<ENDHMM>
~h "ih"
<BEGINHMM>
<NUMSTATES> 5
<STATE> 2
<MEAN> 25
 -2.467045e+000 3.676430e+000 1.327581e+001 2.653846e+000 -9.563421e+000 -7.808493e-001 -7.471148e-001 -2.648947e+000 -8.577076e+000 -3.852243e-001 6.217227e+000 -3.122064e-001 6.027783e-001 -8.913696e-001 3.817456e+000 -2.109993e+000 -1.762650e+000 3.401195e-001 -1.544653e+000 7.457566e-001 -2.865512e+000 1.935539e+000 7.059715e-001 1.193916e-001 1.920521e+000
<VARIANCE> 25
 3.330892e+001 3.029611e+001 7.265311e+001 4.188745e+001 3.698679e+001 5.148668e+001 4.856453e+001 3.482029e+001 5.835129e+001 3.733495e+001 3.442190e+001 2.747993e+001 3.479389e+000 2.600337e+000 7.799318e+000 3.521206e+000 3.990082e+000 4.528197e+000 4.202132e+000 2.428448e+000 4.244005e+000 3.792027e+000 3.660203e+000 3.434624e+000 2.619810e+000
<GCONST> 1.074132e+002
<STATE> 3
<MEAN> 25
 -1.717970e+000 1.675382e+000 2.106023e+001 -3.913316e+000 -1.214968e+001 1.087149e+000 -6.281634e+000 -7.371055e-001 -1.535237e+001 6.864672e+000 4.301481e+000 8.278907e-001 3.475484e-002 1.430868e-001 9.212364e-002 -3.512366e-001 -1.084522e-002 1.533636e-001 -5.292573e-002 -1.172614e-001 -8.732524e-003 5.291868e-001 -1.401880e-001 6.978203e-002 -4.705599e-002
<VARIANCE> 25
 8.748366e+000 1.527147e+001 1.775574e+001 2.138037e+001 1.825470e+001 2.410324e+001 1.910450e+001 2.167528e+001 2.856036e+001 1.930209e+001 3.540763e+001 2.328802e+001 3.891264e-001 8.380921e-001 8.692204e-001 1.090828e+000 8.387768e-001 1.416091e+000 1.419394e+000 1.195223e+000 1.306350e+000 1.641758e+000 1.216778e+000 1.468513e+000 6.292799e-001
<GCONST> 8.232816e+001
<STATE> 4
<MEAN> 25
 -1.375487e+000 5.977465e+000 1.200587e+001 1.589454e+000 -9.600528e+000 -8.426620e-001 -8.661880e-001 -3.266438e+000 -8.768200e+000 1.816983e+000 4.446163e+000 -1.592639e+000 1.904568e-001 4.339899e-001 -1.607052e+000 9.818942e-001 8.145684e-001 -2.480142e-001 4.128566e-001 -2.387138e-001 1.144714e+000 -8.343493e-001 -4.110776e-001 -1.565804e-001 -1.068133e+000
<VARIANCE> 25
 1.267530e+001 2.085805e+001 6.203004e+001 3.811565e+001 2.781285e+001 2.967503e+001 2.960710e+001 2.724000e+001 4.583937e+001 4.232846e+001 4.006623e+001 2.651857e+001 8.083941e-001 1.238632e+000 2.648669e+000 2.936905e+000 2.716674e+000 2.632406e+000 2.376888e+000 2.906897e+000 2.633824e+000 3.053872e+000 2.294360e+000 2.289303e+000 1.480166e+000
<GCONST> 9.732865e+001
<TRANSP> 5
 0.000000e+000 1.000000e+000 0.000000e+000 0.000000e+000 0.000000e+000
 0.000000e+000 7.094842e-001 2.905159e-001 0.000000e+000 0.000000e+000
 0.000000e+000 0.000000e+000 8.066092e-001 1.933908e-001 0.000000e+000
 0.000000e+000 0.000000e+000 0.000000e+000 8.298174e-001 1.701827e-001
 0.000000e+000 0.000000e+000 0.000000e+000 0.000000e+000 0.000000e+000
<ENDHMM>
~h "iy"
<BEGINHMM>
<NUMSTATES> 5
<STATE> 2
<MEAN> 25
 -1.157503e+000 7.695056e-001 2.002729e+001 -5.405712e+000 -1.102196e+001 6.980019e-001 -7.659699e+000 1.918834e+000 -1.531466e+001 4.157917e+000 2.277265e+000 4.847329e+000 9.742492e-002 2.180323e-001 -7.968666e-002 8.184620e-002 -2.275925e-001 4.785523e-001 -2.091017e-001 -3.223692e-002 -1.228081e-001 2.603943e-002 1.078082e-001 -6.812418e-002 -1.271806e-001
<VARIANCE> 25
 4.042620e+000 1.297865e+001 1.299405e+001 9.149412e+000 4.646637e+000 1.020476e+001 1.114972e+001 4.410120e+001 8.599969e+000 8.241039e+000 1.158801e+001 9.893566e+000 1.726461e-001 4.270830e-001 6.724058e-001 5.621621e-001 4.457669e-001 8.727022e-001 6.140576e-001 1.134099e+000 8.905373e-001 5.183631e-001 1.304000e+000 8.325422e-001 1.519755e-001
<GCONST> 6.628397e+001
<STATE> 3
<MEAN> 25
 4.989472e+000 2.750903e+000 7.202974e+000 2.506308e+000 -3.188188e+000 1.796401e+000 -4.553746e+000 -1.233289e+000 -8.030085e+000 1.311166e+000 3.634990e+000 -3.831622e+000 2.027388e-001 4.270002e-001 -1.064760e+000 1.067925e+000 7.154337e-001 -4.236239e-001 3.161117e-001 -7.394027e-001 8.913999e-001 -4.373690e-001 -2.380588e-001 -3.859865e-001 -1.052506e+000
<VARIANCE> 25
 1.004213e+001 1.264324e+001 2.555290e+001 3.375526e+001 2.620777e+001 1.982498e+001 1.764041e+001 2.820796e+001 1.549389e+001 4.011473e+001 2.656073e+001 1.908835e+001 6.957627e-001 4.557945e-001 1.342712e+000 1.866374e+000 2.160543e+000 1.602803e+000 1.400777e+000 1.480466e+000 2.060452e+000 3.439281e+000 2.721004e+000 1.941750e+000 4.875689e-001
<GCONST> 8.732040e+001
<STATE> 4
<MEAN> 25
 -2.671904e-001 6.604707e+000 3.613891e+000 2.341720e+000 -3.418652e+000 2.962021e+000 3.484647e+000 -3.392170e+000 -1.928289e+000 6.166002e-001 1.872496e-002 -4.642018e-001 -3.859346e-001 -9.935007e-002 -1.579055e-001 -4.198228e-002 1.988760e-001 6.765579e-002 3.913282e-001 2.226612e-001 3.562433e-001 -8.057987e-002 -1.887783e-001 2.388960e-001 -2.328852e-001
<VARIANCE> 25
 8.367930e+000 4.150322e+001 8.081052e+001 1.089610e+002 4.102438e+001 1.729158e+001 2.865618e+001 3.085061e+001 5.500996e+001 9.188649e+001 2.483502e+001 1.487359e+001 4.033134e-001 9.794452e-001 1.861954e+000 2.600507e+000 2.153864e+000 2.066068e+000 1.343611e+000 2.052202e+000 2.016665e+000 1.988786e+000 2.879751e+000 1.555337e+000 4.914507e-001
<GCONST> 9.400270e+001
<TRANSP> 5
 0.000000e+000 1.000000e+000 0.000000e+000 0.000000e+000 0.000000e+000
 0.000000e+000 9.234666e-001 7.653336e-002 0.000000e+000 0.000000e+000
 0.000000e+000 0.000000e+000 8.974744e-001 1.025256e-001 0.000000e+000
 0.000000e+000 0.000000e+000 0.000000e+000 9.205045e-001 7.949547e-002
 0.000000e+000 0.000000e+000 0.000000e+000 0.000000e+000 0.000000e+000
<ENDHMM>
~h "sp"
<BEGINHMM>
<NUMSTATES> 3
<STATE> 2
~s "silst"
<TRANSP> 3
 0.000000e+000 4.564683e-001 5.435317e-001
 0.000000e+000 8.716213e-001 1.283787e-001
 0.000000e+000 0.000000e+000 0.000000e+000
<ENDHMM>
~h "th"
<BEGINHMM>
<NUMSTATES> 5
<STATE> 2
<MEAN> 25
 1.837867e+000 3.144817e+000 -9.713150e+000 5.211315e-001 3.494765e+000 2.676274e+000 -2.446459e+000 1.697390e+000 4.823007e+000 -1.879531e+000 -1.566209e+000 -5.498916e+000 -3.777950e-001 5.719926e-001 -9.669349e-001 8.661855e-001 -5.131623e-001 2.433093e-001 2.519799e-001 4.125809e-002 -1.730456e-001 -5.759411e-001 1.380996e-001 9.570864e-003 -1.482061e+000
<VARIANCE> 25
 9.146489e+000 1.691095e+001 5.191913e+001 4.271207e+001 3.260855e+001 3.071393e+001 3.274817e+001 4.384381e+001 3.707565e+001 3.876528e+001 2.764403e+001 3.144415e+001 7.260851e-001 1.943700e+000 1.875384e+000 3.815058e+000 1.813147e+000 2.820988e+000 3.699463e+000 3.059810e+000 2.194815e+000 2.610339e+000 2.504509e+000 1.738324e+000 2.029347e+000
<GCONST> 9.720458e+001
<STATE> 3
<MEAN> 25
 -6.196282e+000 4.302154e+000 -1.005570e+001 7.000886e+000 -1.525871e+000 -2.532056e+000 3.859413e+000 -1.264303e+000 3.305989e+000 -6.910900e+000 2.662742e+000 -1.135595e+000 -1.770379e+000 -5.076311e-001 1.645850e-001 7.187474e-001 -9.162970e-001 -1.405280e+000 1.271027e+000 -1.119923e+000 2.718846e-001 -1.244474e+000 9.482633e-001 4.666670e-001 2.019286e+000
<VARIANCE> 25
 3.413041e+001 3.439312e+001 4.345905e+001 4.244827e+001 4.012563e+001 4.442024e+001 4.263295e+001 3.680767e+001 2.850955e+001 3.603039e+001 3.176579e+001 3.773759e+001 2.829911e+000 2.842746e+000 3.428602e+000 3.836742e+000 3.874373e+000 4.644583e+000 3.309744e+000 3.444702e+000 3.205553e+000 3.535637e+000 3.518980e+000 3.223392e+000 6.321833e+000
<GCONST> 1.060887e+002
<STATE> 4
<MEAN> 25
 -5.851807e+000 2.617120e-001 -5.899450e+000 2.344271e+000 -2.892783e+000 -6.235860e+000 1.155780e+000 -2.330236e+000 5.912098e+000 -7.033537e+000 2.240179e+000 -2.875526e+000 2.827010e+000 -1.634616e+000 3.410342e+000 -3.870023e+000 1.415611e+000 3.984713e-002 -2.953513e+000 1.297197e+000 2.192716e-001 2.352366e+000 -1.837236e+000 -6.034804e-001 3.504641e+000
<VARIANCE> 25
 4.203462e+001 2.846754e+001 4.468057e+001 8.374094e+001 3.437241e+001 2.652700e+001 6.352930e+001 2.736374e+001 2.330052e+001 3.987235e+001 2.855607e+001 2.737978e+001 2.331683e+000 3.492308e+000 5.254599e+000 6.932189e+000 6.241099e+000 3.950040e+000 3.454209e+000 4.391294e+000 5.546221e+000 3.881910e+000 5.626706e+000 2.561272e+000 4.045957e+000
<GCONST> 1.077851e+002
<TRANSP> 5
 0.000000e+000 1.000000e+000 0.000000e+000 0.000000e+000 0.000000e+000
 0.000000e+000 8.415044e-001 1.584956e-001 0.000000e+000 0.000000e+000
 0.000000e+000 0.000000e+000 7.680678e-001 2.319322e-001 0.000000e+000
 0.000000e+000 0.000000e+000 0.000000e+000 6.092275e-001 3.907725e-001
 0.000000e+000 0.000000e+000 0.000000e+000 0.000000e+000 0.000000e+000
<ENDHMM>
~h "uh"
<BEGINHMM>
<NUMSTATES> 5
<STATE> 2
<MEAN> 25
 3.862341e+000 4.329813e+000 4.618618e+000 -1.571756e+000 -3.200037e+000 9.588104e-001 -9.994290e+000 -5.100695e+000 -3.492719e+000 6.917901e-001 7.181350e+000 -2.348897e+000 2.137319e+000 -4.552285e-001 1.664972e+000 -2.502518e+000 -4.838379e-001 2.321984e+000 -3.155906e+000 -3.636748e-001 -2.315525e+000 3.008695e+000 1.049559e+000 -1.930947e-001 8.451051e-001
<VARIANCE> 25
 1.475102e+001 2.046943e+001 3.693179e+001 4.483775e+001 2.642835e+001 6.044817e+001 4.418003e+001 2.705170e+001 5.317926e+001 3.772200e+001 3.623313e+001 1.958734e+001 4.203476e+000 1.691545e+000 3.567486e+000 3.972328e+000 2.921972e+000 3.767803e+000 5.654499e+000 7.027573e+000 3.804927e+000 5.281906e+000 2.816427e+000 1.724303e+000 1.001814e+000
<GCONST> 1.029768e+002
<STATE> 3
<MEAN> 25
 6.747955e+000 3.323693e+000 3.888130e+000 -5.287023e+000 -4.792749e+000 7.186687e+000 -1.136491e+001 -5.652424e+000 -7.278622e+000 4.577188e+000 8.711624e+000 -6.288275e-001 3.428152e-001 -1.843487e-001 -3.767870e-001 2.325611e-001 6.895799e-002 6.327725e-001 -4.231070e-002 -1.003675e-001 -6.215167e-001 9.359697e-001 -4.745486e-001 3.990586e-001 -2.058526e-001
<VARIANCE> 25
 1.025414e+001 1.629275e+001 3.641670e+001 4.041340e+001 3.891702e+001 3.687247e+001 4.557191e+001 3.330622e+001 4.724271e+001 4.609517e+001 3.516304e+001 2.072015e+001 3.823638e-001 1.156670e+000 1.489767e+000 6.242872e+000 4.313791e+000 3.208401e+000 2.733347e+000 3.426650e+000 3.366526e+000 2.809794e+000 3.067881e+000 1.381538e+000 4.700866e-001
<GCONST> 9.644582e+001
<STATE> 4
<MEAN> 25
 6.786929e+000 5.139111e+000 1.118901e-001 -3.165235e+000 2.396781e-001 6.370368e+000 -1.045052e+001 -2.421863e+000 -8.421582e+000 4.604736e+000 4.600576e+000 -1.364298e+000 -2.837041e-001 3.962130e-001 -5.579852e-001 9.025193e-001 1.166265e-001 -4.971403e-001 6.997485e-001 -3.111125e-001 7.617504e-001 -5.158847e-001 -3.198046e-001 1.079015e-001 -9.489461e-001
<VARIANCE> 25
 8.387939e+000 2.474397e+001 4.467802e+001 4.944263e+001 2.592620e+001 3.023962e+001 5.062934e+001 4.009898e+001 6.020022e+001 3.299555e+001 3.472058e+001 2.177733e+001 4.645999e-001 1.441197e+000 1.398882e+000 2.370605e+000 1.059368e+000 1.349808e+000 2.838802e+000 1.937910e+000 2.184745e+000 2.070928e+000 2.052384e+000 1.658262e+000 1.205029e+000
<GCONST> 9.326625e+001
<TRANSP> 5
 0.000000e+000 1.000000e+000 0.000000e+000 0.000000e+000 0.000000e+000
 0.000000e+000 4.367703e-001 5.632297e-001 0.000000e+000 0.000000e+000
 0.000000e+000 0.000000e+000 7.184169e-001 2.815832e-001 0.000000e+000
 0.000000e+000 0.000000e+000 0.000000e+000 8.293456e-001 1.706544e-001
 0.000000e+000 0.000000e+000 0.000000e+000 0.000000e+000 0.000000e+000
<ENDHMM>
~h "sil"
<BEGINHMM>
<NUMSTATES> 5
<STATE> 2
<MEAN> 25
 -5.248195e+000 5.145535e+000 -7.733118e+000 1.069819e+001 2.956334e+000 1.412671e+000 5.139771e+000 2.304357e-001 4.270769e+000 -4.882689e+000 1.007244e+000 2.592848e+000 5.433331e-002 2.797930e-002 -2.264689e-001 1.985684e-001 -1.203901e-001 -1.569695e-001 -3.092838e-002 -3.005689e-001 -2.608500e-001 -1.020449e-001 -1.985365e-002 -3.991830e-001 1.819285e-001
<VARIANCE> 25
 3.803914e+001 5.417753e+001 6.339378e+001 5.526004e+001 7.047210e+001 5.937389e+001 3.545578e+001 4.486285e+001 3.893562e+001 3.518145e+001 3.441424e+001 3.426740e+001 2.774530e+000 2.594286e+000 2.009057e+000 3.624963e+000 1.831499e+000 2.894303e+000 3.072364e+000 3.114576e+000 3.117611e+000 2.884000e+000 2.778784e+000 2.148279e+000 2.947076e+000
<GCONST> 1.046947e+002
<STATE> 3
~s "silst"
<STATE> 4
<MEAN> 25
 -5.935754e+000 3.519560e+000 -5.560313e+000 7.563831e+000 1.795263e-001 1.493984e-001 4.529807e+000 -1.463968e+000 1.197158e+000 -6.878379e+000 3.337055e+000 9.973956e-001 -9.505707e-002 -1.609163e-001 -3.334949e-001 1.671751e-001 2.128024e-001 1.850467e-001 8.991499e-002 7.673379e-002 -1.880912e-001 -9.527030e-002 2.036384e-001 1.182382e-001 -6.233967e-002
<VARIANCE> 25
 3.540269e+001 6.260163e+001 6.423801e+001 7.266859e+001 6.464087e+001 8.511393e+001 3.871376e+001 5.640162e+001 3.051277e+001 4.895520e+001 3.268257e+001 2.306284e+001 6.203641e-001 1.193928e+000 1.426232e+000 2.292880e+000 1.699083e+000 2.292116e+000 2.166916e+000 1.943114e+000 1.960898e+000 2.711247e+000 1.996828e+000 1.378110e+000 1.016501e+000
<GCONST> 9.871591e+001
<TRANSP> 5
 0.000000e+000 1.000000e+000 0.000000e+000 0.000000e+000 0.000000e+000
 0.000000e+000 3.829431e-001 2.185542e-001 3.985026e-001 0.000000e+000
 0.000000e+000 0.000000e+000 7.420983e-001 2.579016e-001 0.000000e+000
 0.000000e+000 2.193802e-002 0.000000e+000 7.055767e-001 2.724853e-001
 0.000000e+000 0.000000e+000 0.000000e+000 0.000000e+000 0.000000e+000
<ENDHMM>
