~o
<STREAMINFO> 1 25
<VECSIZE> 25<NULLD><MFCC_D_N_Z_0><DIAGC>
~s "silst"
<MEAN> 25
 -4.523245e+000 3.505696e+000 -7.112850e+000 7.707078e+000 2.747820e+000 1.686611e+000 2.872113e+000 -3.066836e+000 2.173308e+000 -4.417182e+000 -1.186517e-001 2.222414e+000 8.045694e-001 -5.303039e-001 8.613690e-001 -8.641211e-001 3.216781e-001 3.019499e-001 -3.631140e-001 -4.714895e-001 -5.432117e-001 2.487998e-001 -1.729305e-001 -2.994478e-001 1.513357e+000
<VARIANCE> 25
 3.722801e+001 4.425501e+001 6.349030e+001 6.655521e+001 6.406609e+001 7.049044e+001 5.601535e+001 4.361288e+001 5.014647e+001 3.660442e+001 3.503588e+001 3.048597e+001 3.326183e+000 4.988650e+000 5.071684e+000 6.487573e+000 5.186571e+000 4.879950e+000 4.681702e+000 3.938676e+000 4.590639e+000 3.512985e+000 3.111600e+000 3.087177e+000 5.439527e+000
<GCONST> 1.115928e+002
~h "b"
<BEGINHMM>
<NUMSTATES> 5
<STATE> 2
<MEAN> 25
 5.705713e+000 1.255013e+001 -9.267564e-001 1.193238e+001 1.816571e+000 3.481906e+000 -2.517232e+000 -7.557244e+000 -5.508968e+000 -3.561188e+000 -1.512727e+000 -3.704607e+000 7.636517e-001 -5.759448e-001 9.793131e-001 -9.853982e-001 -4.960141e-001 1.426443e-001 -1.037340e+000 -5.558005e-001 -1.566449e-001 1.268816e+000 5.340493e-001 -4.626420e-001 1.681716e+000
<VARIANCE> 25
 1.431480e+001 6.654667e+001 2.762105e+001 1.025871e+002 3.654045e+001 9.510240e+001 3.585447e+001 2.818108e+001 2.142552e+001 5.155924e+001 2.613416e+001 2.576884e+001 2.097890e+000 5.935130e+000 2.734553e+000 5.878780e+000 2.647871e+000 3.432501e+000 3.185493e+000 4.848181e+000 2.873855e+000 3.278198e+000 3.668099e+000 3.700836e+000 2.738003e+000
<GCONST> 1.054484e+002
<STATE> 3
<MEAN> 25
 5.205616e+000 9.439598e-001 2.290750e+000 8.815558e-001 -2.091380e+000 1.016392e+000 -7.354913e+000 -1.668820e+000 -3.007142e+000 5.055403e+000 2.897984e+000 -6.869544e-001 -6.400663e-001 -2.592493e+000 2.161046e+000 -2.958881e+000 -1.521101e+000 -6.437246e-001 -7.919576e-001 2.021528e+000 -7.720613e-001 2.505250e+000 6.078893e-002 7.641070e-001 2.858106e+000
<VARIANCE> 25
 1.459696e+001 7.830830e+001 6.363304e+001 1.734377e+002 4.255246e+001 3.662575e+001 4.088710e+001 9.315742e+001 4.469696e+001 4.295335e+001 2.511803e+001 3.926635e+001 1.363085e+000 6.542531e+000 4.052237e+000 7.380742e+000 6.785056e+000 4.270394e+000 4.519971e+000 1.071485e+001 8.067570e+000 6.976181e+000 3.853840e+000 3.401976e+000 4.390947e+000
<GCONST> 1.132640e+002
<STATE> 4
<MEAN> 25
 4.456477e+000 4.632003e+000 -1.562380e+000 -1.205857e+000 -2.447667e-001 -1.605003e+000 -6.576828e+000 -4.244551e+000 3.687259e+000 8.016129e+000 1.271096e+000 -4.271962e+000 -1.831356e-001 -2.610182e-001 8.772753e-001 4.956213e-001 -5.388523e-001 -4.861365e-001 2.101753e-001 4.313394e-001 4.103560e-001 -1.561080e-001 -4.459223e-001 -1.679709e-001 2.498061e-001
<VARIANCE> 25
 1.427879e+001 1.359115e+002 4.312236e+001 1.752752e+002 5.046106e+001 2.543404e+001 2.739188e+001 6.477590e+001 7.064175e+001 5.325411e+001 3.011939e+001 2.910298e+001 5.941891e-001 1.316703e+000 1.437718e+000 3.002337e+000 1.994022e+000 2.473204e+000 2.235279e+000 1.606497e+000 3.490402e+000 2.772148e+000 2.311356e+000 1.880038e+000 8.266640e-001
<GCONST> 9.973480e+001
<TRANSP> 5
 0.000000e+000 1.000000e+000 0.000000e+000 0.000000e+000 0.000000e+000
 0.000000e+000 6.603641e-001 3.396359e-001 0.000000e+000 0.000000e+000
 0.000000e+000 0.000000e+000 3.464833e-001 6.535167e-001 0.000000e+000
 0.000000e+000 0.000000e+000 0.000000e+000 7.159065e-001 2.840935e-001
 0.000000e+000 0.000000e+000 0.000000e+000 0.000000e+000 0.000000e+000
<ENDHMM>
~h "d"
<BEGINHMM>
<NUMSTATES> 5
<STATE> 2
<MEAN> 25
 1.311771e+000 8.363510e+000 -4.829514e+000 1.191124e+001 2.049922e+000 -1.779262e+000 -1.342748e-001 -3.021256e+000 4.448398e+000 -4.333286e-001 -2.432997e+000 2.014779e+000 -3.573372e-001 2.964222e-001 2.210001e-001 8.597437e-001 1.938344e-001 -2.766042e-001 2.287071e-001 1.134745e-001 1.138814e-001 -7.207760e-001 -1.470829e-001 6.108518e-002 -1.573700e-001
<VARIANCE> 25
 3.902939e+001 2.482425e+001 3.848428e+001 1.968272e+001 5.490483e+001 2.475738e+001 5.468472e+001 4.284304e+001 5.332917e+001 3.925369e+001 5.098856e+001 2.935187e+001 1.000053e+000 2.032071e+000 2.502767e+000 1.871930e+000 2.994513e+000 2.759135e+000 3.004504e+000 3.793289e+000 3.961615e+000 5.230388e+000 4.823382e+000 2.124502e+000 7.537124e-001
<GCONST> 1.012583e+002
<STATE> 3
<MEAN> 25
 4.527572e+000 1.297588e+001 2.199218e+000 1.543841e+001 -8.190475e-001 -2.187076e+000 7.668409e-002 -6.086577e+000 -1.043254e+000 -4.014980e+000 -4.064620e+000 -3.667677e+000 -1.953319e-001 -8.862935e-001 5.351923e-001 -8.626980e-001 -6.421263e-001 -8.778239e-001 -1.483931e-001 1.480362e-001 9.521846e-002 -9.443135e-001 1.349635e+000 -1.200931e-001 2.574447e+000
<VARIANCE> 25
 2.587115e+001 3.678388e+001 2.449959e+001 3.089876e+001 4.997514e+001 4.179366e+001 4.082889e+001 4.259962e+001 2.921589e+001 5.990192e+001 4.070392e+001 2.742146e+001 6.346024e+000 5.959291e+000 3.345859e+000 4.035364e+000 6.688430e+000 5.914029e+000 3.949302e+000 6.691191e+000 6.570452e+000 5.784786e+000 8.479710e+000 5.162511e+000 3.458951e+000
<GCONST> 1.108706e+002
<STATE> 4
<MEAN> 25
 9.468469e-001 2.257750e+000 2.222713e+000 3.658263e+000 -3.355233e+000 -8.494694e+000 -2.634865e+000 -1.187797e+000 4.999079e+000 -5.354590e+000 4.131565e+000 9.419173e-001 -4.222415e-001 -3.120809e+000 1.439119e+000 -4.328420e+000 -1.194887e+000 -2.202025e+000 -3.562041e-002 2.382245e+000 6.816769e-001 1.774227e+000 6.055537e-001 1.314558e+000 3.274181e+000
<VARIANCE> 25
 1.640317e+001 4.031991e+001 3.471053e+001 4.157807e+001 3.748321e+001 3.717002e+001 5.318905e+001 6.497001e+001 5.089481e+001 3.661127e+001 3.256093e+001 2.768398e+001 1.401455e+000 2.871709e+000 3.253703e+000 4.130135e+000 4.074677e+000 4.832346e+000 7.087806e+000 5.602163e+000 7.819069e+000 3.615699e+000 7.115559e+000 3.382909e+000 2.702120e+000
<GCONST> 1.076062e+002
<TRANSP> 5
 0.000000e+000 1.000000e+000 0.000000e+000 0.000000e+000 0.000000e+000
 0.000000e+000 7.388323e-001 2.611677e-001 0.000000e+000 0.000000e+000
 0.000000e+000 0.000000e+000 7.135331e-001 2.864669e-001 0.000000e+000
 0.000000e+000 0.000000e+000 0.000000e+000 4.239113e-001 5.760887e-001
 0.000000e+000 0.000000e+000 0.000000e+000 0.000000e+000 0.000000e+000
<ENDHMM>
~h "g"
<BEGINHMM>
<NUMSTATES> 5
<STATE> 2
<MEAN> 25
 2.498940e+000 8.148156e+000 3.757789e-001 7.097425e+000 -3.480621e+000 -2.197336e+000 -6.412256e-001 -5.207119e+000 -2.615720e+000 3.295549e+000 4.208962e+000 -8.343686e+000 -6.685862e-002 2.714757e-002 -3.340694e-001 5.322014e-001 -6.064929e-001 3.710327e-002 3.334349e-001 -5.064533e-001 -4.057654e-001 6.191154e-002 5.148836e-001 -3.881199e-001 2.111422e-001
<VARIANCE> 25
 1.432372e+001 2.347866e+001 2.890549e+001 3.731593e+001 3.490380e+001 2.030087e+001 8.950700e+001 5.855198e+001 2.241812e+001 2.259290e+001 2.089967e+001 2.463363e+001 7.825324e-001 8.092850e-001 1.645083e+000 2.215292e+000 3.338950e+000 8.996618e-001 3.410657e+000 4.080192e+000 3.172064e+000 2.430103e+000 2.050514e+000 2.344307e+000 9.982364e-001
<GCONST> 9.452718e+001
<STATE> 3
<MEAN> 25
 3.626698e+000 6.616863e+000 -5.242046e+000 9.622918e+000 -5.206515e+000 2.558947e+000 1.833477e+000 -8.122921e+000 3.046388e-001 1.044796e+000 9.003712e-001 -4.248924e+000 -1.787887e-001 -6.409463e-001 -2.724933e-001 7.020538e-002 -5.837173e-001 8.057316e-002 1.828611e-001 -1.818145e-001 1.032191e-001 -7.411175e-001 4.743756e-001 1.559543e-001 3.782852e-001
<VARIANCE> 25
 1.209789e+001 5.436021e+001 5.353784e+001 4.442384e+001 3.252741e+001 3.376347e+001 9.277154e+001 3.582559e+001 9.553902e+001 3.742279e+001 4.849255e+001 2.659692e+001 1.547704e+000 2.071358e+000 3.718150e+000 2.440116e+000 3.248189e+000 2.520874e+000 4.893606e+000 5.547800e+000 3.952884e+000 3.984314e+000 2.971035e+000 2.077730e+000 1.229570e+000
<GCONST> 1.042220e+002
<STATE> 4
<MEAN> 25
 -1.664590e+000 5.096460e+000 -1.225791e+000 1.006181e+001 -3.250515e+000 -1.258639e+000 3.540867e+000 -4.220335e+000 -2.038292e+000 3.631522e-001 4.612229e+000 -5.755238e+000 -4.827106e-001 -1.291952e+000 1.559130e+000 -1.547994e+000 -1.120307e-001 2.902786e-001 -9.672170e-001 1.324391e+000 -3.498960e-001 1.798836e-002 -9.981551e-004 3.851328e-001 1.853763e+000
<VARIANCE> 25
 4.819621e+001 4.255817e+001 8.938926e+001 3.490112e+001 4.921283e+001 2.835778e+001 5.796309e+001 5.891456e+001 7.778941e+001 3.659032e+001 2.713849e+001 3.330958e+001 3.537292e+000 3.808059e+000 5.237404e+000 5.837670e+000 3.005496e+000 3.720325e+000 6.744212e+000 5.874845e+000 5.566936e+000 4.485480e+000 3.629455e+000 3.839281e+000 2.614682e+000
<GCONST> 1.106836e+002
<TRANSP> 5
 0.000000e+000 1.000000e+000 0.000000e+000 0.000000e+000 0.000000e+000
 0.000000e+000 7.321229e-001 2.678771e-001 0.000000e+000 0.000000e+000
 0.000000e+000 0.000000e+000 6.184824e-001 3.815176e-001 0.000000e+000
 0.000000e+000 0.000000e+000 0.000000e+000 7.954100e-001 2.045900e-001
 0.000000e+000 0.000000e+000 0.000000e+000 0.000000e+000 0.000000e+000
<ENDHMM>
~h "h"
<BEGINHMM>
<NUMSTATES> 5
<STATE> 2
<MEAN> 25
 -5.276702e+000 -2.926903e+000 -1.374457e+001 5.731764e+000 7.247030e+000 6.505646e+000 4.137913e+000 -3.346025e+000 1.485713e+000 -7.220774e+000 5.406671e+000 3.512415e+000 -1.995802e-001 -9.702898e-001 -1.280426e-001 -1.113035e-001 6.529248e-001 4.030567e-001 6.880369e-002 -7.403988e-001 1.248407e-001 -3.139625e-001 -4.093931e-002 4.790544e-001 4.563438e-001
<VARIANCE> 25
 1.303182e+001 5.082740e+001 5.320723e+001 4.885011e+001 3.028670e+001 3.123935e+001 4.535675e+001 3.990669e+001 3.220504e+001 2.860111e+001 2.363285e+001 3.121512e+001 5.966469e-001 1.199849e+000 2.200139e+000 1.614603e+000 2.043495e+000 1.649285e+000 3.231940e+000 2.496872e+000 2.201932e+000 1.844548e+000 2.179576e+000 1.899361e+000 6.179902e-001
<GCONST> 9.466574e+001
<STATE> 3
<MEAN> 25
 -7.519000e-001 -7.528388e+000 -6.029784e+000 6.929511e-002 1.294007e+001 9.220396e+000 6.731717e+000 -7.307133e+000 2.795057e+000 -6.134324e+000 -1.263114e+000 4.482434e+000 1.772594e+000 -1.511975e-003 1.650415e+000 -1.843670e+000 7.953679e-002 1.649082e-001 -9.686849e-002 3.126081e-001 -1.166527e+000 1.175600e+000 -9.869000e-001 -1.109405e+000 2.703778e+000
<VARIANCE> 25
 3.246414e+001 2.878534e+001 3.917753e+001 7.229459e+001 4.347848e+001 3.158203e+001 1.930110e+001 2.444047e+001 3.403448e+001 2.889337e+001 2.092421e+001 2.881540e+001 2.553890e+000 3.018695e+000 1.815021e+000 4.793486e+000 2.005496e+000 1.577404e+000 2.312050e+000 1.847450e+000 2.149494e+000 1.798006e+000 1.729012e+000 1.683545e+000 2.609571e+000
<GCONST> 9.759880e+001
<STATE> 4
<MEAN> 25
 3.374161e+000 -9.527263e+000 -3.436133e+000 -9.686562e+000 1.113990e+001 8.883891e+000 8.551499e+000 -8.297587e+000 1.782466e+000 -1.533373e+000 -1.670444e+000 -1.361944e+000 -4.177960e-002 1.311623e-001 -8.522186e-002 9.654836e-002 -1.796096e-001 -1.940538e-001 -1.151325e-001 3.060163e-001 1.872880e-001 6.683752e-002 -2.356221e-001 -2.046751e-001 -1.543121e-001
<VARIANCE> 25
 3.910582e+000 1.697877e+001 1.213908e+001 3.129286e+001 1.671009e+001 1.986566e+001 3.109564e+001 2.218859e+001 2.098040e+001 1.268456e+001 1.677827e+001 3.407026e+001 2.099811e-001 9.411371e-001 5.010678e-001 1.764578e+000 6.852346e-001 6.592816e-001 8.279708e-001 9.192287e-001 1.100658e+000 7.296574e-001 6.340925e-001 1.635819e+000 8.802823e-001
<GCONST> 7.723423e+001
<TRANSP> 5
 0.000000e+000 1.000000e+000 0.000000e+000 0.000000e+000 0.000000e+000
 0.000000e+000 8.692199e-001 1.307801e-001 0.000000e+000 0.000000e+000
 0.000000e+000 0.000000e+000 6.914521e-001 3.085479e-001 0.000000e+000
 0.000000e+000 0.000000e+000 0.000000e+000 8.821272e-001 1.178728e-001
 0.000000e+000 0.000000e+000 0.000000e+000 0.000000e+000 0.000000e+000
<ENDHMM>
~h "j"
<BEGINHMM>
<NUMSTATES> 5
<STATE> 2
<MEAN> 25
 -1.972193e+000 1.636528e+001 3.597304e+000 7.109296e+000 4.272849e-001 -3.829803e+000 3.318686e+000 -8.575084e+000 1.459089e+000 -4.517131e+000 2.091573e+000 -1.734520e+000 -2.546555e-001 -1.393033e+000 1.697678e+000 -1.487973e+000 -6.567323e-001 -7.446235e-001 -5.710679e-001 6.273901e-001 -6.579726e-001 -2.491867e-001 1.461748e+000 5.049383e-001 2.294896e+000
<VARIANCE> 25
 6.373972e+001 5.751838e+001 4.495818e+001 5.364785e+001 5.318694e+001 3.076937e+001 4.261077e+001 7.673964e+001 3.132065e+001 5.484796e+001 6.379190e+001 1.478730e+001 7.938567e+000 9.877740e+000 4.237544e+000 2.507764e+000 5.228633e+000 3.502519e+000 4.547142e+000 1.314772e+001 4.266999e+000 6.011670e+000 5.140639e+000 1.667762e+000 1.877126e+000
<GCONST> 1.114799e+002
<STATE> 3
<MEAN> 25
 1.278992e+000 -6.526566e+000 9.907976e+000 -7.759728e+000 -5.499466e+000 -6.845343e+000 -2.209660e+000 7.558028e+000 1.020177e+000 -5.392371e-001 -1.321917e-001 4.140418e+000 6.367084e-001 -2.200112e+000 -2.465503e+000 -1.119375e+000 1.029714e+000 9.717640e-001 8.060463e-001 1.487106e+000 2.067903e+000 3.618335e-001 -3.369235e+000 -4.287903e-001 1.389472e+000
<VARIANCE> 25
 5.260531e+000 2.963407e+001 4.647593e+001 1.969684e+001 1.860217e+001 1.026810e+001 4.472794e+001 3.259790e+001 7.748283e+001 3.484536e+001 6.698541e+001 2.111243e+001 5.707812e-001 2.518087e+000 3.226026e+000 1.708500e+000 2.866249e+000 2.026956e+000 1.886382e+000 4.200415e+000 1.981434e+000 3.166225e+000 1.195652e+000 1.745707e+000 6.772723e-001
<GCONST> 9.358949e+001
<STATE> 4
<MEAN> 25
 7.126696e-001 -8.966817e+000 -5.073834e+000 -5.839799e+000 7.927269e-001 5.162643e+000 -1.180143e+000 3.291381e+000 1.106895e+001 -7.343502e+000 -7.618473e+000 -2.944919e+000 2.559284e-001 -5.785073e-002 -7.070836e-001 2.797477e-001 8.639028e-001 1.784358e+000 -9.423805e-001 -1.007163e+000 2.856319e-001 -9.195112e-002 4.530564e-002 -1.346035e+000 -1.055629e-001
<VARIANCE> 25
 7.413648e+000 2.611926e+001 5.855179e+001 1.146399e+001 5.012689e+000 3.982068e+001 2.822689e+001 3.511856e+001 3.552164e+001 2.265405e+001 3.293327e+001 1.781686e+001 1.595731e+000 2.126123e+000 7.172812e+000 1.373851e+000 1.523031e+000 1.382363e+000 2.465224e+000 2.973697e+000 3.563044e+000 3.616891e+000 2.301084e+000 2.671714e+000 6.780252e-001
<GCONST> 9.321241e+001
<TRANSP> 5
 0.000000e+000 1.000000e+000 0.000000e+000 0.000000e+000 0.000000e+000
 0.000000e+000 8.950676e-001 1.049324e-001 0.000000e+000 0.000000e+000
 0.000000e+000 0.000000e+000 7.850760e-001 2.149240e-001 0.000000e+000
 0.000000e+000 0.000000e+000 0.000000e+000 6.656050e-001 3.343950e-001
 0.000000e+000 0.000000e+000 0.000000e+000 0.000000e+000 0.000000e+000
<ENDHMM>
~h "k"
<BEGINHMM>
<NUMSTATES> 5
<STATE> 2
<MEAN> 25
 -5.252461e+000 -6.182273e-001 -6.388886e+000 5.674225e+000 -1.248903e+000 -3.259341e+000 -2.959876e-001 -6.076265e-002 -2.410961e+000 2.983064e-001 3.862631e+000 -2.577297e+000 4.325532e-001 -1.526383e+000 7.113005e-001 -1.586072e+000 7.957222e-001 -6.639242e-002 -9.331682e-001 7.061000e-001 -7.432162e-001 7.968845e-001 -3.231194e-001 -2.325726e-001 2.889225e+000
<VARIANCE> 25
 2.865248e+001 4.725869e+001 9.093655e+001 3.640121e+001 7.421783e+001 6.030272e+001 5.584148e+001 3.693245e+001 4.916298e+001 4.145592e+001 3.235931e+001 2.881994e+001 5.221752e+000 5.450813e+000 1.768042e+001 5.771577e+000 8.003551e+000 5.394006e+000 6.763074e+000 4.489461e+000 6.462073e+000 5.205193e+000 3.659512e+000 2.968217e+000 3.633314e+000
<GCONST> 1.141017e+002
<STATE> 3
<MEAN> 25
 2.309386e+000 -8.410905e+000 6.621479e+000 -9.558973e+000 3.014385e-001 -7.052245e+000 -4.099839e+000 8.325250e+000 -4.251831e+000 7.262709e+000 -1.647645e+000 -1.780081e+000 5.893200e-001 -9.375865e-001 8.144763e-001 -1.708651e+000 5.319657e-001 -1.108487e-001 5.634327e-001 5.613697e-001 5.093603e-001 4.293953e-001 -8.833670e-001 3.560284e-001 9.908051e-001
<VARIANCE> 25
 9.410338e+000 9.155799e+000 3.487597e+001 1.448815e+001 2.529353e+001 3.979196e+001 3.294523e+001 1.791777e+001 2.454746e+001 2.304385e+001 1.915250e+001 1.828243e+001 1.192102e+000 2.244062e+000 3.465085e+000 3.630109e+000 1.087562e+000 7.289128e-001 2.106396e+000 1.778367e+000 1.379923e+000 3.671448e+000 1.372001e+000 8.586869e-001 2.513537e+000
<GCONST> 8.943213e+001
<STATE> 4
<MEAN> 25
 5.784116e-001 -9.505145e-001 4.231963e+000 -2.121064e+000 -4.922509e+000 -2.234448e+000 7.719578e-002 1.235583e+000 -3.846316e+000 3.686866e+000 4.774773e-001 -1.767590e+000 2.794924e-002 4.066173e-001 -7.383671e-002 1.072628e-001 1.841024e-001 8.359651e-002 1.258110e-001 -2.529784e-001 4.941131e-001 -1.727294e-001 -1.006913e-001 -2.019233e-002 -2.513982e-001
<VARIANCE> 25
 2.888548e+001 5.488390e+001 1.230722e+002 6.275816e+001 6.441688e+001 3.818323e+001 4.080233e+001 6.180546e+001 6.394275e+001 3.702485e+001 5.407653e+001 2.938791e+001 1.407609e+000 3.533215e+000 5.070953e+000 3.632371e+000 2.267965e+000 1.475481e+000 2.553326e+000 2.791949e+000 2.832301e+000 3.498281e+000 2.934654e+000 1.823058e+000 3.740014e+000
<GCONST> 1.060277e+002
<TRANSP> 5
 0.000000e+000 1.000000e+000 0.000000e+000 0.000000e+000 0.000000e+000
 0.000000e+000 8.177549e-001 1.822450e-001 0.000000e+000 0.000000e+000
 0.000000e+000 0.000000e+000 7.252910e-001 2.747090e-001 0.000000e+000
 0.000000e+000 0.000000e+000 0.000000e+000 6.648852e-001 3.351148e-001
 0.000000e+000 0.000000e+000 0.000000e+000 0.000000e+000 0.000000e+000
<ENDHMM>
~h "l"
<BEGINHMM>
<NUMSTATES> 5
<STATE> 2
<MEAN> 25
 3.592912e+000 -4.493224e+000 3.498872e+000 -9.271595e+000 1.606599e+000 4.575500e+000 -1.000811e+001 -6.373179e-002 6.115572e+000 9.820865e-001 -1.580122e+000 -2.455757e+000 5.007539e-001 6.385970e-001 1.205905e+000 -2.609343e-001 -2.408879e-001 -2.109972e-001 -2.321664e+000 -8.102604e-001 2.010121e-001 1.062648e+000 6.985179e-001 1.770866e-001 -7.212651e-001
<VARIANCE> 25
 1.264316e+001 4.458593e+001 6.082757e+001 4.562751e+001 4.538940e+001 5.004893e+001 4.164799e+001 3.580153e+001 3.456156e+001 4.358667e+001 4.785369e+001 2.805158e+001 3.572809e-001 9.918473e-001 1.044893e+000 1.678624e+000 4.875652e+000 3.724298e+000 2.257873e+000 3.611443e+000 2.297833e+000 4.354359e+000 6.723932e+000 1.520303e+000 2.679309e-001
<GCONST> 9.759806e+001
<STATE> 3
<MEAN> 25
 3.915512e+000 -2.599083e+000 8.706442e+000 -8.950677e+000 8.856907e-001 1.703105e-001 -1.628901e+001 1.099519e-002 3.979685e+000 2.856064e+000 1.006645e+000 -5.325965e-002 2.877653e-002 1.100070e-001 -1.512386e-001 -1.446717e-003 1.639170e-001 4.661498e-002 -3.646897e-001 1.495259e-001 -1.239865e-002 1.249288e-001 7.831226e-002 -2.010917e-001 -1.339457e-001
<VARIANCE> 25
 1.264648e+001 1.951717e+001 3.168790e+001 3.444276e+001 2.804958e+001 5.979892e+001 3.407380e+001 4.312014e+001 3.718317e+001 5.284444e+001 3.747865e+001 3.072937e+001 2.677911e-001 6.108943e-001 1.057980e+000 1.289033e+000 1.319340e+000 1.173237e+000 1.486565e+000 1.939660e+000 1.134358e+000 1.882067e+000 8.798904e-001 1.134494e+000 3.025924e-001
<GCONST> 8.735757e+001
<STATE> 4
<MEAN> 25
 1.345112e+000 -6.817611e-002 1.609386e+000 -1.800234e+000 9.310317e-001 8.177621e-001 -7.649249e+000 2.455526e+000 6.959593e+000 -3.108430e+000 8.512940e-001 4.990800e-001 -3.608448e-001 -5.094302e-001 -1.429462e+000 3.412955e-001 -5.579229e-002 -3.427621e-001 2.563001e+000 1.014654e+000 5.257794e-001 -6.966314e-001 -7.191114e-001 3.102924e-002 4.183466e-001
<VARIANCE> 25
 1.487982e+001 3.426040e+001 7.411529e+001 8.425719e+001 4.605559e+001 3.942970e+001 1.104795e+002 3.800140e+001 4.110803e+001 7.116295e+001 3.743676e+001 4.538710e+001 5.287051e-001 1.831730e+000 3.022952e+000 1.688360e+000 3.532428e+000 2.799007e+000 5.701407e+000 4.502957e+000 2.542099e+000 4.208338e+000 4.483722e+000 3.155141e+000 1.369495e+000
<GCONST> 1.046549e+002
<TRANSP> 5
 0.000000e+000 1.000000e+000 0.000000e+000 0.000000e+000 0.000000e+000
 0.000000e+000 6.787297e-001 3.212703e-001 0.000000e+000 0.000000e+000
 0.000000e+000 0.000000e+000 7.565988e-001 2.434013e-001 0.000000e+000
 0.000000e+000 0.000000e+000 0.000000e+000 7.355410e-001 2.644590e-001
 0.000000e+000 0.000000e+000 0.000000e+000 0.000000e+000 0.000000e+000
<ENDHMM>
~h "m"
<BEGINHMM>
<NUMSTATES> 5
<STATE> 2
<MEAN> 25
 3.808144e+000 2.746633e-001 3.937622e-001 8.356388e-001 3.651650e+000 3.791154e+000 -2.120744e-001 -7.115756e+000 -2.227890e+000 -4.571083e+000 2.887256e+000 -5.993769e-002 1.016002e-001 7.918599e-001 1.479734e+000 2.052743e+000 3.327914e-001 -3.613040e-001 -8.769878e-001 -2.324870e+000 -1.486452e+000 2.883498e-002 -1.303737e-001 1.124825e-001 -6.111114e-001
<VARIANCE> 25
 1.676831e+001 2.149677e+001 4.224824e+001 9.732176e+001 2.564031e+001 3.725639e+001 2.851191e+001 4.481634e+001 3.707672e+001 3.315281e+001 3.724327e+001 1.863426e+001 3.963538e-001 1.727997e+000 1.520712e+000 4.226597e+000 2.330098e+000 2.574470e+000 1.599381e+000 3.393299e+000 3.502791e+000 1.525701e+000 2.939098e+000 1.469156e+000 1.550874e+000
<GCONST> 9.637006e+001
<STATE> 3
<MEAN> 25
 5.085558e+000 9.769201e-001 3.855135e+000 5.825807e+000 5.161759e+000 2.618327e+000 -3.140840e+000 -1.196052e+001 -7.290346e+000 -3.324354e+000 1.989235e+000 -1.070369e+000 1.969872e-001 -2.020737e-001 -3.000360e-001 -8.297782e-001 -4.831990e-001 -3.805776e-002 1.488266e-001 7.572160e-001 2.033948e-001 -7.190484e-002 1.445814e-002 8.316993e-002 4.466085e-001
<VARIANCE> 25
 8.180351e+000 1.362091e+001 2.134414e+001 2.557322e+001 2.166700e+001 3.993103e+001 2.687563e+001 1.724118e+001 2.985972e+001 3.360949e+001 5.497189e+001 2.127019e+001 2.759971e-001 8.230950e-001 1.618335e+000 2.287763e+000 1.497418e+000 9.755598e-001 1.097659e+000 2.305193e+000 2.290423e+000 1.213926e+000 1.612834e+000 9.989223e-001 6.085417e-001
<GCONST> 8.597659e+001
<STATE> 4
<MEAN> 25
 6.403239e+000 -4.276276e+000 -4.830571e-001 -7.918344e+000 4.241718e+000 6.844835e+000 -9.101958e-001 -3.204094e+000 -2.414905e+000 -3.005770e+000 8.655523e-001 2.462350e+000 1.168054e-001 -1.218333e+000 -5.530829e-001 -1.850807e+000 2.877068e-001 1.162405e-001 -6.226384e-002 1.818482e+000 8.349058e-001 1.123600e+000 -6.546941e-001 2.279523e-002 9.088659e-001
<VARIANCE> 25
 6.416040e+000 2.092431e+001 4.340594e+001 4.762434e+001 3.537113e+001 3.531472e+001 2.128070e+001 2.519317e+001 2.925699e+001 3.089032e+001 2.726270e+001 2.580486e+001 3.439028e-001 1.350320e+000 2.973054e+000 5.055491e+000 3.353542e+000 2.001219e+000 2.262292e+000 4.530560e+000 2.920604e+000 1.814140e+000 2.954496e+000 2.137287e+000 7.306747e-001
<GCONST> 9.462828e+001
<TRANSP> 5
 0.000000e+000 1.000000e+000 0.000000e+000 0.000000e+000 0.000000e+000
 0.000000e+000 6.788474e-001 3.211526e-001 0.000000e+000 0.000000e+000
 0.000000e+000 0.000000e+000 7.996429e-001 2.003571e-001 0.000000e+000
 0.000000e+000 0.000000e+000 0.000000e+000 7.404018e-001 2.595982e-001
 0.000000e+000 0.000000e+000 0.000000e+000 0.000000e+000 0.000000e+000
<ENDHMM>
~h "n"
<BEGINHMM>
<NUMSTATES> 5
<STATE> 2
<MEAN> 25
 5.610603e+000 4.021392e-001 4.234986e+000 3.153838e+000 -1.266831e+000 -7.044224e-001 -5.010940e+000 -5.763101e+000 -3.066425e-001 3.704528e+000 -1.409257e-001 -1.651183e-001 2.855153e-001 1.180398e+000 6.434582e-001 1.736742e+000 8.194926e-002 -1.209617e+000 -5.612044e-001 -2.267496e+000 2.396249e-001 1.469696e+000 -6.151387e-001 -2.289697e-002 -9.383451e-001
<VARIANCE> 25
 7.998425e+000 2.857150e+001 3.686497e+001 2.718979e+001 4.460866e+001 3.843330e+001 5.083514e+001 7.180846e+001 3.826366e+001 4.029145e+001 2.478664e+001 2.410949e+001 4.896667e-001 1.594411e+000 2.258505e+000 2.380434e+000 2.505593e+000 2.265550e+000 2.431009e+000 3.946518e+000 2.176908e+000 2.293178e+000 2.589896e+000 1.906721e+000 8.350821e-001
<GCONST> 9.612824e+001
<STATE> 3
<MEAN> 25
 5.506353e+000 2.540525e+000 6.951492e+000 5.668847e+000 -2.204519e+000 -3.330877e+000 -5.934299e+000 -7.570379e+000 -5.733556e-001 7.319072e+000 -3.232780e+000 -3.659642e-001 -1.371531e-002 1.940071e-001 -1.776752e-001 2.526510e-001 -2.601312e-003 1.647233e-002 5.328852e-002 -4.871753e-002 1.027918e-001 -5.847516e-002 -2.855056e-001 -1.613171e-002 -3.648409e-001
<VARIANCE> 25
 6.167603e+000 1.768698e+001 2.399715e+001 1.820951e+001 3.074723e+001 2.981161e+001 4.337426e+001 2.747086e+001 4.677158e+001 3.899658e+001 2.936290e+001 2.148344e+001 1.892896e-001 7.485108e-001 1.003268e+000 6.360368e-001 7.888935e-001 9.670280e-001 1.357817e+000 1.162060e+000 1.107136e+000 1.696471e+000 1.081706e+000 8.386924e-001 7.002638e-001
<GCONST> 8.253709e+001
<STATE> 4
<MEAN> 25
 2.172565e+000 4.516379e+000 1.332434e+000 8.273916e+000 -2.125862e+000 -6.317938e-001 -3.437572e+000 -6.666204e+000 1.512888e+000 1.055510e+000 -1.958571e+000 -6.104506e-001 -4.537481e-001 -5.166907e-001 -7.537130e-001 -6.692176e-001 4.367564e-002 6.262243e-001 2.359716e-001 1.557396e+000 1.312487e-001 -1.643064e+000 4.359033e-001 -2.067636e-001 2.626250e-001
<VARIANCE> 25
 2.525561e+001 3.333699e+001 3.270347e+001 3.108936e+001 3.810132e+001 4.079148e+001 4.735917e+001 4.258086e+001 3.532977e+001 5.670330e+001 3.510930e+001 2.879655e+001 7.334666e-001 3.390115e+000 1.747134e+000 3.322180e+000 2.285749e+000 3.691329e+000 3.124834e+000 6.385916e+000 2.928152e+000 5.184615e+000 3.056242e+000 3.097111e+000 2.060442e+000
<GCONST> 1.025724e+002
<TRANSP> 5
 0.000000e+000 1.000000e+000 0.000000e+000 0.000000e+000 0.000000e+000
 0.000000e+000 5.924765e-001 4.075235e-001 0.000000e+000 0.000000e+000
 0.000000e+000 0.000000e+000 7.973706e-001 2.026293e-001 0.000000e+000
 0.000000e+000 0.000000e+000 0.000000e+000 6.916347e-001 3.083654e-001
 0.000000e+000 0.000000e+000 0.000000e+000 0.000000e+000 0.000000e+000
<ENDHMM>
~h "o"
<BEGINHMM>
<NUMSTATES> 5
<STATE> 2
<MEAN> 25
 9.489524e-001 1.765114e+000 -9.533528e+000 -2.495911e+000 7.394941e-001 8.119260e+000 2.493216e+000 -3.070813e-001 -1.624815e+000 -1.319709e+000 1.536442e+000 4.658838e+000 7.041234e-001 1.982731e-001 5.229437e-001 -1.940630e+000 -1.956191e-001 6.753480e-001 -7.509901e-002 -1.896733e-002 -1.562664e-001 3.008103e-001 -2.267590e-001 4.775620e-001 9.682087e-001
<VARIANCE> 25
 2.842131e+001 1.644952e+001 2.884203e+001 2.083905e+002 1.887289e+001 4.938596e+001 1.824028e+001 1.569030e+001 1.427901e+001 2.835419e+001 2.152519e+001 1.993699e+001 1.751532e+000 1.370218e+000 1.901357e+000 7.330344e+000 1.089527e+000 2.936218e+000 1.593466e+000 1.481829e+000 1.529695e+000 1.814131e+000 1.870220e+000 2.243940e+000 2.370506e+000
<GCONST> 9.420522e+001
<STATE> 3
<MEAN> 25
 8.701463e+000 1.159540e+001 -3.326629e+000 -6.977114e+000 -3.377291e-001 9.715925e+000 1.196335e+000 -3.342452e+000 -5.547633e+000 -2.669059e+000 -1.817578e+000 5.450306e+000 1.884666e-001 9.087811e-001 3.660516e-002 1.881988e+000 1.022934e-001 -3.468571e-001 8.591504e-002 -4.326009e-001 -2.047756e-002 -4.416795e-001 -1.209587e-001 -3.227711e-001 -5.711448e-001
<VARIANCE> 25
 6.916316e+000 3.426000e+001 1.549627e+001 1.545251e+002 1.533724e+001 2.749729e+001 1.458159e+001 1.345033e+001 1.225384e+001 2.056285e+001 2.371738e+001 2.023939e+001 4.656599e-001 1.556923e+000 1.960212e+000 7.262344e+000 1.601429e+000 1.408151e+000 2.064256e+000 1.161062e+000 7.084597e-001 2.423112e+000 2.705375e+000 1.675287e+000 1.918000e+000
<GCONST> 8.894639e+001
<STATE> 4
<MEAN> 25
 8.042614e+000 3.550742e+000 -4.121040e+000 -6.612609e+000 4.901273e-001 8.370998e+000 8.563929e-001 -7.030209e+000 -1.369488e+000 1.650557e+000 2.966841e+000 2.736608e+000 -4.105735e-001 -2.753010e+000 3.068136e-001 -1.306687e+000 1.318438e+000 -1.492828e+000 -2.001986e+000 -4.232274e-001 1.212775e+000 2.377280e+000 1.833771e+000 -6.246996e-001 2.517124e+000
<VARIANCE> 25
 1.669365e+001 9.931164e+001 2.253412e+001 2.277966e+002 4.438126e+001 4.872460e+001 5.103124e+001 2.004730e+001 2.810043e+001 7.653368e+001 4.682644e+001 1.772122e+001 1.890506e+000 6.905934e+000 4.631042e+000 2.400512e+001 5.316144e+000 4.391889e+000 8.433500e+000 3.256547e+000 1.522905e+000 8.350004e+000 7.037333e+000 2.804514e+000 4.871628e+000
<GCONST> 1.117604e+002
<TRANSP> 5
 0.000000e+000 1.000000e+000 0.000000e+000 0.000000e+000 0.000000e+000
 0.000000e+000 9.132621e-001 8.673794e-002 0.000000e+000 0.000000e+000
 0.000000e+000 0.000000e+000 8.876771e-001 1.123229e-001 0.000000e+000
 0.000000e+000 0.000000e+000 0.000000e+000 7.035043e-001 2.964957e-001
 0.000000e+000 0.000000e+000 0.000000e+000 0.000000e+000 0.000000e+000
<ENDHMM>
~h "p"
<BEGINHMM>
<NUMSTATES> 5
<STATE> 2
<MEAN> 25
 3.895007e+000 8.673344e-001 -7.455590e+000 -3.423821e+000 1.985483e+000 9.545919e+000 3.413327e+000 -3.231049e+000 1.257208e+000 -2.233714e+000 -6.401144e-001 -1.562803e+000 -3.078524e-001 7.628689e-001 -8.310637e-001 1.307832e+000 3.996028e-002 8.678032e-002 8.303079e-002 -1.390856e-001 3.308962e-001 -4.000368e-001 3.679381e-001 -3.482144e-001 -1.165967e+000
<VARIANCE> 25
 1.309257e+001 5.327432e+001 3.309093e+001 1.269568e+002 2.996357e+001 6.207512e+001 3.224029e+001 3.472100e+001 3.020222e+001 2.504928e+001 2.592512e+001 1.996556e+001 7.383378e-001 2.672450e+000 1.876871e+000 6.798162e+000 3.445166e+000 1.901312e+000 2.123040e+000 3.495718e+000 2.443300e+000 2.332524e+000 2.102191e+000 2.434071e+000 2.158107e+000
<GCONST> 9.951628e+001
<STATE> 3
<MEAN> 25
 -5.487954e+000 4.301394e+000 -9.116887e+000 1.033684e+001 2.042237e+000 7.526332e-001 5.517594e+000 -1.945451e+000 4.446993e+000 -1.201921e+000 3.310220e+000 -1.212498e+000 -4.691320e-001 1.576843e-003 -2.079578e-002 2.699334e-001 -2.381954e-003 -1.208701e-001 9.728199e-002 8.480985e-002 -9.659474e-002 -1.013410e-001 2.583471e-001 3.215843e-001 -3.478239e-001
<VARIANCE> 25
 3.559417e+001 4.274002e+001 4.233868e+001 5.569852e+001 3.382267e+001 6.331858e+001 3.066719e+001 4.897278e+001 3.474548e+001 4.672301e+001 2.626921e+001 2.214818e+001 7.286048e-001 1.021063e+000 1.427216e+000 1.868190e+000 1.891523e+000 2.706347e+000 2.303450e+000 3.452844e+000 2.541594e+000 3.211562e+000 1.715712e+000 2.046243e+000 6.401813e-001
<GCONST> 9.708299e+001
<STATE> 4
<MEAN> 25
 -6.842462e-001 2.593174e+000 -6.240769e+000 5.449894e+000 -1.347742e+000 1.387577e+000 3.187701e+000 -1.437306e+000 1.560662e+000 -2.624321e+000 4.407684e+000 4.662576e-001 2.351161e+000 -1.880985e+000 1.711596e+000 -3.513227e+000 -1.554057e-001 8.552914e-001 -8.307108e-001 -2.745861e-001 -5.920797e-001 7.585739e-001 -6.397859e-002 -3.722354e-001 4.265605e+000
<VARIANCE> 25
 5.227660e+001 4.506401e+001 5.607327e+001 1.409761e+002 4.814665e+001 8.057645e+001 3.853309e+001 4.263923e+001 3.697414e+001 3.913272e+001 2.988206e+001 2.120652e+001 4.099092e+000 4.914746e+000 8.961691e+000 1.723572e+001 7.044675e+000 1.249039e+001 4.501335e+000 6.092161e+000 5.913198e+000 5.154064e+000 3.490856e+000 2.450984e+000 7.821478e+000
<GCONST> 1.155353e+002
<TRANSP> 5
 0.000000e+000 1.000000e+000 0.000000e+000 0.000000e+000 0.000000e+000
 0.000000e+000 6.460434e-001 3.539566e-001 0.000000e+000 0.000000e+000
 0.000000e+000 0.000000e+000 8.908755e-001 1.091245e-001 0.000000e+000
 0.000000e+000 0.000000e+000 0.000000e+000 7.229714e-001 2.770285e-001
 0.000000e+000 0.000000e+000 0.000000e+000 0.000000e+000 0.000000e+000
<ENDHMM>
~h "r"
<BEGINHMM>
<NUMSTATES> 5
<STATE> 2
<MEAN> 25
 -9.971304e-001 -3.120901e+000 -7.526296e+000 4.270259e-001 4.561280e+000 2.653877e+000 -5.371367e-001 3.421541e-001 8.670363e+000 -3.029301e+000 -2.325756e+000 1.317387e+000 9.017099e-001 -3.971585e-001 5.242882e-001 2.483651e-001 -9.456160e-001 1.512359e+000 -1.262179e+000 -2.481954e-001 6.098585e-001 -2.564506e-001 8.089958e-001 -6.851102e-001 4.353950e-001
<VARIANCE> 25
 2.598747e+001 3.829542e+001 8.203862e+001 6.244576e+001 7.156097e+001 3.780455e+001 3.610427e+001 3.563251e+001 3.602369e+001 3.278811e+001 4.426829e+001 6.371755e+001 2.468031e+000 3.166855e+000 4.212372e+000 5.329840e+000 4.143811e+000 2.158452e+000 3.505520e+000 2.764717e+000 3.069134e+000 4.640203e+000 3.370761e+000 5.357489e+000 4.125996e+000
<GCONST> 1.080699e+002
<STATE> 3
<MEAN> 25
 6.322024e+000 -7.424191e+000 -7.465252e-001 4.768967e-002 -5.033110e+000 6.963484e+000 -1.009538e+001 -2.797612e-002 1.072151e+001 -3.440026e+000 4.634756e+000 -2.039513e+000 7.009290e-001 -1.188885e+000 9.972391e-001 -2.093934e-001 -9.410085e-001 6.954569e-001 -1.444909e+000 1.091583e+000 -7.749655e-001 2.977467e-001 1.002956e+000 -3.364210e-001 3.596919e-001
<VARIANCE> 25
 1.141767e+001 1.654618e+001 4.591550e+001 3.004765e+001 2.708677e+001 2.658273e+001 2.085879e+001 4.386471e+001 6.702831e+001 1.977366e+001 1.927690e+001 3.971289e+001 9.689273e-001 2.354263e+000 1.487756e+000 5.401870e+000 1.897249e+000 1.483687e+000 2.406874e+000 6.391480e+000 1.768829e+000 2.466181e+000 4.738783e+000 2.458352e+000 2.073480e+000
<GCONST> 9.698047e+001
<STATE> 4
<MEAN> 25
 6.639307e+000 -1.280425e+001 2.756010e+000 -6.407792e+000 -2.177495e+000 8.323485e+000 -1.085504e+001 9.698344e+000 4.340386e+000 -7.232293e-001 2.751245e-002 -5.342091e+000 -3.960257e-001 -1.246795e-001 5.005921e-001 -9.862062e-001 9.299303e-001 -5.682545e-001 8.694879e-001 7.926172e-001 -1.175510e+000 4.387558e-001 -1.366408e+000 2.048395e-001 4.141960e-001
<VARIANCE> 25
 9.367531e+000 2.715243e+001 3.903490e+001 2.123838e+001 3.831469e+001 4.823868e+001 2.914286e+001 4.521260e+001 3.541453e+001 2.362328e+001 3.530826e+001 2.560368e+001 5.779436e-001 1.450630e+000 1.465125e+000 1.454651e+000 2.297191e+000 2.023557e+000 2.862959e+000 4.044043e+000 1.848270e+000 1.885277e+000 2.783243e+000 1.818863e+000 5.841937e-001
<GCONST> 9.334640e+001
<TRANSP> 5
 0.000000e+000 1.000000e+000 0.000000e+000 0.000000e+000 0.000000e+000
 0.000000e+000 6.166109e-001 3.833891e-001 0.000000e+000 0.000000e+000
 0.000000e+000 0.000000e+000 7.058766e-001 2.941234e-001 0.000000e+000
 0.000000e+000 0.000000e+000 0.000000e+000 7.189229e-001 2.810771e-001
 0.000000e+000 0.000000e+000 0.000000e+000 0.000000e+000 0.000000e+000
<ENDHMM>
~h "s"
<BEGINHMM>
<NUMSTATES> 5
<STATE> 2
<MEAN> 25
 -7.237199e+000 7.432863e+000 -6.789051e+000 8.652433e+000 2.982189e+000 -6.163091e+000 9.254213e+000 5.394558e-001 3.804773e+000 -3.479743e+000 3.124820e+000 4.904835e-001 -3.993718e+000 2.306115e+000 -2.330014e+000 2.140716e+000 -1.307511e-001 -9.750925e-001 2.201941e+000 -1.170156e-001 8.020125e-001 -1.553673e+000 1.814693e+000 -2.666994e-001 5.898706e-001
<VARIANCE> 25
 5.301387e+001 4.442628e+001 5.628326e+001 6.017623e+001 3.866920e+001 2.780608e+001 6.615287e+001 5.565414e+001 5.071362e+001 5.060318e+001 4.343891e+001 2.354620e+001 2.592363e+000 5.847156e+000 3.717953e+000 6.160959e+000 3.568588e+000 3.625240e+000 3.959573e+000 4.676712e+000 4.053156e+000 3.785391e+000 3.098594e+000 2.421169e+000 2.911691e+000
<GCONST> 1.089543e+002
<STATE> 3
<MEAN> 25
 -2.319520e+001 1.240289e+001 -1.470087e+001 1.184058e+001 3.147919e+000 -6.715349e+000 1.337885e+001 1.143134e+000 3.901722e+000 -5.246402e+000 7.075809e+000 2.451898e+000 -5.623677e-001 -2.301117e-001 -8.159186e-002 -8.375966e-002 -7.041290e-002 9.615017e-003 -9.356249e-002 1.383409e-001 -2.152471e-002 -2.189273e-002 4.654247e-002 2.592166e-001 2.244073e-001
<VARIANCE> 25
 2.144457e+001 2.363044e+001 3.280730e+001 3.676013e+001 3.947066e+001 2.890921e+001 3.665463e+001 5.506241e+001 2.983643e+001 2.533460e+001 2.597029e+001 2.080855e+001 1.762277e+000 1.807230e+000 1.490158e+000 1.321619e+000 1.508083e+000 1.555882e+000 1.712161e+000 1.750775e+000 1.827174e+000 1.801052e+000 1.713897e+000 1.376705e+000 4.841695e-001
<GCONST> 9.195107e+001
<STATE> 4
<MEAN> 25
 -1.304932e+001 5.532046e+000 -8.595221e+000 6.974514e+000 1.703925e+000 -6.226389e+000 6.870255e+000 1.319767e+000 5.109118e+000 -5.191060e+000 3.369847e+000 -3.403233e-001 5.343163e+000 -1.951636e+000 2.793331e+000 -2.532356e+000 -3.942349e-001 1.168185e+000 -3.231808e+000 -5.925270e-001 -1.315186e-001 8.194414e-001 -1.097898e+000 -2.034377e+000 1.418983e+000
<VARIANCE> 25
 9.498179e+001 2.187480e+001 4.692027e+001 5.461586e+001 3.110913e+001 3.137397e+001 8.815129e+001 4.064836e+001 3.527118e+001 2.695160e+001 3.407222e+001 3.289476e+001 2.880026e+000 2.366241e+000 5.226297e+000 6.433296e+000 3.803419e+000 3.205346e+000 3.888250e+000 4.791230e+000 3.302757e+000 2.782880e+000 3.421782e+000 2.831117e+000 3.402474e+000
<GCONST> 1.069545e+002
<TRANSP> 5
 0.000000e+000 1.000000e+000 0.000000e+000 0.000000e+000 0.000000e+000
 0.000000e+000 7.452036e-001 2.547964e-001 0.000000e+000 0.000000e+000
 0.000000e+000 0.000000e+000 9.046068e-001 9.539326e-002 0.000000e+000
 0.000000e+000 0.000000e+000 0.000000e+000 7.158742e-001 2.841258e-001
 0.000000e+000 0.000000e+000 0.000000e+000 0.000000e+000 0.000000e+000
<ENDHMM>
~h "t"
<BEGINHMM>
<NUMSTATES> 5
<STATE> 2
<MEAN> 25
 -4.369259e-001 -3.050013e+000 -5.650063e+000 4.844172e+000 -3.812018e+000 9.201751e-002 -2.051188e+000 5.639131e+000 2.702913e+000 -5.480728e+000 2.383193e+000 -5.111828e+000 6.060624e-002 -8.097473e-001 1.281764e+000 -1.165925e+000 3.354898e-002 -7.505762e-001 -6.889721e-001 1.070038e+000 1.862680e-002 3.510777e-001 -1.783863e-001 8.378293e-002 1.565755e+000
<VARIANCE> 25
 2.401696e+001 3.856504e+001 6.161638e+001 6.196083e+001 3.018972e+001 6.383449e+001 4.731040e+001 5.867272e+001 3.713553e+001 5.170350e+001 4.085323e+001 2.033807e+001 3.020037e+000 5.075013e+000 6.714308e+000 7.531841e+000 3.986846e+000 5.429829e+000 4.607951e+000 5.631922e+000 3.548784e+000 6.845935e+000 5.667942e+000 2.182094e+000 1.218690e+001
<GCONST> 1.119904e+002
<STATE> 3
<MEAN> 25
 2.541374e+000 -6.740997e+000 4.467910e+000 -6.177028e+000 -8.652849e-001 -8.330898e+000 -2.001535e+000 1.173018e+001 3.461931e+000 3.589866e+000 -4.805829e+000 -5.209280e-001 -9.238836e-002 7.062858e-001 -6.201688e-001 5.484129e-001 5.374834e-002 -1.167756e-001 4.942351e-001 -1.121390e-001 2.808966e-001 -3.915527e-002 -1.211666e-001 9.501038e-002 -1.113717e+000
<VARIANCE> 25
 4.378778e+000 3.001453e+001 3.025021e+001 2.582674e+001 1.245613e+001 2.370656e+001 1.625163e+001 1.947732e+001 2.314405e+001 1.387257e+001 1.626899e+001 1.443977e+001 3.255635e-001 1.146597e+000 1.003012e+000 1.146999e+000 9.006447e-001 1.173442e+000 1.229479e+000 1.014482e+000 1.108741e+000 1.849927e+000 1.489589e+000 1.147574e+000 1.140133e+000
<GCONST> 8.097929e+001
<STATE> 4
<MEAN> 25
 -2.760459e+000 1.032182e+000 -8.313589e+000 2.985406e+000 -1.621817e+000 -4.076891e+000 9.777470e-001 6.354188e+000 7.104323e+000 -2.790749e+000 -1.162259e-001 -9.096923e-001 -5.819834e-001 5.938305e-002 -5.863762e-001 -6.192487e-003 5.874567e-001 1.214487e+000 4.249280e-001 -6.690140e-001 -3.987933e-001 -9.841037e-001 2.860713e-002 6.228449e-001 -4.619740e-001
<VARIANCE> 25
 2.055724e+001 2.619385e+001 3.811246e+001 2.110843e+001 3.508866e+001 6.309816e+001 4.255371e+001 2.943629e+001 2.477048e+001 2.595223e+001 3.159693e+001 2.490993e+001 8.787981e-001 2.306886e+000 3.311243e+000 1.527460e+000 3.395724e+000 4.195569e+000 2.680263e+000 3.320311e+000 2.444869e+000 3.956694e+000 1.964429e+000 2.387453e+000 1.430208e+000
<GCONST> 9.823848e+001
<TRANSP> 5
 0.000000e+000 1.000000e+000 0.000000e+000 0.000000e+000 0.000000e+000
 0.000000e+000 8.740482e-001 1.259519e-001 0.000000e+000 0.000000e+000
 0.000000e+000 0.000000e+000 9.004394e-001 9.956052e-002 0.000000e+000
 0.000000e+000 0.000000e+000 0.000000e+000 6.522235e-001 3.477765e-001
 0.000000e+000 0.000000e+000 0.000000e+000 0.000000e+000 0.000000e+000
<ENDHMM>
~h "w"
<BEGINHMM>
<NUMSTATES> 5
<STATE> 2
<MEAN> 25
 6.260019e+000 6.564580e-001 -1.261809e+000 -1.110081e+000 1.856687e+000 4.424690e+000 -2.560276e+000 -4.381806e+000 -1.325559e+000 3.908472e+000 -4.804101e-001 -1.237863e+000 1.075708e+000 -9.418532e-001 1.127054e+000 -1.870246e+000 -4.681145e-001 6.508148e-001 -1.263567e+000 -1.179892e-001 -1.229635e+000 9.620768e-001 1.283816e+000 4.759490e-002 1.593529e+000
<VARIANCE> 25
 1.401229e+001 5.027391e+001 3.601929e+001 1.222030e+002 2.663311e+001 3.893990e+001 6.382211e+001 4.147333e+001 4.208984e+001 6.003001e+001 3.215374e+001 2.069713e+001 1.668256e+000 5.665482e+000 4.172550e+000 7.728848e+000 1.723256e+000 2.526699e+000 3.208711e+000 5.638475e+000 3.226892e+000 3.081360e+000 3.403541e+000 1.887124e+000 6.276410e+000
<GCONST> 1.061344e+002
<STATE> 3
<MEAN> 25
 7.747211e+000 -8.293090e-001 -1.738998e-001 -9.776319e+000 4.497463e-001 6.870854e+000 -9.491012e-001 -3.437841e+000 -3.911019e+000 3.239654e+000 1.628375e+000 2.685716e+000 4.956763e-003 -4.059663e-001 4.080504e-001 -8.285131e-001 -5.656375e-002 -1.896501e-001 -2.791602e-001 3.364330e-001 -4.211122e-002 6.165680e-001 1.411945e-002 3.448388e-001 3.995381e-001
<VARIANCE> 25
 9.370238e+000 3.199010e+001 3.759398e+001 9.794348e+001 2.018610e+001 2.558162e+001 4.613239e+001 3.272837e+001 2.966999e+001 4.795044e+001 1.957637e+001 3.140969e+001 3.430473e-001 1.825627e+000 1.633020e+000 3.622401e+000 1.985643e+000 1.656808e+000 1.514993e+000 2.046006e+000 2.636769e+000 3.377094e+000 1.915424e+000 2.442430e+000 1.549062e+000
<GCONST> 9.490839e+001
<STATE> 4
<MEAN> 25
 6.584654e+000 -3.782975e+000 3.175779e+000 -9.602655e+000 2.241162e+000 9.470045e-001 -7.454810e+000 -8.815114e-001 -1.244130e+000 1.261466e+001 -8.464732e-001 -4.415567e-001 -2.590392e-001 -2.226496e-001 2.128659e-001 5.378894e-001 -6.097999e-002 -9.030397e-001 1.838600e-001 7.333180e-001 4.479809e-001 -2.308517e-001 -5.936891e-001 -1.719725e-001 -2.755430e-002
<VARIANCE> 25
 5.173989e+000 2.240244e+001 3.157460e+001 5.622109e+001 1.390147e+001 3.765670e+001 3.822292e+001 2.707505e+001 4.113866e+001 4.291542e+001 2.934192e+001 1.432342e+001 2.952735e-001 9.720172e-001 1.530566e+000 1.676205e+000 1.546871e+000 1.783162e+000 1.562425e+000 2.036692e+000 3.371948e+000 1.946909e+000 1.897027e+000 2.195376e+000 9.536502e-001
<GCONST> 9.002807e+001
<TRANSP> 5
 0.000000e+000 1.000000e+000 0.000000e+000 0.000000e+000 0.000000e+000
 0.000000e+000 3.965520e-001 6.034479e-001 0.000000e+000 0.000000e+000
 0.000000e+000 0.000000e+000 7.104690e-001 2.895311e-001 0.000000e+000
 0.000000e+000 0.000000e+000 0.000000e+000 7.162429e-001 2.837571e-001
 0.000000e+000 0.000000e+000 0.000000e+000 0.000000e+000 0.000000e+000
<ENDHMM>
~h "y"
<BEGINHMM>
<NUMSTATES> 5
<STATE> 2
<MEAN> 25
 9.942858e-001 -5.094958e+000 1.236004e+001 -4.993536e+000 -7.609807e+000 -3.814686e+000 -2.495030e+000 6.903697e+000 -5.612520e+000 1.368034e+000 3.888571e+000 2.162104e+000 -2.318450e-001 -5.923452e-001 5.975688e-001 -7.578454e-001 -1.125767e+000 -7.097586e-001 1.109443e+000 1.122501e+000 -4.169333e-001 6.085964e-001 1.001998e-001 6.632600e-001 7.456034e-001
<VARIANCE> 25
 1.332995e+001 3.064559e+001 4.853334e+001 1.347524e+001 2.633366e+001 1.964551e+001 3.909030e+001 5.916086e+001 4.513715e+001 4.802591e+001 4.407602e+001 2.375770e+001 6.348363e-001 2.090209e+000 4.087393e+000 2.051576e+000 2.182364e+000 1.340532e+000 3.055434e+000 3.864385e+000 4.787545e+000 2.226141e+000 2.688462e+000 1.611565e+000 1.263876e+000
<GCONST> 9.709087e+001
<STATE> 3
<MEAN> 25
 7.055153e-001 -7.112666e+000 1.459680e+001 -7.984019e+000 -9.555325e+000 -6.561718e+000 2.371031e+000 9.742713e+000 -8.518215e+000 5.475601e+000 2.073768e+000 3.382230e+000 7.748895e-002 -2.042979e-001 -1.702365e-001 -2.039630e-001 4.700500e-001 -9.983983e-002 2.401185e-001 3.881588e-001 2.797920e-001 2.933491e-003 -7.720783e-001 2.556871e-001 -1.077849e-002
<VARIANCE> 25
 6.663765e+000 1.033158e+001 1.805575e+001 1.024235e+001 1.688222e+001 1.337059e+001 2.463161e+001 1.764778e+001 2.194765e+001 2.064834e+001 1.547578e+001 1.210777e+001 2.394737e-001 5.590423e-001 1.217368e+000 4.899503e-001 1.080350e+000 4.616565e-001 1.003937e+000 8.867700e-001 2.034353e+000 1.212973e+000 1.630018e+000 6.736757e-001 1.204709e-001
<GCONST> 7.378319e+001
<STATE> 4
<MEAN> 25
 2.450679e+000 -7.661318e+000 9.070062e+000 -7.703119e+000 -1.961516e+000 -7.188520e+000 2.230258e+000 9.551869e+000 2.386578e-001 3.141607e+000 -6.571622e+000 4.388940e+000 1.652954e-001 3.484404e-001 -1.141475e+000 4.679875e-001 1.017653e+000 1.978202e-001 -1.762939e-002 -5.447903e-001 1.185673e+000 -5.155594e-001 -9.672035e-001 5.175627e-002 -7.676117e-001
<VARIANCE> 25
 6.342059e+000 1.361508e+001 2.195786e+001 1.480383e+001 2.223765e+001 1.546317e+001 2.761590e+001 1.687698e+001 3.856172e+001 2.671486e+001 2.312885e+001 1.049115e+001 4.007080e-001 9.866863e-001 1.109037e+000 7.043822e-001 1.626305e+000 8.328269e-001 1.333631e+000 9.174282e-001 1.370341e+000 1.132224e+000 1.981449e+000 7.672179e-001 7.249077e-001
<GCONST> 8.046961e+001
<TRANSP> 5
 0.000000e+000 1.000000e+000 0.000000e+000 0.000000e+000 0.000000e+000
 0.000000e+000 6.209369e-001 3.790631e-001 0.000000e+000 0.000000e+000
 0.000000e+000 0.000000e+000 8.176934e-001 1.823065e-001 0.000000e+000
 0.000000e+000 0.000000e+000 0.000000e+000 7.911473e-001 2.088527e-001
 0.000000e+000 0.000000e+000 0.000000e+000 0.000000e+000 0.000000e+000
<ENDHMM>
~h "aa"
<BEGINHMM>
<NUMSTATES> 5
<STATE> 2
<MEAN> 25
 2.539056e+000 -9.142220e+000 -5.306377e+000 -1.180149e+001 1.004887e+001 3.898975e+000 5.509279e-001 4.001462e+000 4.009932e+000 -1.684287e+000 -6.602661e+000 -2.438437e+000 3.384349e-002 -6.773131e-001 -5.270101e-001 -4.668420e-001 1.327491e+000 6.507246e-001 9.750631e-001 -7.814754e-001 -3.158216e-001 -2.340684e-001 -4.700730e-001 2.912744e-001 3.696754e-001
<VARIANCE> 25
 7.843583e+000 9.652503e+000 2.443082e+001 2.123867e+001 2.101528e+001 3.826918e+001 3.097353e+001 3.372034e+001 4.089183e+001 2.470931e+001 3.261991e+001 2.524484e+001 3.148478e-001 7.689182e-001 1.232985e+000 1.169577e+000 1.617008e+000 1.234776e+000 2.199232e+000 2.270104e+000 1.539223e+000 1.688127e+000 1.631970e+000 1.328740e+000 5.956648e-001
<GCONST> 8.625618e+001
<STATE> 3
<MEAN> 25
 3.269534e+000 -9.531736e+000 -6.468014e+000 -1.289898e+001 1.270528e+001 8.508007e+000 2.326007e+000 -2.642989e+000 4.517737e+000 -2.866572e+000 -5.557923e+000 -6.064888e-001 6.312043e-003 6.989587e-003 -2.493992e-002 4.125386e-002 6.290629e-002 3.516427e-002 -1.789609e-002 -1.647658e-001 1.642567e-001 8.022223e-002 -9.526563e-002 -3.930629e-002 -1.164513e-001
<VARIANCE> 25
 6.601285e+000 1.072723e+001 1.883197e+001 2.087865e+001 2.331320e+001 3.023352e+001 2.523677e+001 2.806355e+001 2.991115e+001 2.708739e+001 2.373813e+001 2.809888e+001 1.404965e-001 3.599337e-001 4.197204e-001 5.528103e-001 5.990089e-001 8.798549e-001 7.785243e-001 7.354223e-001 4.617352e-001 6.486606e-001 6.312157e-001 7.179214e-001 2.521209e-001
<GCONST> 7.348370e+001
<STATE> 4
<MEAN> 25
 -4.609123e-001 -3.407376e+000 -1.284974e+001 -7.866331e-001 9.457352e+000 4.140854e+000 4.057847e+000 -1.797958e-001 5.068153e+000 -5.559604e+000 -5.461282e+000 -8.111541e-001 -1.863651e-001 4.251422e-001 -2.442491e-001 7.581495e-001 -4.615846e-001 -2.479457e-001 -1.300156e-001 2.341102e-001 8.987781e-003 -1.254076e-001 2.155730e-001 1.614312e-002 -8.378965e-001
<VARIANCE> 25
 2.150045e+001 2.337860e+001 3.307286e+001 6.108356e+001 3.726666e+001 4.254023e+001 2.993442e+001 2.915815e+001 2.730669e+001 3.685907e+001 3.301730e+001 3.045599e+001 5.472244e-001 1.382523e+000 1.234764e+000 1.738639e+000 1.862913e+000 1.826373e+000 2.291898e+000 2.301928e+000 1.929788e+000 1.842962e+000 1.894068e+000 1.940001e+000 1.018182e+000
<GCONST> 9.370644e+001
<TRANSP> 5
 0.000000e+000 1.000000e+000 0.000000e+000 0.000000e+000 0.000000e+000
 0.000000e+000 6.704737e-001 3.295263e-001 0.000000e+000 0.000000e+000
 0.000000e+000 0.000000e+000 9.135869e-001 8.641317e-002 0.000000e+000
 0.000000e+000 0.000000e+000 0.000000e+000 9.086397e-001 9.136023e-002
 0.000000e+000 0.000000e+000 0.000000e+000 0.000000e+000 0.000000e+000
<ENDHMM>
~h "ae"
<BEGINHMM>
<NUMSTATES> 5
<STATE> 2
<MEAN> 25
 5.999532e-001 -4.621943e+000 -2.033106e+000 4.776058e+000 -2.700083e+000 -3.415786e+000 1.872134e+000 2.490565e+000 4.675344e-001 -4.111965e+000 -2.058411e+000 1.430145e+000 5.152459e-001 -1.604329e+000 8.170696e-001 -2.270896e+000 -1.159275e+000 -5.373338e-001 9.921469e-001 1.921800e+000 1.245082e-002 -2.493621e-001 -7.884017e-001 1.806725e-001 2.024991e+000
<VARIANCE> 25
 1.460295e+001 5.916703e+001 6.680141e+001 5.844526e+001 4.196217e+001 4.920829e+001 5.919098e+001 7.726948e+001 4.190601e+001 2.956435e+001 3.804917e+001 6.642918e+001 3.106444e+000 5.909580e+000 3.842963e+000 5.182881e+000 3.907152e+000 3.414939e+000 6.638583e+000 7.072329e+000 2.664214e+000 6.151587e+000 1.982027e+000 4.238863e+000 6.716250e+000
<GCONST> 1.111675e+002
<STATE> 3
<MEAN> 25
 1.193879e+000 -9.156392e+000 3.695257e+000 -3.286978e+000 -4.180037e+000 -4.527368e+000 4.751018e+000 9.517128e+000 2.152121e+000 -5.005818e+000 -2.508486e+000 6.652796e-001 -2.260907e-001 -1.803966e+000 1.082721e+000 -2.021907e+000 -3.965859e-001 6.643005e-001 2.164693e+000 2.480156e+000 -9.319393e-001 -1.140279e+000 -8.099486e-001 1.150144e+000 1.793777e+000
<VARIANCE> 25
 6.634990e+000 2.711969e+001 2.497975e+001 2.566795e+001 4.652679e+001 4.969112e+001 6.594698e+001 3.300430e+001 3.076401e+001 1.930323e+001 4.127141e+001 2.765175e+001 5.824652e-001 3.508406e+000 3.512975e+000 2.585492e+000 3.148421e+000 3.622769e+000 1.988928e+000 5.922098e+000 2.877010e+000 2.137023e+000 1.586710e+000 2.316681e+000 3.990481e+000
<GCONST> 9.878403e+001
<STATE> 4
<MEAN> 25
 1.136292e+000 -9.135050e+000 4.669052e+000 -4.180843e+000 -4.696303e+000 -2.873556e+000 8.375450e+000 1.102157e+001 -2.178155e+000 -5.537676e+000 -2.631735e+000 1.851269e+000 6.345333e-002 2.456514e-001 -2.161591e-001 3.021152e-001 2.380444e-001 -2.589698e-002 -2.212391e-001 -1.883476e-001 -7.358637e-002 2.804962e-001 9.327587e-002 -1.670480e-001 -4.205087e-001
<VARIANCE> 25
 9.252307e+000 2.590941e+001 3.442503e+001 2.436889e+001 3.904933e+001 3.973738e+001 3.922604e+001 2.361382e+001 2.495117e+001 2.637383e+001 3.577570e+001 2.197804e+001 3.997533e-001 9.560297e-001 1.392933e+000 1.575818e+000 1.167045e+000 1.278765e+000 2.533641e+000 1.198241e+000 1.690855e+000 1.193112e+000 1.462052e+000 1.355074e+000 1.223500e+000
<GCONST> 8.841580e+001
<TRANSP> 5
 0.000000e+000 1.000000e+000 0.000000e+000 0.000000e+000 0.000000e+000
 0.000000e+000 4.584858e-001 5.415142e-001 0.000000e+000 0.000000e+000
 0.000000e+000 0.000000e+000 4.002498e-001 5.997502e-001 0.000000e+000
 0.000000e+000 0.000000e+000 0.000000e+000 9.133387e-001 8.666132e-002
 0.000000e+000 0.000000e+000 0.000000e+000 0.000000e+000 0.000000e+000
<ENDHMM>
~h "ah"
<BEGINHMM>
<NUMSTATES> 5
<STATE> 2
<MEAN> 25
 3.516290e+000 -8.187003e+000 2.232307e-001 -8.561660e+000 4.927986e+000 2.528746e+000 -2.003465e+000 2.927209e+000 2.981642e+000 3.515878e-001 -4.837486e+000 -1.027284e+000 3.443724e-002 -6.385881e-001 3.624944e-001 -6.871511e-001 5.912005e-001 -4.200411e-001 4.693771e-001 8.799461e-001 -1.490859e-001 1.386396e-001 -8.093268e-001 3.090372e-001 3.386448e-001
<VARIANCE> 25
 7.072540e+000 2.127929e+001 3.028642e+001 2.987379e+001 3.989419e+001 6.366588e+001 4.155804e+001 4.771601e+001 3.627346e+001 4.042253e+001 2.938772e+001 3.130868e+001 6.224619e-001 2.132333e+000 1.608471e+000 3.775902e+000 2.611162e+000 3.942194e+000 3.160253e+000 4.567235e+000 2.284925e+000 3.045670e+000 2.821552e+000 2.608343e+000 1.485933e+000
<GCONST> 9.873601e+001
<STATE> 3
<MEAN> 25
 3.026762e+000 -4.909482e+000 1.261993e+000 -6.254584e+000 4.987657e+000 -2.378945e+000 -1.106905e+000 4.894472e+000 2.438409e+000 1.929077e+000 -6.618535e+000 5.177357e-001 9.224366e-003 9.471749e-001 -4.275867e-001 9.394476e-001 -2.062708e-001 3.733145e-002 9.792744e-002 -1.853440e-001 -2.355798e-002 -2.316672e-001 3.389461e-001 -8.666311e-002 -1.237826e+000
<VARIANCE> 25
 5.866567e+000 2.472882e+001 3.133839e+001 3.093727e+001 3.387378e+001 5.279523e+001 2.947884e+001 3.523023e+001 3.318579e+001 3.179277e+001 2.396520e+001 2.695372e+001 3.429788e-001 1.329717e+000 1.164052e+000 1.624693e+000 1.466155e+000 1.875231e+000 1.863244e+000 1.731639e+000 1.625271e+000 1.973179e+000 1.533492e+000 1.325855e+000 1.274546e+000
<GCONST> 8.982008e+001
<STATE> 4
<MEAN> 25
 -8.855241e-001 2.365806e+000 -6.312380e+000 4.143413e+000 -7.648131e-002 -6.765764e-001 1.193591e+000 3.390098e+000 4.613290e+000 -2.762732e+000 -1.004282e+000 5.217621e-001 -3.958656e-001 4.119227e-001 -4.784006e-001 6.228413e-001 -2.601252e-001 1.492738e-001 1.771913e-001 -3.720030e-001 9.293603e-002 -1.851968e-001 4.605215e-001 1.386852e-001 -8.434587e-001
<VARIANCE> 25
 1.891072e+001 3.325307e+001 4.056426e+001 4.635542e+001 4.885373e+001 4.729760e+001 3.742369e+001 3.748169e+001 3.483451e+001 3.637159e+001 3.238560e+001 3.152488e+001 4.615619e-001 1.372848e+000 1.563288e+000 1.824757e+000 2.061066e+000 2.078935e+000 2.119212e+000 2.581737e+000 2.539908e+000 2.563099e+000 1.990111e+000 1.839662e+000 6.488475e-001
<GCONST> 9.547949e+001
<TRANSP> 5
 0.000000e+000 1.000000e+000 0.000000e+000 0.000000e+000 0.000000e+000
 0.000000e+000 5.030402e-001 4.969598e-001 0.000000e+000 0.000000e+000
 0.000000e+000 0.000000e+000 7.625850e-001 2.374150e-001 0.000000e+000
 0.000000e+000 0.000000e+000 0.000000e+000 8.192691e-001 1.807309e-001
 0.000000e+000 0.000000e+000 0.000000e+000 0.000000e+000 0.000000e+000
<ENDHMM>
~h "ao"
<BEGINHMM>
<NUMSTATES> 5
<STATE> 2
<MEAN> 25
 4.342240e+000 6.673934e-001 1.503904e+000 -4.475344e+000 -2.226567e+000 8.034281e+000 -4.821954e+000 -6.237817e+000 6.153292e+000 6.337488e-001 9.342836e-001 1.211251e+000 1.062440e+000 -8.488794e-001 1.500636e+000 -2.184047e+000 -3.974569e-001 5.096051e-001 -1.151657e+000 -9.785647e-001 -7.236850e-001 2.068022e+000 8.574060e-001 -3.915270e-002 1.220194e+000
<VARIANCE> 25
 3.513200e+001 3.731859e+001 4.019483e+001 7.581480e+001 3.070941e+001 4.625313e+001 9.155812e+001 3.380990e+001 1.135113e+002 6.114053e+001 8.915160e+001 3.422837e+001 2.909010e+000 3.545326e+000 2.725813e+000 1.024772e+001 2.885561e+000 4.058227e+000 3.089393e+000 5.415643e+000 4.823254e+000 2.784832e+000 6.839421e+000 3.093267e+000 4.257224e+000
<GCONST> 1.113516e+002
<STATE> 3
<MEAN> 25
 7.164601e+000 -7.949297e-001 3.429041e+000 -8.225920e+000 1.374737e-001 5.306022e+000 -6.340501e+000 -9.811668e+000 3.334599e+000 3.917267e+000 4.296796e+000 5.513285e-001 2.316323e-001 9.838602e-002 -1.024485e+000 -3.436113e-001 1.118339e+000 -6.638013e-001 3.597769e-001 -1.593163e-002 8.553706e-003 7.139073e-001 -2.106913e-001 1.055719e-001 1.415772e-001
<VARIANCE> 25
 1.149629e+001 2.375609e+001 5.369357e+001 3.513453e+001 3.910442e+001 4.378539e+001 5.363202e+001 7.209810e+001 8.753802e+001 2.588800e+001 7.448574e+001 3.122340e+001 3.538452e-001 2.857388e+000 2.397871e+000 5.984307e+000 6.442982e+000 2.658641e+000 3.045230e+000 4.239834e+000 3.259048e+000 1.508361e+000 2.430213e+000 1.087500e+000 1.624513e+000
<GCONST> 1.014058e+002
<STATE> 4
<MEAN> 25
 7.068314e+000 1.397672e+000 -1.539665e+000 -1.166407e+001 3.755585e+000 4.105720e+000 -5.378177e+000 -3.284250e+000 -1.164307e+000 9.092054e+000 2.546878e+000 4.236288e-001 6.886690e-003 4.553196e-001 -2.580757e-001 6.524674e-001 -7.011974e-002 -5.686160e-002 1.679309e-001 1.515480e-001 -1.624300e-001 -2.385519e-001 -1.017989e-001 1.963020e-002 -6.633965e-001
<VARIANCE> 25
 4.051669e+000 2.192870e+001 1.990576e+001 7.411559e+001 1.377464e+001 1.967247e+001 9.216618e+001 4.477259e+001 5.364057e+001 2.460230e+001 3.185894e+001 2.572453e+001 2.852994e-001 7.870891e-001 1.194586e+000 3.061872e+000 9.968625e-001 1.833076e+000 1.685206e+000 1.673126e+000 2.222489e+000 1.067138e+000 1.539316e+000 1.609704e+000 9.047821e-001
<GCONST> 8.866520e+001
<TRANSP> 5
 0.000000e+000 1.000000e+000 0.000000e+000 0.000000e+000 0.000000e+000
 0.000000e+000 5.588302e-001 4.411699e-001 0.000000e+000 0.000000e+000
 0.000000e+000 0.000000e+000 6.141135e-001 3.858865e-001 0.000000e+000
 0.000000e+000 0.000000e+000 0.000000e+000 9.125334e-001 8.746664e-002
 0.000000e+000 0.000000e+000 0.000000e+000 0.000000e+000 0.000000e+000
<ENDHMM>
~h "ch"
<BEGINHMM>
<NUMSTATES> 5
<STATE> 2
<MEAN> 25
 8.903391e+000 9.972091e+000 1.163746e-001 9.476795e+000 -6.876660e+000 -3.742216e-001 -1.448231e+000 -7.696301e+000 -2.035334e+000 -1.073348e+000 -4.152761e-001 -3.500439e+000 -7.534681e-001 1.291171e+000 -1.089889e+000 7.161682e-001 8.541352e-001 -7.359786e-001 1.883887e+000 6.252079e-001 1.146248e-001 -1.066014e+000 -4.628414e-001 -2.645676e-001 -1.410868e+000
<VARIANCE> 25
 2.308256e+001 9.360328e+000 3.282384e+001 8.350578e+000 2.732124e+001 2.463917e+001 2.604655e+001 1.896937e+001 1.537526e+001 1.972188e+001 2.176406e+001 1.917076e+001 6.076049e-001 3.304655e-001 4.622948e-001 1.027316e+000 3.448296e+000 1.412355e+000 1.932565e+000 2.051044e+000 1.436489e+000 2.555172e+000 1.872574e+000 1.543792e+000 3.674312e-001
<GCONST> 8.336973e+001
<STATE> 3
<MEAN> 25
 1.675173e+000 1.310275e+001 -5.045994e+000 1.104519e+001 1.303208e+000 -2.593545e+000 1.057371e+000 -9.408830e-001 1.458726e+000 -8.346779e+000 -2.335807e+000 -4.959232e+000 -3.594340e+000 -6.450160e-001 -4.471605e-001 -1.709940e+000 9.079250e-001 -1.166290e-001 -3.077771e-001 1.039948e+000 3.453787e-001 -9.715735e-001 1.895118e-001 1.280646e-001 6.518434e-001
<VARIANCE> 25
 2.975104e+001 7.123220e+000 3.345963e+001 8.282439e+000 1.643745e+001 2.669702e+001 5.839915e+001 3.737943e+001 4.476134e+001 2.379929e+001 2.199326e+001 2.251112e+001 2.209790e+000 2.447509e+000 4.465208e+000 3.519086e+000 5.776916e+000 2.383394e+000 3.671130e+000 4.653941e+000 2.993428e+000 1.632139e+000 2.245490e+000 5.418160e+000 4.197715e+000
<GCONST> 9.929854e+001
<STATE> 4
<MEAN> 25
 -1.604293e+001 4.622434e+000 -2.733632e+000 6.670530e+000 2.863026e-001 -3.572278e+000 4.367542e+000 1.963761e+000 2.029889e+000 -6.106626e+000 4.282779e+000 2.368061e-001 -6.335419e-001 -3.640771e-001 9.985403e-001 -4.039402e-001 -5.114020e-001 6.040358e-003 -1.708465e-001 -1.678040e-001 -4.858069e-001 2.379592e-001 1.982137e-001 -4.734950e-002 9.935186e-001
<VARIANCE> 25
 2.540070e+001 2.786041e+001 3.392574e+001 3.020407e+001 1.940269e+001 1.856026e+001 1.648916e+001 3.812651e+001 2.895479e+001 1.902771e+001 2.434247e+001 1.784342e+001 7.701313e+000 1.269433e+000 4.355869e+000 2.624804e+000 1.956340e+000 1.446944e+000 2.320403e+000 1.999135e+000 2.066229e+000 1.442884e+000 2.542449e+000 1.857566e+000 2.246497e+000
<GCONST> 9.490221e+001
<TRANSP> 5
 0.000000e+000 1.000000e+000 0.000000e+000 0.000000e+000 0.000000e+000
 0.000000e+000 7.464833e-001 2.535166e-001 0.000000e+000 0.000000e+000
 0.000000e+000 0.000000e+000 6.485908e-001 3.514093e-001 0.000000e+000
 0.000000e+000 0.000000e+000 0.000000e+000 9.043810e-001 9.561896e-002
 0.000000e+000 0.000000e+000 0.000000e+000 0.000000e+000 0.000000e+000
<ENDHMM>
~h "eh"
<BEGINHMM>
<NUMSTATES> 5
<STATE> 2
<MEAN> 25
 7.375805e-001 -3.724071e+000 1.482812e+001 -3.086559e+000 -1.207975e+001 -5.752917e+000 5.452735e-001 4.566089e+000 -9.241030e+000 4.702466e+000 5.894376e+000 1.832447e+000 -2.102527e-001 -5.200638e-001 1.743027e+000 -1.704685e+000 -1.198376e+000 3.112446e-001 3.723705e-002 5.236712e-001 -1.381149e+000 1.802368e+000 4.538234e-001 1.224992e-001 1.232974e+000
<VARIANCE> 25
 1.254765e+001 2.002749e+001 2.044309e+001 1.879512e+001 1.749364e+001 3.391018e+001 3.946646e+001 3.051064e+001 3.414960e+001 3.483909e+001 2.661649e+001 1.866297e+001 1.054574e+000 1.418544e+000 2.233340e+000 2.624040e+000 1.869250e+000 2.263678e+000 3.079788e+000 2.734699e+000 3.410973e+000 3.094881e+000 1.885725e+000 1.882077e+000 1.984563e+000
<GCONST> 9.424667e+001
<STATE> 3
<MEAN> 25
 -1.098480e+000 -1.486935e+000 1.839857e+001 -6.400208e+000 -1.299807e+001 -3.306554e+000 -1.790912e+000 1.665477e+000 -1.214498e+001 1.061267e+001 4.011592e+000 2.111604e+000 -8.732503e-002 1.156898e-001 9.314287e-002 2.726107e-003 1.129393e-001 -3.876815e-002 1.916172e-001 -2.461639e-001 -2.505097e-002 6.960783e-002 -4.156211e-002 -5.034390e-002 -2.705969e-001
<VARIANCE> 25
 9.344553e+000 1.768364e+001 1.181713e+001 1.520695e+001 1.389671e+001 2.515409e+001 2.625348e+001 2.279971e+001 2.112899e+001 2.075508e+001 1.650209e+001 2.353613e+001 2.633538e-001 4.544785e-001 6.552050e-001 5.571864e-001 5.605824e-001 6.055182e-001 9.834927e-001 7.796749e-001 8.863977e-001 6.624327e-001 6.215078e-001 4.989474e-001 3.986364e-001
<GCONST> 7.344286e+001
<STATE> 4
<MEAN> 25
 -2.260994e+000 3.840348e+000 1.016692e+001 1.745228e+000 -1.056501e+001 -3.489158e+000 3.840869e+000 5.029770e-001 -7.262232e+000 3.761754e+000 4.379169e+000 -7.943341e-001 -1.119993e-001 6.006818e-001 -1.164160e+000 9.729633e-001 3.172147e-001 2.323288e-001 1.282250e-001 -9.059440e-002 7.209907e-001 -9.708488e-001 -9.937419e-002 -1.689538e-001 -1.211828e+000
<VARIANCE> 25
 9.585288e+000 2.920910e+001 4.436361e+001 3.385938e+001 3.990894e+001 3.647606e+001 3.852512e+001 3.140160e+001 4.825010e+001 4.250747e+001 3.614067e+001 2.777617e+001 4.819494e-001 1.377119e+000 1.917086e+000 1.966812e+000 2.581655e+000 2.171168e+000 2.649402e+000 2.312101e+000 2.752661e+000 2.793522e+000 2.212109e+000 2.059993e+000 1.377985e+000
<GCONST> 9.614600e+001
<TRANSP> 5
 0.000000e+000 1.000000e+000 0.000000e+000 0.000000e+000 0.000000e+000
 0.000000e+000 6.530820e-001 3.469180e-001 0.000000e+000 0.000000e+000
 0.000000e+000 0.000000e+000 8.898665e-001 1.101335e-001 0.000000e+000
 0.000000e+000 0.000000e+000 0.000000e+000 8.847576e-001 1.152423e-001
 0.000000e+000 0.000000e+000 0.000000e+000 0.000000e+000 0.000000e+000
<ENDHMM>
~h "ih"
<BEGINHMM>
<NUMSTATES> 5
<STATE> 2
<MEAN> 25
 -2.881653e+000 3.888894e+000 1.236872e+001 3.100864e+000 -9.241900e+000 -8.614921e-001 -2.648492e-001 -2.850416e+000 -7.924459e+000 -9.557928e-001 6.082611e+000 -2.414459e-001 6.695578e-001 -8.009160e-001 3.975378e+000 -2.051498e+000 -1.845810e+000 2.614610e-001 -1.559758e+000 6.750892e-001 -2.906815e+000 1.919143e+000 7.686641e-001 4.280961e-002 1.959137e+000
<VARIANCE> 25
 3.591809e+001 3.007228e+001 8.148034e+001 4.184379e+001 3.855943e+001 5.301136e+001 5.232695e+001 3.390984e+001 6.101812e+001 3.947823e+001 3.430948e+001 2.798628e+001 3.568191e+000 2.846310e+000 8.156929e+000 3.792535e+000 4.016158e+000 4.611555e+000 4.270554e+000 2.598111e+000 4.523664e+000 3.842838e+000 3.724955e+000 3.513724e+000 2.810164e+000
<GCONST> 1.083600e+002
<STATE> 3
<MEAN> 25
 -1.602520e+000 1.608396e+000 2.101413e+001 -3.891672e+000 -1.218372e+001 1.057137e+000 -6.185920e+000 -6.650977e-001 -1.527463e+001 6.753807e+000 4.619355e+000 7.189945e-001 4.664237e-002 1.231366e-001 1.304901e-001 -3.804177e-001 -9.390811e-003 1.826140e-001 -7.582142e-002 -1.153585e-001 -5.792829e-002 5.729347e-001 -1.547287e-001 7.398204e-002 -2.784782e-002
<VARIANCE> 25
 8.651383e+000 1.568510e+001 1.841776e+001 2.171495e+001 1.846160e+001 2.463681e+001 1.988787e+001 2.182845e+001 3.007008e+001 1.960674e+001 3.500773e+001 2.373613e+001 4.036040e-001 8.993708e-001 9.915960e-001 1.213959e+000 9.053755e-001 1.471362e+000 1.484565e+000 1.203783e+000 1.416664e+000 1.794592e+000 1.277591e+000 1.532010e+000 6.887869e-001
<GCONST> 8.341516e+001
<STATE> 4
<MEAN> 25
 -1.314301e+000 6.130270e+000 1.191439e+001 1.751570e+000 -9.532080e+000 -8.729032e-001 -8.354707e-001 -3.358144e+000 -8.744777e+000 1.790444e+000 4.310160e+000 -1.586800e+000 1.870545e-001 4.306315e-001 -1.590732e+000 9.858988e-001 8.111042e-001 -2.452641e-001 3.974974e-001 -2.459561e-001 1.136750e+000 -8.235614e-001 -4.224571e-001 -1.576624e-001 -1.064527e+000
<VARIANCE> 25
 1.318727e+001 2.113177e+001 6.229794e+001 3.811295e+001 2.755930e+001 2.988401e+001 2.966622e+001 2.775677e+001 4.610115e+001 4.214439e+001 3.952956e+001 2.649998e+001 8.122554e-001 1.229087e+000 2.595066e+000 2.961048e+000 2.700970e+000 2.646974e+000 2.356396e+000 2.904451e+000 2.615437e+000 3.048600e+000 2.284318e+000 2.246826e+000 1.482573e+000
<GCONST> 9.733609e+001
<TRANSP> 5
 0.000000e+000 1.000000e+000 0.000000e+000 0.000000e+000 0.000000e+000
 0.000000e+000 7.075624e-001 2.924375e-001 0.000000e+000 0.000000e+000
 0.000000e+000 0.000000e+000 8.104001e-001 1.895999e-001 0.000000e+000
 0.000000e+000 0.000000e+000 0.000000e+000 8.307725e-001 1.692275e-001
 0.000000e+000 0.000000e+000 0.000000e+000 0.000000e+000 0.000000e+000
<ENDHMM>
~h "iy"
<BEGINHMM>
<NUMSTATES> 5
<STATE> 2
<MEAN> 25
 -1.109702e+000 8.010383e-001 1.993130e+001 -5.527734e+000 -1.098878e+001 7.501407e-001 -7.543971e+000 1.885914e+000 -1.520764e+001 4.263925e+000 2.342823e+000 4.717068e+000 1.146954e-001 2.252304e-001 -9.408394e-002 1.232017e-001 -2.089094e-001 4.695453e-001 -2.337630e-001 -3.404067e-002 -1.203174e-001 1.548919e-002 1.360441e-001 -9.715392e-002 -1.605083e-001
<VARIANCE> 25
 4.225071e+000 1.278393e+001 1.330158e+001 9.709680e+000 5.037028e+000 1.083777e+001 1.224236e+001 4.296318e+001 9.436626e+000 9.090651e+000 1.227132e+001 1.043376e+001 2.035524e-001 4.330846e-001 7.005459e-001 6.516402e-001 4.590906e-001 8.551413e-001 6.184978e-001 1.186206e+000 8.896396e-001 5.276336e-001 1.322718e+000 8.491536e-001 2.055046e-001
<GCONST> 6.768650e+001
<STATE> 3
<MEAN> 25
 4.937534e+000 3.268329e+000 6.470144e+000 3.459676e+000 -2.975035e+000 1.897337e+000 -4.076131e+000 -1.960824e+000 -7.236003e+000 7.404298e-001 3.260020e+000 -3.956160e+000 1.320778e-001 4.151959e-001 -1.044340e+000 1.025345e+000 6.375673e-001 -4.721008e-001 3.637260e-001 -6.645291e-001 9.739537e-001 -4.365951e-001 -2.629504e-001 -1.575364e-001 -1.019161e+000
<VARIANCE> 25
 1.003662e+001 1.534748e+001 2.764701e+001 3.312005e+001 2.339436e+001 1.981159e+001 1.920460e+001 3.266745e+001 1.993451e+001 3.851545e+001 2.768967e+001 1.908282e+001 6.783749e-001 4.624718e-001 1.302203e+000 1.779730e+000 2.233793e+000 1.578464e+000 1.355636e+000 1.504029e+000 2.174431e+000 3.366910e+000 2.617594e+000 2.596869e+000 4.598049e-001
<GCONST> 8.808167e+001
<STATE> 4
<MEAN> 25
 -4.848491e-001 6.325053e+000 3.731401e+000 1.966473e+000 -3.248769e+000 2.879874e+000 3.545002e+000 -2.912570e+000 -2.048478e+000 7.341971e-001 1.750025e-001 -2.744543e-001 -3.859176e-001 -1.386226e-001 -1.452874e-001 -9.863812e-002 2.098615e-001 1.184814e-001 3.769747e-001 2.087778e-001 2.803390e-001 -7.989394e-002 -2.021603e-001 1.026065e-001 -2.154116e-001
<VARIANCE> 25
 8.379603e+000 4.306661e+001 8.153871e+001 1.070858e+002 4.370707e+001 1.705626e+001 2.943704e+001 2.911444e+001 5.636400e+001 9.410513e+001 2.485959e+001 1.397750e+001 4.107089e-001 1.003884e+000 1.904015e+000 2.650846e+000 2.256847e+000 2.078412e+000 1.363040e+000 2.092155e+000 1.835973e+000 2.024803e+000 2.923667e+000 1.123164e+000 4.976310e-001
<GCONST> 9.383511e+001
<TRANSP> 5
 0.000000e+000 1.000000e+000 0.000000e+000 0.000000e+000 0.000000e+000
 0.000000e+000 9.259358e-001 7.406420e-002 0.000000e+000 0.000000e+000
 0.000000e+000 0.000000e+000 9.002047e-001 9.979533e-002 0.000000e+000
 0.000000e+000 0.000000e+000 0.000000e+000 9.179558e-001 8.204422e-002
 0.000000e+000 0.000000e+000 0.000000e+000 0.000000e+000 0.000000e+000
<ENDHMM>
~h "sp"
<BEGINHMM>
<NUMSTATES> 3
<STATE> 2
~s "silst"
<TRANSP> 3
 0.000000e+000 4.082193e-001 5.917807e-001
 0.000000e+000 8.576590e-001 1.423410e-001
 0.000000e+000 0.000000e+000 0.000000e+000
<ENDHMM>
~h "th"
<BEGINHMM>
<NUMSTATES> 5
<STATE> 2
<MEAN> 25
 1.790294e+000 3.252569e+000 -9.958819e+000 6.969586e-001 3.458688e+000 2.774810e+000 -2.373734e+000 1.634229e+000 4.851473e+000 -2.047873e+000 -1.502048e+000 -5.600283e+000 -4.001245e-001 5.520774e-001 -9.755870e-001 8.649964e-001 -5.360153e-001 2.110140e-001 2.961506e-001 2.966469e-002 -1.713311e-001 -5.996745e-001 1.491579e-001 1.350167e-003 -1.453320e+000
<VARIANCE> 25
 9.317069e+000 1.691570e+001 5.065366e+001 4.271239e+001 3.272594e+001 3.036212e+001 3.303082e+001 4.328745e+001 3.608094e+001 3.716613e+001 2.752239e+001 3.032903e+001 7.672425e-001 1.921446e+000 1.995484e+000 3.797225e+000 1.786191e+000 2.867474e+000 3.769156e+000 3.149214e+000 2.268112e+000 2.636128e+000 2.528650e+000 1.710362e+000 2.087844e+000
<GCONST> 9.729104e+001
<STATE> 3
<MEAN> 25
 -5.978343e+000 4.832519e+000 -1.022448e+001 7.143758e+000 -1.789481e+000 -2.787531e+000 3.993765e+000 -1.705151e+000 3.306049e+000 -6.735073e+000 2.933867e+000 -1.863036e+000 -1.987554e+000 -6.046910e-001 4.174124e-002 7.479264e-001 -8.809530e-001 -1.499985e+000 1.365543e+000 -1.179618e+000 2.962345e-001 -1.335212e+000 1.009308e+000 6.116022e-001 2.125055e+000
<VARIANCE> 25
 3.386781e+001 2.972914e+001 4.345084e+001 4.162434e+001 3.729655e+001 4.496490e+001 4.232752e+001 3.424985e+001 2.949679e+001 3.710490e+001 3.064850e+001 3.058865e+001 2.509990e+000 2.421869e+000 2.964044e+000 3.675806e+000 3.716779e+000 4.603295e+000 3.326799e+000 3.335834e+000 3.132014e+000 3.553470e+000 3.375372e+000 2.971170e+000 6.123189e+000
<GCONST> 1.048736e+002
<STATE> 4
<MEAN> 25
 -6.324366e+000 -7.658730e-002 -6.455822e+000 2.535803e+000 -2.281178e+000 -5.518493e+000 1.246632e+000 -1.647560e+000 5.762408e+000 -7.247150e+000 1.892010e+000 -1.798449e+000 2.497841e+000 -1.448586e+000 3.047909e+000 -3.402632e+000 1.179255e+000 -1.853747e-002 -2.555182e+000 1.103245e+000 3.186851e-001 2.010332e+000 -1.639037e+000 -6.139743e-001 3.234029e+000
<VARIANCE> 25
 4.130428e+001 2.989544e+001 4.350721e+001 7.794913e+001 3.961591e+001 2.980692e+001 5.855133e+001 3.185113e+001 2.264502e+001 3.722766e+001 3.034761e+001 3.979647e+001 3.074078e+000 4.214697e+000 5.019401e+000 8.434263e+000 6.612780e+000 4.077883e+000 4.383020e+000 4.596785e+000 4.620737e+000 4.377295e+000 5.771184e+000 2.769748e+000 5.146818e+000
<GCONST> 1.096549e+002
<TRANSP> 5
 0.000000e+000 1.000000e+000 0.000000e+000 0.000000e+000 0.000000e+000
 0.000000e+000 8.388955e-001 1.611045e-001 0.000000e+000 0.000000e+000
 0.000000e+000 0.000000e+000 7.368692e-001 2.631308e-001 0.000000e+000
 0.000000e+000 0.000000e+000 0.000000e+000 6.497383e-001 3.502618e-001
 0.000000e+000 0.000000e+000 0.000000e+000 0.000000e+000 0.000000e+000
<ENDHMM>
~h "uh"
<BEGINHMM>
<NUMSTATES> 5
<STATE> 2
<MEAN> 25
 3.816316e+000 4.366007e+000 4.540631e+000 -1.440525e+000 -3.107070e+000 9.283316e-001 -9.615173e+000 -4.779206e+000 -3.411772e+000 3.483477e-001 7.033000e+000 -2.265526e+000 2.221285e+000 -4.167936e-001 1.744698e+000 -2.480179e+000 -5.042368e-001 2.354706e+000 -3.180546e+000 -5.051261e-001 -2.253239e+000 2.969295e+000 1.102704e+000 -2.473580e-001 8.500726e-001
<VARIANCE> 25
 1.578062e+001 1.987508e+001 3.540524e+001 4.528662e+001 2.676188e+001 6.229400e+001 4.496056e+001 3.005071e+001 5.608957e+001 3.723261e+001 3.721881e+001 2.011812e+001 4.394880e+000 1.659662e+000 3.649574e+000 4.686119e+000 2.896894e+000 3.529516e+000 5.710169e+000 7.091674e+000 4.257716e+000 5.088907e+000 2.791504e+000 1.643913e+000 1.001137e+000
<GCONST> 1.034180e+002
<STATE> 3
<MEAN> 25
 6.744053e+000 3.273268e+000 3.628060e+000 -4.977788e+000 -4.652393e+000 6.873755e+000 -1.121818e+001 -5.652736e+000 -6.842646e+000 4.510434e+000 8.565221e+000 -6.806754e-001 3.238864e-001 -1.782477e-001 -3.607300e-001 2.821151e-001 8.216521e-002 6.116386e-001 -9.989844e-002 -1.794007e-001 -5.861866e-001 9.830692e-001 -4.472947e-001 4.007063e-001 -1.843511e-001
<VARIANCE> 25
 1.095381e+001 1.633727e+001 3.664235e+001 4.388013e+001 3.973050e+001 3.882274e+001 4.502815e+001 3.717481e+001 4.506698e+001 4.483185e+001 3.747007e+001 2.041076e+001 4.296351e-001 1.222068e+000 1.635554e+000 6.959508e+000 4.586985e+000 3.542588e+000 3.012834e+000 3.891284e+000 3.736235e+000 2.880636e+000 3.131834e+000 1.463933e+000 5.621582e-001
<GCONST> 9.789183e+001
<STATE> 4
<MEAN> 25
 6.788205e+000 5.157778e+000 2.546507e-001 -2.889415e+000 8.910590e-002 6.406178e+000 -1.060552e+001 -2.740232e+000 -8.325243e+000 4.511802e+000 4.821756e+000 -1.453677e+000 -2.639393e-001 3.544014e-001 -5.417633e-001 8.247076e-001 1.145426e-001 -4.421429e-001 6.728829e-001 -2.581752e-001 7.006698e-001 -4.911907e-001 -3.167847e-001 1.262726e-001 -9.217900e-001
<VARIANCE> 25
 8.430461e+000 2.436104e+001 4.565206e+001 5.219350e+001 2.634935e+001 3.099983e+001 4.874662e+001 3.897419e+001 6.307383e+001 3.323983e+001 3.611800e+001 2.143029e+001 4.594675e-001 1.417046e+000 1.355555e+000 2.235279e+000 1.002587e+000 1.432784e+000 2.721707e+000 1.803230e+000 2.140386e+000 2.073219e+000 2.059408e+000 1.596054e+000 1.189653e+000
<GCONST> 9.308859e+001
<TRANSP> 5
 0.000000e+000 1.000000e+000 0.000000e+000 0.000000e+000 0.000000e+000
 0.000000e+000 4.308783e-001 5.691217e-001 0.000000e+000 0.000000e+000
 0.000000e+000 0.000000e+000 7.061079e-001 2.938921e-001 0.000000e+000
 0.000000e+000 0.000000e+000 0.000000e+000 8.354238e-001 1.645762e-001
 0.000000e+000 0.000000e+000 0.000000e+000 0.000000e+000 0.000000e+000
<ENDHMM>
~h "sil"
<BEGINHMM>
<NUMSTATES> 5
<STATE> 2
<MEAN> 25
 -5.662810e+000 4.633424e+000 -8.140837e+000 1.078761e+001 3.028106e+000 1.722109e+000 5.376641e+000 -2.593462e-001 4.366491e+000 -5.072100e+000 9.850260e-001 2.476318e+000 1.039187e-001 6.687640e-003 -1.785661e-001 1.341668e-001 -1.327258e-001 -2.990621e-001 -1.068150e-001 -4.032709e-001 -3.093086e-001 -6.624162e-002 -9.867403e-002 -4.377299e-001 2.855423e-001
<VARIANCE> 25
 3.741775e+001 5.194072e+001 6.171422e+001 5.136054e+001 6.783152e+001 5.840172e+001 3.532542e+001 4.269429e+001 3.958220e+001 3.439981e+001 3.344124e+001 3.312551e+001 3.082648e+000 2.813882e+000 2.319962e+000 3.766074e+000 2.042693e+000 3.050746e+000 3.173671e+000 3.299911e+000 3.140828e+000 2.931058e+000 2.738221e+000 2.179280e+000 3.144724e+000
<GCONST> 1.050684e+002
<STATE> 3
~s "silst"
<STATE> 4
<MEAN> 25
 -5.692674e+000 3.492785e+000 -5.556032e+000 7.291056e+000 3.404638e-001 2.335382e-001 4.350990e+000 -1.376946e+000 1.210086e+000 -6.801435e+000 3.312966e+000 1.163756e+000 -7.251409e-002 -1.226476e-001 -2.923237e-001 1.478858e-001 2.091033e-001 1.942970e-001 1.196682e-001 1.154469e-001 -2.054299e-001 -7.586449e-002 2.012827e-001 1.315472e-001 -6.457107e-002
<VARIANCE> 25
 3.584906e+001 6.459091e+001 6.331517e+001 7.987769e+001 6.834502e+001 8.611548e+001 3.815290e+001 5.784327e+001 2.989999e+001 4.878313e+001 3.294106e+001 2.352242e+001 6.094144e-001 1.216838e+000 1.390433e+000 2.221810e+000 1.633245e+000 2.136468e+000 2.121664e+000 1.920645e+000 1.914480e+000 2.606658e+000 2.015033e+000 1.370875e+000 9.880362e-001
<GCONST> 9.863554e+001
<TRANSP> 5
 0.000000e+000 1.000000e+000 0.000000e+000 0.000000e+000 0.000000e+000
 0.000000e+000 4.195037e-001 1.989874e-001 3.815090e-001 0.000000e+000
 0.000000e+000 0.000000e+000 7.285260e-001 2.714740e-001 0.000000e+000
 0.000000e+000 2.670669e-002 0.000000e+000 7.037983e-001 2.694950e-001
 0.000000e+000 0.000000e+000 0.000000e+000 0.000000e+000 0.000000e+000
<ENDHMM>
