~o
<STREAMINFO> 1 25
<VECSIZE> 25<NULLD><MFCC_D_N_Z_0><DIAGC>
~t "T_b"
<TRANSP> 5
 0.000000e+000 1.000000e+000 0.000000e+000 0.000000e+000 0.000000e+000
 0.000000e+000 6.769557e-001 3.230444e-001 0.000000e+000 0.000000e+000
 0.000000e+000 0.000000e+000 5.514558e-001 4.485442e-001 0.000000e+000
 0.000000e+000 0.000000e+000 0.000000e+000 5.392146e-001 4.607854e-001
 0.000000e+000 0.000000e+000 0.000000e+000 0.000000e+000 0.000000e+000
~t "T_d"
<TRANSP> 5
 0.000000e+000 1.000000e+000 0.000000e+000 0.000000e+000 0.000000e+000
 0.000000e+000 7.477187e-001 2.522814e-001 0.000000e+000 0.000000e+000
 0.000000e+000 0.000000e+000 6.767336e-001 3.232664e-001 0.000000e+000
 0.000000e+000 0.000000e+000 0.000000e+000 5.716853e-001 4.283147e-001
 0.000000e+000 0.000000e+000 0.000000e+000 0.000000e+000 0.000000e+000
~t "T_g"
<TRANSP> 5
 0.000000e+000 1.000000e+000 0.000000e+000 0.000000e+000 0.000000e+000
 0.000000e+000 6.645819e-001 3.354181e-001 0.000000e+000 0.000000e+000
 0.000000e+000 0.000000e+000 7.331011e-001 2.668990e-001 0.000000e+000
 0.000000e+000 0.000000e+000 0.000000e+000 7.225716e-001 2.774284e-001
 0.000000e+000 0.000000e+000 0.000000e+000 0.000000e+000 0.000000e+000
~t "T_h"
<TRANSP> 5
 0.000000e+000 1.000000e+000 0.000000e+000 0.000000e+000 0.000000e+000
 0.000000e+000 8.619422e-001 1.380577e-001 0.000000e+000 0.000000e+000
 0.000000e+000 0.000000e+000 6.715375e-001 3.284625e-001 0.000000e+000
 0.000000e+000 0.000000e+000 0.000000e+000 8.577003e-001 1.422997e-001
 0.000000e+000 0.000000e+000 0.000000e+000 0.000000e+000 0.000000e+000
~t "T_j"
<TRANSP> 5
 0.000000e+000 1.000000e+000 0.000000e+000 0.000000e+000 0.000000e+000
 0.000000e+000 8.933304e-001 1.066697e-001 0.000000e+000 0.000000e+000
 0.000000e+000 0.000000e+000 7.441860e-001 2.558140e-001 0.000000e+000
 0.000000e+000 0.000000e+000 0.000000e+000 7.092221e-001 2.907780e-001
 0.000000e+000 0.000000e+000 0.000000e+000 0.000000e+000 0.000000e+000
~t "T_k"
<TRANSP> 5
 0.000000e+000 1.000000e+000 0.000000e+000 0.000000e+000 0.000000e+000
 0.000000e+000 7.874123e-001 2.125877e-001 0.000000e+000 0.000000e+000
 0.000000e+000 0.000000e+000 4.399666e-001 5.600334e-001 0.000000e+000
 0.000000e+000 0.000000e+000 0.000000e+000 6.418417e-001 3.581583e-001
 0.000000e+000 0.000000e+000 0.000000e+000 0.000000e+000 0.000000e+000
~t "T_l"
<TRANSP> 5
 0.000000e+000 1.000000e+000 0.000000e+000 0.000000e+000 0.000000e+000
 0.000000e+000 6.398385e-001 3.601615e-001 0.000000e+000 0.000000e+000
 0.000000e+000 0.000000e+000 7.608433e-001 2.391567e-001 0.000000e+000
 0.000000e+000 0.000000e+000 0.000000e+000 6.734204e-001 3.265797e-001
 0.000000e+000 0.000000e+000 0.000000e+000 0.000000e+000 0.000000e+000
~t "T_m"
<TRANSP> 5
 0.000000e+000 1.000000e+000 0.000000e+000 0.000000e+000 0.000000e+000
 0.000000e+000 6.221235e-001 3.778765e-001 0.000000e+000 0.000000e+000
 0.000000e+000 0.000000e+000 7.741340e-001 2.258660e-001 0.000000e+000
 0.000000e+000 0.000000e+000 0.000000e+000 6.419672e-001 3.580328e-001
 0.000000e+000 0.000000e+000 0.000000e+000 0.000000e+000 0.000000e+000
~t "T_n"
<TRANSP> 5
 0.000000e+000 1.000000e+000 0.000000e+000 0.000000e+000 0.000000e+000
 0.000000e+000 5.509786e-001 4.490214e-001 0.000000e+000 0.000000e+000
 0.000000e+000 0.000000e+000 7.619597e-001 2.380403e-001 0.000000e+000
 0.000000e+000 0.000000e+000 0.000000e+000 7.320141e-001 2.679859e-001
 0.000000e+000 0.000000e+000 0.000000e+000 0.000000e+000 0.000000e+000
~t "T_o"
<TRANSP> 5
 0.000000e+000 1.000000e+000 0.000000e+000 0.000000e+000 0.000000e+000
 0.000000e+000 8.975500e-001 1.024499e-001 0.000000e+000 0.000000e+000
 0.000000e+000 0.000000e+000 8.851026e-001 1.148974e-001 0.000000e+000
 0.000000e+000 0.000000e+000 0.000000e+000 5.998741e-001 4.001259e-001
 0.000000e+000 0.000000e+000 0.000000e+000 0.000000e+000 0.000000e+000
~t "T_p"
<TRANSP> 5
 0.000000e+000 1.000000e+000 0.000000e+000 0.000000e+000 0.000000e+000
 0.000000e+000 6.723066e-001 3.276934e-001 0.000000e+000 0.000000e+000
 0.000000e+000 0.000000e+000 8.496591e-001 1.503409e-001 0.000000e+000
 0.000000e+000 0.000000e+000 0.000000e+000 7.295047e-001 2.704954e-001
 0.000000e+000 0.000000e+000 0.000000e+000 0.000000e+000 0.000000e+000
~t "T_r"
<TRANSP> 5
 0.000000e+000 1.000000e+000 0.000000e+000 0.000000e+000 0.000000e+000
 0.000000e+000 6.226390e-001 3.773609e-001 0.000000e+000 0.000000e+000
 0.000000e+000 0.000000e+000 6.927758e-001 3.072242e-001 0.000000e+000
 0.000000e+000 0.000000e+000 0.000000e+000 6.932170e-001 3.067830e-001
 0.000000e+000 0.000000e+000 0.000000e+000 0.000000e+000 0.000000e+000
~t "T_s"
<TRANSP> 5
 0.000000e+000 1.000000e+000 0.000000e+000 0.000000e+000 0.000000e+000
 0.000000e+000 7.497279e-001 2.502721e-001 0.000000e+000 0.000000e+000
 0.000000e+000 0.000000e+000 9.033626e-001 9.663746e-002 0.000000e+000
 0.000000e+000 0.000000e+000 0.000000e+000 6.929237e-001 3.070763e-001
 0.000000e+000 0.000000e+000 0.000000e+000 0.000000e+000 0.000000e+000
~t "T_t"
<TRANSP> 5
 0.000000e+000 1.000000e+000 0.000000e+000 0.000000e+000 0.000000e+000
 0.000000e+000 8.644139e-001 1.355861e-001 0.000000e+000 0.000000e+000
 0.000000e+000 0.000000e+000 8.395701e-001 1.604299e-001 0.000000e+000
 0.000000e+000 0.000000e+000 0.000000e+000 6.728441e-001 3.271559e-001
 0.000000e+000 0.000000e+000 0.000000e+000 0.000000e+000 0.000000e+000
~t "T_w"
<TRANSP> 5
 0.000000e+000 1.000000e+000 0.000000e+000 0.000000e+000 0.000000e+000
 0.000000e+000 3.999472e-001 6.000528e-001 0.000000e+000 0.000000e+000
 0.000000e+000 0.000000e+000 6.904170e-001 3.095830e-001 0.000000e+000
 0.000000e+000 0.000000e+000 0.000000e+000 6.435001e-001 3.564999e-001
 0.000000e+000 0.000000e+000 0.000000e+000 0.000000e+000 0.000000e+000
~t "T_y"
<TRANSP> 5
 0.000000e+000 1.000000e+000 0.000000e+000 0.000000e+000 0.000000e+000
 0.000000e+000 5.982447e-001 4.017553e-001 0.000000e+000 0.000000e+000
 0.000000e+000 0.000000e+000 8.103144e-001 1.896857e-001 0.000000e+000
 0.000000e+000 0.000000e+000 0.000000e+000 7.538053e-001 2.461946e-001
 0.000000e+000 0.000000e+000 0.000000e+000 0.000000e+000 0.000000e+000
~t "T_aa"
<TRANSP> 5
 0.000000e+000 1.000000e+000 0.000000e+000 0.000000e+000 0.000000e+000
 0.000000e+000 7.779682e-001 2.220318e-001 0.000000e+000 0.000000e+000
 0.000000e+000 0.000000e+000 8.984029e-001 1.015970e-001 0.000000e+000
 0.000000e+000 0.000000e+000 0.000000e+000 9.066667e-001 9.333330e-002
 0.000000e+000 0.000000e+000 0.000000e+000 0.000000e+000 0.000000e+000
~t "T_ae"
<TRANSP> 5
 0.000000e+000 1.000000e+000 0.000000e+000 0.000000e+000 0.000000e+000
 0.000000e+000 2.922468e-001 7.077533e-001 0.000000e+000 0.000000e+000
 0.000000e+000 0.000000e+000 5.398535e-001 4.601465e-001 0.000000e+000
 0.000000e+000 0.000000e+000 0.000000e+000 8.854887e-001 1.145113e-001
 0.000000e+000 0.000000e+000 0.000000e+000 0.000000e+000 0.000000e+000
~t "T_ah"
<TRANSP> 5
 0.000000e+000 1.000000e+000 0.000000e+000 0.000000e+000 0.000000e+000
 0.000000e+000 6.993578e-001 3.006422e-001 0.000000e+000 0.000000e+000
 0.000000e+000 0.000000e+000 7.182263e-001 2.817738e-001 0.000000e+000
 0.000000e+000 0.000000e+000 0.000000e+000 8.297550e-001 1.702450e-001
 0.000000e+000 0.000000e+000 0.000000e+000 0.000000e+000 0.000000e+000
~t "T_ao"
<TRANSP> 5
 0.000000e+000 1.000000e+000 0.000000e+000 0.000000e+000 0.000000e+000
 0.000000e+000 5.942712e-001 4.057288e-001 0.000000e+000 0.000000e+000
 0.000000e+000 0.000000e+000 6.413783e-001 3.586217e-001 0.000000e+000
 0.000000e+000 0.000000e+000 0.000000e+000 9.159544e-001 8.404559e-002
 0.000000e+000 0.000000e+000 0.000000e+000 0.000000e+000 0.000000e+000
~t "T_ch"
<TRANSP> 5
 0.000000e+000 1.000000e+000 0.000000e+000 0.000000e+000 0.000000e+000
 0.000000e+000 8.075259e-001 1.924742e-001 0.000000e+000 0.000000e+000
 0.000000e+000 0.000000e+000 6.373135e-001 3.626865e-001 0.000000e+000
 0.000000e+000 0.000000e+000 0.000000e+000 9.057953e-001 9.420473e-002
 0.000000e+000 0.000000e+000 0.000000e+000 0.000000e+000 0.000000e+000
~t "T_eh"
<TRANSP> 5
 0.000000e+000 1.000000e+000 0.000000e+000 0.000000e+000 0.000000e+000
 0.000000e+000 6.615242e-001 3.384758e-001 0.000000e+000 0.000000e+000
 0.000000e+000 0.000000e+000 8.842699e-001 1.157301e-001 0.000000e+000
 0.000000e+000 0.000000e+000 0.000000e+000 8.814679e-001 1.185321e-001
 0.000000e+000 0.000000e+000 0.000000e+000 0.000000e+000 0.000000e+000
~t "T_ih"
<TRANSP> 5
 0.000000e+000 1.000000e+000 0.000000e+000 0.000000e+000 0.000000e+000
 0.000000e+000 7.144000e-001 2.856000e-001 0.000000e+000 0.000000e+000
 0.000000e+000 0.000000e+000 7.943232e-001 2.056768e-001 0.000000e+000
 0.000000e+000 0.000000e+000 0.000000e+000 8.279731e-001 1.720269e-001
 0.000000e+000 0.000000e+000 0.000000e+000 0.000000e+000 0.000000e+000
~t "T_iy"
<TRANSP> 5
 0.000000e+000 1.000000e+000 0.000000e+000 0.000000e+000 0.000000e+000
 0.000000e+000 9.205232e-001 7.947682e-002 0.000000e+000 0.000000e+000
 0.000000e+000 0.000000e+000 8.937395e-001 1.062605e-001 0.000000e+000
 0.000000e+000 0.000000e+000 0.000000e+000 9.092729e-001 9.072707e-002
 0.000000e+000 0.000000e+000 0.000000e+000 0.000000e+000 0.000000e+000
~t "T_th"
<TRANSP> 5
 0.000000e+000 1.000000e+000 0.000000e+000 0.000000e+000 0.000000e+000
 0.000000e+000 8.513188e-001 1.486811e-001 0.000000e+000 0.000000e+000
 0.000000e+000 0.000000e+000 7.779341e-001 2.220659e-001 0.000000e+000
 0.000000e+000 0.000000e+000 0.000000e+000 5.899731e-001 4.100268e-001
 0.000000e+000 0.000000e+000 0.000000e+000 0.000000e+000 0.000000e+000
~t "T_uh"
<TRANSP> 5
 0.000000e+000 1.000000e+000 0.000000e+000 0.000000e+000 0.000000e+000
 0.000000e+000 4.787503e-001 5.212498e-001 0.000000e+000 0.000000e+000
 0.000000e+000 0.000000e+000 7.437760e-001 2.562239e-001 0.000000e+000
 0.000000e+000 0.000000e+000 0.000000e+000 8.119740e-001 1.880259e-001
 0.000000e+000 0.000000e+000 0.000000e+000 0.000000e+000 0.000000e+000
~s "ST_aa_2_1"
<MEAN> 25
 2.719038e+000 -9.790962e+000 -5.159502e+000 -1.192286e+001 9.945219e+000 3.377817e+000 1.313754e+000 4.196966e+000 2.939803e+000 -1.947517e-001 -7.290330e+000 -3.093004e+000 3.431978e-002 -4.231004e-001 -3.965518e-001 -2.502854e-001 8.286852e-001 6.064216e-001 7.392810e-001 -7.952315e-001 -1.561663e-001 -6.570154e-002 -1.961263e-001 1.802584e-001 1.188573e-001
<VARIANCE> 25
 6.021842e+000 1.061534e+001 2.296143e+001 1.607744e+001 1.633508e+001 3.051463e+001 2.781539e+001 2.546815e+001 3.617295e+001 2.557778e+001 3.176369e+001 2.570270e+001 2.372999e-001 8.088487e-001 9.080728e-001 9.523381e-001 1.368716e+000 1.011744e+000 1.728321e+000 1.651844e+000 1.271994e+000 1.463466e+000 1.231478e+000 1.044264e+000 5.223500e-001
<GCONST> 8.212760e+001
~s "ST_aa_3_1"
<MEAN> 25
 3.268121e+000 -9.309697e+000 -6.766463e+000 -1.303299e+001 1.327223e+001 9.516966e+000 2.314326e+000 -3.843974e+000 5.024632e+000 -3.812426e+000 -5.054782e+000 6.419285e-002 6.963707e-003 1.200124e-002 -1.468214e-002 3.632260e-002 5.878529e-002 -2.258494e-002 -7.876742e-002 -7.062905e-002 1.686265e-001 3.366898e-002 -1.274012e-001 -2.930725e-002 -8.737431e-002
<VARIANCE> 25
 7.281061e+000 1.063016e+001 1.806216e+001 2.237491e+001 2.358852e+001 2.569722e+001 2.608465e+001 2.139113e+001 2.911005e+001 2.315729e+001 2.172735e+001 2.589275e+001 1.409947e-001 2.803394e-001 3.994129e-001 5.554187e-001 6.010233e-001 8.521004e-001 7.290379e-001 6.988469e-001 4.370889e-001 5.724851e-001 5.619477e-001 7.276457e-001 2.455646e-001
<GCONST> 7.211108e+001
~s "ST_aa_4_1"
<MEAN> 25
 -2.302278e-001 -3.437390e+000 -1.287346e+001 -1.140358e+000 9.537627e+000 4.061711e+000 3.939979e+000 -3.807460e-003 5.118332e+000 -5.416760e+000 -5.587611e+000 -9.370825e-001 -2.034267e-001 4.082514e-001 -2.555698e-001 7.625079e-001 -4.430340e-001 -2.236380e-001 -1.381932e-001 2.627232e-001 4.706200e-003 -1.281924e-001 1.869863e-001 2.810203e-002 -8.514817e-001
<VARIANCE> 25
 1.869963e+001 2.328580e+001 3.362494e+001 5.805100e+001 3.790995e+001 4.159339e+001 2.858838e+001 2.967758e+001 2.758850e+001 3.607552e+001 3.262588e+001 2.992066e+001 5.173200e-001 1.399185e+000 1.247540e+000 1.722214e+000 1.849843e+000 1.751242e+000 2.303031e+000 2.293109e+000 1.939101e+000 1.853388e+000 1.836309e+000 1.946025e+000 1.025609e+000
<GCONST> 9.335229e+001
~s "ST_s_2_1"
<MEAN> 25
 -8.276938e+000 7.938314e+000 -7.514536e+000 9.147392e+000 2.956547e+000 -6.345694e+000 9.714986e+000 4.996764e-001 4.292813e+000 -3.769709e+000 3.540334e+000 4.027012e-001 -4.078225e+000 2.264385e+000 -2.280797e+000 1.920085e+000 -1.982061e-001 -8.889220e-001 2.021616e+000 -9.316617e-002 6.939473e-001 -1.420481e+000 1.750896e+000 -2.452598e-001 6.861979e-001
<VARIANCE> 25
 5.751991e+001 4.265213e+001 5.305405e+001 5.418568e+001 3.901287e+001 2.792263e+001 6.760535e+001 5.758130e+001 4.336375e+001 4.751652e+001 4.200697e+001 2.423159e+001 2.271685e+000 5.383857e+000 3.683109e+000 6.463653e+000 3.466416e+000 3.662482e+000 4.244340e+000 4.576623e+000 3.939997e+000 3.850375e+000 3.137634e+000 2.382032e+000 2.846878e+000
<GCONST> 1.084910e+002
~s "ST_s_3_1"
<MEAN> 25
 -2.359918e+001 1.245188e+001 -1.463227e+001 1.167885e+001 3.042477e+000 -6.756403e+000 1.323928e+001 1.617339e+000 3.869725e+000 -5.230424e+000 7.036467e+000 2.533637e+000 -3.878745e-001 -3.048196e-001 2.488922e-002 -5.609139e-002 -7.574145e-002 -1.295245e-002 -1.107481e-001 1.307819e-001 -2.432880e-002 -6.148240e-002 6.017792e-004 2.304331e-001 1.895654e-001
<VARIANCE> 25
 1.803823e+001 2.300104e+001 3.345958e+001 3.743804e+001 3.954741e+001 2.884942e+001 3.758317e+001 5.003337e+001 3.009351e+001 2.494244e+001 2.586801e+001 2.058728e+001 1.934918e+000 1.823435e+000 1.538535e+000 1.306618e+000 1.547657e+000 1.521110e+000 1.678272e+000 1.746416e+000 1.759722e+000 1.720643e+000 1.722814e+000 1.391382e+000 4.358926e-001
<GCONST> 9.162771e+001
~s "ST_s_4_1"
<MEAN> 25
 -1.164288e+001 5.237888e+000 -7.914838e+000 6.662348e+000 1.632650e+000 -6.096536e+000 6.150524e+000 9.265462e-001 5.102607e+000 -5.066262e+000 3.099752e+000 -7.566162e-001 5.594945e+000 -1.998124e+000 2.927934e+000 -2.842417e+000 -4.165125e-001 1.326175e+000 -3.433223e+000 -6.333873e-001 -1.931005e-001 9.967708e-001 -1.012096e+000 -2.158950e+000 1.677585e+000
<VARIANCE> 25
 8.989797e+001 2.256931e+001 4.665652e+001 5.829723e+001 3.065045e+001 3.190874e+001 8.777158e+001 3.577818e+001 3.528660e+001 2.827042e+001 3.268358e+001 3.322094e+001 2.343990e+000 2.448305e+000 5.236532e+000 5.978308e+000 4.029461e+000 3.157717e+000 3.660175e+000 5.268408e+000 3.320012e+000 2.743577e+000 3.704578e+000 2.719196e+000 3.098678e+000
<GCONST> 1.066474e+002
~s "ST_uh_2_1"
<MEAN> 25
 4.095640e+000 4.056310e+000 4.760068e+000 -2.165177e+000 -3.083187e+000 1.281076e+000 -1.060036e+001 -4.898304e+000 -3.902595e+000 1.894510e+000 6.664249e+000 -2.078697e+000 1.887777e+000 -3.904901e-001 1.541892e+000 -2.503486e+000 -8.575104e-002 2.093634e+000 -3.082311e+000 -1.702910e-001 -2.432299e+000 3.062613e+000 9.309129e-001 -1.557717e-001 7.896869e-001
<VARIANCE> 25
 1.550847e+001 1.930745e+001 3.181143e+001 4.524677e+001 2.340140e+001 6.265847e+001 4.688720e+001 3.155690e+001 5.741540e+001 3.635403e+001 3.912265e+001 2.085403e+001 4.249682e+000 1.725543e+000 3.457406e+000 3.281557e+000 3.373293e+000 4.604810e+000 5.576278e+000 6.979470e+000 3.559100e+000 4.732576e+000 3.060455e+000 1.914322e+000 1.002152e+000
<GCONST> 1.032784e+002
~s "ST_uh_3_1"
<MEAN> 25
 6.682969e+000 2.878357e+000 6.026700e+000 -7.233316e+000 -3.123189e+000 7.853969e+000 -1.389472e+001 -4.114442e+000 -1.032029e+001 5.970407e+000 9.071876e+000 -1.887783e+000 2.928995e-001 -1.144544e-001 -2.862289e-001 -1.199988e-001 -1.596170e-001 7.930757e-001 1.870238e-001 -1.325747e-001 -4.064206e-001 5.607553e-001 -2.588810e-001 3.662732e-001 -2.658502e-001
<VARIANCE> 25
 7.850230e+000 1.404192e+001 2.094530e+001 2.491628e+001 2.996028e+001 2.959555e+001 4.045687e+001 2.684753e+001 5.349581e+001 3.699554e+001 2.940162e+001 2.208070e+001 3.253508e-001 6.411442e-001 5.702686e-001 2.769663e+000 1.981617e+000 1.887195e+000 1.675953e+000 2.058829e+000 2.388415e+000 1.865643e+000 2.354873e+000 1.053960e+000 2.541162e-001
<GCONST> 8.723158e+001
~s "ST_uh_4_1"
<MEAN> 25
 6.497268e+000 5.757638e+000 -1.313044e+000 -2.633622e+000 -1.966083e-001 5.736884e+000 -8.739791e+000 -2.872388e+000 -6.485483e+000 4.296898e+000 3.840524e+000 -6.305969e-001 -2.868818e-001 3.889512e-001 -7.080915e-001 1.335892e+000 1.337585e-001 -7.069952e-001 8.041645e-001 -3.673137e-001 9.242074e-001 -5.310791e-001 -5.222816e-001 8.970638e-002 -9.843940e-001
<VARIANCE> 25
 9.768557e+000 2.445268e+001 3.628000e+001 4.473255e+001 3.414386e+001 3.159047e+001 4.664888e+001 4.201423e+001 4.792112e+001 3.707586e+001 3.296858e+001 2.138192e+001 5.186533e-001 1.835899e+000 1.757404e+000 3.129965e+000 1.452254e+000 1.522545e+000 3.296973e+000 2.570039e+000 2.613155e+000 2.403929e+000 2.398039e+000 1.792490e+000 1.333609e+000
<GCONST> 9.558963e+001
~s "ST_l_2_1"
<MEAN> 25
 3.298424e+000 -3.783207e+000 2.895115e+000 -8.746570e+000 1.565799e+000 4.173214e+000 -9.730929e+000 -4.316399e-001 6.653369e+000 3.953559e-001 -1.416857e+000 -2.772127e+000 4.895734e-001 6.399279e-001 1.218335e+000 -3.090498e-001 -2.403052e-001 -1.767036e-001 -2.459730e+000 -7.773695e-001 1.172807e-001 1.217663e+000 6.006325e-001 1.482638e-001 -7.207453e-001
<VARIANCE> 25
 1.342401e+001 4.831055e+001 7.165389e+001 5.425209e+001 4.369575e+001 4.831023e+001 4.088956e+001 3.743520e+001 3.314258e+001 5.090210e+001 4.864993e+001 2.726729e+001 3.723923e-001 1.062128e+000 1.198946e+000 1.762349e+000 5.046286e+000 3.801798e+000 2.042004e+000 4.091222e+000 2.356193e+000 3.344246e+000 7.216040e+000 1.561898e+000 2.917441e-001
<GCONST> 9.844863e+001
~s "ST_l_3_1"
<MEAN> 25
 3.758955e+000 -2.513476e+000 8.598872e+000 -8.836642e+000 1.020558e+000 -7.605240e-002 -1.583022e+001 1.569133e-001 3.706355e+000 2.763102e+000 9.330825e-001 -1.526492e-001 5.375468e-002 1.153290e-001 7.046398e-003 -1.783531e-002 1.789037e-001 1.990361e-002 -4.021563e-001 1.071044e-001 -1.193668e-001 1.241237e-001 5.704971e-002 -5.507938e-002 -1.939297e-001
<VARIANCE> 25
 1.352908e+001 2.226826e+001 3.522091e+001 3.764502e+001 2.837541e+001 5.786975e+001 3.275554e+001 4.452684e+001 3.916903e+001 5.487170e+001 3.373481e+001 2.920014e+001 2.555105e-001 5.727662e-001 1.061138e+000 1.173095e+000 1.201134e+000 9.494343e-001 1.521606e+000 1.519864e+000 1.170539e+000 1.955726e+000 8.451844e-001 1.111294e+000 2.597660e-001
<GCONST> 8.678380e+001
~s "ST_l_4_1"
<MEAN> 25
 3.035803e+000 -1.567194e+000 3.993762e+000 -5.862040e+000 2.804557e-001 2.086132e+000 -1.222912e+001 1.688499e+000 6.578836e+000 -4.031375e-001 8.897641e-001 -1.828203e+000 -3.800105e-001 -7.552077e-001 -1.615076e+000 1.813691e-001 -1.559389e-001 -4.436024e-001 2.913453e+000 1.541084e+000 5.834253e-001 -7.836398e-001 -1.032282e+000 3.760758e-003 8.026670e-001
<VARIANCE> 25
 1.305070e+001 2.503900e+001 6.136145e+001 5.242290e+001 4.667110e+001 4.409709e+001 7.390234e+001 5.281746e+001 4.176321e+001 4.400303e+001 3.916023e+001 2.816484e+001 5.253313e-001 1.613877e+000 3.144451e+000 1.704521e+000 4.609909e+000 3.078015e+000 6.315299e+000 4.629384e+000 2.492701e+000 5.217339e+000 5.376287e+000 3.378227e+000 1.237944e+000
<GCONST> 1.034533e+002
~s "ST_y_2_1"
<MEAN> 25
 4.632943e-001 -3.945336e+000 1.425690e+001 -4.767289e+000 -8.687063e+000 -4.750995e+000 -2.276221e+000 6.610168e+000 -6.821450e+000 2.337599e+000 5.083716e+000 3.031240e+000 -8.249281e-002 -9.855382e-001 2.513879e-001 -9.912407e-001 -6.683336e-001 -5.395477e-001 1.151398e+000 1.234297e+000 -1.304206e-001 3.481427e-001 -2.272375e-001 5.200468e-001 9.701512e-001
<VARIANCE> 25
 1.304509e+001 3.397301e+001 4.206971e+001 1.365026e+001 2.343884e+001 1.704079e+001 3.866999e+001 3.587086e+001 4.721343e+001 5.207905e+001 3.544147e+001 2.421150e+001 7.567734e-001 2.211788e+000 5.370914e+000 2.323259e+000 2.732049e+000 1.604946e+000 4.375698e+000 3.211993e+000 5.527251e+000 3.063679e+000 3.362450e+000 1.701409e+000 1.657674e+000
<GCONST> 9.842017e+001
~s "ST_y_3_1"
<MEAN> 25
 6.371405e-001 -7.147015e+000 1.425815e+001 -7.918113e+000 -9.391259e+000 -6.382191e+000 2.501168e+000 9.817410e+000 -8.409673e+000 4.905923e+000 2.191235e+000 3.139031e+000 4.350501e-002 -1.132482e-001 -5.736856e-002 -2.024156e-001 3.963296e-001 -8.898782e-002 2.026149e-001 2.728088e-001 1.455868e-001 5.980234e-002 -6.627713e-001 2.877865e-001 -2.401452e-002
<VARIANCE> 25
 6.785212e+000 1.071389e+001 2.133485e+001 1.047579e+001 1.924339e+001 1.339684e+001 2.513487e+001 1.784074e+001 2.390065e+001 2.430612e+001 1.580923e+001 1.313091e+001 2.233480e-001 4.835901e-001 1.206636e+000 4.866408e-001 1.221931e+000 5.165589e-001 6.982892e-001 7.581254e-001 1.893076e+000 1.243198e+000 1.876839e+000 6.796874e-001 9.960239e-002
<GCONST> 7.393944e+001
~s "ST_y_4_1"
<MEAN> 25
 2.255180e+000 -8.210961e+000 1.007808e+001 -8.211669e+000 -2.278691e+000 -7.109128e+000 2.381363e+000 9.886655e+000 -8.765942e-001 3.092456e+000 -6.030040e+000 4.518681e+000 2.329100e-001 1.277202e-001 -1.031998e+000 3.272443e-001 1.196231e+000 9.017884e-002 -1.682234e-001 -6.338657e-001 1.266836e+000 -4.198163e-001 -1.109767e+000 9.040524e-002 -5.548097e-001
<VARIANCE> 25
 6.775549e+000 1.270895e+001 2.337195e+001 1.481501e+001 2.204028e+001 1.493431e+001 2.611735e+001 1.739587e+001 3.833506e+001 2.894398e+001 2.056964e+001 1.005121e+001 3.386434e-001 6.799850e-001 1.056681e+000 5.580835e-001 1.308229e+000 8.411164e-001 1.216407e+000 8.149614e-001 1.263131e+000 8.929378e-001 1.535263e+000 7.022393e-001 4.032771e-001
<GCONST> 7.788611e+001
~s "ST_b_2_1"
<MEAN> 25
 5.483916e+000 1.496939e+001 -1.205935e+000 1.410104e+001 1.515756e+000 3.007631e+000 -1.224692e+000 -8.575011e+000 -5.218001e+000 -5.267976e+000 -1.915249e+000 -3.826044e+000 8.697175e-001 -9.410868e-002 8.514407e-001 -2.557668e-001 -3.464302e-001 2.940601e-001 -7.504869e-001 -9.204785e-001 -2.450531e-001 7.052907e-001 5.795194e-001 -6.570792e-001 1.326877e+000
<VARIANCE> 25
 1.591143e+001 4.848516e+001 2.954952e+001 4.333562e+001 2.831639e+001 8.828169e+001 3.471011e+001 3.027109e+001 2.301153e+001 3.402935e+001 2.199895e+001 3.297682e+001 1.879710e+000 4.250346e+000 1.715578e+000 3.520459e+000 1.607030e+000 2.732878e+000 2.467925e+000 3.124272e+000 2.810034e+000 2.545141e+000 3.798100e+000 2.935964e+000 1.905051e+000
<GCONST> 1.002037e+002
~s "ST_b_3_1"
<MEAN> 25
 5.572960e+000 3.775578e+000 -6.184227e-002 2.636679e+000 -1.254249e+000 3.048939e+000 -5.106326e+000 -3.303497e+000 -3.589917e+000 2.109286e+000 4.423751e+000 -3.946202e-001 -4.934291e-001 -3.649453e+000 2.006621e+000 -4.167024e+000 -1.398358e+000 -5.232815e-001 -1.923682e+000 1.729840e+000 -1.589657e-001 3.347945e+000 9.609420e-001 5.230376e-001 3.652539e+000
<VARIANCE> 25
 1.365110e+001 8.670815e+001 6.354213e+001 1.741321e+002 4.446084e+001 4.711912e+001 4.281432e+001 7.733382e+001 3.155318e+001 5.297678e+001 3.001725e+001 3.227984e+001 2.003901e+000 6.839656e+000 4.985449e+000 7.835423e+000 6.146060e+000 4.105660e+000 6.425277e+000 8.855383e+000 6.363561e+000 8.297762e+000 4.511571e+000 3.985939e+000 3.652139e+000
<GCONST> 1.140886e+002
~s "ST_b_4_1"
<MEAN> 25
 6.270755e+000 -2.631886e-001 4.101621e-001 -6.652248e+000 1.360070e+000 1.005078e+000 -6.342990e+000 -2.625424e+000 7.989043e-001 1.034706e+001 1.717654e+000 -3.504179e+000 -3.705052e-001 -8.394546e-001 1.073348e+000 -3.351350e-001 -8.644262e-002 -1.025380e+000 3.066151e-003 1.128171e+000 8.685151e-001 5.369952e-001 -1.076087e+000 -2.951791e-001 6.539304e-001
<VARIANCE> 25
 1.213212e+001 9.960304e+001 3.921456e+001 1.695698e+002 6.226854e+001 2.486586e+001 2.924729e+001 6.745387e+001 6.569374e+001 6.233705e+001 3.182785e+001 3.377161e+001 3.804350e-001 1.166196e+000 1.547845e+000 1.550923e+000 1.921221e+000 2.257489e+000 2.215707e+000 1.056010e+000 3.463465e+000 2.457470e+000 2.982165e+000 2.157072e+000 5.893665e-001
<GCONST> 9.793040e+001
~s "ST_o_2_1"
<MEAN> 25
 1.074262e+000 2.240622e+000 -9.003093e+000 -2.967452e+000 1.685524e-001 7.410765e+000 2.738973e+000 2.900034e-001 -1.525212e+000 -4.262352e-001 1.766920e+000 4.124287e+000 7.799047e-001 2.108891e-002 7.102706e-001 -2.256897e+000 -1.288285e-001 7.661638e-001 -1.614359e-001 -1.605764e-001 -1.518339e-001 3.549612e-001 -2.469582e-001 4.594627e-001 1.254353e+000
<VARIANCE> 25
 2.860652e+001 1.492129e+001 2.104353e+001 2.007448e+002 1.732414e+001 4.442676e+001 1.820609e+001 1.311487e+001 1.217665e+001 1.628563e+001 2.206913e+001 1.862634e+001 1.898399e+000 9.958583e-001 1.842103e+000 8.178223e+000 1.203626e+000 2.412781e+000 1.754561e+000 1.250548e+000 1.584695e+000 1.500027e+000 2.200428e+000 2.065414e+000 2.300174e+000
<GCONST> 9.219598e+001
~s "ST_o_3_1"
<MEAN> 25
 8.601224e+000 1.038135e+001 -3.148469e+000 -9.149674e+000 -3.770128e-001 1.017711e+001 1.204964e+000 -2.966295e+000 -5.615666e+000 -2.020658e+000 -1.268764e+000 5.669041e+000 2.509181e-001 1.079241e+000 9.241062e-002 1.780421e+000 6.146355e-002 -2.950889e-001 7.089143e-002 -3.930748e-001 -5.153515e-002 -5.250680e-001 -2.277611e-001 -2.272705e-001 -6.474720e-001
<VARIANCE> 25
 5.939820e+000 3.951848e+001 1.358702e+001 1.450757e+002 1.511098e+001 2.659308e+001 1.457304e+001 1.441524e+001 1.125548e+001 2.324324e+001 2.561869e+001 1.941715e+001 4.184208e-001 1.286374e+000 1.989099e+000 7.292689e+000 1.617450e+000 1.194917e+000 2.036195e+000 1.123683e+000 8.054737e-001 2.320830e+000 2.544783e+000 1.651945e+000 1.774921e+000
<GCONST> 8.828871e+001
~s "ST_o_4_1"
<MEAN> 25
 8.635023e+000 3.587959e+000 -2.851653e+000 -1.018792e+001 -4.193010e-002 8.812350e+000 2.720905e+000 -7.094668e+000 -2.925155e-001 2.535944e+000 -6.862257e-001 3.862560e+000 -2.953449e-001 -1.116802e+000 -6.783447e-002 1.080866e+000 1.329946e+000 -1.953743e+000 -4.182976e-001 -8.362644e-001 5.915809e-001 8.868706e-001 1.657335e+000 -4.138493e-001 1.329626e+000
<VARIANCE> 25
 1.816495e+001 1.047929e+002 2.352027e+001 2.294629e+002 5.386632e+001 5.660312e+001 3.442227e+001 1.823630e+001 3.741158e+001 5.889368e+001 3.579032e+001 2.077515e+001 1.353346e+000 2.873654e+000 3.622888e+000 1.651683e+001 5.497047e+000 4.328677e+000 6.789824e+000 3.107065e+000 1.694808e+000 3.778386e+000 3.790137e+000 2.732640e+000 2.807495e+000
<GCONST> 1.077611e+002
~s "ST_r_2_1"
<MEAN> 25
 -1.052235e-001 -2.988054e+000 -6.794955e+000 3.642347e-001 2.937514e+000 3.616915e+000 -2.217084e+000 -8.693978e-003 9.019084e+000 -2.661732e+000 -1.911314e+000 -1.035939e-001 1.120166e+000 -4.085699e-001 6.245604e-001 5.213124e-001 -9.411826e-001 1.294217e+000 -1.235780e+000 -4.951361e-001 5.269205e-001 -2.406264e-001 9.567097e-001 -7.444022e-001 3.204882e-001
<VARIANCE> 25
 2.540338e+001 3.592495e+001 7.790622e+001 6.049831e+001 8.512513e+001 3.470702e+001 4.290042e+001 4.625981e+001 3.826781e+001 3.032662e+001 4.505109e+001 6.429351e+001 2.304934e+000 3.763508e+000 3.597879e+000 6.405079e+000 4.358475e+000 2.470896e+000 4.398276e+000 3.602585e+000 2.796717e+000 3.873080e+000 3.987832e+000 5.320484e+000 5.487303e+000
<GCONST> 1.094106e+002
~s "ST_r_3_1"
<MEAN> 25
 6.577456e+000 -6.764394e+000 -1.503331e+000 8.839824e-001 -5.884287e+000 6.690876e+000 -1.034491e+001 -1.381003e+000 1.016901e+001 -3.589933e+000 5.404470e+000 -1.736561e+000 6.001961e-001 -1.174079e+000 1.090405e+000 -4.746024e-001 -8.976563e-001 7.142239e-001 -1.266058e+000 1.173484e+000 -8.818061e-001 3.157271e-001 9.924004e-001 -4.012096e-001 3.873663e-001
<VARIANCE> 25
 1.071775e+001 1.863954e+001 6.093553e+001 2.726320e+001 2.970737e+001 2.943594e+001 2.230902e+001 4.433695e+001 7.157272e+001 2.133646e+001 2.227502e+001 3.898977e+001 8.081849e-001 1.724933e+000 1.466219e+000 4.102492e+000 1.609594e+000 1.534984e+000 2.317401e+000 5.408302e+000 1.686916e+000 2.409283e+000 3.899203e+000 2.158645e+000 1.457805e+000
<GCONST> 9.589659e+001
~s "ST_r_4_1"
<MEAN> 25
 6.863887e+000 -1.266884e+001 2.544920e+000 -6.096604e+000 -2.642674e+000 8.228231e+000 -1.163876e+001 9.475456e+000 4.947191e+000 -6.648334e-001 1.153417e+000 -5.827452e+000 -3.923838e-001 -3.362595e-001 6.776105e-001 -1.207273e+000 7.841128e-001 -3.575261e-001 6.675715e-001 1.191806e+000 -1.309548e+000 4.107671e-001 -1.521671e+000 4.612862e-002 5.158305e-001
<VARIANCE> 25
 8.719152e+000 3.234695e+001 4.017675e+001 2.297007e+001 3.619432e+001 5.090301e+001 2.598808e+001 5.876469e+001 3.623577e+001 1.894416e+001 3.640392e+001 2.495462e+001 6.246694e-001 1.525789e+000 1.270365e+000 1.275509e+000 2.089016e+000 1.767033e+000 2.792126e+000 3.545613e+000 1.813961e+000 2.538457e+000 2.415313e+000 1.832109e+000 5.544348e-001
<GCONST> 9.306743e+001
~s "ST_h_2_1"
<MEAN> 25
 -5.385586e+000 -3.932051e+000 -1.413429e+001 5.714840e+000 7.924410e+000 6.549901e+000 3.759251e+000 -3.893740e+000 1.698428e+000 -7.622881e+000 5.484330e+000 3.988576e+000 -1.314328e-001 -9.256068e-001 -1.185192e-002 -1.218330e-001 7.211311e-001 3.971752e-001 1.266707e-001 -7.494410e-001 2.287775e-001 -3.397569e-001 -1.506347e-001 4.673968e-001 5.724099e-001
<VARIANCE> 25
 1.302673e+001 4.708794e+001 4.415859e+001 4.657422e+001 2.988237e+001 3.087610e+001 4.436454e+001 4.019005e+001 3.347093e+001 2.598556e+001 2.273719e+001 3.089381e+001 6.169460e-001 1.445050e+000 2.374570e+000 1.790563e+000 2.047448e+000 1.642809e+000 3.477558e+000 2.590971e+000 2.194582e+000 1.871622e+000 2.209987e+000 1.916852e+000 6.060341e-001
<GCONST> 9.473040e+001
~s "ST_h_3_1"
<MEAN> 25
 -1.387146e-001 -6.961915e+000 -5.438133e+000 -6.839975e-002 1.301068e+001 9.346299e+000 6.954565e+000 -7.305615e+000 2.859380e+000 -5.865689e+000 -1.389735e+000 4.236817e+000 1.862299e+000 -1.246587e-001 1.588789e+000 -2.068139e+000 -1.738327e-002 1.324804e-001 -2.925856e-001 3.360739e-001 -1.313956e+000 1.225693e+000 -9.577433e-001 -1.163378e+000 2.799021e+000
<VARIANCE> 25
 2.978825e+001 2.902009e+001 3.602045e+001 6.844901e+001 4.448077e+001 3.066154e+001 2.108223e+001 2.410753e+001 3.287993e+001 2.736034e+001 1.989658e+001 2.772335e+001 2.547583e+000 3.051128e+000 1.802080e+000 4.327776e+000 1.861872e+000 1.533744e+000 2.083158e+000 1.691997e+000 1.995893e+000 1.815257e+000 1.622157e+000 1.677371e+000 2.637352e+000
<GCONST> 9.675482e+001
~s "ST_h_4_1"
<MEAN> 25
 3.469741e+000 -1.004140e+001 -3.382383e+000 -9.912951e+000 1.118784e+001 8.871979e+000 8.676876e+000 -8.846782e+000 1.825765e+000 -1.725094e+000 -1.151413e+000 -1.529513e+000 -4.432620e-002 -4.648020e-002 -4.260455e-002 -5.575723e-002 -1.215634e-001 -1.748761e-001 -1.455372e-001 2.029633e-001 1.226033e-001 9.002286e-002 -2.789369e-001 -2.223611e-001 -5.953773e-003
<VARIANCE> 25
 3.758105e+000 1.373628e+001 1.278455e+001 2.899967e+001 1.763906e+001 2.124250e+001 2.939170e+001 2.203847e+001 1.935804e+001 1.162467e+001 1.426337e+001 3.733952e+001 1.724353e-001 6.991237e-001 4.541117e-001 1.443347e+000 5.450280e-001 4.629112e-001 7.554680e-001 7.208229e-001 9.227394e-001 6.780598e-001 5.695755e-001 1.628113e+000 6.278558e-001
<GCONST> 7.436716e+001
~s "ST_k_2_1"
<MEAN> 25
 -5.284179e+000 -5.002803e-001 -7.078898e+000 5.817028e+000 -1.348062e+000 -3.811357e+000 -1.020983e+000 4.291149e-002 -2.725583e+000 3.965363e-001 4.075408e+000 -2.581648e+000 3.732023e-001 -1.667346e+000 3.764395e-001 -1.488950e+000 1.038338e+000 6.041387e-003 -1.037826e+000 6.267979e-001 -7.121114e-001 7.434744e-001 -4.466731e-001 -2.845194e-001 3.096803e+000
<VARIANCE> 25
 2.572912e+001 5.279249e+001 8.606447e+001 3.520989e+001 8.345071e+001 6.105193e+001 5.131563e+001 3.419555e+001 4.675542e+001 4.431694e+001 3.480418e+001 2.941430e+001 4.936929e+000 5.340170e+000 1.822437e+001 5.610480e+000 8.731810e+000 5.436773e+000 6.500802e+000 4.398062e+000 6.884009e+000 5.471986e+000 3.522286e+000 2.925038e+000 3.106997e+000
<GCONST> 1.139585e+002
~s "ST_k_3_1"
<MEAN> 25
 1.756779e+000 -7.416534e+000 4.546328e+000 -6.672004e+000 -1.554012e+000 -3.956884e+000 -3.633215e+000 7.119498e+000 -5.942814e+000 5.525910e+000 7.957913e-001 -2.819494e+000 1.613169e+000 -1.980760e+000 2.461108e+000 -3.550278e+000 3.528050e-001 -2.303375e-001 4.077554e-001 1.359165e+000 -1.217466e-001 1.471120e+000 -9.174613e-001 5.774738e-001 2.428577e+000
<VARIANCE> 25
 1.744265e+001 1.829943e+001 6.932038e+001 2.592138e+001 3.777147e+001 5.857949e+001 4.237507e+001 2.589252e+001 3.859985e+001 2.763838e+001 1.832367e+001 2.358509e+001 1.854691e+000 2.444687e+000 6.071199e+000 2.578200e+000 1.837518e+000 9.840944e-001 4.379779e+000 2.621954e+000 2.177986e+000 5.547294e+000 2.099820e+000 1.238032e+000 2.113550e+000
<GCONST> 9.844128e+001
~s "ST_k_4_1"
<MEAN> 25
 8.117598e-002 -8.772589e-001 4.672285e+000 -1.882404e+000 -5.303864e+000 -1.563592e+000 -2.160191e-001 4.556812e-001 -4.928542e+000 3.848630e+000 1.624087e+000 -1.434112e+000 1.333922e-001 1.970504e-001 2.351438e-001 -2.862036e-001 4.023263e-001 1.988797e-002 7.189155e-002 -1.094173e-001 3.613769e-001 1.313615e-001 -3.198647e-001 2.389749e-002 1.983420e-001
<VARIANCE> 25
 3.619607e+001 5.772663e+001 1.227272e+002 6.229263e+001 6.642549e+001 3.446571e+001 4.853517e+001 6.264200e+001 5.786045e+001 4.097821e+001 4.006999e+001 2.852269e+001 1.592295e+000 3.900442e+000 5.619087e+000 3.872781e+000 2.400060e+000 1.425858e+000 2.833499e+000 2.917384e+000 2.649628e+000 3.540652e+000 2.782927e+000 2.018786e+000 3.155103e+000
<GCONST> 1.064642e+002
~s "ST_n_2_1"
<MEAN> 25
 5.613928e+000 1.186135e-001 4.356120e+000 3.199388e+000 -1.228899e+000 -7.318986e-001 -4.797243e+000 -5.618821e+000 -3.727417e-001 3.627603e+000 -3.156845e-001 -1.737053e-001 2.865780e-001 1.242566e+000 5.409920e-001 1.784969e+000 2.056834e-001 -1.259221e+000 -6.113873e-001 -2.307965e+000 3.295854e-001 1.372426e+000 -5.533679e-001 -4.453350e-002 -9.654963e-001
<VARIANCE> 25
 8.237395e+000 3.213886e+001 3.599115e+001 2.675616e+001 4.400847e+001 3.856324e+001 4.996219e+001 7.200942e+001 3.833285e+001 3.931533e+001 2.700772e+001 2.347718e+001 5.052777e-001 1.645597e+000 2.548827e+000 2.499695e+000 2.570740e+000 2.523514e+000 2.598304e+000 4.010486e+000 2.226674e+000 2.441883e+000 2.892025e+000 1.996904e+000 1.002306e+000
<GCONST> 9.712054e+001
~s "ST_n_3_1"
<MEAN> 25
 5.521184e+000 2.387357e+000 7.561977e+000 5.180321e+000 -1.913002e+000 -3.679761e+000 -6.641327e+000 -7.878738e+000 -8.169329e-001 7.495014e+000 -2.461720e+000 -6.059088e-001 2.044257e-003 4.847685e-003 8.336397e-002 1.769027e-001 8.977635e-002 -2.118419e-001 9.027773e-003 -9.059418e-002 2.481178e-002 3.139316e-001 -4.433556e-001 2.983122e-002 -1.567828e-001
<VARIANCE> 25
 5.979213e+000 1.859880e+001 2.162205e+001 1.837103e+001 3.361892e+001 2.820473e+001 4.441813e+001 2.566752e+001 5.119760e+001 3.930483e+001 2.866266e+001 2.267137e+001 1.879066e-001 4.922126e-001 7.289357e-001 5.748914e-001 7.136413e-001 8.474319e-001 1.239816e+000 9.785184e-001 1.025332e+000 1.309147e+000 9.991713e-001 7.703105e-001 3.516176e-001
<GCONST> 8.004731e+001
~s "ST_n_4_1"
<MEAN> 25
 4.383837e+000 5.275253e+000 2.210361e+000 8.456155e+000 -3.245206e+000 -1.982714e-001 -2.661015e+000 -6.656049e+000 1.149674e+000 3.234746e+000 -4.281847e+000 3.185989e-002 -3.053743e-001 4.490528e-001 -9.478587e-001 9.349894e-002 -4.087691e-002 6.277851e-001 1.590336e-001 3.890678e-001 1.133915e-001 -1.232158e+000 3.639238e-001 2.045614e-002 -6.980450e-001
<VARIANCE> 25
 9.381258e+000 2.759799e+001 3.350197e+001 1.951040e+001 3.263235e+001 4.170822e+001 3.202250e+001 3.463219e+001 3.044869e+001 4.246894e+001 3.231880e+001 2.077762e+001 4.258313e-001 1.880899e+000 1.548533e+000 1.731123e+000 1.719710e+000 2.344544e+000 2.115865e+000 3.307063e+000 2.035641e+000 3.009052e+000 2.284919e+000 1.828838e+000 1.553607e+000
<GCONST> 9.367442e+001
~s "ST_n_4_2"
<MEAN> 25
 4.320603e+000 -1.653718e+000 3.176600e+000 2.315406e+000 1.006140e+000 1.803550e-001 -8.112760e+000 -4.470191e+000 1.497637e+000 2.470684e+000 -4.715891e-001 -1.486845e+000 -3.197959e-001 -2.155729e+000 -1.097085e+000 -2.126845e+000 2.932720e-001 1.414433e+000 3.588067e-001 4.097620e+000 5.712154e-001 -3.204217e+000 -1.438294e-001 -4.305816e-001 1.593498e+000
<VARIANCE> 25
 7.876481e+000 2.626817e+001 3.013508e+001 3.376425e+001 2.795191e+001 4.332817e+001 3.138800e+001 6.983770e+001 3.487656e+001 6.676041e+001 2.251021e+001 2.658210e+001 2.957372e-001 1.164072e+000 1.367628e+000 2.854450e+000 3.038178e+000 2.717232e+000 2.233582e+000 3.976858e+000 3.003078e+000 2.422540e+000 2.342304e+000 3.079584e+000 4.621985e-001
<GCONST> 9.492247e+001
~s "ST_d_2_1"
<MEAN> 25
 1.700682e+000 7.688018e+000 -5.364057e+000 1.129174e+001 2.605668e+000 -1.512883e+000 -8.503120e-002 -2.886776e+000 4.709675e+000 -5.835911e-001 -1.861984e+000 2.122203e+000 -2.491636e-001 4.093390e-001 2.253729e-001 1.020897e+000 4.079718e-001 -2.257979e-001 1.636968e-001 7.601263e-002 1.581364e-001 -5.810768e-001 -3.098811e-001 -1.133962e-001 -2.450955e-001
<VARIANCE> 25
 4.154852e+001 2.533591e+001 4.047913e+001 2.915876e+001 6.116952e+001 3.036060e+001 5.514168e+001 4.904296e+001 5.488824e+001 4.189729e+001 5.786864e+001 2.959285e+001 8.494977e-001 1.765409e+000 2.548270e+000 1.944556e+000 3.865974e+000 2.412304e+000 3.065388e+000 3.408415e+000 3.635025e+000 4.933517e+000 4.109331e+000 2.388312e+000 4.536835e-001
<GCONST> 1.015603e+002
~s "ST_d_3_1"
<MEAN> 25
 5.336769e+000 1.393636e+001 2.671986e+000 1.500660e+001 -9.312125e-001 -1.854449e+000 -5.413071e-001 -6.189110e+000 -1.334997e+000 -2.396377e+000 -5.681091e+000 -4.036130e+000 3.682241e-002 -2.415028e-001 3.198817e-001 -2.081558e-001 -2.186309e-001 -5.267498e-001 -1.191831e-001 -1.822953e-001 -1.063126e-001 -1.276974e+000 1.078364e+000 -3.454197e-001 2.037750e+000
<VARIANCE> 25
 2.188844e+001 2.997820e+001 2.608585e+001 2.308544e+001 4.795164e+001 4.126245e+001 3.307222e+001 4.655848e+001 3.189112e+001 4.422354e+001 2.630210e+001 2.640054e+001 6.446232e+000 4.358848e+000 3.690731e+000 2.367077e+000 5.644567e+000 5.056334e+000 3.911688e+000 5.549761e+000 5.486083e+000 5.899518e+000 8.394957e+000 4.542549e+000 2.447039e+000
<GCONST> 1.075034e+002
~s "ST_d_4_1"
<MEAN> 25
 1.051461e+000 3.683400e+000 1.067044e+000 6.887836e+000 -2.120912e+000 -6.124237e+000 -1.894783e+000 -2.739374e+000 4.189424e+000 -6.748102e+000 3.501477e+000 -1.684744e-001 -7.964501e-001 -3.339415e+000 1.141707e+000 -4.123935e+000 -1.372896e+000 -2.225316e+000 -6.107482e-002 2.376584e+000 1.048147e+000 1.159365e+000 1.159596e+000 1.242530e+000 3.686331e+000
<VARIANCE> 25
 1.961199e+001 4.379382e+001 3.126913e+001 7.977464e+001 4.133644e+001 4.786024e+001 6.295666e+001 6.415307e+001 4.905603e+001 5.152344e+001 3.292016e+001 2.911849e+001 1.858966e+000 2.813387e+000 3.128140e+000 4.033225e+000 5.400019e+000 5.361070e+000 5.702793e+000 6.932330e+000 7.886022e+000 4.266548e+000 8.412031e+000 3.932922e+000 2.833091e+000
<GCONST> 1.104070e+002
~s "ST_th_2_1"
<MEAN> 25
 1.731914e+000 3.142073e+000 -9.790275e+000 8.962507e-001 3.041754e+000 2.450164e+000 -2.247817e+000 2.524765e+000 4.173399e+000 -2.250156e+000 -1.864039e+000 -5.188723e+000 -3.942267e-001 3.699873e-001 -9.912959e-001 6.548024e-001 -5.316107e-001 2.506625e-001 2.650763e-001 1.840866e-001 -2.173518e-001 -5.827129e-001 9.323096e-002 4.092135e-002 -1.457372e+000
<VARIANCE> 25
 9.191702e+000 1.655063e+001 4.599035e+001 3.600134e+001 3.252939e+001 3.098943e+001 3.270182e+001 4.251099e+001 3.852828e+001 3.932627e+001 2.557976e+001 3.102450e+001 7.041053e-001 1.547867e+000 1.779594e+000 3.202534e+000 1.826728e+000 2.671630e+000 3.764993e+000 2.915923e+000 2.205808e+000 2.657649e+000 2.361952e+000 1.688246e+000 1.936966e+000
<GCONST> 9.615685e+001
~s "ST_th_3_1"
<MEAN> 25
 -6.487155e+000 4.115872e+000 -9.984490e+000 7.027171e+000 -1.747928e+000 -2.722713e+000 4.011229e+000 -1.232414e+000 3.255126e+000 -7.034835e+000 2.874765e+000 -9.628282e-001 -1.612259e+000 -4.842616e-001 2.993945e-001 6.544570e-001 -9.568247e-001 -1.423097e+000 1.136690e+000 -1.140454e+000 3.029304e-001 -1.206273e+000 9.121259e-001 3.790970e-001 2.133720e+000
<VARIANCE> 25
 3.533126e+001 3.568865e+001 4.656848e+001 4.255454e+001 4.051025e+001 4.565913e+001 4.282740e+001 3.790131e+001 2.731891e+001 3.531308e+001 3.126738e+001 3.796013e+001 3.243216e+000 2.906136e+000 3.922624e+000 3.952583e+000 3.906165e+000 4.580404e+000 3.609249e+000 3.455655e+000 3.436276e+000 3.518602e+000 3.558291e+000 3.392187e+000 6.554599e+000
<GCONST> 1.067999e+002
~s "ST_th_4_1"
<MEAN> 25
 -4.950032e+000 9.955973e-002 -5.023403e+000 1.474674e+000 -2.764581e+000 -6.108670e+000 3.717612e-001 -2.166094e+000 6.129557e+000 -6.561456e+000 1.785803e+000 -3.287449e+000 2.935016e+000 -1.814185e+000 3.531148e+000 -4.188063e+000 1.610976e+000 1.822644e-001 -3.022502e+000 1.550416e+000 1.506672e-001 2.623209e+000 -2.018446e+000 -4.806797e-001 3.439854e+000
<VARIANCE> 25
 4.037887e+001 3.042167e+001 4.335391e+001 9.035422e+001 3.522394e+001 2.484593e+001 6.436164e+001 2.803001e+001 2.362772e+001 4.482921e+001 2.914667e+001 2.502713e+001 2.133253e+000 3.155117e+000 5.058639e+000 5.860295e+000 5.862169e+000 3.454562e+000 3.369746e+000 3.801679e+000 5.551875e+000 3.253195e+000 5.381729e+000 2.646624e+000 3.580019e+000
<GCONST> 1.068432e+002
~s "ST_g_2_1"
<MEAN> 25
 1.286613e+000 1.032580e+001 1.571132e+000 9.346442e+000 -4.381474e+000 -3.094312e+000 3.458454e+000 -4.763291e+000 -2.117859e+000 3.095401e+000 4.539318e+000 -7.357863e+000 3.009281e-001 1.254265e-001 -9.011392e-002 6.758707e-001 -4.288507e-001 -2.248141e-001 6.424986e-001 -8.166556e-001 -5.949992e-001 1.761609e-001 5.053288e-001 -2.599811e-001 1.036961e-002
<VARIANCE> 25
 2.484018e+001 1.986115e+001 3.105858e+001 1.855997e+001 3.079667e+001 1.903452e+001 3.204131e+001 5.484974e+001 2.618814e+001 2.293063e+001 2.070458e+001 1.299617e+001 5.882450e-001 6.341460e-001 9.669024e-001 7.266659e-001 1.818849e+000 8.993549e-001 1.946856e+000 2.774819e+000 2.205558e+000 1.770595e+000 1.482615e+000 1.794376e+000 3.237529e-001
<GCONST> 8.639599e+001
~s "ST_g_3_1"
<MEAN> 25
 1.742604e+000 7.360607e+000 -4.783267e+000 1.025373e+001 -3.535166e+000 1.386234e+000 5.440572e+000 -9.262057e+000 1.092358e+000 2.218277e+000 -1.130388e-001 -4.377278e+000 7.612906e-002 -4.613181e-001 1.496744e-001 -2.819574e-001 -2.824434e-001 6.191231e-002 4.427225e-002 -7.336181e-002 -4.544970e-001 -2.088196e-001 4.461694e-001 -5.161104e-001 5.645325e-001
<VARIANCE> 25
 2.859999e+001 4.956270e+001 4.653328e+001 4.330561e+001 2.471081e+001 4.105728e+001 3.464592e+001 3.113102e+001 7.795013e+001 3.614575e+001 3.507714e+001 2.809260e+001 1.728715e+000 2.500490e+000 4.188188e+000 2.158340e+000 3.894800e+000 2.842592e+000 3.738798e+000 2.537816e+000 4.170575e+000 2.360243e+000 3.090259e+000 2.731902e+000 1.208379e+000
<GCONST> 1.024836e+002
~s "ST_g_4_1"
<MEAN> 25
 1.154008e+000 2.906147e+000 2.982930e+000 7.532012e+000 -5.062430e+000 -1.806062e+000 -4.929495e-001 -7.960129e-001 -5.469972e+000 5.193473e-001 6.729717e+000 -7.157985e+000 -9.413117e-001 -2.061725e+000 1.746174e+000 -2.256078e+000 -3.618213e-001 4.622672e-001 -1.523792e+000 2.040163e+000 1.890317e-002 1.330856e-001 -2.307374e-001 9.812493e-001 2.577073e+000
<VARIANCE> 25
 2.897338e+001 3.473280e+001 7.149956e+001 5.661555e+001 4.519628e+001 3.024309e+001 7.951331e+001 5.584872e+001 6.920895e+001 3.665471e+001 2.337343e+001 4.221144e+001 2.980297e+000 2.524445e+000 6.096975e+000 6.728151e+000 4.117073e+000 3.497403e+000 8.591637e+000 7.467467e+000 5.573745e+000 6.411761e+000 4.362509e+000 3.530447e+000 1.696947e+000
<GCONST> 1.109189e+002
~s "ST_t_2_1"
<MEAN> 25
 -6.240757e-001 -2.746325e+000 -5.430318e+000 4.388793e+000 -3.746854e+000 -1.630508e-001 -2.077064e+000 5.540891e+000 2.740869e+000 -4.749641e+000 2.731030e+000 -5.135270e+000 1.059258e-001 -1.026530e+000 1.484845e+000 -1.388771e+000 9.457916e-002 -7.855543e-001 -7.439973e-001 1.198430e+000 -2.248340e-002 4.282155e-001 -2.689969e-001 1.412810e-001 1.869485e+000
<VARIANCE> 25
 2.437683e+001 4.057957e+001 6.533594e+001 6.207937e+001 3.129633e+001 6.289169e+001 4.707126e+001 5.986230e+001 3.916594e+001 3.742637e+001 3.925515e+001 2.188483e+001 3.002450e+000 4.738579e+000 6.432279e+000 7.082652e+000 3.723590e+000 5.532295e+000 4.690875e+000 5.754859e+000 3.542070e+000 6.332699e+000 5.489778e+000 2.198856e+000 1.183064e+001
<GCONST> 1.115935e+002
~s "ST_t_3_1"
<MEAN> 25
 2.549325e+000 -9.520133e+000 6.493331e+000 -8.212806e+000 -7.235717e-001 -7.790582e+000 -2.501911e+000 1.220435e+001 2.754666e+000 3.737584e+000 -4.381199e+000 -6.428246e-001 -7.366179e-003 2.954736e-001 -2.435505e-001 1.588755e-001 2.933346e-001 -3.723678e-001 7.737697e-001 -1.465498e-001 2.912717e-001 3.525733e-001 -5.013366e-001 4.226339e-001 -5.954739e-001
<VARIANCE> 25
 4.462809e+000 9.345186e+000 2.410620e+001 1.748173e+001 1.172614e+001 2.039857e+001 1.680194e+001 1.638097e+001 1.704173e+001 9.885809e+000 1.683815e+001 1.443934e+001 1.961054e-001 6.415198e-001 7.335035e-001 8.772271e-001 6.523809e-001 8.927462e-001 1.055167e+000 9.256025e-001 7.812327e-001 1.098426e+000 1.031633e+000 6.741980e-001 5.857015e-001
<GCONST> 7.330730e+001
~s "ST_t_4_1"
<MEAN> 25
 -7.940248e-001 -9.551833e-001 -2.708300e+000 2.173050e-001 -2.068784e+000 -7.821321e+000 1.631668e+000 8.665520e+000 6.516295e+000 5.491700e-002 -2.472063e+000 -8.842318e-001 -4.852622e-001 6.530054e-001 -6.287138e-001 5.281253e-001 2.474678e-001 7.635351e-001 2.345278e-001 -3.786478e-001 -2.891487e-001 -9.366910e-001 1.935219e-001 6.056334e-002 -1.089249e+000
<VARIANCE> 25
 2.781027e+001 3.230036e+001 3.683810e+001 3.341017e+001 2.798621e+001 5.252196e+001 3.213618e+001 3.762619e+001 1.877388e+001 3.057978e+001 3.278098e+001 1.521567e+001 1.010247e+000 1.961784e+000 2.067650e+000 1.975853e+000 3.569951e+000 3.375581e+000 1.630542e+000 2.837653e+000 2.054618e+000 2.280396e+000 2.031981e+000 1.576232e+000 1.844010e+000
<GCONST> 9.625131e+001
~s "ST_ao_2_1"
<MEAN> 25
 4.557307e+000 1.315136e+000 1.692650e+000 -4.657552e+000 -3.030872e+000 9.442111e+000 -4.645314e+000 -6.694533e+000 4.126144e+000 1.673888e-001 2.540902e+000 2.239451e+000 7.866009e-001 -9.290270e-001 1.341965e+000 -1.386734e+000 -6.366261e-001 5.511607e-001 -1.096486e+000 -1.006181e+000 -1.392099e-001 1.789153e+000 6.952591e-001 -3.011415e-001 1.015154e+000
<VARIANCE> 25
 3.299419e+001 3.586873e+001 3.345609e+001 8.020154e+001 2.705409e+001 3.390112e+001 1.043492e+002 3.568092e+001 1.215545e+002 5.031369e+001 1.072758e+002 2.834858e+001 1.996204e+000 3.441013e+000 2.520657e+000 1.120392e+001 1.984978e+000 2.464109e+000 2.989064e+000 5.033699e+000 6.318464e+000 2.689261e+000 6.873239e+000 3.171172e+000 4.053381e+000
<GCONST> 1.095805e+002
~s "ST_ao_3_1"
<MEAN> 25
 6.755049e+000 -2.515796e+000 3.715082e+000 -7.042630e+000 4.501151e-001 4.666175e+000 -9.115647e+000 -9.026642e+000 5.781270e+000 4.810362e+000 1.538752e+000 -7.037318e-001 1.784596e-001 1.251863e-001 -1.142413e+000 -3.701431e-001 1.317158e+000 -1.148687e+000 9.079795e-001 3.190858e-001 1.688045e-001 8.654699e-001 -4.989138e-001 1.214676e-001 1.552843e-001
<VARIANCE> 25
 1.106905e+001 1.452204e+001 5.405709e+001 3.045531e+001 3.398497e+001 3.780197e+001 7.445238e+001 7.382457e+001 7.710719e+001 2.431429e+001 6.746891e+001 4.232460e+001 3.932174e-001 2.667999e+000 2.264976e+000 5.738648e+000 6.162588e+000 3.436242e+000 3.206385e+000 4.283452e+000 2.850128e+000 1.732475e+000 2.042510e+000 1.331120e+000 1.717913e+000
<GCONST> 1.011202e+002
~s "ST_ao_4_1"
<MEAN> 25
 7.008408e+000 1.488444e+000 -1.490708e+000 -1.188981e+001 3.774838e+000 4.146449e+000 -4.814846e+000 -3.464439e+000 -7.923050e-001 8.838403e+000 2.628258e+000 4.456539e-001 3.817783e-002 4.880133e-001 -3.004615e-001 6.265293e-001 -9.970323e-002 -6.866769e-002 1.503655e-001 1.164162e-001 -1.922639e-001 -2.244715e-001 -4.681678e-002 3.768907e-003 -6.622485e-001
<VARIANCE> 25
 4.084164e+000 2.295351e+001 1.998893e+001 7.217364e+001 1.341681e+001 2.055217e+001 1.022628e+002 4.352483e+001 5.603279e+001 2.618770e+001 3.070369e+001 2.621549e+001 2.886652e-001 8.190939e-001 1.150113e+000 3.324291e+000 9.406167e-001 1.722245e+000 1.651141e+000 1.712703e+000 2.241277e+000 1.035572e+000 1.499704e+000 1.560430e+000 9.453136e-001
<GCONST> 8.882109e+001
~s "ST_sil_2_1"
<MEAN> 25
 -4.225848e+000 5.622494e+000 -7.565702e+000 1.068573e+001 3.462206e+000 1.188558e+000 4.652393e+000 1.821516e+000 4.185006e+000 -4.593609e+000 9.189924e-001 3.453128e+000 -2.252140e-002 8.358859e-002 -2.053014e-001 3.995683e-001 -1.425993e-002 1.299114e-001 7.544543e-002 -2.224988e-001 -4.959926e-002 -4.850037e-003 2.395851e-001 -3.331151e-001 8.537639e-002
<VARIANCE> 25
 3.457438e+001 6.918656e+001 6.874994e+001 6.851155e+001 7.736500e+001 5.837997e+001 3.397480e+001 4.896198e+001 3.401908e+001 3.702404e+001 3.652349e+001 3.190058e+001 2.250148e+000 2.164417e+000 1.588074e+000 2.999441e+000 1.633058e+000 2.819086e+000 3.056412e+000 2.751279e+000 2.897928e+000 2.476027e+000 2.874210e+000 2.155284e+000 2.215146e+000
<GCONST> 1.036055e+002
~s "silst"
<MEAN> 25
 -5.126966e+000 4.036370e+000 -6.902500e+000 9.076871e+000 1.720123e+000 1.111753e+000 3.757615e+000 -2.807600e+000 2.710023e+000 -4.808589e+000 2.386262e-001 2.217424e+000 4.446031e-001 -2.255532e-001 5.223809e-001 -3.998624e-001 2.711345e-001 1.874695e-001 -2.049163e-001 -4.004416e-001 -3.395057e-001 1.283240e-001 -8.070809e-002 -2.079615e-001 8.780838e-001
<VARIANCE> 25
 3.148767e+001 3.841448e+001 5.658967e+001 4.543395e+001 5.293119e+001 6.119053e+001 5.385035e+001 4.626309e+001 5.085838e+001 3.734594e+001 3.564475e+001 3.435407e+001 3.186825e+000 4.144522e+000 4.536895e+000 5.367098e+000 4.341578e+000 4.443301e+000 4.326615e+000 3.862032e+000 4.425530e+000 3.459000e+000 3.035843e+000 3.173010e+000 4.464584e+000
<GCONST> 1.094988e+002
~s "ST_sil_3_1"
<MEAN> 25
 -5.081407e+000 3.975034e+000 -6.691576e+000 9.245719e+000 1.616457e+000 1.212963e+000 3.838566e+000 -2.770048e+000 2.688737e+000 -4.884087e+000 2.101531e-001 2.296485e+000 3.719924e-001 -2.291341e-001 4.537058e-001 -3.643879e-001 2.629601e-001 1.679186e-001 -2.105629e-001 -3.624303e-001 -3.366263e-001 9.991569e-002 -8.154135e-002 -1.795766e-001 7.766486e-001
<VARIANCE> 25
 3.166209e+001 3.940701e+001 5.610786e+001 4.540130e+001 5.134475e+001 5.899705e+001 5.372595e+001 4.641747e+001 4.949958e+001 4.008842e+001 3.615837e+001 3.442129e+001 3.030556e+000 4.200560e+000 4.281816e+000 5.187847e+000 4.038517e+000 4.254049e+000 4.196659e+000 3.877290e+000 4.139545e+000 3.733240e+000 2.970628e+000 3.099464e+000 4.371610e+000
<GCONST> 1.091869e+002
~s "ST_sil_4_1"
<MEAN> 25
 -6.542994e+000 3.370036e+000 -5.096228e+000 7.719515e+000 -3.518683e-001 -1.847962e-001 4.768080e+000 -2.312898e+000 1.008827e+000 -7.055102e+000 3.349379e+000 2.214044e-001 -8.951346e-002 -2.641625e-001 -3.968907e-001 6.058316e-002 2.039678e-001 1.329591e-001 -5.577707e-003 1.573548e-002 -2.591549e-001 -1.444520e-001 1.557956e-001 8.310746e-002 3.143738e-002
<VARIANCE> 25
 3.778886e+001 5.483011e+001 6.301752e+001 6.536041e+001 5.587220e+001 8.213778e+001 4.303796e+001 5.103230e+001 3.256401e+001 5.094131e+001 3.257721e+001 1.900799e+001 7.114623e-001 1.442195e+000 1.698959e+000 2.846608e+000 1.882990e+000 2.583096e+000 1.998266e+000 2.061696e+000 1.983591e+000 3.028692e+000 2.025160e+000 1.348757e+000 1.213892e+000
<GCONST> 9.946611e+001
~s "ST_iy_2_1"
<MEAN> 25
 -1.078567e+000 7.714226e-001 1.999787e+001 -5.346101e+000 -1.104343e+001 8.023695e-001 -7.895044e+000 1.951271e+000 -1.537912e+001 4.024657e+000 2.329939e+000 4.833672e+000 1.183481e-001 2.057141e-001 -6.044481e-002 5.927297e-002 -2.248866e-001 5.016287e-001 -1.994458e-001 -3.341988e-002 -1.384673e-001 7.130691e-002 1.003346e-001 -5.134799e-002 -1.464008e-001
<VARIANCE> 25
 3.911182e+000 1.342686e+001 1.339635e+001 8.455494e+000 4.611450e+000 1.016083e+001 9.825625e+000 4.566535e+001 8.242910e+000 7.913627e+000 1.180520e+001 1.009490e+001 1.566528e-001 4.188626e-001 6.711062e-001 5.542034e-001 4.345292e-001 8.692133e-001 6.280580e-001 1.143165e+000 9.118182e-001 4.618135e-001 1.314992e+000 7.733695e-001 1.452508e-001
<GCONST> 6.575441e+001
~s "ST_j_2_1"
<MEAN> 25
 -1.932004e+000 1.645162e+001 3.876655e+000 6.893154e+000 3.984267e-001 -3.931402e+000 3.201928e+000 -8.697468e+000 1.409166e+000 -4.595575e+000 2.275771e+000 -1.708180e+000 -3.324340e-001 -1.495475e+000 1.678019e+000 -1.534975e+000 -6.683731e-001 -7.344213e-001 -5.455660e-001 7.191080e-001 -6.625802e-001 -2.486020e-001 1.504953e+000 5.191700e-001 2.288867e+000
<VARIANCE> 25
 6.467277e+001 5.802979e+001 4.372303e+001 5.286784e+001 5.372638e+001 3.066491e+001 4.237554e+001 7.705978e+001 3.021626e+001 5.546408e+001 6.429499e+001 1.468080e+001 7.733685e+000 9.522426e+000 4.270896e+000 2.392601e+000 5.226545e+000 3.526041e+000 4.577868e+000 1.303546e+001 4.294315e+000 6.044425e+000 5.090359e+000 1.663195e+000 1.933640e+000
<GCONST> 1.113734e+002
~s "ST_iy_3_1"
<MEAN> 25
 4.980000e+000 1.931166e+000 8.026976e+000 2.170236e+000 -3.666510e+000 1.081797e+000 -5.390016e+000 -1.164227e-001 -8.820518e+000 2.336619e+000 3.808019e+000 -3.129854e+000 3.065447e-001 3.431210e-001 -1.082145e+000 9.785044e-001 8.880584e-001 -4.521143e-001 2.327297e-001 -6.721354e-001 9.131343e-001 -3.671461e-001 -3.694266e-001 -4.905072e-001 -9.767770e-001
<VARIANCE> 25
 1.023322e+001 9.826876e+000 1.893701e+001 3.239532e+001 2.812178e+001 2.011197e+001 1.744657e+001 2.772240e+001 1.694748e+001 3.888710e+001 2.582998e+001 2.281937e+001 6.948236e-001 4.991470e-001 1.319977e+000 2.515583e+000 2.210157e+000 1.661798e+000 1.359943e+000 1.329826e+000 2.254646e+000 3.966166e+000 2.828926e+000 1.807152e+000 5.741916e-001
<GCONST> 8.766826e+001
~s "ST_j_3_1"
<MEAN> 25
 1.019171e+000 -5.620194e+000 1.178519e+001 -7.511185e+000 -6.357484e+000 -7.431502e+000 -2.908406e+000 7.160298e+000 -5.138627e-001 -3.233918e-001 1.746946e+000 4.633291e+000 7.767196e-001 -2.462349e+000 -2.239433e+000 -1.490160e+000 6.898280e-001 6.647897e-001 8.312432e-001 2.046779e+000 2.199471e+000 6.965705e-001 -3.487579e+000 -2.297462e-001 1.517418e+000
<VARIANCE> 25
 5.522748e+000 2.891961e+001 3.427044e+001 1.914219e+001 1.697162e+001 8.321224e+000 4.045390e+001 3.457285e+001 7.748110e+001 3.453262e+001 4.993058e+001 1.964308e+001 4.761573e-001 2.304824e+000 3.477544e+000 1.126705e+000 2.564522e+000 1.785824e+000 2.075394e+000 2.673975e+000 2.008922e+000 2.858947e+000 1.339842e+000 1.638653e+000 6.989218e-001
<GCONST> 9.135063e+001
~s "ST_iy_4_1"
<MEAN> 25
 1.935307e-001 5.595985e+000 5.447826e+000 7.337608e-001 -4.524959e+000 3.138104e+000 3.390925e+000 -4.042319e+000 -3.168244e+000 2.070954e+000 -2.696641e-001 -9.933627e-001 -3.309135e-001 4.609574e-002 -1.815665e-001 4.350028e-003 1.545840e-001 1.295896e-001 4.267505e-001 5.783588e-002 4.190986e-001 -8.470158e-002 -1.493887e-001 2.793393e-001 -2.704739e-001
<VARIANCE> 25
 7.936072e+000 3.418870e+001 6.659508e+001 1.116015e+002 3.368238e+001 1.742224e+001 3.411353e+001 3.244504e+001 4.667505e+001 1.010127e+002 2.631922e+001 1.344006e+001 3.683828e-001 8.476512e-001 1.835052e+000 2.898587e+000 2.044141e+000 2.261417e+000 1.393079e+000 2.209485e+000 2.376345e+000 1.921337e+000 2.679449e+000 1.767193e+000 6.664443e-001
<GCONST> 9.400518e+001
~s "ST_j_4_1"
<MEAN> 25
 9.186301e-001 -9.195581e+000 -4.103953e+000 -6.747188e+000 4.896986e-001 2.310902e+000 -3.507181e-001 4.746965e+000 1.041677e+001 -5.623835e+000 -8.350272e+000 -1.892935e+000 3.355533e-002 -1.847582e-001 -1.658143e+000 3.197396e-001 1.462327e+000 2.103457e+000 -5.600062e-001 -1.173483e+000 6.605878e-001 -5.802182e-001 -6.112623e-001 -1.418283e+000 2.110636e-001
<VARIANCE> 25
 6.710417e+000 2.382771e+001 5.783289e+001 1.456216e+001 4.166728e+000 4.113389e+001 3.386644e+001 3.812761e+001 3.563453e+001 3.058115e+001 3.792355e+001 2.329815e+001 1.085596e+000 1.882752e+000 5.992626e+000 1.203023e+000 1.669793e+000 9.759676e-001 2.777013e+000 2.843847e+000 2.910835e+000 2.961511e+000 3.307475e+000 2.019130e+000 4.305756e-001
<GCONST> 9.229789e+001
~s "ST_ae_2_1"
<MEAN> 25
 1.557888e+000 -6.100467e+000 2.513324e+000 2.510701e-001 -3.593653e+000 -5.180850e+000 1.254902e+000 5.091625e+000 2.631230e+000 -2.733503e+000 -1.607207e+000 -2.039049e+000 2.813217e-001 -3.179626e+000 1.647434e+000 -3.292277e+000 -1.345491e+000 -4.688148e-001 1.826133e+000 3.499577e+000 -2.612404e-001 -1.124675e+000 -8.695483e-001 8.453529e-001 3.587029e+000
<VARIANCE> 25
 6.783108e+000 7.306850e+001 3.789734e+001 4.521932e+001 4.791715e+001 5.248322e+001 4.585022e+001 8.175675e+001 4.272616e+001 2.216158e+001 5.224466e+001 4.862463e+001 1.631727e+000 3.772923e+000 5.614954e+000 3.125931e+000 5.809957e+000 4.741763e+000 4.546145e+000 6.866167e+000 2.231641e+000 4.592729e+000 2.765676e+000 2.905463e+000 5.473920e+000
<GCONST> 1.079021e+002
~s "ST_ae_3_1"
<MEAN> 25
 1.000707e+000 -8.752089e+000 4.096472e+000 -4.115438e+000 -4.096583e+000 -4.911857e+000 7.113380e+000 1.026485e+001 1.834889e+000 -5.614411e+000 -1.457022e+000 1.289161e+000 -3.371305e-001 -6.529285e-001 4.219920e-001 -1.186703e+000 -1.268815e-001 9.607804e-001 2.005266e+000 9.946327e-001 -1.134349e+000 -9.067776e-001 -5.198178e-001 8.229904e-001 6.995277e-001
<VARIANCE> 25
 7.553033e+000 2.693828e+001 1.916780e+001 1.662674e+001 4.803084e+001 5.095024e+001 6.881269e+001 2.446148e+001 2.601606e+001 1.534038e+001 4.073648e+001 2.852625e+001 3.045761e-001 1.472188e+000 8.234096e-001 1.181537e+000 1.155151e+000 2.566119e+000 1.722521e+000 2.980051e+000 1.951322e+000 1.687193e+000 9.647958e-001 2.576799e+000 8.459520e-001
<GCONST> 8.913277e+001
~s "ST_ae_4_1"
<MEAN> 25
 1.723758e+000 -9.747967e+000 5.544330e+000 -4.736111e+000 -5.207108e+000 -2.464474e+000 8.225666e+000 1.118248e+001 -2.126688e+000 -5.348712e+000 -2.306019e+000 1.312437e+000 1.722336e-001 3.634768e-001 -2.926616e-001 4.356774e-001 2.679318e-001 -1.751065e-001 -4.199117e-001 -2.783933e-001 4.192068e-002 3.800385e-001 9.575155e-002 -2.340961e-001 -5.274149e-001
<VARIANCE> 25
 8.910456e+000 2.653901e+001 2.785471e+001 1.877034e+001 3.780531e+001 4.207619e+001 3.677364e+001 2.379750e+001 2.490610e+001 2.969594e+001 3.511045e+001 1.833917e+001 3.673885e-001 1.128760e+000 1.623463e+000 1.481293e+000 1.091017e+000 1.103495e+000 2.696967e+000 1.402024e+000 1.746724e+000 1.108261e+000 1.495041e+000 1.293075e+000 1.235642e+000
<GCONST> 8.793620e+001
~s "ST_w_2_1"
<MEAN> 25
 7.106525e+000 1.379660e-001 -1.273726e+000 -1.744747e+000 1.097752e+000 4.787390e+000 -2.744924e+000 -4.383065e+000 -2.195621e+000 4.101282e+000 1.106241e-001 -7.297012e-001 9.878789e-001 -8.177497e-001 1.247401e+000 -1.477338e+000 -6.610782e-001 5.473831e-001 -1.149811e+000 -5.391064e-002 -1.174407e+000 7.580221e-001 1.213396e+000 1.210090e-001 1.368448e+000
<VARIANCE> 25
 9.745730e+000 4.020771e+001 3.787083e+001 9.896484e+001 2.171386e+001 3.528891e+001 5.789471e+001 4.011647e+001 3.579310e+001 6.335056e+001 3.071466e+001 1.989861e+001 1.498823e+000 3.620919e+000 4.095019e+000 7.928642e+000 1.200641e+000 2.856745e+000 2.845608e+000 4.482312e+000 3.980185e+000 3.010348e+000 2.944232e+000 1.655193e+000 5.572645e+000
<GCONST> 1.034157e+002
~s "ST_w_3_1"
<MEAN> 25
 7.748967e+000 -7.866352e-001 -8.074473e-001 -1.094410e+001 4.329971e-001 7.248776e+000 -3.081346e-001 -3.609676e+000 -2.977212e+000 3.608582e+000 1.146804e+000 3.210887e+000 -8.010448e-002 -5.200193e-001 2.378271e-001 -9.442684e-001 2.254688e-001 -1.633535e-001 -6.962049e-002 2.123802e-001 2.732494e-001 5.776392e-001 -8.049628e-002 9.696709e-002 6.053250e-001
<VARIANCE> 25
 8.911366e+000 3.318633e+001 3.773666e+001 9.050692e+001 1.667692e+001 2.678365e+001 4.091862e+001 3.400864e+001 3.330079e+001 4.481403e+001 2.119141e+001 3.464948e+001 3.946864e-001 1.796262e+000 1.612709e+000 3.895563e+000 2.240855e+000 1.425975e+000 2.005080e+000 1.840564e+000 2.599054e+000 3.150797e+000 1.795216e+000 3.074941e+000 1.605772e+000
<GCONST> 9.526553e+001
~s "ST_w_4_1"
<MEAN> 25
 6.723096e+000 -4.675529e+000 2.953391e+000 -9.635652e+000 2.415931e+000 7.987114e-001 -5.835999e+000 -1.033028e+000 -1.101751e+000 1.186346e+001 -1.384794e+000 -7.662787e-001 -3.218508e-001 -3.612081e-001 5.692613e-001 5.307914e-001 -1.327497e-001 -1.239134e+000 -4.930794e-002 8.923236e-001 1.273896e-001 -1.395840e-002 -6.507314e-001 -1.024113e-001 1.334841e-001
<VARIANCE> 25
 5.323907e+000 1.694368e+001 3.320458e+001 6.993980e+001 1.788761e+001 3.718750e+001 3.964543e+001 2.908742e+001 4.239800e+001 4.863743e+001 3.775660e+001 1.544330e+001 2.344538e-001 7.630665e-001 1.234746e+000 1.278482e+000 1.468687e+000 1.317275e+000 1.433508e+000 1.879487e+000 3.154775e+000 1.761627e+000 2.306446e+000 1.886400e+000 6.896082e-001
<GCONST> 8.895013e+001
~s "ST_m_2_1"
<MEAN> 25
 4.800261e+000 4.244074e-001 2.327132e+000 1.250733e+000 3.435495e+000 3.710707e+000 -1.232959e+000 -8.443587e+000 -3.788904e+000 -3.354739e+000 2.630525e+000 4.533814e-002 -1.474922e-001 6.469778e-001 1.581797e+000 2.417028e+000 7.709014e-001 -3.155245e-001 -1.005065e+000 -2.615960e+000 -1.916985e+000 -8.859983e-002 -3.990027e-001 2.608687e-001 -6.611218e-001
<VARIANCE> 25
 6.191133e+000 1.546528e+001 4.366105e+001 6.524915e+001 2.446640e+001 2.568541e+001 3.177223e+001 4.355994e+001 3.750045e+001 2.857293e+001 3.692994e+001 1.855200e+001 2.087296e-001 1.466608e+000 1.197487e+000 3.300601e+000 1.530692e+000 1.828369e+000 1.251195e+000 2.736654e+000 2.737509e+000 1.351153e+000 3.028193e+000 1.146235e+000 1.194325e+000
<GCONST> 9.082626e+001
~s "ST_m_3_1"
<MEAN> 25
 5.368236e+000 7.786507e-001 4.173964e+000 5.688150e+000 5.194977e+000 2.278462e+000 -3.322711e+000 -1.177466e+001 -7.497087e+000 -2.658991e+000 1.701026e+000 -9.471880e-001 1.752074e-001 -2.179525e-002 -2.224156e-001 -4.555234e-001 -4.375510e-001 -7.001734e-002 1.051553e-001 4.685038e-001 8.820583e-002 -9.822092e-002 -3.961241e-002 -2.446464e-002 2.375233e-001
<VARIANCE> 25
 8.450906e+000 1.314689e+001 2.401410e+001 2.556484e+001 2.015512e+001 3.825914e+001 2.698588e+001 1.689266e+001 3.049014e+001 3.272898e+001 5.840582e+001 2.314279e+001 2.063745e-001 5.037537e-001 1.047358e+000 1.123758e+000 1.128541e+000 8.569780e-001 1.023166e+000 1.210162e+000 1.490817e+000 1.130726e+000 1.175983e+000 8.977052e-001 5.262217e-001
<GCONST> 8.197584e+001
~s "ST_m_4_1"
<MEAN> 25
 6.159781e+000 -1.144488e+000 -6.265873e-002 -2.804259e+000 1.855152e+000 4.525255e+000 -9.667446e-001 -5.268163e+000 -3.448201e+000 -3.052802e+000 1.373501e+000 4.482353e-001 2.792042e-001 -1.637801e+000 -1.534384e+000 -3.493020e+000 5.547138e-005 4.676274e-001 5.930078e-001 3.098910e+000 1.509481e+000 9.108698e-001 -2.521651e-001 3.256255e-001 1.401535e+000
<VARIANCE> 25
 8.394757e+000 2.084607e+001 3.513943e+001 7.079129e+001 2.859964e+001 3.441014e+001 2.900832e+001 3.648651e+001 2.914511e+001 4.037344e+001 4.038237e+001 2.521990e+001 4.892508e-001 1.080967e+000 2.865709e+000 1.830235e+000 4.303679e+000 2.187256e+000 2.436822e+000 2.759480e+000 3.691184e+000 2.317905e+000 4.337611e+000 2.513213e+000 3.572652e-001
<GCONST> 9.545782e+001
~s "ST_ah_2_1"
<MEAN> 25
 3.236870e+000 -7.795289e+000 5.328881e+000 -1.002334e+001 3.766342e+000 -6.641571e+000 -3.060294e+000 6.731985e+000 2.332407e+000 7.143825e+000 -6.368941e+000 -8.100057e-001 -1.415037e-001 2.989225e-001 -2.775891e-001 4.773225e-001 2.479989e-001 -1.725415e-001 4.931032e-001 1.495029e-001 6.767902e-001 -4.788696e-001 -6.177604e-001 1.304915e-001 -7.695708e-001
<VARIANCE> 25
 4.340982e+000 7.511937e+000 2.344714e+001 1.142976e+001 2.083594e+001 3.712791e+001 2.775745e+001 2.451609e+001 2.729606e+001 2.679734e+001 1.830688e+001 1.586100e+001 3.173113e-001 7.880821e-001 1.018699e+000 8.597611e-001 7.179132e-001 7.967004e-001 8.715379e-001 1.059897e+000 1.070688e+000 1.134093e+000 1.114182e+000 7.404826e-001 6.644762e-001
<GCONST> 7.789899e+001
~s "ST_ah_2_2"
<MEAN> 25
 3.144289e+000 -7.113615e+000 5.055634e+000 -8.427588e+000 2.332487e+000 -4.631186e+000 -3.891780e+000 6.974720e+000 3.027782e+000 1.937560e+000 -5.771104e+000 1.475290e+000 -2.260051e-001 -2.264961e-001 3.996637e-001 -5.258578e-001 7.432213e-001 -8.252735e-001 1.078965e+000 3.902569e-001 -4.677298e-001 4.477930e-001 -7.782812e-001 7.256988e-001 -1.846513e-001
<VARIANCE> 25
 4.672759e+000 1.027632e+001 2.060636e+001 1.800425e+001 2.020221e+001 4.030966e+001 2.172298e+001 2.971412e+001 3.410526e+001 2.843976e+001 1.663393e+001 2.001830e+001 4.380569e-001 9.093157e-001 1.075323e+000 1.562047e+000 1.101742e+000 1.358443e+000 1.849051e+000 2.439292e+000 1.337167e+000 1.378766e+000 1.481957e+000 1.375446e+000 4.482163e-001
<GCONST> 8.362160e+001
~s "ST_ah_2_3"
<MEAN> 25
 3.382892e+000 -9.136092e+000 -1.895825e+000 -1.054196e+001 7.899649e+000 6.233023e+000 -2.062100e-001 1.398113e-001 1.674806e+000 -1.276241e+000 -4.350838e+000 -4.788788e-001 1.643193e-001 -6.346859e-001 5.101207e-001 -6.365426e-001 2.958619e-001 -1.850686e-001 1.457812e-001 4.079427e-001 -4.923557e-003 5.090621e-001 -6.567704e-001 2.451287e-002 5.578337e-001
<VARIANCE> 25
 7.034732e+000 1.512840e+001 2.549670e+001 2.159136e+001 3.955756e+001 5.322314e+001 3.274012e+001 4.451019e+001 3.378143e+001 3.395015e+001 3.052239e+001 3.235475e+001 4.597000e-001 1.639599e+000 1.327490e+000 2.237176e+000 2.523651e+000 3.193012e+000 2.495857e+000 2.888690e+000 1.856786e+000 1.887848e+000 2.025684e+000 2.059165e+000 1.272217e+000
<GCONST> 9.359293e+001
~s "ST_ah_3_1"
<MEAN> 25
 2.774304e+000 -1.408500e+000 1.656431e+000 -3.819687e+000 1.662636e+000 -6.659662e+000 -7.200567e-001 6.319229e+000 5.033379e+000 4.665342e+000 -7.070557e+000 1.368639e+000 -1.500980e-001 1.557933e+000 -1.060149e+000 1.500113e+000 -4.582107e-001 5.387563e-001 1.189053e-001 1.735900e-003 -3.631789e-002 -7.874395e-001 4.777176e-001 -3.280664e-001 -1.999086e+000
<VARIANCE> 25
 5.010420e+000 2.205468e+001 2.068740e+001 2.215786e+001 3.033418e+001 3.564582e+001 2.657436e+001 2.321574e+001 2.648528e+001 2.740779e+001 2.043350e+001 2.813679e+001 3.158680e-001 8.433810e-001 7.493058e-001 8.917881e-001 1.301343e+000 1.102992e+000 1.785798e+000 1.479659e+000 1.484679e+000 2.132406e+000 1.563341e+000 1.362818e+000 6.533899e-001
<GCONST> 8.422249e+001
~s "ST_ah_3_2"
<MEAN> 25
 2.471981e+000 -3.762177e+000 2.827107e+000 -4.413077e+000 7.549272e+000 -2.367088e+000 -8.656206e-002 5.984570e+000 -1.459440e+000 1.008738e-001 -8.381489e+000 2.225072e+000 -5.640208e-002 8.274388e-001 -5.794725e-001 8.200072e-001 -1.565286e-003 -3.396584e-002 3.768696e-001 -2.816955e-001 1.513862e-001 -1.540676e-001 7.820348e-002 -1.957875e-001 -1.296107e+000
<VARIANCE> 25
 4.271029e+000 1.612004e+001 2.461547e+001 1.890346e+001 1.878485e+001 3.009027e+001 1.660757e+001 3.047073e+001 1.627675e+001 2.151901e+001 1.233408e+001 1.391305e+001 3.337188e-001 1.063290e+000 9.105709e-001 9.444324e-001 1.090933e+000 9.950984e-001 1.177124e+000 9.433138e-001 1.143599e+000 1.047302e+000 8.566920e-001 7.737147e-001 9.816114e-001
<GCONST> 7.863982e+001
~s "ST_ah_3_3"
<MEAN> 25
 4.158288e+000 -7.587048e+000 -1.446302e-002 -7.506814e+000 4.405843e+000 9.713910e-001 -1.563285e+000 3.524318e+000 2.620666e+000 1.227968e+000 -4.553647e+000 -1.487901e+000 1.803629e-001 1.330887e+000 -1.806298e-001 1.292393e+000 -4.148604e-001 -3.662565e-001 -3.835039e-001 -2.068400e-001 -5.400528e-002 -1.769773e-001 9.006276e-001 -1.268785e-001 -1.170133e+000
<VARIANCE> 25
 8.112632e+000 2.428284e+001 3.038913e+001 4.803387e+001 4.130373e+001 5.389577e+001 4.101870e+001 4.560826e+001 3.793520e+001 3.238994e+001 3.646605e+001 2.873076e+001 4.122373e-001 1.917343e+000 1.469665e+000 2.885545e+000 2.210958e+000 4.241999e+000 2.502321e+000 3.280593e+000 2.803966e+000 3.284708e+000 2.212427e+000 2.146095e+000 1.689861e+000
<GCONST> 9.768224e+001
~s "ST_ah_4_1"
<MEAN> 25
 7.743466e-001 2.522866e-001 -1.237455e+001 6.045021e+000 2.314023e+000 1.020547e+001 4.623041e+000 -4.687266e-002 1.675393e+000 -4.883538e+000 -1.442518e+000 -2.174496e+000 -4.915200e-001 4.249645e-001 -7.686728e-001 4.792331e-001 -3.365786e-001 2.342069e-001 2.389791e-001 9.324681e-002 -4.420086e-002 -7.103506e-002 1.904494e-001 1.050796e-001 -1.072140e+000
<VARIANCE> 25
 1.161908e+001 1.473189e+001 4.293130e+001 3.069958e+001 4.163053e+001 3.297377e+001 3.442179e+001 4.820099e+001 2.450932e+001 3.730998e+001 2.503356e+001 2.333505e+001 4.854321e-001 5.659868e-001 1.409318e+000 1.482084e+000 2.461958e+000 2.311061e+000 2.759849e+000 2.382793e+000 2.198914e+000 3.175557e+000 2.208884e+000 1.649071e+000 6.014934e-001
<GCONST> 9.189512e+001
~s "ST_ah_4_2"
<MEAN> 25
 -1.335418e+000 3.509561e+000 -6.567411e+000 5.045033e+000 -4.836400e-001 -2.111795e+000 9.894287e-001 4.177989e+000 4.825385e+000 -2.837960e+000 -1.381798e+000 8.495240e-001 -4.608002e-001 1.876364e-001 -5.893828e-001 4.733896e-001 -1.535804e-001 1.984710e-001 2.404606e-001 -3.112364e-001 1.210673e-001 -2.067420e-001 4.197648e-001 1.829013e-001 -7.486929e-001
<VARIANCE> 25
 1.266101e+001 2.800302e+001 3.278833e+001 2.773760e+001 4.974636e+001 3.433966e+001 3.359295e+001 3.252180e+001 3.329479e+001 3.287181e+001 3.276237e+001 2.980639e+001 3.600190e-001 9.793490e-001 1.395877e+000 1.369365e+000 2.043747e+000 1.849616e+000 2.059143e+000 2.294573e+000 2.434019e+000 2.264697e+000 1.946910e+000 1.763032e+000 4.490685e-001
<GCONST> 9.157980e+001
~s "ST_ah_4_3"
<MEAN> 25
 4.179244e+000 -4.530275e+000 -1.590001e+000 -7.330191e+000 3.985029e+000 2.949675e+000 -1.905922e+000 3.807271e-001 2.569406e+000 -5.278500e-001 2.972210e-001 -1.947888e+000 2.461736e-001 1.676837e+000 2.076957e-001 1.741735e+000 -1.016951e+000 -3.698113e-001 -1.752159e-001 -1.068651e+000 1.413314e-002 1.665749e-002 1.064830e+000 1.665422e-001 -1.418539e+000
<VARIANCE> 25
 7.832879e+000 1.753590e+001 5.128742e+001 3.223168e+001 4.669475e+001 5.308717e+001 4.775627e+001 4.292655e+001 3.866368e+001 4.470455e+001 3.343459e+001 2.870687e+001 5.951831e-001 1.954948e+000 1.973293e+000 4.356700e+000 2.070689e+000 3.142463e+000 2.088569e+000 3.604578e+000 2.300931e+000 3.469854e+000 1.876880e+000 1.860729e+000 1.567925e+000
<GCONST> 9.801500e+001
~s "ST_ch_2_1"
<MEAN> 25
 9.309156e+000 9.336546e+000 6.391743e-001 9.124269e+000 -6.472905e+000 -2.088656e-001 -2.498315e+000 -7.232389e+000 -2.184078e+000 -3.796696e-001 -7.363631e-001 -2.926330e+000 -6.370560e-001 1.195546e+000 -1.088808e+000 7.453858e-001 6.322040e-001 -4.067233e-001 1.558255e+000 3.794532e-001 -1.585065e-001 -1.104001e+000 -3.517527e-002 -3.647496e-001 -1.275882e+000
<VARIANCE> 25
 1.953795e+001 1.061064e+001 3.084820e+001 9.331044e+000 2.515246e+001 1.901683e+001 2.673861e+001 1.796283e+001 1.444946e+001 2.060342e+001 1.851464e+001 2.018048e+001 1.011480e+000 3.205484e-001 4.260654e-001 8.855314e-001 3.549721e+000 1.880830e+000 1.980211e+000 1.828746e+000 1.636772e+000 2.203009e+000 2.213678e+000 1.362913e+000 3.578750e-001
<GCONST> 8.335129e+001
~s "ST_ch_3_1"
<MEAN> 25
 9.831958e-001 1.329092e+001 -6.118460e+000 1.030803e+001 1.906944e+000 -2.629292e+000 8.015476e-001 -1.212813e+000 1.682605e+000 -8.218735e+000 -2.303126e+000 -5.643179e+000 -3.800240e+000 -8.175462e-001 -2.356380e-001 -2.116671e+000 6.815935e-001 7.197963e-002 -5.468448e-001 9.998187e-001 5.084990e-001 -7.769978e-001 1.051431e-001 1.807899e-001 1.053533e+000
<VARIANCE> 25
 2.910085e+001 9.510686e+000 2.818909e+001 1.150080e+001 1.299577e+001 2.720487e+001 5.897850e+001 3.861134e+001 4.369577e+001 2.536195e+001 2.209208e+001 1.835258e+001 2.339228e+000 2.358509e+000 4.494973e+000 3.056226e+000 5.399399e+000 2.106328e+000 3.703368e+000 4.890800e+000 2.792798e+000 2.047487e+000 2.080617e+000 5.074760e+000 4.593065e+000
<GCONST> 9.924667e+001
~s "ST_ch_4_1"
<MEAN> 25
 -1.629900e+001 4.696584e+000 -2.293102e+000 6.690208e+000 1.303007e-001 -3.724225e+000 4.519170e+000 1.880058e+000 1.892999e+000 -6.183417e+000 4.258375e+000 2.065517e-001 -4.457073e-001 -3.952165e-001 1.121398e+000 -3.250914e-001 -6.250807e-001 -1.629183e-002 -1.939213e-001 -1.603622e-001 -5.459393e-001 2.325477e-001 1.881285e-001 -3.003498e-002 9.537004e-001
<VARIANCE> 25
 2.361666e+001 2.706908e+001 3.734348e+001 3.003177e+001 2.041466e+001 1.901428e+001 1.600305e+001 3.910166e+001 3.005113e+001 1.890582e+001 2.416929e+001 1.765735e+001 7.521566e+000 1.336387e+000 4.885813e+000 2.454868e+000 2.234595e+000 1.444452e+000 2.575729e+000 2.014916e+000 2.057727e+000 1.423981e+000 2.517295e+000 1.885302e+000 2.091150e+000
<GCONST> 9.520937e+001
~s "ST_eh_2_1"
<MEAN> 25
 8.207635e-001 -3.642101e+000 1.443777e+001 -2.648102e+000 -1.182296e+001 -5.921582e+000 4.543201e-001 4.537145e+000 -8.904207e+000 4.380108e+000 5.655096e+000 1.968120e+000 -1.889296e-001 -5.943920e-001 1.837307e+000 -1.796901e+000 -1.260031e+000 2.147790e-001 8.210988e-002 6.289366e-001 -1.403238e+000 1.792600e+000 5.531676e-001 1.915717e-001 1.351040e+000
<VARIANCE> 25
 1.351177e+001 2.025816e+001 2.212181e+001 2.227786e+001 1.903531e+001 3.182849e+001 4.093368e+001 3.032065e+001 3.757334e+001 3.837579e+001 2.737295e+001 1.855395e+001 1.159335e+000 1.527866e+000 2.721893e+000 2.757023e+000 1.915487e+000 2.533120e+000 3.179484e+000 2.871053e+000 3.447110e+000 3.251377e+000 1.966762e+000 1.966889e+000 2.225898e+000
<GCONST> 9.574124e+001
~s "ST_eh_3_1"
<MEAN> 25
 -9.360716e-001 -1.567013e+000 1.833580e+001 -6.453318e+000 -1.310446e+001 -3.196070e+000 -1.934599e+000 1.890074e+000 -1.210694e+001 1.047261e+001 4.189237e+000 2.066103e+000 -1.136715e-001 7.967253e-002 1.566612e-001 -4.917707e-002 1.056196e-001 -1.893497e-002 1.545714e-001 -2.425049e-001 -5.143666e-002 8.725549e-002 -5.485053e-002 -4.853448e-002 -2.025424e-001
<VARIANCE> 25
 9.076107e+000 1.764340e+001 1.173303e+001 1.521616e+001 1.349364e+001 2.511572e+001 2.507641e+001 2.245213e+001 2.134523e+001 2.110779e+001 1.586625e+001 2.383237e+001 2.478237e-001 4.193974e-001 5.865886e-001 5.026410e-001 5.523657e-001 6.082644e-001 9.384252e-001 7.730704e-001 8.471196e-001 6.456008e-001 6.191761e-001 4.792729e-001 2.910528e-001
<GCONST> 7.246294e+001
~s "ST_eh_4_1"
<MEAN> 25
 -2.068305e+000 3.431761e+000 1.126277e+001 8.830674e-001 -1.105449e+001 -3.830605e+000 3.442673e+000 4.932112e-001 -8.041169e+000 4.780437e+000 4.435658e+000 -7.891554e-001 -7.714241e-002 6.739486e-001 -1.134631e+000 9.600399e-001 2.498394e-001 2.398601e-001 1.955400e-001 -1.230701e-001 6.751385e-001 -9.134014e-001 -9.451299e-002 -1.990927e-001 -1.294349e+000
<VARIANCE> 25
 8.642116e+000 2.964966e+001 4.018779e+001 3.246929e+001 3.530375e+001 3.624145e+001 3.787249e+001 3.152471e+001 4.435442e+001 3.884397e+001 3.586965e+001 2.772356e+001 4.714954e-001 1.183365e+000 1.786734e+000 1.965974e+000 2.345031e+000 2.013244e+000 2.622093e+000 2.241363e+000 2.753755e+000 2.725055e+000 2.086842e+000 2.036089e+000 1.333655e+000
<GCONST> 9.500607e+001
~s "ST_p_2_1"
<MEAN> 25
 3.225644e+000 4.908444e+000 -1.031650e+001 2.588048e+000 3.092691e+000 7.098265e+000 2.281046e+000 -3.555839e+000 1.840518e+000 -6.621686e-001 2.083026e-001 -1.237770e+000 -5.204045e-001 2.912633e-001 -5.632110e-001 1.056642e+000 -2.794361e-002 -1.104524e-002 1.842853e-001 -3.113251e-001 3.133101e-001 -3.753997e-001 4.432552e-001 -2.046059e-001 -7.978624e-001
<VARIANCE> 25
 1.830903e+001 5.287757e+001 5.795871e+001 1.031726e+002 4.304318e+001 5.245088e+001 3.556294e+001 3.521349e+001 3.400731e+001 2.608908e+001 1.889930e+001 1.590687e+001 9.770256e-001 1.816349e+000 2.252381e+000 4.823151e+000 2.592638e+000 2.430318e+000 2.273310e+000 3.262465e+000 3.829396e+000 2.795549e+000 1.652268e+000 1.981753e+000 1.666243e+000
<GCONST> 9.973808e+001
~s "ST_p_3_1"
<MEAN> 25
 -7.626694e+000 3.744815e+000 -6.990537e+000 1.138384e+001 9.651012e-001 -8.109484e-001 6.179060e+000 -1.837174e+000 4.741732e+000 -1.003491e+000 4.166641e+000 -1.373211e+000 -4.091261e-001 -4.035377e-002 3.483821e-002 2.500336e-001 2.627012e-002 -8.730189e-002 1.043890e-002 1.164048e-001 -1.552869e-001 -1.923868e-001 2.158142e-001 3.658209e-001 -2.276129e-001
<VARIANCE> 25
 2.545370e+001 4.660102e+001 3.024020e+001 5.835969e+001 3.033654e+001 5.870779e+001 3.247113e+001 5.187754e+001 3.343565e+001 5.441360e+001 2.689196e+001 2.396772e+001 8.455147e-001 1.120634e+000 1.338502e+000 1.979219e+000 1.929704e+000 3.119687e+000 2.372055e+000 4.063226e+000 2.362783e+000 3.562448e+000 1.956662e+000 2.211236e+000 8.710222e-001
<GCONST> 9.782831e+001
~s "ST_p_4_1"
<MEAN> 25
 -3.236698e-001 2.477848e+000 -6.630488e+000 4.710086e+000 -1.555639e+000 1.733204e+000 2.988534e+000 -1.431353e+000 1.695941e+000 -2.638803e+000 4.403679e+000 4.345841e-001 2.436559e+000 -2.003705e+000 1.755127e+000 -3.861484e+000 -7.453699e-002 1.105217e+000 -7.400521e-001 -3.311162e-001 -5.540314e-001 8.091694e-001 -1.363222e-001 -4.459711e-001 4.356534e+000
<VARIANCE> 25
 5.173086e+001 4.453237e+001 5.591560e+001 1.522977e+002 4.609886e+001 8.380972e+001 3.769469e+001 4.126955e+001 3.556105e+001 3.948310e+001 2.910627e+001 2.056269e+001 3.772128e+000 4.986973e+000 7.985200e+000 1.705718e+001 7.506390e+000 1.208144e+001 4.751650e+000 5.864705e+000 6.059966e+000 4.800436e+000 3.489530e+000 2.380023e+000 7.594340e+000
<GCONST> 1.151876e+002
~s "ST_ih_2_1"
<MEAN> 25
 -2.138607e+000 3.094639e+000 1.404491e+001 2.189332e+000 -9.983781e+000 -4.982108e-001 -1.047269e+000 -2.357202e+000 -9.225495e+000 1.531126e-001 6.261177e+000 -3.817578e-001 5.042662e-001 -8.857365e-001 3.660677e+000 -2.159218e+000 -1.737189e+000 3.896663e-001 -1.485039e+000 8.197135e-001 -2.848794e+000 1.950646e+000 7.222362e-001 1.777256e-001 1.916108e+000
<VARIANCE> 25
 3.120430e+001 2.927681e+001 6.922072e+001 4.284638e+001 3.556249e+001 5.025420e+001 4.824375e+001 3.502504e+001 5.823407e+001 3.646234e+001 3.441442e+001 2.708886e+001 3.352949e+000 2.636038e+000 7.683582e+000 3.374110e+000 3.917284e+000 4.452856e+000 4.231143e+000 2.478089e+000 4.074675e+000 3.978647e+000 3.541675e+000 3.379440e+000 2.491873e+000
<GCONST> 1.070026e+002
~s "ST_ih_3_1"
<MEAN> 25
 -1.864248e+000 1.776543e+000 2.106196e+001 -4.023176e+000 -1.205820e+001 1.122961e+000 -6.321803e+000 -7.730030e-001 -1.546870e+001 7.004653e+000 4.001875e+000 1.047650e+000 1.391391e-002 1.786149e-001 7.437800e-002 -3.221707e-001 1.050112e-002 1.242175e-001 -1.328082e-002 -1.399906e-001 1.288713e-002 4.617978e-001 -1.399243e-001 6.882134e-002 -7.157609e-002
<VARIANCE> 25
 8.621645e+000 1.485240e+001 1.865253e+001 2.055275e+001 1.807112e+001 2.393532e+001 1.871678e+001 2.140382e+001 2.668603e+001 1.869021e+001 3.485944e+001 2.339894e+001 3.787608e-001 7.459804e-001 7.262264e-001 8.674393e-001 7.743397e-001 1.337005e+000 1.324998e+000 1.169129e+000 1.116282e+000 1.448587e+000 1.183007e+000 1.384830e+000 5.791916e-001
<GCONST> 8.090161e+001
~s "ST_ih_4_1"
<MEAN> 25
 -1.361676e+000 5.674891e+000 1.265533e+001 1.139002e+000 -9.862641e+000 -9.453135e-001 -1.181080e+000 -3.124623e+000 -9.061752e+000 2.049606e+000 4.643787e+000 -1.569038e+000 1.903159e-001 4.673602e-001 -1.604720e+000 1.004142e+000 7.968383e-001 -2.675683e-001 4.041588e-001 -2.505055e-001 1.228870e+000 -8.599629e-001 -3.999812e-001 -1.901076e-001 -1.080665e+000
<VARIANCE> 25
 1.230765e+001 2.067949e+001 5.800702e+001 3.609390e+001 2.734123e+001 2.956120e+001 2.830806e+001 2.635008e+001 4.485488e+001 4.234227e+001 4.154964e+001 2.670225e+001 8.330184e-001 1.245280e+000 2.794280e+000 2.825575e+000 2.753428e+000 2.560095e+000 2.628065e+000 2.866226e+000 2.667735e+000 3.135669e+000 2.391306e+000 2.351273e+000 1.466056e+000
<GCONST> 9.731184e+001
~h "b"
<BEGINHMM>
<NUMSTATES> 5
<STATE> 2
~s "ST_b_2_1"
<STATE> 3
~s "ST_b_3_1"
<STATE> 4
~s "ST_b_4_1"
~t "T_b"
<ENDHMM>
~h "d"
<BEGINHMM>
<NUMSTATES> 5
<STATE> 2
~s "ST_d_2_1"
<STATE> 3
~s "ST_d_3_1"
<STATE> 4
~s "ST_d_4_1"
~t "T_d"
<ENDHMM>
~h "g"
<BEGINHMM>
<NUMSTATES> 5
<STATE> 2
~s "ST_g_2_1"
<STATE> 3
~s "ST_g_3_1"
<STATE> 4
~s "ST_g_4_1"
~t "T_g"
<ENDHMM>
~h "h"
<BEGINHMM>
<NUMSTATES> 5
<STATE> 2
~s "ST_h_2_1"
<STATE> 3
~s "ST_h_3_1"
<STATE> 4
~s "ST_h_4_1"
~t "T_h"
<ENDHMM>
~h "j"
<BEGINHMM>
<NUMSTATES> 5
<STATE> 2
~s "ST_j_2_1"
<STATE> 3
~s "ST_j_3_1"
<STATE> 4
~s "ST_j_4_1"
~t "T_j"
<ENDHMM>
~h "k"
<BEGINHMM>
<NUMSTATES> 5
<STATE> 2
~s "ST_k_2_1"
<STATE> 3
~s "ST_k_3_1"
<STATE> 4
~s "ST_k_4_1"
~t "T_k"
<ENDHMM>
~h "l"
<BEGINHMM>
<NUMSTATES> 5
<STATE> 2
~s "ST_l_2_1"
<STATE> 3
~s "ST_l_3_1"
<STATE> 4
~s "ST_l_4_1"
~t "T_l"
<ENDHMM>
~h "m"
<BEGINHMM>
<NUMSTATES> 5
<STATE> 2
~s "ST_m_2_1"
<STATE> 3
~s "ST_m_3_1"
<STATE> 4
~s "ST_m_4_1"
~t "T_m"
<ENDHMM>
~h "n"
<BEGINHMM>
<NUMSTATES> 5
<STATE> 2
~s "ST_n_2_1"
<STATE> 3
~s "ST_n_3_1"
<STATE> 4
~s "ST_n_4_1"
~t "T_n"
<ENDHMM>
~h "o"
<BEGINHMM>
<NUMSTATES> 5
<STATE> 2
~s "ST_o_2_1"
<STATE> 3
~s "ST_o_3_1"
<STATE> 4
~s "ST_o_4_1"
~t "T_o"
<ENDHMM>
~h "p"
<BEGINHMM>
<NUMSTATES> 5
<STATE> 2
~s "ST_p_2_1"
<STATE> 3
~s "ST_p_3_1"
<STATE> 4
~s "ST_p_4_1"
~t "T_p"
<ENDHMM>
~h "r"
<BEGINHMM>
<NUMSTATES> 5
<STATE> 2
~s "ST_r_2_1"
<STATE> 3
~s "ST_r_3_1"
<STATE> 4
~s "ST_r_4_1"
~t "T_r"
<ENDHMM>
~h "s"
<BEGINHMM>
<NUMSTATES> 5
<STATE> 2
~s "ST_s_2_1"
<STATE> 3
~s "ST_s_3_1"
<STATE> 4
~s "ST_s_4_1"
~t "T_s"
<ENDHMM>
~h "t"
<BEGINHMM>
<NUMSTATES> 5
<STATE> 2
~s "ST_t_2_1"
<STATE> 3
~s "ST_t_3_1"
<STATE> 4
~s "ST_t_4_1"
~t "T_t"
<ENDHMM>
~h "w"
<BEGINHMM>
<NUMSTATES> 5
<STATE> 2
~s "ST_w_2_1"
<STATE> 3
~s "ST_w_3_1"
<STATE> 4
~s "ST_w_4_1"
~t "T_w"
<ENDHMM>
~h "y"
<BEGINHMM>
<NUMSTATES> 5
<STATE> 2
~s "ST_y_2_1"
<STATE> 3
~s "ST_y_3_1"
<STATE> 4
~s "ST_y_4_1"
~t "T_y"
<ENDHMM>
~h "t-aa"
<BEGINHMM>
<NUMSTATES> 5
<STATE> 2
~s "ST_aa_2_1"
<STATE> 3
~s "ST_aa_3_1"
<STATE> 4
~s "ST_aa_4_1"
~t "T_aa"
<ENDHMM>
~h "t-ah"
<BEGINHMM>
<NUMSTATES> 5
<STATE> 2
~s "ST_ah_2_2"
<STATE> 3
~s "ST_ah_3_1"
<STATE> 4
~s "ST_ah_4_2"
~t "T_ah"
<ENDHMM>
~h "t-ih"
<BEGINHMM>
<NUMSTATES> 5
<STATE> 2
~s "ST_ih_2_1"
<STATE> 3
~s "ST_ih_3_1"
<STATE> 4
~s "ST_ih_4_1"
~t "T_ih"
<ENDHMM>
~h "d-eh+k"
<BEGINHMM>
<NUMSTATES> 5
<STATE> 2
~s "ST_eh_2_1"
<STATE> 3
~s "ST_eh_3_1"
<STATE> 4
~s "ST_eh_4_1"
~t "T_eh"
<ENDHMM>
~h "ae"
<BEGINHMM>
<NUMSTATES> 5
<STATE> 2
~s "ST_ae_2_1"
<STATE> 3
~s "ST_ae_3_1"
<STATE> 4
~s "ST_ae_4_1"
<TRANSP> 5
 0.000000e+000 1.000000e+000 0.000000e+000 0.000000e+000 0.000000e+000
 0.000000e+000 4.777018e-001 5.222982e-001 0.000000e+000 0.000000e+000
 0.000000e+000 0.000000e+000 4.339326e-001 5.660674e-001 0.000000e+000
 0.000000e+000 0.000000e+000 0.000000e+000 9.057932e-001 9.420678e-002
 0.000000e+000 0.000000e+000 0.000000e+000 0.000000e+000 0.000000e+000
<ENDHMM>
~h "ah"
<BEGINHMM>
<NUMSTATES> 5
<STATE> 2
~s "ST_ah_2_1"
<STATE> 3
~s "ST_ah_3_1"
<STATE> 4
~s "ST_ah_4_1"
~t "T_ah"
<ENDHMM>
~h "ao"
<BEGINHMM>
<NUMSTATES> 5
<STATE> 2
~s "ST_ao_2_1"
<STATE> 3
~s "ST_ao_3_1"
<STATE> 4
~s "ST_ao_4_1"
~t "T_ao"
<ENDHMM>
~h "ch"
<BEGINHMM>
<NUMSTATES> 5
<STATE> 2
~s "ST_ch_2_1"
<STATE> 3
~s "ST_ch_3_1"
<STATE> 4
~s "ST_ch_4_1"
~t "T_ch"
<ENDHMM>
~h "iy"
<BEGINHMM>
<NUMSTATES> 5
<STATE> 2
~s "ST_iy_2_1"
<STATE> 3
~s "ST_iy_3_1"
<STATE> 4
~s "ST_iy_4_1"
~t "T_iy"
<ENDHMM>
~h "sp"
<BEGINHMM>
<NUMSTATES> 3
<STATE> 2
~s "ST_sil_3_1"
<TRANSP> 3
 0.000000e+000 5.334659e-001 4.665341e-001
 0.000000e+000 8.866610e-001 1.133391e-001
 0.000000e+000 0.000000e+000 0.000000e+000
<ENDHMM>
~h "th"
<BEGINHMM>
<NUMSTATES> 5
<STATE> 2
~s "ST_th_2_1"
<STATE> 3
~s "ST_th_3_1"
<STATE> 4
~s "ST_th_4_1"
~t "T_th"
<ENDHMM>
~h "uh"
<BEGINHMM>
<NUMSTATES> 5
<STATE> 2
~s "ST_uh_2_1"
<STATE> 3
~s "ST_uh_3_1"
<STATE> 4
~s "ST_uh_4_1"
~t "T_uh"
<ENDHMM>
~h "h-ah+ah"
<BEGINHMM>
<NUMSTATES> 5
<STATE> 2
~s "ST_ah_2_3"
<STATE> 3
~s "ST_ah_3_3"
<STATE> 4
~s "ST_ah_4_1"
~t "T_ah"
<ENDHMM>
~h "h-ah+th"
<BEGINHMM>
<NUMSTATES> 5
<STATE> 2
~s "ST_ah_2_3"
<STATE> 3
~s "ST_ah_3_3"
<STATE> 4
~s "ST_ah_4_3"
~t "T_ah"
<ENDHMM>
~h "k-ae+th"
<BEGINHMM>
<NUMSTATES> 5
<STATE> 2
~s "ST_ae_2_1"
<STATE> 3
~s "ST_ae_3_1"
<STATE> 4
~s "ST_ae_4_1"
~t "T_ae"
<ENDHMM>
~h "m-ah+g"
<BEGINHMM>
<NUMSTATES> 5
<STATE> 2
~s "ST_ah_2_3"
<STATE> 3
~s "ST_ah_3_3"
<STATE> 4
~s "ST_ah_4_2"
~t "T_ah"
<ENDHMM>
~h "m-ah"
<BEGINHMM>
<NUMSTATES> 5
<STATE> 2
~s "ST_ah_2_1"
<STATE> 3
~s "ST_ah_3_1"
<STATE> 4
~s "ST_ah_4_2"
~t "T_ah"
<ENDHMM>
~h "eh-n+ah"
<BEGINHMM>
<NUMSTATES> 5
<STATE> 2
~s "ST_n_2_1"
<STATE> 3
~s "ST_n_3_1"
<STATE> 4
~s "ST_n_4_2"
~t "T_n"
<ENDHMM>
~h "n-ah"
<BEGINHMM>
<NUMSTATES> 5
<STATE> 2
~s "ST_ah_2_2"
<STATE> 3
~s "ST_ah_3_2"
<STATE> 4
~s "ST_ah_4_2"
~t "T_ah"
<ENDHMM>
~h "sil"
<BEGINHMM>
<NUMSTATES> 5
<STATE> 2
~s "ST_sil_2_1"
<STATE> 3
~s "ST_sil_3_1"
<STATE> 4
~s "ST_sil_4_1"
<TRANSP> 5
 0.000000e+000 1.000000e+000 0.000000e+000 0.000000e+000 0.000000e+000
 0.000000e+000 4.026624e-001 2.246368e-001 3.727008e-001 0.000000e+000
 0.000000e+000 0.000000e+000 7.286876e-001 2.713124e-001 0.000000e+000
 0.000000e+000 2.217822e-002 0.000000e+000 6.755665e-001 3.022552e-001
 0.000000e+000 0.000000e+000 0.000000e+000 0.000000e+000 0.000000e+000
<ENDHMM>
