~o
<STREAMINFO> 1 25
<VECSIZE> 25<NULLD><MFCC_D_N_Z_0><DIAGC>
~s "silst"
<MEAN> 25
 -3.380194e+000 3.410358e+000 -7.355394e+000 7.144973e+000 2.911924e+000 2.227690e+000 1.856251e+000 -3.166600e+000 1.554114e+000 -4.532635e+000 8.423408e-003 1.990588e+000 9.980136e-001 -7.664821e-001 1.035800e+000 -1.314482e+000 3.445897e-001 4.448535e-001 -4.866274e-001 -4.920474e-001 -6.966973e-001 3.255762e-001 -1.269440e-001 -3.168029e-001 1.925712e+000
<VARIANCE> 25
 3.448281e+001 4.940051e+001 6.813670e+001 7.789255e+001 7.571152e+001 6.905262e+001 5.697348e+001 4.261895e+001 4.783270e+001 3.611644e+001 3.291692e+001 2.845466e+001 3.459650e+000 5.425150e+000 5.371349e+000 6.874961e+000 5.530767e+000 5.373242e+000 5.155756e+000 4.258511e+000 4.486386e+000 3.639249e+000 3.389704e+000 2.954055e+000 5.862080e+000
<GCONST> 1.125049e+002
~h "b"
<BEGINHMM>
<NUMSTATES> 5
<STATE> 2
<MEAN> 25
 5.432525e+000 1.160240e+001 -5.833226e-001 1.125943e+001 1.409204e+000 3.242682e+000 -2.801060e+000 -7.232741e+000 -5.101517e+000 -3.331759e+000 -1.250015e+000 -3.565421e+000 7.076561e-001 -6.333693e-001 1.074124e+000 -1.126577e+000 -5.989525e-001 5.956009e-002 -1.001873e+000 -4.862645e-001 -2.708350e-001 1.337311e+000 4.823109e-001 -3.414657e-001 1.775097e+000
<VARIANCE> 25
 1.435317e+001 7.486729e+001 2.886174e+001 1.139178e+002 3.797578e+001 9.514657e+001 3.796043e+001 3.413587e+001 2.608277e+001 5.362521e+001 2.738571e+001 2.599895e+001 2.182678e+000 6.183976e+000 2.863005e+000 6.746570e+000 2.916726e+000 3.413746e+000 2.634750e+000 5.385364e+000 3.346494e+000 3.875689e+000 3.703851e+000 3.909573e+000 3.237602e+000
<GCONST> 1.071197e+002
<STATE> 3
<MEAN> 25
 5.246703e+000 4.936309e-001 2.965007e+000 -4.695573e-001 -2.250964e+000 1.031776e+000 -7.417352e+000 -1.552121e+000 -2.769810e+000 6.575219e+000 2.077993e+000 -8.793302e-001 -5.244918e-001 -1.982985e+000 1.883889e+000 -2.524807e+000 -1.359556e+000 -4.984783e-001 -5.427973e-001 1.898021e+000 -7.986130e-001 2.103322e+000 -2.586733e-001 6.861618e-001 2.332628e+000
<VARIANCE> 25
 1.501481e+001 7.880444e+001 6.326836e+001 1.683943e+002 4.715277e+001 2.804214e+001 3.866581e+001 9.030538e+001 5.331741e+001 4.564840e+001 2.632368e+001 4.059410e+001 1.324392e+000 5.112884e+000 3.189018e+000 7.719673e+000 6.010288e+000 3.985997e+000 4.011074e+000 1.058504e+001 8.367708e+000 7.618576e+000 4.009417e+000 3.935391e+000 3.944847e+000
<GCONST> 1.127402e+002
<STATE> 4
<MEAN> 25
 4.264587e+000 5.027407e+000 -1.574732e+000 -7.287456e-001 -4.438803e-001 -1.746304e+000 -6.802783e+000 -4.093106e+000 3.578661e+000 7.805238e+000 1.094789e+000 -4.251258e+000 -1.957434e-001 -1.038242e-001 7.563898e-001 5.236347e-001 -5.085890e-001 -4.154290e-001 2.799771e-001 3.711353e-001 3.114586e-001 -2.393266e-001 -3.639846e-001 -1.200044e-001 1.732893e-001
<VARIANCE> 25
 1.407461e+001 1.365756e+002 4.572538e+001 1.664267e+002 4.930828e+001 2.443676e+001 2.840073e+001 6.506406e+001 7.353309e+001 5.286005e+001 2.983978e+001 2.900457e+001 5.914245e-001 1.342888e+000 1.518861e+000 2.896691e+000 2.072835e+000 2.451467e+000 2.170662e+000 1.602890e+000 3.404645e+000 2.683264e+000 2.305663e+000 1.752159e+000 8.285791e-001
<GCONST> 9.963396e+001
<TRANSP> 5
 0.000000e+000 1.000000e+000 0.000000e+000 0.000000e+000 0.000000e+000
 0.000000e+000 6.774837e-001 3.225163e-001 0.000000e+000 0.000000e+000
 0.000000e+000 0.000000e+000 2.999360e-001 7.000640e-001 0.000000e+000
 0.000000e+000 0.000000e+000 0.000000e+000 7.144600e-001 2.855400e-001
 0.000000e+000 0.000000e+000 0.000000e+000 0.000000e+000 0.000000e+000
<ENDHMM>
~h "d"
<BEGINHMM>
<NUMSTATES> 5
<STATE> 2
<MEAN> 25
 1.329193e+000 8.362161e+000 -4.670000e+000 1.199070e+001 1.995140e+000 -1.635722e+000 -2.417830e-001 -3.035948e+000 4.277327e+000 -4.552758e-001 -2.426755e+000 1.813449e+000 -3.829155e-001 2.726665e-001 2.301236e-001 8.429978e-001 1.759961e-001 -3.278035e-001 2.434894e-001 1.261488e-001 1.309904e-001 -7.051972e-001 -9.303584e-002 8.189815e-002 -1.204541e-001
<VARIANCE> 25
 3.873489e+001 2.472634e+001 3.923511e+001 1.888511e+001 5.451604e+001 2.453486e+001 5.559058e+001 4.131532e+001 5.401346e+001 3.835878e+001 4.963114e+001 3.064177e+001 1.081181e+000 2.149276e+000 2.590700e+000 2.040549e+000 3.045768e+000 2.853818e+000 3.012710e+000 4.023238e+000 3.888147e+000 5.284483e+000 4.796934e+000 2.188184e+000 9.555106e-001
<GCONST> 1.018144e+002
<STATE> 3
<MEAN> 25
 4.182389e+000 1.229217e+001 1.834391e+000 1.487219e+001 -1.068587e+000 -2.378216e+000 -2.203396e-001 -5.947580e+000 -4.518012e-001 -4.232603e+000 -3.422929e+000 -3.443513e+000 -2.123599e-001 -1.162615e+000 5.451344e-001 -1.231251e+000 -6.924486e-001 -1.045195e+000 -1.515853e-001 3.887148e-001 3.008426e-001 -7.604073e-001 1.248671e+000 -2.916147e-002 2.741700e+000
<VARIANCE> 25
 2.729944e+001 4.463983e+001 2.633688e+001 3.696578e+001 5.025616e+001 4.218943e+001 4.373967e+001 4.436440e+001 3.511289e+001 6.017004e+001 4.564915e+001 2.755856e+001 6.013797e+000 6.560178e+000 3.456712e+000 5.431320e+000 6.465831e+000 6.122925e+000 3.927068e+000 7.282836e+000 7.539329e+000 5.995331e+000 8.547651e+000 5.225999e+000 3.713366e+000
<GCONST> 1.125183e+002
<STATE> 4
<MEAN> 25
 1.062783e+000 1.698146e+000 2.874554e+000 2.465600e+000 -3.604153e+000 -9.505855e+000 -1.901340e+000 1.564942e-001 4.582624e+000 -4.811924e+000 3.884667e+000 1.970250e+000 -2.611009e-001 -2.499791e+000 1.595996e+000 -3.878718e+000 -9.871041e-001 -1.838316e+000 1.780628e-003 1.938372e+000 -9.711334e-003 1.801561e+000 4.449294e-001 1.218941e+000 2.588414e+000
<VARIANCE> 25
 1.548678e+001 4.463514e+001 3.306196e+001 3.834528e+001 3.520750e+001 2.862049e+001 4.808846e+001 6.458875e+001 5.102097e+001 3.485877e+001 3.733583e+001 2.753568e+001 1.316847e+000 3.450481e+000 2.778455e+000 4.680344e+000 4.476979e+000 5.213997e+000 7.819480e+000 5.150681e+000 6.053769e+000 3.790242e+000 7.037330e+000 3.545212e+000 3.212368e+000
<GCONST> 1.074479e+002
<TRANSP> 5
 0.000000e+000 1.000000e+000 0.000000e+000 0.000000e+000 0.000000e+000
 0.000000e+000 7.396728e-001 2.603272e-001 0.000000e+000 0.000000e+000
 0.000000e+000 0.000000e+000 7.294478e-001 2.705522e-001 0.000000e+000
 0.000000e+000 0.000000e+000 0.000000e+000 3.876052e-001 6.123948e-001
 0.000000e+000 0.000000e+000 0.000000e+000 0.000000e+000 0.000000e+000
<ENDHMM>
~h "g"
<BEGINHMM>
<NUMSTATES> 5
<STATE> 2
<MEAN> 25
 2.727786e+000 7.809006e+000 1.473926e-001 6.888104e+000 -3.347908e+000 -1.924445e+000 -1.219161e+000 -5.401542e+000 -2.458758e+000 3.300724e+000 4.001910e+000 -8.353662e+000 -7.459398e-002 5.261469e-002 -3.686097e-001 5.618407e-001 -6.600578e-001 7.039718e-002 3.497218e-001 -5.967111e-001 -4.561376e-001 2.237659e-002 4.991646e-001 -3.799221e-001 1.649150e-001
<VARIANCE> 25
 1.435980e+001 2.375564e+001 2.820382e+001 3.828196e+001 3.489808e+001 2.103139e+001 9.187574e+001 5.792498e+001 2.219749e+001 2.218147e+001 2.123386e+001 2.558986e+001 8.436955e-001 9.350559e-001 1.686759e+000 2.330375e+000 3.438309e+000 9.241451e-001 3.415903e+000 4.216424e+000 3.263145e+000 2.419129e+000 2.040902e+000 2.466367e+000 1.122491e+000
<GCONST> 9.519171e+001
<STATE> 3
<MEAN> 25
 4.413217e+000 6.314791e+000 -4.762380e+000 8.133173e+000 -5.777725e+000 1.485405e+000 1.504790e-001 -7.375552e+000 -1.459592e+000 -7.211016e-003 3.764946e+000 -5.800713e+000 -1.974760e-001 -6.611381e-001 1.778523e-003 9.590170e-002 -5.664854e-001 4.686235e-001 7.109290e-002 1.132776e-001 -2.454768e-001 -1.054204e+000 7.750316e-001 1.775880e-001 4.252921e-001
<VARIANCE> 25
 1.146157e+001 4.925905e+001 6.773224e+001 4.221793e+001 3.769144e+001 3.786748e+001 1.172618e+002 4.335790e+001 9.668127e+001 4.332956e+001 3.382489e+001 2.348031e+001 1.661872e+000 1.880343e+000 3.573600e+000 2.810192e+000 3.361727e+000 2.336181e+000 5.370347e+000 6.127511e+000 4.020127e+000 3.597845e+000 2.825315e+000 2.217794e+000 1.373385e+000
<GCONST> 1.048814e+002
<STATE> 4
<MEAN> 25
 -1.305073e+000 5.123886e+000 -1.762435e+000 1.051418e+001 -3.652252e+000 -5.217766e-001 3.708378e+000 -4.827535e+000 -1.290523e+000 6.980011e-001 3.472617e+000 -5.105929e+000 -4.545584e-001 -1.198605e+000 1.311175e+000 -1.429178e+000 -1.854389e-001 1.208846e-001 -8.080198e-001 1.125012e+000 -2.336237e-001 1.005204e-001 -5.933939e-003 3.266914e-001 1.686483e+000
<VARIANCE> 25
 4.407007e+001 4.734461e+001 8.937772e+001 3.426251e+001 4.683279e+001 3.010964e+001 5.504585e+001 5.675311e+001 8.076276e+001 3.576185e+001 3.969581e+001 3.340199e+001 3.221025e+000 3.646423e+000 5.560091e+000 5.394124e+000 2.973083e+000 3.548493e+000 6.397212e+000 5.710405e+000 5.349667e+000 4.419070e+000 3.543503e+000 3.635005e+000 2.602639e+000
<GCONST> 1.105675e+002
<TRANSP> 5
 0.000000e+000 1.000000e+000 0.000000e+000 0.000000e+000 0.000000e+000
 0.000000e+000 7.246686e-001 2.753314e-001 0.000000e+000 0.000000e+000
 0.000000e+000 0.000000e+000 5.322481e-001 4.677518e-001 0.000000e+000
 0.000000e+000 0.000000e+000 0.000000e+000 8.204718e-001 1.795282e-001
 0.000000e+000 0.000000e+000 0.000000e+000 0.000000e+000 0.000000e+000
<ENDHMM>
~h "h"
<BEGINHMM>
<NUMSTATES> 5
<STATE> 2
<MEAN> 25
 -5.347866e+000 -2.211812e+000 -1.341616e+001 6.089494e+000 6.859749e+000 6.031568e+000 4.146253e+000 -2.913854e+000 1.565566e+000 -6.965560e+000 5.299257e+000 3.299623e+000 -1.919868e-001 -1.022780e+000 -2.377233e-001 -1.120910e-001 7.624587e-001 4.365199e-001 -4.237260e-002 -7.641782e-001 4.962687e-002 -3.643192e-001 1.344241e-002 5.033737e-001 4.297448e-001
<VARIANCE> 25
 1.351766e+001 5.389260e+001 5.648190e+001 5.100394e+001 3.333901e+001 3.298820e+001 4.488531e+001 3.922380e+001 3.088454e+001 2.980963e+001 2.335998e+001 3.116397e+001 5.704684e-001 1.222201e+000 2.225974e+000 1.669194e+000 2.312655e+000 1.717577e+000 3.298673e+000 2.367938e+000 2.235508e+000 1.868678e+000 2.085607e+000 1.851436e+000 6.842587e-001
<GCONST> 9.518343e+001
<STATE> 3
<MEAN> 25
 -1.064253e+000 -7.795850e+000 -6.542050e+000 3.989233e-001 1.293963e+001 9.164443e+000 6.459855e+000 -7.372723e+000 2.739822e+000 -6.275104e+000 -1.167645e+000 4.675975e+000 1.624383e+000 9.437312e-003 1.665665e+000 -1.711600e+000 1.335738e-001 1.695301e-001 1.015213e-001 2.841826e-001 -1.030113e+000 1.100643e+000 -1.024813e+000 -1.094927e+000 2.588154e+000
<VARIANCE> 25
 3.309230e+001 2.803994e+001 4.289216e+001 7.439198e+001 4.204668e+001 3.250288e+001 1.852243e+001 2.554568e+001 3.338759e+001 2.991033e+001 2.151007e+001 2.987755e+001 2.743439e+000 2.869490e+000 1.744045e+000 4.908067e+000 1.930844e+000 1.568362e+000 2.449563e+000 2.040326e+000 2.171108e+000 1.876057e+000 1.847089e+000 1.598902e+000 2.744631e+000
<GCONST> 9.802390e+001
<STATE> 4
<MEAN> 25
 3.236368e+000 -9.122178e+000 -3.587684e+000 -9.141954e+000 1.102210e+001 8.977870e+000 8.545135e+000 -8.055857e+000 1.906926e+000 -1.760170e+000 -1.473179e+000 -1.425164e+000 -4.684908e-002 1.535497e-001 -1.076415e-001 1.436984e-001 -2.290574e-001 -1.527369e-001 -1.475037e-001 3.443190e-001 1.614906e-001 4.701945e-002 -2.016254e-001 -1.671686e-001 -2.219641e-001
<VARIANCE> 25
 4.434488e+000 1.940589e+001 1.310562e+001 3.525337e+001 1.646578e+001 1.898543e+001 3.193342e+001 2.339265e+001 2.236705e+001 1.352854e+001 1.758228e+001 3.236970e+001 2.362291e-001 9.919389e-001 5.272913e-001 1.765122e+000 8.017006e-001 7.107325e-001 9.864936e-001 1.012574e+000 1.227367e+000 7.698153e-001 6.703489e-001 1.575516e+000 9.695531e-001
<GCONST> 7.883562e+001
<TRANSP> 5
 0.000000e+000 1.000000e+000 0.000000e+000 0.000000e+000 0.000000e+000
 0.000000e+000 8.732636e-001 1.267364e-001 0.000000e+000 0.000000e+000
 0.000000e+000 0.000000e+000 7.083709e-001 2.916291e-001 0.000000e+000
 0.000000e+000 0.000000e+000 0.000000e+000 8.908702e-001 1.091299e-001
 0.000000e+000 0.000000e+000 0.000000e+000 0.000000e+000 0.000000e+000
<ENDHMM>
~h "j"
<BEGINHMM>
<NUMSTATES> 5
<STATE> 2
<MEAN> 25
 -2.107563e+000 1.594533e+001 3.248035e+000 7.264426e+000 5.902429e-001 -3.651572e+000 3.356176e+000 -8.009548e+000 1.483425e+000 -4.483442e+000 1.872915e+000 -1.622317e+000 -8.643545e-002 -1.229279e+000 1.752534e+000 -1.390294e+000 -6.769450e-001 -7.814170e-001 -6.088132e-001 4.810883e-001 -6.678250e-001 -1.930287e-001 1.269683e+000 4.653422e-001 2.285743e+000
<VARIANCE> 25
 6.100113e+001 5.881369e+001 5.375575e+001 5.424061e+001 5.073241e+001 3.003440e+001 4.232869e+001 7.762656e+001 3.574516e+001 5.265024e+001 6.306297e+001 1.474768e+001 8.154475e+000 1.015891e+001 4.096923e+000 2.709935e+000 5.005598e+000 3.369177e+000 4.377484e+000 1.297802e+001 4.051740e+000 5.895311e+000 5.548667e+000 1.698621e+000 1.778771e+000
<GCONST> 1.115933e+002
<STATE> 3
<MEAN> 25
 1.407225e+000 -6.960048e+000 9.085728e+000 -7.875573e+000 -5.470634e+000 -6.785269e+000 -1.944665e+000 7.806959e+000 1.998444e+000 -5.489026e-001 -6.646993e-001 3.855092e+000 6.270195e-001 -2.134765e+000 -2.633837e+000 -1.006640e+000 1.173619e+000 1.117991e+000 8.059349e-001 1.360619e+000 2.134964e+000 2.548936e-001 -3.369187e+000 -5.113920e-001 1.324472e+000
<VARIANCE> 25
 5.265596e+000 2.830611e+001 4.552024e+001 1.949091e+001 1.895711e+001 1.063479e+001 4.609161e+001 3.161145e+001 6.991602e+001 3.536481e+001 6.519958e+001 2.352196e+001 5.852032e-001 2.574184e+000 2.648865e+000 1.738995e+000 2.904454e+000 1.919898e+000 1.912104e+000 4.802816e+000 1.816882e+000 3.100221e+000 1.184210e+000 1.643650e+000 6.639167e-001
<GCONST> 9.333626e+001
<STATE> 4
<MEAN> 25
 5.730821e-001 -8.895022e+000 -5.381005e+000 -5.895351e+000 9.258069e-001 5.470138e+000 -1.316966e+000 2.999646e+000 1.109809e+001 -7.380663e+000 -7.856872e+000 -2.988107e+000 2.686701e-001 -9.863862e-003 -5.578348e-001 2.221417e-001 7.671064e-001 1.694025e+000 -9.572993e-001 -9.855533e-001 2.399101e-001 -2.737209e-002 1.793255e-001 -1.368442e+000 -1.305801e-001
<VARIANCE> 25
 7.759803e+000 2.683371e+001 5.884089e+001 1.135996e+001 5.396441e+000 3.798559e+001 2.683201e+001 3.583105e+001 3.489725e+001 2.315511e+001 3.292854e+001 1.917284e+001 1.612890e+000 2.106541e+000 6.991053e+000 1.469742e+000 1.245168e+000 1.511690e+000 2.506991e+000 2.962043e+000 3.471604e+000 3.686971e+000 1.969594e+000 2.672543e+000 6.697636e-001
<GCONST> 9.312399e+001
<TRANSP> 5
 0.000000e+000 1.000000e+000 0.000000e+000 0.000000e+000 0.000000e+000
 0.000000e+000 9.007508e-001 9.924927e-002 0.000000e+000 0.000000e+000
 0.000000e+000 0.000000e+000 7.861826e-001 2.138174e-001 0.000000e+000
 0.000000e+000 0.000000e+000 0.000000e+000 6.539482e-001 3.460518e-001
 0.000000e+000 0.000000e+000 0.000000e+000 0.000000e+000 0.000000e+000
<ENDHMM>
~h "k"
<BEGINHMM>
<NUMSTATES> 5
<STATE> 2
<MEAN> 25
 -5.423430e+000 -6.351160e-001 -6.243145e+000 5.928909e+000 -1.250279e+000 -3.043019e+000 -5.100390e-002 -2.162351e-001 -2.060873e+000 1.164689e-001 3.846632e+000 -2.653434e+000 4.068106e-001 -1.534005e+000 6.420780e-001 -1.518353e+000 7.846090e-001 -8.699670e-002 -8.316983e-001 7.029955e-001 -6.886791e-001 7.977458e-001 -3.653578e-001 -2.356657e-001 2.801654e+000
<VARIANCE> 25
 3.053013e+001 4.636257e+001 8.972269e+001 3.810261e+001 7.354301e+001 6.279737e+001 5.940493e+001 3.822991e+001 5.425285e+001 4.158301e+001 3.139715e+001 3.014621e+001 5.201131e+000 5.342414e+000 1.758539e+001 5.862559e+000 7.996750e+000 5.358078e+000 6.809851e+000 4.420217e+000 6.408157e+000 5.188450e+000 3.620364e+000 3.306907e+000 3.874212e+000
<GCONST> 1.145424e+002
<STATE> 3
<MEAN> 25
 2.339433e+000 -8.438620e+000 6.513821e+000 -9.538476e+000 7.106372e-001 -7.050588e+000 -3.979475e+000 8.200664e+000 -4.071692e+000 7.267560e+000 -1.936682e+000 -1.683141e+000 5.796103e-001 -9.179523e-001 8.206092e-001 -1.676741e+000 5.152934e-001 -1.347820e-001 5.828363e-001 5.739554e-001 5.363894e-001 4.539006e-001 -8.644446e-001 3.352397e-001 9.890303e-001
<VARIANCE> 25
 9.544556e+000 9.911156e+000 3.447326e+001 1.634815e+001 2.521108e+001 4.389085e+001 3.394776e+001 1.750069e+001 2.343185e+001 2.216265e+001 2.017875e+001 1.913805e+001 1.198136e+000 2.370189e+000 3.511703e+000 3.681126e+000 1.129312e+000 7.556681e-001 2.162677e+000 1.748892e+000 1.467992e+000 3.580733e+000 1.447402e+000 8.789422e-001 2.520613e+000
<GCONST> 9.003526e+001
<STATE> 4
<MEAN> 25
 1.129549e+000 -1.204817e+000 3.746938e+000 -2.748111e+000 -4.327325e+000 -3.785025e+000 -3.428675e-001 3.110023e+000 -2.624467e+000 4.682255e+000 -1.430936e+000 -1.753594e+000 -5.428030e-002 5.471479e-001 -3.291391e-001 2.801483e-001 -8.281898e-003 1.526705e-001 1.237589e-001 -3.337296e-001 4.047712e-001 -2.501157e-001 9.319599e-003 -7.659926e-002 -5.970260e-001
<VARIANCE> 25
 2.054024e+001 5.060768e+001 1.002479e+002 5.666086e+001 5.698910e+001 3.700441e+001 3.463500e+001 6.027980e+001 5.663601e+001 3.458892e+001 5.856610e+001 3.001847e+001 1.191155e+000 3.025323e+000 4.209992e+000 3.090777e+000 2.674608e+000 1.291890e+000 2.313631e+000 2.626618e+000 2.612615e+000 2.961749e+000 2.606153e+000 1.646774e+000 3.630926e+000
<GCONST> 1.035726e+002
<TRANSP> 5
 0.000000e+000 1.000000e+000 0.000000e+000 0.000000e+000 0.000000e+000
 0.000000e+000 8.194499e-001 1.805501e-001 0.000000e+000 0.000000e+000
 0.000000e+000 0.000000e+000 7.278810e-001 2.721191e-001 0.000000e+000
 0.000000e+000 0.000000e+000 0.000000e+000 7.421464e-001 2.578536e-001
 0.000000e+000 0.000000e+000 0.000000e+000 0.000000e+000 0.000000e+000
<ENDHMM>
~h "l"
<BEGINHMM>
<NUMSTATES> 5
<STATE> 2
<MEAN> 25
 3.588864e+000 -4.356361e+000 3.898534e+000 -8.975825e+000 1.068346e+000 4.611030e+000 -1.005729e+001 -1.246838e-001 5.830969e+000 8.786624e-001 -1.178024e+000 -2.221340e+000 4.906535e-001 6.436870e-001 1.142443e+000 -2.805717e-001 -1.683304e-001 -2.475490e-001 -2.296351e+000 -7.734111e-001 1.961004e-001 1.048320e+000 6.674529e-001 1.806656e-001 -6.992491e-001
<VARIANCE> 25
 1.328522e+001 4.423683e+001 6.012217e+001 4.722374e+001 4.675342e+001 5.265551e+001 3.996977e+001 3.692315e+001 3.593383e+001 4.478046e+001 4.873283e+001 2.900465e+001 3.546692e-001 9.639246e-001 1.088246e+000 1.620861e+000 4.858864e+000 3.530301e+000 2.245018e+000 3.450127e+000 2.388518e+000 4.341751e+000 6.600097e+000 1.466824e+000 2.718895e-001
<GCONST> 9.770760e+001
<STATE> 3
<MEAN> 25
 3.889773e+000 -2.473350e+000 8.731024e+000 -8.924208e+000 9.085730e-001 2.636380e-001 -1.666084e+001 -5.033443e-002 4.059651e+000 2.734305e+000 1.112235e+000 -1.807965e-001 9.544134e-003 6.952468e-002 -1.859487e-001 -1.499993e-002 1.357565e-001 4.767453e-002 -3.358683e-001 1.810481e-001 3.757164e-002 9.862475e-002 7.658023e-002 -2.273082e-001 -7.605050e-002
<VARIANCE> 25
 1.235149e+001 1.945407e+001 3.318220e+001 3.402403e+001 2.640571e+001 5.827646e+001 3.361782e+001 4.281016e+001 3.703422e+001 5.048647e+001 3.790926e+001 3.053139e+001 2.701578e-001 6.418018e-001 1.181932e+000 1.297752e+000 1.402090e+000 1.315882e+000 1.655311e+000 2.271975e+000 1.185940e+000 1.957962e+000 1.022504e+000 1.258480e+000 3.151530e-001
<GCONST> 8.820852e+001
<STATE> 4
<MEAN> 25
 1.417608e+000 -3.436052e-001 1.115167e+000 -1.994004e+000 1.162687e+000 4.702240e-001 -7.076583e+000 2.509605e+000 7.403241e+000 -2.701458e+000 5.594255e-001 4.741636e-001 -3.348665e-001 -5.016427e-001 -1.340715e+000 3.258549e-001 8.371437e-003 -3.599333e-001 2.577321e+000 9.491736e-001 4.764090e-001 -6.881530e-001 -7.538926e-001 1.296766e-001 3.535177e-001
<VARIANCE> 25
 1.415405e+001 3.422149e+001 6.931740e+001 8.402150e+001 4.597841e+001 3.853568e+001 1.067118e+002 3.768499e+001 4.128605e+001 7.527209e+001 3.836670e+001 4.668146e+001 5.270163e-001 1.849970e+000 3.012826e+000 1.692853e+000 3.472918e+000 2.774661e+000 5.667662e+000 4.499449e+000 2.550543e+000 4.166935e+000 4.421530e+000 3.017013e+000 1.384398e+000
<GCONST> 1.044986e+002
<TRANSP> 5
 0.000000e+000 1.000000e+000 0.000000e+000 0.000000e+000 0.000000e+000
 0.000000e+000 6.786014e-001 3.213987e-001 0.000000e+000 0.000000e+000
 0.000000e+000 0.000000e+000 7.567860e-001 2.432139e-001 0.000000e+000
 0.000000e+000 0.000000e+000 0.000000e+000 7.395955e-001 2.604045e-001
 0.000000e+000 0.000000e+000 0.000000e+000 0.000000e+000 0.000000e+000
<ENDHMM>
~h "m"
<BEGINHMM>
<NUMSTATES> 5
<STATE> 2
<MEAN> 25
 2.685475e+000 1.163252e+000 -2.665297e-001 3.191484e+000 3.409387e+000 2.752527e+000 3.429605e-001 -6.944469e+000 -7.528739e-001 -4.529401e+000 2.414341e+000 -3.704330e-003 1.348984e-001 6.589174e-001 1.313960e+000 1.722321e+000 3.192434e-001 -2.622378e-001 -8.372232e-001 -2.104875e+000 -1.364451e+000 1.887402e-002 -1.036787e-001 3.227461e-002 -4.257598e-001
<VARIANCE> 25
 2.440023e+001 2.296990e+001 3.679380e+001 1.061022e+002 2.217522e+001 4.400027e+001 2.813203e+001 4.206590e+001 4.859935e+001 3.078047e+001 3.995963e+001 1.828034e+001 6.924470e-001 1.885764e+000 2.237417e+000 4.469426e+000 2.110961e+000 2.623233e+000 1.673240e+000 3.702763e+000 3.869402e+000 1.558544e+000 2.827484e+000 1.604052e+000 2.019352e+000
<GCONST> 9.852528e+001
<STATE> 3
<MEAN> 25
 4.827301e+000 1.013120e+000 3.431377e+000 5.665392e+000 5.036121e+000 2.930062e+000 -2.674794e+000 -1.186106e+001 -6.733145e+000 -3.865164e+000 1.925002e+000 -1.031447e+000 2.180774e-001 -3.345783e-001 -2.154157e-001 -9.634461e-001 -3.528661e-001 4.302649e-002 1.502109e-001 7.759858e-001 7.763591e-002 -5.815484e-002 -4.804192e-002 1.370572e-001 5.416830e-001
<VARIANCE> 25
 7.455361e+000 1.288470e+001 2.246059e+001 2.668184e+001 2.250756e+001 4.208460e+001 2.509345e+001 1.897904e+001 2.704518e+001 3.296428e+001 5.307094e+001 1.985482e+001 3.218117e-001 1.137746e+000 1.992058e+000 2.974166e+000 1.639658e+000 1.144483e+000 1.171687e+000 2.920671e+000 2.566108e+000 1.292632e+000 1.856557e+000 1.039603e+000 9.007140e-001
<GCONST> 8.806629e+001
<STATE> 4
<MEAN> 25
 6.261324e+000 -4.511162e+000 9.536036e-001 -7.537457e+000 4.579181e+000 6.610742e+000 -1.499195e+000 -3.032469e+000 -3.600604e+000 -2.324383e+000 8.181688e-002 2.610097e+000 8.742319e-002 -9.755293e-001 -2.992587e-001 -1.476681e+000 1.077403e-001 -9.446146e-002 -1.235448e-001 1.569311e+000 7.242298e-001 1.001370e+000 -6.043490e-001 -4.424737e-002 7.799568e-001
<VARIANCE> 25
 6.294505e+000 2.065456e+001 4.801933e+001 4.793916e+001 3.409389e+001 3.170305e+001 2.102497e+001 3.265199e+001 3.906035e+001 3.092960e+001 2.760173e+001 2.720952e+001 3.175233e-001 1.416685e+000 2.828166e+000 4.992838e+000 3.191297e+000 1.819225e+000 2.061534e+000 4.404200e+000 3.024339e+000 1.746866e+000 2.651831e+000 1.937153e+000 7.859827e-001
<GCONST> 9.466525e+001
<TRANSP> 5
 0.000000e+000 1.000000e+000 0.000000e+000 0.000000e+000 0.000000e+000
 0.000000e+000 6.938841e-001 3.061159e-001 0.000000e+000 0.000000e+000
 0.000000e+000 0.000000e+000 7.903583e-001 2.096417e-001 0.000000e+000
 0.000000e+000 0.000000e+000 0.000000e+000 7.817302e-001 2.182698e-001
 0.000000e+000 0.000000e+000 0.000000e+000 0.000000e+000 0.000000e+000
<ENDHMM>
~h "n"
<BEGINHMM>
<NUMSTATES> 5
<STATE> 2
<MEAN> 25
 5.630516e+000 7.227010e-001 4.780639e+000 3.496609e+000 -1.671562e+000 -9.065834e-001 -5.368359e+000 -6.094838e+000 -5.680060e-001 4.241402e+000 -1.551029e-001 -9.540548e-002 2.344705e-001 1.091719e+000 5.906016e-001 1.596803e+000 1.682544e-001 -1.165300e+000 -5.413495e-001 -2.091956e+000 2.177551e-001 1.412498e+000 -6.827439e-001 -6.001179e-002 -8.798954e-001
<VARIANCE> 25
 8.311242e+000 2.632219e+001 3.383436e+001 2.364330e+001 4.526806e+001 3.557551e+001 5.019064e+001 6.348723e+001 3.840184e+001 4.084986e+001 2.411161e+001 2.276391e+001 4.439277e-001 1.500280e+000 2.152945e+000 2.256805e+000 2.143552e+000 2.102722e+000 2.347009e+000 3.940874e+000 2.015384e+000 2.266745e+000 2.376210e+000 1.714507e+000 6.855015e-001
<GCONST> 9.458708e+001
<STATE> 3
<MEAN> 25
 5.483274e+000 2.595072e+000 6.542541e+000 5.849766e+000 -2.044119e+000 -3.302125e+000 -5.863404e+000 -7.692601e+000 -2.314871e-001 7.158633e+000 -3.434487e+000 -3.420173e-001 -2.560555e-002 2.091761e-001 -2.546717e-001 2.575547e-001 -8.198326e-003 8.439466e-002 8.653320e-002 -2.301704e-002 1.133372e-001 -1.697779e-001 -2.398473e-001 -3.128906e-002 -3.888744e-001
<VARIANCE> 25
 6.699383e+000 1.724523e+001 2.531113e+001 1.846990e+001 2.937773e+001 3.095428e+001 4.291916e+001 2.837784e+001 4.472438e+001 4.027940e+001 2.925586e+001 2.103600e+001 1.928787e-001 8.039966e-001 1.028556e+000 6.614712e-001 8.372433e-001 1.040002e+000 1.370179e+000 1.290097e+000 1.137969e+000 1.789749e+000 1.113189e+000 8.718726e-001 7.422064e-001
<GCONST> 8.324578e+001
<STATE> 4
<MEAN> 25
 1.211219e+000 4.659451e+000 8.943016e-001 8.350994e+000 -1.874483e+000 -1.220564e+000 -2.882257e+000 -6.139725e+000 1.756577e+000 2.952049e-001 -1.648761e+000 -6.608688e-001 -4.096037e-001 -5.408411e-001 -6.378869e-001 -6.261805e-001 1.298427e-002 5.663019e-001 2.588500e-001 1.515934e+000 1.290579e-001 -1.478790e+000 3.947313e-001 -1.845940e-001 3.088770e-001
<VARIANCE> 25
 3.195013e+001 3.504943e+001 3.507077e+001 3.095217e+001 3.853165e+001 3.551304e+001 4.835907e+001 4.401781e+001 3.532022e+001 5.847054e+001 3.504742e+001 2.868797e+001 8.502940e-001 3.341297e+000 1.842115e+000 3.263829e+000 2.327148e+000 3.596495e+000 3.165991e+000 6.651621e+000 2.946498e+000 5.461455e+000 3.136646e+000 3.173001e+000 1.970497e+000
<GCONST> 1.031528e+002
<TRANSP> 5
 0.000000e+000 1.000000e+000 0.000000e+000 0.000000e+000 0.000000e+000
 0.000000e+000 5.993644e-001 4.006356e-001 0.000000e+000 0.000000e+000
 0.000000e+000 0.000000e+000 7.945626e-001 2.054374e-001 0.000000e+000
 0.000000e+000 0.000000e+000 0.000000e+000 6.954812e-001 3.045188e-001
 0.000000e+000 0.000000e+000 0.000000e+000 0.000000e+000 0.000000e+000
<ENDHMM>
~h "o"
<BEGINHMM>
<NUMSTATES> 5
<STATE> 2
<MEAN> 25
 1.262764e+000 1.967159e+000 -9.443330e+000 -3.548410e+000 6.264107e-001 8.268659e+000 2.556194e+000 -4.259672e-001 -1.640124e+000 -1.214931e+000 1.451936e+000 4.908332e+000 7.451061e-001 2.129063e-001 4.870367e-001 -1.924293e+000 -2.283642e-001 6.614360e-001 -7.607098e-002 -2.933349e-002 -1.010387e-001 2.610816e-001 -2.339764e-001 4.725818e-001 9.788143e-001
<VARIANCE> 25
 2.862362e+001 1.726766e+001 3.013012e+001 2.143060e+002 1.950898e+001 5.004399e+001 1.856850e+001 1.571481e+001 1.569398e+001 2.900907e+001 2.352889e+001 1.996657e+001 1.743467e+000 1.474285e+000 2.088122e+000 7.249836e+000 1.137989e+000 2.968219e+000 1.581085e+000 1.533315e+000 1.561882e+000 1.866473e+000 1.726956e+000 2.158193e+000 2.360644e+000
<GCONST> 9.476451e+001
<STATE> 3
<MEAN> 25
 8.810144e+000 1.181544e+001 -3.215969e+000 -6.381790e+000 -3.926155e-001 9.697316e+000 1.204052e+000 -3.587458e+000 -5.446683e+000 -2.824844e+000 -1.870128e+000 5.325156e+000 1.645893e-001 8.568381e-001 -5.893929e-003 1.997103e+000 1.207450e-001 -3.504111e-001 1.382629e-001 -4.614398e-001 -7.642885e-002 -3.966685e-001 -6.642596e-002 -3.625793e-001 -5.880688e-001
<VARIANCE> 25
 6.918674e+000 3.360254e+001 1.530315e+001 1.515118e+002 1.572856e+001 2.749659e+001 1.452549e+001 1.339743e+001 1.411721e+001 2.051297e+001 2.231822e+001 2.046465e+001 4.710096e-001 1.676936e+000 1.990181e+000 7.411488e+000 1.683330e+000 1.436572e+000 2.090886e+000 1.177618e+000 6.879116e-001 2.588872e+000 2.929090e+000 1.755135e+000 1.969681e+000
<GCONST> 8.940924e+001
<STATE> 4
<MEAN> 25
 8.032805e+000 3.823909e+000 -4.303648e+000 -5.165297e+000 1.136955e+000 7.279899e+000 -3.746985e-002 -6.771452e+000 -1.602674e+000 2.328585e+000 3.640763e+000 2.090355e+000 -5.514223e-001 -2.987389e+000 6.965650e-001 -1.551205e+000 1.210645e+000 -1.599743e+000 -2.337247e+000 -5.384094e-002 1.308391e+000 2.353119e+000 1.594278e+000 -6.469824e-001 2.654117e+000
<VARIANCE> 25
 1.584879e+001 9.974297e+001 2.246374e+001 2.344490e+002 4.143954e+001 5.069390e+001 5.021439e+001 2.117198e+001 2.269738e+001 7.857949e+001 4.277996e+001 1.439010e+001 1.929145e+000 8.037322e+000 5.972475e+000 2.183193e+001 5.707087e+000 4.234181e+000 7.937434e+000 4.011801e+000 1.359100e+000 8.127471e+000 7.164684e+000 2.484278e+000 5.299687e+000
<GCONST> 1.116161e+002
<TRANSP> 5
 0.000000e+000 1.000000e+000 0.000000e+000 0.000000e+000 0.000000e+000
 0.000000e+000 9.150785e-001 8.492145e-002 0.000000e+000 0.000000e+000
 0.000000e+000 0.000000e+000 8.838472e-001 1.161528e-001 0.000000e+000
 0.000000e+000 0.000000e+000 0.000000e+000 7.277495e-001 2.722505e-001
 0.000000e+000 0.000000e+000 0.000000e+000 0.000000e+000 0.000000e+000
<ENDHMM>
~h "p"
<BEGINHMM>
<NUMSTATES> 5
<STATE> 2
<MEAN> 25
 3.271295e+000 -3.335196e-001 -7.054852e+000 -4.425561e+000 2.692197e+000 9.874088e+000 3.537084e+000 -3.235245e+000 8.188689e-001 -2.866823e+000 -1.175753e+000 -1.415365e+000 -7.393561e-002 6.584020e-001 -7.265356e-001 7.762667e-001 7.872867e-002 2.737112e-001 -3.096617e-002 -2.047184e-001 2.836304e-001 -2.489207e-001 1.244943e-001 -4.292745e-001 -7.809805e-001
<VARIANCE> 25
 1.664166e+001 5.947474e+001 3.006892e+001 1.284804e+002 3.398493e+001 6.804513e+001 2.925602e+001 3.257566e+001 2.993914e+001 2.615985e+001 2.415751e+001 1.854061e+001 9.142995e-001 2.808504e+000 2.157715e+000 8.831703e+000 3.144603e+000 2.415397e+000 1.827214e+000 3.185553e+000 2.085854e+000 2.222602e+000 2.056694e+000 2.105355e+000 3.194721e+000
<GCONST> 1.003177e+002
<STATE> 3
<MEAN> 25
 -5.043633e+000 4.317729e+000 -9.290526e+000 1.001408e+001 1.922881e+000 9.018816e-001 5.262092e+000 -1.778742e+000 4.508040e+000 -1.225551e+000 2.968537e+000 -1.256923e+000 -4.924583e-001 9.849389e-004 -5.511308e-002 3.007107e-001 -8.073709e-003 -1.152091e-001 1.473987e-001 9.260109e-002 -3.721261e-002 -6.015328e-002 3.307950e-001 2.976803e-001 -3.670518e-001
<VARIANCE> 25
 3.717344e+001 4.121687e+001 4.128430e+001 5.509538e+001 3.551887e+001 6.212649e+001 3.121058e+001 4.811743e+001 3.446753e+001 4.503334e+001 2.870327e+001 2.172807e+001 7.224714e-001 1.011602e+000 1.514893e+000 1.868871e+000 1.949220e+000 2.738952e+000 2.349910e+000 3.445801e+000 2.657153e+000 3.313051e+000 1.758928e+000 2.118903e+000 6.673589e-001
<GCONST> 9.738757e+001
<STATE> 4
<MEAN> 25
 -9.367102e-001 2.659119e+000 -6.213326e+000 5.873366e+000 -1.364529e+000 1.185469e+000 3.248233e+000 -1.401435e+000 1.602200e+000 -2.611521e+000 4.566284e+000 4.762996e-001 2.363708e+000 -1.871515e+000 1.679716e+000 -3.440737e+000 -1.528905e-001 7.898082e-001 -8.546746e-001 -2.553817e-001 -5.968789e-001 7.359299e-001 -6.148485e-002 -3.853566e-001 4.287287e+000
<VARIANCE> 25
 5.292914e+001 4.607792e+001 5.625828e+001 1.363493e+002 4.841598e+001 7.877834e+001 3.949612e+001 4.321354e+001 3.723496e+001 3.912141e+001 2.848273e+001 2.129272e+001 4.045296e+000 5.045317e+000 8.953176e+000 1.748141e+001 6.927557e+000 1.236354e+001 4.545746e+000 6.289022e+000 5.701749e+000 5.263143e+000 3.567241e+000 2.474619e+000 7.929918e+000
<GCONST> 1.155942e+002
<TRANSP> 5
 0.000000e+000 1.000000e+000 0.000000e+000 0.000000e+000 0.000000e+000
 0.000000e+000 6.452920e-001 3.547079e-001 0.000000e+000 0.000000e+000
 0.000000e+000 0.000000e+000 8.967515e-001 1.032486e-001 0.000000e+000
 0.000000e+000 0.000000e+000 0.000000e+000 7.181486e-001 2.818514e-001
 0.000000e+000 0.000000e+000 0.000000e+000 0.000000e+000 0.000000e+000
<ENDHMM>
~h "r"
<BEGINHMM>
<NUMSTATES> 5
<STATE> 2
<MEAN> 25
 -8.844544e-001 -3.160597e+000 -7.809618e+000 1.005054e-001 4.926552e+000 2.708985e+000 -6.546260e-001 3.383518e-001 8.874907e+000 -3.028755e+000 -2.088943e+000 1.331671e+000 7.974290e-001 -2.759473e-001 3.790882e-001 4.725029e-001 -8.608542e-001 1.417746e+000 -1.116759e+000 -2.897908e-001 6.409543e-001 -3.422351e-001 8.079384e-001 -5.705916e-001 2.908810e-001
<VARIANCE> 25
 2.548864e+001 3.709718e+001 7.821922e+001 6.305264e+001 6.579649e+001 3.598817e+001 3.550424e+001 3.762184e+001 3.334979e+001 3.284401e+001 4.205410e+001 6.205347e+001 2.225728e+000 3.154721e+000 3.668645e+000 4.822081e+000 4.174720e+000 2.385572e+000 3.292611e+000 2.946969e+000 2.850421e+000 4.560486e+000 3.382543e+000 5.276332e+000 3.814017e+000
<GCONST> 1.073133e+002
<STATE> 3
<MEAN> 25
 6.248648e+000 -7.420639e+000 -1.203148e+000 -1.279218e-001 -4.416249e+000 6.901661e+000 -9.996587e+000 3.571474e-001 1.086501e+001 -3.340101e+000 4.292906e+000 -2.398752e+000 7.600622e-001 -1.251904e+000 9.628410e-001 -2.601609e-001 -9.024763e-001 6.684902e-001 -1.524225e+000 1.170557e+000 -7.267410e-001 3.332339e-001 9.099076e-001 -4.133346e-001 4.352004e-001
<VARIANCE> 25
 1.120319e+001 1.805828e+001 4.158456e+001 2.974839e+001 2.581776e+001 2.775177e+001 2.324016e+001 4.494614e+001 6.400723e+001 2.055832e+001 1.906401e+001 3.757638e+001 1.119000e+000 2.329395e+000 1.366614e+000 5.780723e+000 1.991134e+000 1.465322e+000 2.618304e+000 6.621499e+000 1.796308e+000 2.566393e+000 5.002457e+000 2.525789e+000 2.348776e+000
<GCONST> 9.752653e+001
<STATE> 4
<MEAN> 25
 6.606019e+000 -1.267107e+001 2.560727e+000 -6.223730e+000 -2.008201e+000 8.275282e+000 -1.062739e+001 9.424027e+000 4.456662e+000 -7.792164e-001 -7.310747e-002 -5.049098e+000 -4.015837e-001 -9.169626e-002 4.366340e-001 -9.137402e-001 8.981702e-001 -5.882431e-001 9.215754e-001 7.302442e-001 -1.123778e+000 3.706803e-001 -1.284195e+000 2.277642e-001 3.950778e-001
<VARIANCE> 25
 9.762201e+000 2.869156e+001 3.986798e+001 2.284120e+001 4.095756e+001 4.835706e+001 3.027343e+001 4.542846e+001 3.601698e+001 2.466090e+001 3.309330e+001 2.670486e+001 5.946569e-001 1.368592e+000 1.391248e+000 1.388918e+000 2.430158e+000 2.077908e+000 2.743562e+000 3.837565e+000 1.905198e+000 1.747709e+000 2.970433e+000 1.760869e+000 6.005980e-001
<GCONST> 9.356086e+001
<TRANSP> 5
 0.000000e+000 1.000000e+000 0.000000e+000 0.000000e+000 0.000000e+000
 0.000000e+000 6.225644e-001 3.774355e-001 0.000000e+000 0.000000e+000
 0.000000e+000 0.000000e+000 6.959581e-001 3.040418e-001 0.000000e+000
 0.000000e+000 0.000000e+000 0.000000e+000 7.211583e-001 2.788417e-001
 0.000000e+000 0.000000e+000 0.000000e+000 0.000000e+000 0.000000e+000
<ENDHMM>
~h "s"
<BEGINHMM>
<NUMSTATES> 5
<STATE> 2
<MEAN> 25
 -6.754456e+000 7.070220e+000 -6.692683e+000 8.481436e+000 3.023472e+000 -5.982667e+000 9.144693e+000 7.506782e-001 3.617628e+000 -3.523112e+000 2.731810e+000 7.654484e-001 -3.867568e+000 2.302248e+000 -2.272276e+000 2.209255e+000 -8.633952e-002 -9.497260e-001 2.243964e+000 -1.315771e-001 8.306723e-001 -1.579942e+000 1.812729e+000 -3.282543e-001 5.304136e-001
<VARIANCE> 25
 4.965144e+001 4.478503e+001 5.430359e+001 6.007470e+001 3.854483e+001 2.754666e+001 6.646900e+001 5.473782e+001 5.199893e+001 5.099600e+001 4.427594e+001 2.411537e+001 3.119270e+000 5.971534e+000 3.856265e+000 6.019989e+000 3.664085e+000 3.714924e+000 3.829403e+000 4.645643e+000 3.965117e+000 3.796154e+000 3.150150e+000 2.456958e+000 2.947967e+000
<GCONST> 1.091652e+002
<STATE> 3
<MEAN> 25
 -2.299415e+001 1.240193e+001 -1.476672e+001 1.200102e+001 3.189574e+000 -6.639558e+000 1.338556e+001 8.660641e-001 3.961136e+000 -5.235206e+000 7.058652e+000 2.395773e+000 -6.623345e-001 -1.735302e-001 -1.223772e-001 -7.923581e-002 -5.551148e-002 1.233478e-002 -7.390281e-002 1.551656e-001 -2.753587e-002 -2.007306e-002 8.943987e-002 2.766046e-001 2.525417e-001
<VARIANCE> 25
 2.296386e+001 2.428271e+001 3.253153e+001 3.636163e+001 3.949270e+001 2.943751e+001 3.564255e+001 5.805535e+001 3.086196e+001 2.524230e+001 2.628189e+001 2.094028e+001 1.772108e+000 1.781190e+000 1.518925e+000 1.287211e+000 1.482005e+000 1.566702e+000 1.702211e+000 1.753255e+000 1.853872e+000 1.803780e+000 1.700219e+000 1.352407e+000 4.905729e-001
<GCONST> 9.209158e+001
<STATE> 4
<MEAN> 25
 -1.377306e+001 5.820027e+000 -8.867191e+000 7.175716e+000 1.766864e+000 -6.318533e+000 7.420392e+000 1.349894e+000 5.206305e+000 -5.185131e+000 3.515588e+000 -1.613656e-001 5.128139e+000 -1.887044e+000 2.692059e+000 -2.363474e+000 -4.792701e-001 1.015847e+000 -3.040075e+000 -5.412793e-001 -1.561962e-001 7.557118e-001 -1.111069e+000 -1.968502e+000 1.295415e+000
<VARIANCE> 25
 9.708949e+001 2.174252e+001 4.690223e+001 5.156590e+001 3.109579e+001 3.153381e+001 8.826735e+001 4.620877e+001 3.726002e+001 2.696521e+001 3.400539e+001 3.279656e+001 3.394650e+000 2.464395e+000 5.138948e+000 6.496249e+000 3.761410e+000 3.325689e+000 4.265037e+000 4.571056e+000 3.457031e+000 2.794122e+000 3.258547e+000 2.895449e+000 3.453098e+000
<GCONST> 1.074042e+002
<TRANSP> 5
 0.000000e+000 1.000000e+000 0.000000e+000 0.000000e+000 0.000000e+000
 0.000000e+000 7.428939e-001 2.571060e-001 0.000000e+000 0.000000e+000
 0.000000e+000 0.000000e+000 9.045004e-001 9.549958e-002 0.000000e+000
 0.000000e+000 0.000000e+000 0.000000e+000 7.340763e-001 2.659237e-001
 0.000000e+000 0.000000e+000 0.000000e+000 0.000000e+000 0.000000e+000
<ENDHMM>
~h "t"
<BEGINHMM>
<NUMSTATES> 5
<STATE> 2
<MEAN> 25
 -3.234144e-002 -3.371174e+000 -5.632390e+000 4.639416e+000 -3.320468e+000 3.814308e-001 -2.155857e+000 5.758245e+000 2.640715e+000 -4.745500e+000 1.839407e+000 -5.100805e+000 2.303382e-002 -6.518668e-001 1.092550e+000 -9.734225e-001 -2.439475e-002 -6.846493e-001 -6.337394e-001 1.016627e+000 8.054603e-002 3.143119e-001 -1.106047e-001 9.164551e-002 1.293598e+000
<VARIANCE> 25
 2.482193e+001 3.943151e+001 5.902637e+001 6.044481e+001 3.361762e+001 6.570633e+001 4.494235e+001 5.720909e+001 3.709978e+001 5.775647e+001 4.349389e+001 1.956898e+001 2.835738e+000 5.278281e+000 6.716825e+000 7.805663e+000 3.861108e+000 5.816714e+000 4.631733e+000 5.727666e+000 3.610239e+000 7.065983e+000 5.835801e+000 2.209355e+000 1.232431e+001
<GCONST> 1.123443e+002
<STATE> 3
<MEAN> 25
 2.375803e+000 -5.899810e+000 3.770842e+000 -5.418078e+000 -1.123063e+000 -8.149364e+000 -1.954691e+000 1.167951e+001 3.580078e+000 3.046222e+000 -4.602523e+000 -6.922473e-001 -1.353218e-001 7.258302e-001 -6.497244e-001 5.470160e-001 1.796299e-002 -6.784832e-002 4.205507e-001 -1.657888e-001 2.808493e-001 -1.569215e-001 -1.238952e-001 5.625341e-002 -1.134238e+000
<VARIANCE> 25
 4.571521e+000 3.511651e+001 3.412687e+001 3.030784e+001 1.293162e+001 2.463732e+001 1.669392e+001 1.829194e+001 2.530308e+001 1.842255e+001 1.671898e+001 1.455284e+001 3.858607e-001 1.134238e+000 9.627827e-001 1.170191e+000 9.962828e-001 1.209716e+000 1.268570e+000 1.093184e+000 1.206845e+000 2.060854e+000 1.470551e+000 1.137172e+000 1.091684e+000
<GCONST> 8.241081e+001
<STATE> 4
<MEAN> 25
 -3.321815e+000 8.009529e-001 -9.060925e+000 3.069592e+000 -1.143947e+000 -2.987272e+000 1.059887e+000 5.519157e+000 6.860232e+000 -3.509604e+000 6.337482e-003 -9.588643e-001 -5.034171e-001 -2.174389e-002 -4.523515e-001 -1.504826e-001 8.296164e-001 1.165936e+000 5.277481e-001 -5.684701e-001 -4.161872e-001 -8.029569e-001 4.772376e-002 7.556320e-001 -2.376470e-001
<VARIANCE> 25
 2.136063e+001 3.035321e+001 3.757047e+001 2.201334e+001 3.953799e+001 6.411615e+001 4.380494e+001 3.466623e+001 2.651169e+001 2.473458e+001 3.088445e+001 2.719001e+001 8.563045e-001 2.356018e+000 3.978184e+000 1.389637e+000 3.012644e+000 4.677024e+000 2.816305e+000 3.251714e+000 2.766666e+000 3.899010e+000 2.146578e+000 2.291326e+000 1.359937e+000
<GCONST> 9.907222e+001
<TRANSP> 5
 0.000000e+000 1.000000e+000 0.000000e+000 0.000000e+000 0.000000e+000
 0.000000e+000 8.833667e-001 1.166333e-001 0.000000e+000 0.000000e+000
 0.000000e+000 0.000000e+000 9.089448e-001 9.105519e-002 0.000000e+000
 0.000000e+000 0.000000e+000 0.000000e+000 5.892038e-001 4.107963e-001
 0.000000e+000 0.000000e+000 0.000000e+000 0.000000e+000 0.000000e+000
<ENDHMM>
~h "w"
<BEGINHMM>
<NUMSTATES> 5
<STATE> 2
<MEAN> 25
 5.782300e+000 1.193652e+000 -1.474965e+000 -5.164112e-001 1.813968e+000 4.803134e+000 -1.658233e+000 -4.801892e+000 -1.031951e+000 3.768805e+000 -6.648863e-001 -9.525539e-001 1.167087e+000 -8.679441e-001 1.187740e+000 -1.810664e+000 -4.643005e-001 4.820061e-001 -1.258938e+000 -2.914779e-001 -1.287303e+000 9.811928e-001 1.184112e+000 1.876938e-001 1.747005e+000
<VARIANCE> 25
 1.766037e+001 4.746033e+001 4.120707e+001 1.380247e+002 2.397244e+001 3.786430e+001 6.827084e+001 4.455760e+001 4.257813e+001 5.531828e+001 3.063930e+001 2.185675e+001 2.053506e+000 5.519916e+000 4.079488e+000 6.998684e+000 1.789788e+000 2.328314e+000 3.665262e+000 5.696976e+000 3.255165e+000 2.969939e+000 3.269400e+000 2.559864e+000 6.443828e+000
<GCONST> 1.069287e+002
<STATE> 3
<MEAN> 25
 7.813592e+000 -1.071414e+000 5.312688e-001 -8.712466e+000 2.044976e-001 6.238771e+000 -1.816953e+000 -3.364214e+000 -4.357743e+000 3.738760e+000 1.821926e+000 2.427175e+000 -3.744512e-003 -4.117450e-001 4.246601e-001 -8.097126e-001 -8.809449e-002 -1.960652e-001 -3.411728e-001 3.546711e-001 -7.311575e-002 6.286818e-001 1.625375e-002 3.459552e-001 4.076604e-001
<VARIANCE> 25
 9.393044e+000 3.125607e+001 3.563059e+001 1.015985e+002 1.883797e+001 2.510699e+001 4.694314e+001 3.473147e+001 2.846052e+001 5.388945e+001 2.059261e+001 3.039079e+001 3.422567e-001 1.713241e+000 1.673581e+000 3.779433e+000 1.689499e+000 1.853468e+000 1.466344e+000 2.176406e+000 2.873652e+000 3.386482e+000 1.992982e+000 2.289868e+000 1.549665e+000
<GCONST> 9.499768e+001
<STATE> 4
<MEAN> 25
 6.559953e+000 -3.470605e+000 3.024922e+000 -9.487746e+000 2.143286e+000 1.232849e+000 -7.659282e+000 -8.339105e-001 -1.545244e+000 1.240811e+001 -5.292054e-001 -1.074372e-001 -2.657697e-001 -1.710393e-001 1.403166e-001 5.082237e-001 -5.978131e-002 -8.363611e-001 2.189075e-001 7.580857e-001 4.480198e-001 -3.429667e-001 -6.159103e-001 -2.163466e-001 -2.486305e-002
<VARIANCE> 25
 5.365475e+000 2.497688e+001 3.391500e+001 5.668484e+001 1.405321e+001 4.047542e+001 3.827906e+001 3.027814e+001 4.447409e+001 4.255074e+001 2.370377e+001 1.634977e+001 2.931177e-001 1.035851e+000 1.631246e+000 1.942837e+000 1.593787e+000 1.937488e+000 1.574346e+000 2.123246e+000 3.428032e+000 2.319271e+000 1.836206e+000 2.328691e+000 1.055236e+000
<GCONST> 9.118639e+001
<TRANSP> 5
 0.000000e+000 1.000000e+000 0.000000e+000 0.000000e+000 0.000000e+000
 0.000000e+000 4.559799e-001 5.440201e-001 0.000000e+000 0.000000e+000
 0.000000e+000 0.000000e+000 6.868303e-001 3.131697e-001 0.000000e+000
 0.000000e+000 0.000000e+000 0.000000e+000 7.268143e-001 2.731857e-001
 0.000000e+000 0.000000e+000 0.000000e+000 0.000000e+000 0.000000e+000
<ENDHMM>
~h "y"
<BEGINHMM>
<NUMSTATES> 5
<STATE> 2
<MEAN> 25
 1.138565e+000 -5.250949e+000 1.218678e+001 -4.976611e+000 -7.412927e+000 -3.525702e+000 -2.688639e+000 7.052069e+000 -5.636826e+000 1.150285e+000 3.711148e+000 2.091281e+000 -2.846647e-001 -4.998623e-001 7.457635e-001 -7.707606e-001 -1.176668e+000 -6.970375e-001 1.007266e+000 1.068464e+000 -5.926980e-001 7.120432e-001 1.486966e-001 7.172906e-001 7.080420e-001
<VARIANCE> 25
 1.368969e+001 3.148949e+001 4.829968e+001 1.426523e+001 2.616876e+001 2.009819e+001 3.990498e+001 6.330322e+001 4.511092e+001 4.478902e+001 4.376302e+001 2.300155e+001 5.868197e-001 2.050657e+000 3.648128e+000 2.088160e+000 2.094092e+000 1.344058e+000 2.885460e+000 3.856880e+000 4.580410e+000 2.066043e+000 2.584863e+000 1.524941e+000 1.244766e+000
<GCONST> 9.667152e+001
<STATE> 3
<MEAN> 25
 6.593610e-001 -6.948373e+000 1.470303e+001 -7.877067e+000 -9.681531e+000 -6.466521e+000 2.096150e+000 9.513907e+000 -8.520135e+000 5.546049e+000 2.244163e+000 3.413313e+000 9.295826e-002 -2.439139e-001 -2.116493e-001 -2.061896e-001 4.435533e-001 -1.286386e-001 2.869358e-001 3.994944e-001 3.199685e-001 7.236513e-003 -7.415454e-001 2.460811e-001 4.123344e-003
<VARIANCE> 25
 6.585542e+000 1.095376e+001 1.792726e+001 1.019156e+001 1.600206e+001 1.409162e+001 2.550530e+001 1.867062e+001 2.183695e+001 2.047448e+001 1.635341e+001 1.275609e+001 2.505842e-001 6.077114e-001 1.264373e+000 4.969032e-001 1.094919e+000 4.858811e-001 1.124201e+000 9.723592e-001 2.093649e+000 1.228822e+000 1.627896e+000 6.671022e-001 1.351777e-001
<GCONST> 7.459814e+001
<STATE> 4
<MEAN> 25
 2.401054e+000 -6.930935e+000 8.428000e+000 -7.325095e+000 -1.797259e+000 -7.079879e+000 2.108929e+000 9.414672e+000 2.751114e-001 3.231461e+000 -6.778318e+000 4.458521e+000 1.183353e-001 4.214149e-001 -1.068176e+000 5.287067e-001 9.143707e-001 2.415407e-001 4.041705e-002 -4.889360e-001 1.056729e+000 -5.373682e-001 -8.427414e-001 1.344445e-002 -8.510258e-001
<VARIANCE> 25
 6.197352e+000 1.810268e+001 2.387146e+001 1.593338e+001 2.257458e+001 1.587286e+001 2.811622e+001 1.689037e+001 3.860558e+001 2.603368e+001 2.355913e+001 1.100748e+001 3.934736e-001 1.008618e+000 1.134678e+000 7.489946e-001 1.684285e+000 8.423350e-001 1.554203e+000 9.396656e-001 1.478931e+000 1.150318e+000 2.107375e+000 8.654542e-001 8.030193e-001
<GCONST> 8.167819e+001
<TRANSP> 5
 0.000000e+000 1.000000e+000 0.000000e+000 0.000000e+000 0.000000e+000
 0.000000e+000 6.246398e-001 3.753602e-001 0.000000e+000 0.000000e+000
 0.000000e+000 0.000000e+000 8.249401e-001 1.750599e-001 0.000000e+000
 0.000000e+000 0.000000e+000 0.000000e+000 8.153798e-001 1.846202e-001
 0.000000e+000 0.000000e+000 0.000000e+000 0.000000e+000 0.000000e+000
<ENDHMM>
~h "aa"
<BEGINHMM>
<NUMSTATES> 5
<STATE> 2
<MEAN> 25
 2.694854e+000 -9.028078e+000 -5.144427e+000 -1.173310e+001 9.705292e+000 4.171584e+000 4.257417e-001 3.932258e+000 3.898455e+000 -1.795362e+000 -6.392389e+000 -2.208378e+000 8.789302e-003 -7.341089e-001 -5.466532e-001 -5.580373e-001 1.417722e+000 6.831794e-001 9.708661e-001 -7.085859e-001 -3.331429e-001 -1.935745e-001 -5.278820e-001 2.999607e-001 4.349209e-001
<VARIANCE> 25
 8.438844e+000 9.903245e+000 2.525425e+001 2.325349e+001 2.243733e+001 4.116964e+001 3.332335e+001 3.395759e+001 4.038885e+001 2.642300e+001 3.292991e+001 2.636052e+001 3.259578e-001 7.922411e-001 1.400468e+000 1.329172e+000 1.696949e+000 1.275452e+000 2.214648e+000 2.360592e+000 1.570035e+000 1.773982e+000 1.722888e+000 1.420567e+000 6.346235e-001
<GCONST> 8.750520e+001
<STATE> 3
<MEAN> 25
 3.231044e+000 -9.489951e+000 -6.502225e+000 -1.280742e+001 1.265718e+001 8.305555e+000 2.360150e+000 -2.480730e+000 4.571560e+000 -2.803897e+000 -5.622302e+000 -7.627296e-001 1.226264e-002 1.383591e-002 -3.379500e-002 4.584341e-002 7.120927e-002 3.800733e-002 1.940837e-003 -1.860003e-001 1.628068e-001 7.699450e-002 -9.372242e-002 -3.195216e-002 -1.326298e-001
<VARIANCE> 25
 6.531817e+000 1.086798e+001 1.893866e+001 2.086508e+001 2.313510e+001 3.055065e+001 2.513219e+001 2.903474e+001 3.020041e+001 2.678423e+001 2.386800e+001 2.844639e+001 1.418100e-001 3.832453e-001 4.353230e-001 5.629202e-001 6.126153e-001 8.979929e-001 8.252993e-001 7.797707e-001 4.855843e-001 6.747154e-001 6.419157e-001 7.371423e-001 2.681913e-001
<GCONST> 7.402112e+001
<STATE> 4
<MEAN> 25
 -5.204564e-001 -3.306309e+000 -1.292702e+001 -6.035026e-001 9.401004e+000 4.162178e+000 3.990829e+000 -1.189276e-001 5.048949e+000 -5.619247e+000 -5.410168e+000 -7.505398e-001 -1.860617e-001 4.338614e-001 -2.228289e-001 7.640063e-001 -4.838542e-001 -2.535368e-001 -1.407076e-001 2.315916e-001 -4.098284e-004 -1.232586e-001 2.256633e-001 2.603512e-002 -8.329417e-001
<VARIANCE> 25
 2.172903e+001 2.330082e+001 3.331076e+001 6.127029e+001 3.752163e+001 4.299197e+001 3.031531e+001 2.915751e+001 2.736087e+001 3.682228e+001 3.353648e+001 3.009803e+001 5.705422e-001 1.405373e+000 1.293048e+000 1.763527e+000 1.918969e+000 1.843184e+000 2.316595e+000 2.325515e+000 1.968902e+000 1.853627e+000 1.924483e+000 1.968708e+000 1.035151e+000
<GCONST> 9.400983e+001
<TRANSP> 5
 0.000000e+000 1.000000e+000 0.000000e+000 0.000000e+000 0.000000e+000
 0.000000e+000 6.498242e-001 3.501758e-001 0.000000e+000 0.000000e+000
 0.000000e+000 0.000000e+000 9.172748e-001 8.272527e-002 0.000000e+000
 0.000000e+000 0.000000e+000 0.000000e+000 9.075179e-001 9.248208e-002
 0.000000e+000 0.000000e+000 0.000000e+000 0.000000e+000 0.000000e+000
<ENDHMM>
~h "ae"
<BEGINHMM>
<NUMSTATES> 5
<STATE> 2
<MEAN> 25
 2.111595e-001 -5.129896e+000 -1.248277e+000 4.439812e+000 -2.007366e+000 -3.441878e+000 2.272166e+000 2.496281e+000 2.137914e-001 -4.122141e+000 -1.690156e+000 1.958469e+000 6.826449e-001 -1.575647e+000 9.086260e-001 -2.421685e+000 -1.300318e+000 -7.293060e-001 9.260936e-001 1.938020e+000 -6.193216e-002 -3.335395e-001 -8.094817e-001 5.161526e-002 2.141517e+000
<VARIANCE> 25
 1.768951e+001 5.911724e+001 6.266038e+001 6.330629e+001 4.105828e+001 5.740042e+001 6.544984e+001 8.025785e+001 4.261355e+001 3.178815e+001 3.944756e+001 7.780483e+001 3.695551e+000 5.017493e+000 3.229472e+000 4.642948e+000 3.225391e+000 3.558436e+000 7.746616e+000 5.628811e+000 2.866322e+000 6.854029e+000 2.251055e+000 4.091969e+000 6.150126e+000
<GCONST> 1.116152e+002
<STATE> 3
<MEAN> 25
 1.321597e+000 -7.893197e+000 2.037448e+000 -1.300787e+000 -4.523004e+000 -4.259713e+000 3.897772e+000 8.007886e+000 2.155416e+000 -4.802261e+000 -2.580002e+000 3.947507e-001 -1.996453e-001 -1.893727e+000 1.012412e+000 -2.064302e+000 -4.980334e-001 5.060135e-001 2.067268e+000 2.582231e+000 -6.531374e-001 -9.457268e-001 -6.926194e-001 1.120645e+000 1.912110e+000
<VARIANCE> 25
 5.899751e+000 3.882061e+001 4.407618e+001 4.131391e+001 4.284874e+001 4.826698e+001 6.360008e+001 4.660177e+001 2.937321e+001 2.166881e+001 4.155147e+001 2.877328e+001 7.423434e-001 4.713850e+000 4.369010e+000 3.281206e+000 4.010961e+000 3.906464e+000 2.205996e+000 7.301548e+000 3.135509e+000 2.704596e+000 1.621774e+000 2.580848e+000 4.784380e+000
<GCONST> 1.026399e+002
<STATE> 4
<MEAN> 25
 1.171197e+000 -9.175624e+000 4.594809e+000 -4.199800e+000 -4.436730e+000 -3.032049e+000 8.294327e+000 1.095102e+001 -1.932111e+000 -5.417192e+000 -2.660228e+000 1.797606e+000 7.277310e-002 2.719984e-001 -1.910998e-001 3.131382e-001 2.474163e-001 -7.853198e-003 -2.332022e-001 -2.248788e-001 -9.444486e-002 2.910987e-001 1.093032e-001 -1.717703e-001 -4.282888e-001
<VARIANCE> 25
 8.935075e+000 2.561283e+001 3.278227e+001 2.376905e+001 3.991790e+001 4.053238e+001 4.050856e+001 2.344871e+001 2.553468e+001 2.594893e+001 3.496842e+001 2.144168e+001 4.052368e-001 1.034258e+000 1.322411e+000 1.627350e+000 1.194899e+000 1.323905e+000 2.661853e+000 1.384309e+000 1.677088e+000 1.229446e+000 1.529449e+000 1.458223e+000 1.233020e+000
<GCONST> 8.879438e+001
<TRANSP> 5
 0.000000e+000 1.000000e+000 0.000000e+000 0.000000e+000 0.000000e+000
 0.000000e+000 3.941548e-001 6.058453e-001 0.000000e+000 0.000000e+000
 0.000000e+000 0.000000e+000 4.431264e-001 5.568736e-001 0.000000e+000
 0.000000e+000 0.000000e+000 0.000000e+000 9.166496e-001 8.335040e-002
 0.000000e+000 0.000000e+000 0.000000e+000 0.000000e+000 0.000000e+000
<ENDHMM>
~h "ah"
<BEGINHMM>
<NUMSTATES> 5
<STATE> 2
<MEAN> 25
 3.409854e+000 -7.587976e+000 4.173997e-002 -8.135034e+000 4.537581e+000 2.226190e+000 -2.182249e+000 3.130541e+000 3.102450e+000 3.531846e-001 -4.699983e+000 -1.035275e+000 2.261772e-002 -6.473585e-001 2.718907e-001 -6.933947e-001 6.608685e-001 -3.086646e-001 4.923945e-001 8.475418e-001 -1.390280e-001 6.157260e-002 -7.956514e-001 3.244731e-001 2.964970e-001
<VARIANCE> 25
 7.888670e+000 2.397094e+001 3.301997e+001 3.389025e+001 4.006787e+001 6.410242e+001 4.181328e+001 4.645501e+001 3.694054e+001 3.979746e+001 2.975636e+001 3.281410e+001 6.716105e-001 2.318374e+000 1.755711e+000 3.887741e+000 2.709578e+000 3.942897e+000 3.220891e+000 4.573083e+000 2.362473e+000 3.214375e+000 2.783880e+000 2.734706e+000 1.640551e+000
<GCONST> 9.978349e+001
<STATE> 3
<MEAN> 25
 2.985548e+000 -4.913001e+000 8.900968e-001 -6.213392e+000 5.184248e+000 -1.906162e+000 -1.039407e+000 4.627484e+000 2.578080e+000 1.537843e+000 -6.525195e+000 3.887589e-001 1.369378e-002 8.818321e-001 -3.957925e-001 8.880121e-001 -1.990038e-001 2.275369e-002 9.461081e-002 -1.954605e-001 -1.676049e-002 -1.934741e-001 3.436522e-001 -4.277162e-002 -1.165870e+000
<VARIANCE> 25
 5.941364e+000 2.517087e+001 3.269868e+001 3.306534e+001 3.356164e+001 5.440182e+001 2.928547e+001 3.566745e+001 3.267974e+001 3.126664e+001 2.469639e+001 2.708325e+001 3.496148e-001 1.320400e+000 1.150975e+000 1.666101e+000 1.488642e+000 1.949817e+000 1.878809e+000 1.795052e+000 1.605762e+000 1.977116e+000 1.548836e+000 1.359887e+000 1.213651e+000
<GCONST> 9.008952e+001
<STATE> 4
<MEAN> 25
 -1.098991e+000 2.439990e+000 -6.435188e+000 4.363805e+000 -3.511360e-002 -6.295583e-001 1.327502e+000 3.137580e+000 4.654002e+000 -2.897238e+000 -8.660061e-001 7.509580e-001 -3.865537e-001 4.340124e-001 -4.021765e-001 6.637989e-001 -2.743267e-001 9.489529e-002 1.592473e-001 -3.893061e-001 6.343665e-002 -1.633033e-001 4.422406e-001 1.063925e-001 -8.148519e-001
<VARIANCE> 25
 2.175785e+001 3.360250e+001 4.056706e+001 4.721460e+001 4.797895e+001 4.929922e+001 3.856826e+001 3.880780e+001 3.484458e+001 3.705204e+001 3.308485e+001 3.212952e+001 4.911920e-001 1.453710e+000 1.690894e+000 1.947268e+000 2.120079e+000 2.219283e+000 2.118420e+000 2.631437e+000 2.573946e+000 2.617263e+000 2.012264e+000 1.900333e+000 7.245836e-001
<GCONST> 9.635938e+001
<TRANSP> 5
 0.000000e+000 1.000000e+000 0.000000e+000 0.000000e+000 0.000000e+000
 0.000000e+000 4.722594e-001 5.277405e-001 0.000000e+000 0.000000e+000
 0.000000e+000 0.000000e+000 7.662127e-001 2.337873e-001 0.000000e+000
 0.000000e+000 0.000000e+000 0.000000e+000 8.159663e-001 1.840337e-001
 0.000000e+000 0.000000e+000 0.000000e+000 0.000000e+000 0.000000e+000
<ENDHMM>
~h "ao"
<BEGINHMM>
<NUMSTATES> 5
<STATE> 2
<MEAN> 25
 4.508430e+000 9.196907e-001 1.530606e+000 -4.816455e+000 -1.927486e+000 7.869330e+000 -4.522351e+000 -6.355704e+000 5.724459e+000 6.001319e-001 8.355922e-001 1.432400e+000 1.100116e+000 -8.324807e-001 1.535089e+000 -2.253462e+000 -4.762713e-001 7.693037e-001 -1.269235e+000 -9.117336e-001 -7.605121e-001 1.935571e+000 9.425022e-001 2.012428e-002 1.209275e+000
<VARIANCE> 25
 3.449237e+001 3.642439e+001 4.162051e+001 8.093958e+001 3.118411e+001 4.739519e+001 8.588945e+001 3.350993e+001 1.091407e+002 6.243761e+001 8.738884e+001 3.065405e+001 2.903515e+000 3.449143e+000 2.673627e+000 1.004736e+001 3.106586e+000 4.614815e+000 2.431737e+000 5.106211e+000 4.500732e+000 3.265227e+000 6.532190e+000 2.919158e+000 4.251529e+000
<GCONST> 1.110480e+002
<STATE> 3
<MEAN> 25
 7.186393e+000 -8.011208e-001 3.100290e+000 -8.825614e+000 2.404366e-001 5.424456e+000 -6.491420e+000 -9.357152e+000 2.896008e+000 4.175983e+000 4.862113e+000 3.990306e-001 2.528147e-001 9.384001e-002 -1.019528e+000 -3.396184e-001 8.950485e-001 -3.341316e-001 2.918251e-001 7.694194e-002 -1.591764e-001 6.578975e-001 -8.871028e-002 3.811413e-002 9.932950e-002
<VARIANCE> 25
 1.079177e+001 2.270784e+001 4.978227e+001 3.603275e+001 3.727997e+001 4.063134e+001 5.525666e+001 6.909094e+001 7.829599e+001 2.659385e+001 6.983804e+001 2.770868e+001 3.053434e-001 2.607822e+000 2.203172e+000 5.485373e+000 6.048941e+000 2.689106e+000 2.621390e+000 3.839054e+000 3.222296e+000 1.355290e+000 2.386814e+000 9.520879e-001 1.415639e+000
<GCONST> 9.972477e+001
<STATE> 4
<MEAN> 25
 7.180474e+000 1.557069e+000 -1.587110e+000 -1.162207e+001 3.699955e+000 4.246385e+000 -5.170632e+000 -3.246311e+000 -1.513218e+000 9.143079e+000 2.357545e+000 7.096455e-001 -9.133630e-003 4.508903e-001 -2.160505e-001 6.892320e-001 -6.814325e-002 -9.853454e-002 1.388906e-001 1.771662e-001 -1.132569e-001 -2.628509e-001 -1.551193e-001 2.328055e-002 -6.749833e-001
<VARIANCE> 25
 4.193972e+000 2.208545e+001 2.004260e+001 7.704250e+001 1.417702e+001 1.924811e+001 9.285671e+001 4.649175e+001 5.097426e+001 2.490951e+001 3.181586e+001 2.498872e+001 2.951644e-001 7.848890e-001 1.250871e+000 2.972759e+000 1.026013e+000 1.836060e+000 1.708077e+000 1.760504e+000 2.211397e+000 1.077656e+000 1.531815e+000 1.647523e+000 8.880736e-001
<GCONST> 8.888264e+001
<TRANSP> 5
 0.000000e+000 1.000000e+000 0.000000e+000 0.000000e+000 0.000000e+000
 0.000000e+000 5.741782e-001 4.258217e-001 0.000000e+000 0.000000e+000
 0.000000e+000 0.000000e+000 6.444969e-001 3.555031e-001 0.000000e+000
 0.000000e+000 0.000000e+000 0.000000e+000 9.097265e-001 9.027356e-002
 0.000000e+000 0.000000e+000 0.000000e+000 0.000000e+000 0.000000e+000
<ENDHMM>
~h "ch"
<BEGINHMM>
<NUMSTATES> 5
<STATE> 2
<MEAN> 25
 8.750167e+000 9.906022e+000 2.023252e-001 9.665318e+000 -6.920272e+000 -4.898950e-001 -1.413179e+000 -7.578506e+000 -1.819919e+000 -1.731473e+000 -2.884504e-001 -3.416884e+000 -7.290133e-001 1.339365e+000 -1.006875e+000 6.692044e-001 8.420236e-001 -7.974658e-001 1.952111e+000 6.616068e-001 1.538102e-001 -1.056509e+000 -5.644900e-001 -4.522478e-001 -1.460898e+000
<VARIANCE> 25
 2.650171e+001 9.203953e+000 3.758728e+001 1.064887e+001 3.088366e+001 2.924887e+001 2.230228e+001 2.148076e+001 1.735177e+001 2.172751e+001 2.511544e+001 1.811245e+001 4.990192e-001 3.231917e-001 5.606791e-001 9.763530e-001 2.905029e+000 1.349775e+000 1.933186e+000 2.286739e+000 1.424563e+000 3.069398e+000 1.992639e+000 1.770261e+000 3.103871e-001
<GCONST> 8.445768e+001
<STATE> 3
<MEAN> 25
 1.691805e+000 1.259637e+001 -3.810079e+000 1.108822e+001 3.520546e-001 -2.659715e+000 1.698590e+000 -1.598068e+000 9.160864e-001 -7.687515e+000 -1.992003e+000 -4.577988e+000 -3.137589e+000 -4.456172e-001 -5.678352e-001 -1.203214e+000 9.600123e-001 -2.347651e-001 5.568435e-002 1.105225e+000 3.479445e-001 -9.923314e-001 2.019374e-001 3.674361e-001 1.839374e-001
<VARIANCE> 25
 3.909287e+001 5.941348e+000 3.549708e+001 6.387640e+000 2.220843e+001 2.653770e+001 5.647600e+001 3.570756e+001 4.210810e+001 2.543539e+001 2.426154e+001 2.355920e+001 2.150925e+000 2.534051e+000 4.169741e+000 3.312215e+000 6.261255e+000 2.414040e+000 4.018487e+000 4.195683e+000 2.816581e+000 1.403272e+000 2.323303e+000 4.644773e+000 3.720247e+000
<GCONST> 9.906031e+001
<STATE> 4
<MEAN> 25
 -1.591241e+001 5.024772e+000 -2.460850e+000 6.619227e+000 2.183092e-001 -3.740394e+000 4.293502e+000 1.729059e+000 1.772159e+000 -6.033149e+000 4.076198e+000 -5.132794e-002 -6.008508e-001 -4.037292e-001 1.109103e+000 -4.589845e-001 -5.799477e-001 2.892620e-003 -2.438586e-001 -1.849612e-001 -5.752120e-001 2.763831e-001 2.189147e-001 -8.437330e-002 1.057738e+000
<VARIANCE> 25
 2.794999e+001 3.099620e+001 3.723644e+001 2.944948e+001 1.982989e+001 1.883043e+001 1.598965e+001 3.939870e+001 2.995778e+001 1.882208e+001 2.463818e+001 1.911511e+001 8.290565e+000 1.319847e+000 4.756620e+000 2.919986e+000 2.280980e+000 1.395580e+000 2.610603e+000 1.919860e+000 2.205364e+000 1.437195e+000 2.477435e+000 1.762051e+000 2.284813e+000
<GCONST> 9.581618e+001
<TRANSP> 5
 0.000000e+000 1.000000e+000 0.000000e+000 0.000000e+000 0.000000e+000
 0.000000e+000 6.915069e-001 3.084931e-001 0.000000e+000 0.000000e+000
 0.000000e+000 0.000000e+000 6.890302e-001 3.109699e-001 0.000000e+000
 0.000000e+000 0.000000e+000 0.000000e+000 9.079772e-001 9.202279e-002
 0.000000e+000 0.000000e+000 0.000000e+000 0.000000e+000 0.000000e+000
<ENDHMM>
~h "eh"
<BEGINHMM>
<NUMSTATES> 5
<STATE> 2
<MEAN> 25
 6.838773e-001 -3.739476e+000 1.494653e+001 -3.223703e+000 -1.226447e+001 -5.557467e+000 5.801562e-001 4.574174e+000 -9.377805e+000 4.806745e+000 5.933562e+000 1.811893e+000 -2.099873e-001 -4.689743e-001 1.722441e+000 -1.680912e+000 -1.126372e+000 3.422879e-001 2.641601e-002 4.605120e-001 -1.352753e+000 1.803022e+000 4.406605e-001 7.902429e-002 1.191064e+000
<VARIANCE> 25
 1.249370e+001 2.051062e+001 2.019073e+001 1.846682e+001 1.693209e+001 3.518623e+001 4.013716e+001 3.102489e+001 3.399234e+001 3.419873e+001 2.646795e+001 1.901694e+001 1.001635e+000 1.383316e+000 2.207555e+000 2.552438e+000 1.810682e+000 2.152752e+000 2.882381e+000 2.590660e+000 3.346456e+000 2.949278e+000 1.870315e+000 1.768822e+000 1.963714e+000
<GCONST> 9.379759e+001
<STATE> 3
<MEAN> 25
 -1.160264e+000 -1.349630e+000 1.845282e+001 -6.243550e+000 -1.301220e+001 -3.389154e+000 -1.721407e+000 1.509352e+000 -1.217412e+001 1.063180e+001 3.974119e+000 2.081163e+000 -6.674337e-002 1.354362e-001 3.458435e-002 3.925093e-002 1.183096e-001 -5.490055e-002 2.109244e-001 -2.344230e-001 1.205873e-002 4.732996e-002 -3.122863e-002 -6.420099e-002 -3.281783e-001
<VARIANCE> 25
 9.048584e+000 1.768246e+001 1.185496e+001 1.532172e+001 1.399344e+001 2.480694e+001 2.667412e+001 2.283436e+001 2.099211e+001 2.065441e+001 1.672439e+001 2.299115e+001 2.727056e-001 4.813151e-001 7.238768e-001 6.243336e-001 5.695313e-001 6.256990e-001 1.023504e+000 7.932543e-001 9.389255e-001 7.100451e-001 6.466230e-001 5.329807e-001 5.176550e-001
<GCONST> 7.431569e+001
<STATE> 4
<MEAN> 25
 -2.511787e+000 3.973828e+000 9.556323e+000 2.069670e+000 -1.028576e+001 -3.375041e+000 4.180604e+000 4.977564e-001 -6.949466e+000 3.298061e+000 4.408045e+000 -8.040054e-001 -1.374896e-001 5.730917e-001 -1.149073e+000 9.821743e-001 3.649232e-001 2.337650e-001 1.217703e-001 -7.946936e-002 7.116000e-001 -9.809791e-001 -1.114774e-001 -1.280001e-001 -1.163249e+000
<VARIANCE> 25
 1.174495e+001 2.939191e+001 4.664824e+001 3.394044e+001 4.294946e+001 3.751084e+001 3.956653e+001 3.272592e+001 4.782587e+001 4.308587e+001 3.608060e+001 2.959395e+001 5.196847e-001 1.444477e+000 1.975953e+000 2.025098e+000 2.714120e+000 2.221421e+000 2.676814e+000 2.392876e+000 2.848561e+000 2.841946e+000 2.272938e+000 2.132529e+000 1.388991e+000
<GCONST> 9.706509e+001
<TRANSP> 5
 0.000000e+000 1.000000e+000 0.000000e+000 0.000000e+000 0.000000e+000
 0.000000e+000 6.537815e-001 3.462185e-001 0.000000e+000 0.000000e+000
 0.000000e+000 0.000000e+000 8.955424e-001 1.044576e-001 0.000000e+000
 0.000000e+000 0.000000e+000 0.000000e+000 8.823656e-001 1.176344e-001
 0.000000e+000 0.000000e+000 0.000000e+000 0.000000e+000 0.000000e+000
<ENDHMM>
~h "ih"
<BEGINHMM>
<NUMSTATES> 5
<STATE> 2
<MEAN> 25
 -4.177554e+000 3.710327e+000 1.020108e+001 3.560114e+000 -8.408006e+000 -6.945466e-001 8.313867e-001 -2.856797e+000 -6.672473e+000 -1.495418e+000 5.731226e+000 8.906604e-002 7.043665e-001 -6.767650e-001 3.958749e+000 -1.809469e+000 -1.884068e+000 1.478457e-001 -1.476183e+000 6.037283e-001 -2.788724e+000 1.797056e+000 8.056179e-001 2.027518e-002 1.868495e+000
<VARIANCE> 25
 4.683529e+001 2.900491e+001 1.050264e+002 4.047730e+001 4.217994e+001 5.211161e+001 5.849825e+001 3.271599e+001 6.563628e+001 4.199760e+001 3.172062e+001 2.686226e+001 3.688356e+000 3.220891e+000 9.276523e+000 4.273693e+000 4.186762e+000 4.650222e+000 4.576251e+000 2.614090e+000 5.418406e+000 3.717768e+000 3.606168e+000 3.351931e+000 3.396038e+000
<GCONST> 1.097608e+002
<STATE> 3
<MEAN> 25
 -1.510309e+000 1.623647e+000 2.076029e+001 -3.757418e+000 -1.215635e+001 9.619114e-001 -6.006312e+000 -6.786380e-001 -1.513807e+001 6.439693e+000 5.147901e+000 4.449808e-001 5.447080e-002 1.159511e-001 2.113319e-001 -4.330448e-001 -5.233913e-002 2.596586e-001 -1.456867e-001 -8.580598e-002 -1.451422e-001 6.118023e-001 -1.667188e-001 6.184721e-002 4.304202e-003
<VARIANCE> 25
 9.028333e+000 1.638566e+001 2.081171e+001 2.278932e+001 1.854702e+001 2.540126e+001 2.209498e+001 2.277554e+001 3.195175e+001 2.073427e+001 3.684597e+001 2.606204e+001 4.601759e-001 9.566831e-001 1.316359e+000 1.455064e+000 1.049681e+000 1.550834e+000 1.564270e+000 1.277358e+000 1.637831e+000 1.981922e+000 1.418065e+000 1.620849e+000 7.615330e-001
<GCONST> 8.559114e+001
<STATE> 4
<MEAN> 25
 -1.298942e+000 6.284326e+000 1.194882e+001 1.958678e+000 -9.340022e+000 -9.743748e-001 -8.039099e-001 -3.433063e+000 -8.845637e+000 1.871683e+000 4.093995e+000 -1.556102e+000 1.672283e-001 4.159587e-001 -1.545790e+000 9.760501e-001 7.962386e-001 -2.408114e-001 3.862283e-001 -2.468861e-001 1.125572e+000 -7.737907e-001 -4.528390e-001 -1.353679e-001 -1.040152e+000
<VARIANCE> 25
 1.470410e+001 2.096329e+001 6.387924e+001 3.803984e+001 2.729629e+001 2.974789e+001 3.030744e+001 2.782789e+001 4.654085e+001 4.309667e+001 3.803876e+001 2.596440e+001 8.163444e-001 1.220157e+000 2.650654e+000 2.968987e+000 2.670341e+000 2.584949e+000 2.406078e+000 2.839069e+000 2.696398e+000 3.128410e+000 2.243089e+000 2.184211e+000 1.504113e+000
<GCONST> 9.745173e+001
<TRANSP> 5
 0.000000e+000 1.000000e+000 0.000000e+000 0.000000e+000 0.000000e+000
 0.000000e+000 7.146296e-001 2.853704e-001 0.000000e+000 0.000000e+000
 0.000000e+000 0.000000e+000 8.107419e-001 1.892581e-001 0.000000e+000
 0.000000e+000 0.000000e+000 0.000000e+000 8.360740e-001 1.639260e-001
 0.000000e+000 0.000000e+000 0.000000e+000 0.000000e+000 0.000000e+000
<ENDHMM>
~h "iy"
<BEGINHMM>
<NUMSTATES> 5
<STATE> 2
<MEAN> 25
 -8.685642e-001 5.086892e-001 1.911450e+001 -5.717902e+000 -1.047984e+001 9.561671e-001 -6.806320e+000 1.934074e+000 -1.451879e+001 4.285748e+000 2.543082e+000 3.915184e+000 9.388953e-002 2.560943e-001 -1.162649e-001 1.766749e-001 -1.108789e-001 3.740554e-001 -2.358110e-001 -1.516361e-001 -9.836654e-002 9.366977e-002 2.054924e-001 -9.378303e-002 -2.763828e-001
<VARIANCE> 25
 4.617622e+000 1.362164e+001 1.897250e+001 9.327455e+000 7.375807e+000 1.166387e+001 1.713922e+001 4.275713e+001 1.311675e+001 9.718968e+000 1.376226e+001 1.661031e+001 2.385020e-001 4.577498e-001 7.160494e-001 7.824115e-001 7.815416e-001 9.241982e-001 6.340196e-001 1.291366e+000 8.993143e-001 6.313892e-001 1.506439e+000 9.264472e-001 3.341781e-001
<GCONST> 7.194778e+001
<STATE> 3
<MEAN> 25
 4.930199e+000 4.177297e+000 5.364497e+000 5.340261e+000 -2.647981e+000 1.704839e+000 -3.708691e+000 -2.765160e+000 -6.351209e+000 -3.031330e-001 2.743441e+000 -3.348289e+000 9.904747e-002 4.772953e-001 -1.032849e+000 8.914572e-001 5.105966e-001 -4.055673e-001 4.779104e-001 -5.717379e-001 8.714669e-001 -5.741662e-001 -3.141503e-001 -1.290592e-001 -9.322526e-001
<VARIANCE> 25
 1.047421e+001 1.762778e+001 2.973931e+001 3.260937e+001 2.246256e+001 1.858303e+001 2.125083e+001 3.585537e+001 2.637753e+001 4.039381e+001 2.647137e+001 2.326644e+001 6.430925e-001 4.757530e-001 1.254537e+000 1.848193e+000 1.977862e+000 1.594368e+000 1.347961e+000 1.809224e+000 2.617024e+000 3.204375e+000 2.283125e+000 2.704050e+000 4.497152e-001
<GCONST> 8.895099e+001
<STATE> 4
<MEAN> 25
 -6.095276e-001 6.079401e+000 3.943771e+000 1.117007e+000 -3.249289e+000 2.996104e+000 3.638511e+000 -2.407932e+000 -2.253505e+000 1.211458e+000 6.027039e-002 -5.567299e-001 -3.995180e-001 -2.035935e-001 -1.064085e-001 -9.543616e-002 1.965671e-001 1.392451e-001 3.447271e-001 2.091866e-001 3.441064e-001 -4.554169e-002 -2.478376e-001 1.061221e-001 -1.904686e-001
<VARIANCE> 25
 8.872363e+000 4.435628e+001 8.502335e+001 1.002379e+002 4.603071e+001 1.752561e+001 3.116269e+001 2.658501e+001 5.944959e+001 9.519897e+001 2.574681e+001 1.290088e+001 4.317256e-001 9.900969e-001 1.999614e+000 2.754349e+000 2.375931e+000 2.158804e+000 1.330910e+000 1.940816e+000 1.650046e+000 2.057113e+000 3.041529e+000 9.329183e-001 5.092379e-001
<GCONST> 9.386216e+001
<TRANSP> 5
 0.000000e+000 1.000000e+000 0.000000e+000 0.000000e+000 0.000000e+000
 0.000000e+000 9.335528e-001 6.644715e-002 0.000000e+000 0.000000e+000
 0.000000e+000 0.000000e+000 8.989688e-001 1.010311e-001 0.000000e+000
 0.000000e+000 0.000000e+000 0.000000e+000 9.126341e-001 8.736597e-002
 0.000000e+000 0.000000e+000 0.000000e+000 0.000000e+000 0.000000e+000
<ENDHMM>
~h "sp"
<BEGINHMM>
<NUMSTATES> 3
<STATE> 2
~s "silst"
<TRANSP> 3
 0.000000e+000 3.335873e-001 6.664127e-001
 0.000000e+000 8.350614e-001 1.649386e-001
 0.000000e+000 0.000000e+000 0.000000e+000
<ENDHMM>
~h "th"
<BEGINHMM>
<NUMSTATES> 5
<STATE> 2
<MEAN> 25
 1.599444e+000 3.504730e+000 -1.029339e+001 1.055981e+000 3.217662e+000 2.862247e+000 -2.285789e+000 1.514396e+000 4.814434e+000 -2.098212e+000 -1.393278e+000 -5.737402e+000 -4.768794e-001 5.200575e-001 -9.977270e-001 8.834664e-001 -5.699643e-001 1.541263e-001 3.952113e-001 -4.409929e-002 -1.536845e-001 -6.620521e-001 1.533075e-001 -6.304095e-004 -1.362697e+000
<VARIANCE> 25
 9.748699e+000 1.737359e+001 4.748718e+001 4.375161e+001 3.296270e+001 3.059690e+001 3.299494e+001 4.085868e+001 3.606147e+001 3.568585e+001 2.818938e+001 2.956731e+001 8.986981e-001 1.894070e+000 2.133789e+000 3.874342e+000 1.747053e+000 2.930954e+000 3.910144e+000 3.238338e+000 2.328229e+000 2.656357e+000 2.621994e+000 1.680571e+000 2.233628e+000
<GCONST> 9.765119e+001
<STATE> 3
<MEAN> 25
 -5.780081e+000 5.137604e+000 -1.057955e+001 7.090320e+000 -1.877477e+000 -2.615571e+000 4.032678e+000 -1.902776e+000 3.308211e+000 -6.577400e+000 2.677774e+000 -2.309900e+000 -2.060792e+000 -6.781293e-001 7.654621e-003 7.650896e-001 -8.946356e-001 -1.558225e+000 1.358538e+000 -1.213017e+000 3.333895e-001 -1.359715e+000 1.043932e+000 6.830696e-001 2.166085e+000
<VARIANCE> 25
 3.129220e+001 2.776691e+001 4.306042e+001 3.797933e+001 3.572562e+001 4.590701e+001 3.992195e+001 3.417767e+001 3.089701e+001 3.779926e+001 3.249854e+001 2.990136e+001 2.585734e+000 2.211843e+000 2.383039e+000 3.517844e+000 3.617613e+000 4.586575e+000 3.364805e+000 3.461179e+000 3.090649e+000 3.690550e+000 3.454403e+000 2.955415e+000 6.211717e+000
<GCONST> 1.043947e+002
<STATE> 4
<MEAN> 25
 -6.530246e+000 7.786509e-002 -6.622088e+000 2.827384e+000 -1.909728e+000 -5.394265e+000 1.384435e+000 -1.770331e+000 5.643803e+000 -7.315329e+000 1.976647e+000 -1.687953e+000 2.092035e+000 -1.462904e+000 2.673298e+000 -3.151142e+000 1.166235e+000 -9.124011e-002 -2.164438e+000 9.724847e-001 4.228157e-001 1.707911e+000 -1.455157e+000 -4.918945e-001 3.200591e+000
<VARIANCE> 25
 4.132094e+001 3.037749e+001 4.525276e+001 7.880647e+001 4.250980e+001 2.908227e+001 5.627912e+001 3.197986e+001 2.281965e+001 3.702437e+001 3.069289e+001 3.914939e+001 4.406344e+000 4.142771e+000 4.930400e+000 8.804130e+000 6.244542e+000 4.357856e+000 5.248223e+000 4.826814e+000 3.906868e+000 5.307533e+000 5.943583e+000 3.169448e+000 5.461422e+000
<GCONST> 1.105834e+002
<TRANSP> 5
 0.000000e+000 1.000000e+000 0.000000e+000 0.000000e+000 0.000000e+000
 0.000000e+000 8.311681e-001 1.688320e-001 0.000000e+000 0.000000e+000
 0.000000e+000 0.000000e+000 6.821210e-001 3.178790e-001 0.000000e+000
 0.000000e+000 0.000000e+000 0.000000e+000 6.770729e-001 3.229270e-001
 0.000000e+000 0.000000e+000 0.000000e+000 0.000000e+000 0.000000e+000
<ENDHMM>
~h "uh"
<BEGINHMM>
<NUMSTATES> 5
<STATE> 2
<MEAN> 25
 3.698020e+000 4.371737e+000 4.167880e+000 -1.208458e+000 -3.206630e+000 9.113840e-001 -9.072594e+000 -4.504175e+000 -3.248955e+000 -1.389339e-001 6.952929e+000 -2.044592e+000 2.241616e+000 -3.636423e-001 1.831697e+000 -2.343113e+000 -4.475227e-001 2.264602e+000 -3.174984e+000 -7.557659e-001 -2.146969e+000 2.888850e+000 1.139180e+000 -2.380952e-001 8.594823e-001
<VARIANCE> 25
 1.832794e+001 2.050304e+001 3.648360e+001 4.389272e+001 2.967161e+001 6.570754e+001 4.935155e+001 3.369165e+001 6.057502e+001 3.805452e+001 3.672354e+001 2.107909e+001 4.657808e+000 1.746462e+000 3.744477e+000 5.830033e+000 2.903999e+000 3.685864e+000 5.967700e+000 6.782422e+000 4.801652e+000 5.043380e+000 2.802750e+000 1.787825e+000 1.025584e+000
<GCONST> 1.047154e+002
<STATE> 3
<MEAN> 25
 6.631274e+000 3.142104e+000 3.373628e+000 -4.507815e+000 -4.194460e+000 6.407378e+000 -1.107682e+001 -5.889163e+000 -6.383689e+000 4.499429e+000 8.603375e+000 -6.539505e-001 3.091400e-001 -1.251150e-001 -3.617620e-001 3.832228e-001 1.552326e-001 6.033626e-001 -1.904236e-001 -3.870102e-001 -4.936668e-001 1.042364e+000 -3.413159e-001 2.996300e-001 -2.332264e-001
<VARIANCE> 25
 1.188745e+001 1.507427e+001 3.817374e+001 4.936189e+001 3.932635e+001 3.951634e+001 4.518544e+001 4.185235e+001 4.655302e+001 4.123523e+001 4.009011e+001 2.047808e+001 4.964239e-001 1.318011e+000 1.793285e+000 7.663499e+000 4.896178e+000 3.939018e+000 3.644707e+000 4.285740e+000 4.302060e+000 3.142337e+000 3.083008e+000 1.559425e+000 7.514031e-001
<GCONST> 9.963337e+001
<STATE> 4
<MEAN> 25
 6.627322e+000 5.233826e+000 2.296374e-001 -2.091472e+000 -1.924654e-001 6.272879e+000 -1.059501e+001 -3.648254e+000 -7.754743e+000 4.190928e+000 5.128043e+000 -1.378413e+000 -2.294243e-001 2.509331e-001 -5.281153e-001 7.508173e-001 7.713656e-002 -3.457535e-001 6.417364e-001 -1.375811e-001 6.158435e-001 -4.416737e-001 -4.044457e-001 1.747124e-001 -8.117978e-001
<VARIANCE> 25
 9.517215e+000 2.319571e+001 4.605669e+001 5.625169e+001 2.853848e+001 3.357376e+001 4.800657e+001 3.455566e+001 6.542657e+001 3.600547e+001 3.711525e+001 2.205875e+001 4.813318e-001 1.460661e+000 1.326192e+000 2.255870e+000 1.094895e+000 1.764405e+000 2.483325e+000 1.660755e+000 2.252016e+000 2.099633e+000 2.156376e+000 1.560133e+000 1.178273e+000
<GCONST> 9.370467e+001
<TRANSP> 5
 0.000000e+000 1.000000e+000 0.000000e+000 0.000000e+000 0.000000e+000
 0.000000e+000 4.450541e-001 5.549459e-001 0.000000e+000 0.000000e+000
 0.000000e+000 0.000000e+000 6.693822e-001 3.306179e-001 0.000000e+000
 0.000000e+000 0.000000e+000 0.000000e+000 8.514883e-001 1.485117e-001
 0.000000e+000 0.000000e+000 0.000000e+000 0.000000e+000 0.000000e+000
<ENDHMM>
~h "sil"
<BEGINHMM>
<NUMSTATES> 5
<STATE> 2
<MEAN> 25
 -6.210041e+000 4.068542e+000 -8.419209e+000 1.071696e+001 3.278917e+000 1.976247e+000 5.805260e+000 -6.752139e-001 4.383914e+000 -5.222387e+000 1.084346e+000 2.388436e+000 2.685705e-001 1.259458e-003 -1.421624e-001 4.601183e-002 -2.052479e-001 -3.573340e-001 -2.385353e-001 -4.952431e-001 -4.215866e-001 -1.642657e-002 -1.151138e-001 -5.473989e-001 4.877087e-001
<VARIANCE> 25
 3.595040e+001 4.950437e+001 6.033952e+001 4.637440e+001 6.642446e+001 5.753227e+001 3.453708e+001 3.977196e+001 4.031121e+001 3.636577e+001 3.198922e+001 3.133364e+001 3.458290e+000 3.095999e+000 2.783501e+000 4.007623e+000 2.213970e+000 3.313604e+000 3.218472e+000 3.301202e+000 3.186261e+000 3.002546e+000 2.827229e+000 2.357785e+000 3.799312e+000
<GCONST> 1.056708e+002
<STATE> 3
~s "silst"
<STATE> 4
<MEAN> 25
 -5.237876e+000 3.667925e+000 -5.533180e+000 6.828025e+000 3.993302e-001 4.547909e-001 3.969942e+000 -1.375602e+000 1.094420e+000 -6.533074e+000 3.283413e+000 1.248148e+000 -5.162221e-002 -8.557850e-002 -2.581291e-001 1.110822e-001 1.767793e-001 2.193433e-001 1.416643e-001 1.384400e-001 -1.952671e-001 -5.945629e-002 2.048379e-001 1.576740e-001 -6.692310e-002
<VARIANCE> 25
 3.720297e+001 6.868860e+001 6.092117e+001 8.854572e+001 7.062421e+001 9.074782e+001 3.847034e+001 5.934916e+001 2.933660e+001 4.860036e+001 3.290161e+001 2.391165e+001 6.158519e-001 1.228764e+000 1.373118e+000 2.141384e+000 1.642581e+000 1.953900e+000 2.070522e+000 1.966444e+000 1.867976e+000 2.492814e+000 1.997053e+000 1.386318e+000 9.789285e-001
<GCONST> 9.872035e+001
<TRANSP> 5
 0.000000e+000 1.000000e+000 0.000000e+000 0.000000e+000 0.000000e+000
 0.000000e+000 4.654836e-001 1.857241e-001 3.487923e-001 0.000000e+000
 0.000000e+000 0.000000e+000 6.786224e-001 3.213775e-001 0.000000e+000
 0.000000e+000 4.515902e-002 0.000000e+000 6.801940e-001 2.746469e-001
 0.000000e+000 0.000000e+000 0.000000e+000 0.000000e+000 0.000000e+000
<ENDHMM>
