~o
<STREAMINFO> 1 25
<VECSIZE> 25<NULLD><MFCC_D_N_Z_0><DIAGC>
~h "b"
<BEGINHMM>
<NUMSTATES> 5
<STATE> 2
<MEAN> 25
 2.442533e+000 1.653231e+000 1.350951e+000 -1.240316e+000 -2.913117e-001 8.173344e-001 -2.064309e+000 -8.712133e-001 -1.769037e+000 2.044508e+000 1.564366e-001 9.179594e-001 -2.144695e-002 -7.135224e-002 1.178739e-001 -5.274501e-003 -9.468922e-002 -1.474546e-001 -7.735030e-002 7.281952e-002 -9.559350e-003 1.159712e-001 1.769280e-002 2.622485e-004 1.025017e-001
<VARIANCE> 25
 3.152956e+001 6.757120e+001 1.099650e+002 1.028744e+002 7.256382e+001 6.489822e+001 5.308323e+001 6.125924e+001 8.838152e+001 7.530773e+001 4.216524e+001 3.093782e+001 1.103834e+000 3.319384e+000 3.215027e+000 5.453552e+000 3.021222e+000 2.701549e+000 3.003573e+000 3.138754e+000 3.261283e+000 4.625313e+000 2.635114e+000 2.192745e+000 3.342491e+000
<GCONST> 1.096460e+002
<STATE> 3
<MEAN> 25
 2.340052e+000 1.376350e+000 1.767896e+000 -1.336347e+000 -6.252863e-001 3.067708e-001 -2.242517e+000 -6.143737e-001 -1.811928e+000 2.453122e+000 2.082941e-001 9.538505e-001 -3.896748e-002 -8.361620e-002 1.153759e-001 -3.610441e-002 -9.553483e-002 -1.481754e-001 -3.752378e-002 8.019006e-002 -3.475943e-003 1.125893e-001 1.284107e-002 1.292792e-002 9.364080e-002
<VARIANCE> 25
 3.016951e+001 6.738721e+001 1.101128e+002 9.939565e+001 7.362493e+001 6.291645e+001 5.453907e+001 6.333285e+001 8.972471e+001 7.758834e+001 4.270811e+001 3.131609e+001 1.061120e+000 3.223846e+000 3.088439e+000 5.153826e+000 2.982454e+000 2.714284e+000 2.928065e+000 3.196258e+000 3.229109e+000 4.534162e+000 2.573942e+000 2.189078e+000 3.183763e+000
<GCONST> 1.093954e+002
<STATE> 4
<MEAN> 25
 2.079647e+000 1.162460e+000 1.942505e+000 -1.417036e+000 -8.721141e-001 -3.470711e-001 -2.098259e+000 -2.482694e-001 -1.576164e+000 2.664689e+000 1.873383e-001 9.909098e-001 -4.521060e-002 -4.349958e-002 8.279809e-002 -2.332456e-002 -7.439057e-002 -1.213949e-001 2.552997e-002 4.800500e-002 -1.160190e-003 7.062672e-002 1.004132e-002 2.062407e-002 3.394646e-002
<VARIANCE> 25
 2.800901e+001 6.521039e+001 1.118654e+002 9.655682e+001 7.359262e+001 6.082801e+001 5.633901e+001 6.403160e+001 9.059074e+001 7.927625e+001 4.241967e+001 3.224102e+001 9.859562e-001 2.939427e+000 2.835665e+000 4.734976e+000 2.866105e+000 2.745853e+000 2.733890e+000 3.146973e+000 3.095956e+000 4.272418e+000 2.472392e+000 2.154675e+000 2.869600e+000
<GCONST> 1.086278e+002
<TRANSP> 5
 0.000000e+000 1.000000e+000 0.000000e+000 0.000000e+000 0.000000e+000
 0.000000e+000 7.325193e-001 2.674807e-001 0.000000e+000 0.000000e+000
 0.000000e+000 0.000000e+000 7.325191e-001 2.674809e-001 0.000000e+000
 0.000000e+000 0.000000e+000 0.000000e+000 8.558897e-001 1.441103e-001
 0.000000e+000 0.000000e+000 0.000000e+000 0.000000e+000 0.000000e+000
<ENDHMM>
~h "d"
<BEGINHMM>
<NUMSTATES> 5
<STATE> 2
<MEAN> 25
 1.204293e+000 1.973225e+000 5.541623e-001 1.253112e+000 -6.548323e-001 -2.289017e+000 -1.059446e-001 -1.325242e-002 7.544606e-001 5.515044e-001 -9.097731e-001 3.944285e-001 -1.925249e-002 -1.180092e-004 2.921841e-002 1.198505e-002 -5.438966e-002 -1.213857e-002 -1.115821e-002 4.633516e-002 -2.092180e-002 7.355405e-003 -6.631666e-003 3.464720e-003 -5.599155e-003
<VARIANCE> 25
 3.556105e+001 5.896062e+001 9.585518e+001 9.105295e+001 7.301450e+001 6.252767e+001 5.224028e+001 6.343727e+001 6.972336e+001 4.611091e+001 5.108560e+001 3.232850e+001 1.575227e+000 2.759799e+000 3.170219e+000 4.534579e+000 3.075586e+000 3.099756e+000 2.730788e+000 3.452740e+000 3.405954e+000 3.438354e+000 3.145617e+000 2.327878e+000 3.230833e+000
<GCONST> 1.089444e+002
<STATE> 3
<MEAN> 25
 1.133399e+000 1.968173e+000 6.735615e-001 1.266172e+000 -8.765035e-001 -2.292857e+000 -1.188135e-001 1.391622e-001 6.505755e-001 5.749280e-001 -9.101197e-001 4.055033e-001 -1.934398e-002 -3.708837e-003 4.065197e-002 -4.108340e-003 -5.937723e-002 1.226643e-003 -1.248244e-002 3.953777e-002 -3.318659e-002 1.480201e-002 -2.895910e-004 -3.035737e-003 1.277856e-003
<VARIANCE> 25
 3.568848e+001 5.957257e+001 1.000577e+002 9.061026e+001 7.305725e+001 6.173548e+001 5.113013e+001 6.247234e+001 7.155566e+001 4.547537e+001 5.073815e+001 3.276028e+001 1.592052e+000 2.767183e+000 3.214307e+000 4.474925e+000 3.032365e+000 3.091783e+000 2.728156e+000 3.398361e+000 3.429012e+000 3.472268e+000 3.158853e+000 2.343116e+000 3.231781e+000
<GCONST> 1.089738e+002
<STATE> 4
<MEAN> 25
 1.101197e+000 1.934886e+000 1.008392e+000 1.267361e+000 -1.331173e+000 -2.287885e+000 -1.161134e-001 3.568698e-001 4.066647e-001 6.647108e-001 -8.943225e-001 3.598818e-001 -1.528171e-002 -5.203303e-003 5.100992e-002 -7.560003e-003 -6.041756e-002 7.679096e-003 -6.662027e-003 2.860786e-002 -4.450064e-002 1.461038e-002 9.494249e-003 -8.910464e-003 -2.982026e-003
<VARIANCE> 25
 3.439335e+001 6.021640e+001 1.063190e+002 8.952115e+001 7.263247e+001 6.079752e+001 4.986921e+001 6.056057e+001 7.358613e+001 4.508192e+001 5.039620e+001 3.280385e+001 1.548745e+000 2.699474e+000 3.253137e+000 4.194629e+000 2.861444e+000 3.019261e+000 2.692364e+000 3.222343e+000 3.333910e+000 3.462021e+000 3.113112e+000 2.331820e+000 3.159323e+000
<GCONST> 1.086065e+002
<TRANSP> 5
 0.000000e+000 1.000000e+000 0.000000e+000 0.000000e+000 0.000000e+000
 0.000000e+000 7.221224e-001 2.778777e-001 0.000000e+000 0.000000e+000
 0.000000e+000 0.000000e+000 7.221218e-001 2.778782e-001 0.000000e+000
 0.000000e+000 0.000000e+000 0.000000e+000 8.458802e-001 1.541199e-001
 0.000000e+000 0.000000e+000 0.000000e+000 0.000000e+000 0.000000e+000
<ENDHMM>
~h "g"
<BEGINHMM>
<NUMSTATES> 5
<STATE> 2
<MEAN> 25
 1.096177e+000 1.608814e+000 1.133100e+000 1.367750e+000 -2.072786e+000 9.447310e-002 -8.271729e-001 -1.158556e+000 -2.415694e+000 2.435780e+000 1.771044e+000 -1.766970e+000 -1.518491e-002 1.288344e-002 -3.801154e-002 5.842567e-002 1.312805e-002 -6.420234e-003 3.926922e-002 1.841752e-003 5.112010e-002 -4.444497e-002 -1.971900e-003 2.002398e-002 -5.666143e-002
<VARIANCE> 25
 4.671249e+001 4.982682e+001 1.153512e+002 7.848344e+001 7.680197e+001 4.675812e+001 8.266299e+001 5.813307e+001 7.882455e+001 5.937839e+001 4.522686e+001 3.220044e+001 1.756911e+000 2.498898e+000 3.011565e+000 3.954694e+000 2.767897e+000 2.657436e+000 3.589869e+000 3.469222e+000 3.190547e+000 3.090216e+000 2.835165e+000 2.150401e+000 2.307106e+000
<GCONST> 1.086154e+002
<STATE> 3
<MEAN> 25
 1.031475e+000 1.653849e+000 1.002185e+000 1.578788e+000 -1.989054e+000 5.517021e-002 -6.514335e-001 -1.141662e+000 -2.201236e+000 2.253345e+000 1.749320e+000 -1.672443e+000 -1.855939e-002 9.539303e-003 -3.687603e-002 5.275821e-002 2.633925e-002 -1.420693e-002 4.720629e-002 1.112968e-002 6.338514e-002 -5.272179e-002 -1.117290e-002 2.886604e-002 -5.944639e-002
<VARIANCE> 25
 4.658971e+001 4.966579e+001 1.129899e+002 7.845546e+001 7.643138e+001 4.701064e+001 8.112264e+001 5.820501e+001 7.855930e+001 5.923973e+001 4.575095e+001 3.166158e+001 1.759688e+000 2.533800e+000 2.979924e+000 3.931311e+000 2.795771e+000 2.706461e+000 3.585829e+000 3.453625e+000 3.140964e+000 3.137460e+000 2.892001e+000 2.178400e+000 2.328595e+000
<GCONST> 1.086236e+002
<STATE> 4
<MEAN> 25
 8.327006e-001 1.704113e+000 9.307426e-001 1.920447e+000 -1.973922e+000 -9.096268e-002 -2.887586e-001 -1.060468e+000 -1.889854e+000 2.030916e+000 1.717391e+000 -1.436677e+000 -2.278850e-002 4.092780e-003 -3.314890e-002 4.367379e-002 3.687201e-002 -2.371657e-002 5.127991e-002 2.172093e-002 7.919572e-002 -6.652319e-002 -2.035055e-002 3.393728e-002 -5.248576e-002
<VARIANCE> 25
 4.591104e+001 4.898344e+001 1.115411e+002 7.894019e+001 7.664949e+001 4.670951e+001 7.788612e+001 5.796009e+001 7.935781e+001 5.982197e+001 4.603780e+001 3.095318e+001 1.774441e+000 2.547523e+000 2.989847e+000 3.858288e+000 2.797717e+000 2.720789e+000 3.575984e+000 3.419853e+000 3.085237e+000 3.189315e+000 2.935083e+000 2.189093e+000 2.391602e+000
<GCONST> 1.085799e+002
<TRANSP> 5
 0.000000e+000 1.000000e+000 0.000000e+000 0.000000e+000 0.000000e+000
 0.000000e+000 7.258008e-001 2.741992e-001 0.000000e+000 0.000000e+000
 0.000000e+000 0.000000e+000 7.258007e-001 2.741993e-001 0.000000e+000
 0.000000e+000 0.000000e+000 0.000000e+000 8.482816e-001 1.517184e-001
 0.000000e+000 0.000000e+000 0.000000e+000 0.000000e+000 0.000000e+000
<ENDHMM>
~h "h"
<BEGINHMM>
<NUMSTATES> 5
<STATE> 2
<MEAN> 25
 -7.565227e-001 -1.752400e+000 -2.235384e+000 -6.037666e-001 2.229964e+000 2.075145e+000 2.842166e+000 -1.203719e+000 9.463696e-001 -1.215102e+000 -1.154727e-001 9.164581e-002 2.412461e-002 -2.777152e-002 6.781989e-003 -6.438480e-002 4.689342e-002 3.951120e-002 2.305146e-002 -3.431944e-004 1.067928e-003 -1.029077e-003 -4.374515e-002 2.235403e-002 7.042213e-002
<VARIANCE> 25
 3.369741e+001 6.293639e+001 1.102123e+002 9.007307e+001 7.235646e+001 5.993106e+001 5.574809e+001 6.442027e+001 5.023931e+001 4.189977e+001 3.722027e+001 3.119748e+001 1.480842e+000 2.101771e+000 2.449548e+000 4.052804e+000 2.308681e+000 2.090889e+000 2.523249e+000 2.620495e+000 2.244056e+000 2.297439e+000 2.028743e+000 1.801000e+000 2.858778e+000
<GCONST> 1.049600e+002
<STATE> 3
<MEAN> 25
 -6.530201e-001 -1.810268e+000 -2.211631e+000 -8.220432e-001 2.382804e+000 2.193744e+000 2.898465e+000 -1.190896e+000 9.357654e-001 -1.226193e+000 -2.517626e-001 1.469826e-001 3.148942e-002 -1.114190e-002 8.058506e-003 -5.848331e-002 3.373297e-002 2.683765e-002 9.857903e-003 1.240765e-002 -5.604295e-003 -2.833139e-003 -4.018395e-002 1.451892e-002 6.033127e-002
<VARIANCE> 25
 3.385199e+001 6.203456e+001 1.085767e+002 9.018707e+001 7.149063e+001 6.075067e+001 5.642145e+001 6.472936e+001 4.927410e+001 4.173406e+001 3.706618e+001 3.059223e+001 1.470105e+000 2.115006e+000 2.434400e+000 4.088643e+000 2.298068e+000 2.063618e+000 2.488517e+000 2.620994e+000 2.231761e+000 2.287531e+000 2.020800e+000 1.778969e+000 2.841206e+000
<GCONST> 1.048456e+002
<STATE> 4
<MEAN> 25
 -4.945135e-001 -1.850708e+000 -2.085732e+000 -1.055788e+000 2.442694e+000 2.330975e+000 2.856963e+000 -1.124465e+000 8.316239e-001 -1.267219e+000 -3.757953e-001 1.830197e-001 2.762128e-002 8.562965e-004 2.864695e-003 -4.130654e-002 1.954333e-002 1.568248e-002 -9.311710e-003 1.584560e-002 8.542350e-005 -5.854425e-003 -2.814640e-002 1.412579e-002 3.357221e-002
<VARIANCE> 25
 3.370323e+001 5.956813e+001 1.082790e+002 8.947403e+001 6.969306e+001 6.117952e+001 5.807346e+001 6.523444e+001 4.808282e+001 4.207678e+001 3.671601e+001 3.000117e+001 1.408212e+000 2.074886e+000 2.406157e+000 4.055493e+000 2.283655e+000 2.030829e+000 2.465179e+000 2.623585e+000 2.157206e+000 2.311860e+000 2.002395e+000 1.749364e+000 2.750515e+000
<GCONST> 1.045684e+002
<TRANSP> 5
 0.000000e+000 1.000000e+000 0.000000e+000 0.000000e+000 0.000000e+000
 0.000000e+000 7.268765e-001 2.731235e-001 0.000000e+000 0.000000e+000
 0.000000e+000 0.000000e+000 7.268763e-001 2.731236e-001 0.000000e+000
 0.000000e+000 0.000000e+000 0.000000e+000 8.496164e-001 1.503836e-001
 0.000000e+000 0.000000e+000 0.000000e+000 0.000000e+000 0.000000e+000
<ENDHMM>
~h "j"
<BEGINHMM>
<NUMSTATES> 5
<STATE> 2
<MEAN> 25
 7.936524e-001 2.750325e-001 1.255420e+000 -1.784151e+000 -8.634990e-001 -1.760923e+000 1.572679e-001 3.315059e-001 2.159213e+000 2.391400e-001 -8.294034e-001 -7.537007e-001 2.226562e-002 -4.710546e-001 -6.613462e-002 -2.478933e-001 3.157763e-002 5.355784e-002 -4.783686e-002 1.638231e-001 1.673228e-001 -2.415538e-002 -6.084995e-002 -5.208468e-002 3.772371e-001
<VARIANCE> 25
 3.167619e+001 1.170010e+002 9.553857e+001 7.525201e+001 5.757790e+001 4.391518e+001 4.803331e+001 6.900695e+001 6.683448e+001 6.268492e+001 6.868182e+001 2.955873e+001 2.484830e+000 5.227649e+000 5.030742e+000 2.835342e+000 2.905114e+000 2.655003e+000 3.271060e+000 6.387563e+000 3.238278e+000 3.609470e+000 4.983062e+000 2.458560e+000 2.998370e+000
<GCONST> 1.113093e+002
<STATE> 3
<MEAN> 25
 9.490286e-001 -1.136833e+000 7.805269e-001 -2.362124e+000 -4.491107e-001 -1.376983e+000 5.802897e-003 6.784124e-001 2.758996e+000 2.167152e-001 -1.239971e+000 -9.993325e-001 4.508879e-002 -3.642960e-001 -1.442597e-001 -1.419823e-001 1.304490e-001 1.178239e-001 -3.699194e-002 6.583574e-002 1.692290e-001 -7.314609e-003 -1.221358e-001 -7.244476e-002 2.040832e-001
<VARIANCE> 25
 2.982365e+001 1.009496e+002 9.540406e+001 7.117942e+001 5.944502e+001 4.639295e+001 4.965691e+001 6.020474e+001 7.106067e+001 5.831170e+001 6.721366e+001 3.056181e+001 2.105334e+000 4.577034e+000 4.999018e+000 2.602719e+000 2.855520e+000 2.576007e+000 3.049996e+000 5.842617e+000 3.246472e+000 3.415510e+000 4.435983e+000 2.468110e+000 2.770416e+000
<GCONST> 1.101875e+002
<STATE> 4
<MEAN> 25
 1.178243e+000 -1.819950e+000 -1.049270e-001 -2.366034e+000 5.821820e-001 -9.057431e-001 -1.513397e-001 5.095910e-001 3.122368e+000 3.754498e-001 -2.038659e+000 -1.323333e+000 2.450291e-002 -6.556834e-002 -1.302063e-001 2.810006e-002 1.560624e-001 5.643445e-002 5.794342e-004 -4.139356e-002 6.691058e-002 -1.464386e-002 -1.151246e-001 -4.526291e-002 -4.038632e-002
<VARIANCE> 25
 3.025254e+001 8.689960e+001 9.409219e+001 6.917490e+001 6.185853e+001 4.711954e+001 5.343557e+001 5.425525e+001 7.100673e+001 5.474578e+001 6.440735e+001 3.089216e+001 1.806636e+000 3.242362e+000 4.600808e+000 2.202070e+000 2.595184e+000 2.408302e+000 2.978029e+000 4.932099e+000 3.091091e+000 3.214662e+000 3.460990e+000 2.463563e+000 2.533255e+000
<GCONST> 1.083850e+002
<TRANSP> 5
 0.000000e+000 1.000000e+000 0.000000e+000 0.000000e+000 0.000000e+000
 0.000000e+000 7.314996e-001 2.685004e-001 0.000000e+000 0.000000e+000
 0.000000e+000 0.000000e+000 7.314997e-001 2.685002e-001 0.000000e+000
 0.000000e+000 0.000000e+000 0.000000e+000 8.538446e-001 1.461554e-001
 0.000000e+000 0.000000e+000 0.000000e+000 0.000000e+000 0.000000e+000
<ENDHMM>
~h "k"
<BEGINHMM>
<NUMSTATES> 5
<STATE> 2
<MEAN> 25
 4.960224e-001 -1.143208e+000 9.366547e-001 -5.550356e-001 -1.252454e+000 -1.524539e+000 -4.481056e-002 2.082091e+000 -8.068491e-001 6.977382e-001 -1.521129e-001 -9.178662e-001 1.729907e-002 5.281525e-003 -2.691087e-003 -7.747583e-002 2.341271e-003 1.013691e-002 1.560611e-002 3.513807e-002 2.839115e-002 -2.973175e-002 -2.437225e-002 -4.780042e-003 3.094064e-003
<VARIANCE> 25
 3.119651e+001 5.814885e+001 1.006786e+002 8.330566e+001 7.927151e+001 5.358919e+001 5.512352e+001 5.685551e+001 6.550021e+001 4.943315e+001 4.836752e+001 3.416770e+001 1.681072e+000 3.028402e+000 4.171230e+000 3.666327e+000 2.857459e+000 2.479424e+000 3.488215e+000 3.249750e+000 3.255019e+000 3.308832e+000 2.747576e+000 2.094564e+000 3.831087e+000
<GCONST> 1.085926e+002
<STATE> 3
<MEAN> 25
 4.215271e-001 -1.066915e+000 8.401346e-001 -6.966795e-001 -1.262963e+000 -1.472767e+000 -2.660180e-003 2.169556e+000 -6.974665e-001 6.314218e-001 -1.768857e-001 -8.984169e-001 -2.539190e-002 2.997049e-002 -4.295187e-002 -3.905412e-002 -5.395080e-003 2.328887e-002 7.399027e-003 2.419111e-002 3.172800e-002 -1.795489e-002 -2.319371e-003 6.273621e-003 -4.092089e-002
<VARIANCE> 25
 3.097615e+001 5.794416e+001 1.004800e+002 8.284914e+001 7.887376e+001 5.410284e+001 5.525488e+001 5.671141e+001 6.589609e+001 4.978069e+001 4.834491e+001 3.311007e+001 1.648973e+000 3.001773e+000 4.018465e+000 3.595039e+000 2.837773e+000 2.466227e+000 3.482120e+000 3.214117e+000 3.175120e+000 3.252835e+000 2.696081e+000 2.073074e+000 3.800501e+000
<GCONST> 1.083707e+002
<STATE> 4
<MEAN> 25
 1.913089e-001 -7.535490e-001 8.265593e-001 -7.355592e-001 -1.464923e+000 -1.472589e+000 -9.974662e-002 2.222086e+000 -7.063677e-001 6.680127e-001 -3.333995e-002 -8.210570e-001 -4.620196e-002 3.440267e-002 -5.030791e-002 -1.836426e-002 -2.510179e-003 2.683275e-002 -8.460857e-003 1.477653e-002 2.197625e-002 -2.668020e-004 1.101148e-002 4.387181e-003 -4.318047e-002
<VARIANCE> 25
 3.252065e+001 5.838192e+001 1.042627e+002 8.363612e+001 7.986684e+001 5.544343e+001 5.535839e+001 5.600436e+001 6.868554e+001 5.082159e+001 4.965931e+001 3.146224e+001 1.713823e+000 2.922490e+000 4.025495e+000 3.580557e+000 2.842351e+000 2.440874e+000 3.479003e+000 3.106549e+000 3.133965e+000 3.222489e+000 2.653910e+000 2.051487e+000 3.759692e+000
<GCONST> 1.084440e+002
<TRANSP> 5
 0.000000e+000 1.000000e+000 0.000000e+000 0.000000e+000 0.000000e+000
 0.000000e+000 7.178010e-001 2.821990e-001 0.000000e+000 0.000000e+000
 0.000000e+000 0.000000e+000 7.178007e-001 2.821994e-001 0.000000e+000
 0.000000e+000 0.000000e+000 0.000000e+000 8.405714e-001 1.594286e-001
 0.000000e+000 0.000000e+000 0.000000e+000 0.000000e+000 0.000000e+000
<ENDHMM>
~h "l"
<BEGINHMM>
<NUMSTATES> 5
<STATE> 2
<MEAN> 25
 7.695854e-001 -1.245383e+000 9.302547e-001 -2.292054e+000 6.586394e-001 9.378430e-001 -2.821883e+000 3.296912e-001 1.415914e+000 -2.109309e-001 -2.982418e-001 2.865533e-001 -4.202460e-003 1.055548e-002 5.140590e-002 -3.908405e-002 2.995822e-002 -2.517280e-002 -5.868553e-002 3.422016e-004 1.738994e-002 9.457623e-003 -1.465647e-002 2.695529e-002 -3.435528e-003
<VARIANCE> 25
 3.571647e+001 5.538964e+001 1.310452e+002 8.864339e+001 9.026903e+001 6.158384e+001 8.591944e+001 5.413454e+001 8.289407e+001 5.773952e+001 4.565717e+001 2.958508e+001 1.275073e+000 2.017826e+000 2.815382e+000 2.956496e+000 2.699521e+000 2.631356e+000 3.743597e+000 2.975682e+000 2.918044e+000 3.138854e+000 2.605534e+000 1.867422e+000 2.161577e+000
<GCONST> 1.076501e+002
<STATE> 3
<MEAN> 25
 7.611222e-001 -1.213039e+000 1.082915e+000 -2.418778e+000 7.790738e-001 8.393232e-001 -3.008324e+000 3.264805e-001 1.475882e+000 -1.884605e-001 -3.523200e-001 3.715663e-001 -9.397863e-003 8.818896e-003 3.973372e-002 -3.359898e-002 3.314938e-002 -3.162253e-002 -3.044189e-002 -4.172820e-004 4.536121e-003 1.140938e-002 -1.635615e-002 2.663977e-002 -4.910759e-003
<VARIANCE> 25
 3.469133e+001 5.504394e+001 1.306469e+002 8.870491e+001 9.032986e+001 6.093095e+001 8.643821e+001 5.462049e+001 8.348193e+001 5.795166e+001 4.629567e+001 2.984319e+001 1.230334e+000 1.992674e+000 2.787818e+000 2.890468e+000 2.707201e+000 2.595408e+000 3.826848e+000 2.974838e+000 2.920814e+000 3.100840e+000 2.581197e+000 1.862362e+000 2.153988e+000
<GCONST> 1.075539e+002
<STATE> 4
<MEAN> 25
 8.208747e-001 -1.218326e+000 9.209867e-001 -2.498373e+000 1.086572e+000 7.270982e-001 -3.113021e+000 2.240350e-001 1.697793e+000 -1.723659e-001 -4.574318e-001 4.171754e-001 -1.196322e-002 8.414713e-003 1.969586e-002 -1.817021e-002 2.928800e-002 -3.373472e-002 1.050680e-002 -3.137032e-003 -1.492446e-002 1.225912e-002 -1.461059e-002 2.180227e-002 -8.517322e-003
<VARIANCE> 25
 3.466093e+001 5.446026e+001 1.286573e+002 9.105394e+001 8.955108e+001 5.994281e+001 8.655989e+001 5.689558e+001 8.460780e+001 5.868833e+001 4.727033e+001 3.044874e+001 1.209655e+000 2.017992e+000 2.737623e+000 2.874367e+000 2.718355e+000 2.506009e+000 3.857463e+000 2.986134e+000 2.963184e+000 3.047436e+000 2.527880e+000 1.882385e+000 2.199961e+000
<GCONST> 1.075981e+002
<TRANSP> 5
 0.000000e+000 1.000000e+000 0.000000e+000 0.000000e+000 0.000000e+000
 0.000000e+000 7.237997e-001 2.762003e-001 0.000000e+000 0.000000e+000
 0.000000e+000 0.000000e+000 7.238002e-001 2.761998e-001 0.000000e+000
 0.000000e+000 0.000000e+000 0.000000e+000 8.484085e-001 1.515915e-001
 0.000000e+000 0.000000e+000 0.000000e+000 0.000000e+000 0.000000e+000
<ENDHMM>
~h "m"
<BEGINHMM>
<NUMSTATES> 5
<STATE> 2
<MEAN> 25
 1.049276e+000 -2.770850e-001 -8.777037e-001 -2.614053e-001 1.915830e+000 1.524848e+000 -6.871240e-001 -2.000238e+000 -6.760035e-001 -8.421415e-001 5.066866e-001 -4.774558e-002 6.884667e-002 -4.815555e-002 8.148213e-002 -5.700046e-002 -1.215416e-001 2.270615e-002 -3.019096e-002 3.957354e-002 -4.794291e-002 6.519809e-002 -2.393015e-002 -7.416868e-003 6.613346e-002
<VARIANCE> 25
 5.114928e+001 5.129058e+001 8.824920e+001 9.718272e+001 6.440460e+001 5.495818e+001 6.051259e+001 5.515119e+001 5.800522e+001 5.728488e+001 4.689430e+001 2.758722e+001 1.929964e+000 2.341738e+000 2.836143e+000 4.577411e+000 2.617584e+000 2.723717e+000 2.997622e+000 4.006847e+000 2.921282e+000 2.761944e+000 2.823444e+000 1.916624e+000 2.376434e+000
<GCONST> 1.075986e+002
<STATE> 3
<MEAN> 25
 1.262457e+000 -4.451395e-001 -5.413057e-001 -4.171355e-001 1.500484e+000 1.597508e+000 -8.051976e-001 -1.838932e+000 -8.698466e-001 -5.830734e-001 4.000598e-001 -9.323402e-002 5.762052e-002 -4.654275e-002 9.449375e-002 -3.802162e-002 -1.100244e-001 2.235595e-002 -3.669579e-002 4.549669e-002 -5.544605e-002 7.084941e-002 -2.961475e-002 -1.130250e-002 4.525600e-002
<VARIANCE> 25
 4.840606e+001 5.076321e+001 9.004880e+001 9.457658e+001 6.657561e+001 5.444983e+001 5.899788e+001 5.499349e+001 5.724864e+001 5.811068e+001 4.662827e+001 2.774850e+001 1.874886e+000 2.319295e+000 2.798640e+000 4.580461e+000 2.638589e+000 2.749419e+000 2.970619e+000 4.010273e+000 2.867444e+000 2.793960e+000 2.818205e+000 1.888974e+000 2.394912e+000
<GCONST> 1.074653e+002
<STATE> 4
<MEAN> 25
 1.508426e+000 -7.409331e-001 -1.032404e-002 -6.810496e-001 1.119906e+000 1.654421e+000 -9.439692e-001 -1.566777e+000 -1.129200e+000 -1.288178e-001 1.225966e-001 -9.606418e-002 4.022692e-002 -3.723784e-002 9.198188e-002 -1.436675e-002 -7.269400e-002 1.782944e-002 -2.971543e-002 4.135321e-002 -4.860931e-002 6.196458e-002 -3.067127e-002 -3.152103e-003 1.670709e-002
<VARIANCE> 25
 4.424706e+001 4.932673e+001 9.517109e+001 9.287519e+001 7.180533e+001 5.380404e+001 5.804539e+001 5.515883e+001 5.829502e+001 6.106081e+001 4.574144e+001 2.850238e+001 1.728885e+000 2.234683e+000 2.713306e+000 4.406518e+000 2.624228e+000 2.727132e+000 2.888065e+000 3.883908e+000 2.731776e+000 2.804707e+000 2.696662e+000 1.822052e+000 2.379288e+000
<GCONST> 1.071166e+002
<TRANSP> 5
 0.000000e+000 1.000000e+000 0.000000e+000 0.000000e+000 0.000000e+000
 0.000000e+000 7.164385e-001 2.835616e-001 0.000000e+000 0.000000e+000
 0.000000e+000 0.000000e+000 7.164384e-001 2.835616e-001 0.000000e+000
 0.000000e+000 0.000000e+000 0.000000e+000 8.393854e-001 1.606146e-001
 0.000000e+000 0.000000e+000 0.000000e+000 0.000000e+000 0.000000e+000
<ENDHMM>
~h "n"
<BEGINHMM>
<NUMSTATES> 5
<STATE> 2
<MEAN> 25
 3.952208e-001 2.767141e-001 1.912502e+000 9.372863e-001 -8.353420e-001 -3.644034e-001 -1.193935e+000 -5.039503e-001 -6.181120e-001 5.035983e-001 5.596277e-003 2.490048e-001 -6.481280e-003 1.044740e-002 1.811280e-002 2.767085e-002 -2.460409e-002 -4.397881e-002 1.052243e-003 1.100563e-002 2.285899e-003 3.458332e-003 -1.591239e-002 -6.305623e-003 -3.544518e-002
<VARIANCE> 25
 4.808094e+001 5.232741e+001 9.942509e+001 7.883617e+001 6.738419e+001 5.337003e+001 5.957983e+001 6.103074e+001 5.943723e+001 5.847537e+001 4.896001e+001 3.131200e+001 1.659877e+000 2.346481e+000 3.079554e+000 3.786951e+000 2.423203e+000 2.611310e+000 2.858281e+000 3.760424e+000 2.706276e+000 3.139324e+000 2.648823e+000 2.015139e+000 2.580769e+000
<GCONST> 1.074172e+002
<STATE> 3
<MEAN> 25
 3.627843e-001 3.057858e-001 1.965407e+000 1.009550e+000 -9.184796e-001 -5.109723e-001 -1.169381e+000 -4.456331e-001 -6.143894e-001 5.128148e-001 -4.609703e-002 2.257870e-001 -1.359512e-002 1.443950e-002 6.490013e-003 2.196842e-002 -2.040563e-002 -3.999278e-002 9.246592e-003 2.082598e-002 1.264643e-003 -2.839325e-004 -1.550215e-002 -6.212294e-003 -4.120706e-002
<VARIANCE> 25
 4.725725e+001 5.260008e+001 9.952503e+001 7.891726e+001 6.712837e+001 5.307907e+001 5.931433e+001 6.113525e+001 5.984152e+001 5.868418e+001 4.894293e+001 3.157682e+001 1.641480e+000 2.359161e+000 3.086650e+000 3.771361e+000 2.404728e+000 2.602575e+000 2.834334e+000 3.758299e+000 2.731781e+000 3.158490e+000 2.640449e+000 2.026245e+000 2.600525e+000
<GCONST> 1.074114e+002
<STATE> 4
<MEAN> 25
 2.262487e-001 3.746468e-001 1.987542e+000 1.083223e+000 -1.051104e+000 -7.214845e-001 -1.019107e+000 -2.350179e-001 -6.535031e-001 5.021901e-001 -6.671859e-002 1.803141e-001 -1.834841e-002 1.406983e-002 -3.539973e-003 9.731220e-003 -1.134788e-002 -3.199683e-002 1.934976e-002 2.672155e-002 -1.542373e-003 -4.030386e-003 -1.014757e-002 -7.443329e-003 -3.559378e-002
<VARIANCE> 25
 4.729382e+001 5.315676e+001 1.018677e+002 8.070686e+001 6.720889e+001 5.277633e+001 6.006882e+001 6.093875e+001 6.184752e+001 5.931194e+001 4.879844e+001 3.159261e+001 1.648513e+000 2.358759e+000 3.122176e+000 3.771211e+000 2.385963e+000 2.589837e+000 2.820393e+000 3.681510e+000 2.772749e+000 3.175564e+000 2.608638e+000 2.038580e+000 2.647697e+000
<GCONST> 1.075238e+002
<TRANSP> 5
 0.000000e+000 1.000000e+000 0.000000e+000 0.000000e+000 0.000000e+000
 0.000000e+000 7.212816e-001 2.787183e-001 0.000000e+000 0.000000e+000
 0.000000e+000 0.000000e+000 7.212819e-001 2.787181e-001 0.000000e+000
 0.000000e+000 0.000000e+000 0.000000e+000 8.446006e-001 1.553994e-001
 0.000000e+000 0.000000e+000 0.000000e+000 0.000000e+000 0.000000e+000
<ENDHMM>
~h "o"
<BEGINHMM>
<NUMSTATES> 5
<STATE> 2
<MEAN> 25
 2.434415e+000 2.777329e+000 4.330400e-001 -4.173232e+000 -1.501330e+000 4.007325e+000 -6.117168e-001 -1.308942e+000 -3.125466e+000 1.278863e+000 8.806870e-001 1.740644e+000 1.976511e-001 6.577834e-002 1.999620e-002 1.295871e-002 -7.245158e-003 -9.443198e-003 -8.429604e-002 -7.583192e-002 5.833943e-002 3.762965e-002 -2.386498e-002 -4.325459e-003 1.222117e-001
<VARIANCE> 25
 4.877764e+001 4.368932e+001 1.138800e+002 1.567924e+002 5.212063e+001 8.602025e+001 3.259888e+001 3.390583e+001 5.733450e+001 4.429226e+001 3.002448e+001 3.705996e+001 1.863827e+000 2.761532e+000 3.398065e+000 8.742960e+000 2.812577e+000 2.457351e+000 2.655528e+000 2.065352e+000 2.194324e+000 2.804222e+000 2.972504e+000 1.926284e+000 3.309104e+000
<GCONST> 1.070953e+002
<STATE> 3
<MEAN> 25
 2.898850e+000 2.874584e+000 3.199552e-001 -3.619232e+000 -1.417063e+000 3.722554e+000 -9.860154e-001 -1.504486e+000 -2.733938e+000 1.501175e+000 8.049363e-001 1.556686e+000 1.151738e-001 1.094870e-002 -3.112165e-002 1.696661e-001 3.102443e-002 -9.629264e-002 -1.069104e-001 -4.466385e-002 1.213537e-001 7.164857e-002 -2.020169e-002 -5.401971e-002 8.046755e-002
<VARIANCE> 25
 4.860568e+001 5.056075e+001 1.065381e+002 1.526729e+002 5.298613e+001 8.302390e+001 3.838154e+001 3.778391e+001 6.197449e+001 4.770262e+001 3.101855e+001 3.501149e+001 1.710601e+000 3.215615e+000 3.429871e+000 9.094637e+000 2.996821e+000 2.483557e+000 3.059233e+000 2.313105e+000 2.301206e+000 3.042764e+000 3.134952e+000 1.940715e+000 3.454742e+000
<GCONST> 1.082019e+002
<STATE> 4
<MEAN> 25
 2.774117e+000 2.257669e+000 2.252073e-001 -2.452573e+000 -1.099981e+000 2.525264e+000 -1.603622e+000 -1.199012e+000 -1.877487e+000 2.142774e+000 5.475950e-001 1.104590e+000 -1.016695e-002 -1.059852e-001 -4.106725e-002 1.545084e-001 6.629359e-002 -1.876318e-001 -7.526308e-002 4.880379e-002 1.576478e-001 1.141966e-001 -4.091131e-002 -5.189423e-002 9.003131e-002
<VARIANCE> 25
 4.484401e+001 5.982986e+001 1.040804e+002 1.378018e+002 5.788748e+001 7.272922e+001 4.775655e+001 4.676666e+001 7.327209e+001 5.421727e+001 3.335246e+001 3.217094e+001 1.500204e+000 3.639555e+000 3.418449e+000 8.394138e+000 3.055470e+000 2.526371e+000 3.337804e+000 2.653865e+000 2.511352e+000 3.226250e+000 3.059010e+000 2.001001e+000 3.571131e+000
<GCONST> 1.091905e+002
<TRANSP> 5
 0.000000e+000 1.000000e+000 0.000000e+000 0.000000e+000 0.000000e+000
 0.000000e+000 7.319319e-001 2.680681e-001 0.000000e+000 0.000000e+000
 0.000000e+000 0.000000e+000 7.319321e-001 2.680679e-001 0.000000e+000
 0.000000e+000 0.000000e+000 0.000000e+000 8.537052e-001 1.462948e-001
 0.000000e+000 0.000000e+000 0.000000e+000 0.000000e+000 0.000000e+000
<ENDHMM>
~h "p"
<BEGINHMM>
<NUMSTATES> 5
<STATE> 2
<MEAN> 25
 7.619573e-001 -4.713716e-001 -2.482892e+000 1.313110e-001 5.544900e-001 2.406316e+000 9.323253e-001 -1.094790e+000 1.252034e+000 -3.837392e-003 1.555001e-001 -8.800034e-001 -3.397955e-002 4.004860e-002 -1.345601e-002 1.552579e-001 3.871616e-002 -8.899979e-002 -5.081240e-002 -2.986192e-002 5.436446e-003 -2.348655e-002 1.016491e-002 -3.179656e-002 -8.869089e-002
<VARIANCE> 25
 3.809601e+001 6.364838e+001 8.988281e+001 1.007899e+002 5.405759e+001 7.703293e+001 6.296141e+001 5.921305e+001 5.232995e+001 4.963626e+001 4.321703e+001 2.575879e+001 1.597199e+000 2.413488e+000 2.950585e+000 4.818756e+000 2.415353e+000 3.186287e+000 3.181690e+000 3.620448e+000 2.746853e+000 3.150230e+000 2.444572e+000 1.723211e+000 3.089983e+000
<GCONST> 1.074999e+002
<STATE> 3
<MEAN> 25
 5.736061e-001 -2.730636e-001 -2.516908e+000 6.977983e-001 6.143733e-001 2.015553e+000 8.281959e-001 -1.143007e+000 1.253980e+000 -1.140650e-001 1.994738e-001 -9.602142e-001 -5.764307e-002 6.377160e-002 -2.196115e-003 1.527351e-001 1.270992e-002 -1.092618e-001 -2.203535e-002 -1.983437e-002 -5.080210e-003 -2.800818e-002 2.337725e-002 -2.125810e-002 -1.030074e-001
<VARIANCE> 25
 4.163649e+001 6.160182e+001 9.141714e+001 9.849225e+001 5.506208e+001 7.323463e+001 6.330164e+001 6.013510e+001 5.330817e+001 4.918040e+001 4.281834e+001 2.612157e+001 1.615434e+000 2.394988e+000 3.028425e+000 4.770876e+000 2.462815e+000 3.229929e+000 3.220668e+000 3.694891e+000 2.776014e+000 3.219958e+000 2.440828e+000 1.750040e+000 3.172281e+000
<GCONST> 1.077106e+002
<STATE> 4
<MEAN> 25
 3.229553e-001 -2.049706e-001 -2.337015e+000 1.041370e+000 5.229592e-001 1.527548e+000 7.631200e-001 -1.002511e+000 1.097130e+000 -1.993027e-001 2.080307e-001 -9.887775e-001 -4.673993e-002 4.246413e-002 4.210572e-002 6.111940e-002 -1.523515e-002 -8.387337e-002 7.571473e-003 7.012672e-003 -3.606851e-002 -1.673069e-002 2.034510e-002 -1.670125e-003 -4.378847e-002
<VARIANCE> 25
 4.444574e+001 5.935278e+001 9.704938e+001 9.764174e+001 5.817670e+001 7.057771e+001 6.436572e+001 6.307001e+001 5.617532e+001 5.048987e+001 4.241898e+001 2.644213e+001 1.645702e+000 2.448280e+000 3.148479e+000 4.824707e+000 2.559638e+000 3.258423e+000 3.148389e+000 3.731738e+000 2.785620e+000 3.303872e+000 2.455495e+000 1.818586e+000 3.496299e+000
<GCONST> 1.082498e+002
<TRANSP> 5
 0.000000e+000 1.000000e+000 0.000000e+000 0.000000e+000 0.000000e+000
 0.000000e+000 7.254931e-001 2.745068e-001 0.000000e+000 0.000000e+000
 0.000000e+000 0.000000e+000 7.254930e-001 2.745070e-001 0.000000e+000
 0.000000e+000 0.000000e+000 0.000000e+000 8.499961e-001 1.500039e-001
 0.000000e+000 0.000000e+000 0.000000e+000 0.000000e+000 0.000000e+000
<ENDHMM>
~h "r"
<BEGINHMM>
<NUMSTATES> 5
<STATE> 2
<MEAN> 25
 5.928287e-001 -1.448162e+000 -1.929977e+000 -5.034195e-001 1.307153e+000 7.635998e-001 -6.384019e-001 3.269838e-001 2.150364e+000 -1.011134e+000 5.496375e-002 -5.011629e-001 3.225424e-002 8.764747e-003 4.510911e-002 1.897994e-002 -7.875282e-002 -6.754613e-003 -2.450310e-002 9.376694e-003 -2.136707e-002 1.221058e-002 2.006335e-002 -4.683132e-002 1.459990e-002
<VARIANCE> 25
 4.580034e+001 5.982681e+001 1.065704e+002 7.969087e+001 8.838859e+001 5.477052e+001 6.208613e+001 6.241878e+001 6.826918e+001 4.871119e+001 4.751028e+001 3.552950e+001 1.997179e+000 2.413306e+000 3.163443e+000 3.769974e+000 2.671715e+000 2.286065e+000 3.412875e+000 3.530036e+000 2.782318e+000 3.060565e+000 2.847567e+000 2.322487e+000 2.675362e+000
<GCONST> 1.085625e+002
<STATE> 3
<MEAN> 25
 6.835370e-001 -1.391761e+000 -1.768754e+000 -4.187043e-001 9.950996e-001 7.107455e-001 -7.236196e-001 3.594056e-001 2.063731e+000 -9.594715e-001 1.241952e-001 -6.515462e-001 1.927138e-002 1.447233e-002 3.864577e-002 2.590947e-002 -8.416365e-002 -1.302233e-002 -1.964604e-002 7.668505e-003 -2.768506e-002 1.044523e-002 2.139285e-002 -3.946298e-002 5.134411e-003
<VARIANCE> 25
 4.566055e+001 6.127733e+001 1.079553e+002 7.884513e+001 8.751608e+001 5.549609e+001 6.310785e+001 6.341645e+001 6.952533e+001 4.857357e+001 4.757828e+001 3.415265e+001 1.961914e+000 2.424026e+000 3.231046e+000 3.750295e+000 2.660572e+000 2.337944e+000 3.459104e+000 3.563977e+000 2.854249e+000 3.046006e+000 2.874741e+000 2.255173e+000 2.678490e+000
<GCONST> 1.086442e+002
<STATE> 4
<MEAN> 25
 6.449007e-001 -1.270704e+000 -1.586238e+000 -3.319281e-001 6.475300e-001 5.504279e-001 -7.818095e-001 3.492536e-001 2.006615e+000 -8.508174e-001 1.236827e-001 -8.182645e-001 -6.581382e-003 2.309093e-002 3.740947e-002 2.420490e-002 -7.622595e-002 -2.816830e-002 -6.736715e-003 -2.792749e-003 -3.271677e-002 1.886452e-002 1.080004e-002 -1.719545e-002 -7.153159e-003
<VARIANCE> 25
 4.695396e+001 6.251445e+001 1.112148e+002 7.823685e+001 8.658645e+001 5.621309e+001 6.530331e+001 6.215643e+001 7.146300e+001 4.877287e+001 4.764162e+001 3.160202e+001 1.936380e+000 2.389498e+000 3.315311e+000 3.662766e+000 2.602255e+000 2.408971e+000 3.459264e+000 3.508160e+000 2.893182e+000 2.994883e+000 2.834664e+000 2.094454e+000 2.639016e+000
<GCONST> 1.085462e+002
<TRANSP> 5
 0.000000e+000 1.000000e+000 0.000000e+000 0.000000e+000 0.000000e+000
 0.000000e+000 7.251885e-001 2.748115e-001 0.000000e+000 0.000000e+000
 0.000000e+000 0.000000e+000 7.251886e-001 2.748114e-001 0.000000e+000
 0.000000e+000 0.000000e+000 0.000000e+000 8.484963e-001 1.515037e-001
 0.000000e+000 0.000000e+000 0.000000e+000 0.000000e+000 0.000000e+000
<ENDHMM>
~h "s"
<BEGINHMM>
<NUMSTATES> 5
<STATE> 2
<MEAN> 25
 -3.005831e+000 1.597947e+000 -2.344051e+000 1.196711e+000 6.283037e-001 -1.137095e+000 2.352586e+000 1.149960e-001 5.674059e-001 -5.670716e-001 7.713104e-001 -1.271859e-001 -4.997101e-002 5.966582e-002 -3.677314e-002 4.028957e-002 8.168530e-003 -1.452298e-002 1.962083e-002 -2.202056e-002 1.700544e-002 -2.696242e-002 5.073611e-002 -4.690751e-003 1.663233e-002
<VARIANCE> 25
 1.108588e+002 7.042664e+001 1.141844e+002 1.009382e+002 6.656671e+001 5.623801e+001 8.303814e+001 5.537201e+001 6.745547e+001 5.343188e+001 5.206707e+001 2.948059e+001 3.556962e+000 2.816457e+000 3.250683e+000 3.976096e+000 2.339135e+000 2.425303e+000 3.613090e+000 3.140863e+000 2.693905e+000 3.018227e+000 2.643295e+000 2.077323e+000 2.517397e+000
<GCONST> 1.101997e+002
<STATE> 3
<MEAN> 25
 -3.127659e+000 1.771689e+000 -2.438887e+000 1.307919e+000 6.563914e-001 -1.165705e+000 2.386579e+000 2.338652e-002 6.187139e-001 -6.389127e-001 9.490164e-001 -1.616067e-001 -2.248421e-002 4.431792e-002 -1.660234e-002 3.578122e-002 -5.246112e-004 -3.171293e-003 1.882927e-003 -3.672803e-002 1.428073e-002 -1.968314e-002 4.840928e-002 -7.794864e-003 1.391619e-002
<VARIANCE> 25
 1.128726e+002 6.946959e+001 1.133461e+002 1.000526e+002 6.724888e+001 5.674646e+001 8.306509e+001 5.641627e+001 6.678940e+001 5.362937e+001 5.203905e+001 2.962229e+001 3.696174e+000 2.780252e+000 3.233176e+000 3.957187e+000 2.334500e+000 2.415728e+000 3.615079e+000 3.153346e+000 2.665679e+000 2.988366e+000 2.645089e+000 2.089837e+000 2.455234e+000
<GCONST> 1.101992e+002
<STATE> 4
<MEAN> 25
 -2.961442e+000 1.837337e+000 -2.271754e+000 1.391179e+000 6.043131e-001 -1.058382e+000 2.177133e+000 -2.042663e-001 4.957398e-001 -7.128285e-001 1.156304e+000 -2.180625e-001 1.634545e-002 2.181118e-002 3.608540e-003 1.848579e-002 -7.342314e-003 1.117420e-002 -2.012729e-002 -4.495842e-002 8.106533e-003 -3.764084e-003 3.605757e-002 -1.346863e-002 1.136579e-002
<VARIANCE> 25
 1.121497e+002 6.698445e+001 1.161932e+002 9.961820e+001 7.071012e+001 5.823397e+001 8.347908e+001 5.789250e+001 6.965742e+001 5.394336e+001 5.162249e+001 3.082357e+001 3.727172e+000 2.670098e+000 3.231911e+000 3.894562e+000 2.329926e+000 2.405920e+000 3.619017e+000 3.120033e+000 2.661015e+000 2.940073e+000 2.630419e+000 2.107481e+000 2.403100e+000
<GCONST> 1.102626e+002
<TRANSP> 5
 0.000000e+000 1.000000e+000 0.000000e+000 0.000000e+000 0.000000e+000
 0.000000e+000 7.247973e-001 2.752027e-001 0.000000e+000 0.000000e+000
 0.000000e+000 0.000000e+000 7.247984e-001 2.752016e-001 0.000000e+000
 0.000000e+000 0.000000e+000 0.000000e+000 8.506395e-001 1.493605e-001
 0.000000e+000 0.000000e+000 0.000000e+000 0.000000e+000 0.000000e+000
<ENDHMM>
~h "t"
<BEGINHMM>
<NUMSTATES> 5
<STATE> 2
<MEAN> 25
 -4.886272e-001 -1.920560e+000 -3.052102e+000 6.618077e-001 4.340869e-001 -1.162024e+000 6.555594e-001 2.959366e+000 2.061550e+000 -1.261552e+000 -1.032672e+000 -1.431704e+000 -3.122631e-002 7.985312e-003 -9.561756e-002 -9.433741e-003 8.228308e-002 -1.633543e-002 3.394551e-002 2.339828e-002 7.073834e-002 -1.485893e-002 -2.276108e-002 1.924186e-002 -3.860984e-002
<VARIANCE> 25
 3.145752e+001 5.793551e+001 1.077070e+002 8.007276e+001 6.219545e+001 7.497214e+001 3.664335e+001 6.614801e+001 5.075977e+001 5.471087e+001 4.644860e+001 3.029674e+001 1.452861e+000 2.689080e+000 3.835067e+000 4.003932e+000 2.709201e+000 3.766241e+000 2.746197e+000 3.428312e+000 2.575707e+000 3.582684e+000 2.782665e+000 1.973031e+000 4.228118e+000
<GCONST> 1.079625e+002
<STATE> 3
<MEAN> 25
 -6.004501e-001 -1.883069e+000 -3.463996e+000 6.512774e-001 7.601272e-001 -1.141636e+000 7.682065e-001 2.989320e+000 2.318477e+000 -1.347427e+000 -1.092389e+000 -1.374488e+000 -3.610573e-002 2.133677e-002 -1.102582e-001 -7.156827e-004 9.308150e-002 6.432228e-003 3.681609e-002 -1.885214e-003 7.112975e-002 -1.695299e-002 -8.274874e-003 1.811801e-002 -5.016119e-002
<VARIANCE> 25
 3.305483e+001 5.745139e+001 1.051711e+002 7.936220e+001 6.144797e+001 7.559462e+001 3.729317e+001 6.491603e+001 4.847011e+001 5.392533e+001 4.544960e+001 2.975680e+001 1.461833e+000 2.633111e+000 3.764130e+000 3.980795e+000 2.631935e+000 3.721508e+000 2.710864e+000 3.431208e+000 2.512615e+000 3.534093e+000 2.783107e+000 1.966449e+000 4.146320e+000
<GCONST> 1.077120e+002
<STATE> 4
<MEAN> 25
 -7.381123e-001 -1.848500e+000 -4.228445e+000 6.245784e-001 1.457004e+000 -7.095162e-001 8.103620e-001 2.673354e+000 2.758666e+000 -1.601787e+000 -1.169223e+000 -1.253184e+000 -3.189422e-002 2.931440e-002 -1.003412e-001 -5.247981e-003 8.875991e-002 4.238636e-002 2.996818e-002 -3.823997e-002 5.889475e-002 -1.747962e-002 1.389796e-002 1.495277e-002 -4.272798e-002
<VARIANCE> 25
 3.539532e+001 5.776956e+001 1.015136e+002 8.153416e+001 6.054079e+001 7.629248e+001 3.948394e+001 6.333194e+001 4.590022e+001 5.235784e+001 4.324845e+001 2.901566e+001 1.485496e+000 2.573878e+000 3.678731e+000 4.064662e+000 2.532660e+000 3.665635e+000 2.699105e+000 3.462500e+000 2.476947e+000 3.404817e+000 2.777732e+000 1.969106e+000 4.084448e+000
<GCONST> 1.075206e+002
<TRANSP> 5
 0.000000e+000 1.000000e+000 0.000000e+000 0.000000e+000 0.000000e+000
 0.000000e+000 7.253205e-001 2.746796e-001 0.000000e+000 0.000000e+000
 0.000000e+000 0.000000e+000 7.253208e-001 2.746792e-001 0.000000e+000
 0.000000e+000 0.000000e+000 0.000000e+000 8.481783e-001 1.518217e-001
 0.000000e+000 0.000000e+000 0.000000e+000 0.000000e+000 0.000000e+000
<ENDHMM>
~h "w"
<BEGINHMM>
<NUMSTATES> 5
<STATE> 2
<MEAN> 25
 6.950760e-001 4.388949e-001 1.286610e+000 -1.024330e+000 -7.356992e-001 -4.357548e-001 -9.401634e-002 -1.131864e-001 -6.328427e-001 1.232375e+000 1.489013e-002 4.343127e-001 4.161027e-002 -1.962657e-002 7.546527e-003 -6.689865e-002 2.951753e-002 8.135190e-003 -2.541563e-002 -1.084014e-002 3.221180e-003 4.933627e-002 -2.899034e-002 2.718285e-004 6.379716e-002
<VARIANCE> 25
 4.645502e+001 6.176841e+001 1.308390e+002 9.404016e+001 7.476818e+001 5.745394e+001 5.960473e+001 5.064520e+001 7.902890e+001 5.492568e+001 4.565609e+001 3.134022e+001 1.740935e+000 2.253017e+000 3.408417e+000 3.627977e+000 2.395590e+000 2.581833e+000 3.098051e+000 3.043568e+000 2.793811e+000 3.251781e+000 2.640257e+000 2.138155e+000 2.582380e+000
<GCONST> 1.081800e+002
<STATE> 3
<MEAN> 25
 8.255659e-001 3.549829e-001 1.300798e+000 -1.201590e+000 -6.104431e-001 -4.122613e-001 -2.009829e-001 -1.620733e-001 -6.195036e-001 1.382551e+000 -9.185585e-002 3.997004e-001 3.423725e-002 -2.283905e-002 -2.673908e-003 -4.354345e-002 3.783632e-002 6.674002e-003 -3.655896e-002 -1.238037e-002 1.406296e-002 4.056654e-002 -2.801890e-002 -1.242964e-002 5.215788e-002
<VARIANCE> 25
 4.461898e+001 6.089504e+001 1.301645e+002 9.383124e+001 7.561474e+001 5.677228e+001 6.053955e+001 5.065197e+001 8.026392e+001 5.607174e+001 4.583360e+001 3.091557e+001 1.707711e+000 2.256696e+000 3.338886e+000 3.634630e+000 2.419295e+000 2.562992e+000 3.114624e+000 3.046730e+000 2.783660e+000 3.293634e+000 2.651711e+000 2.119015e+000 2.542221e+000
<GCONST> 1.081207e+002
<STATE> 4
<MEAN> 25
 9.432865e-001 2.616691e-001 1.302769e+000 -1.244170e+000 -3.630482e-001 -4.272779e-001 -3.642441e-001 -2.821813e-001 -5.779812e-001 1.493930e+000 -2.087064e-001 3.122303e-001 2.483989e-002 -2.260103e-002 -8.799470e-003 -1.783905e-002 4.358737e-002 3.953151e-003 -4.170411e-002 -9.095594e-003 1.737921e-002 2.403850e-002 -2.189328e-002 -1.606303e-002 2.654847e-002
<VARIANCE> 25
 4.265789e+001 5.936642e+001 1.285193e+002 9.337225e+001 7.767644e+001 5.572579e+001 6.156084e+001 5.129385e+001 8.257494e+001 5.770932e+001 4.662691e+001 2.978088e+001 1.657112e+000 2.241279e+000 3.211726e+000 3.659803e+000 2.437780e+000 2.516985e+000 3.105494e+000 3.036071e+000 2.789872e+000 3.318920e+000 2.684649e+000 2.080079e+000 2.510099e+000
<GCONST> 1.080124e+002
<TRANSP> 5
 0.000000e+000 1.000000e+000 0.000000e+000 0.000000e+000 0.000000e+000
 0.000000e+000 7.280173e-001 2.719827e-001 0.000000e+000 0.000000e+000
 0.000000e+000 0.000000e+000 7.280179e-001 2.719821e-001 0.000000e+000
 0.000000e+000 0.000000e+000 0.000000e+000 8.518008e-001 1.481992e-001
 0.000000e+000 0.000000e+000 0.000000e+000 0.000000e+000 0.000000e+000
<ENDHMM>
~h "y"
<BEGINHMM>
<NUMSTATES> 5
<STATE> 2
<MEAN> 25
 -4.305439e-001 -1.303345e+000 2.598851e+000 -1.403503e+000 -1.300484e+000 -8.283334e-001 1.189417e-001 1.495535e+000 -1.076650e+000 1.142985e-001 4.597989e-001 7.284820e-001 -3.419377e-003 -2.542214e-002 5.625950e-002 -6.217016e-003 -2.901227e-002 -4.082832e-002 2.478388e-002 5.992985e-002 -4.196291e-002 4.882156e-003 -1.172428e-002 3.841792e-002 -4.762979e-003
<VARIANCE> 25
 4.820303e+001 5.447977e+001 1.282098e+002 7.413198e+001 7.699572e+001 5.168153e+001 5.705797e+001 6.569961e+001 7.369865e+001 5.443452e+001 4.582831e+001 2.751948e+001 1.506966e+000 2.126465e+000 3.269121e+000 3.020774e+000 2.557137e+000 2.212405e+000 2.806200e+000 2.976891e+000 2.830617e+000 2.691152e+000 2.307929e+000 1.749216e+000 2.362034e+000
<GCONST> 1.065303e+002
<STATE> 3
<MEAN> 25
 -4.287026e-001 -1.376588e+000 2.755285e+000 -1.430198e+000 -1.380027e+000 -9.535575e-001 2.087659e-001 1.672716e+000 -1.189201e+000 1.339020e-001 4.216668e-001 8.537409e-001 -2.391422e-004 -2.096372e-002 2.239533e-002 -4.382597e-003 -5.483774e-003 -2.817989e-002 3.493200e-002 4.606838e-002 -1.761336e-002 2.387868e-004 -2.232102e-002 3.300624e-002 -2.315216e-002
<VARIANCE> 25
 4.773560e+001 5.413889e+001 1.263521e+002 7.243047e+001 7.660010e+001 5.172936e+001 5.658062e+001 6.526523e+001 7.289239e+001 5.447005e+001 4.579187e+001 2.724885e+001 1.459227e+000 2.120188e+000 3.227365e+000 2.967115e+000 2.573550e+000 2.211959e+000 2.737959e+000 2.911077e+000 2.858390e+000 2.682391e+000 2.300610e+000 1.757055e+000 2.328253e+000
<GCONST> 1.063228e+002
<STATE> 4
<MEAN> 25
 -4.073564e-001 -1.376159e+000 2.522345e+000 -1.503900e+000 -1.233260e+000 -9.367796e-001 3.092487e-001 1.790063e+000 -1.020816e+000 4.932212e-002 3.590106e-001 9.298003e-001 5.631139e-003 -7.685046e-003 -1.308314e-002 3.488303e-003 1.189266e-002 -1.035759e-002 4.020999e-002 1.965828e-002 9.453415e-003 -5.315562e-003 -2.747305e-002 2.169650e-002 -4.535583e-002
<VARIANCE> 25
 4.982740e+001 5.442014e+001 1.239265e+002 7.264055e+001 7.539996e+001 5.283294e+001 5.706365e+001 6.415240e+001 7.263614e+001 5.396700e+001 4.590247e+001 2.759421e+001 1.476645e+000 2.109423e+000 3.129306e+000 2.973764e+000 2.550673e+000 2.205596e+000 2.676785e+000 2.799364e+000 2.820323e+000 2.664019e+000 2.297128e+000 1.787399e+000 2.289055e+000
<GCONST> 1.062362e+002
<TRANSP> 5
 0.000000e+000 1.000000e+000 0.000000e+000 0.000000e+000 0.000000e+000
 0.000000e+000 7.189722e-001 2.810278e-001 0.000000e+000 0.000000e+000
 0.000000e+000 0.000000e+000 7.189720e-001 2.810279e-001 0.000000e+000
 0.000000e+000 0.000000e+000 0.000000e+000 8.424414e-001 1.575586e-001
 0.000000e+000 0.000000e+000 0.000000e+000 0.000000e+000 0.000000e+000
<ENDHMM>
~h "aa"
<BEGINHMM>
<NUMSTATES> 5
<STATE> 2
<MEAN> 25
 7.188630e-001 -3.065385e+000 -2.828961e+000 -2.591997e+000 3.768780e+000 1.844048e+000 3.320517e-001 -1.008117e-001 1.538339e+000 -1.016107e+000 -1.746204e+000 -5.096407e-001 9.336177e-003 -3.764736e-002 -4.035321e-002 -3.367950e-002 5.412443e-002 1.007333e-002 3.928943e-002 1.384515e-002 2.494928e-002 -1.281385e-002 -4.533339e-002 8.155094e-003 1.849899e-002
<VARIANCE> 25
 4.362554e+001 5.273558e+001 1.081415e+002 9.683973e+001 8.588089e+001 6.232056e+001 5.917701e+001 4.995465e+001 6.867041e+001 5.149562e+001 4.650724e+001 3.209336e+001 1.641703e+000 2.131377e+000 2.796812e+000 3.311430e+000 2.434197e+000 2.420421e+000 2.953717e+000 3.005859e+000 2.599608e+000 2.818511e+000 2.441649e+000 1.987602e+000 2.415436e+000
<GCONST> 1.068889e+002
<STATE> 3
<MEAN> 25
 7.235460e-001 -3.124994e+000 -2.957269e+000 -2.658614e+000 3.930593e+000 1.847182e+000 4.681309e-001 -3.584049e-002 1.627841e+000 -1.062422e+000 -1.888148e+000 -4.791282e-001 -3.800584e-003 7.043945e-004 -3.265946e-002 1.120813e-003 2.704376e-002 1.941764e-003 3.280665e-002 1.918619e-002 1.872734e-002 -1.001428e-002 -3.579877e-002 1.210513e-002 -2.050398e-002
<VARIANCE> 25
 4.303954e+001 5.189325e+001 1.093037e+002 9.535272e+001 8.761152e+001 6.254710e+001 5.972952e+001 5.048172e+001 6.827904e+001 5.184029e+001 4.676015e+001 3.216934e+001 1.605948e+000 2.073783e+000 2.753778e+000 3.247366e+000 2.399915e+000 2.425576e+000 2.957834e+000 3.005572e+000 2.574597e+000 2.798284e+000 2.436764e+000 1.981310e+000 2.355873e+000
<GCONST> 1.067644e+002
<STATE> 4
<MEAN> 25
 6.271410e-001 -2.819330e+000 -3.120132e+000 -2.416930e+000 4.007873e+000 1.748110e+000 5.599611e-001 -1.913156e-002 1.794914e+000 -1.157328e+000 -1.875510e+000 -3.898723e-001 -1.537454e-002 2.944231e-002 -1.590824e-002 2.741927e-002 -5.194600e-003 4.166308e-004 1.942011e-002 2.279426e-002 1.849026e-003 -3.785338e-003 -1.543239e-002 5.206279e-003 -4.823990e-002
<VARIANCE> 25
 4.504726e+001 5.187336e+001 1.120057e+002 9.665889e+001 8.929147e+001 6.358704e+001 6.102432e+001 5.148127e+001 6.840314e+001 5.233094e+001 4.689149e+001 3.251674e+001 1.659250e+000 2.059259e+000 2.771523e+000 3.328217e+000 2.359380e+000 2.471630e+000 2.976020e+000 2.996779e+000 2.607246e+000 2.811148e+000 2.453060e+000 2.007980e+000 2.348811e+000
<GCONST> 1.070448e+002
<TRANSP> 5
 0.000000e+000 1.000000e+000 0.000000e+000 0.000000e+000 0.000000e+000
 0.000000e+000 7.272539e-001 2.727461e-001 0.000000e+000 0.000000e+000
 0.000000e+000 0.000000e+000 7.272546e-001 2.727454e-001 0.000000e+000
 0.000000e+000 0.000000e+000 0.000000e+000 8.522597e-001 1.477403e-001
 0.000000e+000 0.000000e+000 0.000000e+000 0.000000e+000 0.000000e+000
<ENDHMM>
~h "ae"
<BEGINHMM>
<NUMSTATES> 5
<STATE> 2
<MEAN> 25
 1.041522e+000 -2.342402e-001 -9.072708e-001 1.159463e+000 -4.230097e-001 -8.824341e-001 1.113373e+000 1.400120e+000 8.579195e-001 -6.589229e-001 -1.526532e-001 -6.042973e-001 2.626541e-004 7.758209e-003 7.323380e-002 5.749618e-002 -1.309517e-001 2.087201e-002 1.602650e-002 -1.057214e-002 -5.398701e-002 -2.191365e-002 4.377893e-002 -2.208860e-002 2.584260e-002
<VARIANCE> 25
 3.943845e+001 6.611254e+001 1.227914e+002 7.677548e+001 7.567289e+001 5.377457e+001 7.497741e+001 6.091713e+001 6.320558e+001 4.726690e+001 4.816647e+001 3.828101e+001 1.708156e+000 2.928712e+000 3.359971e+000 3.729922e+000 2.571863e+000 2.597470e+000 3.785656e+000 3.445758e+000 2.556288e+000 2.843162e+000 2.580091e+000 2.535831e+000 3.182852e+000
<GCONST> 1.088496e+002
<STATE> 3
<MEAN> 25
 1.046213e+000 -2.528691e-001 -5.842361e-001 1.295217e+000 -9.211220e-001 -8.180060e-001 1.168818e+000 1.392560e+000 6.112250e-001 -7.302842e-001 -1.477998e-002 -6.698366e-001 2.857549e-003 -8.128404e-003 9.903916e-002 2.708019e-002 -1.345379e-001 1.505111e-002 1.087228e-002 -5.492800e-003 -6.453966e-002 -1.503608e-002 3.270107e-002 -1.399330e-002 5.348902e-002
<VARIANCE> 25
 3.918067e+001 6.726201e+001 1.230996e+002 7.650304e+001 7.458021e+001 5.392031e+001 7.555849e+001 6.312513e+001 6.374709e+001 4.821207e+001 4.799780e+001 3.743646e+001 1.738311e+000 2.914335e+000 3.413468e+000 3.782936e+000 2.556538e+000 2.615198e+000 3.719816e+000 3.539829e+000 2.562099e+000 2.850243e+000 2.580295e+000 2.502258e+000 3.289480e+000
<GCONST> 1.089704e+002
<STATE> 4
<MEAN> 25
 1.010973e+000 -3.419400e-001 4.709734e-002 1.274699e+000 -1.696384e+000 -9.562021e-001 1.245700e+000 1.526563e+000 6.886806e-002 -7.777369e-001 9.921911e-002 -7.199812e-001 4.688086e-003 -1.985381e-002 1.132210e-001 2.607393e-004 -1.179581e-001 -1.181463e-003 -7.862200e-003 -7.787255e-004 -7.718661e-002 -7.131862e-003 2.385768e-002 -4.087450e-003 6.980843e-002
<VARIANCE> 25
 3.947881e+001 6.839420e+001 1.217668e+002 7.670488e+001 7.210195e+001 5.376659e+001 7.851540e+001 6.604467e+001 6.558861e+001 4.953288e+001 4.850486e+001 3.667994e+001 1.801326e+000 2.855303e+000 3.516498e+000 3.817222e+000 2.462502e+000 2.544994e+000 3.686925e+000 3.587844e+000 2.541483e+000 2.822736e+000 2.568607e+000 2.458664e+000 3.401044e+000
<GCONST> 1.090662e+002
<TRANSP> 5
 0.000000e+000 1.000000e+000 0.000000e+000 0.000000e+000 0.000000e+000
 0.000000e+000 7.303590e-001 2.696410e-001 0.000000e+000 0.000000e+000
 0.000000e+000 0.000000e+000 7.303588e-001 2.696411e-001 0.000000e+000
 0.000000e+000 0.000000e+000 0.000000e+000 8.562885e-001 1.437115e-001
 0.000000e+000 0.000000e+000 0.000000e+000 0.000000e+000 0.000000e+000
<ENDHMM>
~h "ah"
<BEGINHMM>
<NUMSTATES> 5
<STATE> 2
<MEAN> 25
 1.414020e-001 -7.252448e-001 -1.050387e+000 -4.837105e-001 1.069559e+000 3.065888e-001 -4.032651e-002 2.715408e-001 8.344091e-001 -4.027109e-001 -5.239709e-001 4.990007e-002 3.221033e-003 5.200059e-003 5.444007e-003 6.746680e-003 3.468534e-003 -1.112084e-002 -1.068514e-003 8.930106e-003 1.133650e-002 5.739745e-003 -8.338073e-003 -8.817017e-004 -1.082099e-002
<VARIANCE> 25
 4.628065e+001 5.783695e+001 9.776958e+001 8.655447e+001 6.478230e+001 6.071506e+001 5.996564e+001 6.233177e+001 5.730948e+001 5.374133e+001 4.533429e+001 3.061854e+001 1.783251e+000 2.502501e+000 3.007950e+000 4.074922e+000 2.560325e+000 2.605523e+000 2.963699e+000 3.371556e+000 2.696005e+000 3.066408e+000 2.646464e+000 1.965187e+000 3.023963e+000
<GCONST> 1.077235e+002
<STATE> 3
<MEAN> 25
 1.562127e-001 -7.036120e-001 -1.037918e+000 -4.492261e-001 1.077289e+000 2.627454e-001 -4.483408e-002 2.979933e-001 8.782805e-001 -3.835770e-001 -5.534798e-001 4.770851e-002 1.797480e-003 9.248474e-003 1.341846e-003 1.501270e-002 -8.200312e-004 -1.066931e-002 9.651147e-004 6.014852e-003 1.329672e-002 -5.396974e-004 -5.493280e-003 -4.675595e-004 -2.140278e-002
<VARIANCE> 25
 4.603573e+001 5.762949e+001 9.708429e+001 8.614730e+001 6.455879e+001 6.044598e+001 5.955379e+001 6.223683e+001 5.727082e+001 5.359939e+001 4.544794e+001 3.054725e+001 1.784905e+000 2.495636e+000 2.980436e+000 4.063602e+000 2.550240e+000 2.594949e+000 2.947709e+000 3.368193e+000 2.684912e+000 3.064145e+000 2.642761e+000 1.961632e+000 3.005961e+000
<GCONST> 1.076412e+002
<STATE> 4
<MEAN> 25
 1.616529e-001 -6.698169e-001 -1.022020e+000 -3.712049e-001 1.049524e+000 2.214950e-001 -4.363007e-002 3.179758e-001 9.430075e-001 -3.848540e-001 -5.732074e-001 4.684621e-002 -2.319279e-003 1.056998e-002 -6.330974e-003 2.149332e-002 -5.767647e-003 -6.245868e-003 5.426943e-003 4.136465e-003 1.560324e-002 -7.048531e-003 -2.438165e-003 1.487683e-003 -3.074476e-002
<VARIANCE> 25
 4.539886e+001 5.739486e+001 9.793613e+001 8.615851e+001 6.509770e+001 6.017889e+001 5.961152e+001 6.176709e+001 5.782080e+001 5.383244e+001 4.567145e+001 3.058716e+001 1.767411e+000 2.462734e+000 2.942870e+000 4.023469e+000 2.536768e+000 2.578892e+000 2.937929e+000 3.328243e+000 2.660105e+000 3.061761e+000 2.620853e+000 1.960785e+000 2.989461e+000
<GCONST> 1.075526e+002
<TRANSP> 5
 0.000000e+000 1.000000e+000 0.000000e+000 0.000000e+000 0.000000e+000
 0.000000e+000 7.226608e-001 2.773392e-001 0.000000e+000 0.000000e+000
 0.000000e+000 0.000000e+000 7.226570e-001 2.773430e-001 0.000000e+000
 0.000000e+000 0.000000e+000 0.000000e+000 8.456779e-001 1.543222e-001
 0.000000e+000 0.000000e+000 0.000000e+000 0.000000e+000 0.000000e+000
<ENDHMM>
~h "ao"
<BEGINHMM>
<NUMSTATES> 5
<STATE> 2
<MEAN> 25
 2.017322e+000 3.909752e-001 -3.292453e-001 -2.170990e+000 1.015474e+000 1.266422e+000 -1.384918e+000 -1.269461e+000 2.413197e-001 6.509532e-001 5.956244e-001 3.507585e-001 4.460001e-002 -1.854259e-002 2.255713e-002 -8.229733e-002 1.260197e-002 -2.317840e-002 -1.665692e-002 4.961817e-002 4.323395e-002 4.885430e-002 -4.548997e-002 3.227970e-002 6.387924e-002
<VARIANCE> 25
 4.554778e+001 5.254494e+001 7.710855e+001 1.230602e+002 6.828691e+001 6.306345e+001 8.848637e+001 5.656006e+001 8.067553e+001 5.389276e+001 4.698732e+001 3.386855e+001 1.533729e+000 2.297915e+000 2.970781e+000 5.081157e+000 2.750432e+000 2.891011e+000 3.564501e+000 3.111951e+000 3.092936e+000 2.902503e+000 2.579246e+000 1.783655e+000 2.785747e+000
<GCONST> 1.087201e+002
<STATE> 3
<MEAN> 25
 2.187801e+000 3.341473e-001 -2.684752e-001 -2.464174e+000 1.042362e+000 1.171749e+000 -1.454031e+000 -1.076283e+000 3.777766e-001 8.441442e-001 4.413616e-001 4.403109e-001 2.340345e-002 -1.252626e-002 1.347962e-002 -5.570773e-002 -2.448741e-003 -3.696136e-002 -9.611563e-003 6.287248e-002 3.287505e-002 3.823958e-002 -4.395152e-002 2.425088e-002 4.934002e-002
<VARIANCE> 25
 4.646033e+001 5.233528e+001 7.501873e+001 1.239260e+002 6.827667e+001 6.277439e+001 8.938918e+001 5.830552e+001 7.898707e+001 5.493697e+001 4.720702e+001 3.345320e+001 1.539203e+000 2.371788e+000 2.919406e+000 5.059163e+000 2.754434e+000 2.909123e+000 3.486079e+000 3.023692e+000 3.121068e+000 2.881754e+000 2.641504e+000 1.746989e+000 2.789203e+000
<GCONST> 1.087180e+002
<STATE> 4
<MEAN> 25
 2.328089e+000 2.731730e-001 -3.076909e-001 -2.950109e+000 1.040646e+000 1.278385e+000 -1.696849e+000 -9.278730e-001 3.605418e-001 1.167676e+000 2.984909e-001 3.890373e-001 1.600578e-003 -1.192851e-002 -3.282105e-003 -1.596923e-002 -1.104638e-002 -4.749036e-002 -5.618901e-003 7.230304e-002 1.912727e-002 2.577918e-002 -3.666798e-002 1.604067e-002 2.935952e-002
<VARIANCE> 25
 5.027946e+001 5.164048e+001 7.646493e+001 1.234961e+002 6.854233e+001 6.078836e+001 8.812141e+001 6.214705e+001 8.227044e+001 5.840976e+001 4.911435e+001 3.382154e+001 1.536940e+000 2.416333e+000 2.983170e+000 4.797889e+000 2.687773e+000 2.851219e+000 3.350568e+000 2.890530e+000 3.152956e+000 2.789335e+000 2.698765e+000 1.742007e+000 2.698779e+000
<GCONST> 1.087927e+002
<TRANSP> 5
 0.000000e+000 1.000000e+000 0.000000e+000 0.000000e+000 0.000000e+000
 0.000000e+000 7.320585e-001 2.679415e-001 0.000000e+000 0.000000e+000
 0.000000e+000 0.000000e+000 7.320583e-001 2.679417e-001 0.000000e+000
 0.000000e+000 0.000000e+000 0.000000e+000 8.602654e-001 1.397347e-001
 0.000000e+000 0.000000e+000 0.000000e+000 0.000000e+000 0.000000e+000
<ENDHMM>
~h "ch"
<BEGINHMM>
<NUMSTATES> 5
<STATE> 2
<MEAN> 25
 -3.485979e+000 3.024404e+000 4.047840e+000 2.620993e+000 -3.110850e+000 -2.364773e+000 1.492864e+000 -5.989607e-001 -3.722700e+000 4.742289e-001 8.170679e-002 8.192643e-002 -1.307995e-001 9.111225e-002 -4.726604e-002 8.648678e-002 -1.473716e-002 -2.511715e-002 1.129662e-001 -9.613314e-002 -2.342867e-003 -6.040798e-002 8.528706e-002 -9.444770e-003 -7.978124e-002
<VARIANCE> 25
 9.706938e+001 5.516821e+001 1.210003e+002 6.801015e+001 5.530098e+001 4.714337e+001 7.506563e+001 6.110573e+001 7.707862e+001 5.508004e+001 3.816322e+001 2.838503e+001 2.868642e+000 2.090646e+000 4.017509e+000 3.445666e+000 2.732780e+000 2.620179e+000 3.226358e+000 3.280768e+000 3.266649e+000 2.425438e+000 2.412523e+000 2.075813e+000 2.712164e+000
<GCONST> 1.086121e+002
<STATE> 3
<MEAN> 25
 -3.938346e+000 3.335474e+000 3.789930e+000 2.956771e+000 -3.128956e+000 -2.465051e+000 1.898636e+000 -9.773723e-001 -3.673286e+000 2.314677e-001 4.023875e-001 3.528621e-002 -1.175986e-001 7.567421e-002 -7.810739e-002 8.763486e-002 -1.664925e-003 -2.376915e-002 1.028293e-001 -9.775295e-002 1.530849e-002 -6.134611e-002 8.688020e-002 -1.538208e-002 -6.651579e-002
<VARIANCE> 25
 1.021336e+002 5.480056e+001 1.268110e+002 6.749620e+001 5.545589e+001 4.747171e+001 7.692241e+001 6.034494e+001 7.646887e+001 5.355861e+001 3.788787e+001 2.892542e+001 3.078506e+000 2.045036e+000 4.221607e+000 3.437901e+000 2.771784e+000 2.614201e+000 3.210245e+000 3.185053e+000 3.216233e+000 2.405323e+000 2.457576e+000 2.083599e+000 2.688347e+000
<GCONST> 1.087556e+002
<STATE> 4
<MEAN> 25
 -4.391912e+000 3.638700e+000 3.171814e+000 3.398937e+000 -3.072242e+000 -2.580107e+000 2.455187e+000 -1.578421e+000 -3.455806e+000 -1.112477e-001 8.368242e-001 -1.831814e-002 -7.060794e-002 4.338622e-002 -1.000838e-001 6.776544e-002 1.004693e-002 -1.203873e-002 7.221831e-002 -9.049705e-002 2.953889e-002 -5.293320e-002 7.210335e-002 -2.385768e-002 -3.251090e-002
<VARIANCE> 25
 1.077640e+002 5.572371e+001 1.340889e+002 6.796565e+001 5.685189e+001 4.913821e+001 8.054594e+001 5.965147e+001 7.543797e+001 5.148108e+001 3.676884e+001 2.955243e+001 3.402843e+000 2.009563e+000 4.560197e+000 3.447347e+000 2.856924e+000 2.635232e+000 3.261745e+000 3.136807e+000 3.147673e+000 2.421226e+000 2.529883e+000 2.072790e+000 2.716435e+000
<GCONST> 1.091416e+002
<TRANSP> 5
 0.000000e+000 1.000000e+000 0.000000e+000 0.000000e+000 0.000000e+000
 0.000000e+000 7.348202e-001 2.651798e-001 0.000000e+000 0.000000e+000
 0.000000e+000 0.000000e+000 7.348206e-001 2.651793e-001 0.000000e+000
 0.000000e+000 0.000000e+000 0.000000e+000 8.563232e-001 1.436768e-001
 0.000000e+000 0.000000e+000 0.000000e+000 0.000000e+000 0.000000e+000
<ENDHMM>
~h "eh"
<BEGINHMM>
<NUMSTATES> 5
<STATE> 2
<MEAN> 25
 -5.065544e-001 4.588798e-001 4.939863e+000 2.964182e-001 -4.407645e+000 -1.569261e+000 6.274863e-001 9.158026e-001 -3.116790e+000 2.106180e+000 1.331314e+000 6.382991e-002 -2.861355e-002 2.012827e-002 3.163556e-002 5.138131e-003 -1.792552e-002 4.603129e-004 2.542147e-002 -3.900999e-003 -2.011289e-002 1.858033e-002 2.057119e-002 -2.102594e-003 -4.834148e-002
<VARIANCE> 25
 4.340949e+001 5.214797e+001 1.308725e+002 9.052142e+001 8.025051e+001 4.805615e+001 6.826881e+001 4.822812e+001 8.357571e+001 6.735744e+001 4.370811e+001 3.120780e+001 1.461279e+000 2.127003e+000 3.310854e+000 3.197249e+000 2.495063e+000 2.186593e+000 2.806926e+000 2.948460e+000 2.906854e+000 2.950619e+000 2.243699e+000 1.886161e+000 2.362190e+000
<GCONST> 1.070173e+002
<STATE> 3
<MEAN> 25
 -6.082804e-001 5.546582e-001 5.013079e+000 3.513510e-001 -4.434519e+000 -1.580821e+000 7.113637e-001 8.890143e-001 -3.161680e+000 2.131938e+000 1.400642e+000 7.460301e-002 -3.131217e-002 3.552358e-002 -6.013218e-003 2.963386e-002 8.355849e-003 -6.121192e-003 2.586075e-002 -7.573829e-003 4.823357e-003 -1.370085e-002 1.514205e-002 2.496639e-003 -7.011274e-002
<VARIANCE> 25
 4.296244e+001 5.181015e+001 1.300053e+002 9.020172e+001 7.914381e+001 4.809814e+001 6.872995e+001 4.783393e+001 8.361417e+001 6.780796e+001 4.356495e+001 3.118565e+001 1.436560e+000 2.119085e+000 3.305166e+000 3.193241e+000 2.468302e+000 2.195055e+000 2.773251e+000 2.907628e+000 2.905220e+000 2.972441e+000 2.250518e+000 1.883017e+000 2.348358e+000
<GCONST> 1.069245e+002
<STATE> 4
<MEAN> 25
 -7.035471e-001 7.472541e-001 4.764330e+000 5.376758e-001 -4.255383e+000 -1.633117e+000 7.505608e-001 8.146368e-001 -2.919583e+000 1.907150e+000 1.417740e+000 1.096569e-001 -3.190280e-002 4.878906e-002 -4.567617e-002 5.223097e-002 3.143780e-002 -1.279071e-002 1.575667e-002 -1.159003e-002 3.089483e-002 -4.924953e-002 7.633005e-003 8.776196e-003 -8.605111e-002
<VARIANCE> 25
 4.404998e+001 5.234987e+001 1.304921e+002 9.095280e+001 7.814400e+001 4.850145e+001 7.022987e+001 4.797185e+001 8.451941e+001 6.684778e+001 4.364549e+001 3.121096e+001 1.460062e+000 2.149134e+000 3.336591e+000 3.248695e+000 2.428761e+000 2.226724e+000 2.784149e+000 2.859888e+000 2.918746e+000 3.012559e+000 2.289711e+000 1.898030e+000 2.369672e+000
<GCONST> 1.070860e+002
<TRANSP> 5
 0.000000e+000 1.000000e+000 0.000000e+000 0.000000e+000 0.000000e+000
 0.000000e+000 7.339131e-001 2.660869e-001 0.000000e+000 0.000000e+000
 0.000000e+000 0.000000e+000 7.339128e-001 2.660873e-001 0.000000e+000
 0.000000e+000 0.000000e+000 0.000000e+000 8.596595e-001 1.403405e-001
 0.000000e+000 0.000000e+000 0.000000e+000 0.000000e+000 0.000000e+000
<ENDHMM>
~h "ih"
<BEGINHMM>
<NUMSTATES> 5
<STATE> 2
<MEAN> 25
 -1.131246e+000 1.750960e+000 3.731871e+000 1.304417e+000 -2.963696e+000 -1.327432e+000 -2.249070e-001 -1.144558e+000 -2.358268e+000 1.087072e+000 9.479920e-001 -1.568081e-001 -4.424238e-002 5.021261e-002 3.152987e-002 3.139608e-002 -3.203262e-002 -3.958195e-002 -2.293299e-002 -1.531978e-002 -2.581257e-002 -2.150109e-003 2.970514e-002 2.181751e-003 -1.154424e-002
<VARIANCE> 25
 4.928600e+001 5.250315e+001 1.452423e+002 7.532253e+001 7.839755e+001 5.181601e+001 6.393301e+001 5.090558e+001 8.392278e+001 5.892519e+001 4.543859e+001 2.869384e+001 1.697652e+000 2.177564e+000 4.377359e+000 3.350137e+000 2.694302e+000 2.779070e+000 3.215041e+000 2.949298e+000 3.314230e+000 3.388337e+000 2.526848e+000 1.970552e+000 2.914321e+000
<GCONST> 1.085312e+002
<STATE> 3
<MEAN> 25
 -1.281240e+000 1.896948e+000 3.817311e+000 1.387536e+000 -3.061395e+000 -1.450350e+000 -2.954236e-001 -1.188549e+000 -2.415987e+000 1.059184e+000 1.056185e+000 -1.546857e-001 -4.357417e-002 3.633448e-002 1.464956e-002 2.041003e-002 -2.315884e-002 -3.548265e-002 -1.890351e-002 -8.141071e-003 -4.984439e-003 -1.523170e-002 2.715535e-002 -5.357473e-004 -9.790236e-003
<VARIANCE> 25
 4.972347e+001 5.235027e+001 1.452859e+002 7.530891e+001 7.719862e+001 5.132310e+001 6.476352e+001 5.006379e+001 8.363404e+001 5.890030e+001 4.462604e+001 2.884942e+001 1.692430e+000 2.161094e+000 4.417947e+000 3.380447e+000 2.719653e+000 2.745909e+000 3.214432e+000 2.958217e+000 3.343537e+000 3.407198e+000 2.506746e+000 1.959783e+000 2.884909e+000
<GCONST> 1.084905e+002
<STATE> 4
<MEAN> 25
 -1.444200e+000 1.935111e+000 3.675994e+000 1.366800e+000 -2.976472e+000 -1.504264e+000 -3.265373e-001 -1.167814e+000 -2.336570e+000 1.019643e+000 1.097754e+000 -1.246295e-001 -3.623347e-002 1.395100e-002 3.123978e-003 -2.467480e-003 -1.042280e-002 -2.266718e-002 -1.557409e-002 1.905583e-003 9.499796e-003 -2.049979e-002 2.583225e-002 1.574704e-003 3.324060e-003
<VARIANCE> 25
 5.115086e+001 5.274337e+001 1.477506e+002 7.731377e+001 7.647031e+001 5.097900e+001 6.644101e+001 4.964233e+001 8.468307e+001 5.905142e+001 4.366021e+001 2.911762e+001 1.722526e+000 2.157532e+000 4.395613e+000 3.433260e+000 2.729589e+000 2.660797e+000 3.191992e+000 2.952211e+000 3.328403e+000 3.367433e+000 2.459986e+000 1.938791e+000 2.860970e+000
<GCONST> 1.085080e+002
<TRANSP> 5
 0.000000e+000 1.000000e+000 0.000000e+000 0.000000e+000 0.000000e+000
 0.000000e+000 7.188242e-001 2.811758e-001 0.000000e+000 0.000000e+000
 0.000000e+000 0.000000e+000 7.188236e-001 2.811764e-001 0.000000e+000
 0.000000e+000 0.000000e+000 0.000000e+000 8.415202e-001 1.584798e-001
 0.000000e+000 0.000000e+000 0.000000e+000 0.000000e+000 0.000000e+000
<ENDHMM>
~h "iy"
<BEGINHMM>
<NUMSTATES> 5
<STATE> 2
<MEAN> 25
 -1.192410e+000 3.370171e+000 4.164636e+000 9.303710e-001 -2.353871e+000 4.925042e-001 1.395730e+000 -6.038329e-001 -3.381531e+000 3.681526e-001 1.741634e+000 9.103138e-002 -5.673383e-002 7.582213e-002 -4.629097e-002 4.661361e-002 4.185500e-002 -4.409292e-002 9.001458e-002 -8.158537e-002 7.886381e-002 -3.146898e-002 1.502022e-002 -3.605887e-002 -6.920165e-002
<VARIANCE> 25
 4.914639e+001 5.758562e+001 1.332399e+002 7.671353e+001 5.511387e+001 3.510161e+001 6.731174e+001 4.991928e+001 7.246967e+001 4.823151e+001 4.998146e+001 2.468107e+001 1.597105e+000 1.597155e+000 2.977955e+000 2.234935e+000 2.465175e+000 1.731491e+000 2.198407e+000 3.293057e+000 2.237654e+000 2.052304e+000 2.854432e+000 1.648623e+000 1.779328e+000
<GCONST> 1.040036e+002
<STATE> 3
<MEAN> 25
 -1.400894e+000 3.618097e+000 3.969339e+000 1.102741e+000 -2.176919e+000 3.103031e-001 1.727167e+000 -8.971434e-001 -3.067247e+000 2.415637e-001 1.798641e+000 -5.495344e-002 -5.295520e-002 3.151118e-002 -6.969619e-002 5.345292e-002 5.935706e-002 -3.447919e-002 7.565285e-002 -5.793207e-002 8.110829e-002 -5.913757e-002 9.462831e-003 -2.613502e-002 -4.091353e-002
<VARIANCE> 25
 4.993669e+001 5.804262e+001 1.339873e+002 7.858879e+001 5.501802e+001 3.541782e+001 6.733942e+001 4.789296e+001 7.294478e+001 4.941809e+001 5.016942e+001 2.440775e+001 1.686000e+000 1.651681e+000 3.066809e+000 2.459823e+000 2.553016e+000 1.735657e+000 2.233123e+000 3.278409e+000 2.266320e+000 2.117471e+000 2.833268e+000 1.657273e+000 1.814713e+000
<GCONST> 1.043700e+002
<STATE> 4
<MEAN> 25
 -1.617593e+000 3.571319e+000 3.779444e+000 1.148161e+000 -1.959205e+000 9.003326e-002 1.982575e+000 -1.084152e+000 -2.792236e+000 1.697384e-001 1.814997e+000 -2.294352e-001 -4.897569e-002 -3.212329e-002 -1.005186e-001 5.316811e-002 6.052716e-002 -2.087060e-002 5.853262e-002 -2.030792e-002 7.085310e-002 -8.555918e-002 1.281866e-002 -1.947920e-002 -1.243995e-002
<VARIANCE> 25
 5.123919e+001 5.931568e+001 1.365369e+002 8.186257e+001 5.656199e+001 3.686005e+001 6.675119e+001 4.497864e+001 7.418825e+001 5.301796e+001 5.128732e+001 2.427266e+001 1.770490e+000 1.708586e+000 3.188214e+000 2.701036e+000 2.676318e+000 1.795450e+000 2.302925e+000 3.256943e+000 2.294346e+000 2.236957e+000 2.789866e+000 1.691740e+000 1.884993e+000
<GCONST> 1.050075e+002
<TRANSP> 5
 0.000000e+000 1.000000e+000 0.000000e+000 0.000000e+000 0.000000e+000
 0.000000e+000 7.473708e-001 2.526292e-001 0.000000e+000 0.000000e+000
 0.000000e+000 0.000000e+000 7.473709e-001 2.526291e-001 0.000000e+000
 0.000000e+000 0.000000e+000 0.000000e+000 8.714759e-001 1.285241e-001
 0.000000e+000 0.000000e+000 0.000000e+000 0.000000e+000 0.000000e+000
<ENDHMM>
~h "th"
<BEGINHMM>
<NUMSTATES> 5
<STATE> 2
<MEAN> 25
 1.047994e-001 -6.678373e-001 -2.425367e+000 -8.716417e-002 1.238000e+000 5.028890e-001 -9.518293e-002 2.800007e-001 1.271614e+000 -8.494820e-001 -9.619789e-001 -7.766007e-001 -7.783013e-004 -1.739696e-002 3.908420e-002 -2.964245e-002 -6.729191e-003 -1.218144e-002 -1.130939e-002 9.890960e-003 -1.107887e-002 1.930935e-002 -1.732684e-002 1.153780e-002 -1.991755e-003
<VARIANCE> 25
 3.681017e+001 5.096714e+001 1.012075e+002 8.318390e+001 6.388920e+001 5.482668e+001 6.006638e+001 5.415552e+001 5.393076e+001 5.588377e+001 4.354171e+001 3.325035e+001 1.888044e+000 2.403229e+000 3.375836e+000 4.248547e+000 2.486248e+000 2.594780e+000 3.417295e+000 3.346687e+000 2.763564e+000 3.233347e+000 2.676303e+000 1.908950e+000 3.798349e+000
<GCONST> 1.076918e+002
<STATE> 3
<MEAN> 25
 8.520792e-002 -7.034823e-001 -2.285380e+000 -1.550496e-001 1.195700e+000 4.515553e-001 -1.147412e-001 3.166865e-001 1.224924e+000 -7.911773e-001 -1.006550e+000 -7.316521e-001 -3.592785e-003 -1.062443e-002 5.108170e-002 -2.216380e-002 -1.607037e-002 -2.354456e-002 -7.911515e-003 6.922411e-003 -1.718825e-002 2.420350e-002 -1.307344e-002 1.915167e-002 -8.282891e-003
<VARIANCE> 25
 3.652187e+001 5.015416e+001 1.036315e+002 8.296248e+001 6.461292e+001 5.462075e+001 5.943773e+001 5.279632e+001 5.426058e+001 5.616668e+001 4.371809e+001 3.319339e+001 1.890385e+000 2.366959e+000 3.473114e+000 4.209603e+000 2.483108e+000 2.621551e+000 3.419149e+000 3.307955e+000 2.764508e+000 3.237608e+000 2.650087e+000 1.900836e+000 3.781042e+000
<GCONST> 1.076600e+002
<STATE> 4
<MEAN> 25
 -5.040577e-002 -6.262081e-001 -2.007261e+000 -2.711871e-002 9.882831e-001 2.702156e-001 -6.581206e-002 3.623098e-001 1.069724e+000 -7.192295e-001 -9.308183e-001 -6.110085e-001 -1.132128e-002 1.856579e-003 5.489873e-002 -4.725272e-003 -3.045908e-002 -3.122965e-002 -6.301736e-003 5.142385e-003 -1.699302e-002 2.066044e-002 -6.510261e-004 2.386698e-002 -2.126611e-002
<VARIANCE> 25
 3.762020e+001 4.955657e+001 1.092307e+002 8.270871e+001 6.616325e+001 5.454316e+001 6.055362e+001 5.140137e+001 5.514904e+001 5.677682e+001 4.430407e+001 3.358640e+001 1.895679e+000 2.310697e+000 3.528776e+000 4.102357e+000 2.439460e+000 2.621198e+000 3.398351e+000 3.201019e+000 2.725268e+000 3.213418e+000 2.570326e+000 1.909808e+000 3.686267e+000
<GCONST> 1.076324e+002
<TRANSP> 5
 0.000000e+000 1.000000e+000 0.000000e+000 0.000000e+000 0.000000e+000
 0.000000e+000 7.250527e-001 2.749473e-001 0.000000e+000 0.000000e+000
 0.000000e+000 0.000000e+000 7.250535e-001 2.749465e-001 0.000000e+000
 0.000000e+000 0.000000e+000 0.000000e+000 8.484955e-001 1.515044e-001
 0.000000e+000 0.000000e+000 0.000000e+000 0.000000e+000 0.000000e+000
<ENDHMM>
~h "uh"
<BEGINHMM>
<NUMSTATES> 5
<STATE> 2
<MEAN> 25
 -7.906418e-002 2.835366e+000 1.389693e-001 7.643666e-001 -1.050395e+000 4.588864e-002 -1.160974e+000 -5.845913e-001 -1.468482e+000 5.124512e-001 1.603401e+000 3.299427e-002 3.798109e-002 1.681719e-002 5.118233e-002 6.311544e-002 -4.530380e-002 1.496917e-003 -1.047598e-002 -7.725697e-002 -4.060736e-002 1.135106e-002 -9.306388e-003 1.213663e-002 -1.595582e-002
<VARIANCE> 25
 7.072156e+001 5.926343e+001 1.015411e+002 8.270261e+001 7.323623e+001 5.847785e+001 7.223975e+001 6.578902e+001 6.540636e+001 6.057147e+001 5.205016e+001 2.861679e+001 2.520520e+000 2.431719e+000 3.170568e+000 4.066072e+000 2.453528e+000 2.618069e+000 3.327389e+000 3.414230e+000 3.054643e+000 3.343406e+000 2.706804e+000 2.013551e+000 2.433738e+000
<GCONST> 1.093113e+002
<STATE> 3
<MEAN> 25
 4.392245e-002 2.872318e+000 3.400886e-001 9.867535e-001 -1.191809e+000 3.338283e-002 -1.197222e+000 -8.398626e-001 -1.608277e+000 5.830387e-001 1.544632e+000 6.356412e-002 4.814525e-002 1.778404e-003 5.824498e-002 6.470241e-002 -3.816245e-002 -8.531109e-003 -1.508372e-002 -7.839455e-002 -3.460114e-002 3.427015e-002 -2.698636e-002 8.072339e-003 -2.073282e-002
<VARIANCE> 25
 6.820807e+001 5.717216e+001 1.030334e+002 8.207885e+001 7.357021e+001 5.762720e+001 7.125714e+001 6.501432e+001 6.586494e+001 6.133237e+001 5.177641e+001 2.833163e+001 2.419582e+000 2.398269e+000 3.141279e+000 4.042048e+000 2.522593e+000 2.626640e+000 3.361095e+000 3.401188e+000 3.084399e+000 3.343367e+000 2.738428e+000 2.023441e+000 2.474087e+000
<GCONST> 1.092248e+002
<STATE> 4
<MEAN> 25
 1.368941e-001 2.702001e+000 7.530174e-001 1.177494e+000 -1.419502e+000 -1.230048e-001 -1.259590e+000 -9.688513e-001 -1.790767e+000 7.444174e-001 1.304976e+000 -1.172359e-002 4.101948e-002 -9.661324e-003 6.244615e-002 4.017577e-002 -3.592180e-002 -9.966410e-003 -1.377358e-002 -5.923536e-002 -1.920667e-002 4.496687e-002 -3.786961e-002 -7.424672e-004 -2.050803e-002
<VARIANCE> 25
 6.367608e+001 5.537819e+001 1.076504e+002 8.148509e+001 7.239532e+001 5.582544e+001 7.342735e+001 6.254817e+001 6.798721e+001 6.089230e+001 5.122684e+001 2.891543e+001 2.241361e+000 2.349844e+000 3.073569e+000 3.915661e+000 2.450170e+000 2.602475e+000 3.394172e+000 3.232875e+000 3.077171e+000 3.294348e+000 2.719930e+000 2.030195e+000 2.568429e+000
<GCONST> 1.089255e+002
<TRANSP> 5
 0.000000e+000 1.000000e+000 0.000000e+000 0.000000e+000 0.000000e+000
 0.000000e+000 7.234380e-001 2.765619e-001 0.000000e+000 0.000000e+000
 0.000000e+000 0.000000e+000 7.234377e-001 2.765623e-001 0.000000e+000
 0.000000e+000 0.000000e+000 0.000000e+000 8.494317e-001 1.505683e-001
 0.000000e+000 0.000000e+000 0.000000e+000 0.000000e+000 0.000000e+000
<ENDHMM>
~h "sil"
<BEGINHMM>
<NUMSTATES> 5
<STATE> 2
<MEAN> 25
 -2.868516e+000 2.840256e+000 -3.476599e+000 4.298689e+000 1.637558e+000 1.183671e+000 2.752654e+000 -1.008582e+000 1.592991e+000 -1.721047e+000 8.942007e-001 1.649855e+000 3.724059e-001 -8.838264e-002 -1.356893e-001 -3.566115e-001 -8.796399e-002 8.654368e-002 -2.858164e-001 -2.162012e-001 -1.962974e-001 -1.476750e-001 -6.212863e-002 -2.409790e-001 5.474466e-001
<VARIANCE> 25
 4.138599e+001 5.674260e+001 1.085018e+002 1.013190e+002 8.655917e+001 6.777009e+001 5.649450e+001 4.917097e+001 5.805205e+001 6.218618e+001 4.100030e+001 2.937849e+001 2.390352e+000 2.856126e+000 2.940709e+000 6.105007e+000 2.583747e+000 3.253553e+000 3.453485e+000 3.000333e+000 3.209038e+000 3.028291e+000 2.293251e+000 2.185516e+000 5.449674e+000
<GCONST> 1.097623e+002
<STATE> 3
<MEAN> 25
 -1.820882e+000 2.342900e+000 -3.726454e+000 2.581795e+000 1.360051e+000 1.752218e+000 1.895433e+000 -1.486484e+000 8.799974e-001 -2.197090e+000 8.189629e-001 1.195483e+000 2.563412e-001 -1.829392e-001 -8.432522e-002 -4.831868e-001 -5.898543e-002 1.914168e-001 -2.174407e-001 -6.747869e-002 -2.503988e-001 -1.010915e-001 4.043410e-002 -7.378252e-002 5.089079e-001
<VARIANCE> 25
 4.358172e+001 6.519836e+001 1.004176e+002 1.110992e+002 8.538415e+001 7.144447e+001 5.254106e+001 5.229511e+001 5.298676e+001 6.021997e+001 4.289641e+001 2.949483e+001 2.220782e+000 2.991520e+000 3.407564e+000 5.942996e+000 2.742807e+000 2.813158e+000 3.443763e+000 3.054908e+000 3.044817e+000 3.100166e+000 2.601521e+000 2.016460e+000 4.828140e+000
<GCONST> 1.098396e+002
<STATE> 4
<MEAN> 25
 -1.186295e+000 1.632831e+000 -3.679631e+000 1.438270e+000 1.024478e+000 2.234029e+000 1.506113e+000 -1.323882e+000 1.580962e-001 -2.324144e+000 9.469619e-001 1.003320e+000 6.070668e-002 -8.907022e-002 -1.321492e-001 -6.085088e-002 -4.684079e-002 9.225130e-002 -4.344276e-002 4.769144e-002 -1.415620e-001 -1.936882e-002 9.835467e-002 -1.867902e-002 1.148118e-001
<VARIANCE> 25
 4.709124e+001 7.208218e+001 9.321833e+001 1.233784e+002 8.340804e+001 7.507168e+001 4.938259e+001 5.297012e+001 5.019943e+001 5.556136e+001 4.404131e+001 3.034767e+001 1.571378e+000 2.607813e+000 2.866594e+000 4.562206e+000 2.559078e+000 2.551270e+000 3.099578e+000 3.067095e+000 2.679422e+000 3.023515e+000 2.728278e+000 1.874212e+000 2.976106e+000
<GCONST> 1.080940e+002
<TRANSP> 5
 0.000000e+000 1.000000e+000 0.000000e+000 0.000000e+000 0.000000e+000
 0.000000e+000 7.204537e-001 2.795463e-001 0.000000e+000 0.000000e+000
 0.000000e+000 0.000000e+000 7.204533e-001 2.795467e-001 0.000000e+000
 0.000000e+000 0.000000e+000 0.000000e+000 8.438028e-001 1.561972e-001
 0.000000e+000 0.000000e+000 0.000000e+000 0.000000e+000 0.000000e+000
<ENDHMM>
