~o
<STREAMINFO> 1 25
<VECSIZE> 25<NULLD><MFCC_D_N_Z_0><DIAGC>
~h "b"
<BEGINHMM>
<NUMSTATES> 5
<STATE> 2
<MEAN> 25
 5.585948e+000 5.022824e+000 -7.196882e-002 2.912048e+000 2.017096e+000 4.767355e+000 -5.395025e+000 -5.753209e+000 -2.692969e+000 1.134926e+000 3.394987e-001 -1.378488e+000 1.461955e-001 -1.052244e+000 8.764170e-001 -1.085245e+000 -5.361925e-001 -3.703566e-001 -1.046999e+000 2.899228e-001 1.244008e-001 1.215650e+000 2.212679e-001 1.885928e-001 1.341604e+000
<VARIANCE> 25
 9.854815e+000 7.114047e+001 5.304424e+001 1.480410e+002 5.562831e+001 6.373882e+001 3.308560e+001 5.604527e+001 5.732363e+001 8.088087e+001 3.620276e+001 2.456176e+001 1.609466e+000 5.307322e+000 3.810287e+000 8.617366e+000 4.103583e+000 3.389405e+000 2.661612e+000 4.735238e+000 4.397001e+000 7.521586e+000 3.156129e+000 3.050819e+000 4.912540e+000
<GCONST> 1.105571e+002
<STATE> 3
<MEAN> 25
 5.010876e+000 1.902042e-001 3.570909e+000 -1.908099e+000 -8.162671e-001 1.375140e+000 -7.870856e+000 -1.973406e+000 -1.793762e+000 5.132799e+000 1.337676e+000 -6.952192e-001 -4.289006e-001 -7.692597e-001 7.807772e-001 -6.463250e-001 -9.025781e-001 -6.831716e-001 -2.310548e-001 9.366627e-001 -3.377457e-001 7.020395e-001 -3.612305e-001 4.128321e-001 8.511083e-001
<VARIANCE> 25
 1.164985e+001 6.385786e+001 8.671449e+001 1.272979e+002 8.716645e+001 4.045351e+001 2.955507e+001 6.923196e+001 1.136484e+002 8.598514e+001 3.486928e+001 2.956077e+001 1.063147e+000 3.330729e+000 4.160297e+000 7.488811e+000 4.364415e+000 3.436583e+000 2.638822e+000 6.079906e+000 6.061821e+000 7.553688e+000 3.181375e+000 2.872820e+000 3.663230e+000
<GCONST> 1.113068e+002
<STATE> 4
<MEAN> 25
 3.950305e+000 2.980494e+000 4.114525e+000 -1.608893e+000 -1.624241e+000 -1.672266e+000 -8.061667e+000 -1.743412e+000 -4.894335e+000 8.488305e+000 2.474947e-001 -5.394900e-001 -1.718675e-001 8.594483e-002 -4.350795e-002 2.173345e-001 -1.707587e-001 -2.824189e-001 3.610801e-001 7.975093e-002 1.032298e-001 -9.230668e-002 -1.799557e-001 1.097856e-001 -2.209772e-001
<VARIANCE> 25
 1.033613e+001 7.416420e+001 8.428931e+001 1.064097e+002 5.997302e+001 3.621745e+001 4.024134e+001 4.729010e+001 1.406223e+002 7.750072e+001 3.736352e+001 3.001397e+001 7.866979e-001 1.458389e+000 1.758841e+000 2.987560e+000 2.499875e+000 3.200099e+000 2.336874e+000 2.130831e+000 3.518441e+000 4.957309e+000 1.962241e+000 1.834309e+000 1.263865e+000
<GCONST> 1.030989e+002
<TRANSP> 5
 0.000000e+000 1.000000e+000 0.000000e+000 0.000000e+000 0.000000e+000
 0.000000e+000 7.485222e-001 2.514779e-001 0.000000e+000 0.000000e+000
 0.000000e+000 0.000000e+000 6.623412e-001 3.376587e-001 0.000000e+000
 0.000000e+000 0.000000e+000 0.000000e+000 8.828124e-001 1.171876e-001
 0.000000e+000 0.000000e+000 0.000000e+000 0.000000e+000 0.000000e+000
<ENDHMM>
~h "d"
<BEGINHMM>
<NUMSTATES> 5
<STATE> 2
<MEAN> 25
 2.601666e+000 6.364326e+000 -9.932356e-001 7.785296e+000 3.489722e-002 -3.947068e+000 -1.433898e+000 -1.775766e+000 3.495537e+000 -3.521513e-002 -3.010169e+000 8.518971e-001 -1.801927e-001 1.011202e-001 1.372485e-001 2.979417e-001 -2.511982e-001 -3.933174e-001 1.245504e-001 3.292808e-001 1.643801e-001 -3.676095e-001 -7.243145e-002 -8.188938e-002 9.656615e-002
<VARIANCE> 25
 2.629477e+001 4.514605e+001 5.208316e+001 6.449392e+001 4.683232e+001 3.495364e+001 4.378726e+001 6.609088e+001 5.573056e+001 4.104817e+001 4.029653e+001 3.021119e+001 1.607261e+000 4.126205e+000 2.842907e+000 4.856130e+000 4.026591e+000 3.788994e+000 2.991452e+000 5.667241e+000 4.239068e+000 4.604228e+000 4.152106e+000 2.975937e+000 3.659769e+000
<GCONST> 1.082117e+002
<STATE> 3
<MEAN> 25
 2.228962e+000 6.655805e+000 1.368326e-001 8.423371e+000 -1.528276e+000 -4.854524e+000 -5.619525e-001 -1.384650e+000 3.379923e+000 -1.023623e+000 -2.812617e+000 3.502255e-001 -1.922747e-001 -3.751422e-001 2.649629e-001 -5.344494e-001 -2.711868e-001 -4.271912e-001 1.345339e-001 2.802284e-001 9.534957e-002 -2.342832e-001 3.762339e-001 7.974749e-002 9.239706e-001
<VARIANCE> 25
 2.657660e+001 6.191079e+001 4.249775e+001 8.482162e+001 4.522408e+001 4.110600e+001 3.704136e+001 6.667069e+001 5.227542e+001 5.145368e+001 4.651011e+001 3.607911e+001 2.778778e+000 4.713247e+000 3.231766e+000 6.477630e+000 3.889083e+000 4.360015e+000 3.471540e+000 5.426004e+000 5.634508e+000 5.878192e+000 5.660398e+000 3.675555e+000 5.046782e+000
<GCONST> 1.117392e+002
<STATE> 4
<MEAN> 25
 1.382184e+000 5.648595e+000 7.631221e-001 5.565735e+000 -3.906507e+000 -6.591754e+000 -1.353115e-001 9.582362e-001 2.784666e+000 -1.049124e+000 -1.923989e+000 1.449211e+000 -1.875392e-001 -3.727758e-001 3.247935e-001 -5.226440e-001 -2.982270e-001 -1.146408e-001 5.562267e-002 1.069043e-001 -3.481442e-001 -1.481827e-002 4.509927e-001 1.185670e-001 5.185047e-001
<VARIANCE> 25
 1.991721e+001 6.414533e+001 6.580288e+001 8.402216e+001 4.254015e+001 4.149160e+001 2.794416e+001 6.771133e+001 5.631049e+001 4.041825e+001 5.301818e+001 4.218814e+001 1.965103e+000 3.928032e+000 3.654457e+000 4.985412e+000 3.085889e+000 3.482355e+000 3.056245e+000 3.425696e+000 3.764181e+000 4.438412e+000 5.275947e+000 3.565162e+000 4.824172e+000
<GCONST> 1.091748e+002
<TRANSP> 5
 0.000000e+000 1.000000e+000 0.000000e+000 0.000000e+000 0.000000e+000
 0.000000e+000 7.496402e-001 2.503598e-001 0.000000e+000 0.000000e+000
 0.000000e+000 0.000000e+000 7.407558e-001 2.592442e-001 0.000000e+000
 0.000000e+000 0.000000e+000 0.000000e+000 8.555943e-001 1.444057e-001
 0.000000e+000 0.000000e+000 0.000000e+000 0.000000e+000 0.000000e+000
<ENDHMM>
~h "g"
<BEGINHMM>
<NUMSTATES> 5
<STATE> 2
<MEAN> 25
 4.168240e+000 4.858684e+000 2.416548e-001 4.519475e+000 -2.811860e+000 2.871153e-001 -5.195974e+000 -3.835509e+000 -3.673422e+000 5.128442e+000 2.921616e+000 -6.891519e+000 2.390049e-003 1.015544e-001 -1.111063e-001 -1.596525e-002 -1.108241e-001 1.578930e-001 1.831074e-001 -3.483303e-001 -2.899287e-001 2.423234e-002 3.717754e-001 -2.817402e-001 -3.084112e-002
<VARIANCE> 25
 1.859044e+001 3.229361e+001 5.170046e+001 4.791676e+001 4.309540e+001 2.915715e+001 1.095528e+002 4.464917e+001 5.118859e+001 3.905415e+001 2.420549e+001 2.711652e+001 1.063891e+000 1.835476e+000 2.537036e+000 3.493819e+000 3.838654e+000 1.535652e+000 5.258088e+000 4.330112e+000 3.589442e+000 3.184228e+000 2.436239e+000 2.378323e+000 1.639601e+000
<GCONST> 1.023161e+002
<STATE> 3
<MEAN> 25
 3.839698e+000 4.882599e+000 -1.607361e-001 5.360739e+000 -3.664144e+000 7.628533e-001 -2.010742e+000 -4.455530e+000 -3.339979e+000 3.892240e+000 3.827701e+000 -6.434183e+000 -2.873981e-001 -3.150295e-001 1.382064e-001 -9.660211e-002 -2.738482e-001 2.856122e-001 1.885213e-001 -8.662836e-003 -1.112628e-001 -1.698956e-001 1.589211e-001 2.179348e-001 3.056251e-001
<VARIANCE> 25
 1.742204e+001 4.298060e+001 6.814804e+001 6.383793e+001 4.667820e+001 3.311398e+001 1.028827e+002 4.824475e+001 6.500640e+001 4.725624e+001 3.237663e+001 2.616601e+001 1.313852e+000 2.370559e+000 3.507987e+000 3.945099e+000 2.824847e+000 2.233334e+000 5.471130e+000 4.942921e+000 3.521962e+000 4.108591e+000 3.331697e+000 2.603324e+000 2.060074e+000
<GCONST> 1.060266e+002
<STATE> 4
<MEAN> 25
 1.497232e+000 5.141245e+000 -5.209080e-001 7.745634e+000 -3.786914e+000 4.097517e-001 2.202681e+000 -4.875216e+000 -2.525312e+000 2.610419e+000 2.780884e+000 -4.518189e+000 -3.501843e-001 -5.478724e-001 6.363031e-001 -7.219570e-001 -9.602760e-002 -9.147512e-002 -1.028710e-001 6.674905e-001 -2.212148e-001 -9.502945e-002 -3.145018e-002 4.567673e-001 9.116387e-001
<VARIANCE> 25
 2.883946e+001 5.507261e+001 8.816336e+001 7.135464e+001 4.421623e+001 3.301778e+001 7.208957e+001 6.410662e+001 7.774319e+001 4.251779e+001 3.865932e+001 2.865489e+001 1.962274e+000 3.450361e+000 3.828349e+000 4.624714e+000 3.437218e+000 2.921960e+000 4.864893e+000 5.417435e+000 4.399545e+000 4.773640e+000 3.543705e+000 3.513118e+000 2.510242e+000
<GCONST> 1.097539e+002
<TRANSP> 5
 0.000000e+000 1.000000e+000 0.000000e+000 0.000000e+000 0.000000e+000
 0.000000e+000 7.537495e-001 2.462505e-001 0.000000e+000 0.000000e+000
 0.000000e+000 0.000000e+000 7.019928e-001 2.980072e-001 0.000000e+000
 0.000000e+000 0.000000e+000 0.000000e+000 8.365932e-001 1.634068e-001
 0.000000e+000 0.000000e+000 0.000000e+000 0.000000e+000 0.000000e+000
<ENDHMM>
~h "h"
<BEGINHMM>
<NUMSTATES> 5
<STATE> 2
<MEAN> 25
 -2.876198e+000 -3.439097e+000 -8.543469e+000 8.349004e-001 6.758850e+000 4.646516e+000 4.128853e+000 -1.902687e+000 2.759045e+000 -4.959515e+000 2.153710e+000 2.666473e+000 -5.065823e-002 -5.281672e-001 -5.241394e-002 3.849752e-002 7.855859e-001 3.801137e-001 3.372757e-001 -4.513279e-001 4.294740e-003 -2.673075e-001 -6.417421e-002 2.321036e-001 3.970339e-001
<VARIANCE> 25
 2.390194e+001 6.202897e+001 8.279646e+001 9.499665e+001 5.966958e+001 4.710988e+001 3.709792e+001 5.134520e+001 3.194303e+001 3.574537e+001 3.105572e+001 3.276808e+001 9.830338e-001 1.835738e+000 2.093784e+000 2.320420e+000 2.366182e+000 1.779222e+000 2.330878e+000 2.106658e+000 2.412487e+000 1.612246e+000 1.769083e+000 1.744511e+000 1.311858e+000
<GCONST> 9.963429e+001
<STATE> 3
<MEAN> 25
 -1.359457e+000 -6.018457e+000 -6.613516e+000 -1.321101e+000 9.664580e+000 6.591510e+000 5.651615e+000 -4.416842e+000 2.653277e+000 -5.381633e+000 7.235596e-001 2.823991e+000 3.384802e-001 -1.951325e-001 3.684785e-001 -2.573671e-001 2.823629e-001 2.069820e-001 2.127201e-001 -2.539004e-001 -6.417692e-002 1.748206e-002 -2.207589e-001 -1.014930e-001 7.320957e-001
<VARIANCE> 25
 2.563330e+001 4.783889e+001 7.152472e+001 9.408777e+001 4.588278e+001 4.556280e+001 3.581470e+001 4.806379e+001 2.895702e+001 3.234079e+001 3.142929e+001 3.269717e+001 1.684094e+000 1.840698e+000 2.011734e+000 3.170568e+000 1.876706e+000 1.209636e+000 1.980971e+000 1.979017e+000 2.258735e+000 1.587294e+000 1.611054e+000 2.023392e+000 2.461284e+000
<GCONST> 9.927566e+001
<STATE> 4
<MEAN> 25
 7.439834e-002 -5.705307e+000 -7.442078e+000 -1.973261e+000 8.743165e+000 8.365782e+000 7.211436e+000 -5.712278e+000 1.804825e+000 -4.016863e+000 -4.281447e-001 -2.352789e-001 7.050694e-003 5.385971e-002 -2.790792e-002 2.710883e-002 -1.364588e-001 -3.955366e-002 -7.187527e-002 1.443294e-001 -1.497221e-002 1.162252e-001 -1.060895e-001 -9.702770e-002 -8.819514e-002
<VARIANCE> 25
 2.428412e+001 4.082247e+001 5.090108e+001 8.808099e+001 2.795894e+001 3.500983e+001 3.397698e+001 4.031815e+001 2.451881e+001 2.440631e+001 2.683557e+001 3.165100e+001 7.584029e-001 1.303099e+000 1.269360e+000 2.137730e+000 1.240372e+000 1.168595e+000 1.641011e+000 1.539181e+000 1.430352e+000 1.292956e+000 1.222880e+000 1.648158e+000 1.663873e+000
<GCONST> 9.261086e+001
<TRANSP> 5
 0.000000e+000 1.000000e+000 0.000000e+000 0.000000e+000 0.000000e+000
 0.000000e+000 7.841694e-001 2.158306e-001 0.000000e+000 0.000000e+000
 0.000000e+000 0.000000e+000 7.671931e-001 2.328068e-001 0.000000e+000
 0.000000e+000 0.000000e+000 0.000000e+000 9.409267e-001 5.907330e-002
 0.000000e+000 0.000000e+000 0.000000e+000 0.000000e+000 0.000000e+000
<ENDHMM>
~h "j"
<BEGINHMM>
<NUMSTATES> 5
<STATE> 2
<MEAN> 25
 1.749100e-001 1.246360e+001 4.460009e+000 5.859501e+000 -1.864606e+000 -3.559644e+000 8.922691e-001 -5.697867e+000 1.184726e+000 -3.470279e+000 7.725777e-001 -7.150003e-001 6.837574e-002 -1.575549e+000 1.240764e+000 -1.612061e+000 -3.461097e-001 -7.100723e-001 -3.553565e-001 9.101466e-001 -1.055645e-001 1.554390e-001 4.113455e-001 3.071427e-001 2.368665e+000
<VARIANCE> 25
 3.540852e+001 1.194000e+002 6.674203e+001 7.891429e+001 3.720270e+001 3.232079e+001 3.774242e+001 1.092425e+002 4.535918e+001 5.516637e+001 5.561928e+001 2.035557e+001 7.347592e+000 1.009973e+001 5.829153e+000 2.445513e+000 4.310935e+000 3.372155e+000 4.573873e+000 1.345511e+001 5.051154e+000 5.946598e+000 9.089642e+000 1.943520e+000 1.581398e+000
<GCONST> 1.136317e+002
<STATE> 3
<MEAN> 25
 1.003595e+000 -7.023156e+000 5.568735e+000 -7.852673e+000 -2.717752e+000 -5.127792e+000 -6.451434e-003 7.467692e+000 4.523375e+000 -9.398223e-001 -3.721018e+000 2.634342e+000 2.098306e-001 -1.501125e+000 -2.923812e+000 -5.191921e-001 1.586099e+000 1.469761e+000 7.758961e-001 5.169621e-001 2.080239e+000 -5.995535e-001 -2.521701e+000 -7.379836e-001 1.157406e+000
<VARIANCE> 25
 1.166757e+001 6.134376e+001 6.432175e+001 2.099660e+001 3.902702e+001 2.649929e+001 5.599569e+001 3.771674e+001 5.999445e+001 4.497018e+001 6.309346e+001 3.104725e+001 9.348205e-001 3.051521e+000 2.211222e+000 2.247991e+000 2.198571e+000 2.031748e+000 1.940644e+000 5.221144e+000 2.108407e+000 3.571759e+000 4.173595e+000 2.498979e+000 6.561189e-001
<GCONST> 1.002121e+002
<STATE> 4
<MEAN> 25
 3.425608e+000 -7.073727e+000 -4.440165e+000 -5.915536e+000 6.000426e+000 2.355668e+000 -2.701525e+000 6.360704e-001 6.708150e+000 3.366775e-001 -1.036838e+001 -2.190082e+000 9.864166e-002 4.714179e-002 -5.164780e-001 1.220318e-001 5.516734e-001 4.303252e-001 -5.544286e-002 -5.997017e-001 9.374472e-002 1.240757e-001 -1.711298e-001 -3.521805e-001 -4.729254e-001
<VARIANCE> 25
 1.159926e+001 3.166530e+001 3.373350e+001 3.142396e+001 2.843555e+001 3.888101e+001 4.300337e+001 5.512669e+001 3.010574e+001 4.776899e+001 3.484425e+001 2.195256e+001 9.021150e-001 1.520265e+000 3.594052e+000 1.270206e+000 1.866682e+000 2.498669e+000 2.444849e+000 4.513600e+000 2.485740e+000 3.540482e+000 2.363106e+000 2.616607e+000 1.251033e+000
<GCONST> 9.750507e+001
<TRANSP> 5
 0.000000e+000 1.000000e+000 0.000000e+000 0.000000e+000 0.000000e+000
 0.000000e+000 9.017220e-001 9.827803e-002 0.000000e+000 0.000000e+000
 0.000000e+000 0.000000e+000 6.613965e-001 3.386035e-001 0.000000e+000
 0.000000e+000 0.000000e+000 0.000000e+000 8.936997e-001 1.063003e-001
 0.000000e+000 0.000000e+000 0.000000e+000 0.000000e+000 0.000000e+000
<ENDHMM>
~h "k"
<BEGINHMM>
<NUMSTATES> 5
<STATE> 2
<MEAN> 25
 -1.408346e+000 -2.184735e+000 -3.565303e-001 1.141247e+000 -2.278030e+000 -5.477971e+000 -1.586963e+000 3.633764e+000 -2.958709e+000 1.125847e+000 1.334707e+000 -2.280761e+000 3.458597e-001 -1.138283e+000 4.334659e-002 -1.089228e+000 8.428654e-001 -1.287797e-001 -5.681605e-001 6.373256e-001 1.002537e-001 6.077145e-001 -5.371348e-001 -1.122269e-001 1.655287e+000
<VARIANCE> 25
 2.620499e+001 5.409615e+001 9.258749e+001 7.294890e+001 6.734862e+001 4.803070e+001 5.131319e+001 4.143428e+001 4.160951e+001 4.699918e+001 3.750343e+001 2.802691e+001 3.027164e+000 5.138135e+000 1.282134e+001 5.791288e+000 7.157860e+000 2.956171e+000 5.285340e+000 3.573729e+000 6.274324e+000 5.663956e+000 3.025205e+000 2.799862e+000 7.174799e+000
<GCONST> 1.130215e+002
<STATE> 3
<MEAN> 25
 6.896887e-001 -4.928767e+000 1.598696e+000 -4.135081e+000 -3.472127e-001 -5.623657e+000 -1.634400e+000 6.000319e+000 -1.717338e+000 3.704761e+000 -1.417817e+000 -2.229572e+000 2.009473e-001 -2.186347e-001 1.495720e-001 -6.210915e-001 8.814950e-002 1.110418e-001 8.812301e-002 2.713046e-001 1.214109e-001 1.859240e-001 -2.630117e-001 3.240690e-002 3.353827e-001
<VARIANCE> 25
 2.166830e+001 3.661544e+001 7.173566e+001 6.111332e+001 4.548565e+001 4.847401e+001 4.185773e+001 3.692801e+001 3.755456e+001 3.750863e+001 3.528120e+001 2.627604e+001 1.885576e+000 4.261362e+000 6.316476e+000 4.999460e+000 2.853996e+000 2.190888e+000 3.398088e+000 2.880226e+000 3.372927e+000 3.476328e+000 2.434739e+000 1.766064e+000 5.954185e+000
<GCONST> 1.054879e+002
<STATE> 4
<MEAN> 25
 8.158895e-001 -1.754120e+000 2.595946e+000 -2.585078e+000 -2.835347e+000 -4.861117e+000 -6.601443e-001 4.884069e+000 -1.188714e+000 3.665620e+000 -1.394557e+000 -1.179843e+000 4.248086e-002 2.013360e-001 -8.634142e-002 -2.979119e-002 -5.270072e-002 1.566383e-001 1.113933e-001 1.697874e-002 1.127058e-001 -9.635533e-002 -6.774652e-002 7.015233e-002 -3.266473e-001
<VARIANCE> 25
 1.983495e+001 4.605593e+001 8.284125e+001 5.541882e+001 5.370868e+001 3.932761e+001 3.351569e+001 4.790475e+001 5.052525e+001 3.278925e+001 4.622187e+001 2.572139e+001 1.580353e+000 3.163505e+000 5.760781e+000 4.001616e+000 2.732414e+000 1.581725e+000 2.789331e+000 2.866175e+000 2.634907e+000 2.955466e+000 2.361542e+000 1.644570e+000 4.448884e+000
<GCONST> 1.039177e+002
<TRANSP> 5
 0.000000e+000 1.000000e+000 0.000000e+000 0.000000e+000 0.000000e+000
 0.000000e+000 7.773886e-001 2.226114e-001 0.000000e+000 0.000000e+000
 0.000000e+000 0.000000e+000 7.271817e-001 2.728183e-001 0.000000e+000
 0.000000e+000 0.000000e+000 0.000000e+000 8.697165e-001 1.302836e-001
 0.000000e+000 0.000000e+000 0.000000e+000 0.000000e+000 0.000000e+000
<ENDHMM>
~h "l"
<BEGINHMM>
<NUMSTATES> 5
<STATE> 2
<MEAN> 25
 2.483487e+000 -2.649004e+000 3.989150e+000 -5.700774e+000 5.545413e-001 2.572585e+000 -9.690135e+000 1.960976e-001 4.305819e+000 -9.083215e-001 -5.099664e-002 -4.407228e-001 1.978814e-001 2.120105e-001 3.660061e-001 -2.561880e-001 2.434587e-001 -6.298079e-002 -1.483207e+000 -1.075346e-001 3.751724e-001 3.423186e-001 -1.592409e-003 6.654020e-002 -2.682730e-001
<VARIANCE> 25
 1.973798e+001 3.705925e+001 8.977789e+001 6.380915e+001 5.099884e+001 5.732069e+001 6.946244e+001 4.076711e+001 4.330322e+001 4.663974e+001 4.648902e+001 3.253941e+001 4.369422e-001 1.155378e+000 1.662618e+000 1.863118e+000 3.278255e+000 2.909966e+000 3.486888e+000 3.215371e+000 2.482155e+000 3.992307e+000 4.796524e+000 1.477780e+000 5.114007e-001
<GCONST> 1.007576e+002
<STATE> 3
<MEAN> 25
 2.901471e+000 -2.324097e+000 4.858705e+000 -6.641842e+000 1.065650e+000 1.627301e+000 -1.294123e+001 3.720001e-001 4.990110e+000 6.017591e-001 9.165286e-003 -3.465980e-001 5.215567e-002 -3.060829e-002 -9.217884e-002 -2.396532e-001 1.302445e-001 -1.741778e-001 -3.393509e-001 2.407065e-001 1.683681e-001 2.636899e-001 -6.289008e-002 -1.838507e-002 -3.590623e-002
<VARIANCE> 25
 1.655846e+001 3.204118e+001 7.912062e+001 6.130721e+001 3.623415e+001 5.250723e+001 7.223887e+001 4.139901e+001 4.609315e+001 5.189248e+001 4.366375e+001 2.971027e+001 4.267089e-001 1.156272e+000 2.215565e+000 1.899645e+000 2.571425e+000 2.413645e+000 5.342665e+000 3.535083e+000 2.433857e+000 3.736488e+000 3.533982e+000 1.920744e+000 7.280095e-001
<GCONST> 1.005099e+002
<STATE> 4
<MEAN> 25
 2.647048e+000 -2.359653e+000 1.694912e+000 -6.211383e+000 2.832741e+000 4.818434e-001 -8.866971e+000 1.394963e+000 6.544785e+000 1.180280e+000 -1.260928e+000 2.662523e-001 -1.368182e-001 -1.272253e-001 -4.848984e-001 1.328138e-001 4.742619e-002 -2.280532e-001 1.116352e+000 2.659834e-001 -5.944849e-002 -5.225355e-002 -1.948607e-001 1.270836e-001 -7.688531e-002
<VARIANCE> 25
 1.546794e+001 3.267212e+001 7.287907e+001 6.916266e+001 3.755395e+001 5.131509e+001 1.069678e+002 4.256711e+001 4.615572e+001 6.877600e+001 5.221982e+001 3.386668e+001 4.986143e-001 1.599953e+000 2.347919e+000 1.705669e+000 2.687030e+000 2.241748e+000 5.723791e+000 3.343651e+000 2.574339e+000 3.335969e+000 2.985842e+000 2.074659e+000 1.062048e+000
<GCONST> 1.021688e+002
<TRANSP> 5
 0.000000e+000 1.000000e+000 0.000000e+000 0.000000e+000 0.000000e+000
 0.000000e+000 6.447693e-001 3.552307e-001 0.000000e+000 0.000000e+000
 0.000000e+000 0.000000e+000 6.758592e-001 3.241408e-001 0.000000e+000
 0.000000e+000 0.000000e+000 0.000000e+000 8.467462e-001 1.532538e-001
 0.000000e+000 0.000000e+000 0.000000e+000 0.000000e+000 0.000000e+000
<ENDHMM>
~h "m"
<BEGINHMM>
<NUMSTATES> 5
<STATE> 2
<MEAN> 25
 2.919377e+000 7.179235e-001 -1.262607e+000 3.213849e+000 4.471957e+000 3.689122e+000 -5.748500e-001 -7.260467e+000 -2.696757e+000 -4.241967e+000 2.385839e+000 -1.161835e-002 3.405623e-001 1.776774e-001 6.638130e-001 3.593642e-001 -3.193333e-003 1.851267e-001 -3.522269e-001 -8.493209e-001 -6.854665e-001 -1.208378e-001 1.632502e-002 -6.114729e-003 1.640265e-001
<VARIANCE> 25
 2.562167e+001 2.782129e+001 4.312222e+001 9.783484e+001 2.452402e+001 4.637125e+001 3.587531e+001 4.682247e+001 3.678197e+001 3.254976e+001 4.199537e+001 2.399556e+001 9.041049e-001 2.224516e+000 2.570891e+000 5.096889e+000 2.311200e+000 2.444885e+000 2.036261e+000 5.198717e+000 3.410594e+000 1.650879e+000 2.562814e+000 1.487996e+000 2.292149e+000
<GCONST> 1.005886e+002
<STATE> 3
<MEAN> 25
 4.702948e+000 -3.249036e-001 1.084195e+000 1.422787e+000 4.124924e+000 4.786341e+000 -1.723810e+000 -7.909775e+000 -4.568075e+000 -3.621657e+000 1.693696e+000 5.575370e-002 2.131455e-001 -3.708020e-001 2.594492e-001 -5.650920e-001 -9.927537e-002 7.393336e-002 -1.229144e-001 3.285083e-001 -1.654637e-001 1.871511e-001 -2.983165e-001 5.493966e-002 4.840697e-001
<VARIANCE> 25
 1.192425e+001 2.321857e+001 3.567817e+001 7.872021e+001 2.566160e+001 3.846381e+001 2.941294e+001 4.803319e+001 3.470234e+001 3.379646e+001 4.576770e+001 2.485257e+001 6.630114e-001 2.192653e+000 2.929842e+000 5.941051e+000 2.529212e+000 2.189598e+000 1.918273e+000 5.752766e+000 3.665941e+000 1.812211e+000 2.517051e+000 1.519270e+000 1.881552e+000
<GCONST> 9.897340e+001
<STATE> 4
<MEAN> 25
 5.372402e+000 -2.771384e+000 2.118958e+000 -3.036395e+000 4.072286e+000 4.822292e+000 -2.249906e+000 -4.281718e+000 -4.445014e+000 -1.655507e+000 -5.653883e-001 8.964189e-001 1.784653e-002 -4.002531e-001 -8.300876e-002 -7.248799e-001 -1.029379e-001 -2.183385e-001 -2.154453e-002 9.375952e-001 3.722421e-001 4.193906e-001 -3.297422e-001 -2.142345e-002 3.381404e-001
<VARIANCE> 25
 7.986133e+000 2.504543e+001 4.398601e+001 7.161932e+001 3.313452e+001 3.429683e+001 2.615232e+001 5.332705e+001 4.147881e+001 4.132512e+001 4.048666e+001 2.739136e+001 4.337282e-001 1.813317e+000 2.677499e+000 5.547093e+000 2.777269e+000 1.962425e+000 1.968553e+000 4.804210e+000 3.143776e+000 1.981911e+000 2.472682e+000 1.683109e+000 1.325329e+000
<GCONST> 9.797194e+001
<TRANSP> 5
 0.000000e+000 1.000000e+000 0.000000e+000 0.000000e+000 0.000000e+000
 0.000000e+000 7.394047e-001 2.605952e-001 0.000000e+000 0.000000e+000
 0.000000e+000 0.000000e+000 7.176043e-001 2.823956e-001 0.000000e+000
 0.000000e+000 0.000000e+000 0.000000e+000 8.397377e-001 1.602623e-001
 0.000000e+000 0.000000e+000 0.000000e+000 0.000000e+000 0.000000e+000
<ENDHMM>
~h "n"
<BEGINHMM>
<NUMSTATES> 5
<STATE> 2
<MEAN> 25
 4.129330e+000 7.812085e-001 4.928998e+000 3.493278e+000 -1.071857e+000 -1.447352e+000 -4.695877e+000 -4.899073e+000 -1.193414e-001 4.313742e+000 -1.593868e+000 4.271480e-001 1.076606e-001 4.493917e-001 1.513373e-001 7.659935e-001 6.142356e-002 -4.989487e-001 -2.293703e-001 -7.188088e-001 1.700924e-001 4.048964e-001 -3.495877e-001 -5.435400e-002 -4.893805e-001
<VARIANCE> 25
 2.222702e+001 2.976285e+001 4.062424e+001 3.350710e+001 3.885059e+001 3.649228e+001 5.627289e+001 5.835489e+001 3.842936e+001 5.665591e+001 3.176847e+001 2.248459e+001 5.694183e-001 1.842132e+000 1.995829e+000 2.525194e+000 1.766737e+000 2.250356e+000 2.272599e+000 4.944583e+000 1.879367e+000 3.407970e+000 2.161849e+000 1.510828e+000 1.107033e+000
<GCONST> 9.787528e+001
<STATE> 3
<MEAN> 25
 4.126342e+000 1.543989e+000 4.860980e+000 4.698082e+000 -9.866323e-001 -2.125724e+000 -4.782222e+000 -5.310398e+000 2.146697e-001 4.479369e+000 -2.656142e+000 2.534129e-001 -2.294422e-002 1.324939e-001 -1.209136e-001 2.266611e-001 6.117543e-002 -9.328867e-002 -2.666801e-003 7.244114e-002 9.663369e-002 -1.561241e-001 -2.267763e-001 -6.148302e-002 -2.774613e-001
<VARIANCE> 25
 2.142053e+001 2.800757e+001 3.606712e+001 3.539034e+001 3.347039e+001 3.649324e+001 5.151429e+001 6.159097e+001 3.584838e+001 5.581722e+001 3.124728e+001 2.348936e+001 5.473784e-001 1.893520e+000 1.722109e+000 2.248870e+000 1.597399e+000 2.107823e+000 2.275684e+000 4.917148e+000 1.870508e+000 3.789949e+000 2.014937e+000 1.663486e+000 1.328684e+000
<GCONST> 9.733669e+001
<STATE> 4
<MEAN> 25
 2.758779e+000 2.342862e+000 3.389614e+000 5.474111e+000 -1.377433e+000 -1.867923e+000 -3.398608e+000 -3.583878e+000 3.269965e-001 2.142631e+000 -2.822501e+000 2.544470e-001 -1.993466e-001 -7.826540e-002 -2.884054e-001 -2.279147e-001 3.310890e-002 1.893435e-001 2.345493e-001 6.217158e-001 -4.635093e-002 -5.448286e-001 9.356347e-002 -5.174510e-002 -1.093589e-001
<VARIANCE> 25
 2.844253e+001 3.909629e+001 4.036995e+001 4.899252e+001 3.648818e+001 3.749625e+001 5.274401e+001 6.811448e+001 3.666669e+001 5.622897e+001 3.857312e+001 2.706273e+001 8.372593e-001 2.549604e+000 1.908066e+000 2.876740e+000 1.825313e+000 2.663867e+000 2.869834e+000 5.077662e+000 2.490953e+000 4.161922e+000 2.601519e+000 2.354456e+000 1.864757e+000
<GCONST> 1.020364e+002
<TRANSP> 5
 0.000000e+000 1.000000e+000 0.000000e+000 0.000000e+000 0.000000e+000
 0.000000e+000 6.561964e-001 3.438036e-001 0.000000e+000 0.000000e+000
 0.000000e+000 0.000000e+000 6.622125e-001 3.377875e-001 0.000000e+000
 0.000000e+000 0.000000e+000 0.000000e+000 7.628252e-001 2.371748e-001
 0.000000e+000 0.000000e+000 0.000000e+000 0.000000e+000 0.000000e+000
<ENDHMM>
~h "o"
<BEGINHMM>
<NUMSTATES> 5
<STATE> 2
<MEAN> 25
 3.353899e+000 3.576493e+000 -7.481186e+000 -7.510690e+000 5.052517e-001 9.064260e+000 1.818561e+000 -1.369198e+000 -2.368861e+000 -1.249035e+000 2.361167e-001 5.295111e+000 8.097985e-001 3.001261e-001 2.728090e-001 -1.153964e+000 -9.531166e-002 5.361335e-001 -4.606325e-002 -2.607126e-001 -2.235034e-001 -5.762920e-002 -2.123477e-001 2.238652e-001 7.476987e-001
<VARIANCE> 25
 3.291407e+001 3.351933e+001 3.861451e+001 1.842746e+002 2.633533e+001 4.050637e+001 1.968242e+001 1.542857e+001 2.147431e+001 3.201451e+001 3.066023e+001 2.197135e+001 1.636625e+000 2.605729e+000 3.049823e+000 1.059286e+001 2.195488e+000 2.993600e+000 1.599069e+000 1.381719e+000 1.834065e+000 2.560552e+000 2.186105e+000 2.162204e+000 3.061615e+000
<GCONST> 9.937727e+001
<STATE> 3
<MEAN> 25
 8.826052e+000 1.052069e+001 -3.133673e+000 -5.077411e+000 -6.284038e-001 1.074813e+001 1.529588e+000 -4.610872e+000 -4.484028e+000 -2.606010e+000 -1.604127e+000 4.096323e+000 2.298497e-001 4.150065e-001 -2.328587e-001 1.561922e+000 3.379895e-001 -4.279301e-001 1.962225e-001 -5.903103e-001 9.115913e-002 5.473360e-002 2.612492e-001 -2.271211e-001 -1.313744e-001
<VARIANCE> 25
 1.050457e+001 5.158113e+001 1.491554e+001 1.524445e+002 2.299155e+001 3.590006e+001 1.898831e+001 1.439036e+001 1.938245e+001 3.038972e+001 2.287591e+001 2.053168e+001 8.862492e-001 3.055470e+000 2.625498e+000 1.676816e+001 2.166703e+000 2.830246e+000 2.975035e+000 1.565122e+000 9.930436e-001 3.631849e+000 4.142115e+000 2.211701e+000 3.961187e+000
<GCONST> 9.783486e+001
<STATE> 4
<MEAN> 25
 7.465628e+000 6.603230e+000 -4.097274e+000 -1.849851e+000 2.999887e+000 5.265070e+000 -4.201687e-001 -6.285243e+000 -1.574494e+000 1.361424e+000 2.305033e+000 2.158962e+000 -5.589771e-001 -1.740426e+000 4.876052e-001 -3.076673e-001 5.944468e-001 -1.225545e+000 -1.525552e+000 3.461524e-001 7.974684e-001 1.238883e+000 8.719253e-001 -5.950791e-001 1.397489e+000
<VARIANCE> 25
 1.670472e+001 1.185658e+002 2.362415e+001 2.126189e+002 2.683360e+001 3.814219e+001 5.450103e+001 2.080284e+001 3.191732e+001 7.488132e+001 3.656588e+001 1.664439e+001 1.294122e+000 9.900069e+000 4.604297e+000 1.563725e+001 4.508608e+000 3.467784e+000 6.953136e+000 3.816338e+000 1.941822e+000 6.597804e+000 5.629484e+000 1.963475e+000 8.387367e+000
<GCONST> 1.101492e+002
<TRANSP> 5
 0.000000e+000 1.000000e+000 0.000000e+000 0.000000e+000 0.000000e+000
 0.000000e+000 9.286431e-001 7.135693e-002 0.000000e+000 0.000000e+000
 0.000000e+000 0.000000e+000 7.924457e-001 2.075542e-001 0.000000e+000
 0.000000e+000 0.000000e+000 0.000000e+000 7.973564e-001 2.026436e-001
 0.000000e+000 0.000000e+000 0.000000e+000 0.000000e+000 0.000000e+000
<ENDHMM>
~h "p"
<BEGINHMM>
<NUMSTATES> 5
<STATE> 2
<MEAN> 25
 1.309285e+000 5.993978e-001 -6.411867e+000 -5.199640e-001 2.463584e+000 7.453608e+000 2.374109e+000 -2.054481e+000 1.770719e+000 -9.494093e-001 -1.027762e+000 -1.829751e-001 -6.826300e-003 1.873713e-001 -3.580753e-001 2.391126e-001 -7.006743e-002 1.575911e-001 -6.754267e-003 -4.327324e-002 1.914655e-001 -6.600031e-002 1.892088e-001 -1.861550e-001 -2.676912e-001
<VARIANCE> 25
 3.022618e+001 6.817199e+001 3.463019e+001 1.626348e+002 3.276389e+001 6.811635e+001 3.284529e+001 3.852057e+001 2.742931e+001 2.944220e+001 3.353879e+001 1.967143e+001 1.213147e+000 2.991789e+000 1.948765e+000 5.843145e+000 2.480737e+000 2.824413e+000 2.026343e+000 3.272275e+000 2.140270e+000 2.646816e+000 1.991286e+000 1.548923e+000 4.196465e+000
<GCONST> 1.021084e+002
<STATE> 3
<MEAN> 25
 -4.556945e-001 3.676177e+000 -8.774329e+000 6.071799e+000 9.183101e-001 4.035290e+000 3.102062e+000 -1.984691e+000 3.458744e+000 -7.493136e-001 1.051478e+000 -1.539505e+000 -3.550032e-001 1.508867e-001 -1.492006e-001 6.532534e-001 -9.178990e-002 -3.217123e-001 -4.469169e-002 -9.410567e-002 1.301961e-001 -7.696787e-002 2.807434e-001 2.121046e-003 -4.266343e-001
<VARIANCE> 25
 3.674487e+001 5.161942e+001 3.264462e+001 9.843116e+001 3.467048e+001 5.609372e+001 4.297089e+001 4.650153e+001 3.052374e+001 3.404427e+001 4.146841e+001 1.945621e+001 1.085043e+000 1.930141e+000 2.156777e+000 3.887627e+000 2.517756e+000 3.392722e+000 2.899258e+000 4.234023e+000 3.149287e+000 3.142500e+000 2.251689e+000 1.854628e+000 2.327944e+000
<GCONST> 1.024668e+002
<STATE> 4
<MEAN> 25
 -2.961175e+000 3.009440e+000 -7.762789e+000 8.436032e+000 -2.249503e-001 2.275904e+000 4.149044e+000 -1.696226e+000 3.209192e+000 -1.307477e+000 3.530904e+000 -4.211822e-001 7.050632e-001 -5.145501e-001 7.550103e-001 -1.210848e+000 -3.169750e-002 2.546226e-001 -2.348025e-001 2.202802e-002 -4.161104e-001 7.744349e-002 1.254368e-001 5.435836e-002 1.398625e+000
<VARIANCE> 25
 5.066908e+001 4.821553e+001 3.751138e+001 1.126821e+002 4.209469e+001 6.426924e+001 4.739259e+001 5.238316e+001 3.611648e+001 4.231013e+001 3.277504e+001 2.433154e+001 4.190684e+000 3.511112e+000 4.926605e+000 1.296295e+001 3.503594e+000 7.296762e+000 3.412544e+000 5.044406e+000 4.020658e+000 4.112302e+000 2.748087e+000 2.344110e+000 8.665893e+000
<GCONST> 1.115905e+002
<TRANSP> 5
 0.000000e+000 1.000000e+000 0.000000e+000 0.000000e+000 0.000000e+000
 0.000000e+000 7.892208e-001 2.107792e-001 0.000000e+000 0.000000e+000
 0.000000e+000 0.000000e+000 7.232313e-001 2.767687e-001 0.000000e+000
 0.000000e+000 0.000000e+000 0.000000e+000 8.406994e-001 1.593005e-001
 0.000000e+000 0.000000e+000 0.000000e+000 0.000000e+000 0.000000e+000
<ENDHMM>
~h "r"
<BEGINHMM>
<NUMSTATES> 5
<STATE> 2
<MEAN> 25
 1.308915e+000 -5.133134e+000 -4.815981e+000 -1.663808e+000 3.305496e+000 3.336394e+000 -3.026165e+000 6.931956e-001 8.257368e+000 -2.391290e+000 -4.173209e-001 4.898861e-001 4.030967e-001 -3.431057e-001 4.111356e-001 3.966781e-001 -6.003250e-001 6.803502e-001 -7.982132e-001 9.355598e-002 3.245061e-001 -1.466527e-001 6.264855e-001 -3.827702e-001 1.541946e-001
<VARIANCE> 25
 2.888659e+001 3.994990e+001 6.052617e+001 5.501448e+001 7.206681e+001 4.208801e+001 5.512214e+001 4.537651e+001 4.020948e+001 2.981063e+001 4.011246e+001 5.780961e+001 1.751462e+000 2.545856e+000 2.461446e+000 4.309817e+000 3.317314e+000 2.168714e+000 3.671558e+000 4.318291e+000 2.901437e+000 3.471267e+000 3.922624e+000 3.656195e+000 2.679412e+000
<GCONST> 1.063401e+002
<STATE> 3
<MEAN> 25
 4.166412e+000 -6.768356e+000 -1.691114e+000 -1.344984e+000 -4.204458e-001 5.271901e+000 -6.859658e+000 2.411513e+000 8.316404e+000 -2.488494e+000 1.694046e+000 -2.568021e+000 3.987357e-001 -5.549924e-001 5.436756e-001 1.119374e-002 -4.731240e-001 2.744368e-001 -6.147771e-001 7.116404e-001 -4.061521e-001 1.525376e-001 2.459226e-001 -3.840237e-001 3.077403e-001
<VARIANCE> 25
 2.286113e+001 5.006159e+001 5.545869e+001 5.268027e+001 5.642300e+001 4.543079e+001 6.161585e+001 6.247544e+001 4.721690e+001 2.290530e+001 3.770826e+001 4.108105e+001 1.814382e+000 2.605370e+000 1.726601e+000 4.676897e+000 2.976883e+000 2.455632e+000 4.384033e+000 5.818769e+000 2.847728e+000 2.545020e+000 4.311759e+000 2.748885e+000 2.435398e+000
<GCONST> 1.056195e+002
<STATE> 4
<MEAN> 25
 5.142374e+000 -8.639943e+000 2.723952e-001 -2.565204e+000 -1.416033e+000 5.309231e+000 -7.277326e+000 5.101779e+000 6.970456e+000 -1.912584e+000 4.591951e-001 -3.248072e+000 -1.164238e-001 -4.758548e-002 3.051962e-001 -2.516670e-001 1.431258e-001 -3.834603e-001 4.757992e-001 3.604699e-001 -7.436933e-001 2.876333e-001 -5.117434e-001 1.544911e-001 1.595612e-001
<VARIANCE> 25
 1.941485e+001 5.752160e+001 5.592434e+001 5.316604e+001 5.677536e+001 5.746995e+001 6.671895e+001 7.301160e+001 6.256784e+001 3.130747e+001 3.737063e+001 2.922326e+001 1.213723e+000 2.093479e+000 1.628229e+000 2.836621e+000 2.919013e+000 2.538995e+000 3.737608e+000 4.569808e+000 2.460324e+000 2.041709e+000 3.250054e+000 1.832713e+000 1.605353e+000
<GCONST> 1.032954e+002
<TRANSP> 5
 0.000000e+000 1.000000e+000 0.000000e+000 0.000000e+000 0.000000e+000
 0.000000e+000 6.742833e-001 3.257166e-001 0.000000e+000 0.000000e+000
 0.000000e+000 0.000000e+000 6.349121e-001 3.650878e-001 0.000000e+000
 0.000000e+000 0.000000e+000 0.000000e+000 7.376612e-001 2.623388e-001
 0.000000e+000 0.000000e+000 0.000000e+000 0.000000e+000 0.000000e+000
<ENDHMM>
~h "s"
<BEGINHMM>
<NUMSTATES> 5
<STATE> 2
<MEAN> 25
 -1.003316e+001 7.863152e+000 -8.925029e+000 9.059356e+000 2.417596e+000 -5.687546e+000 9.116244e+000 8.948325e-001 3.946928e+000 -3.570584e+000 2.913049e+000 9.826897e-001 -2.686549e+000 1.651147e+000 -1.551187e+000 1.348775e+000 -6.096629e-002 -4.535598e-001 1.330820e+000 4.381404e-002 4.347237e-001 -9.181829e-001 1.128083e+000 -8.692131e-002 2.618398e-001
<VARIANCE> 25
 8.584926e+001 4.884755e+001 5.688427e+001 6.207993e+001 3.727620e+001 3.128462e+001 6.189732e+001 5.283135e+001 4.217154e+001 4.469920e+001 4.506334e+001 2.357269e+001 4.421523e+000 5.075130e+000 3.997702e+000 5.554741e+000 2.856659e+000 3.024797e+000 4.435086e+000 3.358834e+000 3.175442e+000 3.652026e+000 3.275713e+000 2.271862e+000 2.113905e+000
<GCONST> 1.083968e+002
<STATE> 3
<MEAN> 25
 -1.952222e+001 1.156537e+001 -1.286567e+001 1.112329e+001 2.741199e+000 -6.676965e+000 1.199549e+001 1.480302e+000 3.971614e+000 -5.209755e+000 5.912076e+000 1.538395e+000 -1.191315e+000 2.207042e-001 -3.871813e-001 1.452069e-001 -7.803437e-003 -8.802664e-002 1.299016e-001 1.021770e-001 -4.552811e-003 -2.403411e-001 3.408052e-001 1.260958e-001 4.091316e-001
<VARIANCE> 25
 5.541249e+001 3.328305e+001 4.081440e+001 4.168140e+001 3.579610e+001 2.924294e+001 4.667133e+001 5.535635e+001 3.488589e+001 2.922301e+001 3.333261e+001 2.255358e+001 5.415472e+000 2.978845e+000 2.744416e+000 2.608542e+000 2.016288e+000 2.140263e+000 3.307098e+000 2.463479e+000 2.258294e+000 2.541743e+000 2.454790e+000 1.871162e+000 1.240384e+000
<GCONST> 1.010622e+002
<STATE> 4
<MEAN> 25
 -1.833328e+001 8.991333e+000 -1.196726e+001 1.001164e+001 2.910841e+000 -6.005192e+000 1.061495e+001 2.521850e-001 4.682262e+000 -5.174488e+000 5.543444e+000 1.501635e+000 1.896412e+000 -9.961718e-001 1.087817e+000 -1.037929e+000 -2.942407e-001 3.476081e-001 -1.166731e+000 -2.071482e-001 -4.427746e-002 3.479847e-001 -3.623819e-001 -6.412674e-001 7.082513e-001
<VARIANCE> 25
 9.314531e+001 3.517295e+001 5.528437e+001 4.925968e+001 4.365270e+001 3.211309e+001 6.962256e+001 5.596201e+001 3.611807e+001 2.624318e+001 3.597157e+001 2.823591e+001 9.390152e+000 2.659206e+000 4.764387e+000 4.827260e+000 2.701981e+000 2.756129e+000 5.256596e+000 3.270820e+000 2.756418e+000 2.550119e+000 2.837078e+000 3.201829e+000 2.328264e+000
<GCONST> 1.074489e+002
<TRANSP> 5
 0.000000e+000 1.000000e+000 0.000000e+000 0.000000e+000 0.000000e+000
 0.000000e+000 7.695284e-001 2.304715e-001 0.000000e+000 0.000000e+000
 0.000000e+000 0.000000e+000 8.236440e-001 1.763560e-001 0.000000e+000
 0.000000e+000 0.000000e+000 0.000000e+000 8.916870e-001 1.083130e-001
 0.000000e+000 0.000000e+000 0.000000e+000 0.000000e+000 0.000000e+000
<ENDHMM>
~h "t"
<BEGINHMM>
<NUMSTATES> 5
<STATE> 2
<MEAN> 25
 1.390674e+000 -3.698429e+000 -2.896622e+000 1.365805e+000 -2.158653e+000 -2.533118e+000 -6.877751e-001 7.127711e+000 2.172266e+000 -1.833267e+000 -1.447714e+000 -3.264252e+000 -4.856329e-002 3.188868e-002 -1.132776e-001 -7.518177e-002 -2.403455e-002 -3.748672e-001 -1.862563e-001 4.236887e-001 1.994373e-001 -3.015690e-002 -7.043668e-002 8.279259e-002 -1.145608e-001
<VARIANCE> 25
 1.562831e+001 5.507835e+001 5.825601e+001 6.084500e+001 3.947541e+001 7.192896e+001 3.334162e+001 6.376479e+001 3.340640e+001 5.015800e+001 3.776360e+001 3.024499e+001 1.404433e+000 4.639240e+000 4.050733e+000 5.275001e+000 2.994079e+000 4.892910e+000 3.606229e+000 3.882951e+000 3.168951e+000 4.893896e+000 3.372906e+000 1.968010e+000 8.180691e+000
<GCONST> 1.079516e+002
<STATE> 3
<MEAN> 25
 4.642326e-001 -2.344241e+000 -3.818142e+000 5.563776e-001 -1.088916e+000 -4.247180e+000 -5.420492e-001 8.004206e+000 3.687782e+000 -1.336089e+000 -2.653160e+000 -2.103668e+000 -2.029932e-001 3.423437e-001 -5.263603e-001 2.439760e-001 9.898002e-002 1.901281e-001 1.272322e-001 -6.478520e-002 1.557225e-001 -2.431138e-001 9.684313e-002 7.738365e-003 -6.351159e-001
<VARIANCE> 25
 1.644930e+001 5.844655e+001 5.543286e+001 4.907480e+001 3.575555e+001 7.071234e+001 2.879917e+001 5.208786e+001 3.158872e+001 4.976290e+001 3.256372e+001 2.451025e+001 1.244321e+000 2.859331e+000 2.871946e+000 3.313085e+000 2.569986e+000 3.587333e+000 2.461857e+000 3.374335e+000 2.536930e+000 3.914463e+000 2.745701e+000 1.675092e+000 4.132020e+000
<GCONST> 1.030156e+002
<STATE> 4
<MEAN> 25
 -9.643667e-002 -1.688553e+000 -6.614361e+000 8.306750e-001 1.419309e+000 -6.320318e-002 2.550953e-001 4.741940e+000 5.055911e+000 -2.742309e+000 -2.302437e+000 -1.771733e+000 -9.062152e-002 9.739536e-003 -1.547446e-002 -4.728726e-002 4.565226e-002 5.460245e-002 6.503151e-002 -8.146212e-002 3.804606e-002 -1.104398e-002 7.362468e-002 2.099519e-002 -1.017066e-002
<VARIANCE> 25
 2.302996e+001 5.702531e+001 7.008561e+001 6.864114e+001 4.945564e+001 7.769821e+001 3.089930e+001 5.446938e+001 3.139455e+001 3.839898e+001 3.430291e+001 2.674231e+001 1.298726e+000 2.772770e+000 3.686947e+000 4.050726e+000 2.602098e+000 4.296564e+000 2.864971e+000 3.828429e+000 2.612880e+000 3.258446e+000 3.183171e+000 2.061344e+000 4.853603e+000
<GCONST> 1.056010e+002
<TRANSP> 5
 0.000000e+000 1.000000e+000 0.000000e+000 0.000000e+000 0.000000e+000
 0.000000e+000 8.672423e-001 1.327577e-001 0.000000e+000 0.000000e+000
 0.000000e+000 0.000000e+000 8.256307e-001 1.743693e-001 0.000000e+000
 0.000000e+000 0.000000e+000 0.000000e+000 9.652531e-001 3.474688e-002
 0.000000e+000 0.000000e+000 0.000000e+000 0.000000e+000 0.000000e+000
<ENDHMM>
~h "w"
<BEGINHMM>
<NUMSTATES> 5
<STATE> 2
<MEAN> 25
 5.038384e+000 -9.001867e-001 -9.099460e-002 -3.398278e+000 3.275069e-001 3.117053e+000 -2.247035e+000 -1.557923e+000 -2.056830e+000 4.550899e+000 1.260795e-003 7.738531e-001 4.142046e-001 -2.097716e-001 2.759445e-001 -4.204198e-001 1.608163e-003 -1.549848e-001 -4.994186e-001 -2.702321e-002 -3.389518e-001 5.241805e-001 4.105287e-001 1.656974e-001 4.069028e-001
<VARIANCE> 25
 2.635878e+001 4.722838e+001 6.232617e+001 1.094857e+002 3.432487e+001 3.779819e+001 6.070726e+001 4.450988e+001 5.574815e+001 6.576215e+001 3.009394e+001 2.805833e+001 1.209384e+000 1.746330e+000 2.950017e+000 4.192921e+000 2.037415e+000 2.151878e+000 2.541224e+000 2.801347e+000 3.578462e+000 2.730339e+000 2.395107e+000 1.941678e+000 2.544125e+000
<GCONST> 1.033710e+002
<STATE> 3
<MEAN> 25
 5.599131e+000 -1.668874e+000 7.364119e-001 -5.125443e+000 6.332734e-001 2.866598e+000 -3.485206e+000 -1.235718e+000 -2.605981e+000 5.804578e+000 1.708075e-001 8.976865e-001 3.899911e-002 -2.123270e-001 2.427860e-001 -3.292465e-001 7.257650e-002 -2.094564e-001 -2.652670e-001 1.699409e-001 -6.238481e-002 2.737897e-001 -2.073604e-002 2.641015e-002 2.495058e-001
<VARIANCE> 25
 2.264360e+001 4.242180e+001 5.307389e+001 9.783871e+001 3.059685e+001 4.046198e+001 5.391384e+001 3.903695e+001 6.066579e+001 6.383952e+001 2.609700e+001 2.672569e+001 7.228606e-001 1.470103e+000 2.444125e+000 3.733246e+000 1.743549e+000 2.306226e+000 1.855642e+000 2.525496e+000 3.424002e+000 3.215828e+000 2.072956e+000 2.106641e+000 1.822316e+000
<GCONST> 1.006329e+002
<STATE> 4
<MEAN> 25
 5.645492e+000 -1.558440e+000 1.527228e+000 -6.475427e+000 1.226520e+000 2.070238e+000 -4.755614e+000 -5.608716e-001 -2.272114e+000 7.070683e+000 -8.707261e-001 7.323558e-001 -2.110454e-001 -1.381762e-002 1.765552e-001 2.622550e-002 1.205418e-002 -3.526351e-001 4.387730e-002 3.544073e-001 1.387792e-001 -1.597357e-001 -2.396040e-001 4.489831e-002 1.016915e-002
<VARIANCE> 25
 1.939953e+001 4.448645e+001 4.783831e+001 8.214223e+001 3.080310e+001 4.864042e+001 4.883641e+001 3.357090e+001 7.779821e+001 5.903727e+001 2.686059e+001 2.266046e+001 5.310405e-001 1.549506e+000 2.289324e+000 3.414142e+000 1.997175e+000 2.372777e+000 1.656786e+000 2.650252e+000 3.163517e+000 3.491900e+000 1.975424e+000 2.492623e+000 1.691506e+000
<GCONST> 9.995982e+001
<TRANSP> 5
 0.000000e+000 1.000000e+000 0.000000e+000 0.000000e+000 0.000000e+000
 0.000000e+000 4.847866e-001 5.152134e-001 0.000000e+000 0.000000e+000
 0.000000e+000 0.000000e+000 5.032127e-001 4.967873e-001 0.000000e+000
 0.000000e+000 0.000000e+000 0.000000e+000 6.495733e-001 3.504267e-001
 0.000000e+000 0.000000e+000 0.000000e+000 0.000000e+000 0.000000e+000
<ENDHMM>
~h "y"
<BEGINHMM>
<NUMSTATES> 5
<STATE> 2
<MEAN> 25
 8.247573e-001 -5.165151e+000 1.262228e+001 -5.299236e+000 -8.013190e+000 -3.990939e+000 -1.057595e+000 6.840764e+000 -6.450476e+000 2.758445e+000 3.321685e+000 1.824793e+000 -1.680779e-001 -2.290537e-001 7.156844e-001 -5.794293e-001 -6.486232e-001 -4.185697e-001 5.060863e-001 7.174739e-001 -7.270347e-001 4.914814e-001 1.850708e-001 4.878337e-001 3.283858e-001
<VARIANCE> 25
 1.515054e+001 2.909000e+001 4.309318e+001 2.259467e+001 2.693663e+001 3.013172e+001 4.382989e+001 5.187261e+001 4.564954e+001 3.610414e+001 2.969437e+001 2.070637e+001 5.479005e-001 1.368547e+000 2.892016e+000 1.764508e+000 2.100631e+000 1.159426e+000 2.373137e+000 2.665127e+000 3.153669e+000 1.828870e+000 2.046409e+000 9.974084e-001 9.700668e-001
<GCONST> 9.368532e+001
<STATE> 3
<MEAN> 25
 5.347147e-001 -5.864030e+000 1.335139e+001 -6.566517e+000 -8.651144e+000 -5.603041e+000 7.802568e-001 8.626473e+000 -7.341504e+000 4.122227e+000 2.429381e+000 3.066356e+000 3.176250e-003 -1.396122e-001 -1.966157e-001 -2.098565e-001 1.820908e-001 -1.738761e-001 4.609323e-001 2.662871e-001 1.500646e-001 1.219772e-001 -5.260623e-001 2.374651e-001 1.693117e-002
<VARIANCE> 25
 1.063692e+001 2.197177e+001 3.718552e+001 1.733888e+001 2.318618e+001 2.123773e+001 3.455852e+001 3.255286e+001 3.574895e+001 3.022373e+001 2.889794e+001 1.569584e+001 3.603200e-001 9.967315e-001 2.070637e+000 8.077696e-001 1.689354e+000 8.930190e-001 1.587611e+000 1.475304e+000 2.881977e+000 1.680983e+000 2.021607e+000 9.200454e-001 5.716426e-001
<GCONST> 8.658887e+001
<STATE> 4
<MEAN> 25
 1.051996e+000 -4.922207e+000 7.988750e+000 -5.481060e+000 -3.639977e+000 -6.416786e+000 2.445500e+000 8.677592e+000 -1.350179e+000 2.464332e+000 -3.277540e+000 3.751594e+000 8.248186e-003 2.568212e-001 -7.342639e-001 3.430673e-001 5.466655e-001 1.906264e-001 1.122539e-001 -2.102052e-001 6.244339e-001 -3.310834e-001 -4.929579e-001 1.688100e-002 -6.465191e-001
<VARIANCE> 25
 1.286482e+001 3.137351e+001 5.518786e+001 3.008143e+001 3.811341e+001 1.635208e+001 2.783106e+001 2.413459e+001 5.347118e+001 3.303581e+001 4.253874e+001 1.378735e+001 4.122759e-001 1.137337e+000 1.226431e+000 1.011966e+000 1.822278e+000 8.913375e-001 1.481212e+000 1.325311e+000 2.070867e+000 1.357843e+000 2.280814e+000 1.009297e+000 8.495098e-001
<GCONST> 8.848041e+001
<TRANSP> 5
 0.000000e+000 1.000000e+000 0.000000e+000 0.000000e+000 0.000000e+000
 0.000000e+000 6.410952e-001 3.589048e-001 0.000000e+000 0.000000e+000
 0.000000e+000 0.000000e+000 7.254518e-001 2.745482e-001 0.000000e+000
 0.000000e+000 0.000000e+000 0.000000e+000 8.901746e-001 1.098254e-001
 0.000000e+000 0.000000e+000 0.000000e+000 0.000000e+000 0.000000e+000
<ENDHMM>
~h "aa"
<BEGINHMM>
<NUMSTATES> 5
<STATE> 2
<MEAN> 25
 3.249648e+000 -8.457475e+000 -5.172199e+000 -1.014735e+001 9.169103e+000 5.527852e+000 8.386218e-001 8.828531e-001 3.872209e+000 -1.974957e+000 -5.256550e+000 -1.291367e+000 5.143000e-002 -3.887526e-001 -3.510889e-001 -4.731802e-001 7.665252e-001 5.207755e-001 4.193998e-001 -3.868347e-001 -2.883891e-002 -7.924370e-002 -2.635263e-001 9.293365e-002 2.715650e-001
<VARIANCE> 25
 1.181817e+001 1.804203e+001 3.350823e+001 5.343616e+001 3.084657e+001 4.515775e+001 3.980224e+001 3.959745e+001 3.724380e+001 2.868711e+001 3.155983e+001 2.736820e+001 3.889057e-001 9.904808e-001 1.308951e+000 1.987238e+000 1.842644e+000 1.445875e+000 1.997057e+000 1.945753e+000 1.466607e+000 1.690139e+000 1.709446e+000 1.267273e+000 8.919452e-001
<GCONST> 9.104230e+001
<STATE> 3
<MEAN> 25
 3.168780e+000 -8.731246e+000 -6.296360e+000 -1.091599e+001 1.143769e+001 6.905789e+000 2.044657e+000 -1.223167e+000 4.156590e+000 -2.235045e+000 -5.901556e+000 -9.594038e-001 -9.154634e-003 1.183995e-001 -1.811341e-001 1.313208e-001 1.608832e-001 7.427394e-002 7.989990e-002 -2.233233e-001 7.502954e-002 -1.088708e-002 -5.866212e-002 5.464021e-002 -2.783219e-001
<VARIANCE> 25
 8.883021e+000 1.579401e+001 3.028643e+001 4.083258e+001 3.267175e+001 3.601292e+001 3.511229e+001 3.207959e+001 2.981570e+001 3.061880e+001 2.762765e+001 2.504419e+001 2.502483e-001 7.619845e-001 8.331721e-001 1.104857e+000 1.140088e+000 1.153384e+000 1.365907e+000 1.266913e+000 8.654662e-001 1.008690e+000 1.103647e+000 9.840723e-001 7.318671e-001
<GCONST> 8.418100e+001
<STATE> 4
<MEAN> 25
 1.078343e+000 -4.944975e+000 -1.011059e+001 -4.837640e+000 1.036329e+001 5.473323e+000 2.371062e+000 -9.092934e-001 5.361032e+000 -4.550699e+000 -5.651844e+000 -4.701807e-001 -6.066952e-002 3.080000e-001 -3.581947e-002 4.516598e-001 -3.560120e-001 -1.828245e-001 -1.180597e-001 1.168771e-001 6.229991e-003 5.110658e-002 1.244762e-001 -7.315468e-004 -5.048335e-001
<VARIANCE> 25
 1.930596e+001 3.091485e+001 4.438977e+001 8.548874e+001 4.168841e+001 4.396743e+001 3.172046e+001 2.995236e+001 3.014556e+001 3.854055e+001 3.025000e+001 3.172029e+001 6.386552e-001 1.247837e+000 1.502828e+000 1.861296e+000 1.969802e+000 1.725207e+000 2.010260e+000 1.992015e+000 1.708316e+000 1.663060e+000 1.840994e+000 1.603511e+000 1.171365e+000
<GCONST> 9.457159e+001
<TRANSP> 5
 0.000000e+000 1.000000e+000 0.000000e+000 0.000000e+000 0.000000e+000
 0.000000e+000 7.974817e-001 2.025183e-001 0.000000e+000 0.000000e+000
 0.000000e+000 0.000000e+000 8.585374e-001 1.414626e-001 0.000000e+000
 0.000000e+000 0.000000e+000 0.000000e+000 9.331455e-001 6.685447e-002
 0.000000e+000 0.000000e+000 0.000000e+000 0.000000e+000 0.000000e+000
<ENDHMM>
~h "ae"
<BEGINHMM>
<NUMSTATES> 5
<STATE> 2
<MEAN> 25
 2.173394e-001 -3.238153e+000 -1.167026e+000 4.803527e+000 -9.569514e-001 -2.519400e+000 3.349182e+000 2.908392e+000 1.344476e+000 -3.359828e+000 -1.218244e+000 9.035158e-001 3.075532e-001 -6.672685e-001 5.226647e-001 -8.845952e-001 -4.249320e-001 -2.305495e-001 7.346275e-001 5.592178e-001 -3.396330e-001 -1.012253e-001 -2.469025e-001 -3.811940e-001 1.202986e+000
<VARIANCE> 25
 1.982888e+001 8.161858e+001 6.518558e+001 9.034258e+001 4.040529e+001 5.590145e+001 6.249078e+001 8.780026e+001 3.494766e+001 2.884795e+001 3.609647e+001 5.580384e+001 2.128175e+000 3.603713e+000 2.450943e+000 4.929046e+000 2.722594e+000 4.025560e+000 5.510947e+000 4.999197e+000 2.422372e+000 3.153594e+000 2.844536e+000 3.999660e+000 4.402997e+000
<GCONST> 1.090598e+002
<STATE> 3
<MEAN> 25
 1.041447e+000 -4.565025e+000 7.486835e-001 2.369696e+000 -2.475154e+000 -2.638518e+000 4.627206e+000 4.488927e+000 5.748807e-001 -3.829156e+000 -1.474383e+000 -7.546705e-001 2.212978e-001 -7.169689e-001 5.085636e-001 -9.559753e-001 -3.539570e-001 4.607991e-002 3.543782e-001 6.786152e-001 -1.416947e-001 -2.136039e-001 -1.895839e-001 -9.580160e-002 1.220983e+000
<VARIANCE> 25
 1.364512e+001 8.546474e+001 5.001857e+001 7.813344e+001 4.351668e+001 4.677260e+001 6.615515e+001 9.044747e+001 3.366868e+001 2.978700e+001 3.303731e+001 5.027180e+001 1.236035e+000 4.453794e+000 2.777696e+000 4.554533e+000 3.288803e+000 4.049474e+000 5.373563e+000 5.782661e+000 2.504374e+000 2.815731e+000 2.307394e+000 3.799689e+000 6.128412e+000
<GCONST> 1.081263e+002
<STATE> 4
<MEAN> 25
 8.523229e-001 -8.236830e+000 3.823350e+000 -2.087235e+000 -4.905128e+000 -3.696175e+000 7.812121e+000 9.965304e+000 -7.640997e-001 -5.470052e+000 -2.638165e+000 5.939379e-001 1.391030e-001 9.835759e-003 1.749839e-001 -6.416044e-002 1.608815e-001 -8.327890e-002 -1.405271e-001 -4.262114e-002 -9.529680e-002 1.803111e-001 6.036296e-002 -2.980301e-002 1.744121e-001
<VARIANCE> 25
 9.692086e+000 3.969828e+001 3.572647e+001 3.980428e+001 2.969035e+001 3.675195e+001 4.865758e+001 5.022331e+001 2.927861e+001 2.937979e+001 3.317951e+001 2.555150e+001 5.548236e-001 2.799177e+000 2.077555e+000 3.116754e+000 1.827747e+000 1.817153e+000 3.624615e+000 3.907636e+000 1.821182e+000 1.572199e+000 2.077953e+000 2.055378e+000 3.930329e+000
<GCONST> 9.748727e+001
<TRANSP> 5
 0.000000e+000 1.000000e+000 0.000000e+000 0.000000e+000 0.000000e+000
 0.000000e+000 6.179395e-001 3.820605e-001 0.000000e+000 0.000000e+000
 0.000000e+000 0.000000e+000 6.492525e-001 3.507475e-001 0.000000e+000
 0.000000e+000 0.000000e+000 0.000000e+000 8.800806e-001 1.199193e-001
 0.000000e+000 0.000000e+000 0.000000e+000 0.000000e+000 0.000000e+000
<ENDHMM>
~h "ah"
<BEGINHMM>
<NUMSTATES> 5
<STATE> 2
<MEAN> 25
 1.692801e+000 -3.281844e+000 -1.514240e+000 -3.377684e+000 3.335253e+000 9.086764e-002 -9.356813e-001 2.596245e+000 3.055423e+000 -1.596415e-001 -3.135106e+000 -2.834145e-001 3.584709e-002 -7.740509e-002 -9.303040e-002 -7.906250e-002 2.887472e-001 1.069580e-001 1.876979e-001 1.169240e-001 2.149311e-002 -1.038896e-001 -1.473181e-001 8.441204e-002 -1.249575e-001
<VARIANCE> 25
 2.115453e+001 4.321027e+001 4.820148e+001 7.398054e+001 4.175725e+001 5.456392e+001 4.208245e+001 5.201757e+001 3.646152e+001 4.105277e+001 3.835114e+001 3.314730e+001 1.166775e+000 2.940462e+000 2.101616e+000 4.720857e+000 2.624962e+000 2.945714e+000 2.852157e+000 3.785887e+000 2.402061e+000 2.947735e+000 2.726609e+000 2.153935e+000 2.744834e+000
<GCONST> 1.035151e+002
<STATE> 3
<MEAN> 25
 1.475860e+000 -2.573225e+000 -2.110301e+000 -2.365720e+000 3.519667e+000 1.582167e-001 -4.433995e-001 2.359819e+000 3.016649e+000 -5.473495e-001 -2.997935e+000 -6.747231e-002 -3.596315e-002 2.970041e-001 -1.631808e-001 4.061390e-001 -2.362121e-002 3.281381e-002 9.036461e-002 -1.810325e-001 -3.297197e-002 -1.038382e-001 1.502348e-001 7.100855e-002 -4.904410e-001
<VARIANCE> 25
 2.154274e+001 4.533198e+001 4.788948e+001 7.502293e+001 4.302019e+001 5.298871e+001 3.974149e+001 5.094129e+001 3.535309e+001 4.006181e+001 3.894516e+001 3.131221e+001 8.861579e-001 2.326202e+000 1.917671e+000 3.397951e+000 2.370796e+000 2.743986e+000 2.454631e+000 3.257180e+000 2.263122e+000 2.677960e+000 2.386599e+000 1.967325e+000 2.280593e+000
<GCONST> 1.014464e+002
<STATE> 4
<MEAN> 25
 2.616557e-001 -4.353898e-001 -3.899310e+000 1.122298e+000 2.669207e+000 1.907779e-001 1.654553e-001 1.924703e+000 3.440383e+000 -1.595575e+000 -2.164001e+000 6.890809e-001 -1.143466e-001 3.977088e-001 -9.472999e-002 5.327616e-001 -2.770518e-001 -3.380219e-002 3.379420e-002 -3.059487e-001 -5.132820e-002 -7.333882e-002 3.062572e-001 5.623906e-002 -5.307911e-001
<VARIANCE> 25
 2.535144e+001 4.429667e+001 4.964207e+001 7.743820e+001 4.613137e+001 4.852979e+001 4.104012e+001 4.905964e+001 3.759482e+001 4.124457e+001 3.754114e+001 3.239405e+001 1.005804e+000 2.162217e+000 2.236094e+000 2.978909e+000 2.273378e+000 2.727513e+000 2.462968e+000 3.139097e+000 2.364683e+000 2.733866e+000 2.191245e+000 1.996742e+000 2.061468e+000
<GCONST> 1.016050e+002
<TRANSP> 5
 0.000000e+000 1.000000e+000 0.000000e+000 0.000000e+000 0.000000e+000
 0.000000e+000 5.633535e-001 4.366464e-001 0.000000e+000 0.000000e+000
 0.000000e+000 0.000000e+000 5.774947e-001 4.225053e-001 0.000000e+000
 0.000000e+000 0.000000e+000 0.000000e+000 7.510450e-001 2.489550e-001
 0.000000e+000 0.000000e+000 0.000000e+000 0.000000e+000 0.000000e+000
<ENDHMM>
~h "ao"
<BEGINHMM>
<NUMSTATES> 5
<STATE> 2
<MEAN> 25
 5.807744e+000 1.181184e+000 4.793085e-001 -8.401563e+000 6.842054e-001 6.125108e+000 -5.125429e+000 -5.333976e+000 2.204356e+000 3.498095e+000 2.812770e+000 3.744143e-001 7.514513e-001 -2.570032e-001 4.675338e-001 -1.668654e+000 -2.663587e-001 7.655102e-001 -5.257403e-001 -1.344156e-001 -5.096061e-001 8.333768e-001 3.076602e-001 1.646458e-001 5.342310e-001
<VARIANCE> 25
 1.810256e+001 3.054082e+001 3.480634e+001 9.907197e+001 2.755721e+001 3.438842e+001 1.169639e+002 3.718164e+001 8.405955e+001 5.307576e+001 6.988599e+001 3.039043e+001 1.577816e+000 1.984962e+000 3.049971e+000 7.446452e+000 3.338370e+000 5.004803e+000 3.035959e+000 3.420382e+000 3.168090e+000 3.145633e+000 3.681530e+000 1.828310e+000 2.380481e+000
<GCONST> 1.061974e+002
<STATE> 3
<MEAN> 25
 7.063172e+000 4.204512e-001 6.933647e-001 -1.074971e+001 1.269586e+000 6.092803e+000 -5.906305e+000 -5.087320e+000 4.292048e-001 5.247344e+000 3.689323e+000 7.218513e-001 2.350377e-001 -1.149671e-001 -2.545027e-002 -2.547574e-001 3.123411e-001 -1.919508e-001 -1.516895e-001 8.076855e-002 -4.316133e-001 4.571657e-001 1.437814e-001 1.540422e-003 1.684532e-001
<VARIANCE> 25
 1.018884e+001 2.529751e+001 3.407225e+001 7.984970e+001 3.352074e+001 3.623426e+001 9.631285e+001 4.965933e+001 6.591107e+001 4.957717e+001 6.164554e+001 2.681350e+001 5.774873e-001 2.113652e+000 2.410961e+000 5.202380e+000 3.697745e+000 3.434052e+000 2.680469e+000 2.830827e+000 3.073034e+000 2.113719e+000 3.513760e+000 1.161712e+000 2.163732e+000
<GCONST> 1.018307e+002
<STATE> 4
<MEAN> 25
 7.597301e+000 1.340901e+000 -1.301976e+000 -9.917100e+000 3.248480e+000 3.859305e+000 -5.517568e+000 -3.985779e+000 -6.076046e-001 8.393967e+000 1.231771e+000 6.786425e-001 -1.169231e-001 2.079916e-001 -2.720272e-001 8.802258e-001 -6.970383e-002 -4.882811e-001 1.735596e-001 3.086914e-001 6.377414e-002 -1.799983e-001 -2.330756e-001 -1.113173e-001 -4.859717e-001
<VARIANCE> 25
 8.366343e+000 3.045634e+001 3.156952e+001 9.204948e+001 2.185517e+001 2.708387e+001 7.112191e+001 6.115945e+001 6.177839e+001 3.827119e+001 4.997686e+001 2.851500e+001 5.083849e-001 1.697738e+000 1.954922e+000 3.378893e+000 2.425290e+000 3.030842e+000 2.696274e+000 2.527848e+000 2.968718e+000 2.133819e+000 2.830671e+000 2.013860e+000 1.376386e+000
<GCONST> 9.881423e+001
<TRANSP> 5
 0.000000e+000 1.000000e+000 0.000000e+000 0.000000e+000 0.000000e+000
 0.000000e+000 6.604898e-001 3.395102e-001 0.000000e+000 0.000000e+000
 0.000000e+000 0.000000e+000 6.863809e-001 3.136190e-001 0.000000e+000
 0.000000e+000 0.000000e+000 0.000000e+000 9.147516e-001 8.524834e-002
 0.000000e+000 0.000000e+000 0.000000e+000 0.000000e+000 0.000000e+000
<ENDHMM>
~h "ch"
<BEGINHMM>
<NUMSTATES> 5
<STATE> 2
<MEAN> 25
 -1.240530e+000 7.757521e+000 5.586869e+000 3.833869e+000 -4.426393e+000 -2.147911e+000 -4.553206e-001 -3.929455e+000 -4.320107e+000 3.427856e-001 -2.598009e+000 -1.677807e+000 -6.492751e-001 2.886055e-001 2.102623e-001 -2.769232e-002 -5.890398e-002 1.753718e-001 4.424356e-001 8.068576e-002 -2.282005e-001 -1.524297e-001 5.903177e-002 -7.240986e-002 -5.864739e-001
<VARIANCE> 25
 8.400675e+001 2.068479e+001 9.228907e+001 5.097396e+001 4.433694e+001 3.119988e+001 5.146650e+001 3.556927e+001 7.895533e+001 7.538795e+001 2.339523e+001 2.196651e+001 2.815625e+000 2.069627e+000 2.745217e+000 1.481507e+000 3.472830e+000 2.210037e+000 4.951575e+000 3.047262e+000 3.748308e+000 2.559122e+000 1.850049e+000 2.233766e+000 2.097307e+000
<GCONST> 1.038796e+002
<STATE> 3
<MEAN> 25
 -2.568758e+000 8.869707e+000 1.543446e+000 7.114139e+000 -3.563530e+000 -1.977188e+000 2.449331e+000 -1.942256e+000 -9.286941e-001 -3.866408e+000 -7.418794e-001 -2.384741e+000 -1.653306e+000 1.213225e-002 -3.379912e-001 6.243503e-003 4.431593e-001 -2.028567e-001 6.814380e-001 9.513538e-002 -7.295939e-002 -4.296168e-001 3.538804e-001 1.738259e-001 -1.337377e-001
<VARIANCE> 25
 1.023658e+002 2.074052e+001 5.104913e+001 3.524515e+001 3.821666e+001 2.707948e+001 3.208306e+001 4.150920e+001 4.462158e+001 5.123747e+001 2.842015e+001 2.196554e+001 3.164370e+000 1.945523e+000 2.646809e+000 2.596150e+000 3.956369e+000 1.826091e+000 3.454832e+000 2.757820e+000 3.262665e+000 1.976536e+000 2.032101e+000 2.592020e+000 2.800765e+000
<GCONST> 1.019421e+002
<STATE> 4
<MEAN> 25
 -1.402505e+001 6.557570e+000 -1.203662e+000 7.096372e+000 -1.193467e+000 -4.606081e+000 5.475591e+000 -9.315667e-001 2.467779e-001 -5.027473e+000 3.929806e+000 -3.576332e-001 -2.692043e-001 -4.809049e-001 1.044921e+000 -5.185696e-001 -5.189511e-001 -9.894405e-002 -4.365095e-001 1.193215e-002 -6.361439e-001 3.190237e-001 2.280740e-001 -3.134465e-002 9.933489e-001
<VARIANCE> 25
 6.995084e+001 3.309919e+001 8.293566e+001 3.192773e+001 3.246337e+001 2.273227e+001 5.115620e+001 5.704060e+001 4.605967e+001 2.126478e+001 2.499811e+001 2.517465e+001 9.552009e+000 1.910158e+000 7.077908e+000 3.458673e+000 3.539086e+000 1.495861e+000 4.066644e+000 1.972556e+000 3.198279e+000 1.903241e+000 2.723663e+000 2.034485e+000 2.252568e+000
<GCONST> 1.036709e+002
<TRANSP> 5
 0.000000e+000 1.000000e+000 0.000000e+000 0.000000e+000 0.000000e+000
 0.000000e+000 7.926242e-001 2.073757e-001 0.000000e+000 0.000000e+000
 0.000000e+000 0.000000e+000 7.044520e-001 2.955480e-001 0.000000e+000
 0.000000e+000 0.000000e+000 0.000000e+000 9.264486e-001 7.355132e-002
 0.000000e+000 0.000000e+000 0.000000e+000 0.000000e+000 0.000000e+000
<ENDHMM>
~h "eh"
<BEGINHMM>
<NUMSTATES> 5
<STATE> 2
<MEAN> 25
 -2.493220e-001 -1.778464e+000 1.555820e+001 -3.745456e+000 -1.245694e+001 -3.841726e+000 -1.159027e+000 2.693578e+000 -1.051073e+001 7.425239e+000 4.398435e+000 1.736448e+000 -1.270128e-001 -9.308217e-002 8.026127e-001 -6.856800e-001 -4.300287e-001 7.825936e-002 7.473484e-002 3.343601e-002 -5.270109e-001 8.041376e-001 1.348821e-001 2.363216e-002 3.592110e-001
<VARIANCE> 25
 1.351249e+001 2.581884e+001 3.829083e+001 3.284628e+001 2.140050e+001 3.054206e+001 3.859328e+001 2.902938e+001 3.648098e+001 4.223424e+001 2.494969e+001 2.290628e+001 6.361549e-001 1.175784e+000 2.586899e+000 2.261568e+000 1.636017e+000 1.457259e+000 1.733724e+000 1.749426e+000 2.369351e+000 2.326106e+000 1.274566e+000 1.180016e+000 1.979618e+000
<GCONST> 9.238326e+001
<STATE> 3
<MEAN> 25
 -9.996685e-001 -6.775990e-001 1.687923e+001 -4.214229e+000 -1.252114e+001 -3.716974e+000 -4.203520e-001 1.666134e+000 -1.129617e+001 8.879330e+000 4.561259e+000 1.218516e+000 -7.623019e-002 2.370394e-001 -9.646598e-002 1.706290e-001 3.969072e-002 6.105358e-002 1.906627e-001 -1.273605e-001 6.848408e-002 -1.004137e-001 3.098982e-002 -1.377154e-001 -4.596965e-001
<VARIANCE> 25
 1.033744e+001 2.348158e+001 2.804102e+001 3.077529e+001 2.122591e+001 2.690626e+001 3.330619e+001 2.510369e+001 3.204357e+001 3.471819e+001 2.288984e+001 2.536307e+001 3.998133e-001 8.413104e-001 1.743464e+000 1.482160e+000 1.168224e+000 1.067862e+000 1.494275e+000 1.306821e+000 1.844073e+000 1.596004e+000 1.102414e+000 9.988624e-001 1.527950e+000
<GCONST> 8.700396e+001
<STATE> 4
<MEAN> 25
 -2.371838e+000 2.874943e+000 1.105839e+001 8.339119e-001 -1.037289e+001 -3.311135e+000 2.657947e+000 4.944983e-001 -7.651579e+000 4.299178e+000 4.159634e+000 1.291319e-001 -1.009327e-001 3.129291e-001 -8.013484e-001 6.350651e-001 3.548063e-001 1.077370e-001 1.062900e-001 -1.113108e-001 4.709492e-001 -6.365421e-001 -8.129333e-002 -4.780465e-002 -7.553286e-001
<VARIANCE> 25
 1.435678e+001 3.355374e+001 6.862791e+001 4.812875e+001 4.087844e+001 3.369316e+001 4.475319e+001 2.890086e+001 5.364060e+001 5.085497e+001 2.966122e+001 2.899120e+001 5.962907e-001 1.489995e+000 2.158361e+000 1.914712e+000 2.448188e+000 1.822721e+000 2.380129e+000 1.977975e+000 2.535853e+000 2.533452e+000 1.861167e+000 1.767380e+000 1.364975e+000
<GCONST> 9.699545e+001
<TRANSP> 5
 0.000000e+000 1.000000e+000 0.000000e+000 0.000000e+000 0.000000e+000
 0.000000e+000 8.226938e-001 1.773062e-001 0.000000e+000 0.000000e+000
 0.000000e+000 0.000000e+000 8.490322e-001 1.509678e-001 0.000000e+000
 0.000000e+000 0.000000e+000 0.000000e+000 9.003166e-001 9.968343e-002
 0.000000e+000 0.000000e+000 0.000000e+000 0.000000e+000 0.000000e+000
<ENDHMM>
~h "ih"
<BEGINHMM>
<NUMSTATES> 5
<STATE> 2
<MEAN> 25
 -2.936002e+000 3.434253e+000 1.008544e+001 2.452189e+000 -8.668131e+000 -1.396396e+000 -5.382615e-001 -2.662466e+000 -6.959047e+000 2.165643e-001 4.546994e+000 -4.476447e-001 2.094351e-001 -4.756291e-002 1.786699e+000 -6.964161e-001 -8.702614e-001 -4.017454e-003 -5.196715e-001 5.290823e-002 -1.278742e+000 8.694599e-001 4.217494e-001 -5.082866e-002 7.463737e-001
<VARIANCE> 25
 3.346925e+001 3.071970e+001 1.410683e+002 5.586971e+001 4.458843e+001 4.370966e+001 6.075237e+001 3.054136e+001 8.273859e+001 5.169671e+001 3.993618e+001 3.025870e+001 2.105723e+000 2.319148e+000 9.529483e+000 3.534949e+000 3.895543e+000 3.804287e+000 3.920858e+000 2.693496e+000 5.300637e+000 4.292735e+000 3.197262e+000 2.712220e+000 3.491989e+000
<GCONST> 1.091051e+002
<STATE> 3
<MEAN> 25
 -2.258872e+000 4.082015e+000 1.315030e+001 8.950945e-001 -9.609322e+000 -1.116900e+000 -1.861884e+000 -2.402666e+000 -9.264138e+000 2.292175e+000 4.884732e+000 -5.845993e-001 2.424915e-001 1.313368e-001 5.166169e-001 -2.072077e-001 -1.149164e-001 4.504250e-002 -3.271617e-001 2.836212e-002 -3.041763e-001 3.275405e-001 4.450682e-003 -3.869047e-002 -2.742143e-002
<VARIANCE> 25
 2.343229e+001 2.689148e+001 9.949819e+001 5.052250e+001 3.550337e+001 3.748909e+001 4.772281e+001 2.807952e+001 6.450327e+001 4.451261e+001 4.068741e+001 2.836637e+001 1.277562e+000 1.627831e+000 8.184130e+000 3.437737e+000 3.109475e+000 2.774003e+000 3.027902e+000 2.196058e+000 4.867007e+000 4.053770e+000 2.479881e+000 2.038820e+000 2.779265e+000
<GCONST> 1.040665e+002
<STATE> 4
<MEAN> 25
 -2.170877e+000 5.101127e+000 1.152483e+001 1.709165e+000 -8.270953e+000 -9.848666e-001 -1.364756e+000 -2.542769e+000 -8.174103e+000 2.031213e+000 4.114570e+000 -3.118106e-001 1.494612e-001 5.390707e-002 -4.098457e-001 2.457124e-001 3.269396e-001 -1.375249e-001 6.395785e-002 -7.608236e-002 3.882609e-001 -9.414555e-002 -1.848783e-001 2.503053e-002 -1.103275e-001
<VARIANCE> 25
 2.468721e+001 2.751902e+001 1.020494e+002 5.186105e+001 3.469773e+001 3.373606e+001 4.415368e+001 2.931508e+001 6.240680e+001 4.892475e+001 3.428741e+001 2.558545e+001 1.213320e+000 1.753223e+000 5.883587e+000 3.593866e+000 2.938325e+000 2.597556e+000 3.290214e+000 2.529958e+000 4.394199e+000 3.522931e+000 2.341293e+000 1.963802e+000 2.817355e+000
<GCONST> 1.033326e+002
<TRANSP> 5
 0.000000e+000 1.000000e+000 0.000000e+000 0.000000e+000 0.000000e+000
 0.000000e+000 7.315748e-001 2.684253e-001 0.000000e+000 0.000000e+000
 0.000000e+000 0.000000e+000 7.588921e-001 2.411079e-001 0.000000e+000
 0.000000e+000 0.000000e+000 0.000000e+000 8.726512e-001 1.273488e-001
 0.000000e+000 0.000000e+000 0.000000e+000 0.000000e+000 0.000000e+000
<ENDHMM>
~h "iy"
<BEGINHMM>
<NUMSTATES> 5
<STATE> 2
<MEAN> 25
 6.811447e-001 9.825141e-001 1.448931e+001 -3.569037e+000 -7.093987e+000 1.443455e+000 -4.882828e+000 1.434269e+000 -1.165926e+001 3.671403e+000 2.409461e+000 1.472298e+000 3.895853e-002 3.902467e-001 -2.047160e-001 2.564516e-001 6.207798e-002 1.875961e-001 2.919972e-002 -5.081702e-001 1.427985e-001 -1.204130e-001 5.673363e-002 -2.035941e-001 -4.286835e-001
<VARIANCE> 25
 1.980263e+001 1.871448e+001 5.846456e+001 3.280617e+001 3.331053e+001 1.510085e+001 3.087916e+001 4.340772e+001 3.111826e+001 2.516845e+001 2.132621e+001 2.940867e+001 5.191628e-001 5.316836e-001 1.141561e+000 1.212443e+000 1.617304e+000 1.485012e+000 9.467782e-001 1.275342e+000 1.190741e+000 1.497447e+000 2.066187e+000 1.225099e+000 5.814204e-001
<GCONST> 8.701431e+001
<STATE> 3
<MEAN> 25
 5.688140e-001 6.305223e+000 6.947217e+000 2.258999e+000 -4.062150e+000 1.553886e+000 -4.527660e-001 -4.358969e+000 -5.299847e+000 -5.957326e-001 2.427074e+000 -9.414030e-001 2.401976e-002 2.044373e-001 -3.226265e-001 3.897126e-001 -2.143071e-001 -4.446105e-002 1.719065e-001 -1.454987e-001 3.510413e-001 -3.048543e-001 -1.743973e-002 6.959622e-002 -4.799965e-001
<VARIANCE> 25
 3.066733e+001 2.766713e+001 7.959771e+001 6.551989e+001 3.735609e+001 1.999370e+001 5.170137e+001 2.792825e+001 4.691706e+001 5.603846e+001 3.230746e+001 2.360478e+001 8.156710e-001 8.959070e-001 2.339547e+000 1.964814e+000 2.054122e+000 1.544617e+000 1.890777e+000 2.128502e+000 2.602127e+000 2.189017e+000 2.644150e+000 1.806261e+000 6.075749e-001
<GCONST> 9.621574e+001
<STATE> 4
<MEAN> 25
 -6.808301e-001 7.129212e+000 5.656935e+000 2.365124e+000 -4.089336e+000 1.213880e+000 1.720830e+000 -3.105998e+000 -3.631269e+000 -2.728409e-002 1.722725e+000 -5.704924e-001 -1.180572e-001 -1.871752e-001 -2.403634e-001 2.252073e-001 5.390910e-002 -5.659689e-002 1.019542e-001 2.824093e-001 2.271484e-001 -3.347292e-002 -1.415341e-001 9.251993e-002 -2.720188e-001
<VARIANCE> 25
 1.877606e+001 4.095105e+001 1.028432e+002 8.570415e+001 5.123055e+001 2.370662e+001 4.643609e+001 2.684216e+001 6.306457e+001 7.769174e+001 3.101680e+001 1.554292e+001 9.023488e-001 1.110286e+000 2.061792e+000 2.451884e+000 2.288995e+000 1.821056e+000 1.770897e+000 2.002112e+000 2.196905e+000 2.100611e+000 2.412605e+000 1.288509e+000 7.787785e-001
<GCONST> 9.731013e+001
<TRANSP> 5
 0.000000e+000 1.000000e+000 0.000000e+000 0.000000e+000 0.000000e+000
 0.000000e+000 9.473918e-001 5.260817e-002 0.000000e+000 0.000000e+000
 0.000000e+000 0.000000e+000 8.484544e-001 1.515457e-001 0.000000e+000
 0.000000e+000 0.000000e+000 0.000000e+000 9.182333e-001 8.176668e-002
 0.000000e+000 0.000000e+000 0.000000e+000 0.000000e+000 0.000000e+000
<ENDHMM>
~h "th"
<BEGINHMM>
<NUMSTATES> 5
<STATE> 2
<MEAN> 25
 1.524796e-001 2.160711e+000 -8.164948e+000 9.706283e-001 2.086428e+000 7.404978e-001 -1.241663e+000 1.179973e+000 4.310718e+000 -2.881350e+000 -7.223303e-001 -4.265950e+000 -4.519424e-001 8.710095e-002 -5.595942e-001 3.702260e-001 -2.813225e-001 -1.343476e-001 1.257678e-001 -9.739028e-002 1.190320e-001 -4.956744e-001 1.316837e-001 -4.902763e-002 -2.919596e-001
<VARIANCE> 25
 2.639101e+001 2.821987e+001 3.958512e+001 5.550918e+001 4.010321e+001 4.120491e+001 3.947231e+001 3.958508e+001 3.238593e+001 4.269453e+001 3.253102e+001 3.482490e+001 2.695177e+000 3.312462e+000 2.879775e+000 5.570328e+000 2.685717e+000 3.423908e+000 4.687278e+000 3.901757e+000 2.603311e+000 3.981123e+000 3.457448e+000 2.181948e+000 7.693048e+000
<GCONST> 1.057721e+002
<STATE> 3
<MEAN> 25
 -1.144337e+000 1.635788e+000 -9.127094e+000 1.318468e+000 1.259372e+000 -6.494468e-002 -8.376507e-001 7.871882e-001 4.651069e+000 -3.830733e+000 -6.185281e-001 -3.980819e+000 -2.446562e-001 -4.507960e-001 1.044538e-001 -3.641001e-001 -1.071167e-001 -2.897183e-001 -2.210764e-002 -3.209340e-002 1.464254e-001 -1.138908e-001 -8.450621e-002 1.202109e-001 7.001550e-001
<VARIANCE> 25
 3.099558e+001 2.729238e+001 4.778431e+001 5.701569e+001 4.076486e+001 4.623849e+001 4.231461e+001 3.668311e+001 2.990418e+001 4.495919e+001 3.499201e+001 3.464328e+001 3.836040e+000 3.045209e+000 3.859647e+000 6.931212e+000 3.712764e+000 3.583854e+000 5.355692e+000 4.207479e+000 2.713049e+000 5.151701e+000 4.460185e+000 2.288109e+000 7.924943e+000
<GCONST> 1.082687e+002
<STATE> 4
<MEAN> 25
 -2.270489e+000 6.120827e-001 -8.411374e+000 1.582347e+000 8.933749e-001 -1.185367e+000 -5.828652e-001 7.106825e-001 5.126352e+000 -4.443568e+000 -7.850220e-001 -2.554987e+000 5.609987e-002 -4.830302e-001 7.951325e-001 -6.398445e-001 5.553110e-002 -1.906464e-001 -1.896500e-001 3.042648e-002 3.828536e-002 2.061461e-001 -1.174630e-001 2.327336e-001 1.022206e+000
<VARIANCE> 25
 3.136021e+001 3.236318e+001 6.633208e+001 7.866196e+001 4.745145e+001 4.541789e+001 4.323637e+001 3.620396e+001 2.993439e+001 4.591213e+001 3.449184e+001 3.887494e+001 4.416811e+000 2.679058e+000 4.379860e+000 7.382684e+000 4.197104e+000 3.667705e+000 5.645401e+000 3.832691e+000 2.811713e+000 5.271037e+000 4.447985e+000 2.722446e+000 5.772456e+000
<GCONST> 1.095861e+002
<TRANSP> 5
 0.000000e+000 1.000000e+000 0.000000e+000 0.000000e+000 0.000000e+000
 0.000000e+000 7.238739e-001 2.761261e-001 0.000000e+000 0.000000e+000
 0.000000e+000 0.000000e+000 7.086198e-001 2.913802e-001 0.000000e+000
 0.000000e+000 0.000000e+000 0.000000e+000 7.942653e-001 2.057347e-001
 0.000000e+000 0.000000e+000 0.000000e+000 0.000000e+000 0.000000e+000
<ENDHMM>
~h "uh"
<BEGINHMM>
<NUMSTATES> 5
<STATE> 2
<MEAN> 25
 2.631626e+000 4.713860e+000 5.990652e-001 -1.205738e-001 -2.435295e+000 1.603476e+000 -5.921706e+000 -3.542606e+000 -2.830177e+000 7.946966e-001 6.522046e+000 -8.428649e-001 8.851768e-001 5.457867e-002 6.737413e-001 -4.019883e-001 -9.631743e-002 6.767253e-001 -1.026326e+000 -5.818683e-001 -7.653562e-001 8.723457e-001 4.059871e-001 -3.823247e-002 1.484814e-001
<VARIANCE> 25
 5.068692e+001 2.263237e+001 5.084648e+001 6.693984e+001 3.669105e+001 6.449065e+001 9.298542e+001 4.746788e+001 6.630222e+001 5.159386e+001 3.864628e+001 2.314233e+001 3.913397e+000 1.944906e+000 3.925900e+000 6.280699e+000 2.447258e+000 3.787280e+000 7.420315e+000 4.513597e+000 4.379231e+000 5.386169e+000 2.936008e+000 1.839438e+000 2.256974e+000
<GCONST> 1.088537e+002
<STATE> 3
<MEAN> 25
 4.196544e+000 4.784399e+000 1.584698e+000 -4.061528e-001 -2.536457e+000 3.355036e+000 -7.416608e+000 -5.062938e+000 -4.607323e+000 2.294063e+000 6.840669e+000 -6.738964e-001 3.461196e-001 6.526805e-003 8.802127e-002 2.620977e-001 -1.680826e-002 3.568108e-001 -2.718542e-001 -3.129116e-001 -2.837546e-001 5.238745e-001 -2.216045e-001 -1.263278e-002 -9.809114e-002
<VARIANCE> 25
 3.948734e+001 2.177309e+001 5.189827e+001 7.071620e+001 4.113647e+001 5.071337e+001 7.578722e+001 4.450292e+001 5.870402e+001 4.729804e+001 3.891538e+001 2.149289e+001 1.873190e+000 1.692440e+000 2.614398e+000 5.336146e+000 2.604352e+000 3.844047e+000 5.643763e+000 3.350611e+000 4.205065e+000 4.149768e+000 3.068569e+000 1.843632e+000 2.479393e+000
<GCONST> 1.058693e+002
<STATE> 4
<MEAN> 25
 4.663534e+000 5.147477e+000 1.564257e+000 1.346434e+000 -1.951127e+000 3.663568e+000 -8.951187e+000 -5.275241e+000 -5.874514e+000 3.844127e+000 4.930568e+000 -7.831470e-001 -1.509676e-001 -4.856291e-002 -1.980055e-001 5.645588e-001 5.496169e-002 -2.392587e-001 2.099443e-001 -3.971360e-002 3.226264e-001 6.737706e-002 -4.840574e-001 1.273315e-001 -2.769732e-001
<VARIANCE> 25
 2.501984e+001 2.475778e+001 5.914816e+001 7.499675e+001 3.868019e+001 5.421966e+001 6.390348e+001 3.543661e+001 6.062107e+001 5.411312e+001 4.107347e+001 2.453309e+001 1.051291e+000 1.814003e+000 1.924642e+000 3.363077e+000 1.834028e+000 3.186748e+000 3.472564e+000 2.341349e+000 3.181314e+000 3.294502e+000 2.518856e+000 1.727729e+000 2.060082e+000
<GCONST> 1.020750e+002
<TRANSP> 5
 0.000000e+000 1.000000e+000 0.000000e+000 0.000000e+000 0.000000e+000
 0.000000e+000 6.259254e-001 3.740747e-001 0.000000e+000 0.000000e+000
 0.000000e+000 0.000000e+000 6.467054e-001 3.532946e-001 0.000000e+000
 0.000000e+000 0.000000e+000 0.000000e+000 8.524494e-001 1.475506e-001
 0.000000e+000 0.000000e+000 0.000000e+000 0.000000e+000 0.000000e+000
<ENDHMM>
~h "sil"
<BEGINHMM>
<NUMSTATES> 5
<STATE> 2
<MEAN> 25
 -5.917117e+000 3.857210e+000 -7.842377e+000 9.671308e+000 2.754104e+000 1.787406e+000 5.477612e+000 -1.521966e+000 3.839053e+000 -4.597430e+000 1.638144e+000 1.873407e+000 5.669954e-001 -2.681992e-001 -1.557450e-001 -4.115680e-001 -1.346753e-001 2.983301e-002 -4.556610e-001 -4.700954e-001 -6.055922e-001 -9.264262e-002 -7.944428e-002 -5.352133e-001 1.026263e+000
<VARIANCE> 25
 4.127358e+001 4.710106e+001 6.092481e+001 5.774874e+001 6.879710e+001 5.862873e+001 4.292054e+001 4.174427e+001 4.302166e+001 4.667842e+001 3.351166e+001 2.875472e+001 3.462164e+000 3.319185e+000 3.520569e+000 7.451226e+000 2.635431e+000 3.943071e+000 3.831130e+000 3.261460e+000 3.356059e+000 3.232067e+000 2.532642e+000 2.356745e+000 6.029076e+000
<GCONST> 1.084961e+002
<STATE> 3
<MEAN> 25
 -1.973741e+000 2.321594e+000 -6.867467e+000 4.009688e+000 2.541317e+000 2.486238e+000 1.384241e+000 -3.320477e+000 4.367343e-001 -4.288401e+000 8.326756e-001 4.015635e-001 7.507604e-001 -7.320803e-001 4.828682e-001 -1.542639e+000 2.387900e-001 5.955569e-001 -5.710281e-001 -4.759933e-002 -7.481046e-001 9.905621e-002 2.252269e-001 -1.857345e-001 1.418412e+000
<VARIANCE> 25
 3.426498e+001 5.742873e+001 7.140295e+001 1.070953e+002 8.312862e+001 6.373926e+001 5.160011e+001 5.445991e+001 4.061644e+001 5.862070e+001 3.445786e+001 2.768003e+001 3.023929e+000 4.283522e+000 5.237614e+000 7.740734e+000 3.390559e+000 3.533059e+000 4.379097e+000 3.678936e+000 3.335205e+000 3.869681e+000 2.888133e+000 2.020176e+000 5.912408e+000
<GCONST> 1.112504e+002
<STATE> 4
<MEAN> 25
 -2.920952e+000 2.924525e+000 -5.618503e+000 3.770089e+000 1.459005e+000 2.589049e+000 2.787157e+000 -1.727599e+000 3.531291e-001 -5.652734e+000 2.953368e+000 1.542554e+000 -8.688665e-003 -1.881921e-001 -1.307605e-001 -9.419910e-002 1.466371e-001 2.283193e-001 2.112172e-002 1.882646e-001 -1.110584e-001 4.575104e-003 2.562854e-001 1.806308e-001 1.066075e-001
<VARIANCE> 25
 4.255011e+001 7.794758e+001 5.510677e+001 1.293874e+002 7.668813e+001 1.019353e+002 3.316034e+001 5.734372e+001 2.955809e+001 4.269267e+001 3.366363e+001 2.859941e+001 8.465527e-001 1.655610e+000 1.697082e+000 2.681030e+000 2.073962e+000 2.108485e+000 2.473025e+000 2.201057e+000 1.875066e+000 2.419692e+000 2.151934e+000 1.735155e+000 1.527645e+000
<GCONST> 1.017264e+002
<TRANSP> 5
 0.000000e+000 1.000000e+000 0.000000e+000 0.000000e+000 0.000000e+000
 0.000000e+000 6.703318e-001 3.296682e-001 0.000000e+000 0.000000e+000
 0.000000e+000 0.000000e+000 5.459422e-001 4.540578e-001 0.000000e+000
 0.000000e+000 0.000000e+000 0.000000e+000 7.379774e-001 2.620225e-001
 0.000000e+000 0.000000e+000 0.000000e+000 0.000000e+000 0.000000e+000
<ENDHMM>
